X    Y
-2.0000000000e+01   7.4060110781e-19
-1.9990231990e+01   9.2789610837e-06
-1.9980463980e+01   1.8557907476e-05
-1.9970695971e+01   2.7836824484e-05
-1.9960927961e+01   3.7115697409e-05
-1.9951159951e+01   4.6394511550e-05
-1.9941391941e+01   5.5673252194e-05
-1.9931623932e+01   6.4951904621e-05
-1.9921855922e+01   7.4230454098e-05
-1.9912087912e+01   8.3508885879e-05
-1.9902319902e+01   9.2787185202e-05
-1.9892551893e+01   1.0206533729e-04
-1.9882783883e+01   1.1134332733e-04
-1.9873015873e+01   1.2062114052e-04
-1.9863247863e+01   1.2989876200e-04
-1.9853479853e+01   1.3917617691e-04
-1.9843711844e+01   1.4845337035e-04
-1.9833943834e+01   1.5773032738e-04
-1.9824175824e+01   1.6700703306e-04
-1.9814407814e+01   1.7628347239e-04
-1.9804639805e+01   1.8555963034e-04
-1.9794871795e+01   1.9483549184e-04
-1.9785103785e+01   2.0411104179e-04
-1.9775335775e+01   2.1338626505e-04
-1.9765567766e+01   2.2266114643e-04
-1.9755799756e+01   2.3193567068e-04
-1.9746031746e+01   2.4120982254e-04
-1.9736263736e+01   2.5048358666e-04
-1.9726495726e+01   2.5975694766e-04
-1.9716727717e+01   2.6902989012e-04
-1.9706959707e+01   2.7830239853e-04
-1.9697191697e+01   2.8757445736e-04
-1.9687423687e+01   2.9684605098e-04
-1.9677655678e+01   3.0611716374e-04
-1.9667887668e+01   3.1538777990e-04
-1.9658119658e+01   3.2465788367e-04
-1.9648351648e+01   3.3392745918e-04
-1.9638583639e+01   3.4319649049e-04
-1.9628815629e+01   3.5246496161e-04
-1.9619047619e+01   3.6173285645e-04
-1.9609279609e+01   3.7100015887e-04
-1.9599511600e+01   3.8026685262e-04
-1.9589743590e+01   3.8953292142e-04
-1.9579975580e+01   3.9879834885e-04
-1.9570207570e+01   4.0806311846e-04
-1.9560439560e+01   4.1732721368e-04
-1.9550671551e+01   4.2659061787e-04
-1.9540903541e+01   4.3585331428e-04
-1.9531135531e+01   4.4511528611e-04
-1.9521367521e+01   4.5437651642e-04
-1.9511599512e+01   4.6363698820e-04
-1.9501831502e+01   4.7289668434e-04
-1.9492063492e+01   4.8215558763e-04
-1.9482295482e+01   4.9141368076e-04
-1.9472527473e+01   5.0067094631e-04
-1.9462759463e+01   5.0992736676e-04
-1.9452991453e+01   5.1918292449e-04
-1.9443223443e+01   5.2843760175e-04
-1.9433455433e+01   5.3769138070e-04
-1.9423687424e+01   5.4694424337e-04
-1.9413919414e+01   5.5619617168e-04
-1.9404151404e+01   5.6544714745e-04
-1.9394383394e+01   5.7469715235e-04
-1.9384615385e+01   5.8394616794e-04
-1.9374847375e+01   5.9319417568e-04
-1.9365079365e+01   6.0244115686e-04
-1.9355311355e+01   6.1168709268e-04
-1.9345543346e+01   6.2093196420e-04
-1.9335775336e+01   6.3017575233e-04
-1.9326007326e+01   6.3941843786e-04
-1.9316239316e+01   6.4866000146e-04
-1.9306471306e+01   6.5790042363e-04
-1.9296703297e+01   6.6713968475e-04
-1.9286935287e+01   6.7637776506e-04
-1.9277167277e+01   6.8561464464e-04
-1.9267399267e+01   6.9485030343e-04
-1.9257631258e+01   7.0408472124e-04
-1.9247863248e+01   7.1331787769e-04
-1.9238095238e+01   7.2254975229e-04
-1.9228327228e+01   7.3178032437e-04
-1.9218559219e+01   7.4100957310e-04
-1.9208791209e+01   7.5023747751e-04
-1.9199023199e+01   7.5946401646e-04
-1.9189255189e+01   7.6868916863e-04
-1.9179487179e+01   7.7791291256e-04
-1.9169719170e+01   7.8713522662e-04
-1.9159951160e+01   7.9635608898e-04
-1.9150183150e+01   8.0557547769e-04
-1.9140415140e+01   8.1479337057e-04
-1.9130647131e+01   8.2400974530e-04
-1.9120879121e+01   8.3322457938e-04
-1.9111111111e+01   8.4243785012e-04
-1.9101343101e+01   8.5164953464e-04
-1.9091575092e+01   8.6085960990e-04
-1.9081807082e+01   8.7006805265e-04
-1.9072039072e+01   8.7927483945e-04
-1.9062271062e+01   8.8847994670e-04
-1.9052503053e+01   8.9768335057e-04
-1.9042735043e+01   9.0688502706e-04
-1.9032967033e+01   9.1608495195e-04
-1.9023199023e+01   9.2528310084e-04
-1.9013431013e+01   9.3447944912e-04
-1.9003663004e+01   9.4367397197e-04
-1.8993894994e+01   9.5286664438e-04
-1.8984126984e+01   9.6205744112e-04
-1.8974358974e+01   9.7124633674e-04
-1.8964590965e+01   9.8043330560e-04
-1.8954822955e+01   9.8961832183e-04
-1.8945054945e+01   9.9880135934e-04
-1.8935286935e+01   1.0079823918e-03
-1.8925518926e+01   1.0171613928e-03
-1.8915750916e+01   1.0263383354e-03
-1.8905982906e+01   1.0355131928e-03
-1.8896214896e+01   1.0446859377e-03
-1.8886446886e+01   1.0538565427e-03
-1.8876678877e+01   1.0630249800e-03
-1.8866910867e+01   1.0721912220e-03
-1.8857142857e+01   1.0813552402e-03
-1.8847374847e+01   1.0905170065e-03
-1.8837606838e+01   1.0996764921e-03
-1.8827838828e+01   1.1088336682e-03
-1.8818070818e+01   1.1179885057e-03
-1.8808302808e+01   1.1271409752e-03
-1.8798534799e+01   1.1362910471e-03
-1.8788766789e+01   1.1454386916e-03
-1.8778998779e+01   1.1545838785e-03
-1.8769230769e+01   1.1637265773e-03
-1.8759462759e+01   1.1728667576e-03
-1.8749694750e+01   1.1820043884e-03
-1.8739926740e+01   1.1911394384e-03
-1.8730158730e+01   1.2002718763e-03
-1.8720390720e+01   1.2094016704e-03
-1.8710622711e+01   1.2185287887e-03
-1.8700854701e+01   1.2276531988e-03
-1.8691086691e+01   1.2367748684e-03
-1.8681318681e+01   1.2458937646e-03
-1.8671550672e+01   1.2550098542e-03
-1.8661782662e+01   1.2641231040e-03
-1.8652014652e+01   1.2732334802e-03
-1.8642246642e+01   1.2823409489e-03
-1.8632478632e+01   1.2914454758e-03
-1.8622710623e+01   1.3005470265e-03
-1.8612942613e+01   1.3096455661e-03
-1.8603174603e+01   1.3187410594e-03
-1.8593406593e+01   1.3278334710e-03
-1.8583638584e+01   1.3369227653e-03
-1.8573870574e+01   1.3460089061e-03
-1.8564102564e+01   1.3550918571e-03
-1.8554334554e+01   1.3641715816e-03
-1.8544566545e+01   1.3732480427e-03
-1.8534798535e+01   1.3823212031e-03
-1.8525030525e+01   1.3913910252e-03
-1.8515262515e+01   1.4004574711e-03
-1.8505494505e+01   1.4095205024e-03
-1.8495726496e+01   1.4185800807e-03
-1.8485958486e+01   1.4276361670e-03
-1.8476190476e+01   1.4366887222e-03
-1.8466422466e+01   1.4457377065e-03
-1.8456654457e+01   1.4547830803e-03
-1.8446886447e+01   1.4638248031e-03
-1.8437118437e+01   1.4728628344e-03
-1.8427350427e+01   1.4818971334e-03
-1.8417582418e+01   1.4909276587e-03
-1.8407814408e+01   1.4999543687e-03
-1.8398046398e+01   1.5089772216e-03
-1.8388278388e+01   1.5179961748e-03
-1.8378510379e+01   1.5270111858e-03
-1.8368742369e+01   1.5360222116e-03
-1.8358974359e+01   1.5450292087e-03
-1.8349206349e+01   1.5540321335e-03
-1.8339438339e+01   1.5630309417e-03
-1.8329670330e+01   1.5720255889e-03
-1.8319902320e+01   1.5810160302e-03
-1.8310134310e+01   1.5900022204e-03
-1.8300366300e+01   1.5989841139e-03
-1.8290598291e+01   1.6079616647e-03
-1.8280830281e+01   1.6169348264e-03
-1.8271062271e+01   1.6259035523e-03
-1.8261294261e+01   1.6348677952e-03
-1.8251526252e+01   1.6438275076e-03
-1.8241758242e+01   1.6527826416e-03
-1.8231990232e+01   1.6617331487e-03
-1.8222222222e+01   1.6706789805e-03
-1.8212454212e+01   1.6796200876e-03
-1.8202686203e+01   1.6885564206e-03
-1.8192918193e+01   1.6974879295e-03
-1.8183150183e+01   1.7064145641e-03
-1.8173382173e+01   1.7153362735e-03
-1.8163614164e+01   1.7242530067e-03
-1.8153846154e+01   1.7331647120e-03
-1.8144078144e+01   1.7420713374e-03
-1.8134310134e+01   1.7509728305e-03
-1.8124542125e+01   1.7598691385e-03
-1.8114774115e+01   1.7687602081e-03
-1.8105006105e+01   1.7776459855e-03
-1.8095238095e+01   1.7865264167e-03
-1.8085470085e+01   1.7954014471e-03
-1.8075702076e+01   1.8042710216e-03
-1.8065934066e+01   1.8131350849e-03
-1.8056166056e+01   1.8219935809e-03
-1.8046398046e+01   1.8308464534e-03
-1.8036630037e+01   1.8396936455e-03
-1.8026862027e+01   1.8485351001e-03
-1.8017094017e+01   1.8573707593e-03
-1.8007326007e+01   1.8662005650e-03
-1.7997557998e+01   1.8750244587e-03
-1.7987789988e+01   1.8838423811e-03
-1.7978021978e+01   1.8926542728e-03
-1.7968253968e+01   1.9014600737e-03
-1.7958485958e+01   1.9102597233e-03
-1.7948717949e+01   1.9190531606e-03
-1.7938949939e+01   1.9278403242e-03
-1.7929181929e+01   1.9366211520e-03
-1.7919413919e+01   1.9453955818e-03
-1.7909645910e+01   1.9541635504e-03
-1.7899877900e+01   1.9629249947e-03
-1.7890109890e+01   1.9716798505e-03
-1.7880341880e+01   1.9804280536e-03
-1.7870573871e+01   1.9891695390e-03
-1.7860805861e+01   1.9979042413e-03
-1.7851037851e+01   2.0066320947e-03
-1.7841269841e+01   2.0153530326e-03
-1.7831501832e+01   2.0240669882e-03
-1.7821733822e+01   2.0327738939e-03
-1.7811965812e+01   2.0414736819e-03
-1.7802197802e+01   2.0501662836e-03
-1.7792429792e+01   2.0588516301e-03
-1.7782661783e+01   2.0675296517e-03
-1.7772893773e+01   2.0762002784e-03
-1.7763125763e+01   2.0848634395e-03
-1.7753357753e+01   2.0935190641e-03
-1.7743589744e+01   2.1021670802e-03
-1.7733821734e+01   2.1108074158e-03
-1.7724053724e+01   2.1194399980e-03
-1.7714285714e+01   2.1280647535e-03
-1.7704517705e+01   2.1366816084e-03
-1.7694749695e+01   2.1452904883e-03
-1.7684981685e+01   2.1538913182e-03
-1.7675213675e+01   2.1624840225e-03
-1.7665445665e+01   2.1710685251e-03
-1.7655677656e+01   2.1796447493e-03
-1.7645909646e+01   2.1882126178e-03
-1.7636141636e+01   2.1967720528e-03
-1.7626373626e+01   2.2053229759e-03
-1.7616605617e+01   2.2138653080e-03
-1.7606837607e+01   2.2223989695e-03
-1.7597069597e+01   2.2309238804e-03
-1.7587301587e+01   2.2394399597e-03
-1.7577533578e+01   2.2479471262e-03
-1.7567765568e+01   2.2564452979e-03
-1.7557997558e+01   2.2649343921e-03
-1.7548229548e+01   2.2734143258e-03
-1.7538461538e+01   2.2818850150e-03
-1.7528693529e+01   2.2903463756e-03
-1.7518925519e+01   2.2987983223e-03
-1.7509157509e+01   2.3072407697e-03
-1.7499389499e+01   2.3156736314e-03
-1.7489621490e+01   2.3240968205e-03
-1.7479853480e+01   2.3325102496e-03
-1.7470085470e+01   2.3409138305e-03
-1.7460317460e+01   2.3493074744e-03
-1.7450549451e+01   2.3576910919e-03
-1.7440781441e+01   2.3660645930e-03
-1.7431013431e+01   2.3744278868e-03
-1.7421245421e+01   2.3827808822e-03
-1.7411477411e+01   2.3911234870e-03
-1.7401709402e+01   2.3994556086e-03
-1.7391941392e+01   2.4077771537e-03
-1.7382173382e+01   2.4160880282e-03
-1.7372405372e+01   2.4243881376e-03
-1.7362637363e+01   2.4326773864e-03
-1.7352869353e+01   2.4409556786e-03
-1.7343101343e+01   2.4492229176e-03
-1.7333333333e+01   2.4574790060e-03
-1.7323565324e+01   2.4657238457e-03
-1.7313797314e+01   2.4739573380e-03
-1.7304029304e+01   2.4821793835e-03
-1.7294261294e+01   2.4903898820e-03
-1.7284493284e+01   2.4985887326e-03
-1.7274725275e+01   2.5067758339e-03
-1.7264957265e+01   2.5149510836e-03
-1.7255189255e+01   2.5231143787e-03
-1.7245421245e+01   2.5312656155e-03
-1.7235653236e+01   2.5394046897e-03
-1.7225885226e+01   2.5475314961e-03
-1.7216117216e+01   2.5556459289e-03
-1.7206349206e+01   2.5637478814e-03
-1.7196581197e+01   2.5718372465e-03
-1.7186813187e+01   2.5799139161e-03
-1.7177045177e+01   2.5879777813e-03
-1.7167277167e+01   2.5960287326e-03
-1.7157509158e+01   2.6040666598e-03
-1.7147741148e+01   2.6120914518e-03
-1.7137973138e+01   2.6201029968e-03
-1.7128205128e+01   2.6281011822e-03
-1.7118437118e+01   2.6360858948e-03
-1.7108669109e+01   2.6440570205e-03
-1.7098901099e+01   2.6520144443e-03
-1.7089133089e+01   2.6599580507e-03
-1.7079365079e+01   2.6678877232e-03
-1.7069597070e+01   2.6758033446e-03
-1.7059829060e+01   2.6837047970e-03
-1.7050061050e+01   2.6915919615e-03
-1.7040293040e+01   2.6994647186e-03
-1.7030525031e+01   2.7073229479e-03
-1.7020757021e+01   2.7151665282e-03
-1.7010989011e+01   2.7229953375e-03
-1.7001221001e+01   2.7308092530e-03
-1.6991452991e+01   2.7386081512e-03
-1.6981684982e+01   2.7463919074e-03
-1.6971916972e+01   2.7541603966e-03
-1.6962148962e+01   2.7619134925e-03
-1.6952380952e+01   2.7696510684e-03
-1.6942612943e+01   2.7773729963e-03
-1.6932844933e+01   2.7850791477e-03
-1.6923076923e+01   2.7927693931e-03
-1.6913308913e+01   2.8004436023e-03
-1.6903540904e+01   2.8081016440e-03
-1.6893772894e+01   2.8157433864e-03
-1.6884004884e+01   2.8233686964e-03
-1.6874236874e+01   2.8309774404e-03
-1.6864468864e+01   2.8385694838e-03
-1.6854700855e+01   2.8461446910e-03
-1.6844932845e+01   2.8537029258e-03
-1.6835164835e+01   2.8612440508e-03
-1.6825396825e+01   2.8687679279e-03
-1.6815628816e+01   2.8762744182e-03
-1.6805860806e+01   2.8837633816e-03
-1.6796092796e+01   2.8912346774e-03
-1.6786324786e+01   2.8986881639e-03
-1.6776556777e+01   2.9061236983e-03
-1.6766788767e+01   2.9135411373e-03
-1.6757020757e+01   2.9209403362e-03
-1.6747252747e+01   2.9283211497e-03
-1.6737484737e+01   2.9356834316e-03
-1.6727716728e+01   2.9430270345e-03
-1.6717948718e+01   2.9503518103e-03
-1.6708180708e+01   2.9576576098e-03
-1.6698412698e+01   2.9649442830e-03
-1.6688644689e+01   2.9722116790e-03
-1.6678876679e+01   2.9794596456e-03
-1.6669108669e+01   2.9866880301e-03
-1.6659340659e+01   2.9938966784e-03
-1.6649572650e+01   3.0010854359e-03
-1.6639804640e+01   3.0082541466e-03
-1.6630036630e+01   3.0154026537e-03
-1.6620268620e+01   3.0225307995e-03
-1.6610500611e+01   3.0296384252e-03
-1.6600732601e+01   3.0367253711e-03
-1.6590964591e+01   3.0437914764e-03
-1.6581196581e+01   3.0508365793e-03
-1.6571428571e+01   3.0578605172e-03
-1.6561660562e+01   3.0648631263e-03
-1.6551892552e+01   3.0718442417e-03
-1.6542124542e+01   3.0788036978e-03
-1.6532356532e+01   3.0857413276e-03
-1.6522588523e+01   3.0926569635e-03
-1.6512820513e+01   3.0995504364e-03
-1.6503052503e+01   3.1064215766e-03
-1.6493284493e+01   3.1132702130e-03
-1.6483516484e+01   3.1200961736e-03
-1.6473748474e+01   3.1268992855e-03
-1.6463980464e+01   3.1336793746e-03
-1.6454212454e+01   3.1404362656e-03
-1.6444444444e+01   3.1471697824e-03
-1.6434676435e+01   3.1538797477e-03
-1.6424908425e+01   3.1605659830e-03
-1.6415140415e+01   3.1672283091e-03
-1.6405372405e+01   3.1738665453e-03
-1.6395604396e+01   3.1804805100e-03
-1.6385836386e+01   3.1870700205e-03
-1.6376068376e+01   3.1936348930e-03
-1.6366300366e+01   3.2001749426e-03
-1.6356532357e+01   3.2066899833e-03
-1.6346764347e+01   3.2131798279e-03
-1.6336996337e+01   3.2196442881e-03
-1.6327228327e+01   3.2260831747e-03
-1.6317460317e+01   3.2324962970e-03
-1.6307692308e+01   3.2388834635e-03
-1.6297924298e+01   3.2452444813e-03
-1.6288156288e+01   3.2515791566e-03
-1.6278388278e+01   3.2578872942e-03
-1.6268620269e+01   3.2641686979e-03
-1.6258852259e+01   3.2704231704e-03
-1.6249084249e+01   3.2766505130e-03
-1.6239316239e+01   3.2828505261e-03
-1.6229548230e+01   3.2890230087e-03
-1.6219780220e+01   3.2951677588e-03
-1.6210012210e+01   3.3012845732e-03
-1.6200244200e+01   3.3073732473e-03
-1.6190476190e+01   3.3134335755e-03
-1.6180708181e+01   3.3194653509e-03
-1.6170940171e+01   3.3254683656e-03
-1.6161172161e+01   3.3314424102e-03
-1.6151404151e+01   3.3373872743e-03
-1.6141636142e+01   3.3433027461e-03
-1.6131868132e+01   3.3491886127e-03
-1.6122100122e+01   3.3550446600e-03
-1.6112332112e+01   3.3608706725e-03
-1.6102564103e+01   3.3666664336e-03
-1.6092796093e+01   3.3724317254e-03
-1.6083028083e+01   3.3781663288e-03
-1.6073260073e+01   3.3838700233e-03
-1.6063492063e+01   3.3895425873e-03
-1.6053724054e+01   3.3951837979e-03
-1.6043956044e+01   3.4007934307e-03
-1.6034188034e+01   3.4063712604e-03
-1.6024420024e+01   3.4119170601e-03
-1.6014652015e+01   3.4174306018e-03
-1.6004884005e+01   3.4229116561e-03
-1.5995115995e+01   3.4283599922e-03
-1.5985347985e+01   3.4337753783e-03
-1.5975579976e+01   3.4391575811e-03
-1.5965811966e+01   3.4445063658e-03
-1.5956043956e+01   3.4498214966e-03
-1.5946275946e+01   3.4551027362e-03
-1.5936507937e+01   3.4603498460e-03
-1.5926739927e+01   3.4655625860e-03
-1.5916971917e+01   3.4707407150e-03
-1.5907203907e+01   3.4758839902e-03
-1.5897435897e+01   3.4809921678e-03
-1.5887667888e+01   3.4860650022e-03
-1.5877899878e+01   3.4911022468e-03
-1.5868131868e+01   3.4961036534e-03
-1.5858363858e+01   3.5010689726e-03
-1.5848595849e+01   3.5059979534e-03
-1.5838827839e+01   3.5108903437e-03
-1.5829059829e+01   3.5157458896e-03
-1.5819291819e+01   3.5205643361e-03
-1.5809523810e+01   3.5253454267e-03
-1.5799755800e+01   3.5300889036e-03
-1.5789987790e+01   3.5347945073e-03
-1.5780219780e+01   3.5394619772e-03
-1.5770451770e+01   3.5440910510e-03
-1.5760683761e+01   3.5486814651e-03
-1.5750915751e+01   3.5532329544e-03
-1.5741147741e+01   3.5577452525e-03
-1.5731379731e+01   3.5622180912e-03
-1.5721611722e+01   3.5666512013e-03
-1.5711843712e+01   3.5710443117e-03
-1.5702075702e+01   3.5753971500e-03
-1.5692307692e+01   3.5797094425e-03
-1.5682539683e+01   3.5839809138e-03
-1.5672771673e+01   3.5882112869e-03
-1.5663003663e+01   3.5924002837e-03
-1.5653235653e+01   3.5965476241e-03
-1.5643467643e+01   3.6006530269e-03
-1.5633699634e+01   3.6047162091e-03
-1.5623931624e+01   3.6087368865e-03
-1.5614163614e+01   3.6127147730e-03
-1.5604395604e+01   3.6166495811e-03
-1.5594627595e+01   3.6205410220e-03
-1.5584859585e+01   3.6243888050e-03
-1.5575091575e+01   3.6281926381e-03
-1.5565323565e+01   3.6319522275e-03
-1.5555555556e+01   3.6356672781e-03
-1.5545787546e+01   3.6393374930e-03
-1.5536019536e+01   3.6429625739e-03
-1.5526251526e+01   3.6465422208e-03
-1.5516483516e+01   3.6500761322e-03
-1.5506715507e+01   3.6535640050e-03
-1.5496947497e+01   3.6570055343e-03
-1.5487179487e+01   3.6604004138e-03
-1.5477411477e+01   3.6637483357e-03
-1.5467643468e+01   3.6670489902e-03
-1.5457875458e+01   3.6703020661e-03
-1.5448107448e+01   3.6735072507e-03
-1.5438339438e+01   3.6766642293e-03
-1.5428571429e+01   3.6797726860e-03
-1.5418803419e+01   3.6828323028e-03
-1.5409035409e+01   3.6858427604e-03
-1.5399267399e+01   3.6888037376e-03
-1.5389499389e+01   3.6917149117e-03
-1.5379731380e+01   3.6945759582e-03
-1.5369963370e+01   3.6973865509e-03
-1.5360195360e+01   3.7001463620e-03
-1.5350427350e+01   3.7028550620e-03
-1.5340659341e+01   3.7055123196e-03
-1.5330891331e+01   3.7081178019e-03
-1.5321123321e+01   3.7106711743e-03
-1.5311355311e+01   3.7131721003e-03
-1.5301587302e+01   3.7156202418e-03
-1.5291819292e+01   3.7180152591e-03
-1.5282051282e+01   3.7203568104e-03
-1.5272283272e+01   3.7226445525e-03
-1.5262515263e+01   3.7248781402e-03
-1.5252747253e+01   3.7270572267e-03
-1.5242979243e+01   3.7291814634e-03
-1.5233211233e+01   3.7312504999e-03
-1.5223443223e+01   3.7332639840e-03
-1.5213675214e+01   3.7352215617e-03
-1.5203907204e+01   3.7371228773e-03
-1.5194139194e+01   3.7389675732e-03
-1.5184371184e+01   3.7407552900e-03
-1.5174603175e+01   3.7424856666e-03
-1.5164835165e+01   3.7441583399e-03
-1.5155067155e+01   3.7457729451e-03
-1.5145299145e+01   3.7473291155e-03
-1.5135531136e+01   3.7488264827e-03
-1.5125763126e+01   3.7502646762e-03
-1.5115995116e+01   3.7516433239e-03
-1.5106227106e+01   3.7529620516e-03
-1.5096459096e+01   3.7542204836e-03
-1.5086691087e+01   3.7554182418e-03
-1.5076923077e+01   3.7565549467e-03
-1.5067155067e+01   3.7576302167e-03
-1.5057387057e+01   3.7586436682e-03
-1.5047619048e+01   3.7595949160e-03
-1.5037851038e+01   3.7604835726e-03
-1.5028083028e+01   3.7613092490e-03
-1.5018315018e+01   3.7620715540e-03
-1.5008547009e+01   3.7627700946e-03
-1.4998778999e+01   3.7634044757e-03
-1.4989010989e+01   3.7639743004e-03
-1.4979242979e+01   3.7644791700e-03
-1.4969474969e+01   3.7649186834e-03
-1.4959706960e+01   3.7652924380e-03
-1.4949938950e+01   3.7656000290e-03
-1.4940170940e+01   3.7658410497e-03
-1.4930402930e+01   3.7660150913e-03
-1.4920634921e+01   3.7661217431e-03
-1.4910866911e+01   3.7661605924e-03
-1.4901098901e+01   3.7661312245e-03
-1.4891330891e+01   3.7660332227e-03
-1.4881562882e+01   3.7658661683e-03
-1.4871794872e+01   3.7656296405e-03
-1.4862026862e+01   3.7653232164e-03
-1.4852258852e+01   3.7649464714e-03
-1.4842490842e+01   3.7644989784e-03
-1.4832722833e+01   3.7639803086e-03
-1.4822954823e+01   3.7633900310e-03
-1.4813186813e+01   3.7627277125e-03
-1.4803418803e+01   3.7619929181e-03
-1.4793650794e+01   3.7611852105e-03
-1.4783882784e+01   3.7603041504e-03
-1.4774114774e+01   3.7593492965e-03
-1.4764346764e+01   3.7583202052e-03
-1.4754578755e+01   3.7572164311e-03
-1.4744810745e+01   3.7560375263e-03
-1.4735042735e+01   3.7547830411e-03
-1.4725274725e+01   3.7534525235e-03
-1.4715506716e+01   3.7520455194e-03
-1.4705738706e+01   3.7505615726e-03
-1.4695970696e+01   3.7490002247e-03
-1.4686202686e+01   3.7473610152e-03
-1.4676434676e+01   3.7456434815e-03
-1.4666666667e+01   3.7438471585e-03
-1.4656898657e+01   3.7419715793e-03
-1.4647130647e+01   3.7400162747e-03
-1.4637362637e+01   3.7379807732e-03
-1.4627594628e+01   3.7358646012e-03
-1.4617826618e+01   3.7336672829e-03
-1.4608058608e+01   3.7313883402e-03
-1.4598290598e+01   3.7290272930e-03
-1.4588522589e+01   3.7265836587e-03
-1.4578754579e+01   3.7240569526e-03
-1.4568986569e+01   3.7214466877e-03
-1.4559218559e+01   3.7187523750e-03
-1.4549450549e+01   3.7159735228e-03
-1.4539682540e+01   3.7131096375e-03
-1.4529914530e+01   3.7101602230e-03
-1.4520146520e+01   3.7071247813e-03
-1.4510378510e+01   3.7040028116e-03
-1.4500610501e+01   3.7007938111e-03
-1.4490842491e+01   3.6974972748e-03
-1.4481074481e+01   3.6941126952e-03
-1.4471306471e+01   3.6906395625e-03
-1.4461538462e+01   3.6870773647e-03
-1.4451770452e+01   3.6834255874e-03
-1.4442002442e+01   3.6796837139e-03
-1.4432234432e+01   3.6758512251e-03
-1.4422466422e+01   3.6719275996e-03
-1.4412698413e+01   3.6679123136e-03
-1.4402930403e+01   3.6638048411e-03
-1.4393162393e+01   3.6596046535e-03
-1.4383394383e+01   3.6553112200e-03
-1.4373626374e+01   3.6509240074e-03
-1.4363858364e+01   3.6464424800e-03
-1.4354090354e+01   3.6418660997e-03
-1.4344322344e+01   3.6371943262e-03
-1.4334554335e+01   3.6324266167e-03
-1.4324786325e+01   3.6275624258e-03
-1.4315018315e+01   3.6226012059e-03
-1.4305250305e+01   3.6175424069e-03
-1.4295482295e+01   3.6123854762e-03
-1.4285714286e+01   3.6071298589e-03
-1.4275946276e+01   3.6017749975e-03
-1.4266178266e+01   3.5963203321e-03
-1.4256410256e+01   3.5907653004e-03
-1.4246642247e+01   3.5851093374e-03
-1.4236874237e+01   3.5793518760e-03
-1.4227106227e+01   3.5734923463e-03
-1.4217338217e+01   3.5675301760e-03
-1.4207570208e+01   3.5614647902e-03
-1.4197802198e+01   3.5552956118e-03
-1.4188034188e+01   3.5490220609e-03
-1.4178266178e+01   3.5426435551e-03
-1.4168498168e+01   3.5361595096e-03
-1.4158730159e+01   3.5295693369e-03
-1.4148962149e+01   3.5228724472e-03
-1.4139194139e+01   3.5160682480e-03
-1.4129426129e+01   3.5091561441e-03
-1.4119658120e+01   3.5021355380e-03
-1.4109890110e+01   3.4950058295e-03
-1.4100122100e+01   3.4877664159e-03
-1.4090354090e+01   3.4804166918e-03
-1.4080586081e+01   3.4729560493e-03
-1.4070818071e+01   3.4653838778e-03
-1.4061050061e+01   3.4576995642e-03
-1.4051282051e+01   3.4499024929e-03
-1.4041514042e+01   3.4419920454e-03
-1.4031746032e+01   3.4339676007e-03
-1.4021978022e+01   3.4258285353e-03
-1.4012210012e+01   3.4175742228e-03
-1.4002442002e+01   3.4092040345e-03
-1.3992673993e+01   3.4007173387e-03
-1.3982905983e+01   3.3921135013e-03
-1.3973137973e+01   3.3833918854e-03
-1.3963369963e+01   3.3745518515e-03
-1.3953601954e+01   3.3655927572e-03
-1.3943833944e+01   3.3565139579e-03
-1.3934065934e+01   3.3473148058e-03
-1.3924297924e+01   3.3379946506e-03
-1.3914529915e+01   3.3285528394e-03
-1.3904761905e+01   3.3189887166e-03
-1.3894993895e+01   3.3093016235e-03
-1.3885225885e+01   3.2994908992e-03
-1.3875457875e+01   3.2895558798e-03
-1.3865689866e+01   3.2794958986e-03
-1.3855921856e+01   3.2693102862e-03
-1.3846153846e+01   3.2589983707e-03
-1.3836385836e+01   3.2485594771e-03
-1.3826617827e+01   3.2379929277e-03
-1.3816849817e+01   3.2272980423e-03
-1.3807081807e+01   3.2164741377e-03
-1.3797313797e+01   3.2055205278e-03
-1.3787545788e+01   3.1944365240e-03
-1.3777777778e+01   3.1832214348e-03
-1.3768009768e+01   3.1718745657e-03
-1.3758241758e+01   3.1603952197e-03
-1.3748473748e+01   3.1487826968e-03
-1.3738705739e+01   3.1370362943e-03
-1.3728937729e+01   3.1251553065e-03
-1.3719169719e+01   3.1131390251e-03
-1.3709401709e+01   3.1009867387e-03
-1.3699633700e+01   3.0886977332e-03
-1.3689865690e+01   3.0762712917e-03
-1.3680097680e+01   3.0637066944e-03
-1.3670329670e+01   3.0510032186e-03
-1.3660561661e+01   3.0381601388e-03
-1.3650793651e+01   3.0251767264e-03
-1.3641025641e+01   3.0120522503e-03
-1.3631257631e+01   2.9987859762e-03
-1.3621489621e+01   2.9853771671e-03
-1.3611721612e+01   2.9718250829e-03
-1.3601953602e+01   2.9581289808e-03
-1.3592185592e+01   2.9442881151e-03
-1.3582417582e+01   2.9303017369e-03
-1.3572649573e+01   2.9161690947e-03
-1.3562881563e+01   2.9018894340e-03
-1.3553113553e+01   2.8874619971e-03
-1.3543345543e+01   2.8728860238e-03
-1.3533577534e+01   2.8581607507e-03
-1.3523809524e+01   2.8432854113e-03
-1.3514041514e+01   2.8282592365e-03
-1.3504273504e+01   2.8130814540e-03
-1.3494505495e+01   2.7977512887e-03
-1.3484737485e+01   2.7822679623e-03
-1.3474969475e+01   2.7666306938e-03
-1.3465201465e+01   2.7508386989e-03
-1.3455433455e+01   2.7348911906e-03
-1.3445665446e+01   2.7187873788e-03
-1.3435897436e+01   2.7025264703e-03
-1.3426129426e+01   2.6861076691e-03
-1.3416361416e+01   2.6695301761e-03
-1.3406593407e+01   2.6527931891e-03
-1.3396825397e+01   2.6358959030e-03
-1.3387057387e+01   2.6188375096e-03
-1.3377289377e+01   2.6016171977e-03
-1.3367521368e+01   2.5842341531e-03
-1.3357753358e+01   2.5666875586e-03
-1.3347985348e+01   2.5489765938e-03
-1.3338217338e+01   2.5311004353e-03
-1.3328449328e+01   2.5130582568e-03
-1.3318681319e+01   2.4948492289e-03
-1.3308913309e+01   2.4764725189e-03
-1.3299145299e+01   2.4579272913e-03
-1.3289377289e+01   2.4392127074e-03
-1.3279609280e+01   2.4203279255e-03
-1.3269841270e+01   2.4012721009e-03
-1.3260073260e+01   2.3820443855e-03
-1.3250305250e+01   2.3626439284e-03
-1.3240537241e+01   2.3430698755e-03
-1.3230769231e+01   2.3233213697e-03
-1.3221001221e+01   2.3033975506e-03
-1.3211233211e+01   2.2832975550e-03
-1.3201465201e+01   2.2630205162e-03
-1.3191697192e+01   2.2425655648e-03
-1.3181929182e+01   2.2219318280e-03
-1.3172161172e+01   2.2011184299e-03
-1.3162393162e+01   2.1801244916e-03
-1.3152625153e+01   2.1589491310e-03
-1.3142857143e+01   2.1375914629e-03
-1.3133089133e+01   2.1160505989e-03
-1.3123321123e+01   2.0943256476e-03
-1.3113553114e+01   2.0724157142e-03
-1.3103785104e+01   2.0503199011e-03
-1.3094017094e+01   2.0280373072e-03
-1.3084249084e+01   2.0055670285e-03
-1.3074481074e+01   1.9829081577e-03
-1.3064713065e+01   1.9600597845e-03
-1.3054945055e+01   1.9370209953e-03
-1.3045177045e+01   1.9137908733e-03
-1.3035409035e+01   1.8903684987e-03
-1.3025641026e+01   1.8667529483e-03
-1.3015873016e+01   1.8429432960e-03
-1.3006105006e+01   1.8189386123e-03
-1.2996336996e+01   1.7947379647e-03
-1.2986568987e+01   1.7703404172e-03
-1.2976800977e+01   1.7457450311e-03
-1.2967032967e+01   1.7209508641e-03
-1.2957264957e+01   1.6959569709e-03
-1.2947496947e+01   1.6707624029e-03
-1.2937728938e+01   1.6453662084e-03
-1.2927960928e+01   1.6197674326e-03
-1.2918192918e+01   1.5939651172e-03
-1.2908424908e+01   1.5679583010e-03
-1.2898656899e+01   1.5417460195e-03
-1.2888888889e+01   1.5153273048e-03
-1.2879120879e+01   1.4887011861e-03
-1.2869352869e+01   1.4618666893e-03
-1.2859584860e+01   1.4348228369e-03
-1.2849816850e+01   1.4075686485e-03
-1.2840048840e+01   1.3801031402e-03
-1.2830280830e+01   1.3524253250e-03
-1.2820512821e+01   1.3245342129e-03
-1.2810744811e+01   1.2964288102e-03
-1.2800976801e+01   1.2681081205e-03
-1.2791208791e+01   1.2395711439e-03
-1.2781440781e+01   1.2108168772e-03
-1.2771672772e+01   1.1818443143e-03
-1.2761904762e+01   1.1526524455e-03
-1.2752136752e+01   1.1232402582e-03
-1.2742368742e+01   1.0936067365e-03
-1.2732600733e+01   1.0637508611e-03
-1.2722832723e+01   1.0336716096e-03
-1.2713064713e+01   1.0033679565e-03
-1.2703296703e+01   9.7283887283e-04
-1.2693528694e+01   9.4208332664e-04
-1.2683760684e+01   9.1110028261e-04
-1.2673992674e+01   8.7988870222e-04
-1.2664224664e+01   8.4844754377e-04
-1.2654456654e+01   8.1677576229e-04
-1.2644688645e+01   7.8487230963e-04
-1.2634920635e+01   7.5273613440e-04
-1.2625152625e+01   7.2036618199e-04
-1.2615384615e+01   6.8776139458e-04
-1.2605616606e+01   6.5492071112e-04
-1.2595848596e+01   6.2184306736e-04
-1.2586080586e+01   5.8852739583e-04
-1.2576312576e+01   5.5497262583e-04
-1.2566544567e+01   5.2117768347e-04
-1.2556776557e+01   4.8714149164e-04
-1.2547008547e+01   4.5286297002e-04
-1.2537240537e+01   4.1834103508e-04
-1.2527472527e+01   3.8357460010e-04
-1.2517704518e+01   3.4856257513e-04
-1.2507936508e+01   3.1330386704e-04
-1.2498168498e+01   2.7779737949e-04
-1.2488400488e+01   2.4204201296e-04
-1.2478632479e+01   2.0603666470e-04
-1.2468864469e+01   1.6978022882e-04
-1.2459096459e+01   1.3327159619e-04
-1.2449328449e+01   9.6509654532e-05
-1.2439560440e+01   5.9493288364e-05
-1.2429792430e+01   2.2221379032e-05
-1.2420024420e+01   -1.5307195294e-05
-1.2410256410e+01   -5.3093559618e-05
-1.2400488400e+01   -9.1138842115e-05
-1.2390720391e+01   -1.2944417412e-04
-1.2380952381e+01   -1.6801069014e-04
-1.2371184371e+01   -2.0683952783e-04
-1.2361416361e+01   -2.4593182800e-04
-1.2351648352e+01   -2.8528873461e-04
-1.2341880342e+01   -3.2491139477e-04
-1.2332112332e+01   -3.6480095872e-04
-1.2322344322e+01   -4.0495857985e-04
-1.2312576313e+01   -4.4538541467e-04
-1.2302808303e+01   -4.8608262281e-04
-1.2293040293e+01   -5.2705136704e-04
-1.2283272283e+01   -5.6829281323e-04
-1.2273504274e+01   -6.0980813035e-04
-1.2263736264e+01   -6.5159849051e-04
-1.2253968254e+01   -6.9366506887e-04
-1.2244200244e+01   -7.3600904373e-04
-1.2234432234e+01   -7.7863159645e-04
-1.2224664225e+01   -8.2153391146e-04
-1.2214896215e+01   -8.6471717629e-04
-1.2205128205e+01   -9.0818258152e-04
-1.2195360195e+01   -9.5193132079e-04
-1.2185592186e+01   -9.9596459080e-04
-1.2175824176e+01   -1.0402835913e-03
-1.2166056166e+01   -1.0848895251e-03
-1.2156288156e+01   -1.1297835979e-03
-1.2146520147e+01   -1.1749670187e-03
-1.2136752137e+01   -1.2204409992e-03
-1.2126984127e+01   -1.2662067544e-03
-1.2117216117e+01   -1.3122655020e-03
-1.2107448107e+01   -1.3586184630e-03
-1.2097680098e+01   -1.4052668611e-03
-1.2087912088e+01   -1.4522119233e-03
-1.2078144078e+01   -1.4994548792e-03
-1.2068376068e+01   -1.5469969616e-03
-1.2058608059e+01   -1.5948394061e-03
-1.2048840049e+01   -1.6429834515e-03
-1.2039072039e+01   -1.6914303391e-03
-1.2029304029e+01   -1.7401813136e-03
-1.2019536020e+01   -1.7892376221e-03
-1.2009768010e+01   -1.8386005152e-03
-1.2000000000e+01   -1.8882712457e-03
-1.1990231990e+01   -1.9382510699e-03
-1.1980463980e+01   -1.9885412465e-03
-1.1970695971e+01   -2.0391430375e-03
-1.1960927961e+01   -2.0900577072e-03
-1.1951159951e+01   -2.1412865232e-03
-1.1941391941e+01   -2.1928307557e-03
-1.1931623932e+01   -2.2446916778e-03
-1.1921855922e+01   -2.2968705653e-03
-1.1912087912e+01   -2.3493686968e-03
-1.1902319902e+01   -2.4021873538e-03
-1.1892551893e+01   -2.4553278205e-03
-1.1882783883e+01   -2.5087913836e-03
-1.1873015873e+01   -2.5625793330e-03
-1.1863247863e+01   -2.6166929609e-03
-1.1853479853e+01   -2.6711335624e-03
-1.1843711844e+01   -2.7259024353e-03
-1.1833943834e+01   -2.7810008800e-03
-1.1824175824e+01   -2.8364301996e-03
-1.1814407814e+01   -2.8921916999e-03
-1.1804639805e+01   -2.9482866893e-03
-1.1794871795e+01   -3.0047164787e-03
-1.1785103785e+01   -3.0614823818e-03
-1.1775335775e+01   -3.1185857148e-03
-1.1765567766e+01   -3.1760277964e-03
-1.1755799756e+01   -3.2338099480e-03
-1.1746031746e+01   -3.2919334934e-03
-1.1736263736e+01   -3.3503997591e-03
-1.1726495726e+01   -3.4092100739e-03
-1.1716727717e+01   -3.4683657692e-03
-1.1706959707e+01   -3.5278681789e-03
-1.1697191697e+01   -3.5877186393e-03
-1.1687423687e+01   -3.6479184891e-03
-1.1677655678e+01   -3.7084690696e-03
-1.1667887668e+01   -3.7693717243e-03
-1.1658119658e+01   -3.8306277991e-03
-1.1648351648e+01   -3.8922386424e-03
-1.1638583639e+01   -3.9542056049e-03
-1.1628815629e+01   -4.0165300395e-03
-1.1619047619e+01   -4.0792133016e-03
-1.1609279609e+01   -4.1422567487e-03
-1.1599511600e+01   -4.2056617407e-03
-1.1589743590e+01   -4.2694296397e-03
-1.1579975580e+01   -4.3335618100e-03
-1.1570207570e+01   -4.3980596181e-03
-1.1560439560e+01   -4.4629244327e-03
-1.1550671551e+01   -4.5281576248e-03
-1.1540903541e+01   -4.5937605673e-03
-1.1531135531e+01   -4.6597346352e-03
-1.1521367521e+01   -4.7260812060e-03
-1.1511599512e+01   -4.7928016588e-03
-1.1501831502e+01   -4.8598973749e-03
-1.1492063492e+01   -4.9273697378e-03
-1.1482295482e+01   -4.9952201327e-03
-1.1472527473e+01   -5.0634499471e-03
-1.1462759463e+01   -5.1320605702e-03
-1.1452991453e+01   -5.2010533932e-03
-1.1443223443e+01   -5.2704298093e-03
-1.1433455433e+01   -5.3401912134e-03
-1.1423687424e+01   -5.4103390024e-03
-1.1413919414e+01   -5.4808745750e-03
-1.1404151404e+01   -5.5517993316e-03
-1.1394383394e+01   -5.6231146746e-03
-1.1384615385e+01   -5.6948220078e-03
-1.1374847375e+01   -5.7669227370e-03
-1.1365079365e+01   -5.8394182695e-03
-1.1355311355e+01   -5.9123100146e-03
-1.1345543346e+01   -5.9855993828e-03
-1.1335775336e+01   -6.0592877865e-03
-1.1326007326e+01   -6.1333766395e-03
-1.1316239316e+01   -6.2078673573e-03
-1.1306471306e+01   -6.2827613568e-03
-1.1296703297e+01   -6.3580600565e-03
-1.1286935287e+01   -6.4337648762e-03
-1.1277167277e+01   -6.5098772374e-03
-1.1267399267e+01   -6.5863985626e-03
-1.1257631258e+01   -6.6633302760e-03
-1.1247863248e+01   -6.7406738030e-03
-1.1238095238e+01   -6.8184305703e-03
-1.1228327228e+01   -6.8966020059e-03
-1.1218559219e+01   -6.9751895390e-03
-1.1208791209e+01   -7.0541946000e-03
-1.1199023199e+01   -7.1336186205e-03
-1.1189255189e+01   -7.2134630332e-03
-1.1179487179e+01   -7.2937292719e-03
-1.1169719170e+01   -7.3744187716e-03
-1.1159951160e+01   -7.4555329680e-03
-1.1150183150e+01   -7.5370732982e-03
-1.1140415140e+01   -7.6190411999e-03
-1.1130647131e+01   -7.7014381120e-03
-1.1120879121e+01   -7.7842654741e-03
-1.1111111111e+01   -7.8675247267e-03
-1.1101343101e+01   -7.9512173111e-03
-1.1091575092e+01   -8.0353446694e-03
-1.1081807082e+01   -8.1199082444e-03
-1.1072039072e+01   -8.2049094797e-03
-1.1062271062e+01   -8.2903498193e-03
-1.1052503053e+01   -8.3762307080e-03
-1.1042735043e+01   -8.4625535912e-03
-1.1032967033e+01   -8.5493199147e-03
-1.1023199023e+01   -8.6365311250e-03
-1.1013431013e+01   -8.7241886688e-03
-1.1003663004e+01   -8.8122939933e-03
-1.0993894994e+01   -8.9008485461e-03
-1.0984126984e+01   -8.9898537752e-03
-1.0974358974e+01   -9.0793111287e-03
-1.0964590965e+01   -9.1692220549e-03
-1.0954822955e+01   -9.2595880026e-03
-1.0945054945e+01   -9.3504104205e-03
-1.0935286935e+01   -9.4416907573e-03
-1.0925518926e+01   -9.5334304621e-03
-1.0915750916e+01   -9.6256309837e-03
-1.0905982906e+01   -9.7182937709e-03
-1.0896214896e+01   -9.8114202726e-03
-1.0886446886e+01   -9.9050119374e-03
-1.0876678877e+01   -9.9990702138e-03
-1.0866910867e+01   -1.0093596550e-02
-1.0857142857e+01   -1.0188592394e-02
-1.0847374847e+01   -1.0284059193e-02
-1.0837606838e+01   -1.0379998395e-02
-1.0827838828e+01   -1.0476411446e-02
-1.0818070818e+01   -1.0573299793e-02
-1.0808302808e+01   -1.0670664882e-02
-1.0798534799e+01   -1.0768508157e-02
-1.0788766789e+01   -1.0866831064e-02
-1.0778998779e+01   -1.0965635046e-02
-1.0769230769e+01   -1.1064921546e-02
-1.0759462759e+01   -1.1164692006e-02
-1.0749694750e+01   -1.1264947869e-02
-1.0739926740e+01   -1.1365690575e-02
-1.0730158730e+01   -1.1466921562e-02
-1.0720390720e+01   -1.1568642271e-02
-1.0710622711e+01   -1.1670854138e-02
-1.0700854701e+01   -1.1773558599e-02
-1.0691086691e+01   -1.1876757091e-02
-1.0681318681e+01   -1.1980451046e-02
-1.0671550672e+01   -1.2084641897e-02
-1.0661782662e+01   -1.2189331076e-02
-1.0652014652e+01   -1.2294520012e-02
-1.0642246642e+01   -1.2400210134e-02
-1.0632478632e+01   -1.2506402868e-02
-1.0622710623e+01   -1.2613099640e-02
-1.0612942613e+01   -1.2720301872e-02
-1.0603174603e+01   -1.2828010987e-02
-1.0593406593e+01   -1.2936228405e-02
-1.0583638584e+01   -1.3044955542e-02
-1.0573870574e+01   -1.3154193817e-02
-1.0564102564e+01   -1.3263944641e-02
-1.0554334554e+01   -1.3374209428e-02
-1.0544566545e+01   -1.3484989588e-02
-1.0534798535e+01   -1.3596286527e-02
-1.0525030525e+01   -1.3708101652e-02
-1.0515262515e+01   -1.3820436365e-02
-1.0505494505e+01   -1.3933292067e-02
-1.0495726496e+01   -1.4046670156e-02
-1.0485958486e+01   -1.4160572027e-02
-1.0476190476e+01   -1.4274999074e-02
-1.0466422466e+01   -1.4389952687e-02
-1.0456654457e+01   -1.4505434253e-02
-1.0446886447e+01   -1.4621445157e-02
-1.0437118437e+01   -1.4737986781e-02
-1.0427350427e+01   -1.4855060502e-02
-1.0417582418e+01   -1.4972667698e-02
-1.0407814408e+01   -1.5090809740e-02
-1.0398046398e+01   -1.5209487998e-02
-1.0388278388e+01   -1.5328703837e-02
-1.0378510379e+01   -1.5448458621e-02
-1.0368742369e+01   -1.5568753708e-02
-1.0358974359e+01   -1.5689590454e-02
-1.0349206349e+01   -1.5810970211e-02
-1.0339438339e+01   -1.5932894327e-02
-1.0329670330e+01   -1.6055364147e-02
-1.0319902320e+01   -1.6178381012e-02
-1.0310134310e+01   -1.6301946257e-02
-1.0300366300e+01   -1.6426061217e-02
-1.0290598291e+01   -1.6550727218e-02
-1.0280830281e+01   -1.6675945587e-02
-1.0271062271e+01   -1.6801717642e-02
-1.0261294261e+01   -1.6928044699e-02
-1.0251526252e+01   -1.7054928070e-02
-1.0241758242e+01   -1.7182369061e-02
-1.0231990232e+01   -1.7310368975e-02
-1.0222222222e+01   -1.7438929109e-02
-1.0212454212e+01   -1.7568050754e-02
-1.0202686203e+01   -1.7697735200e-02
-1.0192918193e+01   -1.7827983727e-02
-1.0183150183e+01   -1.7958797615e-02
-1.0173382173e+01   -1.8090178134e-02
-1.0163614164e+01   -1.8222126552e-02
-1.0153846154e+01   -1.8354644132e-02
-1.0144078144e+01   -1.8487732127e-02
-1.0134310134e+01   -1.8621391791e-02
-1.0124542125e+01   -1.8755624366e-02
-1.0114774115e+01   -1.8890431093e-02
-1.0105006105e+01   -1.9025813204e-02
-1.0095238095e+01   -1.9161771927e-02
-1.0085470085e+01   -1.9298308483e-02
-1.0075702076e+01   -1.9435424088e-02
-1.0065934066e+01   -1.9573119948e-02
-1.0056166056e+01   -1.9711397268e-02
-1.0046398046e+01   -1.9850257243e-02
-1.0036630037e+01   -1.9989701062e-02
-1.0026862027e+01   -2.0129729908e-02
-1.0017094017e+01   -2.0270344956e-02
-1.0007326007e+01   -2.0411547375e-02
-9.9975579976e+00   -2.0553338327e-02
-9.9877899878e+00   -2.0695718967e-02
-9.9780219780e+00   -2.0838690442e-02
-9.9682539683e+00   -2.0982253893e-02
-9.9584859585e+00   -2.1126410451e-02
-9.9487179487e+00   -2.1271161241e-02
-9.9389499389e+00   -2.1416507382e-02
-9.9291819292e+00   -2.1562449982e-02
-9.9194139194e+00   -2.1708990143e-02
-9.9096459096e+00   -2.1856128958e-02
-9.8998778999e+00   -2.2003867513e-02
-9.8901098901e+00   -2.2152206884e-02
-9.8803418803e+00   -2.2301148141e-02
-9.8705738706e+00   -2.2450692343e-02
-9.8608058608e+00   -2.2600840541e-02
-9.8510378510e+00   -2.2751593779e-02
-9.8412698413e+00   -2.2902953090e-02
-9.8315018315e+00   -2.3054919498e-02
-9.8217338217e+00   -2.3207494019e-02
-9.8119658120e+00   -2.3360677660e-02
-9.8021978022e+00   -2.3514471417e-02
-9.7924297924e+00   -2.3668876277e-02
-9.7826617827e+00   -2.3823893218e-02
-9.7728937729e+00   -2.3979523208e-02
-9.7631257631e+00   -2.4135767204e-02
-9.7533577534e+00   -2.4292626155e-02
-9.7435897436e+00   -2.4450100997e-02
-9.7338217338e+00   -2.4608192659e-02
-9.7240537241e+00   -2.4766902056e-02
-9.7142857143e+00   -2.4926230095e-02
-9.7045177045e+00   -2.5086177671e-02
-9.6947496947e+00   -2.5246745670e-02
-9.6849816850e+00   -2.5407934963e-02
-9.6752136752e+00   -2.5569746413e-02
-9.6654456654e+00   -2.5732180871e-02
-9.6556776557e+00   -2.5895239178e-02
-9.6459096459e+00   -2.6058922159e-02
-9.6361416361e+00   -2.6223230632e-02
-9.6263736264e+00   -2.6388165400e-02
-9.6166056166e+00   -2.6553727256e-02
-9.6068376068e+00   -2.6719916979e-02
-9.5970695971e+00   -2.6886735338e-02
-9.5873015873e+00   -2.7054183086e-02
-9.5775335775e+00   -2.7222260966e-02
-9.5677655678e+00   -2.7390969708e-02
-9.5579975580e+00   -2.7560310027e-02
-9.5482295482e+00   -2.7730282628e-02
-9.5384615385e+00   -2.7900888201e-02
-9.5286935287e+00   -2.8072127421e-02
-9.5189255189e+00   -2.8244000953e-02
-9.5091575092e+00   -2.8416509444e-02
-9.4993894994e+00   -2.8589653531e-02
-9.4896214896e+00   -2.8763433834e-02
-9.4798534799e+00   -2.8937850960e-02
-9.4700854701e+00   -2.9112905502e-02
-9.4603174603e+00   -2.9288598037e-02
-9.4505494505e+00   -2.9464929129e-02
-9.4407814408e+00   -2.9641899324e-02
-9.4310134310e+00   -2.9819509157e-02
-9.4212454212e+00   -2.9997759145e-02
-9.4114774115e+00   -3.0176649790e-02
-9.4017094017e+00   -3.0356181578e-02
-9.3919413919e+00   -3.0536354979e-02
-9.3821733822e+00   -3.0717170450e-02
-9.3724053724e+00   -3.0898628427e-02
-9.3626373626e+00   -3.1080729333e-02
-9.3528693529e+00   -3.1263473574e-02
-9.3431013431e+00   -3.1446861538e-02
-9.3333333333e+00   -3.1630893597e-02
-9.3235653236e+00   -3.1815570105e-02
-9.3137973138e+00   -3.2000891401e-02
-9.3040293040e+00   -3.2186857803e-02
-9.2942612943e+00   -3.2373469615e-02
-9.2844932845e+00   -3.2560727120e-02
-9.2747252747e+00   -3.2748630585e-02
-9.2649572650e+00   -3.2937180257e-02
-9.2551892552e+00   -3.3126376366e-02
-9.2454212454e+00   -3.3316219124e-02
-9.2356532357e+00   -3.3506708722e-02
-9.2258852259e+00   -3.3697845332e-02
-9.2161172161e+00   -3.3889629109e-02
-9.2063492063e+00   -3.4082060187e-02
-9.1965811966e+00   -3.4275138680e-02
-9.1868131868e+00   -3.4468864682e-02
-9.1770451770e+00   -3.4663238269e-02
-9.1672771673e+00   -3.4858259494e-02
-9.1575091575e+00   -3.5053928392e-02
-9.1477411477e+00   -3.5250244975e-02
-9.1379731380e+00   -3.5447209234e-02
-9.1282051282e+00   -3.5644821142e-02
-9.1184371184e+00   -3.5843080646e-02
-9.1086691087e+00   -3.6041987676e-02
-9.0989010989e+00   -3.6241542137e-02
-9.0891330891e+00   -3.6441743913e-02
-9.0793650794e+00   -3.6642592866e-02
-9.0695970696e+00   -3.6844088835e-02
-9.0598290598e+00   -3.7046231636e-02
-9.0500610501e+00   -3.7249021063e-02
-9.0402930403e+00   -3.7452456887e-02
-9.0305250305e+00   -3.7656538853e-02
-9.0207570208e+00   -3.7861266686e-02
-9.0109890110e+00   -3.8066640084e-02
-9.0012210012e+00   -3.8272658723e-02
-8.9914529915e+00   -3.8479322254e-02
-8.9816849817e+00   -3.8686630303e-02
-8.9719169719e+00   -3.8894582471e-02
-8.9621489621e+00   -3.9103178335e-02
-8.9523809524e+00   -3.9312417446e-02
-8.9426129426e+00   -3.9522299328e-02
-8.9328449328e+00   -3.9732823482e-02
-8.9230769231e+00   -3.9943989380e-02
-8.9133089133e+00   -4.0155796471e-02
-8.9035409035e+00   -4.0368244173e-02
-8.8937728938e+00   -4.0581331882e-02
-8.8840048840e+00   -4.0795058963e-02
-8.8742368742e+00   -4.1009424756e-02
-8.8644688645e+00   -4.1224428572e-02
-8.8547008547e+00   -4.1440069695e-02
-8.8449328449e+00   -4.1656347379e-02
-8.8351648352e+00   -4.1873260852e-02
-8.8253968254e+00   -4.2090809313e-02
-8.8156288156e+00   -4.2308991930e-02
-8.8058608059e+00   -4.2527807844e-02
-8.7960927961e+00   -4.2747256165e-02
-8.7863247863e+00   -4.2967335974e-02
-8.7765567766e+00   -4.3188046321e-02
-8.7667887668e+00   -4.3409386227e-02
-8.7570207570e+00   -4.3631354681e-02
-8.7472527473e+00   -4.3853950641e-02
-8.7374847375e+00   -4.4077173037e-02
-8.7277167277e+00   -4.4301020762e-02
-8.7179487179e+00   -4.4525492682e-02
-8.7081807082e+00   -4.4750587629e-02
-8.6984126984e+00   -4.4976304401e-02
-8.6886446886e+00   -4.5202641767e-02
-8.6788766789e+00   -4.5429598460e-02
-8.6691086691e+00   -4.5657173181e-02
-8.6593406593e+00   -4.5885364598e-02
-8.6495726496e+00   -4.6114171342e-02
-8.6398046398e+00   -4.6343592014e-02
-8.6300366300e+00   -4.6573625178e-02
-8.6202686203e+00   -4.6804269363e-02
-8.6105006105e+00   -4.7035523065e-02
-8.6007326007e+00   -4.7267384742e-02
-8.5909645910e+00   -4.7499852818e-02
-8.5811965812e+00   -4.7732925680e-02
-8.5714285714e+00   -4.7966601679e-02
-8.5616605617e+00   -4.8200879130e-02
-8.5518925519e+00   -4.8435756309e-02
-8.5421245421e+00   -4.8671231456e-02
-8.5323565324e+00   -4.8907302773e-02
-8.5225885226e+00   -4.9143968424e-02
-8.5128205128e+00   -4.9381226535e-02
-8.5030525031e+00   -4.9619075193e-02
-8.4932844933e+00   -4.9857512445e-02
-8.4835164835e+00   -5.0096536300e-02
-8.4737484737e+00   -5.0336144727e-02
-8.4639804640e+00   -5.0576335654e-02
-8.4542124542e+00   -5.0817106970e-02
-8.4444444444e+00   -5.1058456521e-02
-8.4346764347e+00   -5.1300382114e-02
-8.4249084249e+00   -5.1542881514e-02
-8.4151404151e+00   -5.1785952444e-02
-8.4053724054e+00   -5.2029592584e-02
-8.3956043956e+00   -5.2273799572e-02
-8.3858363858e+00   -5.2518571005e-02
-8.3760683761e+00   -5.2763904432e-02
-8.3663003663e+00   -5.3009797363e-02
-8.3565323565e+00   -5.3256247262e-02
-8.3467643468e+00   -5.3503251549e-02
-8.3369963370e+00   -5.3750807597e-02
-8.3272283272e+00   -5.3998912738e-02
-8.3174603175e+00   -5.4247564255e-02
-8.3076923077e+00   -5.4496759386e-02
-8.2979242979e+00   -5.4746495324e-02
-8.2881562882e+00   -5.4996769213e-02
-8.2783882784e+00   -5.5247578151e-02
-8.2686202686e+00   -5.5498919189e-02
-8.2588522589e+00   -5.5750789330e-02
-8.2490842491e+00   -5.6003185528e-02
-8.2393162393e+00   -5.6256104688e-02
-8.2295482295e+00   -5.6509543667e-02
-8.2197802198e+00   -5.6763499271e-02
-8.2100122100e+00   -5.7017968259e-02
-8.2002442002e+00   -5.7272947336e-02
-8.1904761905e+00   -5.7528433158e-02
-8.1807081807e+00   -5.7784422331e-02
-8.1709401709e+00   -5.8040911407e-02
-8.1611721612e+00   -5.8297896887e-02
-8.1514041514e+00   -5.8555375220e-02
-8.1416361416e+00   -5.8813342802e-02
-8.1318681319e+00   -5.9071795976e-02
-8.1221001221e+00   -5.9330731029e-02
-8.1123321123e+00   -5.9590144197e-02
-8.1025641026e+00   -5.9850031659e-02
-8.0927960928e+00   -6.0110389540e-02
-8.0830280830e+00   -6.0371213910e-02
-8.0732600733e+00   -6.0632500783e-02
-8.0634920635e+00   -6.0894246114e-02
-8.0537240537e+00   -6.1156445804e-02
-8.0439560440e+00   -6.1419095696e-02
-8.0341880342e+00   -6.1682191575e-02
-8.0244200244e+00   -6.1945729167e-02
-8.0146520147e+00   -6.2209704141e-02
-8.0048840049e+00   -6.2474112106e-02
-7.9951159951e+00   -6.2738948610e-02
-7.9853479853e+00   -6.3004209143e-02
-7.9755799756e+00   -6.3269889134e-02
-7.9658119658e+00   -6.3535983949e-02
-7.9560439560e+00   -6.3802488894e-02
-7.9462759463e+00   -6.4069399215e-02
-7.9365079365e+00   -6.4336710090e-02
-7.9267399267e+00   -6.4604416639e-02
-7.9169719170e+00   -6.4872513917e-02
-7.9072039072e+00   -6.5140996914e-02
-7.8974358974e+00   -6.5409860556e-02
-7.8876678877e+00   -6.5679099704e-02
-7.8778998779e+00   -6.5948709154e-02
-7.8681318681e+00   -6.6218683635e-02
-7.8583638584e+00   -6.6489017810e-02
-7.8485958486e+00   -6.6759706275e-02
-7.8388278388e+00   -6.7030743558e-02
-7.8290598291e+00   -6.7302124119e-02
-7.8192918193e+00   -6.7573842349e-02
-7.8095238095e+00   -6.7845892571e-02
-7.7997557998e+00   -6.8118269037e-02
-7.7899877900e+00   -6.8390965929e-02
-7.7802197802e+00   -6.8663977358e-02
-7.7704517705e+00   -6.8937297365e-02
-7.7606837607e+00   -6.9210919917e-02
-7.7509157509e+00   -6.9484838911e-02
-7.7411477411e+00   -6.9759048168e-02
-7.7313797314e+00   -7.0033541438e-02
-7.7216117216e+00   -7.0308312397e-02
-7.7118437118e+00   -7.0583354643e-02
-7.7020757021e+00   -7.0858661702e-02
-7.6923076923e+00   -7.1134227024e-02
-7.6825396825e+00   -7.1410043980e-02
-7.6727716728e+00   -7.1686105868e-02
-7.6630036630e+00   -7.1962405904e-02
-7.6532356532e+00   -7.2238937229e-02
-7.6434676435e+00   -7.2515692904e-02
-7.6336996337e+00   -7.2792665912e-02
-7.6239316239e+00   -7.3069849154e-02
-7.6141636142e+00   -7.3347235452e-02
-7.6043956044e+00   -7.3624817546e-02
-7.5946275946e+00   -7.3902588095e-02
-7.5848595849e+00   -7.4180539674e-02
-7.5750915751e+00   -7.4458664779e-02
-7.5653235653e+00   -7.4736955817e-02
-7.5555555556e+00   -7.5015405114e-02
-7.5457875458e+00   -7.5294004912e-02
-7.5360195360e+00   -7.5572747365e-02
-7.5262515263e+00   -7.5851624543e-02
-7.5164835165e+00   -7.6130628427e-02
-7.5067155067e+00   -7.6409750913e-02
-7.4969474969e+00   -7.6688983808e-02
-7.4871794872e+00   -7.6968318830e-02
-7.4774114774e+00   -7.7247747608e-02
-7.4676434676e+00   -7.7527261680e-02
-7.4578754579e+00   -7.7806852496e-02
-7.4481074481e+00   -7.8086511412e-02
-7.4383394383e+00   -7.8366229693e-02
-7.4285714286e+00   -7.8645998512e-02
-7.4188034188e+00   -7.8925808948e-02
-7.4090354090e+00   -7.9205651985e-02
-7.3992673993e+00   -7.9485518514e-02
-7.3894993895e+00   -7.9765399330e-02
-7.3797313797e+00   -8.0045285132e-02
-7.3699633700e+00   -8.0325166521e-02
-7.3601953602e+00   -8.0605034004e-02
-7.3504273504e+00   -8.0884877985e-02
-7.3406593407e+00   -8.1164688773e-02
-7.3308913309e+00   -8.1444456575e-02
-7.3211233211e+00   -8.1724171500e-02
-7.3113553114e+00   -8.2003823553e-02
-7.3015873016e+00   -8.2283402639e-02
-7.2918192918e+00   -8.2562898561e-02
-7.2820512821e+00   -8.2842301018e-02
-7.2722832723e+00   -8.3121599605e-02
-7.2625152625e+00   -8.3400783812e-02
-7.2527472527e+00   -8.3679843025e-02
-7.2429792430e+00   -8.3958766520e-02
-7.2332112332e+00   -8.4237543472e-02
-7.2234432234e+00   -8.4516162942e-02
-7.2136752137e+00   -8.4794613887e-02
-7.2039072039e+00   -8.5072885153e-02
-7.1941391941e+00   -8.5350965476e-02
-7.1843711844e+00   -8.5628843480e-02
-7.1746031746e+00   -8.5906507681e-02
-7.1648351648e+00   -8.6183946478e-02
-7.1550671551e+00   -8.6461148160e-02
-7.1452991453e+00   -8.6738100900e-02
-7.1355311355e+00   -8.7014792758e-02
-7.1257631258e+00   -8.7291211678e-02
-7.1159951160e+00   -8.7567345486e-02
-7.1062271062e+00   -8.7843181893e-02
-7.0964590965e+00   -8.8118708490e-02
-7.0866910867e+00   -8.8393912749e-02
-7.0769230769e+00   -8.8668782025e-02
-7.0671550672e+00   -8.8943303549e-02
-7.0573870574e+00   -8.9217464434e-02
-7.0476190476e+00   -8.9491251667e-02
-7.0378510379e+00   -8.9764652114e-02
-7.0280830281e+00   -9.0037652519e-02
-7.0183150183e+00   -9.0310239497e-02
-7.0085470085e+00   -9.0582399539e-02
-6.9987789988e+00   -9.0854119012e-02
-6.9890109890e+00   -9.1125384151e-02
-6.9792429792e+00   -9.1396181066e-02
-6.9694749695e+00   -9.1666495738e-02
-6.9597069597e+00   -9.1936314014e-02
-6.9499389499e+00   -9.2205621616e-02
-6.9401709402e+00   -9.2474404128e-02
-6.9304029304e+00   -9.2742647005e-02
-6.9206349206e+00   -9.3010335568e-02
-6.9108669109e+00   -9.3277455003e-02
-6.9010989011e+00   -9.3543990358e-02
-6.8913308913e+00   -9.3809926549e-02
-6.8815628816e+00   -9.4075248351e-02
-6.8717948718e+00   -9.4339940401e-02
-6.8620268620e+00   -9.4603987200e-02
-6.8522588523e+00   -9.4867373104e-02
-6.8424908425e+00   -9.5130082332e-02
-6.8327228327e+00   -9.5392098958e-02
-6.8229548230e+00   -9.5653406913e-02
-6.8131868132e+00   -9.5913989986e-02
-6.8034188034e+00   -9.6173831819e-02
-6.7936507937e+00   -9.6432915909e-02
-6.7838827839e+00   -9.6691225605e-02
-6.7741147741e+00   -9.6948744109e-02
-6.7643467643e+00   -9.7205454472e-02
-6.7545787546e+00   -9.7461339599e-02
-6.7448107448e+00   -9.7716382238e-02
-6.7350427350e+00   -9.7970564991e-02
-6.7252747253e+00   -9.8223870303e-02
-6.7155067155e+00   -9.8476280465e-02
-6.7057387057e+00   -9.8727777615e-02
-6.6959706960e+00   -9.8978343733e-02
-6.6862026862e+00   -9.9227960643e-02
-6.6764346764e+00   -9.9476610009e-02
-6.6666666667e+00   -9.9724273338e-02
-6.6568986569e+00   -9.9970931974e-02
-6.6471306471e+00   -1.0021656710e-01
-6.6373626374e+00   -1.0046115974e-01
-6.6275946276e+00   -1.0070469075e-01
-6.6178266178e+00   -1.0094714082e-01
-6.6080586081e+00   -1.0118849048e-01
-6.5982905983e+00   -1.0142872009e-01
-6.5885225885e+00   -1.0166780984e-01
-6.5787545788e+00   -1.0190573975e-01
-6.5689865690e+00   -1.0214248968e-01
-6.5592185592e+00   -1.0237803930e-01
-6.5494505495e+00   -1.0261236813e-01
-6.5396825397e+00   -1.0284545550e-01
-6.5299145299e+00   -1.0307728057e-01
-6.5201465201e+00   -1.0330782233e-01
-6.5103785104e+00   -1.0353705957e-01
-6.5006105006e+00   -1.0376497093e-01
-6.4908424908e+00   -1.0399153486e-01
-6.4810744811e+00   -1.0421672963e-01
-6.4713064713e+00   -1.0444053331e-01
-6.4615384615e+00   -1.0466292383e-01
-6.4517704518e+00   -1.0488387889e-01
-6.4420024420e+00   -1.0510337602e-01
-6.4322344322e+00   -1.0532139259e-01
-6.4224664225e+00   -1.0553790573e-01
-6.4126984127e+00   -1.0575289243e-01
-6.4029304029e+00   -1.0596632947e-01
-6.3931623932e+00   -1.0617819343e-01
-6.3833943834e+00   -1.0638846070e-01
-6.3736263736e+00   -1.0659710750e-01
-6.3638583639e+00   -1.0680410982e-01
-6.3540903541e+00   -1.0700944347e-01
-6.3443223443e+00   -1.0721308408e-01
-6.3345543346e+00   -1.0741500703e-01
-6.3247863248e+00   -1.0761518756e-01
-6.3150183150e+00   -1.0781360067e-01
-6.3052503053e+00   -1.0801022116e-01
-6.2954822955e+00   -1.0820502365e-01
-6.2857142857e+00   -1.0839798252e-01
-6.2759462759e+00   -1.0858907197e-01
-6.2661782662e+00   -1.0877826597e-01
-6.2564102564e+00   -1.0896553831e-01
-6.2466422466e+00   -1.0915086253e-01
-6.2368742369e+00   -1.0933421200e-01
-6.2271062271e+00   -1.0951555984e-01
-6.2173382173e+00   -1.0969487897e-01
-6.2075702076e+00   -1.0987214210e-01
-6.1978021978e+00   -1.1004732171e-01
-6.1880341880e+00   -1.1022039008e-01
-6.1782661783e+00   -1.1039131923e-01
-6.1684981685e+00   -1.1056008100e-01
-6.1587301587e+00   -1.1072664699e-01
-6.1489621490e+00   -1.1089098857e-01
-6.1391941392e+00   -1.1105307689e-01
-6.1294261294e+00   -1.1121288286e-01
-6.1196581197e+00   -1.1137037719e-01
-6.1098901099e+00   -1.1152553034e-01
-6.1001221001e+00   -1.1167831252e-01
-6.0903540904e+00   -1.1182869373e-01
-6.0805860806e+00   -1.1197664375e-01
-6.0708180708e+00   -1.1212213208e-01
-6.0610500611e+00   -1.1226512801e-01
-6.0512820513e+00   -1.1240560059e-01
-6.0415140415e+00   -1.1254351862e-01
-6.0317460317e+00   -1.1267885066e-01
-6.0219780220e+00   -1.1281156503e-01
-6.0122100122e+00   -1.1294162981e-01
-6.0024420024e+00   -1.1306901281e-01
-5.9926739927e+00   -1.1319368161e-01
-5.9829059829e+00   -1.1331560353e-01
-5.9731379731e+00   -1.1343474565e-01
-5.9633699634e+00   -1.1355107479e-01
-5.9536019536e+00   -1.1366455751e-01
-5.9438339438e+00   -1.1377516012e-01
-5.9340659341e+00   -1.1388284866e-01
-5.9242979243e+00   -1.1398758893e-01
-5.9145299145e+00   -1.1408934645e-01
-5.9047619048e+00   -1.1418808648e-01
-5.8949938950e+00   -1.1428377403e-01
-5.8852258852e+00   -1.1437637383e-01
-5.8754578755e+00   -1.1446585033e-01
-5.8656898657e+00   -1.1455216774e-01
-5.8559218559e+00   -1.1463528997e-01
-5.8461538462e+00   -1.1471518068e-01
-5.8363858364e+00   -1.1479180324e-01
-5.8266178266e+00   -1.1486512074e-01
-5.8168498168e+00   -1.1493509600e-01
-5.8070818071e+00   -1.1500169156e-01
-5.7973137973e+00   -1.1506486969e-01
-5.7875457875e+00   -1.1512459234e-01
-5.7777777778e+00   -1.1518082121e-01
-5.7680097680e+00   -1.1523351770e-01
-5.7582417582e+00   -1.1528264292e-01
-5.7484737485e+00   -1.1532815768e-01
-5.7387057387e+00   -1.1537002252e-01
-5.7289377289e+00   -1.1540819767e-01
-5.7191697192e+00   -1.1544264306e-01
-5.7094017094e+00   -1.1547331833e-01
-5.6996336996e+00   -1.1550018282e-01
-5.6898656899e+00   -1.1552319557e-01
-5.6800976801e+00   -1.1554231532e-01
-5.6703296703e+00   -1.1555750047e-01
-5.6605616606e+00   -1.1556870917e-01
-5.6507936508e+00   -1.1557589921e-01
-5.6410256410e+00   -1.1557902810e-01
-5.6312576313e+00   -1.1557805303e-01
-5.6214896215e+00   -1.1557293085e-01
-5.6117216117e+00   -1.1556361814e-01
-5.6019536020e+00   -1.1555007111e-01
-5.5921855922e+00   -1.1553224569e-01
-5.5824175824e+00   -1.1551009747e-01
-5.5726495726e+00   -1.1548358171e-01
-5.5628815629e+00   -1.1545265336e-01
-5.5531135531e+00   -1.1541726701e-01
-5.5433455433e+00   -1.1537737696e-01
-5.5335775336e+00   -1.1533293714e-01
-5.5238095238e+00   -1.1528390116e-01
-5.5140415140e+00   -1.1523022231e-01
-5.5042735043e+00   -1.1517185352e-01
-5.4945054945e+00   -1.1510874737e-01
-5.4847374847e+00   -1.1504085613e-01
-5.4749694750e+00   -1.1496813168e-01
-5.4652014652e+00   -1.1489052560e-01
-5.4554334554e+00   -1.1480798909e-01
-5.4456654457e+00   -1.1472047300e-01
-5.4358974359e+00   -1.1462792783e-01
-5.4261294261e+00   -1.1453030374e-01
-5.4163614164e+00   -1.1442755050e-01
-5.4065934066e+00   -1.1431961755e-01
-5.3968253968e+00   -1.1420645394e-01
-5.3870573871e+00   -1.1408800838e-01
-5.3772893773e+00   -1.1396422920e-01
-5.3675213675e+00   -1.1383506436e-01
-5.3577533578e+00   -1.1370046145e-01
-5.3479853480e+00   -1.1356036768e-01
-5.3382173382e+00   -1.1341472990e-01
-5.3284493284e+00   -1.1326349457e-01
-5.3186813187e+00   -1.1310660777e-01
-5.3089133089e+00   -1.1294401520e-01
-5.2991452991e+00   -1.1277566217e-01
-5.2893772894e+00   -1.1260149360e-01
-5.2796092796e+00   -1.1242145403e-01
-5.2698412698e+00   -1.1223548761e-01
-5.2600732601e+00   -1.1204353806e-01
-5.2503052503e+00   -1.1184554876e-01
-5.2405372405e+00   -1.1164146264e-01
-5.2307692308e+00   -1.1143122225e-01
-5.2210012210e+00   -1.1121476974e-01
-5.2112332112e+00   -1.1099204684e-01
-5.2014652015e+00   -1.1076299488e-01
-5.1916971917e+00   -1.1052755476e-01
-5.1819291819e+00   -1.1028566700e-01
-5.1721611722e+00   -1.1003727167e-01
-5.1623931624e+00   -1.0978230843e-01
-5.1526251526e+00   -1.0952071652e-01
-5.1428571429e+00   -1.0925243477e-01
-5.1330891331e+00   -1.0897740155e-01
-5.1233211233e+00   -1.0869555482e-01
-5.1135531136e+00   -1.0840683211e-01
-5.1037851038e+00   -1.0811117052e-01
-5.0940170940e+00   -1.0780850668e-01
-5.0842490842e+00   -1.0749877682e-01
-5.0744810745e+00   -1.0718191669e-01
-5.0647130647e+00   -1.0685786163e-01
-5.0549450549e+00   -1.0652654651e-01
-5.0451770452e+00   -1.0618790574e-01
-5.0354090354e+00   -1.0584187331e-01
-5.0256410256e+00   -1.0548838271e-01
-5.0158730159e+00   -1.0512736700e-01
-5.0061050061e+00   -1.0475875877e-01
-4.9963369963e+00   -1.0438249014e-01
-4.9865689866e+00   -1.0399849277e-01
-4.9768009768e+00   -1.0360669785e-01
-4.9670329670e+00   -1.0320703608e-01
-4.9572649573e+00   -1.0279943769e-01
-4.9474969475e+00   -1.0238383245e-01
-4.9377289377e+00   -1.0196014963e-01
-4.9279609280e+00   -1.0152831800e-01
-4.9181929182e+00   -1.0108826588e-01
-4.9084249084e+00   -1.0063992106e-01
-4.8986568987e+00   -1.0018321086e-01
-4.8888888889e+00   -9.9718062096e-02
-4.8791208791e+00   -9.9244401077e-02
-4.8693528694e+00   -9.8762153617e-02
-4.8595848596e+00   -9.8271245019e-02
-4.8498168498e+00   -9.7771600078e-02
-4.8400488400e+00   -9.7263143076e-02
-4.8302808303e+00   -9.6745797778e-02
-4.8205128205e+00   -9.6219487431e-02
-4.8107448107e+00   -9.5684134760e-02
-4.8009768010e+00   -9.5139661963e-02
-4.7912087912e+00   -9.4585990711e-02
-4.7814407814e+00   -9.4023042141e-02
-4.7716727717e+00   -9.3450736858e-02
-4.7619047619e+00   -9.2868994924e-02
-4.7521367521e+00   -9.2277735864e-02
-4.7423687424e+00   -9.1676878656e-02
-4.7326007326e+00   -9.1066341727e-02
-4.7228327228e+00   -9.0446042957e-02
-4.7130647131e+00   -8.9815899667e-02
-4.7032967033e+00   -8.9175828621e-02
-4.6935286935e+00   -8.8525746020e-02
-4.6837606838e+00   -8.7865567501e-02
-4.6739926740e+00   -8.7195208131e-02
-4.6642246642e+00   -8.6514582404e-02
-4.6544566545e+00   -8.5823604239e-02
-4.6446886447e+00   -8.5122186976e-02
-4.6349206349e+00   -8.4410243369e-02
-4.6251526252e+00   -8.3687685589e-02
-4.6153846154e+00   -8.2954425213e-02
-4.6056166056e+00   -8.2210373227e-02
-4.5958485958e+00   -8.1455440017e-02
-4.5860805861e+00   -8.0689535368e-02
-4.5763125763e+00   -7.9912568462e-02
-4.5665445665e+00   -7.9124447868e-02
-4.5567765568e+00   -7.8325081547e-02
-4.5470085470e+00   -7.7514376840e-02
-4.5372405372e+00   -7.6692240469e-02
-4.5274725275e+00   -7.5858578532e-02
-4.5177045177e+00   -7.5013296497e-02
-4.5079365079e+00   -7.4156299203e-02
-4.4981684982e+00   -7.3287490850e-02
-4.4884004884e+00   -7.2406775001e-02
-4.4786324786e+00   -7.1514054572e-02
-4.4688644689e+00   -7.0609231833e-02
-4.4590964591e+00   -6.9692208402e-02
-4.4493284493e+00   -6.8762885239e-02
-4.4395604396e+00   -6.7821162646e-02
-4.4297924298e+00   -6.6866940259e-02
-4.4200244200e+00   -6.5900117047e-02
-4.4102564103e+00   -6.4920591303e-02
-4.4004884005e+00   -6.3928260647e-02
-4.3907203907e+00   -6.2923022014e-02
-4.3809523810e+00   -6.1904771655e-02
-4.3711843712e+00   -6.0873405132e-02
-4.3614163614e+00   -5.9828817310e-02
-4.3516483516e+00   -5.8770902358e-02
-4.3418803419e+00   -5.7699553739e-02
-4.3321123321e+00   -5.6614664210e-02
-4.3223443223e+00   -5.5516125816e-02
-4.3125763126e+00   -5.4403829883e-02
-4.3028083028e+00   -5.3277667018e-02
-4.2930402930e+00   -5.2137527101e-02
-4.2832722833e+00   -5.0983299281e-02
-4.2735042735e+00   -4.9814871972e-02
-4.2637362637e+00   -4.8632132849e-02
-4.2539682540e+00   -4.7434968838e-02
-4.2442002442e+00   -4.6223266121e-02
-4.2344322344e+00   -4.4996910122e-02
-4.2246642247e+00   -4.3755785505e-02
-4.2148962149e+00   -4.2499776173e-02
-4.2051282051e+00   -4.1228765255e-02
-4.1953601954e+00   -3.9942635110e-02
-4.1855921856e+00   -3.8641267316e-02
-4.1758241758e+00   -3.7324542665e-02
-4.1660561661e+00   -3.5992341162e-02
-4.1562881563e+00   -3.4644542016e-02
-4.1465201465e+00   -3.3281023634e-02
-4.1367521368e+00   -3.1901663622e-02
-4.1269841270e+00   -3.0506338772e-02
-4.1172161172e+00   -2.9094925062e-02
-4.1074481074e+00   -2.7667297646e-02
-4.0976800977e+00   -2.6223330855e-02
-4.0879120879e+00   -2.4762898185e-02
-4.0781440781e+00   -2.3285872295e-02
-4.0683760684e+00   -2.1792125000e-02
-4.0586080586e+00   -2.0281527268e-02
-4.0488400488e+00   -1.8753949209e-02
-4.0390720391e+00   -1.7209260076e-02
-4.0293040293e+00   -1.5647328252e-02
-4.0195360195e+00   -1.4068021252e-02
-4.0097680098e+00   -1.2471205710e-02
-4.0000000000e+00   -1.0856747376e-02
-3.9902319902e+00   -9.2245111124e-03
-3.9804639805e+00   -7.5743608836e-03
-3.9706959707e+00   -5.9061597524e-03
-3.9609279609e+00   -4.2197698734e-03
-3.9511599512e+00   -2.5150524865e-03
-3.9413919414e+00   -7.9186791084e-04
-3.9316239316e+00   9.4992446155e-04
-3.9218559219e+00   2.7104661723e-03
-3.9120879121e+00   4.4898997032e-03
-3.9023199023e+00   6.2883684823e-03
-3.8925518926e+00   8.1060168911e-03
-3.8827838828e+00   9.9429902709e-03
-3.8730158730e+00   1.1799434929e-02
-3.8632478632e+00   1.3675498148e-02
-3.8534798535e+00   1.5571328188e-02
-3.8437118437e+00   1.7487074297e-02
-3.8339438339e+00   1.9422886719e-02
-3.8241758242e+00   2.1378916697e-02
-3.8144078144e+00   2.3355316483e-02
-3.8046398046e+00   2.5352239344e-02
-3.7948717949e+00   2.7369839572e-02
-3.7851037851e+00   2.9408272486e-02
-3.7753357753e+00   3.1467694445e-02
-3.7655677656e+00   3.3548262851e-02
-3.7557997558e+00   3.5650136161e-02
-3.7460317460e+00   3.7773473891e-02
-3.7362637363e+00   3.9918436625e-02
-3.7264957265e+00   4.2085186022e-02
-3.7167277167e+00   4.4273884828e-02
-3.7069597070e+00   4.6484696877e-02
-3.6971916972e+00   4.8717787106e-02
-3.6874236874e+00   5.0973321558e-02
-3.6776556777e+00   5.3251467392e-02
-3.6678876679e+00   5.5552392895e-02
-3.6581196581e+00   5.7876267482e-02
-3.6483516484e+00   6.0223261715e-02
-3.6385836386e+00   6.2593547302e-02
-3.6288156288e+00   6.4987297112e-02
-3.6190476190e+00   6.7404685182e-02
-3.6092796093e+00   6.9845886724e-02
-3.5995115995e+00   7.2311078139e-02
-3.5897435897e+00   7.4800437020e-02
-3.5799755800e+00   7.7314142165e-02
-3.5702075702e+00   7.9852373585e-02
-3.5604395604e+00   8.2415312516e-02
-3.5506715507e+00   8.5003141424e-02
-3.5409035409e+00   8.7616044019e-02
-3.5311355311e+00   9.0254205263e-02
-3.5213675214e+00   9.2917811377e-02
-3.5115995116e+00   9.5607049859e-02
-3.5018315018e+00   9.8322109484e-02
-3.4920634921e+00   1.0106318032e-01
-3.4822954823e+00   1.0383045375e-01
-3.4725274725e+00   1.0662412245e-01
-3.4627594628e+00   1.0944438043e-01
-3.4529914530e+00   1.1229142303e-01
-3.4432234432e+00   1.1516544696e-01
-3.4334554335e+00   1.1806665025e-01
-3.4236874237e+00   1.2099523231e-01
-3.4139194139e+00   1.2395139396e-01
-3.4041514042e+00   1.2693533736e-01
-3.3943833944e+00   1.2994726611e-01
-3.3846153846e+00   1.3298738522e-01
-3.3748473748e+00   1.3605590110e-01
-3.3650793651e+00   1.3915302163e-01
-3.3553113553e+00   1.4227895612e-01
-3.3455433455e+00   1.4543391536e-01
-3.3357753358e+00   1.4861811161e-01
-3.3260073260e+00   1.5183175860e-01
-3.3162393162e+00   1.5507507159e-01
-3.3064713065e+00   1.5834826733e-01
-3.2967032967e+00   1.6165156412e-01
-3.2869352869e+00   1.6498518179e-01
-3.2771672772e+00   1.6834934173e-01
-3.2673992674e+00   1.7174426688e-01
-3.2576312576e+00   1.7517018180e-01
-3.2478632479e+00   1.7862731261e-01
-3.2380952381e+00   1.8211588705e-01
-3.2283272283e+00   1.8563613452e-01
-3.2185592186e+00   1.8918828602e-01
-3.2087912088e+00   1.9277257422e-01
-3.1990231990e+00   1.9638923347e-01
-3.1892551893e+00   2.0003849980e-01
-3.1794871795e+00   2.0372061094e-01
-3.1697191697e+00   2.0743580635e-01
-3.1599511600e+00   2.1118432722e-01
-3.1501831502e+00   2.1496641649e-01
-3.1404151404e+00   2.1878231886e-01
-3.1306471306e+00   2.2263228085e-01
-3.1208791209e+00   2.2651655073e-01
-3.1111111111e+00   2.3043537864e-01
-3.1013431013e+00   2.3438901654e-01
-3.0915750916e+00   2.3837771822e-01
-3.0818070818e+00   2.4240173940e-01
-3.0720390720e+00   2.4646133764e-01
-3.0622710623e+00   2.5055677244e-01
-3.0525030525e+00   2.5468830523e-01
-3.0427350427e+00   2.5885619939e-01
-3.0329670330e+00   2.6306072026e-01
-3.0231990232e+00   2.6730213519e-01
-3.0134310134e+00   2.7158071352e-01
-3.0036630037e+00   2.7589672664e-01
-2.9938949939e+00   2.8025044799e-01
-2.9841269841e+00   2.8464215308e-01
-2.9743589744e+00   2.8907211952e-01
-2.9645909646e+00   2.9354062704e-01
-2.9548229548e+00   2.9804795751e-01
-2.9450549451e+00   3.0259439497e-01
-2.9352869353e+00   3.0718022564e-01
-2.9255189255e+00   3.1180573796e-01
-2.9157509158e+00   3.1647122261e-01
-2.9059829060e+00   3.2117697251e-01
-2.8962148962e+00   3.2592328289e-01
-2.8864468864e+00   3.3071045127e-01
-2.8766788767e+00   3.3553877754e-01
-2.8669108669e+00   3.4040856392e-01
-2.8571428571e+00   3.4532011503e-01
-2.8473748474e+00   3.5027373792e-01
-2.8376068376e+00   3.5526974207e-01
-2.8278388278e+00   3.6030843945e-01
-2.8180708181e+00   3.6539014451e-01
-2.8083028083e+00   3.7051517426e-01
-2.7985347985e+00   3.7568384826e-01
-2.7887667888e+00   3.8089648865e-01
-2.7789987790e+00   3.8615342020e-01
-2.7692307692e+00   3.9145497035e-01
-2.7594627595e+00   3.9680146921e-01
-2.7496947497e+00   4.0219324962e-01
-2.7399267399e+00   4.0763064715e-01
-2.7301587302e+00   4.1311400020e-01
-2.7203907204e+00   4.1864364995e-01
-2.7106227106e+00   4.2421994046e-01
-2.7008547009e+00   4.2984321867e-01
-2.6910866911e+00   4.3551383446e-01
-2.6813186813e+00   4.4123214066e-01
-2.6715506716e+00   4.4699849312e-01
-2.6617826618e+00   4.5281325074e-01
-2.6520146520e+00   4.5867677547e-01
-2.6422466422e+00   4.6458943242e-01
-2.6324786325e+00   4.7055158984e-01
-2.6227106227e+00   4.7656361919e-01
-2.6129426129e+00   4.8262589519e-01
-2.6031746032e+00   4.8873879583e-01
-2.5934065934e+00   4.9490270247e-01
-2.5836385836e+00   5.0111799981e-01
-2.5738705739e+00   5.0738507601e-01
-2.5641025641e+00   5.1370432269e-01
-2.5543345543e+00   5.2007613500e-01
-2.5445665446e+00   5.2650091166e-01
-2.5347985348e+00   5.3297905500e-01
-2.5250305250e+00   5.3951097104e-01
-2.5152625153e+00   5.4609706953e-01
-2.5054945055e+00   5.5273776397e-01
-2.4957264957e+00   5.5943347172e-01
-2.4859584860e+00   5.6618461402e-01
-2.4761904762e+00   5.7299161605e-01
-2.4664224664e+00   5.7985490699e-01
-2.4566544567e+00   5.8677492010e-01
-2.4468864469e+00   5.9375209274e-01
-2.4371184371e+00   6.0078686647e-01
-2.4273504274e+00   6.0787968708e-01
-2.4175824176e+00   6.1503100469e-01
-2.4078144078e+00   6.2224127377e-01
-2.3980463980e+00   6.2951095326e-01
-2.3882783883e+00   6.3684050660e-01
-2.3785103785e+00   6.4423040181e-01
-2.3687423687e+00   6.5168111156e-01
-2.3589743590e+00   6.5919311325e-01
-2.3492063492e+00   6.6676688908e-01
-2.3394383394e+00   6.7440292612e-01
-2.3296703297e+00   6.8210171640e-01
-2.3199023199e+00   6.8986375699e-01
-2.3101343101e+00   6.9768955006e-01
-2.3003663004e+00   7.0557960300e-01
-2.2905982906e+00   7.1353442845e-01
-2.2808302808e+00   7.2155454445e-01
-2.2710622711e+00   7.2964047448e-01
-2.2612942613e+00   7.3779274759e-01
-2.2515262515e+00   7.4601189845e-01
-2.2417582418e+00   7.5429846749e-01
-2.2319902320e+00   7.6265300094e-01
-2.2222222222e+00   7.7107605101e-01
-2.2124542125e+00   7.7956817591e-01
-2.2026862027e+00   7.8812993999e-01
-2.1929181929e+00   7.9676191388e-01
-2.1831501832e+00   8.0546467452e-01
-2.1733821734e+00   8.1423880534e-01
-2.1636141636e+00   8.2308489635e-01
-2.1538461538e+00   8.3200354425e-01
-2.1440781441e+00   8.4099535255e-01
-2.1343101343e+00   8.5006093170e-01
-2.1245421245e+00   8.5920089920e-01
-2.1147741148e+00   8.6841587977e-01
-2.1050061050e+00   8.7770650541e-01
-2.0952380952e+00   8.8707341560e-01
-2.0854700855e+00   8.9651725739e-01
-2.0757020757e+00   9.0603868556e-01
-2.0659340659e+00   9.1563836278e-01
-2.0561660562e+00   9.2531695971e-01
-2.0463980464e+00   9.3507515521e-01
-2.0366300366e+00   9.4491363642e-01
-2.0268620269e+00   9.5483309899e-01
-2.0170940171e+00   9.6483424719e-01
-2.0073260073e+00   9.7491779411e-01
-1.9975579976e+00   9.8508446179e-01
-1.9877899878e+00   9.9533498142e-01
-1.9780219780e+00   1.0056700935e+00
-1.9682539683e+00   1.0160905481e+00
-1.9584859585e+00   1.0265971048e+00
-1.9487179487e+00   1.0371905332e+00
-1.9389499389e+00   1.0478716131e+00
-1.9291819292e+00   1.0586411341e+00
-1.9194139194e+00   1.0694998968e+00
-1.9096459096e+00   1.0804487121e+00
-1.8998778999e+00   1.0914884019e+00
-1.8901098901e+00   1.1026197993e+00
-1.8803418803e+00   1.1138437486e+00
-1.8705738706e+00   1.1251611058e+00
-1.8608058608e+00   1.1365727384e+00
-1.8510378510e+00   1.1480795262e+00
-1.8412698413e+00   1.1596823611e+00
-1.8315018315e+00   1.1713821477e+00
-1.8217338217e+00   1.1831798031e+00
-1.8119658120e+00   1.1950762577e+00
-1.8021978022e+00   1.2070724550e+00
-1.7924297924e+00   1.2191693522e+00
-1.7826617827e+00   1.2313679203e+00
-1.7728937729e+00   1.2436691443e+00
-1.7631257631e+00   1.2560740239e+00
-1.7533577534e+00   1.2685835733e+00
-1.7435897436e+00   1.2811988218e+00
-1.7338217338e+00   1.2939208141e+00
-1.7240537241e+00   1.3067506105e+00
-1.7142857143e+00   1.3196892873e+00
-1.7045177045e+00   1.3327379370e+00
-1.6947496947e+00   1.3458976690e+00
-1.6849816850e+00   1.3591696095e+00
-1.6752136752e+00   1.3725549021e+00
-1.6654456654e+00   1.3860547083e+00
-1.6556776557e+00   1.3996702074e+00
-1.6459096459e+00   1.4134025973e+00
-1.6361416361e+00   1.4272530948e+00
-1.6263736264e+00   1.4412229360e+00
-1.6166056166e+00   1.4553133764e+00
-1.6068376068e+00   1.4695256918e+00
-1.5970695971e+00   1.4838611783e+00
-1.5873015873e+00   1.4983211530e+00
-1.5775335775e+00   1.5129069543e+00
-1.5677655678e+00   1.5276199423e+00
-1.5579975580e+00   1.5424614994e+00
-1.5482295482e+00   1.5574330306e+00
-1.5384615385e+00   1.5725359640e+00
-1.5286935287e+00   1.5877717514e+00
-1.5189255189e+00   1.6031418686e+00
-1.5091575092e+00   1.6186478159e+00
-1.4993894994e+00   1.6342911186e+00
-1.4896214896e+00   1.6500733279e+00
-1.4798534799e+00   1.6659960206e+00
-1.4700854701e+00   1.6820608003e+00
-1.4603174603e+00   1.6982692976e+00
-1.4505494505e+00   1.7146231706e+00
-1.4407814408e+00   1.7311241058e+00
-1.4310134310e+00   1.7477738180e+00
-1.4212454212e+00   1.7645740514e+00
-1.4114774115e+00   1.7815265799e+00
-1.4017094017e+00   1.7986332076e+00
-1.3919413919e+00   1.8158957693e+00
-1.3821733822e+00   1.8333161314e+00
-1.3724053724e+00   1.8508961919e+00
-1.3626373626e+00   1.8686378814e+00
-1.3528693529e+00   1.8865431635e+00
-1.3431013431e+00   1.9046140351e+00
-1.3333333333e+00   1.9228525272e+00
-1.3235653236e+00   1.9412607054e+00
-1.3137973138e+00   1.9598406704e+00
-1.3040293040e+00   1.9785945584e+00
-1.2942612943e+00   1.9975245416e+00
-1.2844932845e+00   2.0166328288e+00
-1.2747252747e+00   2.0359216659e+00
-1.2649572650e+00   2.0553933360e+00
-1.2551892552e+00   2.0750501604e+00
-1.2454212454e+00   2.0948944983e+00
-1.2356532357e+00   2.1149287478e+00
-1.2258852259e+00   2.1351553458e+00
-1.2161172161e+00   2.1555767687e+00
-1.2063492063e+00   2.1761955322e+00
-1.1965811966e+00   2.1970141919e+00
-1.1868131868e+00   2.2180353432e+00
-1.1770451770e+00   2.2392616218e+00
-1.1672771673e+00   2.2606957032e+00
-1.1575091575e+00   2.2823403033e+00
-1.1477411477e+00   2.3041981778e+00
-1.1379731380e+00   2.3262721225e+00
-1.1282051282e+00   2.3485649725e+00
-1.1184371184e+00   2.3710796027e+00
-1.1086691087e+00   2.3938189264e+00
-1.0989010989e+00   2.4167858955e+00
-1.0891330891e+00   2.4399834996e+00
-1.0793650794e+00   2.4634147650e+00
-1.0695970696e+00   2.4870827540e+00
-1.0598290598e+00   2.5109905640e+00
-1.0500610501e+00   2.5351413256e+00
-1.0402930403e+00   2.5595382019e+00
-1.0305250305e+00   2.5841843862e+00
-1.0207570208e+00   2.6090831008e+00
-1.0109890110e+00   2.6342375944e+00
-1.0012210012e+00   2.6596511403e+00
-9.9145299145e-01   2.6853270331e+00
-9.8168498168e-01   2.7112685866e+00
-9.7191697192e-01   2.7374791303e+00
-9.6214896215e-01   2.7639620057e+00
-9.5238095238e-01   2.7907205631e+00
-9.4261294261e-01   2.8177581565e+00
-9.3284493284e-01   2.8450781397e+00
-9.2307692308e-01   2.8726838611e+00
-9.1330891331e-01   2.9005786579e+00
-9.0354090354e-01   2.9287658505e+00
-8.9377289377e-01   2.9572487355e+00
-8.8400488400e-01   2.9860305791e+00
-8.7423687424e-01   3.0151146091e+00
-8.6446886447e-01   3.0445040069e+00
-8.5470085470e-01   3.0742018979e+00
-8.4493284493e-01   3.1042113426e+00
-8.3516483516e-01   3.1345353254e+00
-8.2539682540e-01   3.1651767438e+00
-8.1562881563e-01   3.1961383960e+00
-8.0586080586e-01   3.2274229679e+00
-7.9609279609e-01   3.2590330193e+00
-7.8632478632e-01   3.2909709686e+00
-7.7655677656e-01   3.3232390771e+00
-7.6678876679e-01   3.3558394315e+00
-7.5702075702e-01   3.3887739256e+00
-7.4725274725e-01   3.4220442409e+00
-7.3748473748e-01   3.4556518257e+00
-7.2771672772e-01   3.4895978729e+00
-7.1794871795e-01   3.5238832961e+00
-7.0818070818e-01   3.5585087052e+00
-6.9841269841e-01   3.5934743793e+00
-6.8864468864e-01   3.6287802387e+00
-6.7887667888e-01   3.6644258154e+00
-6.6910866911e-01   3.7004102218e+00
-6.5934065934e-01   3.7367321171e+00
-6.4957264957e-01   3.7733896733e+00
-6.3980463980e-01   3.8103805378e+00
-6.3003663004e-01   3.8477017960e+00
-6.2026862027e-01   3.8853499305e+00
-6.1050061050e-01   3.9233207796e+00
-6.0073260073e-01   3.9616094935e+00
-5.9096459096e-01   4.0002104887e+00
-5.8119658120e-01   4.0391174012e+00
-5.7142857143e-01   4.0783230378e+00
-5.6166056166e-01   4.1178193252e+00
-5.5189255189e-01   4.1575972588e+00
-5.4212454212e-01   4.1976468492e+00
-5.3235653236e-01   4.2379570678e+00
-5.2258852259e-01   4.2785157918e+00
-5.1282051282e-01   4.3193097478e+00
-5.0305250305e-01   4.3603244551e+00
-4.9328449328e-01   4.4015441691e+00
-4.8351648352e-01   4.4429518238e+00
-4.7374847375e-01   4.4845289761e+00
-4.6398046398e-01   4.5262557497e+00
-4.5421245421e-01   4.5681107811e+00
-4.4444444444e-01   4.6100711670e+00
-4.3467643468e-01   4.6521124141e+00
-4.2490842491e-01   4.6942083920e+00
-4.1514041514e-01   4.7363312897e+00
-4.0537240537e-01   4.7784515760e+00
-3.9560439560e-01   4.8205379654e+00
-3.8583638584e-01   4.8625573894e+00
-3.7606837607e-01   4.9044749742e+00
-3.6630036630e-01   4.9462540269e+00
-3.5653235653e-01   4.9878560282e+00
-3.4676434676e-01   5.0292406361e+00
-3.3699633700e-01   5.0703656981e+00
-3.2722832723e-01   5.1111872754e+00
-3.1746031746e-01   5.1516596782e+00
-3.0769230769e-01   5.1917355142e+00
-2.9792429792e-01   5.2313657499e+00
-2.8815628816e-01   5.2704997863e+00
-2.7838827839e-01   5.3090855497e+00
-2.6862026862e-01   5.3470695972e+00
-2.5885225885e-01   5.3843972385e+00
-2.4908424908e-01   5.4210126734e+00
-2.3931623932e-01   5.4568591460e+00
-2.2954822955e-01   5.4918791141e+00
-2.1978021978e-01   5.5260144357e+00
-2.1001221001e-01   5.5592065701e+00
-2.0024420024e-01   5.5913967944e+00
-1.9047619048e-01   5.6225264338e+00
-1.8070818071e-01   5.6525371046e+00
-1.7094017094e-01   5.6813709687e+00
-1.6117216117e-01   5.7089709984e+00
-1.5140415140e-01   5.7352812489e+00
-1.4163614164e-01   5.7602471363e+00
-1.3186813187e-01   5.7838157207e+00
-1.2210012210e-01   5.8059359887e+00
-1.1233211233e-01   5.8265591363e+00
-1.0256410256e-01   5.8456388465e+00
-9.2796092796e-02   5.8631315608e+00
-8.3028083028e-02   5.8789967405e+00
-7.3260073260e-02   5.8931971153e+00
-6.3492063492e-02   5.9056989172e+00
-5.3724053724e-02   5.9164720954e+00
-4.3956043956e-02   5.9254905111e+00
-3.4188034188e-02   5.9327321093e+00
-2.4420024420e-02   5.9381790651e+00
-1.4652014652e-02   5.9418179029e+00
-4.8840048840e-03   5.9436395883e+00
4.8840048840e-03   5.9436395883e+00
1.4652014652e-02   5.9418179029e+00
2.4420024420e-02   5.9381790651e+00
3.4188034188e-02   5.9327321093e+00
4.3956043956e-02   5.9254905111e+00
5.3724053724e-02   5.9164720954e+00
6.3492063492e-02   5.9056989172e+00
7.3260073260e-02   5.8931971153e+00
8.3028083028e-02   5.8789967405e+00
9.2796092796e-02   5.8631315608e+00
1.0256410256e-01   5.8456388465e+00
1.1233211233e-01   5.8265591363e+00
1.2210012210e-01   5.8059359887e+00
1.3186813187e-01   5.7838157207e+00
1.4163614164e-01   5.7602471363e+00
1.5140415140e-01   5.7352812489e+00
1.6117216117e-01   5.7089709984e+00
1.7094017094e-01   5.6813709687e+00
1.8070818071e-01   5.6525371046e+00
1.9047619048e-01   5.6225264338e+00
2.0024420024e-01   5.5913967944e+00
2.1001221001e-01   5.5592065701e+00
2.1978021978e-01   5.5260144357e+00
2.2954822955e-01   5.4918791141e+00
2.3931623932e-01   5.4568591460e+00
2.4908424908e-01   5.4210126734e+00
2.5885225885e-01   5.3843972385e+00
2.6862026862e-01   5.3470695972e+00
2.7838827839e-01   5.3090855497e+00
2.8815628816e-01   5.2704997863e+00
2.9792429792e-01   5.2313657499e+00
3.0769230769e-01   5.1917355142e+00
3.1746031746e-01   5.1516596782e+00
3.2722832723e-01   5.1111872754e+00
3.3699633700e-01   5.0703656981e+00
3.4676434676e-01   5.0292406361e+00
3.5653235653e-01   4.9878560282e+00
3.6630036630e-01   4.9462540269e+00
3.7606837607e-01   4.9044749742e+00
3.8583638584e-01   4.8625573894e+00
3.9560439560e-01   4.8205379654e+00
4.0537240537e-01   4.7784515760e+00
4.1514041514e-01   4.7363312897e+00
4.2490842491e-01   4.6942083920e+00
4.3467643468e-01   4.6521124141e+00
4.4444444444e-01   4.6100711670e+00
4.5421245421e-01   4.5681107811e+00
4.6398046398e-01   4.5262557497e+00
4.7374847375e-01   4.4845289761e+00
4.8351648352e-01   4.4429518238e+00
4.9328449328e-01   4.4015441691e+00
5.0305250305e-01   4.3603244551e+00
5.1282051282e-01   4.3193097478e+00
5.2258852259e-01   4.2785157918e+00
5.3235653236e-01   4.2379570678e+00
5.4212454212e-01   4.1976468492e+00
5.5189255189e-01   4.1575972588e+00
5.6166056166e-01   4.1178193252e+00
5.7142857143e-01   4.0783230378e+00
5.8119658120e-01   4.0391174012e+00
5.9096459096e-01   4.0002104887e+00
6.0073260073e-01   3.9616094935e+00
6.1050061050e-01   3.9233207796e+00
6.2026862027e-01   3.8853499305e+00
6.3003663004e-01   3.8477017960e+00
6.3980463980e-01   3.8103805378e+00
6.4957264957e-01   3.7733896733e+00
6.5934065934e-01   3.7367321171e+00
6.6910866911e-01   3.7004102218e+00
6.7887667888e-01   3.6644258154e+00
6.8864468864e-01   3.6287802387e+00
6.9841269841e-01   3.5934743793e+00
7.0818070818e-01   3.5585087052e+00
7.1794871795e-01   3.5238832961e+00
7.2771672772e-01   3.4895978729e+00
7.3748473748e-01   3.4556518257e+00
7.4725274725e-01   3.4220442409e+00
7.5702075702e-01   3.3887739256e+00
7.6678876679e-01   3.3558394315e+00
7.7655677656e-01   3.3232390771e+00
7.8632478632e-01   3.2909709686e+00
7.9609279609e-01   3.2590330193e+00
8.0586080586e-01   3.2274229679e+00
8.1562881563e-01   3.1961383960e+00
8.2539682540e-01   3.1651767438e+00
8.3516483516e-01   3.1345353254e+00
8.4493284493e-01   3.1042113426e+00
8.5470085470e-01   3.0742018979e+00
8.6446886447e-01   3.0445040069e+00
8.7423687424e-01   3.0151146091e+00
8.8400488400e-01   2.9860305791e+00
8.9377289377e-01   2.9572487355e+00
9.0354090354e-01   2.9287658505e+00
9.1330891331e-01   2.9005786579e+00
9.2307692308e-01   2.8726838611e+00
9.3284493284e-01   2.8450781397e+00
9.4261294261e-01   2.8177581565e+00
9.5238095238e-01   2.7907205631e+00
9.6214896215e-01   2.7639620057e+00
9.7191697192e-01   2.7374791303e+00
9.8168498168e-01   2.7112685866e+00
9.9145299145e-01   2.6853270331e+00
1.0012210012e+00   2.6596511403e+00
1.0109890110e+00   2.6342375944e+00
1.0207570208e+00   2.6090831008e+00
1.0305250305e+00   2.5841843862e+00
1.0402930403e+00   2.5595382019e+00
1.0500610501e+00   2.5351413256e+00
1.0598290598e+00   2.5109905640e+00
1.0695970696e+00   2.4870827540e+00
1.0793650794e+00   2.4634147650e+00
1.0891330891e+00   2.4399834996e+00
1.0989010989e+00   2.4167858955e+00
1.1086691087e+00   2.3938189264e+00
1.1184371184e+00   2.3710796027e+00
1.1282051282e+00   2.3485649725e+00
1.1379731380e+00   2.3262721225e+00
1.1477411477e+00   2.3041981778e+00
1.1575091575e+00   2.2823403033e+00
1.1672771673e+00   2.2606957032e+00
1.1770451770e+00   2.2392616218e+00
1.1868131868e+00   2.2180353432e+00
1.1965811966e+00   2.1970141919e+00
1.2063492063e+00   2.1761955322e+00
1.2161172161e+00   2.1555767687e+00
1.2258852259e+00   2.1351553458e+00
1.2356532357e+00   2.1149287478e+00
1.2454212454e+00   2.0948944983e+00
1.2551892552e+00   2.0750501604e+00
1.2649572650e+00   2.0553933360e+00
1.2747252747e+00   2.0359216659e+00
1.2844932845e+00   2.0166328288e+00
1.2942612943e+00   1.9975245416e+00
1.3040293040e+00   1.9785945584e+00
1.3137973138e+00   1.9598406704e+00
1.3235653236e+00   1.9412607054e+00
1.3333333333e+00   1.9228525272e+00
1.3431013431e+00   1.9046140351e+00
1.3528693529e+00   1.8865431635e+00
1.3626373626e+00   1.8686378814e+00
1.3724053724e+00   1.8508961919e+00
1.3821733822e+00   1.8333161314e+00
1.3919413919e+00   1.8158957693e+00
1.4017094017e+00   1.7986332076e+00
1.4114774115e+00   1.7815265799e+00
1.4212454212e+00   1.7645740514e+00
1.4310134310e+00   1.7477738180e+00
1.4407814408e+00   1.7311241058e+00
1.4505494505e+00   1.7146231706e+00
1.4603174603e+00   1.6982692976e+00
1.4700854701e+00   1.6820608003e+00
1.4798534799e+00   1.6659960206e+00
1.4896214896e+00   1.6500733279e+00
1.4993894994e+00   1.6342911186e+00
1.5091575092e+00   1.6186478159e+00
1.5189255189e+00   1.6031418686e+00
1.5286935287e+00   1.5877717514e+00
1.5384615385e+00   1.5725359640e+00
1.5482295482e+00   1.5574330306e+00
1.5579975580e+00   1.5424614994e+00
1.5677655678e+00   1.5276199423e+00
1.5775335775e+00   1.5129069543e+00
1.5873015873e+00   1.4983211530e+00
1.5970695971e+00   1.4838611783e+00
1.6068376068e+00   1.4695256918e+00
1.6166056166e+00   1.4553133764e+00
1.6263736264e+00   1.4412229360e+00
1.6361416361e+00   1.4272530948e+00
1.6459096459e+00   1.4134025973e+00
1.6556776557e+00   1.3996702074e+00
1.6654456654e+00   1.3860547083e+00
1.6752136752e+00   1.3725549021e+00
1.6849816850e+00   1.3591696095e+00
1.6947496947e+00   1.3458976690e+00
1.7045177045e+00   1.3327379370e+00
1.7142857143e+00   1.3196892873e+00
1.7240537241e+00   1.3067506105e+00
1.7338217338e+00   1.2939208141e+00
1.7435897436e+00   1.2811988218e+00
1.7533577534e+00   1.2685835733e+00
1.7631257631e+00   1.2560740239e+00
1.7728937729e+00   1.2436691443e+00
1.7826617827e+00   1.2313679203e+00
1.7924297924e+00   1.2191693522e+00
1.8021978022e+00   1.2070724550e+00
1.8119658120e+00   1.1950762577e+00
1.8217338217e+00   1.1831798031e+00
1.8315018315e+00   1.1713821477e+00
1.8412698413e+00   1.1596823611e+00
1.8510378510e+00   1.1480795262e+00
1.8608058608e+00   1.1365727384e+00
1.8705738706e+00   1.1251611058e+00
1.8803418803e+00   1.1138437486e+00
1.8901098901e+00   1.1026197993e+00
1.8998778999e+00   1.0914884019e+00
1.9096459096e+00   1.0804487121e+00
1.9194139194e+00   1.0694998968e+00
1.9291819292e+00   1.0586411341e+00
1.9389499389e+00   1.0478716131e+00
1.9487179487e+00   1.0371905332e+00
1.9584859585e+00   1.0265971048e+00
1.9682539683e+00   1.0160905481e+00
1.9780219780e+00   1.0056700935e+00
1.9877899878e+00   9.9533498142e-01
1.9975579976e+00   9.8508446179e-01
2.0073260073e+00   9.7491779411e-01
2.0170940171e+00   9.6483424719e-01
2.0268620269e+00   9.5483309899e-01
2.0366300366e+00   9.4491363642e-01
2.0463980464e+00   9.3507515521e-01
2.0561660562e+00   9.2531695971e-01
2.0659340659e+00   9.1563836278e-01
2.0757020757e+00   9.0603868556e-01
2.0854700855e+00   8.9651725739e-01
2.0952380952e+00   8.8707341560e-01
2.1050061050e+00   8.7770650541e-01
2.1147741148e+00   8.6841587977e-01
2.1245421245e+00   8.5920089920e-01
2.1343101343e+00   8.5006093170e-01
2.1440781441e+00   8.4099535255e-01
2.1538461538e+00   8.3200354425e-01
2.1636141636e+00   8.2308489635e-01
2.1733821734e+00   8.1423880534e-01
2.1831501832e+00   8.0546467452e-01
2.1929181929e+00   7.9676191388e-01
2.2026862027e+00   7.8812993999e-01
2.2124542125e+00   7.7956817591e-01
2.2222222222e+00   7.7107605101e-01
2.2319902320e+00   7.6265300094e-01
2.2417582418e+00   7.5429846749e-01
2.2515262515e+00   7.4601189845e-01
2.2612942613e+00   7.3779274759e-01
2.2710622711e+00   7.2964047448e-01
2.2808302808e+00   7.2155454445e-01
2.2905982906e+00   7.1353442845e-01
2.3003663004e+00   7.0557960300e-01
2.3101343101e+00   6.9768955006e-01
2.3199023199e+00   6.8986375699e-01
2.3296703297e+00   6.8210171640e-01
2.3394383394e+00   6.7440292612e-01
2.3492063492e+00   6.6676688908e-01
2.3589743590e+00   6.5919311325e-01
2.3687423687e+00   6.5168111156e-01
2.3785103785e+00   6.4423040181e-01
2.3882783883e+00   6.3684050660e-01
2.3980463980e+00   6.2951095326e-01
2.4078144078e+00   6.2224127377e-01
2.4175824176e+00   6.1503100469e-01
2.4273504274e+00   6.0787968708e-01
2.4371184371e+00   6.0078686647e-01
2.4468864469e+00   5.9375209274e-01
2.4566544567e+00   5.8677492010e-01
2.4664224664e+00   5.7985490699e-01
2.4761904762e+00   5.7299161605e-01
2.4859584860e+00   5.6618461402e-01
2.4957264957e+00   5.5943347172e-01
2.5054945055e+00   5.5273776397e-01
2.5152625153e+00   5.4609706953e-01
2.5250305250e+00   5.3951097104e-01
2.5347985348e+00   5.3297905500e-01
2.5445665446e+00   5.2650091166e-01
2.5543345543e+00   5.2007613500e-01
2.5641025641e+00   5.1370432269e-01
2.5738705739e+00   5.0738507601e-01
2.5836385836e+00   5.0111799981e-01
2.5934065934e+00   4.9490270247e-01
2.6031746032e+00   4.8873879583e-01
2.6129426129e+00   4.8262589519e-01
2.6227106227e+00   4.7656361919e-01
2.6324786325e+00   4.7055158984e-01
2.6422466422e+00   4.6458943242e-01
2.6520146520e+00   4.5867677547e-01
2.6617826618e+00   4.5281325074e-01
2.6715506716e+00   4.4699849312e-01
2.6813186813e+00   4.4123214066e-01
2.6910866911e+00   4.3551383446e-01
2.7008547009e+00   4.2984321867e-01
2.7106227106e+00   4.2421994046e-01
2.7203907204e+00   4.1864364995e-01
2.7301587302e+00   4.1311400020e-01
2.7399267399e+00   4.0763064715e-01
2.7496947497e+00   4.0219324962e-01
2.7594627595e+00   3.9680146921e-01
2.7692307692e+00   3.9145497035e-01
2.7789987790e+00   3.8615342020e-01
2.7887667888e+00   3.8089648865e-01
2.7985347985e+00   3.7568384826e-01
2.8083028083e+00   3.7051517426e-01
2.8180708181e+00   3.6539014451e-01
2.8278388278e+00   3.6030843945e-01
2.8376068376e+00   3.5526974207e-01
2.8473748474e+00   3.5027373792e-01
2.8571428571e+00   3.4532011503e-01
2.8669108669e+00   3.4040856392e-01
2.8766788767e+00   3.3553877754e-01
2.8864468864e+00   3.3071045127e-01
2.8962148962e+00   3.2592328289e-01
2.9059829060e+00   3.2117697251e-01
2.9157509158e+00   3.1647122261e-01
2.9255189255e+00   3.1180573796e-01
2.9352869353e+00   3.0718022564e-01
2.9450549451e+00   3.0259439497e-01
2.9548229548e+00   2.9804795751e-01
2.9645909646e+00   2.9354062704e-01
2.9743589744e+00   2.8907211952e-01
2.9841269841e+00   2.8464215308e-01
2.9938949939e+00   2.8025044799e-01
3.0036630037e+00   2.7589672664e-01
3.0134310134e+00   2.7158071352e-01
3.0231990232e+00   2.6730213519e-01
3.0329670330e+00   2.6306072026e-01
3.0427350427e+00   2.5885619939e-01
3.0525030525e+00   2.5468830523e-01
3.0622710623e+00   2.5055677244e-01
3.0720390720e+00   2.4646133764e-01
3.0818070818e+00   2.4240173940e-01
3.0915750916e+00   2.3837771822e-01
3.1013431013e+00   2.3438901654e-01
3.1111111111e+00   2.3043537864e-01
3.1208791209e+00   2.2651655073e-01
3.1306471306e+00   2.2263228085e-01
3.1404151404e+00   2.1878231886e-01
3.1501831502e+00   2.1496641649e-01
3.1599511600e+00   2.1118432722e-01
3.1697191697e+00   2.0743580635e-01
3.1794871795e+00   2.0372061094e-01
3.1892551893e+00   2.0003849980e-01
3.1990231990e+00   1.9638923347e-01
3.2087912088e+00   1.9277257422e-01
3.2185592186e+00   1.8918828602e-01
3.2283272283e+00   1.8563613452e-01
3.2380952381e+00   1.8211588705e-01
3.2478632479e+00   1.7862731261e-01
3.2576312576e+00   1.7517018180e-01
3.2673992674e+00   1.7174426688e-01
3.2771672772e+00   1.6834934173e-01
3.2869352869e+00   1.6498518179e-01
3.2967032967e+00   1.6165156412e-01
3.3064713065e+00   1.5834826733e-01
3.3162393162e+00   1.5507507159e-01
3.3260073260e+00   1.5183175860e-01
3.3357753358e+00   1.4861811161e-01
3.3455433455e+00   1.4543391536e-01
3.3553113553e+00   1.4227895612e-01
3.3650793651e+00   1.3915302163e-01
3.3748473748e+00   1.3605590110e-01
3.3846153846e+00   1.3298738522e-01
3.3943833944e+00   1.2994726611e-01
3.4041514042e+00   1.2693533736e-01
3.4139194139e+00   1.2395139396e-01
3.4236874237e+00   1.2099523231e-01
3.4334554335e+00   1.1806665025e-01
3.4432234432e+00   1.1516544696e-01
3.4529914530e+00   1.1229142303e-01
3.4627594628e+00   1.0944438043e-01
3.4725274725e+00   1.0662412245e-01
3.4822954823e+00   1.0383045375e-01
3.4920634921e+00   1.0106318032e-01
3.5018315018e+00   9.8322109484e-02
3.5115995116e+00   9.5607049859e-02
3.5213675214e+00   9.2917811377e-02
3.5311355311e+00   9.0254205263e-02
3.5409035409e+00   8.7616044019e-02
3.5506715507e+00   8.5003141424e-02
3.5604395604e+00   8.2415312516e-02
3.5702075702e+00   7.9852373585e-02
3.5799755800e+00   7.7314142165e-02
3.5897435897e+00   7.4800437020e-02
3.5995115995e+00   7.2311078139e-02
3.6092796093e+00   6.9845886724e-02
3.6190476190e+00   6.7404685182e-02
3.6288156288e+00   6.4987297112e-02
3.6385836386e+00   6.2593547302e-02
3.6483516484e+00   6.0223261715e-02
3.6581196581e+00   5.7876267482e-02
3.6678876679e+00   5.5552392895e-02
3.6776556777e+00   5.3251467392e-02
3.6874236874e+00   5.0973321558e-02
3.6971916972e+00   4.8717787106e-02
3.7069597070e+00   4.6484696877e-02
3.7167277167e+00   4.4273884828e-02
3.7264957265e+00   4.2085186022e-02
3.7362637363e+00   3.9918436625e-02
3.7460317460e+00   3.7773473891e-02
3.7557997558e+00   3.5650136161e-02
3.7655677656e+00   3.3548262851e-02
3.7753357753e+00   3.1467694445e-02
3.7851037851e+00   2.9408272486e-02
3.7948717949e+00   2.7369839572e-02
3.8046398046e+00   2.5352239344e-02
3.8144078144e+00   2.3355316483e-02
3.8241758242e+00   2.1378916697e-02
3.8339438339e+00   1.9422886719e-02
3.8437118437e+00   1.7487074297e-02
3.8534798535e+00   1.5571328188e-02
3.8632478632e+00   1.3675498148e-02
3.8730158730e+00   1.1799434929e-02
3.8827838828e+00   9.9429902709e-03
3.8925518926e+00   8.1060168911e-03
3.9023199023e+00   6.2883684823e-03
3.9120879121e+00   4.4898997032e-03
3.9218559219e+00   2.7104661723e-03
3.9316239316e+00   9.4992446155e-04
3.9413919414e+00   -7.9186791084e-04
3.9511599512e+00   -2.5150524865e-03
3.9609279609e+00   -4.2197698734e-03
3.9706959707e+00   -5.9061597524e-03
3.9804639805e+00   -7.5743608836e-03
3.9902319902e+00   -9.2245111124e-03
4.0000000000e+00   -1.0856747376e-02
4.0097680098e+00   -1.2471205710e-02
4.0195360195e+00   -1.4068021252e-02
4.0293040293e+00   -1.5647328252e-02
4.0390720391e+00   -1.7209260076e-02
4.0488400488e+00   -1.8753949209e-02
4.0586080586e+00   -2.0281527268e-02
4.0683760684e+00   -2.1792125000e-02
4.0781440781e+00   -2.3285872295e-02
4.0879120879e+00   -2.4762898185e-02
4.0976800977e+00   -2.6223330855e-02
4.1074481074e+00   -2.7667297646e-02
4.1172161172e+00   -2.9094925062e-02
4.1269841270e+00   -3.0506338772e-02
4.1367521368e+00   -3.1901663622e-02
4.1465201465e+00   -3.3281023634e-02
4.1562881563e+00   -3.4644542016e-02
4.1660561661e+00   -3.5992341162e-02
4.1758241758e+00   -3.7324542665e-02
4.1855921856e+00   -3.8641267316e-02
4.1953601954e+00   -3.9942635110e-02
4.2051282051e+00   -4.1228765255e-02
4.2148962149e+00   -4.2499776173e-02
4.2246642247e+00   -4.3755785505e-02
4.2344322344e+00   -4.4996910122e-02
4.2442002442e+00   -4.6223266121e-02
4.2539682540e+00   -4.7434968838e-02
4.2637362637e+00   -4.8632132849e-02
4.2735042735e+00   -4.9814871972e-02
4.2832722833e+00   -5.0983299281e-02
4.2930402930e+00   -5.2137527101e-02
4.3028083028e+00   -5.3277667018e-02
4.3125763126e+00   -5.4403829883e-02
4.3223443223e+00   -5.5516125816e-02
4.3321123321e+00   -5.6614664210e-02
4.3418803419e+00   -5.7699553739e-02
4.3516483516e+00   -5.8770902358e-02
4.3614163614e+00   -5.9828817310e-02
4.3711843712e+00   -6.0873405132e-02
4.3809523810e+00   -6.1904771655e-02
4.3907203907e+00   -6.2923022014e-02
4.4004884005e+00   -6.3928260647e-02
4.4102564103e+00   -6.4920591303e-02
4.4200244200e+00   -6.5900117047e-02
4.4297924298e+00   -6.6866940259e-02
4.4395604396e+00   -6.7821162646e-02
4.4493284493e+00   -6.8762885239e-02
4.4590964591e+00   -6.9692208402e-02
4.4688644689e+00   -7.0609231833e-02
4.4786324786e+00   -7.1514054572e-02
4.4884004884e+00   -7.2406775001e-02
4.4981684982e+00   -7.3287490850e-02
4.5079365079e+00   -7.4156299203e-02
4.5177045177e+00   -7.5013296497e-02
4.5274725275e+00   -7.5858578532e-02
4.5372405372e+00   -7.6692240469e-02
4.5470085470e+00   -7.7514376840e-02
4.5567765568e+00   -7.8325081547e-02
4.5665445665e+00   -7.9124447868e-02
4.5763125763e+00   -7.9912568462e-02
4.5860805861e+00   -8.0689535368e-02
4.5958485958e+00   -8.1455440017e-02
4.6056166056e+00   -8.2210373227e-02
4.6153846154e+00   -8.2954425213e-02
4.6251526252e+00   -8.3687685589e-02
4.6349206349e+00   -8.4410243369e-02
4.6446886447e+00   -8.5122186976e-02
4.6544566545e+00   -8.5823604239e-02
4.6642246642e+00   -8.6514582404e-02
4.6739926740e+00   -8.7195208131e-02
4.6837606838e+00   -8.7865567501e-02
4.6935286935e+00   -8.8525746020e-02
4.7032967033e+00   -8.9175828621e-02
4.7130647131e+00   -8.9815899667e-02
4.7228327228e+00   -9.0446042957e-02
4.7326007326e+00   -9.1066341727e-02
4.7423687424e+00   -9.1676878656e-02
4.7521367521e+00   -9.2277735864e-02
4.7619047619e+00   -9.2868994924e-02
4.7716727717e+00   -9.3450736858e-02
4.7814407814e+00   -9.4023042141e-02
4.7912087912e+00   -9.4585990711e-02
4.8009768010e+00   -9.5139661963e-02
4.8107448107e+00   -9.5684134760e-02
4.8205128205e+00   -9.6219487431e-02
4.8302808303e+00   -9.6745797778e-02
4.8400488400e+00   -9.7263143076e-02
4.8498168498e+00   -9.7771600078e-02
4.8595848596e+00   -9.8271245019e-02
4.8693528694e+00   -9.8762153617e-02
4.8791208791e+00   -9.9244401077e-02
4.8888888889e+00   -9.9718062096e-02
4.8986568987e+00   -1.0018321086e-01
4.9084249084e+00   -1.0063992106e-01
4.9181929182e+00   -1.0108826588e-01
4.9279609280e+00   -1.0152831800e-01
4.9377289377e+00   -1.0196014963e-01
4.9474969475e+00   -1.0238383245e-01
4.9572649573e+00   -1.0279943769e-01
4.9670329670e+00   -1.0320703608e-01
4.9768009768e+00   -1.0360669785e-01
4.9865689866e+00   -1.0399849277e-01
4.9963369963e+00   -1.0438249014e-01
5.0061050061e+00   -1.0475875877e-01
5.0158730159e+00   -1.0512736700e-01
5.0256410256e+00   -1.0548838271e-01
5.0354090354e+00   -1.0584187331e-01
5.0451770452e+00   -1.0618790574e-01
5.0549450549e+00   -1.0652654651e-01
5.0647130647e+00   -1.0685786163e-01
5.0744810745e+00   -1.0718191669e-01
5.0842490842e+00   -1.0749877682e-01
5.0940170940e+00   -1.0780850668e-01
5.1037851038e+00   -1.0811117052e-01
5.1135531136e+00   -1.0840683211e-01
5.1233211233e+00   -1.0869555482e-01
5.1330891331e+00   -1.0897740155e-01
5.1428571429e+00   -1.0925243477e-01
5.1526251526e+00   -1.0952071652e-01
5.1623931624e+00   -1.0978230843e-01
5.1721611722e+00   -1.1003727167e-01
5.1819291819e+00   -1.1028566700e-01
5.1916971917e+00   -1.1052755476e-01
5.2014652015e+00   -1.1076299488e-01
5.2112332112e+00   -1.1099204684e-01
5.2210012210e+00   -1.1121476974e-01
5.2307692308e+00   -1.1143122225e-01
5.2405372405e+00   -1.1164146264e-01
5.2503052503e+00   -1.1184554876e-01
5.2600732601e+00   -1.1204353806e-01
5.2698412698e+00   -1.1223548761e-01
5.2796092796e+00   -1.1242145403e-01
5.2893772894e+00   -1.1260149360e-01
5.2991452991e+00   -1.1277566217e-01
5.3089133089e+00   -1.1294401520e-01
5.3186813187e+00   -1.1310660777e-01
5.3284493284e+00   -1.1326349457e-01
5.3382173382e+00   -1.1341472990e-01
5.3479853480e+00   -1.1356036768e-01
5.3577533578e+00   -1.1370046145e-01
5.3675213675e+00   -1.1383506436e-01
5.3772893773e+00   -1.1396422920e-01
5.3870573871e+00   -1.1408800838e-01
5.3968253968e+00   -1.1420645394e-01
5.4065934066e+00   -1.1431961755e-01
5.4163614164e+00   -1.1442755050e-01
5.4261294261e+00   -1.1453030374e-01
5.4358974359e+00   -1.1462792783e-01
5.4456654457e+00   -1.1472047300e-01
5.4554334554e+00   -1.1480798909e-01
5.4652014652e+00   -1.1489052560e-01
5.4749694750e+00   -1.1496813168e-01
5.4847374847e+00   -1.1504085613e-01
5.4945054945e+00   -1.1510874737e-01
5.5042735043e+00   -1.1517185352e-01
5.5140415140e+00   -1.1523022231e-01
5.5238095238e+00   -1.1528390116e-01
5.5335775336e+00   -1.1533293714e-01
5.5433455433e+00   -1.1537737696e-01
5.5531135531e+00   -1.1541726701e-01
5.5628815629e+00   -1.1545265336e-01
5.5726495726e+00   -1.1548358171e-01
5.5824175824e+00   -1.1551009747e-01
5.5921855922e+00   -1.1553224569e-01
5.6019536020e+00   -1.1555007111e-01
5.6117216117e+00   -1.1556361814e-01
5.6214896215e+00   -1.1557293085e-01
5.6312576313e+00   -1.1557805303e-01
5.6410256410e+00   -1.1557902810e-01
5.6507936508e+00   -1.1557589921e-01
5.6605616606e+00   -1.1556870917e-01
5.6703296703e+00   -1.1555750047e-01
5.6800976801e+00   -1.1554231532e-01
5.6898656899e+00   -1.1552319557e-01
5.6996336996e+00   -1.1550018282e-01
5.7094017094e+00   -1.1547331833e-01
5.7191697192e+00   -1.1544264306e-01
5.7289377289e+00   -1.1540819767e-01
5.7387057387e+00   -1.1537002252e-01
5.7484737485e+00   -1.1532815768e-01
5.7582417582e+00   -1.1528264292e-01
5.7680097680e+00   -1.1523351770e-01
5.7777777778e+00   -1.1518082121e-01
5.7875457875e+00   -1.1512459234e-01
5.7973137973e+00   -1.1506486969e-01
5.8070818071e+00   -1.1500169156e-01
5.8168498168e+00   -1.1493509600e-01
5.8266178266e+00   -1.1486512074e-01
5.8363858364e+00   -1.1479180324e-01
5.8461538462e+00   -1.1471518068e-01
5.8559218559e+00   -1.1463528997e-01
5.8656898657e+00   -1.1455216774e-01
5.8754578755e+00   -1.1446585033e-01
5.8852258852e+00   -1.1437637383e-01
5.8949938950e+00   -1.1428377403e-01
5.9047619048e+00   -1.1418808648e-01
5.9145299145e+00   -1.1408934645e-01
5.9242979243e+00   -1.1398758893e-01
5.9340659341e+00   -1.1388284866e-01
5.9438339438e+00   -1.1377516012e-01
5.9536019536e+00   -1.1366455751e-01
5.9633699634e+00   -1.1355107479e-01
5.9731379731e+00   -1.1343474565e-01
5.9829059829e+00   -1.1331560353e-01
5.9926739927e+00   -1.1319368161e-01
6.0024420024e+00   -1.1306901281e-01
6.0122100122e+00   -1.1294162981e-01
6.0219780220e+00   -1.1281156503e-01
6.0317460317e+00   -1.1267885066e-01
6.0415140415e+00   -1.1254351862e-01
6.0512820513e+00   -1.1240560059e-01
6.0610500611e+00   -1.1226512801e-01
6.0708180708e+00   -1.1212213208e-01
6.0805860806e+00   -1.1197664375e-01
6.0903540904e+00   -1.1182869373e-01
6.1001221001e+00   -1.1167831252e-01
6.1098901099e+00   -1.1152553034e-01
6.1196581197e+00   -1.1137037719e-01
6.1294261294e+00   -1.1121288286e-01
6.1391941392e+00   -1.1105307689e-01
6.1489621490e+00   -1.1089098857e-01
6.1587301587e+00   -1.1072664699e-01
6.1684981685e+00   -1.1056008100e-01
6.1782661783e+00   -1.1039131923e-01
6.1880341880e+00   -1.1022039008e-01
6.1978021978e+00   -1.1004732171e-01
6.2075702076e+00   -1.0987214210e-01
6.2173382173e+00   -1.0969487897e-01
6.2271062271e+00   -1.0951555984e-01
6.2368742369e+00   -1.0933421200e-01
6.2466422466e+00   -1.0915086253e-01
6.2564102564e+00   -1.0896553831e-01
