X    Y
-2.0000000000e+01   1.2255114209e-18
-1.9990231990e+01   1.5354401569e-05
-1.9980463980e+01   3.0708892487e-05
-1.9970695971e+01   4.6063562103e-05
-1.9960927961e+01   6.1418499769e-05
-1.9951159951e+01   7.6773794840e-05
-1.9941391941e+01   9.2129536673e-05
-1.9931623932e+01   1.0748581463e-04
-1.9921855922e+01   1.2284271808e-04
-1.9912087912e+01   1.3820033639e-04
-1.9902319902e+01   1.5355875895e-04
-1.9892551893e+01   1.6891807514e-04
-1.9882783883e+01   1.8427837436e-04
-1.9873015873e+01   1.9963974602e-04
-1.9863247863e+01   2.1500227954e-04
-1.9853479853e+01   2.3036606434e-04
-1.9843711844e+01   2.4573118987e-04
-1.9833943834e+01   2.6109774558e-04
-1.9824175824e+01   2.7646582093e-04
-1.9814407814e+01   2.9183550542e-04
-1.9804639805e+01   3.0720688855e-04
-1.9794871795e+01   3.2258005982e-04
-1.9785103785e+01   3.3795510878e-04
-1.9775335775e+01   3.5333212497e-04
-1.9765567766e+01   3.6871119796e-04
-1.9755799756e+01   3.8409241736e-04
-1.9746031746e+01   3.9947587277e-04
-1.9736263736e+01   4.1486165383e-04
-1.9726495726e+01   4.3024985019e-04
-1.9716727717e+01   4.4564055154e-04
-1.9706959707e+01   4.6103384759e-04
-1.9697191697e+01   4.7642982806e-04
-1.9687423687e+01   4.9182858273e-04
-1.9677655678e+01   5.0723020136e-04
-1.9667887668e+01   5.2263477378e-04
-1.9658119658e+01   5.3804238983e-04
-1.9648351648e+01   5.5345313939e-04
-1.9638583639e+01   5.6886711236e-04
-1.9628815629e+01   5.8428439867e-04
-1.9619047619e+01   5.9970508830e-04
-1.9609279609e+01   6.1512927125e-04
-1.9599511600e+01   6.3055703755e-04
-1.9589743590e+01   6.4598847728e-04
-1.9579975580e+01   6.6142368054e-04
-1.9570207570e+01   6.7686273749e-04
-1.9560439560e+01   6.9230573831e-04
-1.9550671551e+01   7.0775277321e-04
-1.9540903541e+01   7.2320393247e-04
-1.9531135531e+01   7.3865930638e-04
-1.9521367521e+01   7.5411898530e-04
-1.9511599512e+01   7.6958305960e-04
-1.9501831502e+01   7.8505161973e-04
-1.9492063492e+01   8.0052475615e-04
-1.9482295482e+01   8.1600255939e-04
-1.9472527473e+01   8.3148512000e-04
-1.9462759463e+01   8.4697252862e-04
-1.9452991453e+01   8.6246487590e-04
-1.9443223443e+01   8.7796225254e-04
-1.9433455433e+01   8.9346474931e-04
-1.9423687424e+01   9.0897245703e-04
-1.9413919414e+01   9.2448546654e-04
-1.9404151404e+01   9.4000386877e-04
-1.9394383394e+01   9.5552775469e-04
-1.9384615385e+01   9.7105721532e-04
-1.9374847375e+01   9.8659234173e-04
-1.9365079365e+01   1.0021332251e-03
-1.9355311355e+01   1.0176799565e-03
-1.9345543346e+01   1.0332326273e-03
-1.9335775336e+01   1.0487913287e-03
-1.9326007326e+01   1.0643561522e-03
-1.9316239316e+01   1.0799271892e-03
-1.9306471306e+01   1.0955045310e-03
-1.9296703297e+01   1.1110882694e-03
-1.9286935287e+01   1.1266784959e-03
-1.9277167277e+01   1.1422753022e-03
-1.9267399267e+01   1.1578787800e-03
-1.9257631258e+01   1.1734890212e-03
-1.9247863248e+01   1.1891061176e-03
-1.9238095238e+01   1.2047301611e-03
-1.9228327228e+01   1.2203612438e-03
-1.9218559219e+01   1.2359994578e-03
-1.9208791209e+01   1.2516448952e-03
-1.9199023199e+01   1.2672976483e-03
-1.9189255189e+01   1.2829578092e-03
-1.9179487179e+01   1.2986254705e-03
-1.9169719170e+01   1.3143007246e-03
-1.9159951160e+01   1.3299836639e-03
-1.9150183150e+01   1.3456743811e-03
-1.9140415140e+01   1.3613729688e-03
-1.9130647131e+01   1.3770795198e-03
-1.9120879121e+01   1.3927941270e-03
-1.9111111111e+01   1.4085168832e-03
-1.9101343101e+01   1.4242478814e-03
-1.9091575092e+01   1.4399872148e-03
-1.9081807082e+01   1.4557349764e-03
-1.9072039072e+01   1.4714912595e-03
-1.9062271062e+01   1.4872561574e-03
-1.9052503053e+01   1.5030297636e-03
-1.9042735043e+01   1.5188121715e-03
-1.9032967033e+01   1.5346034747e-03
-1.9023199023e+01   1.5504037670e-03
-1.9013431013e+01   1.5662131419e-03
-1.9003663004e+01   1.5820316935e-03
-1.8993894994e+01   1.5978595156e-03
-1.8984126984e+01   1.6136967023e-03
-1.8974358974e+01   1.6295433477e-03
-1.8964590965e+01   1.6453995461e-03
-1.8954822955e+01   1.6612653917e-03
-1.8945054945e+01   1.6771409789e-03
-1.8935286935e+01   1.6930264024e-03
-1.8925518926e+01   1.7089217566e-03
-1.8915750916e+01   1.7248271363e-03
-1.8905982906e+01   1.7407426363e-03
-1.8896214896e+01   1.7566683515e-03
-1.8886446886e+01   1.7726043769e-03
-1.8876678877e+01   1.7885508076e-03
-1.8866910867e+01   1.8045077389e-03
-1.8857142857e+01   1.8204752661e-03
-1.8847374847e+01   1.8364534845e-03
-1.8837606838e+01   1.8524424897e-03
-1.8827838828e+01   1.8684423774e-03
-1.8818070818e+01   1.8844532433e-03
-1.8808302808e+01   1.9004751832e-03
-1.8798534799e+01   1.9165082932e-03
-1.8788766789e+01   1.9325526692e-03
-1.8778998779e+01   1.9486084076e-03
-1.8769230769e+01   1.9646756046e-03
-1.8759462759e+01   1.9807543566e-03
-1.8749694750e+01   1.9968447601e-03
-1.8739926740e+01   2.0129469119e-03
-1.8730158730e+01   2.0290609086e-03
-1.8720390720e+01   2.0451868472e-03
-1.8710622711e+01   2.0613248246e-03
-1.8700854701e+01   2.0774749380e-03
-1.8691086691e+01   2.0936372847e-03
-1.8681318681e+01   2.1098119620e-03
-1.8671550672e+01   2.1259990674e-03
-1.8661782662e+01   2.1421986985e-03
-1.8652014652e+01   2.1584109530e-03
-1.8642246642e+01   2.1746359289e-03
-1.8632478632e+01   2.1908737241e-03
-1.8622710623e+01   2.2071244367e-03
-1.8612942613e+01   2.2233881650e-03
-1.8603174603e+01   2.2396650075e-03
-1.8593406593e+01   2.2559550625e-03
-1.8583638584e+01   2.2722584287e-03
-1.8573870574e+01   2.2885752050e-03
-1.8564102564e+01   2.3049054902e-03
-1.8554334554e+01   2.3212493834e-03
-1.8544566545e+01   2.3376069838e-03
-1.8534798535e+01   2.3539783906e-03
-1.8525030525e+01   2.3703637034e-03
-1.8515262515e+01   2.3867630218e-03
-1.8505494505e+01   2.4031764455e-03
-1.8495726496e+01   2.4196040744e-03
-1.8485958486e+01   2.4360460084e-03
-1.8476190476e+01   2.4525023479e-03
-1.8466422466e+01   2.4689731930e-03
-1.8456654457e+01   2.4854586443e-03
-1.8446886447e+01   2.5019588024e-03
-1.8437118437e+01   2.5184737680e-03
-1.8427350427e+01   2.5350036420e-03
-1.8417582418e+01   2.5515485255e-03
-1.8407814408e+01   2.5681085196e-03
-1.8398046398e+01   2.5846837258e-03
-1.8388278388e+01   2.6012742455e-03
-1.8378510379e+01   2.6178801804e-03
-1.8368742369e+01   2.6345016324e-03
-1.8358974359e+01   2.6511387033e-03
-1.8349206349e+01   2.6677914954e-03
-1.8339438339e+01   2.6844601109e-03
-1.8329670330e+01   2.7011446523e-03
-1.8319902320e+01   2.7178452222e-03
-1.8310134310e+01   2.7345619233e-03
-1.8300366300e+01   2.7512948586e-03
-1.8290598291e+01   2.7680441311e-03
-1.8280830281e+01   2.7848098443e-03
-1.8271062271e+01   2.8015921014e-03
-1.8261294261e+01   2.8183910060e-03
-1.8251526252e+01   2.8352066620e-03
-1.8241758242e+01   2.8520391733e-03
-1.8231990232e+01   2.8688886440e-03
-1.8222222222e+01   2.8857551782e-03
-1.8212454212e+01   2.9026388806e-03
-1.8202686203e+01   2.9195398557e-03
-1.8192918193e+01   2.9364582084e-03
-1.8183150183e+01   2.9533940434e-03
-1.8173382173e+01   2.9703474662e-03
-1.8163614164e+01   2.9873185819e-03
-1.8153846154e+01   3.0043074960e-03
-1.8144078144e+01   3.0213143143e-03
-1.8134310134e+01   3.0383391426e-03
-1.8124542125e+01   3.0553820869e-03
-1.8114774115e+01   3.0724432536e-03
-1.8105006105e+01   3.0895227489e-03
-1.8095238095e+01   3.1066206796e-03
-1.8085470085e+01   3.1237371524e-03
-1.8075702076e+01   3.1408722743e-03
-1.8065934066e+01   3.1580261524e-03
-1.8056166056e+01   3.1751988941e-03
-1.8046398046e+01   3.1923906070e-03
-1.8036630037e+01   3.2096013988e-03
-1.8026862027e+01   3.2268313775e-03
-1.8017094017e+01   3.2440806511e-03
-1.8007326007e+01   3.2613493280e-03
-1.7997557998e+01   3.2786375167e-03
-1.7987789988e+01   3.2959453260e-03
-1.7978021978e+01   3.3132728647e-03
-1.7968253968e+01   3.3306202420e-03
-1.7958485958e+01   3.3479875673e-03
-1.7948717949e+01   3.3653749500e-03
-1.7938949939e+01   3.3827824999e-03
-1.7929181929e+01   3.4002103269e-03
-1.7919413919e+01   3.4176585412e-03
-1.7909645910e+01   3.4351272531e-03
-1.7899877900e+01   3.4526165732e-03
-1.7890109890e+01   3.4701266122e-03
-1.7880341880e+01   3.4876574812e-03
-1.7870573871e+01   3.5052092913e-03
-1.7860805861e+01   3.5227821540e-03
-1.7851037851e+01   3.5403761808e-03
-1.7841269841e+01   3.5579914837e-03
-1.7831501832e+01   3.5756281747e-03
-1.7821733822e+01   3.5932863660e-03
-1.7811965812e+01   3.6109661702e-03
-1.7802197802e+01   3.6286676999e-03
-1.7792429792e+01   3.6463910682e-03
-1.7782661783e+01   3.6641363882e-03
-1.7772893773e+01   3.6819037732e-03
-1.7763125763e+01   3.6996933370e-03
-1.7753357753e+01   3.7175051932e-03
-1.7743589744e+01   3.7353394562e-03
-1.7733821734e+01   3.7531962400e-03
-1.7724053724e+01   3.7710756593e-03
-1.7714285714e+01   3.7889778288e-03
-1.7704517705e+01   3.8069028635e-03
-1.7694749695e+01   3.8248508787e-03
-1.7684981685e+01   3.8428219898e-03
-1.7675213675e+01   3.8608163125e-03
-1.7665445665e+01   3.8788339629e-03
-1.7655677656e+01   3.8968750570e-03
-1.7645909646e+01   3.9149397113e-03
-1.7636141636e+01   3.9330280425e-03
-1.7626373626e+01   3.9511401674e-03
-1.7616605617e+01   3.9692762034e-03
-1.7606837607e+01   3.9874362676e-03
-1.7597069597e+01   4.0056204779e-03
-1.7587301587e+01   4.0238289521e-03
-1.7577533578e+01   4.0420618084e-03
-1.7567765568e+01   4.0603191652e-03
-1.7557997558e+01   4.0786011411e-03
-1.7548229548e+01   4.0969078550e-03
-1.7538461538e+01   4.1152394262e-03
-1.7528693529e+01   4.1335959739e-03
-1.7518925519e+01   4.1519776181e-03
-1.7509157509e+01   4.1703844784e-03
-1.7499389499e+01   4.1888166753e-03
-1.7489621490e+01   4.2072743291e-03
-1.7479853480e+01   4.2257575605e-03
-1.7470085470e+01   4.2442664906e-03
-1.7460317460e+01   4.2628012407e-03
-1.7450549451e+01   4.2813619322e-03
-1.7440781441e+01   4.2999486869e-03
-1.7431013431e+01   4.3185616270e-03
-1.7421245421e+01   4.3372008747e-03
-1.7411477411e+01   4.3558665527e-03
-1.7401709402e+01   4.3745587839e-03
-1.7391941392e+01   4.3932776913e-03
-1.7382173382e+01   4.4120233986e-03
-1.7372405372e+01   4.4307960293e-03
-1.7362637363e+01   4.4495957075e-03
-1.7352869353e+01   4.4684225575e-03
-1.7343101343e+01   4.4872767038e-03
-1.7333333333e+01   4.5061582713e-03
-1.7323565324e+01   4.5250673850e-03
-1.7313797314e+01   4.5440041706e-03
-1.7304029304e+01   4.5629687535e-03
-1.7294261294e+01   4.5819612599e-03
-1.7284493284e+01   4.6009818160e-03
-1.7274725275e+01   4.6200305485e-03
-1.7264957265e+01   4.6391075841e-03
-1.7255189255e+01   4.6582130501e-03
-1.7245421245e+01   4.6773470740e-03
-1.7235653236e+01   4.6965097834e-03
-1.7225885226e+01   4.7157013066e-03
-1.7216117216e+01   4.7349217717e-03
-1.7206349206e+01   4.7541713076e-03
-1.7196581197e+01   4.7734500432e-03
-1.7186813187e+01   4.7927581078e-03
-1.7177045177e+01   4.8120956310e-03
-1.7167277167e+01   4.8314627426e-03
-1.7157509158e+01   4.8508595729e-03
-1.7147741148e+01   4.8702862525e-03
-1.7137973138e+01   4.8897429121e-03
-1.7128205128e+01   4.9092296829e-03
-1.7118437118e+01   4.9287466963e-03
-1.7108669109e+01   4.9482940843e-03
-1.7098901099e+01   4.9678719787e-03
-1.7089133089e+01   4.9874805122e-03
-1.7079365079e+01   5.0071198174e-03
-1.7069597070e+01   5.0267900274e-03
-1.7059829060e+01   5.0464912756e-03
-1.7050061050e+01   5.0662236958e-03
-1.7040293040e+01   5.0859874219e-03
-1.7030525031e+01   5.1057825884e-03
-1.7020757021e+01   5.1256093300e-03
-1.7010989011e+01   5.1454677817e-03
-1.7001221001e+01   5.1653580790e-03
-1.6991452991e+01   5.1852803575e-03
-1.6981684982e+01   5.2052347533e-03
-1.6971916972e+01   5.2252214028e-03
-1.6962148962e+01   5.2452404428e-03
-1.6952380952e+01   5.2652920102e-03
-1.6942612943e+01   5.2853762427e-03
-1.6932844933e+01   5.3054932778e-03
-1.6923076923e+01   5.3256432538e-03
-1.6913308913e+01   5.3458263092e-03
-1.6903540904e+01   5.3660425827e-03
-1.6893772894e+01   5.3862922134e-03
-1.6884004884e+01   5.4065753411e-03
-1.6874236874e+01   5.4268921055e-03
-1.6864468864e+01   5.4472426468e-03
-1.6854700855e+01   5.4676271057e-03
-1.6844932845e+01   5.4880456232e-03
-1.6835164835e+01   5.5084983405e-03
-1.6825396825e+01   5.5289853994e-03
-1.6815628816e+01   5.5495069419e-03
-1.6805860806e+01   5.5700631104e-03
-1.6796092796e+01   5.5906540478e-03
-1.6786324786e+01   5.6112798971e-03
-1.6776556777e+01   5.6319408019e-03
-1.6766788767e+01   5.6526369062e-03
-1.6757020757e+01   5.6733683542e-03
-1.6747252747e+01   5.6941352905e-03
-1.6737484737e+01   5.7149378603e-03
-1.6727716728e+01   5.7357762090e-03
-1.6717948718e+01   5.7566504822e-03
-1.6708180708e+01   5.7775608264e-03
-1.6698412698e+01   5.7985073879e-03
-1.6688644689e+01   5.8194903138e-03
-1.6678876679e+01   5.8405097515e-03
-1.6669108669e+01   5.8615658487e-03
-1.6659340659e+01   5.8826587535e-03
-1.6649572650e+01   5.9037886145e-03
-1.6639804640e+01   5.9249555806e-03
-1.6630036630e+01   5.9461598011e-03
-1.6620268620e+01   5.9674014258e-03
-1.6610500611e+01   5.9886806048e-03
-1.6600732601e+01   6.0099974887e-03
-1.6590964591e+01   6.0313522283e-03
-1.6581196581e+01   6.0527449751e-03
-1.6571428571e+01   6.0741758809e-03
-1.6561660562e+01   6.0956450977e-03
-1.6551892552e+01   6.1171527782e-03
-1.6542124542e+01   6.1386990754e-03
-1.6532356532e+01   6.1602841426e-03
-1.6522588523e+01   6.1819081339e-03
-1.6512820513e+01   6.2035712033e-03
-1.6503052503e+01   6.2252735057e-03
-1.6493284493e+01   6.2470151960e-03
-1.6483516484e+01   6.2687964299e-03
-1.6473748474e+01   6.2906173633e-03
-1.6463980464e+01   6.3124781526e-03
-1.6454212454e+01   6.3343789546e-03
-1.6444444444e+01   6.3563199266e-03
-1.6434676435e+01   6.3783012263e-03
-1.6424908425e+01   6.4003230118e-03
-1.6415140415e+01   6.4223854416e-03
-1.6405372405e+01   6.4444886750e-03
-1.6395604396e+01   6.4666328711e-03
-1.6385836386e+01   6.4888181901e-03
-1.6376068376e+01   6.5110447922e-03
-1.6366300366e+01   6.5333128382e-03
-1.6356532357e+01   6.5556224895e-03
-1.6346764347e+01   6.5779739076e-03
-1.6336996337e+01   6.6003672548e-03
-1.6327228327e+01   6.6228026938e-03
-1.6317460317e+01   6.6452803875e-03
-1.6307692308e+01   6.6678004995e-03
-1.6297924298e+01   6.6903631939e-03
-1.6288156288e+01   6.7129686350e-03
-1.6278388278e+01   6.7356169880e-03
-1.6268620269e+01   6.7583084181e-03
-1.6258852259e+01   6.7810430912e-03
-1.6249084249e+01   6.8038211738e-03
-1.6239316239e+01   6.8266428327e-03
-1.6229548230e+01   6.8495082351e-03
-1.6219780220e+01   6.8724175488e-03
-1.6210012210e+01   6.8953709422e-03
-1.6200244200e+01   6.9183685841e-03
-1.6190476190e+01   6.9414106435e-03
-1.6180708181e+01   6.9644972904e-03
-1.6170940171e+01   6.9876286948e-03
-1.6161172161e+01   7.0108050276e-03
-1.6151404151e+01   7.0340264600e-03
-1.6141636142e+01   7.0572931637e-03
-1.6131868132e+01   7.0806053108e-03
-1.6122100122e+01   7.1039630741e-03
-1.6112332112e+01   7.1273666269e-03
-1.6102564103e+01   7.1508161428e-03
-1.6092796093e+01   7.1743117960e-03
-1.6083028083e+01   7.1978537614e-03
-1.6073260073e+01   7.2214422142e-03
-1.6063492063e+01   7.2450773302e-03
-1.6053724054e+01   7.2687592856e-03
-1.6043956044e+01   7.2924882573e-03
-1.6034188034e+01   7.3162644225e-03
-1.6024420024e+01   7.3400879592e-03
-1.6014652015e+01   7.3639590458e-03
-1.6004884005e+01   7.3878778610e-03
-1.5995115995e+01   7.4118445845e-03
-1.5985347985e+01   7.4358593961e-03
-1.5975579976e+01   7.4599224763e-03
-1.5965811966e+01   7.4840340063e-03
-1.5956043956e+01   7.5081941676e-03
-1.5946275946e+01   7.5324031423e-03
-1.5936507937e+01   7.5566611131e-03
-1.5926739927e+01   7.5809682633e-03
-1.5916971917e+01   7.6053247765e-03
-1.5907203907e+01   7.6297308371e-03
-1.5897435897e+01   7.6541866301e-03
-1.5887667888e+01   7.6786923408e-03
-1.5877899878e+01   7.7032481552e-03
-1.5868131868e+01   7.7278542598e-03
-1.5858363858e+01   7.7525108419e-03
-1.5848595849e+01   7.7772180891e-03
-1.5838827839e+01   7.8019761896e-03
-1.5829059829e+01   7.8267853322e-03
-1.5819291819e+01   7.8516457064e-03
-1.5809523810e+01   7.8765575021e-03
-1.5799755800e+01   7.9015209100e-03
-1.5789987790e+01   7.9265361210e-03
-1.5780219780e+01   7.9516033269e-03
-1.5770451770e+01   7.9767227201e-03
-1.5760683761e+01   8.0018944934e-03
-1.5750915751e+01   8.0271188403e-03
-1.5741147741e+01   8.0523959549e-03
-1.5731379731e+01   8.0777260319e-03
-1.5721611722e+01   8.1031092664e-03
-1.5711843712e+01   8.1285458545e-03
-1.5702075702e+01   8.1540359925e-03
-1.5692307692e+01   8.1795798776e-03
-1.5682539683e+01   8.2051777074e-03
-1.5672771673e+01   8.2308296803e-03
-1.5663003663e+01   8.2565359951e-03
-1.5653235653e+01   8.2822968514e-03
-1.5643467643e+01   8.3081124494e-03
-1.5633699634e+01   8.3339829897e-03
-1.5623931624e+01   8.3599086739e-03
-1.5614163614e+01   8.3858897040e-03
-1.5604395604e+01   8.4119262825e-03
-1.5594627595e+01   8.4380186128e-03
-1.5584859585e+01   8.4641668989e-03
-1.5575091575e+01   8.4903713452e-03
-1.5565323565e+01   8.5166321570e-03
-1.5555555556e+01   8.5429495401e-03
-1.5545787546e+01   8.5693237011e-03
-1.5536019536e+01   8.5957548470e-03
-1.5526251526e+01   8.6222431857e-03
-1.5516483516e+01   8.6487889256e-03
-1.5506715507e+01   8.6753922758e-03
-1.5496947497e+01   8.7020534461e-03
-1.5487179487e+01   8.7287726469e-03
-1.5477411477e+01   8.7555500893e-03
-1.5467643468e+01   8.7823859852e-03
-1.5457875458e+01   8.8092805468e-03
-1.5448107448e+01   8.8362339874e-03
-1.5438339438e+01   8.8632465206e-03
-1.5428571429e+01   8.8903183611e-03
-1.5418803419e+01   8.9174497239e-03
-1.5409035409e+01   8.9446408249e-03
-1.5399267399e+01   8.9718918806e-03
-1.5389499389e+01   8.9992031082e-03
-1.5379731380e+01   9.0265747256e-03
-1.5369963370e+01   9.0540069515e-03
-1.5360195360e+01   9.0815000051e-03
-1.5350427350e+01   9.1090541065e-03
-1.5340659341e+01   9.1366694765e-03
-1.5330891331e+01   9.1643463363e-03
-1.5321123321e+01   9.1920849082e-03
-1.5311355311e+01   9.2198854151e-03
-1.5301587302e+01   9.2477480805e-03
-1.5291819292e+01   9.2756731287e-03
-1.5282051282e+01   9.3036607847e-03
-1.5272283272e+01   9.3317112744e-03
-1.5262515263e+01   9.3598248241e-03
-1.5252747253e+01   9.3880016612e-03
-1.5242979243e+01   9.4162420135e-03
-1.5233211233e+01   9.4445461097e-03
-1.5223443223e+01   9.4729141794e-03
-1.5213675214e+01   9.5013464526e-03
-1.5203907204e+01   9.5298431604e-03
-1.5194139194e+01   9.5584045344e-03
-1.5184371184e+01   9.5870308071e-03
-1.5174603175e+01   9.6157222117e-03
-1.5164835165e+01   9.6444789821e-03
-1.5155067155e+01   9.6733013530e-03
-1.5145299145e+01   9.7021895601e-03
-1.5135531136e+01   9.7311438395e-03
-1.5125763126e+01   9.7601644284e-03
-1.5115995116e+01   9.7892515645e-03
-1.5106227106e+01   9.8184054864e-03
-1.5096459096e+01   9.8476264337e-03
-1.5086691087e+01   9.8769146464e-03
-1.5076923077e+01   9.9062703655e-03
-1.5067155067e+01   9.9356938329e-03
-1.5057387057e+01   9.9651852910e-03
-1.5047619048e+01   9.9947449833e-03
-1.5037851038e+01   1.0024373154e-02
-1.5028083028e+01   1.0054070048e-02
-1.5018315018e+01   1.0083835911e-02
-1.5008547009e+01   1.0113670990e-02
-1.4998778999e+01   1.0143575533e-02
-1.4989010989e+01   1.0173549786e-02
-1.4979242979e+01   1.0203594001e-02
-1.4969474969e+01   1.0233708425e-02
-1.4959706960e+01   1.0263893312e-02
-1.4949938950e+01   1.0294148911e-02
-1.4940170940e+01   1.0324475475e-02
-1.4930402930e+01   1.0354873258e-02
-1.4920634921e+01   1.0385342514e-02
-1.4910866911e+01   1.0415883497e-02
-1.4901098901e+01   1.0446496464e-02
-1.4891330891e+01   1.0477181671e-02
-1.4881562882e+01   1.0507939376e-02
-1.4871794872e+01   1.0538769837e-02
-1.4862026862e+01   1.0569673314e-02
-1.4852258852e+01   1.0600650066e-02
-1.4842490842e+01   1.0631700355e-02
-1.4832722833e+01   1.0662824443e-02
-1.4822954823e+01   1.0694022592e-02
-1.4813186813e+01   1.0725295067e-02
-1.4803418803e+01   1.0756642131e-02
-1.4793650794e+01   1.0788064050e-02
-1.4783882784e+01   1.0819561091e-02
-1.4774114774e+01   1.0851133521e-02
-1.4764346764e+01   1.0882781608e-02
-1.4754578755e+01   1.0914505621e-02
-1.4744810745e+01   1.0946305831e-02
-1.4735042735e+01   1.0978182508e-02
-1.4725274725e+01   1.1010135923e-02
-1.4715506716e+01   1.1042166351e-02
-1.4705738706e+01   1.1074274064e-02
-1.4695970696e+01   1.1106459338e-02
-1.4686202686e+01   1.1138722447e-02
-1.4676434676e+01   1.1171063669e-02
-1.4666666667e+01   1.1203483281e-02
-1.4656898657e+01   1.1235981561e-02
-1.4647130647e+01   1.1268558789e-02
-1.4637362637e+01   1.1301215245e-02
-1.4627594628e+01   1.1333951210e-02
-1.4617826618e+01   1.1366766967e-02
-1.4608058608e+01   1.1399662799e-02
-1.4598290598e+01   1.1432638990e-02
-1.4588522589e+01   1.1465695826e-02
-1.4578754579e+01   1.1498833592e-02
-1.4568986569e+01   1.1532052576e-02
-1.4559218559e+01   1.1565353066e-02
-1.4549450549e+01   1.1598735351e-02
-1.4539682540e+01   1.1632199721e-02
-1.4529914530e+01   1.1665746468e-02
-1.4520146520e+01   1.1699375884e-02
-1.4510378510e+01   1.1733088261e-02
-1.4500610501e+01   1.1766883895e-02
-1.4490842491e+01   1.1800763080e-02
-1.4481074481e+01   1.1834726113e-02
-1.4471306471e+01   1.1868773290e-02
-1.4461538462e+01   1.1902904911e-02
-1.4451770452e+01   1.1937121275e-02
-1.4442002442e+01   1.1971422681e-02
-1.4432234432e+01   1.2005809432e-02
-1.4422466422e+01   1.2040281831e-02
-1.4412698413e+01   1.2074840180e-02
-1.4402930403e+01   1.2109484784e-02
-1.4393162393e+01   1.2144215949e-02
-1.4383394383e+01   1.2179033982e-02
-1.4373626374e+01   1.2213939191e-02
-1.4363858364e+01   1.2248931884e-02
-1.4354090354e+01   1.2284012372e-02
-1.4344322344e+01   1.2319180966e-02
-1.4334554335e+01   1.2354437978e-02
-1.4324786325e+01   1.2389783721e-02
-1.4315018315e+01   1.2425218510e-02
-1.4305250305e+01   1.2460742660e-02
-1.4295482295e+01   1.2496356488e-02
-1.4285714286e+01   1.2532060311e-02
-1.4275946276e+01   1.2567854449e-02
-1.4266178266e+01   1.2603739222e-02
-1.4256410256e+01   1.2639714950e-02
-1.4246642247e+01   1.2675781956e-02
-1.4236874237e+01   1.2711940564e-02
-1.4227106227e+01   1.2748191097e-02
-1.4217338217e+01   1.2784533882e-02
-1.4207570208e+01   1.2820969246e-02
-1.4197802198e+01   1.2857497516e-02
-1.4188034188e+01   1.2894119022e-02
-1.4178266178e+01   1.2930834094e-02
-1.4168498168e+01   1.2967643063e-02
-1.4158730159e+01   1.3004546264e-02
-1.4148962149e+01   1.3041544028e-02
-1.4139194139e+01   1.3078636692e-02
-1.4129426129e+01   1.3115824592e-02
-1.4119658120e+01   1.3153108065e-02
-1.4109890110e+01   1.3190487451e-02
-1.4100122100e+01   1.3227963088e-02
-1.4090354090e+01   1.3265535319e-02
-1.4080586081e+01   1.3303204485e-02
-1.4070818071e+01   1.3340970930e-02
-1.4061050061e+01   1.3378834999e-02
-1.4051282051e+01   1.3416797039e-02
-1.4041514042e+01   1.3454857396e-02
-1.4031746032e+01   1.3493016419e-02
-1.4021978022e+01   1.3531274458e-02
-1.4012210012e+01   1.3569631863e-02
-1.4002442002e+01   1.3608088989e-02
-1.3992673993e+01   1.3646646187e-02
-1.3982905983e+01   1.3685303813e-02
-1.3973137973e+01   1.3724062223e-02
-1.3963369963e+01   1.3762921775e-02
-1.3953601954e+01   1.3801882827e-02
-1.3943833944e+01   1.3840945740e-02
-1.3934065934e+01   1.3880110874e-02
-1.3924297924e+01   1.3919378594e-02
-1.3914529915e+01   1.3958749261e-02
-1.3904761905e+01   1.3998223243e-02
-1.3894993895e+01   1.4037800905e-02
-1.3885225885e+01   1.4077482616e-02
-1.3875457875e+01   1.4117268745e-02
-1.3865689866e+01   1.4157159663e-02
-1.3855921856e+01   1.4197155741e-02
-1.3846153846e+01   1.4237257353e-02
-1.3836385836e+01   1.4277464875e-02
-1.3826617827e+01   1.4317778681e-02
-1.3816849817e+01   1.4358199150e-02
-1.3807081807e+01   1.4398726660e-02
-1.3797313797e+01   1.4439361592e-02
-1.3787545788e+01   1.4480104327e-02
-1.3777777778e+01   1.4520955248e-02
-1.3768009768e+01   1.4561914741e-02
-1.3758241758e+01   1.4602983190e-02
-1.3748473748e+01   1.4644160983e-02
-1.3738705739e+01   1.4685448509e-02
-1.3728937729e+01   1.4726846158e-02
-1.3719169719e+01   1.4768354322e-02
-1.3709401709e+01   1.4809973393e-02
-1.3699633700e+01   1.4851703766e-02
-1.3689865690e+01   1.4893545838e-02
-1.3680097680e+01   1.4935500004e-02
-1.3670329670e+01   1.4977566665e-02
-1.3660561661e+01   1.5019746221e-02
-1.3650793651e+01   1.5062039073e-02
-1.3641025641e+01   1.5104445625e-02
-1.3631257631e+01   1.5146966282e-02
-1.3621489621e+01   1.5189601449e-02
-1.3611721612e+01   1.5232351535e-02
-1.3601953602e+01   1.5275216949e-02
-1.3592185592e+01   1.5318198102e-02
-1.3582417582e+01   1.5361295406e-02
-1.3572649573e+01   1.5404509276e-02
-1.3562881563e+01   1.5447840126e-02
-1.3553113553e+01   1.5491288373e-02
-1.3543345543e+01   1.5534854437e-02
-1.3533577534e+01   1.5578538737e-02
-1.3523809524e+01   1.5622341695e-02
-1.3514041514e+01   1.5666263734e-02
-1.3504273504e+01   1.5710305279e-02
-1.3494505495e+01   1.5754466757e-02
-1.3484737485e+01   1.5798748594e-02
-1.3474969475e+01   1.5843151223e-02
-1.3465201465e+01   1.5887675072e-02
-1.3455433455e+01   1.5932320575e-02
-1.3445665446e+01   1.5977088167e-02
-1.3435897436e+01   1.6021978284e-02
-1.3426129426e+01   1.6066991363e-02
-1.3416361416e+01   1.6112127844e-02
-1.3406593407e+01   1.6157388168e-02
-1.3396825397e+01   1.6202772777e-02
-1.3387057387e+01   1.6248282117e-02
-1.3377289377e+01   1.6293916632e-02
-1.3367521368e+01   1.6339676770e-02
-1.3357753358e+01   1.6385562982e-02
-1.3347985348e+01   1.6431575718e-02
-1.3338217338e+01   1.6477715431e-02
-1.3328449328e+01   1.6523982575e-02
-1.3318681319e+01   1.6570377607e-02
-1.3308913309e+01   1.6616900984e-02
-1.3299145299e+01   1.6663553167e-02
-1.3289377289e+01   1.6710334616e-02
-1.3279609280e+01   1.6757245796e-02
-1.3269841270e+01   1.6804287170e-02
-1.3260073260e+01   1.6851459206e-02
-1.3250305250e+01   1.6898762372e-02
-1.3240537241e+01   1.6946197138e-02
-1.3230769231e+01   1.6993763976e-02
-1.3221001221e+01   1.7041463361e-02
-1.3211233211e+01   1.7089295768e-02
-1.3201465201e+01   1.7137261674e-02
-1.3191697192e+01   1.7185361558e-02
-1.3181929182e+01   1.7233595902e-02
-1.3172161172e+01   1.7281965189e-02
-1.3162393162e+01   1.7330469903e-02
-1.3152625153e+01   1.7379110532e-02
-1.3142857143e+01   1.7427887563e-02
-1.3133089133e+01   1.7476801487e-02
-1.3123321123e+01   1.7525852796e-02
-1.3113553114e+01   1.7575041984e-02
-1.3103785104e+01   1.7624369548e-02
-1.3094017094e+01   1.7673835986e-02
-1.3084249084e+01   1.7723441796e-02
-1.3074481074e+01   1.7773187482e-02
-1.3064713065e+01   1.7823073546e-02
-1.3054945055e+01   1.7873100495e-02
-1.3045177045e+01   1.7923268835e-02
-1.3035409035e+01   1.7973579077e-02
-1.3025641026e+01   1.8024031732e-02
-1.3015873016e+01   1.8074627314e-02
-1.3006105006e+01   1.8125366337e-02
-1.2996336996e+01   1.8176249320e-02
-1.2986568987e+01   1.8227276781e-02
-1.2976800977e+01   1.8278449243e-02
-1.2967032967e+01   1.8329767228e-02
-1.2957264957e+01   1.8381231263e-02
-1.2947496947e+01   1.8432841875e-02
-1.2937728938e+01   1.8484599593e-02
-1.2927960928e+01   1.8536504949e-02
-1.2918192918e+01   1.8588558476e-02
-1.2908424908e+01   1.8640760712e-02
-1.2898656899e+01   1.8693112192e-02
-1.2888888889e+01   1.8745613458e-02
-1.2879120879e+01   1.8798265051e-02
-1.2869352869e+01   1.8851067516e-02
-1.2859584860e+01   1.8904021398e-02
-1.2849816850e+01   1.8957127247e-02
-1.2840048840e+01   1.9010385612e-02
-1.2830280830e+01   1.9063797047e-02
-1.2820512821e+01   1.9117362106e-02
-1.2810744811e+01   1.9171081346e-02
-1.2800976801e+01   1.9224955326e-02
-1.2791208791e+01   1.9278984609e-02
-1.2781440781e+01   1.9333169757e-02
-1.2771672772e+01   1.9387511336e-02
-1.2761904762e+01   1.9442009915e-02
-1.2752136752e+01   1.9496666062e-02
-1.2742368742e+01   1.9551480352e-02
-1.2732600733e+01   1.9606453359e-02
-1.2722832723e+01   1.9661585659e-02
-1.2713064713e+01   1.9716877832e-02
-1.2703296703e+01   1.9772330459e-02
-1.2693528694e+01   1.9827944124e-02
-1.2683760684e+01   1.9883719414e-02
-1.2673992674e+01   1.9939656916e-02
-1.2664224664e+01   1.9995757222e-02
-1.2654456654e+01   2.0052020925e-02
-1.2644688645e+01   2.0108448619e-02
-1.2634920635e+01   2.0165040903e-02
-1.2625152625e+01   2.0221798377e-02
-1.2615384615e+01   2.0278721643e-02
-1.2605616606e+01   2.0335811307e-02
-1.2595848596e+01   2.0393067974e-02
-1.2586080586e+01   2.0450492257e-02
-1.2576312576e+01   2.0508084765e-02
-1.2566544567e+01   2.0565846114e-02
-1.2556776557e+01   2.0623776921e-02
-1.2547008547e+01   2.0681877805e-02
-1.2537240537e+01   2.0740149388e-02
-1.2527472527e+01   2.0798592295e-02
-1.2517704518e+01   2.0857207151e-02
-1.2507936508e+01   2.0915994588e-02
-1.2498168498e+01   2.0974955236e-02
-1.2488400488e+01   2.1034089729e-02
-1.2478632479e+01   2.1093398706e-02
-1.2468864469e+01   2.1152882804e-02
-1.2459096459e+01   2.1212542667e-02
-1.2449328449e+01   2.1272378938e-02
-1.2439560440e+01   2.1332392265e-02
-1.2429792430e+01   2.1392583297e-02
-1.2420024420e+01   2.1452952688e-02
-1.2410256410e+01   2.1513501091e-02
-1.2400488400e+01   2.1574229164e-02
-1.2390720391e+01   2.1635137568e-02
-1.2380952381e+01   2.1696226965e-02
-1.2371184371e+01   2.1757498022e-02
-1.2361416361e+01   2.1818951405e-02
-1.2351648352e+01   2.1880587786e-02
-1.2341880342e+01   2.1942407838e-02
-1.2332112332e+01   2.2004412238e-02
-1.2322344322e+01   2.2066601665e-02
-1.2312576313e+01   2.2128976801e-02
-1.2302808303e+01   2.2191538329e-02
-1.2293040293e+01   2.2254286938e-02
-1.2283272283e+01   2.2317223317e-02
-1.2273504274e+01   2.2380348158e-02
-1.2263736264e+01   2.2443662159e-02
-1.2253968254e+01   2.2507166016e-02
-1.2244200244e+01   2.2570860432e-02
-1.2234432234e+01   2.2634746110e-02
-1.2224664225e+01   2.2698823757e-02
-1.2214896215e+01   2.2763094084e-02
-1.2205128205e+01   2.2827557802e-02
-1.2195360195e+01   2.2892215628e-02
-1.2185592186e+01   2.2957068279e-02
-1.2175824176e+01   2.3022116478e-02
-1.2166056166e+01   2.3087360948e-02
-1.2156288156e+01   2.3152802418e-02
-1.2146520147e+01   2.3218441616e-02
-1.2136752137e+01   2.3284279277e-02
-1.2126984127e+01   2.3350316136e-02
-1.2117216117e+01   2.3416552933e-02
-1.2107448107e+01   2.3482990410e-02
-1.2097680098e+01   2.3549629312e-02
-1.2087912088e+01   2.3616470388e-02
-1.2078144078e+01   2.3683514389e-02
-1.2068376068e+01   2.3750762069e-02
-1.2058608059e+01   2.3818214186e-02
-1.2048840049e+01   2.3885871501e-02
-1.2039072039e+01   2.3953734776e-02
-1.2029304029e+01   2.4021804780e-02
-1.2019536020e+01   2.4090082282e-02
-1.2009768010e+01   2.4158568055e-02
-1.2000000000e+01   2.4227262876e-02
-1.1990231990e+01   2.4296167525e-02
-1.1980463980e+01   2.4365282783e-02
-1.1970695971e+01   2.4434609437e-02
-1.1960927961e+01   2.4504148277e-02
-1.1951159951e+01   2.4573900094e-02
-1.1941391941e+01   2.4643865684e-02
-1.1931623932e+01   2.4714045847e-02
-1.1921855922e+01   2.4784441385e-02
-1.1912087912e+01   2.4855053103e-02
-1.1902319902e+01   2.4925881810e-02
-1.1892551893e+01   2.4996928320e-02
-1.1882783883e+01   2.5068193446e-02
-1.1873015873e+01   2.5139678009e-02
-1.1863247863e+01   2.5211382830e-02
-1.1853479853e+01   2.5283308736e-02
-1.1843711844e+01   2.5355456557e-02
-1.1833943834e+01   2.5427827123e-02
-1.1824175824e+01   2.5500421273e-02
-1.1814407814e+01   2.5573239845e-02
-1.1804639805e+01   2.5646283683e-02
-1.1794871795e+01   2.5719553632e-02
-1.1785103785e+01   2.5793050545e-02
-1.1775335775e+01   2.5866775273e-02
-1.1765567766e+01   2.5940728675e-02
-1.1755799756e+01   2.6014911611e-02
-1.1746031746e+01   2.6089324946e-02
-1.1736263736e+01   2.6163969548e-02
-1.1726495726e+01   2.6238846288e-02
-1.1716727717e+01   2.6313956041e-02
-1.1706959707e+01   2.6389299688e-02
-1.1697191697e+01   2.6464878110e-02
-1.1687423687e+01   2.6540692193e-02
-1.1677655678e+01   2.6616742829e-02
-1.1667887668e+01   2.6693030910e-02
-1.1658119658e+01   2.6769557334e-02
-1.1648351648e+01   2.6846323003e-02
-1.1638583639e+01   2.6923328821e-02
-1.1628815629e+01   2.7000575698e-02
-1.1619047619e+01   2.7078064546e-02
-1.1609279609e+01   2.7155796282e-02
-1.1599511600e+01   2.7233771827e-02
-1.1589743590e+01   2.7311992104e-02
-1.1579975580e+01   2.7390458042e-02
-1.1570207570e+01   2.7469170572e-02
-1.1560439560e+01   2.7548130632e-02
-1.1550671551e+01   2.7627339161e-02
-1.1540903541e+01   2.7706797103e-02
-1.1531135531e+01   2.7786505406e-02
-1.1521367521e+01   2.7866465022e-02
-1.1511599512e+01   2.7946676907e-02
-1.1501831502e+01   2.8027142021e-02
-1.1492063492e+01   2.8107861329e-02
-1.1482295482e+01   2.8188835798e-02
-1.1472527473e+01   2.8270066400e-02
-1.1462759463e+01   2.8351554114e-02
-1.1452991453e+01   2.8433299918e-02
-1.1443223443e+01   2.8515304798e-02
-1.1433455433e+01   2.8597569743e-02
-1.1423687424e+01   2.8680095746e-02
-1.1413919414e+01   2.8762883804e-02
-1.1404151404e+01   2.8845934920e-02
-1.1394383394e+01   2.8929250098e-02
-1.1384615385e+01   2.9012830350e-02
-1.1374847375e+01   2.9096676690e-02
-1.1365079365e+01   2.9180790136e-02
-1.1355311355e+01   2.9265171713e-02
-1.1345543346e+01   2.9349822447e-02
-1.1335775336e+01   2.9434743371e-02
-1.1326007326e+01   2.9519935521e-02
-1.1316239316e+01   2.9605399938e-02
-1.1306471306e+01   2.9691137668e-02
-1.1296703297e+01   2.9777149760e-02
-1.1286935287e+01   2.9863437268e-02
-1.1277167277e+01   2.9950001253e-02
-1.1267399267e+01   3.0036842776e-02
-1.1257631258e+01   3.0123962906e-02
-1.1247863248e+01   3.0211362716e-02
-1.1238095238e+01   3.0299043283e-02
-1.1228327228e+01   3.0387005688e-02
-1.1218559219e+01   3.0475251019e-02
-1.1208791209e+01   3.0563780366e-02
-1.1199023199e+01   3.0652594826e-02
-1.1189255189e+01   3.0741695499e-02
-1.1179487179e+01   3.0831083491e-02
-1.1169719170e+01   3.0920759911e-02
-1.1159951160e+01   3.1010725876e-02
-1.1150183150e+01   3.1100982504e-02
-1.1140415140e+01   3.1191530921e-02
-1.1130647131e+01   3.1282372255e-02
-1.1120879121e+01   3.1373507643e-02
-1.1111111111e+01   3.1464938222e-02
-1.1101343101e+01   3.1556665138e-02
-1.1091575092e+01   3.1648689539e-02
-1.1081807082e+01   3.1741012581e-02
-1.1072039072e+01   3.1833635422e-02
-1.1062271062e+01   3.1926559226e-02
-1.1052503053e+01   3.2019785165e-02
-1.1042735043e+01   3.2113314411e-02
-1.1032967033e+01   3.2207148145e-02
-1.1023199023e+01   3.2301287552e-02
-1.1013431013e+01   3.2395733821e-02
-1.1003663004e+01   3.2490488148e-02
-1.0993894994e+01   3.2585551734e-02
-1.0984126984e+01   3.2680925784e-02
-1.0974358974e+01   3.2776611509e-02
-1.0964590965e+01   3.2872610126e-02
-1.0954822955e+01   3.2968922856e-02
-1.0945054945e+01   3.3065550927e-02
-1.0935286935e+01   3.3162495570e-02
-1.0925518926e+01   3.3259758024e-02
-1.0915750916e+01   3.3357339531e-02
-1.0905982906e+01   3.3455241341e-02
-1.0896214896e+01   3.3553464709e-02
-1.0886446886e+01   3.3652010892e-02
-1.0876678877e+01   3.3750881158e-02
-1.0866910867e+01   3.3850076777e-02
-1.0857142857e+01   3.3949599026e-02
-1.0847374847e+01   3.4049449186e-02
-1.0837606838e+01   3.4149628545e-02
-1.0827838828e+01   3.4250138397e-02
-1.0818070818e+01   3.4350980042e-02
-1.0808302808e+01   3.4452154784e-02
-1.0798534799e+01   3.4553663934e-02
-1.0788766789e+01   3.4655508809e-02
-1.0778998779e+01   3.4757690731e-02
-1.0769230769e+01   3.4860211029e-02
-1.0759462759e+01   3.4963071036e-02
-1.0749694750e+01   3.5066272093e-02
-1.0739926740e+01   3.5169815546e-02
-1.0730158730e+01   3.5273702747e-02
-1.0720390720e+01   3.5377935054e-02
-1.0710622711e+01   3.5482513831e-02
-1.0700854701e+01   3.5587440449e-02
-1.0691086691e+01   3.5692716284e-02
-1.0681318681e+01   3.5798342718e-02
-1.0671550672e+01   3.5904321141e-02
-1.0661782662e+01   3.6010652947e-02
-1.0652014652e+01   3.6117339537e-02
-1.0642246642e+01   3.6224382319e-02
-1.0632478632e+01   3.6331782706e-02
-1.0622710623e+01   3.6439542118e-02
-1.0612942613e+01   3.6547661983e-02
-1.0603174603e+01   3.6656143732e-02
-1.0593406593e+01   3.6764988805e-02
-1.0583638584e+01   3.6874198648e-02
-1.0573870574e+01   3.6983774713e-02
-1.0564102564e+01   3.7093718459e-02
-1.0554334554e+01   3.7204031350e-02
-1.0544566545e+01   3.7314714860e-02
-1.0534798535e+01   3.7425770467e-02
-1.0525030525e+01   3.7537199655e-02
-1.0515262515e+01   3.7649003917e-02
-1.0505494505e+01   3.7761184752e-02
-1.0495726496e+01   3.7873743665e-02
-1.0485958486e+01   3.7986682167e-02
-1.0476190476e+01   3.8100001780e-02
-1.0466422466e+01   3.8213704028e-02
-1.0456654457e+01   3.8327790444e-02
-1.0446886447e+01   3.8442262568e-02
-1.0437118437e+01   3.8557121948e-02
-1.0427350427e+01   3.8672370137e-02
-1.0417582418e+01   3.8788008695e-02
-1.0407814408e+01   3.8904039192e-02
-1.0398046398e+01   3.9020463201e-02
-1.0388278388e+01   3.9137282307e-02
-1.0378510379e+01   3.9254498097e-02
-1.0368742369e+01   3.9372112170e-02
-1.0358974359e+01   3.9490126128e-02
-1.0349206349e+01   3.9608541584e-02
-1.0339438339e+01   3.9727360156e-02
-1.0329670330e+01   3.9846583471e-02
-1.0319902320e+01   3.9966213162e-02
-1.0310134310e+01   4.0086250870e-02
-1.0300366300e+01   4.0206698244e-02
-1.0290598291e+01   4.0327556940e-02
-1.0280830281e+01   4.0448828621e-02
-1.0271062271e+01   4.0570514960e-02
-1.0261294261e+01   4.0692617635e-02
-1.0251526252e+01   4.0815138333e-02
-1.0241758242e+01   4.0938078749e-02
-1.0231990232e+01   4.1061440585e-02
-1.0222222222e+01   4.1185225551e-02
-1.0212454212e+01   4.1309435365e-02
-1.0202686203e+01   4.1434071753e-02
-1.0192918193e+01   4.1559136450e-02
-1.0183150183e+01   4.1684631197e-02
-1.0173382173e+01   4.1810557745e-02
-1.0163614164e+01   4.1936917851e-02
-1.0153846154e+01   4.2063713281e-02
-1.0144078144e+01   4.2190945810e-02
-1.0134310134e+01   4.2318617222e-02
-1.0124542125e+01   4.2446729306e-02
-1.0114774115e+01   4.2575283861e-02
-1.0105006105e+01   4.2704282696e-02
-1.0095238095e+01   4.2833727627e-02
-1.0085470085e+01   4.2963620477e-02
-1.0075702076e+01   4.3093963081e-02
-1.0065934066e+01   4.3224757278e-02
-1.0056166056e+01   4.3356004920e-02
-1.0046398046e+01   4.3487707864e-02
-1.0036630037e+01   4.3619867979e-02
-1.0026862027e+01   4.3752487139e-02
-1.0017094017e+01   4.3885567231e-02
-1.0007326007e+01   4.4019110147e-02
-9.9975579976e+00   4.4153117791e-02
-9.9877899878e+00   4.4287592072e-02
-9.9780219780e+00   4.4422534913e-02
-9.9682539683e+00   4.4557948241e-02
-9.9584859585e+00   4.4693833996e-02
-9.9487179487e+00   4.4830194125e-02
-9.9389499389e+00   4.4967030584e-02
-9.9291819292e+00   4.5104345340e-02
-9.9194139194e+00   4.5242140367e-02
-9.9096459096e+00   4.5380417649e-02
-9.8998778999e+00   4.5519179181e-02
-9.8901098901e+00   4.5658426965e-02
-9.8803418803e+00   4.5798163015e-02
-9.8705738706e+00   4.5938389351e-02
-9.8608058608e+00   4.6079108007e-02
-9.8510378510e+00   4.6220321022e-02
-9.8412698413e+00   4.6362030447e-02
-9.8315018315e+00   4.6504238344e-02
-9.8217338217e+00   4.6646946783e-02
-9.8119658120e+00   4.6790157843e-02
-9.8021978022e+00   4.6933873615e-02
-9.7924297924e+00   4.7078096199e-02
-9.7826617827e+00   4.7222827704e-02
-9.7728937729e+00   4.7368070251e-02
-9.7631257631e+00   4.7513825969e-02
-9.7533577534e+00   4.7660096998e-02
-9.7435897436e+00   4.7806885490e-02
-9.7338217338e+00   4.7954193604e-02
-9.7240537241e+00   4.8102023511e-02
-9.7142857143e+00   4.8250377393e-02
-9.7045177045e+00   4.8399257441e-02
-9.6947496947e+00   4.8548665857e-02
-9.6849816850e+00   4.8698604855e-02
-9.6752136752e+00   4.8849076657e-02
-9.6654456654e+00   4.9000083497e-02
-9.6556776557e+00   4.9151627620e-02
-9.6459096459e+00   4.9303711282e-02
-9.6361416361e+00   4.9456336748e-02
-9.6263736264e+00   4.9609506296e-02
-9.6166056166e+00   4.9763222213e-02
-9.6068376068e+00   4.9917486799e-02
-9.5970695971e+00   5.0072302364e-02
-9.5873015873e+00   5.0227671229e-02
-9.5775335775e+00   5.0383595727e-02
-9.5677655678e+00   5.0540078201e-02
-9.5579975580e+00   5.0697121007e-02
-9.5482295482e+00   5.0854726510e-02
-9.5384615385e+00   5.1012897089e-02
-9.5286935287e+00   5.1171635133e-02
-9.5189255189e+00   5.1330943042e-02
-9.5091575092e+00   5.1490823230e-02
-9.4993894994e+00   5.1651278121e-02
-9.4896214896e+00   5.1812310150e-02
-9.4798534799e+00   5.1973921766e-02
-9.4700854701e+00   5.2136115428e-02
-9.4603174603e+00   5.2298893608e-02
-9.4505494505e+00   5.2462258790e-02
-9.4407814408e+00   5.2626213470e-02
-9.4310134310e+00   5.2790760155e-02
-9.4212454212e+00   5.2955901365e-02
-9.4114774115e+00   5.3121639635e-02
-9.4017094017e+00   5.3287977507e-02
-9.3919413919e+00   5.3454917540e-02
-9.3821733822e+00   5.3622462303e-02
-9.3724053724e+00   5.3790614379e-02
-9.3626373626e+00   5.3959376363e-02
-9.3528693529e+00   5.4128750863e-02
-9.3431013431e+00   5.4298740500e-02
-9.3333333333e+00   5.4469347906e-02
-9.3235653236e+00   5.4640575728e-02
-9.3137973138e+00   5.4812426626e-02
-9.3040293040e+00   5.4984903273e-02
-9.2942612943e+00   5.5158008353e-02
-9.2844932845e+00   5.5331744566e-02
-9.2747252747e+00   5.5506114625e-02
-9.2649572650e+00   5.5681121253e-02
-9.2551892552e+00   5.5856767192e-02
-9.2454212454e+00   5.6033055193e-02
-9.2356532357e+00   5.6209988023e-02
-9.2258852259e+00   5.6387568461e-02
-9.2161172161e+00   5.6565799302e-02
-9.2063492063e+00   5.6744683352e-02
-9.1965811966e+00   5.6924223434e-02
-9.1868131868e+00   5.7104422382e-02
-9.1770451770e+00   5.7285283047e-02
-9.1672771673e+00   5.7466808292e-02
-9.1575091575e+00   5.7649000996e-02
-9.1477411477e+00   5.7831864050e-02
-9.1379731380e+00   5.8015400361e-02
-9.1282051282e+00   5.8199612851e-02
-9.1184371184e+00   5.8384504455e-02
-9.1086691087e+00   5.8570078125e-02
-9.0989010989e+00   5.8756336824e-02
-9.0891330891e+00   5.8943283535e-02
-9.0793650794e+00   5.9130921250e-02
-9.0695970696e+00   5.9319252981e-02
-9.0598290598e+00   5.9508281753e-02
-9.0500610501e+00   5.9698010605e-02
-9.0402930403e+00   5.9888442594e-02
-9.0305250305e+00   6.0079580791e-02
-9.0207570208e+00   6.0271428282e-02
-9.0109890110e+00   6.0463988168e-02
-9.0012210012e+00   6.0657263568e-02
-8.9914529915e+00   6.0851257615e-02
-8.9816849817e+00   6.1045973458e-02
-8.9719169719e+00   6.1241414261e-02
-8.9621489621e+00   6.1437583206e-02
-8.9523809524e+00   6.1634483491e-02
-8.9426129426e+00   6.1832118328e-02
-8.9328449328e+00   6.2030490946e-02
-8.9230769231e+00   6.2229604593e-02
-8.9133089133e+00   6.2429462530e-02
-8.9035409035e+00   6.2630068036e-02
-8.8937728938e+00   6.2831424407e-02
-8.8840048840e+00   6.3033534955e-02
-8.8742368742e+00   6.3236403010e-02
-8.8644688645e+00   6.3440031917e-02
-8.8547008547e+00   6.3644425041e-02
-8.8449328449e+00   6.3849585761e-02
-8.8351648352e+00   6.4055517475e-02
-8.8253968254e+00   6.4262223599e-02
-8.8156288156e+00   6.4469707565e-02
-8.8058608059e+00   6.4677972822e-02
-8.7960927961e+00   6.4887022840e-02
-8.7863247863e+00   6.5096861103e-02
-8.7765567766e+00   6.5307491114e-02
-8.7667887668e+00   6.5518916396e-02
-8.7570207570e+00   6.5731140488e-02
-8.7472527473e+00   6.5944166947e-02
-8.7374847375e+00   6.6157999350e-02
-8.7277167277e+00   6.6372641290e-02
-8.7179487179e+00   6.6588096382e-02
-8.7081807082e+00   6.6804368257e-02
-8.6984126984e+00   6.7021460565e-02
-8.6886446886e+00   6.7239376975e-02
-8.6788766789e+00   6.7458121176e-02
-8.6691086691e+00   6.7677696874e-02
-8.6593406593e+00   6.7898107798e-02
-8.6495726496e+00   6.8119357692e-02
-8.6398046398e+00   6.8341450321e-02
-8.6300366300e+00   6.8564389472e-02
-8.6202686203e+00   6.8788178947e-02
-8.6105006105e+00   6.9012822572e-02
-8.6007326007e+00   6.9238324191e-02
-8.5909645910e+00   6.9464687667e-02
-8.5811965812e+00   6.9691916886e-02
-8.5714285714e+00   6.9920015753e-02
-8.5616605617e+00   7.0148988191e-02
-8.5518925519e+00   7.0378838148e-02
-8.5421245421e+00   7.0609569588e-02
-8.5323565324e+00   7.0841186500e-02
-8.5225885226e+00   7.1073692891e-02
-8.5128205128e+00   7.1307092790e-02
-8.5030525031e+00   7.1541390247e-02
-8.4932844933e+00   7.1776589334e-02
-8.4835164835e+00   7.2012694142e-02
-8.4737484737e+00   7.2249708788e-02
-8.4639804640e+00   7.2487637406e-02
-8.4542124542e+00   7.2726484155e-02
-8.4444444444e+00   7.2966253213e-02
-8.4346764347e+00   7.3206948784e-02
-8.4249084249e+00   7.3448575091e-02
-8.4151404151e+00   7.3691136380e-02
-8.4053724054e+00   7.3934636920e-02
-8.3956043956e+00   7.4179081003e-02
-8.3858363858e+00   7.4424472943e-02
-8.3760683761e+00   7.4670817076e-02
-8.3663003663e+00   7.4918117764e-02
-8.3565323565e+00   7.5166379389e-02
-8.3467643468e+00   7.5415606359e-02
-8.3369963370e+00   7.5665803102e-02
-8.3272283272e+00   7.5916974074e-02
-8.3174603175e+00   7.6169123750e-02
-8.3076923077e+00   7.6422256634e-02
-8.2979242979e+00   7.6676377250e-02
-8.2881562882e+00   7.6931490147e-02
-8.2783882784e+00   7.7187599901e-02
-8.2686202686e+00   7.7444711109e-02
-8.2588522589e+00   7.7702828394e-02
-8.2490842491e+00   7.7961956405e-02
-8.2393162393e+00   7.8222099815e-02
-8.2295482295e+00   7.8483263321e-02
-8.2197802198e+00   7.8745451646e-02
-8.2100122100e+00   7.9008669541e-02
-8.2002442002e+00   7.9272921778e-02
-8.1904761905e+00   7.9538213159e-02
-8.1807081807e+00   7.9804548509e-02
-8.1709401709e+00   8.0071932680e-02
-8.1611721612e+00   8.0340370551e-02
-8.1514041514e+00   8.0609867027e-02
-8.1416361416e+00   8.0880427038e-02
-8.1318681319e+00   8.1152055543e-02
-8.1221001221e+00   8.1424757527e-02
-8.1123321123e+00   8.1698538003e-02
-8.1025641026e+00   8.1973402009e-02
-8.0927960928e+00   8.2249354612e-02
-8.0830280830e+00   8.2526400906e-02
-8.0732600733e+00   8.2804546015e-02
-8.0634920635e+00   8.3083795087e-02
-8.0537240537e+00   8.3364153302e-02
-8.0439560440e+00   8.3645625865e-02
-8.0341880342e+00   8.3928218012e-02
-8.0244200244e+00   8.4211935006e-02
-8.0146520147e+00   8.4496782140e-02
-8.0048840049e+00   8.4782764736e-02
-7.9951159951e+00   8.5069888144e-02
-7.9853479853e+00   8.5358157745e-02
-7.9755799756e+00   8.5647578948e-02
-7.9658119658e+00   8.5938157194e-02
-7.9560439560e+00   8.6229897951e-02
-7.9462759463e+00   8.6522806719e-02
-7.9365079365e+00   8.6816889029e-02
-7.9267399267e+00   8.7112150441e-02
-7.9169719170e+00   8.7408596547e-02
-7.9072039072e+00   8.7706232969e-02
-7.8974358974e+00   8.8005065361e-02
-7.8876678877e+00   8.8305099407e-02
-7.8778998779e+00   8.8606340824e-02
-7.8681318681e+00   8.8908795360e-02
-7.8583638584e+00   8.9212468796e-02
-7.8485958486e+00   8.9517366944e-02
-7.8388278388e+00   8.9823495648e-02
-7.8290598291e+00   9.0130860786e-02
-7.8192918193e+00   9.0439468268e-02
-7.8095238095e+00   9.0749324038e-02
-7.7997557998e+00   9.1060434071e-02
-7.7899877900e+00   9.1372804378e-02
-7.7802197802e+00   9.1686441003e-02
-7.7704517705e+00   9.2001350022e-02
-7.7606837607e+00   9.2317537547e-02
-7.7509157509e+00   9.2635009725e-02
-7.7411477411e+00   9.2953772735e-02
-7.7313797314e+00   9.3273832793e-02
-7.7216117216e+00   9.3595196149e-02
-7.7118437118e+00   9.3917869089e-02
-7.7020757021e+00   9.4241857934e-02
-7.6923076923e+00   9.4567169040e-02
-7.6825396825e+00   9.4893808800e-02
-7.6727716728e+00   9.5221783644e-02
-7.6630036630e+00   9.5551100036e-02
-7.6532356532e+00   9.5881764478e-02
-7.6434676435e+00   9.6213783510e-02
-7.6336996337e+00   9.6547163707e-02
-7.6239316239e+00   9.6881911682e-02
-7.6141636142e+00   9.7218034088e-02
-7.6043956044e+00   9.7555537613e-02
-7.5946275946e+00   9.7894428983e-02
-7.5848595849e+00   9.8234714966e-02
-7.5750915751e+00   9.8576402364e-02
-7.5653235653e+00   9.8919498021e-02
-7.5555555556e+00   9.9264008820e-02
-7.5457875458e+00   9.9609941683e-02
-7.5360195360e+00   9.9957303570e-02
-7.5262515263e+00   1.0030610148e-01
-7.5164835165e+00   1.0065634247e-01
-7.5067155067e+00   1.0100803360e-01
-7.4969474969e+00   1.0136118200e-01
-7.4871794872e+00   1.0171579485e-01
-7.4774114774e+00   1.0207187933e-01
-7.4676434676e+00   1.0242944271e-01
-7.4578754579e+00   1.0278849227e-01
-7.4481074481e+00   1.0314903534e-01
-7.4383394383e+00   1.0351107929e-01
-7.4285714286e+00   1.0387463154e-01
-7.4188034188e+00   1.0423969955e-01
-7.4090354090e+00   1.0460629083e-01
-7.3992673993e+00   1.0497441292e-01
-7.3894993895e+00   1.0534407340e-01
-7.3797313797e+00   1.0571527993e-01
-7.3699633700e+00   1.0608804016e-01
-7.3601953602e+00   1.0646236184e-01
-7.3504273504e+00   1.0683825272e-01
-7.3406593407e+00   1.0721572062e-01
-7.3308913309e+00   1.0759477341e-01
-7.3211233211e+00   1.0797541898e-01
-7.3113553114e+00   1.0835766530e-01
-7.3015873016e+00   1.0874152036e-01
-7.2918192918e+00   1.0912699221e-01
-7.2820512821e+00   1.0951408895e-01
-7.2722832723e+00   1.0990281870e-01
-7.2625152625e+00   1.1029318968e-01
-7.2527472527e+00   1.1068521010e-01
-7.2429792430e+00   1.1107888827e-01
-7.2332112332e+00   1.1147423251e-01
-7.2234432234e+00   1.1187125121e-01
-7.2136752137e+00   1.1226995281e-01
-7.2039072039e+00   1.1267034579e-01
-7.1941391941e+00   1.1307243869e-01
-7.1843711844e+00   1.1347624009e-01
-7.1746031746e+00   1.1388175863e-01
-7.1648351648e+00   1.1428900300e-01
-7.1550671551e+00   1.1469798194e-01
-7.1452991453e+00   1.1510870424e-01
-7.1355311355e+00   1.1552117876e-01
-7.1257631258e+00   1.1593541438e-01
-7.1159951160e+00   1.1635142006e-01
-7.1062271062e+00   1.1676920481e-01
-7.0964590965e+00   1.1718877768e-01
-7.0866910867e+00   1.1761014778e-01
-7.0769230769e+00   1.1803332430e-01
-7.0671550672e+00   1.1845831645e-01
-7.0573870574e+00   1.1888513350e-01
-7.0476190476e+00   1.1931378481e-01
-7.0378510379e+00   1.1974427975e-01
-7.0280830281e+00   1.2017662778e-01
-7.0183150183e+00   1.2061083840e-01
-7.0085470085e+00   1.2104692118e-01
-6.9987789988e+00   1.2148488573e-01
-6.9890109890e+00   1.2192474175e-01
-6.9792429792e+00   1.2236649896e-01
-6.9694749695e+00   1.2281016717e-01
-6.9597069597e+00   1.2325575623e-01
-6.9499389499e+00   1.2370327607e-01
-6.9401709402e+00   1.2415273666e-01
-6.9304029304e+00   1.2460414803e-01
-6.9206349206e+00   1.2505752030e-01
-6.9108669109e+00   1.2551286362e-01
-6.9010989011e+00   1.2597018822e-01
-6.8913308913e+00   1.2642950439e-01
-6.8815628816e+00   1.2689082247e-01
-6.8717948718e+00   1.2735415289e-01
-6.8620268620e+00   1.2781950613e-01
-6.8522588523e+00   1.2828689272e-01
-6.8424908425e+00   1.2875632327e-01
-6.8327228327e+00   1.2922780847e-01
-6.8229548230e+00   1.2970135904e-01
-6.8131868132e+00   1.3017698580e-01
-6.8034188034e+00   1.3065469962e-01
-6.7936507937e+00   1.3113451145e-01
-6.7838827839e+00   1.3161643228e-01
-6.7741147741e+00   1.3210047320e-01
-6.7643467643e+00   1.3258664536e-01
-6.7545787546e+00   1.3307495998e-01
-6.7448107448e+00   1.3356542833e-01
-6.7350427350e+00   1.3405806178e-01
-6.7252747253e+00   1.3455287175e-01
-6.7155067155e+00   1.3504986974e-01
-6.7057387057e+00   1.3554906732e-01
-6.6959706960e+00   1.3605047615e-01
-6.6862026862e+00   1.3655410793e-01
-6.6764346764e+00   1.3705997446e-01
-6.6666666667e+00   1.3756808760e-01
-6.6568986569e+00   1.3807845929e-01
-6.6471306471e+00   1.3859110155e-01
-6.6373626374e+00   1.3910602646e-01
-6.6275946276e+00   1.3962324621e-01
-6.6178266178e+00   1.4014277302e-01
-6.6080586081e+00   1.4066461923e-01
-6.5982905983e+00   1.4118879723e-01
-6.5885225885e+00   1.4171531951e-01
-6.5787545788e+00   1.4224419862e-01
-6.5689865690e+00   1.4277544720e-01
-6.5592185592e+00   1.4330907797e-01
-6.5494505495e+00   1.4384510373e-01
-6.5396825397e+00   1.4438353737e-01
-6.5299145299e+00   1.4492439185e-01
-6.5201465201e+00   1.4546768021e-01
-6.5103785104e+00   1.4601341559e-01
-6.5006105006e+00   1.4656161121e-01
-6.4908424908e+00   1.4711228036e-01
-6.4810744811e+00   1.4766543643e-01
-6.4713064713e+00   1.4822109290e-01
-6.4615384615e+00   1.4877926333e-01
-6.4517704518e+00   1.4933996135e-01
-6.4420024420e+00   1.4990320071e-01
-6.4322344322e+00   1.5046899523e-01
-6.4224664225e+00   1.5103735883e-01
-6.4126984127e+00   1.5160830551e-01
-6.4029304029e+00   1.5218184936e-01
-6.3931623932e+00   1.5275800458e-01
-6.3833943834e+00   1.5333678543e-01
-6.3736263736e+00   1.5391820630e-01
-6.3638583639e+00   1.5450228165e-01
-6.3540903541e+00   1.5508902604e-01
-6.3443223443e+00   1.5567845413e-01
-6.3345543346e+00   1.5627058066e-01
-6.3247863248e+00   1.5686542050e-01
-6.3150183150e+00   1.5746298857e-01
-6.3052503053e+00   1.5806329994e-01
-6.2954822955e+00   1.5866636974e-01
-6.2857142857e+00   1.5927221321e-01
-6.2759462759e+00   1.5988084570e-01
-6.2661782662e+00   1.6049228265e-01
-6.2564102564e+00   1.6110653962e-01
-6.2466422466e+00   1.6172363225e-01
-6.2368742369e+00   1.6234357630e-01
-6.2271062271e+00   1.6296638763e-01
-6.2173382173e+00   1.6359208219e-01
-6.2075702076e+00   1.6422067606e-01
-6.1978021978e+00   1.6485218543e-01
-6.1880341880e+00   1.6548662656e-01
-6.1782661783e+00   1.6612401587e-01
-6.1684981685e+00   1.6676436984e-01
-6.1587301587e+00   1.6740770510e-01
-6.1489621490e+00   1.6805403838e-01
-6.1391941392e+00   1.6870338650e-01
-6.1294261294e+00   1.6935576643e-01
-6.1196581197e+00   1.7001119522e-01
-6.1098901099e+00   1.7066969006e-01
-6.1001221001e+00   1.7133126824e-01
-6.0903540904e+00   1.7199594718e-01
-6.0805860806e+00   1.7266374441e-01
-6.0708180708e+00   1.7333467757e-01
-6.0610500611e+00   1.7400876444e-01
-6.0512820513e+00   1.7468602291e-01
-6.0415140415e+00   1.7536647098e-01
-6.0317460317e+00   1.7605012679e-01
-6.0219780220e+00   1.7673700861e-01
-6.0122100122e+00   1.7742713480e-01
-6.0024420024e+00   1.7812052389e-01
-5.9926739927e+00   1.7881719449e-01
-5.9829059829e+00   1.7951716538e-01
-5.9731379731e+00   1.8022045545e-01
-5.9633699634e+00   1.8092708372e-01
-5.9536019536e+00   1.8163706933e-01
-5.9438339438e+00   1.8235043158e-01
-5.9340659341e+00   1.8306718987e-01
-5.9242979243e+00   1.8378736376e-01
-5.9145299145e+00   1.8451097293e-01
-5.9047619048e+00   1.8523803721e-01
-5.8949938950e+00   1.8596857654e-01
-5.8852258852e+00   1.8670261104e-01
-5.8754578755e+00   1.8744016094e-01
-5.8656898657e+00   1.8818124661e-01
-5.8559218559e+00   1.8892588857e-01
-5.8461538462e+00   1.8967410749e-01
-5.8363858364e+00   1.9042592417e-01
-5.8266178266e+00   1.9118135958e-01
-5.8168498168e+00   1.9194043479e-01
-5.8070818071e+00   1.9270317107e-01
-5.7973137973e+00   1.9346958982e-01
-5.7875457875e+00   1.9423971256e-01
-5.7777777778e+00   1.9501356102e-01
-5.7680097680e+00   1.9579115703e-01
-5.7582417582e+00   1.9657252260e-01
-5.7484737485e+00   1.9735767990e-01
-5.7387057387e+00   1.9814665124e-01
-5.7289377289e+00   1.9893945910e-01
-5.7191697192e+00   1.9973612611e-01
-5.7094017094e+00   2.0053667508e-01
-5.6996336996e+00   2.0134112896e-01
-5.6898656899e+00   2.0214951087e-01
-5.6800976801e+00   2.0296184410e-01
-5.6703296703e+00   2.0377815211e-01
-5.6605616606e+00   2.0459845851e-01
-5.6507936508e+00   2.0542278710e-01
-5.6410256410e+00   2.0625116185e-01
-5.6312576313e+00   2.0708360688e-01
-5.6214896215e+00   2.0792014649e-01
-5.6117216117e+00   2.0876080519e-01
-5.6019536020e+00   2.0960560762e-01
-5.5921855922e+00   2.1045457862e-01
-5.5824175824e+00   2.1130774320e-01
-5.5726495726e+00   2.1216512658e-01
-5.5628815629e+00   2.1302675412e-01
-5.5531135531e+00   2.1389265140e-01
-5.5433455433e+00   2.1476284416e-01
-5.5335775336e+00   2.1563735835e-01
-5.5238095238e+00   2.1651622008e-01
-5.5140415140e+00   2.1739945570e-01
-5.5042735043e+00   2.1828709169e-01
-5.4945054945e+00   2.1917915478e-01
-5.4847374847e+00   2.2007567185e-01
-5.4749694750e+00   2.2097667002e-01
-5.4652014652e+00   2.2188217658e-01
-5.4554334554e+00   2.2279221903e-01
-5.4456654457e+00   2.2370682507e-01
-5.4358974359e+00   2.2462602262e-01
-5.4261294261e+00   2.2554983978e-01
-5.4163614164e+00   2.2647830487e-01
-5.4065934066e+00   2.2741144644e-01
-5.3968253968e+00   2.2834929322e-01
-5.3870573871e+00   2.2929187418e-01
-5.3772893773e+00   2.3023921848e-01
-5.3675213675e+00   2.3119135552e-01
-5.3577533578e+00   2.3214831492e-01
-5.3479853480e+00   2.3311012650e-01
-5.3382173382e+00   2.3407682032e-01
-5.3284493284e+00   2.3504842667e-01
-5.3186813187e+00   2.3602497605e-01
-5.3089133089e+00   2.3700649920e-01
-5.2991452991e+00   2.3799302710e-01
-5.2893772894e+00   2.3898459096e-01
-5.2796092796e+00   2.3998122221e-01
-5.2698412698e+00   2.4098295253e-01
-5.2600732601e+00   2.4198981384e-01
-5.2503052503e+00   2.4300183831e-01
-5.2405372405e+00   2.4401905834e-01
-5.2307692308e+00   2.4504150659e-01
-5.2210012210e+00   2.4606921596e-01
-5.2112332112e+00   2.4710221960e-01
-5.2014652015e+00   2.4814055092e-01
-5.1916971917e+00   2.4918424359e-01
-5.1819291819e+00   2.5023333153e-01
-5.1721611722e+00   2.5128784892e-01
-5.1623931624e+00   2.5234783021e-01
-5.1526251526e+00   2.5341331011e-01
-5.1428571429e+00   2.5448432359e-01
-5.1330891331e+00   2.5556090592e-01
-5.1233211233e+00   2.5664309262e-01
-5.1135531136e+00   2.5773091947e-01
-5.1037851038e+00   2.5882442257e-01
-5.0940170940e+00   2.5992363826e-01
-5.0842490842e+00   2.6102860319e-01
-5.0744810745e+00   2.6213935429e-01
-5.0647130647e+00   2.6325592877e-01
-5.0549450549e+00   2.6437836414e-01
-5.0451770452e+00   2.6550669820e-01
-5.0354090354e+00   2.6664096905e-01
-5.0256410256e+00   2.6778121508e-01
-5.0158730159e+00   2.6892747500e-01
-5.0061050061e+00   2.7007978781e-01
-4.9963369963e+00   2.7123819282e-01
-4.9865689866e+00   2.7240272967e-01
-4.9768009768e+00   2.7357343828e-01
-4.9670329670e+00   2.7475035892e-01
-4.9572649573e+00   2.7593353215e-01
-4.9474969475e+00   2.7712299889e-01
-4.9377289377e+00   2.7831880034e-01
-4.9279609280e+00   2.7952097808e-01
-4.9181929182e+00   2.8072957398e-01
-4.9084249084e+00   2.8194463028e-01
-4.8986568987e+00   2.8316618952e-01
-4.8888888889e+00   2.8439429461e-01
-4.8791208791e+00   2.8562898881e-01
-4.8693528694e+00   2.8687031571e-01
-4.8595848596e+00   2.8811831926e-01
-4.8498168498e+00   2.8937304377e-01
-4.8400488400e+00   2.9063453390e-01
-4.8302808303e+00   2.9190283469e-01
-4.8205128205e+00   2.9317799151e-01
-4.8107448107e+00   2.9446005015e-01
-4.8009768010e+00   2.9574905673e-01
-4.7912087912e+00   2.9704505777e-01
-4.7814407814e+00   2.9834810016e-01
-4.7716727717e+00   2.9965823118e-01
-4.7619047619e+00   3.0097549850e-01
-4.7521367521e+00   3.0229995018e-01
-4.7423687424e+00   3.0363163467e-01
-4.7326007326e+00   3.0497060083e-01
-4.7228327228e+00   3.0631689791e-01
-4.7130647131e+00   3.0767057558e-01
-4.7032967033e+00   3.0903168392e-01
-4.6935286935e+00   3.1040027342e-01
-4.6837606838e+00   3.1177639501e-01
-4.6739926740e+00   3.1316010000e-01
-4.6642246642e+00   3.1455144018e-01
-4.6544566545e+00   3.1595046774e-01
-4.6446886447e+00   3.1735723532e-01
-4.6349206349e+00   3.1877179599e-01
-4.6251526252e+00   3.2019420329e-01
-4.6153846154e+00   3.2162451118e-01
-4.6056166056e+00   3.2306277411e-01
-4.5958485958e+00   3.2450904694e-01
-4.5860805861e+00   3.2596338505e-01
-4.5763125763e+00   3.2742584425e-01
-4.5665445665e+00   3.2889648085e-01
-4.5567765568e+00   3.3037535161e-01
-4.5470085470e+00   3.3186251380e-01
-4.5372405372e+00   3.3335802517e-01
-4.5274725275e+00   3.3486194395e-01
-4.5177045177e+00   3.3637432890e-01
-4.5079365079e+00   3.3789523925e-01
-4.4981684982e+00   3.3942473475e-01
-4.4884004884e+00   3.4096287568e-01
-4.4786324786e+00   3.4250972282e-01
-4.4688644689e+00   3.4406533749e-01
-4.4590964591e+00   3.4562978153e-01
-4.4493284493e+00   3.4720311731e-01
-4.4395604396e+00   3.4878540776e-01
-4.4297924298e+00   3.5037671635e-01
-4.4200244200e+00   3.5197710710e-01
-4.4102564103e+00   3.5358664458e-01
-4.4004884005e+00   3.5520539394e-01
-4.3907203907e+00   3.5683342090e-01
-4.3809523810e+00   3.5847079175e-01
-4.3711843712e+00   3.6011757336e-01
-4.3614163614e+00   3.6177383319e-01
-4.3516483516e+00   3.6343963931e-01
-4.3418803419e+00   3.6511506038e-01
-4.3321123321e+00   3.6680016565e-01
-4.3223443223e+00   3.6849502502e-01
-4.3125763126e+00   3.7019970899e-01
-4.3028083028e+00   3.7191428868e-01
-4.2930402930e+00   3.7363883587e-01
-4.2832722833e+00   3.7537342296e-01
-4.2735042735e+00   3.7711812299e-01
-4.2637362637e+00   3.7887300970e-01
-4.2539682540e+00   3.8063815743e-01
-4.2442002442e+00   3.8241364123e-01
-4.2344322344e+00   3.8419953683e-01
-4.2246642247e+00   3.8599592062e-01
-4.2148962149e+00   3.8780286969e-01
-4.2051282051e+00   3.8962046183e-01
-4.1953601954e+00   3.9144877555e-01
-4.1855921856e+00   3.9328789004e-01
-4.1758241758e+00   3.9513788525e-01
-4.1660561661e+00   3.9699884184e-01
-4.1562881563e+00   3.9887084122e-01
-4.1465201465e+00   4.0075396552e-01
-4.1367521368e+00   4.0264829765e-01
-4.1269841270e+00   4.0455392127e-01
-4.1172161172e+00   4.0647092082e-01
-4.1074481074e+00   4.0839938153e-01
-4.0976800977e+00   4.1033938938e-01
-4.0879120879e+00   4.1229103118e-01
-4.0781440781e+00   4.1425439454e-01
-4.0683760684e+00   4.1622956788e-01
-4.0586080586e+00   4.1821664046e-01
-4.0488400488e+00   4.2021570234e-01
-4.0390720391e+00   4.2222684445e-01
-4.0293040293e+00   4.2425015857e-01
-4.0195360195e+00   4.2628573734e-01
-4.0097680098e+00   4.2833367426e-01
-4.0000000000e+00   4.3039406374e-01
-3.9902319902e+00   4.3246700104e-01
-3.9804639805e+00   4.3455258236e-01
-3.9706959707e+00   4.3665090480e-01
-3.9609279609e+00   4.3876206638e-01
-3.9511599512e+00   4.4088616604e-01
-3.9413919414e+00   4.4302330369e-01
-3.9316239316e+00   4.4517358018e-01
-3.9218559219e+00   4.4733709733e-01
-3.9120879121e+00   4.4951395794e-01
-3.9023199023e+00   4.5170426578e-01
-3.8925518926e+00   4.5390812565e-01
-3.8827838828e+00   4.5612564333e-01
-3.8730158730e+00   4.5835692565e-01
-3.8632478632e+00   4.6060208046e-01
-3.8534798535e+00   4.6286121666e-01
-3.8437118437e+00   4.6513444421e-01
-3.8339438339e+00   4.6742187415e-01
-3.8241758242e+00   4.6972361858e-01
-3.8144078144e+00   4.7203979073e-01
-3.8046398046e+00   4.7437050491e-01
-3.7948717949e+00   4.7671587658e-01
-3.7851037851e+00   4.7907602232e-01
-3.7753357753e+00   4.8145105986e-01
-3.7655677656e+00   4.8384110811e-01
-3.7557997558e+00   4.8624628713e-01
-3.7460317460e+00   4.8866671821e-01
-3.7362637363e+00   4.9110252380e-01
-3.7264957265e+00   4.9355382762e-01
-3.7167277167e+00   4.9602075457e-01
-3.7069597070e+00   4.9850343086e-01
-3.6971916972e+00   5.0100198392e-01
-3.6874236874e+00   5.0351654248e-01
-3.6776556777e+00   5.0604723656e-01
-3.6678876679e+00   5.0859419749e-01
-3.6581196581e+00   5.1115755794e-01
-3.6483516484e+00   5.1373745191e-01
-3.6385836386e+00   5.1633401478e-01
-3.6288156288e+00   5.1894738327e-01
-3.6190476190e+00   5.2157769553e-01
-3.6092796093e+00   5.2422509111e-01
-3.5995115995e+00   5.2688971098e-01
-3.5897435897e+00   5.2957169757e-01
-3.5799755800e+00   5.3227119476e-01
-3.5702075702e+00   5.3498834792e-01
-3.5604395604e+00   5.3772330392e-01
-3.5506715507e+00   5.4047621114e-01
-3.5409035409e+00   5.4324721953e-01
-3.5311355311e+00   5.4603648055e-01
-3.5213675214e+00   5.4884414727e-01
-3.5115995116e+00   5.5167037434e-01
-3.5018315018e+00   5.5451531805e-01
-3.4920634921e+00   5.5737913630e-01
-3.4822954823e+00   5.6026198865e-01
-3.4725274725e+00   5.6316403637e-01
-3.4627594628e+00   5.6608544239e-01
-3.4529914530e+00   5.6902637138e-01
-3.4432234432e+00   5.7198698977e-01
-3.4334554335e+00   5.7496746572e-01
-3.4236874237e+00   5.7796796920e-01
-3.4139194139e+00   5.8098867199e-01
-3.4041514042e+00   5.8402974771e-01
-3.3943833944e+00   5.8709137182e-01
-3.3846153846e+00   5.9017372168e-01
-3.3748473748e+00   5.9327697654e-01
-3.3650793651e+00   5.9640131761e-01
-3.3553113553e+00   5.9954692802e-01
-3.3455433455e+00   6.0271399290e-01
-3.3357753358e+00   6.0590269939e-01
-3.3260073260e+00   6.0911323666e-01
-3.3162393162e+00   6.1234579594e-01
-3.3064713065e+00   6.1560057054e-01
-3.2967032967e+00   6.1887775590e-01
-3.2869352869e+00   6.2217754959e-01
-3.2771672772e+00   6.2550015136e-01
-3.2673992674e+00   6.2884576314e-01
-3.2576312576e+00   6.3221458912e-01
-3.2478632479e+00   6.3560683572e-01
-3.2380952381e+00   6.3902271167e-01
-3.2283272283e+00   6.4246242800e-01
-3.2185592186e+00   6.4592619810e-01
-3.2087912088e+00   6.4941423774e-01
-3.1990231990e+00   6.5292676510e-01
-3.1892551893e+00   6.5646400082e-01
-3.1794871795e+00   6.6002616799e-01
-3.1697191697e+00   6.6361349224e-01
-3.1599511600e+00   6.6722620173e-01
-3.1501831502e+00   6.7086452722e-01
-3.1404151404e+00   6.7452870205e-01
-3.1306471306e+00   6.7821896225e-01
-3.1208791209e+00   6.8193554651e-01
-3.1111111111e+00   6.8567869627e-01
-3.1013431013e+00   6.8944865570e-01
-3.0915750916e+00   6.9324567179e-01
-3.0818070818e+00   6.9706999437e-01
-3.0720390720e+00   7.0092187614e-01
-3.0622710623e+00   7.0480157272e-01
-3.0525030525e+00   7.0870934269e-01
-3.0427350427e+00   7.1264544761e-01
-3.0329670330e+00   7.1661015211e-01
-3.0231990232e+00   7.2060372388e-01
-3.0134310134e+00   7.2462643375e-01
-3.0036630037e+00   7.2867855570e-01
-2.9938949939e+00   7.3276036696e-01
-2.9841269841e+00   7.3687214797e-01
-2.9743589744e+00   7.4101418253e-01
-2.9645909646e+00   7.4518675774e-01
-2.9548229548e+00   7.4939016413e-01
-2.9450549451e+00   7.5362469567e-01
-2.9352869353e+00   7.5789064982e-01
-2.9255189255e+00   7.6218832761e-01
-2.9157509158e+00   7.6651803363e-01
-2.9059829060e+00   7.7088007614e-01
-2.8962148962e+00   7.7527476711e-01
-2.8864468864e+00   7.7970242225e-01
-2.8766788767e+00   7.8416336106e-01
-2.8669108669e+00   7.8865790694e-01
-2.8571428571e+00   7.9318638718e-01
-2.8473748474e+00   7.9774913307e-01
-2.8376068376e+00   8.0234647989e-01
-2.8278388278e+00   8.0697876707e-01
-2.8180708181e+00   8.1164633814e-01
-2.8083028083e+00   8.1634954086e-01
-2.7985347985e+00   8.2108872728e-01
-2.7887667888e+00   8.2586425375e-01
-2.7789987790e+00   8.3067648106e-01
-2.7692307692e+00   8.3552577443e-01
-2.7594627595e+00   8.4041250363e-01
-2.7496947497e+00   8.4533704303e-01
-2.7399267399e+00   8.5029977164e-01
-2.7301587302e+00   8.5530107322e-01
-2.7203907204e+00   8.6034133636e-01
-2.7106227106e+00   8.6542095447e-01
-2.7008547009e+00   8.7054032596e-01
-2.6910866911e+00   8.7569985424e-01
-2.6813186813e+00   8.8089994782e-01
-2.6715506716e+00   8.8614102039e-01
-2.6617826618e+00   8.9142349089e-01
-2.6520146520e+00   8.9674778359e-01
-2.6422466422e+00   9.0211432817e-01
-2.6324786325e+00   9.0752355982e-01
-2.6227106227e+00   9.1297591928e-01
-2.6129426129e+00   9.1847185299e-01
-2.6031746032e+00   9.2401181310e-01
-2.5934065934e+00   9.2959625763e-01
-2.5836385836e+00   9.3522565049e-01
-2.5738705739e+00   9.4090046164e-01
-2.5641025641e+00   9.4662116713e-01
-2.5543345543e+00   9.5238824922e-01
-2.5445665446e+00   9.5820219645e-01
-2.5347985348e+00   9.6406350379e-01
-2.5250305250e+00   9.6997267266e-01
-2.5152625153e+00   9.7593021112e-01
-2.5054945055e+00   9.8193663388e-01
-2.4957264957e+00   9.8799246249e-01
-2.4859584860e+00   9.9409822537e-01
-2.4761904762e+00   1.0002544580e+00
-2.4664224664e+00   1.0064617029e+00
-2.4566544567e+00   1.0127205100e+00
-2.4468864469e+00   1.0190314363e+00
-2.4371184371e+00   1.0253950465e+00
-2.4273504274e+00   1.0318119129e+00
-2.4175824176e+00   1.0382826152e+00
-2.4078144078e+00   1.0448077413e+00
-2.3980463980e+00   1.0513878867e+00
-2.3882783883e+00   1.0580236553e+00
-2.3785103785e+00   1.0647156590e+00
-2.3687423687e+00   1.0714645179e+00
-2.3589743590e+00   1.0782708609e+00
-2.3492063492e+00   1.0851353253e+00
-2.3394383394e+00   1.0920585571e+00
-2.3296703297e+00   1.0990412112e+00
-2.3199023199e+00   1.1060839516e+00
-2.3101343101e+00   1.1131874514e+00
-2.3003663004e+00   1.1203523929e+00
-2.2905982906e+00   1.1275794680e+00
-2.2808302808e+00   1.1348693781e+00
-2.2710622711e+00   1.1422228345e+00
-2.2612942613e+00   1.1496405582e+00
-2.2515262515e+00   1.1571232806e+00
-2.2417582418e+00   1.1646717429e+00
-2.2319902320e+00   1.1722866971e+00
-2.2222222222e+00   1.1799689055e+00
-2.2124542125e+00   1.1877191414e+00
-2.2026862027e+00   1.1955381887e+00
-2.1929181929e+00   1.2034268426e+00
-2.1831501832e+00   1.2113859097e+00
-2.1733821734e+00   1.2194162077e+00
-2.1636141636e+00   1.2275185662e+00
-2.1538461538e+00   1.2356938265e+00
-2.1440781441e+00   1.2439428421e+00
-2.1343101343e+00   1.2522664785e+00
-2.1245421245e+00   1.2606656138e+00
-2.1147741148e+00   1.2691411386e+00
-2.1050061050e+00   1.2776939564e+00
-2.0952380952e+00   1.2863249836e+00
-2.0854700855e+00   1.2950351501e+00
-2.0757020757e+00   1.3038253990e+00
-2.0659340659e+00   1.3126966872e+00
-2.0561660562e+00   1.3216499855e+00
-2.0463980464e+00   1.3306862788e+00
-2.0366300366e+00   1.3398065665e+00
-2.0268620269e+00   1.3490118624e+00
-2.0170940171e+00   1.3583031953e+00
-2.0073260073e+00   1.3676816088e+00
-1.9975579976e+00   1.3771481622e+00
-1.9877899878e+00   1.3867039300e+00
-1.9780219780e+00   1.3963500029e+00
-1.9682539683e+00   1.4060874874e+00
-1.9584859585e+00   1.4159175064e+00
-1.9487179487e+00   1.4258411994e+00
-1.9389499389e+00   1.4358597228e+00
-1.9291819292e+00   1.4459742502e+00
-1.9194139194e+00   1.4561859725e+00
-1.9096459096e+00   1.4664960983e+00
-1.8998778999e+00   1.4769058543e+00
-1.8901098901e+00   1.4874164855e+00
-1.8803418803e+00   1.4980292552e+00
-1.8705738706e+00   1.5087454458e+00
-1.8608058608e+00   1.5195663589e+00
-1.8510378510e+00   1.5304933154e+00
-1.8412698413e+00   1.5415276560e+00
-1.8315018315e+00   1.5526707416e+00
-1.8217338217e+00   1.5639239533e+00
-1.8119658120e+00   1.5752886931e+00
-1.8021978022e+00   1.5867663841e+00
-1.7924297924e+00   1.5983584705e+00
-1.7826617827e+00   1.6100664184e+00
-1.7728937729e+00   1.6218917159e+00
-1.7631257631e+00   1.6338358734e+00
-1.7533577534e+00   1.6459004242e+00
-1.7435897436e+00   1.6580869244e+00
-1.7338217338e+00   1.6703969537e+00
-1.7240537241e+00   1.6828321154e+00
-1.7142857143e+00   1.6953940371e+00
-1.7045177045e+00   1.7080843705e+00
-1.6947496947e+00   1.7209047926e+00
-1.6849816850e+00   1.7338570052e+00
-1.6752136752e+00   1.7469427357e+00
-1.6654456654e+00   1.7601637374e+00
-1.6556776557e+00   1.7735217901e+00
-1.6459096459e+00   1.7870186999e+00
-1.6361416361e+00   1.8006563001e+00
-1.6263736264e+00   1.8144364511e+00
-1.6166056166e+00   1.8283610413e+00
-1.6068376068e+00   1.8424319871e+00
-1.5970695971e+00   1.8566512333e+00
-1.5873015873e+00   1.8710207535e+00
-1.5775335775e+00   1.8855425505e+00
-1.5677655678e+00   1.9002186567e+00
-1.5579975580e+00   1.9150511342e+00
-1.5482295482e+00   1.9300420756e+00
-1.5384615385e+00   1.9451936039e+00
-1.5286935287e+00   1.9605078731e+00
-1.5189255189e+00   1.9759870683e+00
-1.5091575092e+00   1.9916334064e+00
-1.4993894994e+00   2.0074491361e+00
-1.4896214896e+00   2.0234365383e+00
-1.4798534799e+00   2.0395979265e+00
-1.4700854701e+00   2.0559356470e+00
-1.4603174603e+00   2.0724520792e+00
-1.4505494505e+00   2.0891496357e+00
-1.4407814408e+00   2.1060307628e+00
-1.4310134310e+00   2.1230979408e+00
-1.4212454212e+00   2.1403536839e+00
-1.4114774115e+00   2.1578005404e+00
-1.4017094017e+00   2.1754410934e+00
-1.3919413919e+00   2.1932779602e+00
-1.3821733822e+00   2.2113137930e+00
-1.3724053724e+00   2.2295512788e+00
-1.3626373626e+00   2.2479931394e+00
-1.3528693529e+00   2.2666421316e+00
-1.3431013431e+00   2.2855010469e+00
-1.3333333333e+00   2.3045727119e+00
-1.3235653236e+00   2.3238599880e+00
-1.3137973138e+00   2.3433657710e+00
-1.3040293040e+00   2.3630929915e+00
-1.2942612943e+00   2.3830446143e+00
-1.2844932845e+00   2.4032236381e+00
-1.2747252747e+00   2.4236330954e+00
-1.2649572650e+00   2.4442760521e+00
-1.2551892552e+00   2.4651556067e+00
-1.2454212454e+00   2.4862748903e+00
-1.2356532357e+00   2.5076370653e+00
-1.2258852259e+00   2.5292453256e+00
-1.2161172161e+00   2.5511028951e+00
-1.2063492063e+00   2.5732130269e+00
-1.1965811966e+00   2.5955790029e+00
-1.1868131868e+00   2.6182041322e+00
-1.1770451770e+00   2.6410917498e+00
-1.1672771673e+00   2.6642452159e+00
-1.1575091575e+00   2.6876679139e+00
-1.1477411477e+00   2.7113632493e+00
-1.1379731380e+00   2.7353346474e+00
-1.1282051282e+00   2.7595855520e+00
-1.1184371184e+00   2.7841194230e+00
-1.1086691087e+00   2.8089397345e+00
-1.0989010989e+00   2.8340499720e+00
-1.0891330891e+00   2.8594536303e+00
-1.0793650794e+00   2.8851542103e+00
-1.0695970696e+00   2.9111552161e+00
-1.0598290598e+00   2.9374601519e+00
-1.0500610501e+00   2.9640725183e+00
-1.0402930403e+00   2.9909958087e+00
-1.0305250305e+00   3.0182335051e+00
-1.0207570208e+00   3.0457890740e+00
-1.0109890110e+00   3.0736659614e+00
-1.0012210012e+00   3.1018675882e+00
-9.9145299145e-01   3.1303973447e+00
-9.8168498168e-01   3.1592585849e+00
-9.7191697192e-01   3.1884546205e+00
-9.6214896215e-01   3.2179887145e+00
-9.5238095238e-01   3.2478640739e+00
-9.4261294261e-01   3.2780838430e+00
-9.3284493284e-01   3.3086510950e+00
-9.2307692308e-01   3.3395688239e+00
-9.1330891331e-01   3.3708399358e+00
-9.0354090354e-01   3.4024672391e+00
-8.9377289377e-01   3.4344534349e+00
-8.8400488400e-01   3.4668011062e+00
-8.7423687424e-01   3.4995127070e+00
-8.6446886447e-01   3.5325905498e+00
-8.5470085470e-01   3.5660367936e+00
-8.4493284493e-01   3.5998534305e+00
-8.3516483516e-01   3.6340422715e+00
-8.2539682540e-01   3.6686049318e+00
-8.1562881563e-01   3.7035428149e+00
-8.0586080586e-01   3.7388570966e+00
-7.9609279609e-01   3.7745487071e+00
-7.8632478632e-01   3.8106183132e+00
-7.7655677656e-01   3.8470662986e+00
-7.6678876679e-01   3.8838927442e+00
-7.5702075702e-01   3.9210974065e+00
-7.4725274725e-01   3.9586796957e+00
-7.3748473748e-01   3.9966386521e+00
-7.2771672772e-01   4.0349729223e+00
-7.1794871795e-01   4.0736807332e+00
-7.0818070818e-01   4.1127598656e+00
-6.9841269841e-01   4.1522076271e+00
-6.8864468864e-01   4.1920208224e+00
-6.7887667888e-01   4.2321957239e+00
-6.6910866911e-01   4.2727280407e+00
-6.5934065934e-01   4.3136128860e+00
-6.4957264957e-01   4.3548447442e+00
-6.3980463980e-01   4.3964174360e+00
-6.3003663004e-01   4.4383240834e+00
-6.2026862027e-01   4.4805570730e+00
-6.1050061050e-01   4.5231080182e+00
-6.0073260073e-01   4.5659677216e+00
-5.9096459096e-01   4.6091261350e+00
-5.8119658120e-01   4.6525723201e+00
-5.7142857143e-01   4.6962944076e+00
-5.6166056166e-01   4.7402795561e+00
-5.5189255189e-01   4.7845139113e+00
-5.4212454212e-01   4.8289825639e+00
-5.3235653236e-01   4.8736695081e+00
-5.2258852259e-01   4.9185576007e+00
-5.1282051282e-01   4.9636285197e+00
-5.0305250305e-01   5.0088627247e+00
-4.9328449328e-01   5.0542394172e+00
-4.8351648352e-01   5.0997365031e+00
-4.7374847375e-01   5.1453305566e+00
-4.6398046398e-01   5.1909967854e+00
-4.5421245421e-01   5.2367089999e+00
-4.4444444444e-01   5.2824395831e+00
-4.3467643468e-01   5.3281594658e+00
-4.2490842491e-01   5.3738381043e+00
-4.1514041514e-01   5.4194434627e+00
-4.0537240537e-01   5.4649420000e+00
-3.9560439560e-01   5.5102986625e+00
-3.8583638584e-01   5.5554768821e+00
-3.7606837607e-01   5.6004385807e+00
-3.6630036630e-01   5.6451441822e+00
-3.5653235653e-01   5.6895526314e+00
-3.4676434676e-01   5.7336214217e+00
-3.3699633700e-01   5.7773066310e+00
-3.2722832723e-01   5.8205629669e+00
-3.1746031746e-01   5.8633438219e+00
-3.0769230769e-01   5.9056013388e+00
-2.9792429792e-01   5.9472864862e+00
-2.8815628816e-01   5.9883491457e+00
-2.7838827839e-01   6.0287382098e+00
-2.6862026862e-01   6.0684016914e+00
-2.5885225885e-01   6.1072868454e+00
-2.4908424908e-01   6.1453403010e+00
-2.3931623932e-01   6.1825082059e+00
-2.2954822955e-01   6.2187363818e+00
-2.1978021978e-01   6.2539704906e+00
-2.1001221001e-01   6.2881562109e+00
-2.0024420024e-01   6.3212394243e+00
-1.9047619048e-01   6.3531664101e+00
-1.8070818071e-01   6.3838840487e+00
-1.7094017094e-01   6.4133400305e+00
-1.6117216117e-01   6.4414830716e+00
-1.5140415140e-01   6.4682631322e+00
-1.4163614164e-01   6.4936316387e+00
-1.3186813187e-01   6.5175417058e+00
-1.2210012210e-01   6.5399483578e+00
-1.1233211233e-01   6.5608087471e+00
-1.0256410256e-01   6.5800823682e+00
-9.2796092796e-02   6.5977312647e+00
-8.3028083028e-02   6.6137202277e+00
-7.3260073260e-02   6.6280169834e+00
-6.3492063492e-02   6.6405923690e+00
-5.3724053724e-02   6.6514204932e+00
-4.3956043956e-02   6.6604788814e+00
-3.4188034188e-02   6.6677486032e+00
-2.4420024420e-02   6.6732143807e+00
-1.4652014652e-02   6.6768646770e+00
-4.8840048840e-03   6.6786917631e+00
4.8840048840e-03   6.6786917631e+00
1.4652014652e-02   6.6768646770e+00
2.4420024420e-02   6.6732143807e+00
3.4188034188e-02   6.6677486032e+00
4.3956043956e-02   6.6604788814e+00
5.3724053724e-02   6.6514204932e+00
6.3492063492e-02   6.6405923690e+00
7.3260073260e-02   6.6280169834e+00
8.3028083028e-02   6.6137202277e+00
9.2796092796e-02   6.5977312647e+00
1.0256410256e-01   6.5800823682e+00
1.1233211233e-01   6.5608087471e+00
1.2210012210e-01   6.5399483578e+00
1.3186813187e-01   6.5175417058e+00
1.4163614164e-01   6.4936316387e+00
1.5140415140e-01   6.4682631322e+00
1.6117216117e-01   6.4414830716e+00
1.7094017094e-01   6.4133400305e+00
1.8070818071e-01   6.3838840487e+00
1.9047619048e-01   6.3531664101e+00
2.0024420024e-01   6.3212394243e+00
2.1001221001e-01   6.2881562109e+00
2.1978021978e-01   6.2539704906e+00
2.2954822955e-01   6.2187363818e+00
2.3931623932e-01   6.1825082059e+00
2.4908424908e-01   6.1453403010e+00
2.5885225885e-01   6.1072868454e+00
2.6862026862e-01   6.0684016914e+00
2.7838827839e-01   6.0287382098e+00
2.8815628816e-01   5.9883491457e+00
2.9792429792e-01   5.9472864862e+00
3.0769230769e-01   5.9056013388e+00
3.1746031746e-01   5.8633438219e+00
3.2722832723e-01   5.8205629669e+00
3.3699633700e-01   5.7773066310e+00
3.4676434676e-01   5.7336214217e+00
3.5653235653e-01   5.6895526314e+00
3.6630036630e-01   5.6451441822e+00
3.7606837607e-01   5.6004385807e+00
3.8583638584e-01   5.5554768821e+00
3.9560439560e-01   5.5102986625e+00
4.0537240537e-01   5.4649420000e+00
4.1514041514e-01   5.4194434627e+00
4.2490842491e-01   5.3738381043e+00
4.3467643468e-01   5.3281594658e+00
4.4444444444e-01   5.2824395831e+00
4.5421245421e-01   5.2367089999e+00
4.6398046398e-01   5.1909967854e+00
4.7374847375e-01   5.1453305566e+00
4.8351648352e-01   5.0997365031e+00
4.9328449328e-01   5.0542394172e+00
5.0305250305e-01   5.0088627247e+00
5.1282051282e-01   4.9636285197e+00
5.2258852259e-01   4.9185576007e+00
5.3235653236e-01   4.8736695081e+00
5.4212454212e-01   4.8289825639e+00
5.5189255189e-01   4.7845139113e+00
5.6166056166e-01   4.7402795561e+00
5.7142857143e-01   4.6962944076e+00
5.8119658120e-01   4.6525723201e+00
5.9096459096e-01   4.6091261350e+00
6.0073260073e-01   4.5659677216e+00
6.1050061050e-01   4.5231080182e+00
6.2026862027e-01   4.4805570730e+00
6.3003663004e-01   4.4383240834e+00
6.3980463980e-01   4.3964174360e+00
6.4957264957e-01   4.3548447442e+00
6.5934065934e-01   4.3136128860e+00
6.6910866911e-01   4.2727280407e+00
6.7887667888e-01   4.2321957239e+00
6.8864468864e-01   4.1920208224e+00
6.9841269841e-01   4.1522076271e+00
7.0818070818e-01   4.1127598656e+00
7.1794871795e-01   4.0736807332e+00
7.2771672772e-01   4.0349729223e+00
7.3748473748e-01   3.9966386521e+00
7.4725274725e-01   3.9586796957e+00
7.5702075702e-01   3.9210974065e+00
7.6678876679e-01   3.8838927442e+00
7.7655677656e-01   3.8470662986e+00
7.8632478632e-01   3.8106183132e+00
7.9609279609e-01   3.7745487071e+00
8.0586080586e-01   3.7388570966e+00
8.1562881563e-01   3.7035428149e+00
8.2539682540e-01   3.6686049318e+00
8.3516483516e-01   3.6340422715e+00
8.4493284493e-01   3.5998534305e+00
8.5470085470e-01   3.5660367936e+00
8.6446886447e-01   3.5325905498e+00
8.7423687424e-01   3.4995127070e+00
8.8400488400e-01   3.4668011062e+00
8.9377289377e-01   3.4344534349e+00
9.0354090354e-01   3.4024672391e+00
9.1330891331e-01   3.3708399358e+00
9.2307692308e-01   3.3395688239e+00
9.3284493284e-01   3.3086510950e+00
9.4261294261e-01   3.2780838430e+00
9.5238095238e-01   3.2478640739e+00
9.6214896215e-01   3.2179887145e+00
9.7191697192e-01   3.1884546205e+00
9.8168498168e-01   3.1592585849e+00
9.9145299145e-01   3.1303973447e+00
1.0012210012e+00   3.1018675882e+00
1.0109890110e+00   3.0736659614e+00
1.0207570208e+00   3.0457890740e+00
1.0305250305e+00   3.0182335051e+00
1.0402930403e+00   2.9909958087e+00
1.0500610501e+00   2.9640725183e+00
1.0598290598e+00   2.9374601519e+00
1.0695970696e+00   2.9111552161e+00
1.0793650794e+00   2.8851542103e+00
1.0891330891e+00   2.8594536303e+00
1.0989010989e+00   2.8340499720e+00
1.1086691087e+00   2.8089397345e+00
1.1184371184e+00   2.7841194230e+00
1.1282051282e+00   2.7595855520e+00
1.1379731380e+00   2.7353346474e+00
1.1477411477e+00   2.7113632493e+00
1.1575091575e+00   2.6876679139e+00
1.1672771673e+00   2.6642452159e+00
1.1770451770e+00   2.6410917498e+00
1.1868131868e+00   2.6182041322e+00
1.1965811966e+00   2.5955790029e+00
1.2063492063e+00   2.5732130269e+00
1.2161172161e+00   2.5511028951e+00
1.2258852259e+00   2.5292453256e+00
1.2356532357e+00   2.5076370653e+00
1.2454212454e+00   2.4862748903e+00
1.2551892552e+00   2.4651556067e+00
1.2649572650e+00   2.4442760521e+00
1.2747252747e+00   2.4236330954e+00
1.2844932845e+00   2.4032236381e+00
1.2942612943e+00   2.3830446143e+00
1.3040293040e+00   2.3630929915e+00
1.3137973138e+00   2.3433657710e+00
1.3235653236e+00   2.3238599880e+00
1.3333333333e+00   2.3045727119e+00
1.3431013431e+00   2.2855010469e+00
1.3528693529e+00   2.2666421316e+00
1.3626373626e+00   2.2479931394e+00
1.3724053724e+00   2.2295512788e+00
1.3821733822e+00   2.2113137930e+00
1.3919413919e+00   2.1932779602e+00
1.4017094017e+00   2.1754410934e+00
1.4114774115e+00   2.1578005404e+00
1.4212454212e+00   2.1403536839e+00
1.4310134310e+00   2.1230979408e+00
1.4407814408e+00   2.1060307628e+00
1.4505494505e+00   2.0891496357e+00
1.4603174603e+00   2.0724520792e+00
1.4700854701e+00   2.0559356470e+00
1.4798534799e+00   2.0395979265e+00
1.4896214896e+00   2.0234365383e+00
1.4993894994e+00   2.0074491361e+00
1.5091575092e+00   1.9916334064e+00
1.5189255189e+00   1.9759870683e+00
1.5286935287e+00   1.9605078731e+00
1.5384615385e+00   1.9451936039e+00
1.5482295482e+00   1.9300420756e+00
1.5579975580e+00   1.9150511342e+00
1.5677655678e+00   1.9002186567e+00
1.5775335775e+00   1.8855425505e+00
1.5873015873e+00   1.8710207535e+00
1.5970695971e+00   1.8566512333e+00
1.6068376068e+00   1.8424319871e+00
1.6166056166e+00   1.8283610413e+00
1.6263736264e+00   1.8144364511e+00
1.6361416361e+00   1.8006563001e+00
1.6459096459e+00   1.7870186999e+00
1.6556776557e+00   1.7735217901e+00
1.6654456654e+00   1.7601637374e+00
1.6752136752e+00   1.7469427357e+00
1.6849816850e+00   1.7338570052e+00
1.6947496947e+00   1.7209047926e+00
1.7045177045e+00   1.7080843705e+00
1.7142857143e+00   1.6953940371e+00
1.7240537241e+00   1.6828321154e+00
1.7338217338e+00   1.6703969537e+00
1.7435897436e+00   1.6580869244e+00
1.7533577534e+00   1.6459004242e+00
1.7631257631e+00   1.6338358734e+00
1.7728937729e+00   1.6218917159e+00
1.7826617827e+00   1.6100664184e+00
1.7924297924e+00   1.5983584705e+00
1.8021978022e+00   1.5867663841e+00
1.8119658120e+00   1.5752886931e+00
1.8217338217e+00   1.5639239533e+00
1.8315018315e+00   1.5526707416e+00
1.8412698413e+00   1.5415276560e+00
1.8510378510e+00   1.5304933154e+00
1.8608058608e+00   1.5195663589e+00
1.8705738706e+00   1.5087454458e+00
1.8803418803e+00   1.4980292552e+00
1.8901098901e+00   1.4874164855e+00
1.8998778999e+00   1.4769058543e+00
1.9096459096e+00   1.4664960983e+00
1.9194139194e+00   1.4561859725e+00
1.9291819292e+00   1.4459742502e+00
1.9389499389e+00   1.4358597228e+00
1.9487179487e+00   1.4258411994e+00
1.9584859585e+00   1.4159175064e+00
1.9682539683e+00   1.4060874874e+00
1.9780219780e+00   1.3963500029e+00
1.9877899878e+00   1.3867039300e+00
1.9975579976e+00   1.3771481622e+00
2.0073260073e+00   1.3676816088e+00
2.0170940171e+00   1.3583031953e+00
2.0268620269e+00   1.3490118624e+00
2.0366300366e+00   1.3398065665e+00
2.0463980464e+00   1.3306862788e+00
2.0561660562e+00   1.3216499855e+00
2.0659340659e+00   1.3126966872e+00
2.0757020757e+00   1.3038253990e+00
2.0854700855e+00   1.2950351501e+00
2.0952380952e+00   1.2863249836e+00
2.1050061050e+00   1.2776939564e+00
2.1147741148e+00   1.2691411386e+00
2.1245421245e+00   1.2606656138e+00
2.1343101343e+00   1.2522664785e+00
2.1440781441e+00   1.2439428421e+00
2.1538461538e+00   1.2356938265e+00
2.1636141636e+00   1.2275185662e+00
2.1733821734e+00   1.2194162077e+00
2.1831501832e+00   1.2113859097e+00
2.1929181929e+00   1.2034268426e+00
2.2026862027e+00   1.1955381887e+00
2.2124542125e+00   1.1877191414e+00
2.2222222222e+00   1.1799689055e+00
2.2319902320e+00   1.1722866971e+00
2.2417582418e+00   1.1646717429e+00
2.2515262515e+00   1.1571232806e+00
2.2612942613e+00   1.1496405582e+00
2.2710622711e+00   1.1422228345e+00
2.2808302808e+00   1.1348693781e+00
2.2905982906e+00   1.1275794680e+00
2.3003663004e+00   1.1203523929e+00
2.3101343101e+00   1.1131874514e+00
2.3199023199e+00   1.1060839516e+00
2.3296703297e+00   1.0990412112e+00
2.3394383394e+00   1.0920585571e+00
2.3492063492e+00   1.0851353253e+00
2.3589743590e+00   1.0782708609e+00
2.3687423687e+00   1.0714645179e+00
2.3785103785e+00   1.0647156590e+00
2.3882783883e+00   1.0580236553e+00
2.3980463980e+00   1.0513878867e+00
2.4078144078e+00   1.0448077413e+00
2.4175824176e+00   1.0382826152e+00
2.4273504274e+00   1.0318119129e+00
2.4371184371e+00   1.0253950465e+00
2.4468864469e+00   1.0190314363e+00
2.4566544567e+00   1.0127205100e+00
2.4664224664e+00   1.0064617029e+00
2.4761904762e+00   1.0002544580e+00
2.4859584860e+00   9.9409822537e-01
2.4957264957e+00   9.8799246249e-01
2.5054945055e+00   9.8193663388e-01
2.5152625153e+00   9.7593021112e-01
2.5250305250e+00   9.6997267266e-01
2.5347985348e+00   9.6406350379e-01
2.5445665446e+00   9.5820219645e-01
2.5543345543e+00   9.5238824922e-01
2.5641025641e+00   9.4662116713e-01
2.5738705739e+00   9.4090046164e-01
2.5836385836e+00   9.3522565049e-01
2.5934065934e+00   9.2959625763e-01
2.6031746032e+00   9.2401181310e-01
2.6129426129e+00   9.1847185299e-01
2.6227106227e+00   9.1297591928e-01
2.6324786325e+00   9.0752355982e-01
2.6422466422e+00   9.0211432817e-01
2.6520146520e+00   8.9674778359e-01
2.6617826618e+00   8.9142349089e-01
2.6715506716e+00   8.8614102039e-01
2.6813186813e+00   8.8089994782e-01
2.6910866911e+00   8.7569985424e-01
2.7008547009e+00   8.7054032596e-01
2.7106227106e+00   8.6542095447e-01
2.7203907204e+00   8.6034133636e-01
2.7301587302e+00   8.5530107322e-01
2.7399267399e+00   8.5029977164e-01
2.7496947497e+00   8.4533704303e-01
2.7594627595e+00   8.4041250363e-01
2.7692307692e+00   8.3552577443e-01
2.7789987790e+00   8.3067648106e-01
2.7887667888e+00   8.2586425375e-01
2.7985347985e+00   8.2108872728e-01
2.8083028083e+00   8.1634954086e-01
2.8180708181e+00   8.1164633814e-01
2.8278388278e+00   8.0697876707e-01
2.8376068376e+00   8.0234647989e-01
2.8473748474e+00   7.9774913307e-01
2.8571428571e+00   7.9318638718e-01
2.8669108669e+00   7.8865790694e-01
2.8766788767e+00   7.8416336106e-01
2.8864468864e+00   7.7970242225e-01
2.8962148962e+00   7.7527476711e-01
2.9059829060e+00   7.7088007614e-01
2.9157509158e+00   7.6651803363e-01
2.9255189255e+00   7.6218832761e-01
2.9352869353e+00   7.5789064982e-01
2.9450549451e+00   7.5362469567e-01
2.9548229548e+00   7.4939016413e-01
2.9645909646e+00   7.4518675774e-01
2.9743589744e+00   7.4101418253e-01
2.9841269841e+00   7.3687214797e-01
2.9938949939e+00   7.3276036696e-01
3.0036630037e+00   7.2867855570e-01
3.0134310134e+00   7.2462643375e-01
3.0231990232e+00   7.2060372388e-01
3.0329670330e+00   7.1661015211e-01
3.0427350427e+00   7.1264544761e-01
3.0525030525e+00   7.0870934269e-01
3.0622710623e+00   7.0480157272e-01
3.0720390720e+00   7.0092187614e-01
3.0818070818e+00   6.9706999437e-01
3.0915750916e+00   6.9324567179e-01
3.1013431013e+00   6.8944865570e-01
3.1111111111e+00   6.8567869627e-01
3.1208791209e+00   6.8193554651e-01
3.1306471306e+00   6.7821896225e-01
3.1404151404e+00   6.7452870205e-01
3.1501831502e+00   6.7086452722e-01
3.1599511600e+00   6.6722620173e-01
3.1697191697e+00   6.6361349224e-01
3.1794871795e+00   6.6002616799e-01
3.1892551893e+00   6.5646400082e-01
3.1990231990e+00   6.5292676510e-01
3.2087912088e+00   6.4941423774e-01
3.2185592186e+00   6.4592619810e-01
3.2283272283e+00   6.4246242800e-01
3.2380952381e+00   6.3902271167e-01
3.2478632479e+00   6.3560683572e-01
3.2576312576e+00   6.3221458912e-01
3.2673992674e+00   6.2884576314e-01
3.2771672772e+00   6.2550015136e-01
3.2869352869e+00   6.2217754959e-01
3.2967032967e+00   6.1887775590e-01
3.3064713065e+00   6.1560057054e-01
3.3162393162e+00   6.1234579594e-01
3.3260073260e+00   6.0911323666e-01
3.3357753358e+00   6.0590269939e-01
3.3455433455e+00   6.0271399290e-01
3.3553113553e+00   5.9954692802e-01
3.3650793651e+00   5.9640131761e-01
3.3748473748e+00   5.9327697654e-01
3.3846153846e+00   5.9017372168e-01
3.3943833944e+00   5.8709137182e-01
3.4041514042e+00   5.8402974771e-01
3.4139194139e+00   5.8098867199e-01
3.4236874237e+00   5.7796796920e-01
3.4334554335e+00   5.7496746572e-01
3.4432234432e+00   5.7198698977e-01
3.4529914530e+00   5.6902637138e-01
3.4627594628e+00   5.6608544239e-01
3.4725274725e+00   5.6316403637e-01
3.4822954823e+00   5.6026198865e-01
3.4920634921e+00   5.5737913630e-01
3.5018315018e+00   5.5451531805e-01
3.5115995116e+00   5.5167037434e-01
3.5213675214e+00   5.4884414727e-01
3.5311355311e+00   5.4603648055e-01
3.5409035409e+00   5.4324721953e-01
3.5506715507e+00   5.4047621114e-01
3.5604395604e+00   5.3772330392e-01
3.5702075702e+00   5.3498834792e-01
3.5799755800e+00   5.3227119476e-01
3.5897435897e+00   5.2957169757e-01
3.5995115995e+00   5.2688971098e-01
3.6092796093e+00   5.2422509111e-01
3.6190476190e+00   5.2157769553e-01
3.6288156288e+00   5.1894738327e-01
3.6385836386e+00   5.1633401478e-01
3.6483516484e+00   5.1373745191e-01
3.6581196581e+00   5.1115755794e-01
3.6678876679e+00   5.0859419749e-01
3.6776556777e+00   5.0604723656e-01
3.6874236874e+00   5.0351654248e-01
3.6971916972e+00   5.0100198392e-01
3.7069597070e+00   4.9850343086e-01
3.7167277167e+00   4.9602075457e-01
3.7264957265e+00   4.9355382762e-01
3.7362637363e+00   4.9110252380e-01
3.7460317460e+00   4.8866671821e-01
3.7557997558e+00   4.8624628713e-01
3.7655677656e+00   4.8384110811e-01
3.7753357753e+00   4.8145105986e-01
3.7851037851e+00   4.7907602232e-01
3.7948717949e+00   4.7671587658e-01
3.8046398046e+00   4.7437050491e-01
3.8144078144e+00   4.7203979073e-01
3.8241758242e+00   4.6972361858e-01
3.8339438339e+00   4.6742187415e-01
3.8437118437e+00   4.6513444421e-01
3.8534798535e+00   4.6286121666e-01
3.8632478632e+00   4.6060208046e-01
3.8730158730e+00   4.5835692565e-01
3.8827838828e+00   4.5612564333e-01
3.8925518926e+00   4.5390812565e-01
3.9023199023e+00   4.5170426578e-01
3.9120879121e+00   4.4951395794e-01
3.9218559219e+00   4.4733709733e-01
3.9316239316e+00   4.4517358018e-01
3.9413919414e+00   4.4302330369e-01
3.9511599512e+00   4.4088616604e-01
3.9609279609e+00   4.3876206638e-01
3.9706959707e+00   4.3665090480e-01
3.9804639805e+00   4.3455258236e-01
3.9902319902e+00   4.3246700104e-01
4.0000000000e+00   4.3039406374e-01
4.0097680098e+00   4.2833367426e-01
4.0195360195e+00   4.2628573734e-01
4.0293040293e+00   4.2425015857e-01
4.0390720391e+00   4.2222684445e-01
4.0488400488e+00   4.2021570234e-01
4.0586080586e+00   4.1821664046e-01
4.0683760684e+00   4.1622956788e-01
4.0781440781e+00   4.1425439454e-01
4.0879120879e+00   4.1229103118e-01
4.0976800977e+00   4.1033938938e-01
4.1074481074e+00   4.0839938153e-01
4.1172161172e+00   4.0647092082e-01
4.1269841270e+00   4.0455392127e-01
4.1367521368e+00   4.0264829765e-01
4.1465201465e+00   4.0075396552e-01
4.1562881563e+00   3.9887084122e-01
4.1660561661e+00   3.9699884184e-01
4.1758241758e+00   3.9513788525e-01
4.1855921856e+00   3.9328789004e-01
4.1953601954e+00   3.9144877555e-01
4.2051282051e+00   3.8962046183e-01
4.2148962149e+00   3.8780286969e-01
4.2246642247e+00   3.8599592062e-01
4.2344322344e+00   3.8419953683e-01
4.2442002442e+00   3.8241364123e-01
4.2539682540e+00   3.8063815743e-01
4.2637362637e+00   3.7887300970e-01
4.2735042735e+00   3.7711812299e-01
4.2832722833e+00   3.7537342296e-01
4.2930402930e+00   3.7363883587e-01
4.3028083028e+00   3.7191428868e-01
4.3125763126e+00   3.7019970899e-01
4.3223443223e+00   3.6849502502e-01
4.3321123321e+00   3.6680016565e-01
4.3418803419e+00   3.6511506038e-01
4.3516483516e+00   3.6343963931e-01
4.3614163614e+00   3.6177383319e-01
4.3711843712e+00   3.6011757336e-01
4.3809523810e+00   3.5847079175e-01
4.3907203907e+00   3.5683342090e-01
4.4004884005e+00   3.5520539394e-01
4.4102564103e+00   3.5358664458e-01
4.4200244200e+00   3.5197710710e-01
4.4297924298e+00   3.5037671635e-01
4.4395604396e+00   3.4878540776e-01
4.4493284493e+00   3.4720311731e-01
4.4590964591e+00   3.4562978153e-01
4.4688644689e+00   3.4406533749e-01
4.4786324786e+00   3.4250972282e-01
4.4884004884e+00   3.4096287568e-01
4.4981684982e+00   3.3942473475e-01
4.5079365079e+00   3.3789523925e-01
4.5177045177e+00   3.3637432890e-01
4.5274725275e+00   3.3486194395e-01
4.5372405372e+00   3.3335802517e-01
4.5470085470e+00   3.3186251380e-01
4.5567765568e+00   3.3037535161e-01
4.5665445665e+00   3.2889648085e-01
4.5763125763e+00   3.2742584425e-01
4.5860805861e+00   3.2596338505e-01
4.5958485958e+00   3.2450904694e-01
4.6056166056e+00   3.2306277411e-01
4.6153846154e+00   3.2162451118e-01
4.6251526252e+00   3.2019420329e-01
4.6349206349e+00   3.1877179599e-01
4.6446886447e+00   3.1735723532e-01
4.6544566545e+00   3.1595046774e-01
4.6642246642e+00   3.1455144018e-01
4.6739926740e+00   3.1316010000e-01
4.6837606838e+00   3.1177639501e-01
4.6935286935e+00   3.1040027342e-01
4.7032967033e+00   3.0903168392e-01
4.7130647131e+00   3.0767057558e-01
4.7228327228e+00   3.0631689791e-01
4.7326007326e+00   3.0497060083e-01
4.7423687424e+00   3.0363163467e-01
4.7521367521e+00   3.0229995018e-01
4.7619047619e+00   3.0097549850e-01
4.7716727717e+00   2.9965823118e-01
4.7814407814e+00   2.9834810016e-01
4.7912087912e+00   2.9704505777e-01
4.8009768010e+00   2.9574905673e-01
4.8107448107e+00   2.9446005015e-01
4.8205128205e+00   2.9317799151e-01
4.8302808303e+00   2.9190283469e-01
4.8400488400e+00   2.9063453390e-01
4.8498168498e+00   2.8937304377e-01
4.8595848596e+00   2.8811831926e-01
4.8693528694e+00   2.8687031571e-01
4.8791208791e+00   2.8562898881e-01
4.8888888889e+00   2.8439429461e-01
4.8986568987e+00   2.8316618952e-01
4.9084249084e+00   2.8194463028e-01
4.9181929182e+00   2.8072957398e-01
4.9279609280e+00   2.7952097808e-01
4.9377289377e+00   2.7831880034e-01
4.9474969475e+00   2.7712299889e-01
4.9572649573e+00   2.7593353215e-01
4.9670329670e+00   2.7475035892e-01
4.9768009768e+00   2.7357343828e-01
4.9865689866e+00   2.7240272967e-01
4.9963369963e+00   2.7123819282e-01
5.0061050061e+00   2.7007978781e-01
5.0158730159e+00   2.6892747500e-01
5.0256410256e+00   2.6778121508e-01
5.0354090354e+00   2.6664096905e-01
5.0451770452e+00   2.6550669820e-01
5.0549450549e+00   2.6437836414e-01
5.0647130647e+00   2.6325592877e-01
5.0744810745e+00   2.6213935429e-01
5.0842490842e+00   2.6102860319e-01
5.0940170940e+00   2.5992363826e-01
5.1037851038e+00   2.5882442257e-01
5.1135531136e+00   2.5773091947e-01
5.1233211233e+00   2.5664309262e-01
5.1330891331e+00   2.5556090592e-01
5.1428571429e+00   2.5448432359e-01
5.1526251526e+00   2.5341331011e-01
5.1623931624e+00   2.5234783021e-01
5.1721611722e+00   2.5128784892e-01
5.1819291819e+00   2.5023333153e-01
5.1916971917e+00   2.4918424359e-01
5.2014652015e+00   2.4814055092e-01
5.2112332112e+00   2.4710221960e-01
5.2210012210e+00   2.4606921596e-01
5.2307692308e+00   2.4504150659e-01
5.2405372405e+00   2.4401905834e-01
5.2503052503e+00   2.4300183831e-01
5.2600732601e+00   2.4198981384e-01
5.2698412698e+00   2.4098295253e-01
5.2796092796e+00   2.3998122221e-01
5.2893772894e+00   2.3898459096e-01
5.2991452991e+00   2.3799302710e-01
5.3089133089e+00   2.3700649920e-01
5.3186813187e+00   2.3602497605e-01
5.3284493284e+00   2.3504842667e-01
5.3382173382e+00   2.3407682032e-01
5.3479853480e+00   2.3311012650e-01
5.3577533578e+00   2.3214831492e-01
5.3675213675e+00   2.3119135552e-01
5.3772893773e+00   2.3023921848e-01
5.3870573871e+00   2.2929187418e-01
5.3968253968e+00   2.2834929322e-01
5.4065934066e+00   2.2741144644e-01
5.4163614164e+00   2.2647830487e-01
5.4261294261e+00   2.2554983978e-01
5.4358974359e+00   2.2462602262e-01
5.4456654457e+00   2.2370682507e-01
5.4554334554e+00   2.2279221903e-01
5.4652014652e+00   2.2188217658e-01
5.4749694750e+00   2.2097667002e-01
5.4847374847e+00   2.2007567185e-01
5.4945054945e+00   2.1917915478e-01
5.5042735043e+00   2.1828709169e-01
5.5140415140e+00   2.1739945570e-01
5.5238095238e+00   2.1651622008e-01
5.5335775336e+00   2.1563735835e-01
5.5433455433e+00   2.1476284416e-01
5.5531135531e+00   2.1389265140e-01
5.5628815629e+00   2.1302675412e-01
5.5726495726e+00   2.1216512658e-01
5.5824175824e+00   2.1130774320e-01
5.5921855922e+00   2.1045457862e-01
5.6019536020e+00   2.0960560762e-01
5.6117216117e+00   2.0876080519e-01
5.6214896215e+00   2.0792014649e-01
5.6312576313e+00   2.0708360688e-01
5.6410256410e+00   2.0625116185e-01
5.6507936508e+00   2.0542278710e-01
5.6605616606e+00   2.0459845851e-01
5.6703296703e+00   2.0377815211e-01
5.6800976801e+00   2.0296184410e-01
5.6898656899e+00   2.0214951087e-01
5.6996336996e+00   2.0134112896e-01
5.7094017094e+00   2.0053667508e-01
5.7191697192e+00   1.9973612611e-01
5.7289377289e+00   1.9893945910e-01
5.7387057387e+00   1.9814665124e-01
5.7484737485e+00   1.9735767990e-01
5.7582417582e+00   1.9657252260e-01
5.7680097680e+00   1.9579115703e-01
5.7777777778e+00   1.9501356102e-01
5.7875457875e+00   1.9423971256e-01
5.7973137973e+00   1.9346958982e-01
5.8070818071e+00   1.9270317107e-01
5.8168498168e+00   1.9194043479e-01
5.8266178266e+00   1.9118135958e-01
5.8363858364e+00   1.9042592417e-01
5.8461538462e+00   1.8967410749e-01
5.8559218559e+00   1.8892588857e-01
5.8656898657e+00   1.8818124661e-01
5.8754578755e+00   1.8744016094e-01
5.8852258852e+00   1.8670261104e-01
5.8949938950e+00   1.8596857654e-01
5.9047619048e+00   1.8523803721e-01
5.9145299145e+00   1.8451097293e-01
5.9242979243e+00   1.8378736376e-01
5.9340659341e+00   1.8306718987e-01
5.9438339438e+00   1.8235043158e-01
5.9536019536e+00   1.8163706933e-01
5.9633699634e+00   1.8092708372e-01
5.9731379731e+00   1.8022045545e-01
5.9829059829e+00   1.7951716538e-01
5.9926739927e+00   1.7881719449e-01
6.0024420024e+00   1.7812052389e-01
6.0122100122e+00   1.7742713480e-01
6.0219780220e+00   1.7673700861e-01
6.0317460317e+00   1.7605012679e-01
6.0415140415e+00   1.7536647098e-01
6.0512820513e+00   1.7468602291e-01
6.0610500611e+00   1.7400876444e-01
6.0708180708e+00   1.7333467757e-01
6.0805860806e+00   1.7266374441e-01
6.0903540904e+00   1.7199594718e-01
6.1001221001e+00   1.7133126824e-01
6.1098901099e+00   1.7066969006e-01
6.1196581197e+00   1.7001119522e-01
6.1294261294e+00   1.6935576643e-01
6.1391941392e+00   1.6870338650e-01
6.1489621490e+00   1.6805403838e-01
6.1587301587e+00   1.6740770510e-01
6.1684981685e+00   1.6676436984e-01
6.1782661783e+00   1.6612401587e-01
6.1880341880e+00   1.6548662656e-01
6.1978021978e+00   1.6485218543e-01
6.2075702076e+00   1.6422067606e-01
6.2173382173e+00   1.6359208219e-01
6.2271062271e+00   1.6296638763e-01
6.2368742369e+00   1.6234357630e-01
6.2466422466e+00   1.6172363225e-01
6.2564102564e+00   1.6110653962e-01
6.2661782662e+00   1.6049228265e-01
6.2759462759e+00   1.5988084570e-01
6.2857142857e+00   1.5927221321e-01
6.2954822955e+00   1.5866636974e-01
6.3052503053e+00   1.5806329994e-01
6.3150183150e+00   1.5746298857e-01
6.3247863248e+00   1.5686542050e-01
6.3345543346e+00   1.5627058066e-01
6.3443223443e+00   1.5567845413e-01
6.3540903541e+00   1.5508902604e-01
6.3638583639e+00   1.5450228165e-01
6.3736263736e+00   1.5391820630e-01
6.3833943834e+00   1.5333678543e-01
6.3931623932e+00   1.5275800458e-01
6.4029304029e+00   1.5218184936e-01
6.4126984127e+00   1.5160830551e-01
6.4224664225e+00   1.5103735883e-01
6.4322344322e+00   1.5046899523e-01
6.4420024420e+00   1.4990320071e-01
6.4517704518e+00   1.4933996135e-01
6.4615384615e+00   1.4877926333e-01
6.4713064713e+00   1.4822109290e-01
6.4810744811e+00   1.4766543643e-01
6.4908424908e+00   1.4711228036e-01
6.5006105006e+00   1.4656161121e-01
6.5103785104e+00   1.4601341559e-01
6.5201465201e+00   1.4546768021e-01
6.5299145299e+00   1.4492439185e-01
6.5396825397e+00   1.4438353737e-01
6.5494505495e+00   1.4384510373e-01
6.5592185592e+00   1.4330907797e-01
