X    Y
-2.0000000000e+01   7.2336137518e-19
-1.9990231990e+01   9.0630067520e-06
-1.9980463980e+01   1.8126248608e-05
-1.9970695971e+01   2.7189960673e-05
-1.9960927961e+01   3.6254378053e-05
-1.9951159951e+01   4.5319735857e-05
-1.9941391941e+01   5.4386269196e-05
-1.9931623932e+01   6.3454213184e-05
-1.9921855922e+01   7.2523802941e-05
-1.9912087912e+01   8.1595273590e-05
-1.9902319902e+01   9.0668860262e-05
-1.9892551893e+01   9.9744798092e-05
-1.9882783883e+01   1.0882332222e-04
-1.9873015873e+01   1.1790466781e-04
-1.9863247863e+01   1.2698907000e-04
-1.9853479853e+01   1.3607676398e-04
-1.9843711844e+01   1.4516798491e-04
-1.9833943834e+01   1.5426296800e-04
-1.9824175824e+01   1.6336194843e-04
-1.9814407814e+01   1.7246516142e-04
-1.9804639805e+01   1.8157284219e-04
-1.9794871795e+01   1.9068522599e-04
-1.9785103785e+01   1.9980254807e-04
-1.9775335775e+01   2.0892504368e-04
-1.9765567766e+01   2.1805294812e-04
-1.9755799756e+01   2.2718649668e-04
-1.9746031746e+01   2.3632592467e-04
-1.9736263736e+01   2.4547146744e-04
-1.9726495726e+01   2.5462336032e-04
-1.9716727717e+01   2.6378183868e-04
-1.9706959707e+01   2.7294713792e-04
-1.9697191697e+01   2.8211949344e-04
-1.9687423687e+01   2.9129914066e-04
-1.9677655678e+01   3.0048631504e-04
-1.9667887668e+01   3.0968125205e-04
-1.9658119658e+01   3.1888418717e-04
-1.9648351648e+01   3.2809535593e-04
-1.9638583639e+01   3.3731499386e-04
-1.9628815629e+01   3.4654333653e-04
-1.9619047619e+01   3.5578061951e-04
-1.9609279609e+01   3.6502707844e-04
-1.9599511600e+01   3.7428294893e-04
-1.9589743590e+01   3.8354846667e-04
-1.9579975580e+01   3.9282386733e-04
-1.9570207570e+01   4.0210938665e-04
-1.9560439560e+01   4.1140526035e-04
-1.9550671551e+01   4.2071172423e-04
-1.9540903541e+01   4.3002901408e-04
-1.9531135531e+01   4.3935736574e-04
-1.9521367521e+01   4.4869701507e-04
-1.9511599512e+01   4.5804819796e-04
-1.9501831502e+01   4.6741115034e-04
-1.9492063492e+01   4.7678610816e-04
-1.9482295482e+01   4.8617330742e-04
-1.9472527473e+01   4.9557298412e-04
-1.9462759463e+01   5.0498537433e-04
-1.9452991453e+01   5.1441071413e-04
-1.9443223443e+01   5.2384923964e-04
-1.9433455433e+01   5.3330118701e-04
-1.9423687424e+01   5.4276679243e-04
-1.9413919414e+01   5.5224629211e-04
-1.9404151404e+01   5.6173992232e-04
-1.9394383394e+01   5.7124791935e-04
-1.9384615385e+01   5.8077051953e-04
-1.9374847375e+01   5.9030795921e-04
-1.9365079365e+01   5.9986047480e-04
-1.9355311355e+01   6.0942830274e-04
-1.9345543346e+01   6.1901167949e-04
-1.9335775336e+01   6.2861084157e-04
-1.9326007326e+01   6.3822602553e-04
-1.9316239316e+01   6.4785746795e-04
-1.9306471306e+01   6.5750540545e-04
-1.9296703297e+01   6.6717007470e-04
-1.9286935287e+01   6.7685171240e-04
-1.9277167277e+01   6.8655055527e-04
-1.9267399267e+01   6.9626684011e-04
-1.9257631258e+01   7.0600080372e-04
-1.9247863248e+01   7.1575268297e-04
-1.9238095238e+01   7.2552271473e-04
-1.9228327228e+01   7.3531113595e-04
-1.9218559219e+01   7.4511818360e-04
-1.9208791209e+01   7.5494409468e-04
-1.9199023199e+01   7.6478910626e-04
-1.9189255189e+01   7.7465345541e-04
-1.9179487179e+01   7.8453737927e-04
-1.9169719170e+01   7.9444111500e-04
-1.9159951160e+01   8.0436489982e-04
-1.9150183150e+01   8.1430897097e-04
-1.9140415140e+01   8.2427356574e-04
-1.9130647131e+01   8.3425892145e-04
-1.9120879121e+01   8.4426527547e-04
-1.9111111111e+01   8.5429286521e-04
-1.9101343101e+01   8.6434192810e-04
-1.9091575092e+01   8.7441270163e-04
-1.9081807082e+01   8.8450542332e-04
-1.9072039072e+01   8.9462033073e-04
-1.9062271062e+01   9.0475766145e-04
-1.9052503053e+01   9.1491765313e-04
-1.9042735043e+01   9.2510054343e-04
-1.9032967033e+01   9.3530657007e-04
-1.9023199023e+01   9.4553597079e-04
-1.9013431013e+01   9.5578898338e-04
-1.9003663004e+01   9.6606584566e-04
-1.8993894994e+01   9.7636679550e-04
-1.8984126984e+01   9.8669207077e-04
-1.8974358974e+01   9.9704190942e-04
-1.8964590965e+01   1.0074165494e-03
-1.8954822955e+01   1.0178162287e-03
-1.8945054945e+01   1.0282411854e-03
-1.8935286935e+01   1.0386916575e-03
-1.8925518926e+01   1.0491678832e-03
-1.8915750916e+01   1.0596701006e-03
-1.8905982906e+01   1.0701985477e-03
-1.8896214896e+01   1.0807534629e-03
-1.8886446886e+01   1.0913350844e-03
-1.8876678877e+01   1.1019436504e-03
-1.8866910867e+01   1.1125793992e-03
-1.8857142857e+01   1.1232425691e-03
-1.8847374847e+01   1.1339333985e-03
-1.8837606838e+01   1.1446521258e-03
-1.8827838828e+01   1.1553989893e-03
-1.8818070818e+01   1.1661742274e-03
-1.8808302808e+01   1.1769780787e-03
-1.8798534799e+01   1.1878107816e-03
-1.8788766789e+01   1.1986725746e-03
-1.8778998779e+01   1.2095636962e-03
-1.8769230769e+01   1.2204843849e-03
-1.8759462759e+01   1.2314348794e-03
-1.8749694750e+01   1.2424154182e-03
-1.8739926740e+01   1.2534262399e-03
-1.8730158730e+01   1.2644675832e-03
-1.8720390720e+01   1.2755396866e-03
-1.8710622711e+01   1.2866427889e-03
-1.8700854701e+01   1.2977771286e-03
-1.8691086691e+01   1.3089429446e-03
-1.8681318681e+01   1.3201404754e-03
-1.8671550672e+01   1.3313699598e-03
-1.8661782662e+01   1.3426316365e-03
-1.8652014652e+01   1.3539257442e-03
-1.8642246642e+01   1.3652525217e-03
-1.8632478632e+01   1.3766122077e-03
-1.8622710623e+01   1.3880050409e-03
-1.8612942613e+01   1.3994312601e-03
-1.8603174603e+01   1.4108911040e-03
-1.8593406593e+01   1.4223848114e-03
-1.8583638584e+01   1.4339126210e-03
-1.8573870574e+01   1.4454747716e-03
-1.8564102564e+01   1.4570715019e-03
-1.8554334554e+01   1.4687030507e-03
-1.8544566545e+01   1.4803696566e-03
-1.8534798535e+01   1.4920715584e-03
-1.8525030525e+01   1.5038089948e-03
-1.8515262515e+01   1.5155822045e-03
-1.8505494505e+01   1.5273914262e-03
-1.8495726496e+01   1.5392368985e-03
-1.8485958486e+01   1.5511188602e-03
-1.8476190476e+01   1.5630375497e-03
-1.8466422466e+01   1.5749932058e-03
-1.8456654457e+01   1.5869860670e-03
-1.8446886447e+01   1.5990163718e-03
-1.8437118437e+01   1.6110843589e-03
-1.8427350427e+01   1.6231902667e-03
-1.8417582418e+01   1.6353343337e-03
-1.8407814408e+01   1.6475167982e-03
-1.8398046398e+01   1.6597378988e-03
-1.8388278388e+01   1.6719978738e-03
-1.8378510379e+01   1.6842969615e-03
-1.8368742369e+01   1.6966354002e-03
-1.8358974359e+01   1.7090134281e-03
-1.8349206349e+01   1.7214312834e-03
-1.8339438339e+01   1.7338892043e-03
-1.8329670330e+01   1.7463874288e-03
-1.8319902320e+01   1.7589261950e-03
-1.8310134310e+01   1.7715057409e-03
-1.8300366300e+01   1.7841263043e-03
-1.8290598291e+01   1.7967881232e-03
-1.8280830281e+01   1.8094914353e-03
-1.8271062271e+01   1.8222364784e-03
-1.8261294261e+01   1.8350234901e-03
-1.8251526252e+01   1.8478527080e-03
-1.8241758242e+01   1.8607243696e-03
-1.8231990232e+01   1.8736387123e-03
-1.8222222222e+01   1.8865959735e-03
-1.8212454212e+01   1.8995963905e-03
-1.8202686203e+01   1.9126402004e-03
-1.8192918193e+01   1.9257276403e-03
-1.8183150183e+01   1.9388589472e-03
-1.8173382173e+01   1.9520343581e-03
-1.8163614164e+01   1.9652541096e-03
-1.8153846154e+01   1.9785184385e-03
-1.8144078144e+01   1.9918275815e-03
-1.8134310134e+01   2.0051817749e-03
-1.8124542125e+01   2.0185812552e-03
-1.8114774115e+01   2.0320262586e-03
-1.8105006105e+01   2.0455170212e-03
-1.8095238095e+01   2.0590537791e-03
-1.8085470085e+01   2.0726367682e-03
-1.8075702076e+01   2.0862662241e-03
-1.8065934066e+01   2.0999423826e-03
-1.8056166056e+01   2.1136654791e-03
-1.8046398046e+01   2.1274357489e-03
-1.8036630037e+01   2.1412534273e-03
-1.8026862027e+01   2.1551187494e-03
-1.8017094017e+01   2.1690319499e-03
-1.8007326007e+01   2.1829932637e-03
-1.7997557998e+01   2.1970029254e-03
-1.7987789988e+01   2.2110611693e-03
-1.7978021978e+01   2.2251682298e-03
-1.7968253968e+01   2.2393243409e-03
-1.7958485958e+01   2.2535297365e-03
-1.7948717949e+01   2.2677846504e-03
-1.7938949939e+01   2.2820893160e-03
-1.7929181929e+01   2.2964439668e-03
-1.7919413919e+01   2.3108488359e-03
-1.7909645910e+01   2.3253041563e-03
-1.7899877900e+01   2.3398101607e-03
-1.7890109890e+01   2.3543670816e-03
-1.7880341880e+01   2.3689751515e-03
-1.7870573871e+01   2.3836346024e-03
-1.7860805861e+01   2.3983456662e-03
-1.7851037851e+01   2.4131085746e-03
-1.7841269841e+01   2.4279235592e-03
-1.7831501832e+01   2.4427908510e-03
-1.7821733822e+01   2.4577106810e-03
-1.7811965812e+01   2.4726832800e-03
-1.7802197802e+01   2.4877088785e-03
-1.7792429792e+01   2.5027877066e-03
-1.7782661783e+01   2.5179199944e-03
-1.7772893773e+01   2.5331059715e-03
-1.7763125763e+01   2.5483458674e-03
-1.7753357753e+01   2.5636399112e-03
-1.7743589744e+01   2.5789883317e-03
-1.7733821734e+01   2.5943913576e-03
-1.7724053724e+01   2.6098492171e-03
-1.7714285714e+01   2.6253621382e-03
-1.7704517705e+01   2.6409303487e-03
-1.7694749695e+01   2.6565540758e-03
-1.7684981685e+01   2.6722335466e-03
-1.7675213675e+01   2.6879689879e-03
-1.7665445665e+01   2.7037606261e-03
-1.7655677656e+01   2.7196086873e-03
-1.7645909646e+01   2.7355133972e-03
-1.7636141636e+01   2.7514749811e-03
-1.7626373626e+01   2.7674936642e-03
-1.7616605617e+01   2.7835696711e-03
-1.7606837607e+01   2.7997032262e-03
-1.7597069597e+01   2.8158945533e-03
-1.7587301587e+01   2.8321438761e-03
-1.7577533578e+01   2.8484514177e-03
-1.7567765568e+01   2.8648174010e-03
-1.7557997558e+01   2.8812420484e-03
-1.7548229548e+01   2.8977255818e-03
-1.7538461538e+01   2.9142682228e-03
-1.7528693529e+01   2.9308701927e-03
-1.7518925519e+01   2.9475317122e-03
-1.7509157509e+01   2.9642530015e-03
-1.7499389499e+01   2.9810342807e-03
-1.7489621490e+01   2.9978757691e-03
-1.7479853480e+01   3.0147776857e-03
-1.7470085470e+01   3.0317402490e-03
-1.7460317460e+01   3.0487636771e-03
-1.7450549451e+01   3.0658481877e-03
-1.7440781441e+01   3.0829939978e-03
-1.7431013431e+01   3.1002013240e-03
-1.7421245421e+01   3.1174703824e-03
-1.7411477411e+01   3.1348013887e-03
-1.7401709402e+01   3.1521945581e-03
-1.7391941392e+01   3.1696501050e-03
-1.7382173382e+01   3.1871682436e-03
-1.7372405372e+01   3.2047491873e-03
-1.7362637363e+01   3.2223931492e-03
-1.7352869353e+01   3.2401003417e-03
-1.7343101343e+01   3.2578709767e-03
-1.7333333333e+01   3.2757052655e-03
-1.7323565324e+01   3.2936034187e-03
-1.7313797314e+01   3.3115656467e-03
-1.7304029304e+01   3.3295921589e-03
-1.7294261294e+01   3.3476831642e-03
-1.7284493284e+01   3.3658388711e-03
-1.7274725275e+01   3.3840594873e-03
-1.7264957265e+01   3.4023452197e-03
-1.7255189255e+01   3.4206962750e-03
-1.7245421245e+01   3.4391128589e-03
-1.7235653236e+01   3.4575951766e-03
-1.7225885226e+01   3.4761434326e-03
-1.7216117216e+01   3.4947578307e-03
-1.7206349206e+01   3.5134385741e-03
-1.7196581197e+01   3.5321858651e-03
-1.7186813187e+01   3.5509999057e-03
-1.7177045177e+01   3.5698808967e-03
-1.7167277167e+01   3.5888290385e-03
-1.7157509158e+01   3.6078445308e-03
-1.7147741148e+01   3.6269275723e-03
-1.7137973138e+01   3.6460783613e-03
-1.7128205128e+01   3.6652970949e-03
-1.7118437118e+01   3.6845839698e-03
-1.7108669109e+01   3.7039391818e-03
-1.7098901099e+01   3.7233629259e-03
-1.7089133089e+01   3.7428553963e-03
-1.7079365079e+01   3.7624167863e-03
-1.7069597070e+01   3.7820472887e-03
-1.7059829060e+01   3.8017470950e-03
-1.7050061050e+01   3.8215163963e-03
-1.7040293040e+01   3.8413553825e-03
-1.7030525031e+01   3.8612642429e-03
-1.7020757021e+01   3.8812431657e-03
-1.7010989011e+01   3.9012923384e-03
-1.7001221001e+01   3.9214119476e-03
-1.6991452991e+01   3.9416021787e-03
-1.6981684982e+01   3.9618632166e-03
-1.6971916972e+01   3.9821952450e-03
-1.6962148962e+01   4.0025984467e-03
-1.6952380952e+01   4.0230730036e-03
-1.6942612943e+01   4.0436190966e-03
-1.6932844933e+01   4.0642369057e-03
-1.6923076923e+01   4.0849266098e-03
-1.6913308913e+01   4.1056883869e-03
-1.6903540904e+01   4.1265224138e-03
-1.6893772894e+01   4.1474288665e-03
-1.6884004884e+01   4.1684079199e-03
-1.6874236874e+01   4.1894597477e-03
-1.6864468864e+01   4.2105845228e-03
-1.6854700855e+01   4.2317824169e-03
-1.6844932845e+01   4.2530536004e-03
-1.6835164835e+01   4.2743982430e-03
-1.6825396825e+01   4.2958165130e-03
-1.6815628816e+01   4.3173085777e-03
-1.6805860806e+01   4.3388746031e-03
-1.6796092796e+01   4.3605147544e-03
-1.6786324786e+01   4.3822291953e-03
-1.6776556777e+01   4.4040180883e-03
-1.6766788767e+01   4.4258815951e-03
-1.6757020757e+01   4.4478198757e-03
-1.6747252747e+01   4.4698330892e-03
-1.6737484737e+01   4.4919213935e-03
-1.6727716728e+01   4.5140849450e-03
-1.6717948718e+01   4.5363238990e-03
-1.6708180708e+01   4.5586384095e-03
-1.6698412698e+01   4.5810286293e-03
-1.6688644689e+01   4.6034947098e-03
-1.6678876679e+01   4.6260368010e-03
-1.6669108669e+01   4.6486550518e-03
-1.6659340659e+01   4.6713496095e-03
-1.6649572650e+01   4.6941206203e-03
-1.6639804640e+01   4.7169682288e-03
-1.6630036630e+01   4.7398925783e-03
-1.6620268620e+01   4.7628938108e-03
-1.6610500611e+01   4.7859720666e-03
-1.6600732601e+01   4.8091274849e-03
-1.6590964591e+01   4.8323602033e-03
-1.6581196581e+01   4.8556703578e-03
-1.6571428571e+01   4.8790580831e-03
-1.6561660562e+01   4.9025235125e-03
-1.6551892552e+01   4.9260667774e-03
-1.6542124542e+01   4.9496880080e-03
-1.6532356532e+01   4.9733873330e-03
-1.6522588523e+01   4.9971648792e-03
-1.6512820513e+01   5.0210207721e-03
-1.6503052503e+01   5.0449551357e-03
-1.6493284493e+01   5.0689680920e-03
-1.6483516484e+01   5.0930597617e-03
-1.6473748474e+01   5.1172302638e-03
-1.6463980464e+01   5.1414797156e-03
-1.6454212454e+01   5.1658082326e-03
-1.6444444444e+01   5.1902159289e-03
-1.6434676435e+01   5.2147029167e-03
-1.6424908425e+01   5.2392693064e-03
-1.6415140415e+01   5.2639152068e-03
-1.6405372405e+01   5.2886407250e-03
-1.6395604396e+01   5.3134459660e-03
-1.6385836386e+01   5.3383310335e-03
-1.6376068376e+01   5.3632960288e-03
-1.6366300366e+01   5.3883410519e-03
-1.6356532357e+01   5.4134662007e-03
-1.6346764347e+01   5.4386715711e-03
-1.6336996337e+01   5.4639572574e-03
-1.6327228327e+01   5.4893233518e-03
-1.6317460317e+01   5.5147699447e-03
-1.6307692308e+01   5.5402971245e-03
-1.6297924298e+01   5.5659049775e-03
-1.6288156288e+01   5.5915935882e-03
-1.6278388278e+01   5.6173630392e-03
-1.6268620269e+01   5.6432134108e-03
-1.6258852259e+01   5.6691447814e-03
-1.6249084249e+01   5.6951572274e-03
-1.6239316239e+01   5.7212508231e-03
-1.6229548230e+01   5.7474256406e-03
-1.6219780220e+01   5.7736817499e-03
-1.6210012210e+01   5.8000192190e-03
-1.6200244200e+01   5.8264381137e-03
-1.6190476190e+01   5.8529384975e-03
-1.6180708181e+01   5.8795204319e-03
-1.6170940171e+01   5.9061839760e-03
-1.6161172161e+01   5.9329291867e-03
-1.6151404151e+01   5.9597561188e-03
-1.6141636142e+01   5.9866648246e-03
-1.6131868132e+01   6.0136553543e-03
-1.6122100122e+01   6.0407277557e-03
-1.6112332112e+01   6.0678820741e-03
-1.6102564103e+01   6.0951183527e-03
-1.6092796093e+01   6.1224366323e-03
-1.6083028083e+01   6.1498369510e-03
-1.6073260073e+01   6.1773193447e-03
-1.6063492063e+01   6.2048838469e-03
-1.6053724054e+01   6.2325304886e-03
-1.6043956044e+01   6.2602592982e-03
-1.6034188034e+01   6.2880703015e-03
-1.6024420024e+01   6.3159635222e-03
-1.6014652015e+01   6.3439389809e-03
-1.6004884005e+01   6.3719966960e-03
-1.5995115995e+01   6.4001366832e-03
-1.5985347985e+01   6.4283589554e-03
-1.5975579976e+01   6.4566635230e-03
-1.5965811966e+01   6.4850503939e-03
-1.5956043956e+01   6.5135195729e-03
-1.5946275946e+01   6.5420710624e-03
-1.5936507937e+01   6.5707048619e-03
-1.5926739927e+01   6.5994209683e-03
-1.5916971917e+01   6.6282193755e-03
-1.5907203907e+01   6.6571000747e-03
-1.5897435897e+01   6.6860630542e-03
-1.5887667888e+01   6.7151082996e-03
-1.5877899878e+01   6.7442357934e-03
-1.5868131868e+01   6.7734455153e-03
-1.5858363858e+01   6.8027374420e-03
-1.5848595849e+01   6.8321115474e-03
-1.5838827839e+01   6.8615678022e-03
-1.5829059829e+01   6.8911061743e-03
-1.5819291819e+01   6.9207266283e-03
-1.5809523810e+01   6.9504291259e-03
-1.5799755800e+01   6.9802136259e-03
-1.5789987790e+01   7.0100800836e-03
-1.5780219780e+01   7.0400284514e-03
-1.5770451770e+01   7.0700586785e-03
-1.5760683761e+01   7.1001707109e-03
-1.5750915751e+01   7.1303644914e-03
-1.5741147741e+01   7.1606399596e-03
-1.5731379731e+01   7.1909970516e-03
-1.5721611722e+01   7.2214357005e-03
-1.5711843712e+01   7.2519558360e-03
-1.5702075702e+01   7.2825573844e-03
-1.5692307692e+01   7.3132402685e-03
-1.5682539683e+01   7.3440044079e-03
-1.5672771673e+01   7.3748497188e-03
-1.5663003663e+01   7.4057761137e-03
-1.5653235653e+01   7.4367835019e-03
-1.5643467643e+01   7.4678717889e-03
-1.5633699634e+01   7.4990408769e-03
-1.5623931624e+01   7.5302906644e-03
-1.5614163614e+01   7.5616210464e-03
-1.5604395604e+01   7.5930319141e-03
-1.5594627595e+01   7.6245231553e-03
-1.5584859585e+01   7.6560946539e-03
-1.5575091575e+01   7.6877462902e-03
-1.5565323565e+01   7.7194779408e-03
-1.5555555556e+01   7.7512894783e-03
-1.5545787546e+01   7.7831807718e-03
-1.5536019536e+01   7.8151516865e-03
-1.5526251526e+01   7.8472020835e-03
-1.5516483516e+01   7.8793318203e-03
-1.5506715507e+01   7.9115407504e-03
-1.5496947497e+01   7.9438287234e-03
-1.5487179487e+01   7.9761955847e-03
-1.5477411477e+01   8.0086411760e-03
-1.5467643468e+01   8.0411653348e-03
-1.5457875458e+01   8.0737678946e-03
-1.5448107448e+01   8.1064486846e-03
-1.5438339438e+01   8.1392075302e-03
-1.5428571429e+01   8.1720442525e-03
-1.5418803419e+01   8.2049586683e-03
-1.5409035409e+01   8.2379505902e-03
-1.5399267399e+01   8.2710198268e-03
-1.5389499389e+01   8.3041661822e-03
-1.5379731380e+01   8.3373894561e-03
-1.5369963370e+01   8.3706894441e-03
-1.5360195360e+01   8.4040659373e-03
-1.5350427350e+01   8.4375187223e-03
-1.5340659341e+01   8.4710475815e-03
-1.5330891331e+01   8.5046522925e-03
-1.5321123321e+01   8.5383326286e-03
-1.5311355311e+01   8.5720883587e-03
-1.5301587302e+01   8.6059192467e-03
-1.5291819292e+01   8.6398250524e-03
-1.5282051282e+01   8.6738055305e-03
-1.5272283272e+01   8.7078604314e-03
-1.5262515263e+01   8.7419895005e-03
-1.5252747253e+01   8.7761924788e-03
-1.5242979243e+01   8.8104691021e-03
-1.5233211233e+01   8.8448191018e-03
-1.5223443223e+01   8.8792422041e-03
-1.5213675214e+01   8.9137381307e-03
-1.5203907204e+01   8.9483065981e-03
-1.5194139194e+01   8.9829473180e-03
-1.5184371184e+01   9.0176599970e-03
-1.5174603175e+01   9.0524443369e-03
-1.5164835165e+01   9.0873000342e-03
-1.5155067155e+01   9.1222267805e-03
-1.5145299145e+01   9.1572242623e-03
-1.5135531136e+01   9.1922921607e-03
-1.5125763126e+01   9.2274301519e-03
-1.5115995116e+01   9.2626379069e-03
-1.5106227106e+01   9.2979150910e-03
-1.5096459096e+01   9.3332613648e-03
-1.5086691087e+01   9.3686763832e-03
-1.5076923077e+01   9.4041597957e-03
-1.5067155067e+01   9.4397112467e-03
-1.5057387057e+01   9.4753303749e-03
-1.5047619048e+01   9.5110168135e-03
-1.5037851038e+01   9.5467701905e-03
-1.5028083028e+01   9.5825901281e-03
-1.5018315018e+01   9.6184762428e-03
-1.5008547009e+01   9.6544281458e-03
-1.4998778999e+01   9.6904454424e-03
-1.4989010989e+01   9.7265277323e-03
-1.4979242979e+01   9.7626746095e-03
-1.4969474969e+01   9.7988856622e-03
-1.4959706960e+01   9.8351604726e-03
-1.4949938950e+01   9.8714986174e-03
-1.4940170940e+01   9.9078996671e-03
-1.4930402930e+01   9.9443631865e-03
-1.4920634921e+01   9.9808887342e-03
-1.4910866911e+01   1.0017475863e-02
-1.4901098901e+01   1.0054124120e-02
-1.4891330891e+01   1.0090833045e-02
-1.4881562882e+01   1.0127602174e-02
-1.4871794872e+01   1.0164431033e-02
-1.4862026862e+01   1.0201319146e-02
-1.4852258852e+01   1.0238266029e-02
-1.4842490842e+01   1.0275271191e-02
-1.4832722833e+01   1.0312334135e-02
-1.4822954823e+01   1.0349454358e-02
-1.4813186813e+01   1.0386631352e-02
-1.4803418803e+01   1.0423864600e-02
-1.4793650794e+01   1.0461153579e-02
-1.4783882784e+01   1.0498497762e-02
-1.4774114774e+01   1.0535896612e-02
-1.4764346764e+01   1.0573349588e-02
-1.4754578755e+01   1.0610856140e-02
-1.4744810745e+01   1.0648415715e-02
-1.4735042735e+01   1.0686027749e-02
-1.4725274725e+01   1.0723691675e-02
-1.4715506716e+01   1.0761406915e-02
-1.4705738706e+01   1.0799172889e-02
-1.4695970696e+01   1.0836989007e-02
-1.4686202686e+01   1.0874854672e-02
-1.4676434676e+01   1.0912769281e-02
-1.4666666667e+01   1.0950732224e-02
-1.4656898657e+01   1.0988742885e-02
-1.4647130647e+01   1.1026800638e-02
-1.4637362637e+01   1.1064904852e-02
-1.4627594628e+01   1.1103054889e-02
-1.4617826618e+01   1.1141250103e-02
-1.4608058608e+01   1.1179489840e-02
-1.4598290598e+01   1.1217773441e-02
-1.4588522589e+01   1.1256100236e-02
-1.4578754579e+01   1.1294469553e-02
-1.4568986569e+01   1.1332880707e-02
-1.4559218559e+01   1.1371333009e-02
-1.4549450549e+01   1.1409825761e-02
-1.4539682540e+01   1.1448358258e-02
-1.4529914530e+01   1.1486929787e-02
-1.4520146520e+01   1.1525539629e-02
-1.4510378510e+01   1.1564187054e-02
-1.4500610501e+01   1.1602871328e-02
-1.4490842491e+01   1.1641591706e-02
-1.4481074481e+01   1.1680347437e-02
-1.4471306471e+01   1.1719137763e-02
-1.4461538462e+01   1.1757961915e-02
-1.4451770452e+01   1.1796819119e-02
-1.4442002442e+01   1.1835708591e-02
-1.4432234432e+01   1.1874629541e-02
-1.4422466422e+01   1.1913581168e-02
-1.4412698413e+01   1.1952562667e-02
-1.4402930403e+01   1.1991573221e-02
-1.4393162393e+01   1.2030612006e-02
-1.4383394383e+01   1.2069678190e-02
-1.4373626374e+01   1.2108770934e-02
-1.4363858364e+01   1.2147889387e-02
-1.4354090354e+01   1.2187032694e-02
-1.4344322344e+01   1.2226199989e-02
-1.4334554335e+01   1.2265390397e-02
-1.4324786325e+01   1.2304603036e-02
-1.4315018315e+01   1.2343837014e-02
-1.4305250305e+01   1.2383091433e-02
-1.4295482295e+01   1.2422365383e-02
-1.4285714286e+01   1.2461657947e-02
-1.4275946276e+01   1.2500968199e-02
-1.4266178266e+01   1.2540295205e-02
-1.4256410256e+01   1.2579638020e-02
-1.4246642247e+01   1.2618995693e-02
-1.4236874237e+01   1.2658367262e-02
-1.4227106227e+01   1.2697751756e-02
-1.4217338217e+01   1.2737148195e-02
-1.4207570208e+01   1.2776555591e-02
-1.4197802198e+01   1.2815972947e-02
-1.4188034188e+01   1.2855399255e-02
-1.4178266178e+01   1.2894833499e-02
-1.4168498168e+01   1.2934274653e-02
-1.4158730159e+01   1.2973721684e-02
-1.4148962149e+01   1.3013173546e-02
-1.4139194139e+01   1.3052629186e-02
-1.4129426129e+01   1.3092087541e-02
-1.4119658120e+01   1.3131547538e-02
-1.4109890110e+01   1.3171008096e-02
-1.4100122100e+01   1.3210468122e-02
-1.4090354090e+01   1.3249926516e-02
-1.4080586081e+01   1.3289382166e-02
-1.4070818071e+01   1.3328833951e-02
-1.4061050061e+01   1.3368280741e-02
-1.4051282051e+01   1.3407721395e-02
-1.4041514042e+01   1.3447154763e-02
-1.4031746032e+01   1.3486579685e-02
-1.4021978022e+01   1.3525994990e-02
-1.4012210012e+01   1.3565399498e-02
-1.4002442002e+01   1.3604792019e-02
-1.3992673993e+01   1.3644171352e-02
-1.3982905983e+01   1.3683536286e-02
-1.3973137973e+01   1.3722885601e-02
-1.3963369963e+01   1.3762218066e-02
-1.3953601954e+01   1.3801532439e-02
-1.3943833944e+01   1.3840827467e-02
-1.3934065934e+01   1.3880101890e-02
-1.3924297924e+01   1.3919354434e-02
-1.3914529915e+01   1.3958583816e-02
-1.3904761905e+01   1.3997788742e-02
-1.3894993895e+01   1.4036967908e-02
-1.3885225885e+01   1.4076119998e-02
-1.3875457875e+01   1.4115243688e-02
-1.3865689866e+01   1.4154337641e-02
-1.3855921856e+01   1.4193400508e-02
-1.3846153846e+01   1.4232430933e-02
-1.3836385836e+01   1.4271427547e-02
-1.3826617827e+01   1.4310388968e-02
-1.3816849817e+01   1.4349313807e-02
-1.3807081807e+01   1.4388200662e-02
-1.3797313797e+01   1.4427048119e-02
-1.3787545788e+01   1.4465854755e-02
-1.3777777778e+01   1.4504619134e-02
-1.3768009768e+01   1.4543339809e-02
-1.3758241758e+01   1.4582015323e-02
-1.3748473748e+01   1.4620644207e-02
-1.3738705739e+01   1.4659224980e-02
-1.3728937729e+01   1.4697756150e-02
-1.3719169719e+01   1.4736236214e-02
-1.3709401709e+01   1.4774663658e-02
-1.3699633700e+01   1.4813036954e-02
-1.3689865690e+01   1.4851354565e-02
-1.3680097680e+01   1.4889614941e-02
-1.3670329670e+01   1.4927816521e-02
-1.3660561661e+01   1.4965957731e-02
-1.3650793651e+01   1.5004036988e-02
-1.3641025641e+01   1.5042052694e-02
-1.3631257631e+01   1.5080003240e-02
-1.3621489621e+01   1.5117887006e-02
-1.3611721612e+01   1.5155702361e-02
-1.3601953602e+01   1.5193447658e-02
-1.3592185592e+01   1.5231121242e-02
-1.3582417582e+01   1.5268721444e-02
-1.3572649573e+01   1.5306246583e-02
-1.3562881563e+01   1.5343694967e-02
-1.3553113553e+01   1.5381064889e-02
-1.3543345543e+01   1.5418354633e-02
-1.3533577534e+01   1.5455562467e-02
-1.3523809524e+01   1.5492686651e-02
-1.3514041514e+01   1.5529725430e-02
-1.3504273504e+01   1.5566677035e-02
-1.3494505495e+01   1.5603539688e-02
-1.3484737485e+01   1.5640311596e-02
-1.3474969475e+01   1.5676990954e-02
-1.3465201465e+01   1.5713575944e-02
-1.3455433455e+01   1.5750064737e-02
-1.3445665446e+01   1.5786455489e-02
-1.3435897436e+01   1.5822746344e-02
-1.3426129426e+01   1.5858935434e-02
-1.3416361416e+01   1.5895020877e-02
-1.3406593407e+01   1.5931000779e-02
-1.3396825397e+01   1.5966873231e-02
-1.3387057387e+01   1.6002636315e-02
-1.3377289377e+01   1.6038288096e-02
-1.3367521368e+01   1.6073826627e-02
-1.3357753358e+01   1.6109249949e-02
-1.3347985348e+01   1.6144556089e-02
-1.3338217338e+01   1.6179743060e-02
-1.3328449328e+01   1.6214808863e-02
-1.3318681319e+01   1.6249751486e-02
-1.3308913309e+01   1.6284568901e-02
-1.3299145299e+01   1.6319259071e-02
-1.3289377289e+01   1.6353819941e-02
-1.3279609280e+01   1.6388249445e-02
-1.3269841270e+01   1.6422545503e-02
-1.3260073260e+01   1.6456706021e-02
-1.3250305250e+01   1.6490728893e-02
-1.3240537241e+01   1.6524611997e-02
-1.3230769231e+01   1.6558353199e-02
-1.3221001221e+01   1.6591950351e-02
-1.3211233211e+01   1.6625401291e-02
-1.3201465201e+01   1.6658703842e-02
-1.3191697192e+01   1.6691855815e-02
-1.3181929182e+01   1.6724855007e-02
-1.3172161172e+01   1.6757699199e-02
-1.3162393162e+01   1.6790386161e-02
-1.3152625153e+01   1.6822913647e-02
-1.3142857143e+01   1.6855279398e-02
-1.3133089133e+01   1.6887481139e-02
-1.3123321123e+01   1.6919516584e-02
-1.3113553114e+01   1.6951383429e-02
-1.3103785104e+01   1.6983079360e-02
-1.3094017094e+01   1.7014602045e-02
-1.3084249084e+01   1.7045949140e-02
-1.3074481074e+01   1.7077118287e-02
-1.3064713065e+01   1.7108107111e-02
-1.3054945055e+01   1.7138913226e-02
-1.3045177045e+01   1.7169534229e-02
-1.3035409035e+01   1.7199967704e-02
-1.3025641026e+01   1.7230211219e-02
-1.3015873016e+01   1.7260262330e-02
-1.3006105006e+01   1.7290118576e-02
-1.2996336996e+01   1.7319777483e-02
-1.2986568987e+01   1.7349236561e-02
-1.2976800977e+01   1.7378493307e-02
-1.2967032967e+01   1.7407545202e-02
-1.2957264957e+01   1.7436389712e-02
-1.2947496947e+01   1.7465024290e-02
-1.2937728938e+01   1.7493446373e-02
-1.2927960928e+01   1.7521653383e-02
-1.2918192918e+01   1.7549642728e-02
-1.2908424908e+01   1.7577411800e-02
-1.2898656899e+01   1.7604957978e-02
-1.2888888889e+01   1.7632278623e-02
-1.2879120879e+01   1.7659371085e-02
-1.2869352869e+01   1.7686232695e-02
-1.2859584860e+01   1.7712860773e-02
-1.2849816850e+01   1.7739252619e-02
-1.2840048840e+01   1.7765405524e-02
-1.2830280830e+01   1.7791316758e-02
-1.2820512821e+01   1.7816983580e-02
-1.2810744811e+01   1.7842403232e-02
-1.2800976801e+01   1.7867572942e-02
-1.2791208791e+01   1.7892489921e-02
-1.2781440781e+01   1.7917151366e-02
-1.2771672772e+01   1.7941554459e-02
-1.2761904762e+01   1.7965696367e-02
-1.2752136752e+01   1.7989574239e-02
-1.2742368742e+01   1.8013185213e-02
-1.2732600733e+01   1.8036526408e-02
-1.2722832723e+01   1.8059594930e-02
-1.2713064713e+01   1.8082387868e-02
-1.2703296703e+01   1.8104902297e-02
-1.2693528694e+01   1.8127135275e-02
-1.2683760684e+01   1.8149083846e-02
-1.2673992674e+01   1.8170745037e-02
-1.2664224664e+01   1.8192115862e-02
-1.2654456654e+01   1.8213193318e-02
-1.2644688645e+01   1.8233974385e-02
-1.2634920635e+01   1.8254456030e-02
-1.2625152625e+01   1.8274635204e-02
-1.2615384615e+01   1.8294508842e-02
-1.2605616606e+01   1.8314073862e-02
-1.2595848596e+01   1.8333327169e-02
-1.2586080586e+01   1.8352265650e-02
-1.2576312576e+01   1.8370886180e-02
-1.2566544567e+01   1.8389185613e-02
-1.2556776557e+01   1.8407160793e-02
-1.2547008547e+01   1.8424808545e-02
-1.2537240537e+01   1.8442125678e-02
-1.2527472527e+01   1.8459108988e-02
-1.2517704518e+01   1.8475755253e-02
-1.2507936508e+01   1.8492061236e-02
-1.2498168498e+01   1.8508023686e-02
-1.2488400488e+01   1.8523639333e-02
-1.2478632479e+01   1.8538904893e-02
-1.2468864469e+01   1.8553817069e-02
-1.2459096459e+01   1.8568372543e-02
-1.2449328449e+01   1.8582567985e-02
-1.2439560440e+01   1.8596400049e-02
-1.2429792430e+01   1.8609865371e-02
-1.2420024420e+01   1.8622960576e-02
-1.2410256410e+01   1.8635682267e-02
-1.2400488400e+01   1.8648027037e-02
-1.2390720391e+01   1.8659991459e-02
-1.2380952381e+01   1.8671572094e-02
-1.2371184371e+01   1.8682765484e-02
-1.2361416361e+01   1.8693568158e-02
-1.2351648352e+01   1.8703976628e-02
-1.2341880342e+01   1.8713987389e-02
-1.2332112332e+01   1.8723596924e-02
-1.2322344322e+01   1.8732801697e-02
-1.2312576313e+01   1.8741598157e-02
-1.2302808303e+01   1.8749982740e-02
-1.2293040293e+01   1.8757951861e-02
-1.2283272283e+01   1.8765501926e-02
-1.2273504274e+01   1.8772629320e-02
-1.2263736264e+01   1.8779330414e-02
-1.2253968254e+01   1.8785601566e-02
-1.2244200244e+01   1.8791439115e-02
-1.2234432234e+01   1.8796839385e-02
-1.2224664225e+01   1.8801798686e-02
-1.2214896215e+01   1.8806313313e-02
-1.2205128205e+01   1.8810379542e-02
-1.2195360195e+01   1.8813993636e-02
-1.2185592186e+01   1.8817151844e-02
-1.2175824176e+01   1.8819850397e-02
-1.2166056166e+01   1.8822085511e-02
-1.2156288156e+01   1.8823853387e-02
-1.2146520147e+01   1.8825150211e-02
-1.2136752137e+01   1.8825972153e-02
-1.2126984127e+01   1.8826315370e-02
-1.2117216117e+01   1.8826175999e-02
-1.2107448107e+01   1.8825550166e-02
-1.2097680098e+01   1.8824433980e-02
-1.2087912088e+01   1.8822823535e-02
-1.2078144078e+01   1.8820714911e-02
-1.2068376068e+01   1.8818104171e-02
-1.2058608059e+01   1.8814987363e-02
-1.2048840049e+01   1.8811360522e-02
-1.2039072039e+01   1.8807219667e-02
-1.2029304029e+01   1.8802560800e-02
-1.2019536020e+01   1.8797379911e-02
-1.2009768010e+01   1.8791672974e-02
-1.2000000000e+01   1.8785435947e-02
-1.1990231990e+01   1.8778664776e-02
-1.1980463980e+01   1.8771355389e-02
-1.1970695971e+01   1.8763503702e-02
-1.1960927961e+01   1.8755105613e-02
-1.1951159951e+01   1.8746157010e-02
-1.1941391941e+01   1.8736653762e-02
-1.1931623932e+01   1.8726591726e-02
-1.1921855922e+01   1.8715966744e-02
-1.1912087912e+01   1.8704774644e-02
-1.1902319902e+01   1.8693011238e-02
-1.1892551893e+01   1.8680672326e-02
-1.1882783883e+01   1.8667753691e-02
-1.1873015873e+01   1.8654251105e-02
-1.1863247863e+01   1.8640160323e-02
-1.1853479853e+01   1.8625477087e-02
-1.1843711844e+01   1.8610197126e-02
-1.1833943834e+01   1.8594316155e-02
-1.1824175824e+01   1.8577829872e-02
-1.1814407814e+01   1.8560733965e-02
-1.1804639805e+01   1.8543024107e-02
-1.1794871795e+01   1.8524695956e-02
-1.1785103785e+01   1.8505745158e-02
-1.1775335775e+01   1.8486167345e-02
-1.1765567766e+01   1.8465958136e-02
-1.1755799756e+01   1.8445113135e-02
-1.1746031746e+01   1.8423627934e-02
-1.1736263736e+01   1.8401498112e-02
-1.1726495726e+01   1.8378719235e-02
-1.1716727717e+01   1.8355286854e-02
-1.1706959707e+01   1.8331196509e-02
-1.1697191697e+01   1.8306443727e-02
-1.1687423687e+01   1.8281024020e-02
-1.1677655678e+01   1.8254932891e-02
-1.1667887668e+01   1.8228165827e-02
-1.1658119658e+01   1.8200718305e-02
-1.1648351648e+01   1.8172585787e-02
-1.1638583639e+01   1.8143763724e-02
-1.1628815629e+01   1.8114247556e-02
-1.1619047619e+01   1.8084032708e-02
-1.1609279609e+01   1.8053114595e-02
-1.1599511600e+01   1.8021488620e-02
-1.1589743590e+01   1.7989150174e-02
-1.1579975580e+01   1.7956094634e-02
-1.1570207570e+01   1.7922317370e-02
-1.1560439560e+01   1.7887813735e-02
-1.1550671551e+01   1.7852579075e-02
-1.1540903541e+01   1.7816608722e-02
-1.1531135531e+01   1.7779897999e-02
-1.1521367521e+01   1.7742442216e-02
-1.1511599512e+01   1.7704236672e-02
-1.1501831502e+01   1.7665276657e-02
-1.1492063492e+01   1.7625557449e-02
-1.1482295482e+01   1.7585074314e-02
-1.1472527473e+01   1.7543822511e-02
-1.1462759463e+01   1.7501797286e-02
-1.1452991453e+01   1.7458993874e-02
-1.1443223443e+01   1.7415407504e-02
-1.1433455433e+01   1.7371033390e-02
-1.1423687424e+01   1.7325866740e-02
-1.1413919414e+01   1.7279902750e-02
-1.1404151404e+01   1.7233136608e-02
-1.1394383394e+01   1.7185563491e-02
-1.1384615385e+01   1.7137178568e-02
-1.1374847375e+01   1.7087976999e-02
-1.1365079365e+01   1.7037953933e-02
-1.1355311355e+01   1.6987104512e-02
-1.1345543346e+01   1.6935423870e-02
-1.1335775336e+01   1.6882907130e-02
-1.1326007326e+01   1.6829549408e-02
-1.1316239316e+01   1.6775345813e-02
-1.1306471306e+01   1.6720291444e-02
-1.1296703297e+01   1.6664381392e-02
-1.1286935287e+01   1.6607610741e-02
-1.1277167277e+01   1.6549974569e-02
-1.1267399267e+01   1.6491467943e-02
-1.1257631258e+01   1.6432085926e-02
-1.1247863248e+01   1.6371823572e-02
-1.1238095238e+01   1.6310675928e-02
-1.1228327228e+01   1.6248638037e-02
-1.1218559219e+01   1.6185704932e-02
-1.1208791209e+01   1.6121871641e-02
-1.1199023199e+01   1.6057133185e-02
-1.1189255189e+01   1.5991484582e-02
-1.1179487179e+01   1.5924920841e-02
-1.1169719170e+01   1.5857436966e-02
-1.1159951160e+01   1.5789027956e-02
-1.1150183150e+01   1.5719688805e-02
-1.1140415140e+01   1.5649414502e-02
-1.1130647131e+01   1.5578200029e-02
-1.1120879121e+01   1.5506040367e-02
-1.1111111111e+01   1.5432930490e-02
-1.1101343101e+01   1.5358865369e-02
-1.1091575092e+01   1.5283839968e-02
-1.1081807082e+01   1.5207849253e-02
-1.1072039072e+01   1.5130888180e-02
-1.1062271062e+01   1.5052951706e-02
-1.1052503053e+01   1.4974034783e-02
-1.1042735043e+01   1.4894132360e-02
-1.1032967033e+01   1.4813239385e-02
-1.1023199023e+01   1.4731350800e-02
-1.1013431013e+01   1.4648461548e-02
-1.1003663004e+01   1.4564566569e-02
-1.0993894994e+01   1.4479660800e-02
-1.0984126984e+01   1.4393739178e-02
-1.0974358974e+01   1.4306796638e-02
-1.0964590965e+01   1.4218828113e-02
-1.0954822955e+01   1.4129828537e-02
-1.0945054945e+01   1.4039792842e-02
-1.0935286935e+01   1.3948715960e-02
-1.0925518926e+01   1.3856592823e-02
-1.0915750916e+01   1.3763418363e-02
-1.0905982906e+01   1.3669187512e-02
-1.0896214896e+01   1.3573895203e-02
-1.0886446886e+01   1.3477536370e-02
-1.0876678877e+01   1.3380105949e-02
-1.0866910867e+01   1.3281598875e-02
-1.0857142857e+01   1.3182010087e-02
-1.0847374847e+01   1.3081334526e-02
-1.0837606838e+01   1.2979567133e-02
-1.0827838828e+01   1.2876702854e-02
-1.0818070818e+01   1.2772736636e-02
-1.0808302808e+01   1.2667663431e-02
-1.0798534799e+01   1.2561478192e-02
-1.0788766789e+01   1.2454175879e-02
-1.0778998779e+01   1.2345751452e-02
-1.0769230769e+01   1.2236199878e-02
-1.0759462759e+01   1.2125516128e-02
-1.0749694750e+01   1.2013695177e-02
-1.0739926740e+01   1.1900732006e-02
-1.0730158730e+01   1.1786621601e-02
-1.0720390720e+01   1.1671358956e-02
-1.0710622711e+01   1.1554939067e-02
-1.0700854701e+01   1.1437356939e-02
-1.0691086691e+01   1.1318607584e-02
-1.0681318681e+01   1.1198686020e-02
-1.0671550672e+01   1.1077587273e-02
-1.0661782662e+01   1.0955306377e-02
-1.0652014652e+01   1.0831838372e-02
-1.0642246642e+01   1.0707178310e-02
-1.0632478632e+01   1.0581321247e-02
-1.0622710623e+01   1.0454262253e-02
-1.0612942613e+01   1.0325996404e-02
-1.0603174603e+01   1.0196518788e-02
-1.0593406593e+01   1.0065824500e-02
-1.0583638584e+01   9.9339086489e-03
-1.0573870574e+01   9.8007663524e-03
-1.0564102564e+01   9.6663927401e-03
-1.0554334554e+01   9.5307829527e-03
-1.0544566545e+01   9.3939321431e-03
-1.0534798535e+01   9.2558354764e-03
-1.0525030525e+01   9.1164881303e-03
-1.0515262515e+01   8.9758852956e-03
-1.0505494505e+01   8.8340221764e-03
-1.0495726496e+01   8.6908939906e-03
-1.0485958486e+01   8.5464959703e-03
-1.0476190476e+01   8.4008233621e-03
-1.0466422466e+01   8.2538714277e-03
-1.0456654457e+01   8.1056354440e-03
-1.0446886447e+01   7.9561107036e-03
-1.0437118437e+01   7.8052925154e-03
-1.0427350427e+01   7.6531762048e-03
-1.0417582418e+01   7.4997571141e-03
-1.0407814408e+01   7.3450306030e-03
-1.0398046398e+01   7.1889920491e-03
-1.0388278388e+01   7.0316368480e-03
-1.0378510379e+01   6.8729604142e-03
-1.0368742369e+01   6.7129581810e-03
-1.0358974359e+01   6.5516256014e-03
-1.0349206349e+01   6.3889581483e-03
-1.0339438339e+01   6.2249513147e-03
-1.0329670330e+01   6.0596006149e-03
-1.0319902320e+01   5.8929015839e-03
-1.0310134310e+01   5.7248497788e-03
-1.0300366300e+01   5.5554407788e-03
-1.0290598291e+01   5.3846701854e-03
-1.0280830281e+01   5.2125336235e-03
-1.0271062271e+01   5.0390267415e-03
-1.0261294261e+01   4.8641452115e-03
-1.0251526252e+01   4.6878847305e-03
-1.0241758242e+01   4.5102410200e-03
-1.0231990232e+01   4.3312098272e-03
-1.0222222222e+01   4.1507869251e-03
-1.0212454212e+01   3.9689681131e-03
-1.0202686203e+01   3.7857492174e-03
-1.0192918193e+01   3.6011260917e-03
-1.0183150183e+01   3.4150946173e-03
-1.0173382173e+01   3.2276507041e-03
-1.0163614164e+01   3.0387902908e-03
-1.0153846154e+01   2.8485093454e-03
-1.0144078144e+01   2.6568038657e-03
-1.0134310134e+01   2.4636698801e-03
-1.0124542125e+01   2.2691034477e-03
-1.0114774115e+01   2.0731006592e-03
-1.0105006105e+01   1.8756576371e-03
-1.0095238095e+01   1.6767705364e-03
-1.0085470085e+01   1.4764355452e-03
-1.0075702076e+01   1.2746488851e-03
-1.0065934066e+01   1.0714068117e-03
-1.0056166056e+01   8.6670561549e-04
-1.0046398046e+01   6.6054162184e-04
-1.0036630037e+01   4.5291119203e-04
-1.0026862027e+01   2.4381072360e-04
-1.0017094017e+01   3.3236650926e-05
-1.0007326007e+01   -1.7881455418e-04
-9.9975579976e+00   -3.9234638195e-04
-9.9877899878e+00   -6.0736228403e-04
-9.9780219780e+00   -8.2386567295e-04
-9.9682539683e+00   -1.0418599215e-03
-9.9584859585e+00   -1.2613483623e-03
-9.9487179487e+00   -1.4823342869e-03
-9.9389499389e+00   -1.7048209455e-03
-9.9291819292e+00   -1.9288115462e-03
-9.9194139194e+00   -2.1543092544e-03
-9.9096459096e+00   -2.3813171924e-03
-9.8998778999e+00   -2.6098384383e-03
-9.8901098901e+00   -2.8398760259e-03
-9.8803418803e+00   -3.0714329441e-03
-9.8705738706e+00   -3.3045121356e-03
-9.8608058608e+00   -3.5391164972e-03
-9.8510378510e+00   -3.7752488785e-03
-9.8412698413e+00   -4.0129120814e-03
-9.8315018315e+00   -4.2521088599e-03
-9.8217338217e+00   -4.4928419187e-03
-9.8119658120e+00   -4.7351139134e-03
-9.8021978022e+00   -4.9789274490e-03
-9.7924297924e+00   -5.2242850800e-03
-9.7826617827e+00   -5.4711893093e-03
-9.7728937729e+00   -5.7196425877e-03
-9.7631257631e+00   -5.9696473130e-03
-9.7533577534e+00   -6.2212058299e-03
-9.7435897436e+00   -6.4743204286e-03
-9.7338217338e+00   -6.7289933447e-03
-9.7240537241e+00   -6.9852267582e-03
-9.7142857143e+00   -7.2430227930e-03
-9.7045177045e+00   -7.5023835160e-03
-9.6947496947e+00   -7.7633109366e-03
-9.6849816850e+00   -8.0258070060e-03
-9.6752136752e+00   -8.2898736164e-03
-9.6654456654e+00   -8.5555126002e-03
-9.6556776557e+00   -8.8227257297e-03
-9.6459096459e+00   -9.0915147160e-03
-9.6361416361e+00   -9.3618812081e-03
-9.6263736264e+00   -9.6338267930e-03
-9.6166056166e+00   -9.9073529940e-03
-9.6068376068e+00   -1.0182461271e-02
-9.5970695971e+00   -1.0459153018e-02
-9.5873015873e+00   -1.0737429565e-02
-9.5775335775e+00   -1.1017292175e-02
-9.5677655678e+00   -1.1298742044e-02
-9.5579975580e+00   -1.1581780300e-02
-9.5482295482e+00   -1.1866408005e-02
-9.5384615385e+00   -1.2152626148e-02
-9.5286935287e+00   -1.2440435650e-02
-9.5189255189e+00   -1.2729837363e-02
-9.5091575092e+00   -1.3020832063e-02
-9.4993894994e+00   -1.3313420459e-02
-9.4896214896e+00   -1.3607603183e-02
-9.4798534799e+00   -1.3903380794e-02
-9.4700854701e+00   -1.4200753778e-02
-9.4603174603e+00   -1.4499722544e-02
-9.4505494505e+00   -1.4800287426e-02
-9.4407814408e+00   -1.5102448679e-02
-9.4310134310e+00   -1.5406206483e-02
-9.4212454212e+00   -1.5711560937e-02
-9.4114774115e+00   -1.6018512061e-02
-9.4017094017e+00   -1.6327059796e-02
-9.3919413919e+00   -1.6637204000e-02
-9.3821733822e+00   -1.6948944452e-02
-9.3724053724e+00   -1.7262280846e-02
-9.3626373626e+00   -1.7577212792e-02
-9.3528693529e+00   -1.7893739817e-02
-9.3431013431e+00   -1.8211861363e-02
-9.3333333333e+00   -1.8531576785e-02
-9.3235653236e+00   -1.8852885351e-02
-9.3137973138e+00   -1.9175786243e-02
-9.3040293040e+00   -1.9500278551e-02
-9.2942612943e+00   -1.9826361280e-02
-9.2844932845e+00   -2.0154033340e-02
-9.2747252747e+00   -2.0483293553e-02
-9.2649572650e+00   -2.0814140648e-02
-9.2551892552e+00   -2.1146573262e-02
-9.2454212454e+00   -2.1480589935e-02
-9.2356532357e+00   -2.1816189116e-02
-9.2258852259e+00   -2.2153369157e-02
-9.2161172161e+00   -2.2492128312e-02
-9.2063492063e+00   -2.2832464741e-02
-9.1965811966e+00   -2.3174376502e-02
-9.1868131868e+00   -2.3517861556e-02
-9.1770451770e+00   -2.3862917763e-02
-9.1672771673e+00   -2.4209542883e-02
-9.1575091575e+00   -2.4557734574e-02
-9.1477411477e+00   -2.4907490389e-02
-9.1379731380e+00   -2.5258807781e-02
-9.1282051282e+00   -2.5611684095e-02
-9.1184371184e+00   -2.5966116571e-02
-9.1086691087e+00   -2.6322102345e-02
-9.0989010989e+00   -2.6679638442e-02
-9.0891330891e+00   -2.7038721780e-02
-9.0793650794e+00   -2.7399349169e-02
-9.0695970696e+00   -2.7761517307e-02
-9.0598290598e+00   -2.8125222781e-02
-9.0500610501e+00   -2.8490462065e-02
-9.0402930403e+00   -2.8857231523e-02
-9.0305250305e+00   -2.9225527402e-02
-9.0207570208e+00   -2.9595345834e-02
-9.0109890110e+00   -2.9966682835e-02
-9.0012210012e+00   -3.0339534306e-02
-8.9914529915e+00   -3.0713896028e-02
-8.9816849817e+00   -3.1089763663e-02
-8.9719169719e+00   -3.1467132753e-02
-8.9621489621e+00   -3.1845998721e-02
-8.9523809524e+00   -3.2226356865e-02
-8.9426129426e+00   -3.2608202363e-02
-8.9328449328e+00   -3.2991530267e-02
-8.9230769231e+00   -3.3376335505e-02
-8.9133089133e+00   -3.3762612878e-02
-8.9035409035e+00   -3.4150357062e-02
-8.8937728938e+00   -3.4539562602e-02
-8.8840048840e+00   -3.4930223918e-02
-8.8742368742e+00   -3.5322335297e-02
-8.8644688645e+00   -3.5715890896e-02
-8.8547008547e+00   -3.6110884739e-02
-8.8449328449e+00   -3.6507310719e-02
-8.8351648352e+00   -3.6905162593e-02
-8.8253968254e+00   -3.7304433983e-02
-8.8156288156e+00   -3.7705118377e-02
-8.8058608059e+00   -3.8107209124e-02
-8.7960927961e+00   -3.8510699433e-02
-8.7863247863e+00   -3.8915582378e-02
-8.7765567766e+00   -3.9321850890e-02
-8.7667887668e+00   -3.9729497758e-02
-8.7570207570e+00   -4.0138515631e-02
-8.7472527473e+00   -4.0548897012e-02
-8.7374847375e+00   -4.0960634261e-02
-8.7277167277e+00   -4.1373719593e-02
-8.7179487179e+00   -4.1788145074e-02
-8.7081807082e+00   -4.2203902625e-02
-8.6984126984e+00   -4.2620984016e-02
-8.6886446886e+00   -4.3039380868e-02
-8.6788766789e+00   -4.3459084652e-02
-8.6691086691e+00   -4.3880086685e-02
-8.6593406593e+00   -4.4302378134e-02
-8.6495726496e+00   -4.4725950008e-02
-8.6398046398e+00   -4.5150793164e-02
-8.6300366300e+00   -4.5576898300e-02
-8.6202686203e+00   -4.6004255960e-02
-8.6105006105e+00   -4.6432856526e-02
-8.6007326007e+00   -4.6862690222e-02
-8.5909645910e+00   -4.7293747111e-02
-8.5811965812e+00   -4.7726017096e-02
-8.5714285714e+00   -4.8159489915e-02
-8.5616605617e+00   -4.8594155141e-02
-8.5518925519e+00   -4.9030002186e-02
-8.5421245421e+00   -4.9467020292e-02
-8.5323565324e+00   -4.9905198536e-02
-8.5225885226e+00   -5.0344525825e-02
-8.5128205128e+00   -5.0784990898e-02
-8.5030525031e+00   -5.1226582322e-02
-8.4932844933e+00   -5.1669288493e-02
-8.4835164835e+00   -5.2113097636e-02
-8.4737484737e+00   -5.2557997798e-02
-8.4639804640e+00   -5.3003976854e-02
-8.4542124542e+00   -5.3451022503e-02
-8.4444444444e+00   -5.3899122265e-02
-8.4346764347e+00   -5.4348263483e-02
-8.4249084249e+00   -5.4798433319e-02
-8.4151404151e+00   -5.5249618757e-02
-8.4053724054e+00   -5.5701806595e-02
-8.3956043956e+00   -5.6154983454e-02
-8.3858363858e+00   -5.6609135765e-02
-8.3760683761e+00   -5.7064249777e-02
-8.3663003663e+00   -5.7520311554e-02
-8.3565323565e+00   -5.7977306969e-02
-8.3467643468e+00   -5.8435221710e-02
-8.3369963370e+00   -5.8894041273e-02
-8.3272283272e+00   -5.9353750965e-02
-8.3174603175e+00   -5.9814335899e-02
-8.3076923077e+00   -6.0275780996e-02
-8.2979242979e+00   -6.0738070985e-02
-8.2881562882e+00   -6.1201190397e-02
-8.2783882784e+00   -6.1665123566e-02
-8.2686202686e+00   -6.2129854632e-02
-8.2588522589e+00   -6.2595367533e-02
-8.2490842491e+00   -6.3061646009e-02
-8.2393162393e+00   -6.3528673598e-02
-8.2295482295e+00   -6.3996433637e-02
-8.2197802198e+00   -6.4464909259e-02
-8.2100122100e+00   -6.4934083394e-02
-8.2002442002e+00   -6.5403938765e-02
-8.1904761905e+00   -6.5874457889e-02
-8.1807081807e+00   -6.6345623075e-02
-8.1709401709e+00   -6.6817416425e-02
-8.1611721612e+00   -6.7289819829e-02
-8.1514041514e+00   -6.7762814966e-02
-8.1416361416e+00   -6.8236383304e-02
-8.1318681319e+00   -6.8710506098e-02
-8.1221001221e+00   -6.9185164387e-02
-8.1123321123e+00   -6.9660338994e-02
-8.1025641026e+00   -7.0136010529e-02
-8.0927960928e+00   -7.0612159381e-02
-8.0830280830e+00   -7.1088765720e-02
-8.0732600733e+00   -7.1565809498e-02
-8.0634920635e+00   -7.2043270444e-02
-8.0537240537e+00   -7.2521128066e-02
-8.0439560440e+00   -7.2999361648e-02
-8.0341880342e+00   -7.3477950251e-02
-8.0244200244e+00   -7.3956872708e-02
-8.0146520147e+00   -7.4436107626e-02
-8.0048840049e+00   -7.4915633387e-02
-7.9951159951e+00   -7.5395428141e-02
-7.9853479853e+00   -7.5875469809e-02
-7.9755799756e+00   -7.6355736081e-02
-7.9658119658e+00   -7.6836204415e-02
-7.9560439560e+00   -7.7316852036e-02
-7.9462759463e+00   -7.7797655935e-02
-7.9365079365e+00   -7.8278592865e-02
-7.9267399267e+00   -7.8759639347e-02
-7.9169719170e+00   -7.9240771661e-02
-7.9072039072e+00   -7.9721965849e-02
-7.8974358974e+00   -8.0203197714e-02
-7.8876678877e+00   -8.0684442819e-02
-7.8778998779e+00   -8.1165676484e-02
-7.8681318681e+00   -8.1646873785e-02
-7.8583638584e+00   -8.2128009557e-02
-7.8485958486e+00   -8.2609058388e-02
-7.8388278388e+00   -8.3089994621e-02
-7.8290598291e+00   -8.3570792350e-02
-7.8192918193e+00   -8.4051425424e-02
-7.8095238095e+00   -8.4531867440e-02
-7.7997557998e+00   -8.5012091747e-02
-7.7899877900e+00   -8.5492071441e-02
-7.7802197802e+00   -8.5971779367e-02
-7.7704517705e+00   -8.6451188117e-02
-7.7606837607e+00   -8.6930270027e-02
-7.7509157509e+00   -8.7408997181e-02
-7.7411477411e+00   -8.7887341403e-02
-7.7313797314e+00   -8.8365274262e-02
-7.7216117216e+00   -8.8842767069e-02
-7.7118437118e+00   -8.9319790874e-02
-7.7020757021e+00   -8.9796316469e-02
-7.6923076923e+00   -9.0272314384e-02
-7.6825396825e+00   -9.0747754886e-02
-7.6727716728e+00   -9.1222607979e-02
-7.6630036630e+00   -9.1696843406e-02
-7.6532356532e+00   -9.2170430640e-02
-7.6434676435e+00   -9.2643338893e-02
-7.6336996337e+00   -9.3115537107e-02
-7.6239316239e+00   -9.3586993956e-02
-7.6141636142e+00   -9.4057677849e-02
-7.6043956044e+00   -9.4527556921e-02
-7.5946275946e+00   -9.4996599040e-02
-7.5848595849e+00   -9.5464771799e-02
-7.5750915751e+00   -9.5932042523e-02
-7.5653235653e+00   -9.6398378260e-02
-7.5555555556e+00   -9.6863745786e-02
-7.5457875458e+00   -9.7328111602e-02
-7.5360195360e+00   -9.7791441932e-02
-7.5262515263e+00   -9.8253702726e-02
-7.5164835165e+00   -9.8714859653e-02
-7.5067155067e+00   -9.9174878107e-02
-7.4969474969e+00   -9.9633723201e-02
-7.4871794872e+00   -1.0009135977e-01
-7.4774114774e+00   -1.0054775236e-01
-7.4676434676e+00   -1.0100286525e-01
-7.4578754579e+00   -1.0145666243e-01
-7.4481074481e+00   -1.0190910760e-01
-7.4383394383e+00   -1.0236016419e-01
-7.4285714286e+00   -1.0280979533e-01
-7.4188034188e+00   -1.0325796387e-01
-7.4090354090e+00   -1.0370463238e-01
-7.3992673993e+00   -1.0414976315e-01
-7.3894993895e+00   -1.0459331816e-01
-7.3797313797e+00   -1.0503525911e-01
-7.3699633700e+00   -1.0547554742e-01
-7.3601953602e+00   -1.0591414422e-01
-7.3504273504e+00   -1.0635101034e-01
-7.3406593407e+00   -1.0678610632e-01
-7.3308913309e+00   -1.0721939242e-01
-7.3211233211e+00   -1.0765082860e-01
-7.3113553114e+00   -1.0808037452e-01
-7.3015873016e+00   -1.0850798956e-01
-7.2918192918e+00   -1.0893363279e-01
-7.2820512821e+00   -1.0935726301e-01
-7.2722832723e+00   -1.0977883871e-01
-7.2625152625e+00   -1.1019831807e-01
-7.2527472527e+00   -1.1061565900e-01
-7.2429792430e+00   -1.1103081909e-01
-7.2332112332e+00   -1.1144375566e-01
-7.2234432234e+00   -1.1185442570e-01
-7.2136752137e+00   -1.1226278593e-01
-7.2039072039e+00   -1.1266879275e-01
-7.1941391941e+00   -1.1307240228e-01
-7.1843711844e+00   -1.1347357032e-01
-7.1746031746e+00   -1.1387225238e-01
-7.1648351648e+00   -1.1426840367e-01
-7.1550671551e+00   -1.1466197911e-01
-7.1452991453e+00   -1.1505293329e-01
-7.1355311355e+00   -1.1544122052e-01
-7.1257631258e+00   -1.1582679481e-01
-7.1159951160e+00   -1.1620960986e-01
-7.1062271062e+00   -1.1658961906e-01
-7.0964590965e+00   -1.1696677550e-01
-7.0866910867e+00   -1.1734103199e-01
-7.0769230769e+00   -1.1771234100e-01
-7.0671550672e+00   -1.1808065473e-01
-7.0573870574e+00   -1.1844592504e-01
-7.0476190476e+00   -1.1880810353e-01
-7.0378510379e+00   -1.1916714145e-01
-7.0280830281e+00   -1.1952298977e-01
-7.0183150183e+00   -1.1987559916e-01
-7.0085470085e+00   -1.2022491996e-01
-6.9987789988e+00   -1.2057090224e-01
-6.9890109890e+00   -1.2091349574e-01
-6.9792429792e+00   -1.2125264990e-01
-6.9694749695e+00   -1.2158831384e-01
-6.9597069597e+00   -1.2192043641e-01
-6.9499389499e+00   -1.2224896613e-01
-6.9401709402e+00   -1.2257385120e-01
-6.9304029304e+00   -1.2289503956e-01
-6.9206349206e+00   -1.2321247879e-01
-6.9108669109e+00   -1.2352611622e-01
-6.9010989011e+00   -1.2383589882e-01
-6.8913308913e+00   -1.2414177330e-01
-6.8815628816e+00   -1.2444368603e-01
-6.8717948718e+00   -1.2474158310e-01
-6.8620268620e+00   -1.2503541029e-01
-6.8522588523e+00   -1.2532511306e-01
-6.8424908425e+00   -1.2561063658e-01
-6.8327228327e+00   -1.2589192572e-01
-6.8229548230e+00   -1.2616892502e-01
-6.8131868132e+00   -1.2644157876e-01
-6.8034188034e+00   -1.2670983087e-01
-6.7936507937e+00   -1.2697362500e-01
-6.7838827839e+00   -1.2723290451e-01
-6.7741147741e+00   -1.2748761242e-01
-6.7643467643e+00   -1.2773769149e-01
-6.7545787546e+00   -1.2798308415e-01
-6.7448107448e+00   -1.2822373253e-01
-6.7350427350e+00   -1.2845957848e-01
-6.7252747253e+00   -1.2869056353e-01
-6.7155067155e+00   -1.2891662891e-01
-6.7057387057e+00   -1.2913771557e-01
-6.6959706960e+00   -1.2935376414e-01
-6.6862026862e+00   -1.2956471496e-01
-6.6764346764e+00   -1.2977050807e-01
-6.6666666667e+00   -1.2997108323e-01
-6.6568986569e+00   -1.3016637988e-01
-6.6471306471e+00   -1.3035633718e-01
-6.6373626374e+00   -1.3054089398e-01
-6.6275946276e+00   -1.3071998886e-01
-6.6178266178e+00   -1.3089356009e-01
-6.6080586081e+00   -1.3106154564e-01
-6.5982905983e+00   -1.3122388321e-01
-6.5885225885e+00   -1.3138051019e-01
-6.5787545788e+00   -1.3153136370e-01
-6.5689865690e+00   -1.3167638056e-01
-6.5592185592e+00   -1.3181549729e-01
-6.5494505495e+00   -1.3194865014e-01
-6.5396825397e+00   -1.3207577509e-01
-6.5299145299e+00   -1.3219680779e-01
-6.5201465201e+00   -1.3231168364e-01
-6.5103785104e+00   -1.3242033776e-01
-6.5006105006e+00   -1.3252270497e-01
-6.4908424908e+00   -1.3261871982e-01
-6.4810744811e+00   -1.3270831657e-01
-6.4713064713e+00   -1.3279142923e-01
-6.4615384615e+00   -1.3286799150e-01
-6.4517704518e+00   -1.3293793683e-01
-6.4420024420e+00   -1.3300119839e-01
-6.4322344322e+00   -1.3305770906e-01
-6.4224664225e+00   -1.3310740148e-01
-6.4126984127e+00   -1.3315020800e-01
-6.4029304029e+00   -1.3318606070e-01
-6.3931623932e+00   -1.3321489141e-01
-6.3833943834e+00   -1.3323663169e-01
-6.3736263736e+00   -1.3325121281e-01
-6.3638583639e+00   -1.3325856583e-01
-6.3540903541e+00   -1.3325862150e-01
-6.3443223443e+00   -1.3325131034e-01
-6.3345543346e+00   -1.3323656261e-01
-6.3247863248e+00   -1.3321430832e-01
-6.3150183150e+00   -1.3318447721e-01
-6.3052503053e+00   -1.3314699877e-01
-6.2954822955e+00   -1.3310180227e-01
-6.2857142857e+00   -1.3304881671e-01
-6.2759462759e+00   -1.3298797083e-01
-6.2661782662e+00   -1.3291919317e-01
-6.2564102564e+00   -1.3284241199e-01
-6.2466422466e+00   -1.3275755533e-01
-6.2368742369e+00   -1.3266455098e-01
-6.2271062271e+00   -1.3256332652e-01
-6.2173382173e+00   -1.3245380928e-01
-6.2075702076e+00   -1.3233592635e-01
-6.1978021978e+00   -1.3220960462e-01
-6.1880341880e+00   -1.3207477073e-01
-6.1782661783e+00   -1.3193135111e-01
-6.1684981685e+00   -1.3177927197e-01
-6.1587301587e+00   -1.3161845930e-01
-6.1489621490e+00   -1.3144883886e-01
-6.1391941392e+00   -1.3127033622e-01
-6.1294261294e+00   -1.3108287674e-01
-6.1196581197e+00   -1.3088638555e-01
-6.1098901099e+00   -1.3068078758e-01
-6.1001221001e+00   -1.3046600759e-01
-6.0903540904e+00   -1.3024197010e-01
-6.0805860806e+00   -1.3000859946e-01
-6.0708180708e+00   -1.2976581981e-01
-6.0610500611e+00   -1.2951355512e-01
-6.0512820513e+00   -1.2925172914e-01
-6.0415140415e+00   -1.2898026546e-01
-6.0317460317e+00   -1.2869908749e-01
-6.0219780220e+00   -1.2840811846e-01
-6.0122100122e+00   -1.2810728141e-01
-6.0024420024e+00   -1.2779649922e-01
-5.9926739927e+00   -1.2747569460e-01
-5.9829059829e+00   -1.2714479010e-01
-5.9731379731e+00   -1.2680370810e-01
-5.9633699634e+00   -1.2645237083e-01
-5.9536019536e+00   -1.2609070035e-01
-5.9438339438e+00   -1.2571861858e-01
-5.9340659341e+00   -1.2533604730e-01
-5.9242979243e+00   -1.2494290813e-01
-5.9145299145e+00   -1.2453912256e-01
-5.9047619048e+00   -1.2412461193e-01
-5.8949938950e+00   -1.2369929748e-01
-5.8852258852e+00   -1.2326310028e-01
-5.8754578755e+00   -1.2281594130e-01
-5.8656898657e+00   -1.2235774138e-01
-5.8559218559e+00   -1.2188842125e-01
-5.8461538462e+00   -1.2140790152e-01
-5.8363858364e+00   -1.2091610270e-01
-5.8266178266e+00   -1.2041294518e-01
-5.8168498168e+00   -1.1989834927e-01
-5.8070818071e+00   -1.1937223517e-01
-5.7973137973e+00   -1.1883452298e-01
-5.7875457875e+00   -1.1828513275e-01
-5.7777777778e+00   -1.1772398440e-01
-5.7680097680e+00   -1.1715099781e-01
-5.7582417582e+00   -1.1656609276e-01
-5.7484737485e+00   -1.1596918897e-01
-5.7387057387e+00   -1.1536020612e-01
-5.7289377289e+00   -1.1473906378e-01
-5.7191697192e+00   -1.1410568151e-01
-5.7094017094e+00   -1.1345997881e-01
-5.6996336996e+00   -1.1280187512e-01
-5.6898656899e+00   -1.1213128985e-01
-5.6800976801e+00   -1.1144814239e-01
-5.6703296703e+00   -1.1075235207e-01
-5.6605616606e+00   -1.1004383822e-01
-5.6507936508e+00   -1.0932252015e-01
-5.6410256410e+00   -1.0858831715e-01
-5.6312576313e+00   -1.0784114850e-01
-5.6214896215e+00   -1.0708093348e-01
-5.6117216117e+00   -1.0630759138e-01
-5.6019536020e+00   -1.0552104149e-01
-5.5921855922e+00   -1.0472120311e-01
-5.5824175824e+00   -1.0390799558e-01
-5.5726495726e+00   -1.0308133824e-01
-5.5628815629e+00   -1.0224115048e-01
-5.5531135531e+00   -1.0138735173e-01
-5.5433455433e+00   -1.0051986145e-01
-5.5335775336e+00   -9.9638599165e-02
-5.5238095238e+00   -9.8743484438e-02
-5.5140415140e+00   -9.7834436907e-02
-5.5042735043e+00   -9.6911376277e-02
-5.4945054945e+00   -9.5974222327e-02
-5.4847374847e+00   -9.5022894917e-02
-5.4749694750e+00   -9.4057313996e-02
-5.4652014652e+00   -9.3077399607e-02
-5.4554334554e+00   -9.2083071893e-02
-5.4456654457e+00   -9.1074251107e-02
-5.4358974359e+00   -9.0050857615e-02
-5.4261294261e+00   -8.9012811907e-02
-5.4163614164e+00   -8.7960034599e-02
-5.4065934066e+00   -8.6892446444e-02
-5.3968253968e+00   -8.5809968338e-02
-5.3870573871e+00   -8.4712521326e-02
-5.3772893773e+00   -8.3600026611e-02
-5.3675213675e+00   -8.2472405559e-02
-5.3577533578e+00   -8.1329579710e-02
-5.3479853480e+00   -8.0171470783e-02
-5.3382173382e+00   -7.8998000682e-02
-5.3284493284e+00   -7.7809091509e-02
-5.3186813187e+00   -7.6604665565e-02
-5.3089133089e+00   -7.5384645362e-02
-5.2991452991e+00   -7.4148953633e-02
-5.2893772894e+00   -7.2897513333e-02
-5.2796092796e+00   -7.1630247652e-02
-5.2698412698e+00   -7.0347080025e-02
-5.2600732601e+00   -6.9047934134e-02
-5.2503052503e+00   -6.7732733922e-02
-5.2405372405e+00   -6.6401403596e-02
-5.2307692308e+00   -6.5053867642e-02
-5.2210012210e+00   -6.3690050829e-02
-5.2112332112e+00   -6.2309878216e-02
-5.2014652015e+00   -6.0913275168e-02
-5.1916971917e+00   -5.9500167357e-02
-5.1819291819e+00   -5.8070480773e-02
-5.1721611722e+00   -5.6624141738e-02
-5.1623931624e+00   -5.5161076908e-02
-5.1526251526e+00   -5.3681213285e-02
-5.1428571429e+00   -5.2184478228e-02
-5.1330891331e+00   -5.0670799461e-02
-5.1233211233e+00   -4.9140105079e-02
-5.1135531136e+00   -4.7592323564e-02
-5.1037851038e+00   -4.6027383790e-02
-5.0940170940e+00   -4.4445215033e-02
-5.0842490842e+00   -4.2845746982e-02
-5.0744810745e+00   -4.1228909749e-02
-5.0647130647e+00   -3.9594633879e-02
-5.0549450549e+00   -3.7942850356e-02
-5.0451770452e+00   -3.6273490620e-02
-5.0354090354e+00   -3.4586486573e-02
-5.0256410256e+00   -3.2881770589e-02
-5.0158730159e+00   -3.1159275525e-02
-5.0061050061e+00   -2.9418934734e-02
-4.9963369963e+00   -2.7660682071e-02
-4.9865689866e+00   -2.5884451908e-02
-4.9768009768e+00   -2.4090179142e-02
-4.9670329670e+00   -2.2277799207e-02
-4.9572649573e+00   -2.0447248084e-02
-4.9474969475e+00   -1.8598462315e-02
-4.9377289377e+00   -1.6731379008e-02
-4.9279609280e+00   -1.4845935857e-02
-4.9181929182e+00   -1.2942071144e-02
-4.9084249084e+00   -1.1019723758e-02
-4.8986568987e+00   -9.0788332024e-03
-4.8888888889e+00   -7.1193396081e-03
-4.8791208791e+00   -5.1411837446e-03
-4.8693528694e+00   -3.1443070323e-03
-4.8595848596e+00   -1.1286515543e-03
-4.8498168498e+00   9.0583993162e-04
-4.8400488400e+00   2.9592239806e-03
-4.8302808303e+00   5.0315564489e-03
-4.8205128205e+00   7.1228924811e-03
-4.8107448107e+00   9.2332864978e-03
-4.8009768010e+00   1.1362792183e-02
-4.7912087912e+00   1.3511462472e-02
-4.7814407814e+00   1.5679349538e-02
-4.7716727717e+00   1.7866504779e-02
-4.7619047619e+00   2.0072978806e-02
-4.7521367521e+00   2.2298821428e-02
-4.7423687424e+00   2.4544081641e-02
-4.7326007326e+00   2.6808807612e-02
-4.7228327228e+00   2.9093046671e-02
-4.7130647131e+00   3.1396845289e-02
-4.7032967033e+00   3.3720249072e-02
-4.6935286935e+00   3.6063302744e-02
-4.6837606838e+00   3.8426050134e-02
-4.6739926740e+00   4.0808534161e-02
-4.6642246642e+00   4.3210796819e-02
-4.6544566545e+00   4.5632879167e-02
-4.6446886447e+00   4.8074821312e-02
-4.6349206349e+00   5.0536662393e-02
-4.6251526252e+00   5.3018440569e-02
-4.6153846154e+00   5.5520193005e-02
-4.6056166056e+00   5.8041955854e-02
-4.5958485958e+00   6.0583764244e-02
-4.5860805861e+00   6.3145652266e-02
-4.5763125763e+00   6.5727652953e-02
-4.5665445665e+00   6.8329798269e-02
-4.5567765568e+00   7.0952119092e-02
-4.5470085470e+00   7.3594645202e-02
-4.5372405372e+00   7.6257405258e-02
-4.5274725275e+00   7.8940426791e-02
-4.5177045177e+00   8.1643736183e-02
-4.5079365079e+00   8.4367358652e-02
-4.4981684982e+00   8.7111318236e-02
-4.4884004884e+00   8.9875637779e-02
-4.4786324786e+00   9.2660338911e-02
-4.4688644689e+00   9.5465442036e-02
-4.4590964591e+00   9.8290966312e-02
-4.4493284493e+00   1.0113692963e-01
-4.4395604396e+00   1.0400334862e-01
-4.4297924298e+00   1.0689023860e-01
-4.4200244200e+00   1.0979761358e-01
-4.4102564103e+00   1.1272548625e-01
-4.4004884005e+00   1.1567386793e-01
-4.3907203907e+00   1.1864276862e-01
-4.3809523810e+00   1.2163219689e-01
-4.3711843712e+00   1.2464215994e-01
-4.3614163614e+00   1.2767266355e-01
-4.3516483516e+00   1.3072371207e-01
-4.3418803419e+00   1.3379530839e-01
-4.3321123321e+00   1.3688745392e-01
-4.3223443223e+00   1.4000014861e-01
-4.3125763126e+00   1.4313339088e-01
-4.3028083028e+00   1.4628717763e-01
-4.2930402930e+00   1.4946150423e-01
-4.2832722833e+00   1.5265636447e-01
-4.2735042735e+00   1.5587175057e-01
-4.2637362637e+00   1.5910765314e-01
-4.2539682540e+00   1.6236406117e-01
-4.2442002442e+00   1.6564096204e-01
-4.2344322344e+00   1.6893834144e-01
-4.2246642247e+00   1.7225618339e-01
-4.2148962149e+00   1.7559447022e-01
-4.2051282051e+00   1.7895318255e-01
-4.1953601954e+00   1.8233229924e-01
-4.1855921856e+00   1.8573179741e-01
-4.1758241758e+00   1.8915165241e-01
-4.1660561661e+00   1.9259183777e-01
-4.1562881563e+00   1.9605232523e-01
-4.1465201465e+00   1.9953308468e-01
-4.1367521368e+00   2.0303408414e-01
-4.1269841270e+00   2.0655528977e-01
-4.1172161172e+00   2.1009666582e-01
-4.1074481074e+00   2.1365817462e-01
-4.0976800977e+00   2.1723977656e-01
-4.0879120879e+00   2.2084143005e-01
-4.0781440781e+00   2.2446309154e-01
-4.0683760684e+00   2.2810471546e-01
-4.0586080586e+00   2.3176625421e-01
-4.0488400488e+00   2.3544765813e-01
-4.0390720391e+00   2.3914887552e-01
-4.0293040293e+00   2.4286985255e-01
-4.0195360195e+00   2.4661053328e-01
-4.0097680098e+00   2.5037085965e-01
-4.0000000000e+00   2.5415077141e-01
-3.9902319902e+00   2.5795020615e-01
-3.9804639805e+00   2.6176909923e-01
-3.9706959707e+00   2.6560738379e-01
-3.9609279609e+00   2.6946499072e-01
-3.9511599512e+00   2.7334184862e-01
-3.9413919414e+00   2.7723788379e-01
-3.9316239316e+00   2.8115302022e-01
-3.9218559219e+00   2.8508717954e-01
-3.9120879121e+00   2.8904028100e-01
-3.9023199023e+00   2.9301224146e-01
-3.8925518926e+00   2.9700297537e-01
-3.8827838828e+00   3.0101239473e-01
-3.8730158730e+00   3.0504040905e-01
-3.8632478632e+00   3.0908692537e-01
-3.8534798535e+00   3.1315184820e-01
-3.8437118437e+00   3.1723507950e-01
-3.8339438339e+00   3.2133651868e-01
-3.8241758242e+00   3.2545606254e-01
-3.8144078144e+00   3.2959360526e-01
-3.8046398046e+00   3.3374903838e-01
-3.7948717949e+00   3.3792225077e-01
-3.7851037851e+00   3.4211312859e-01
-3.7753357753e+00   3.4632155530e-01
-3.7655677656e+00   3.5054741158e-01
-3.7557997558e+00   3.5479057536e-01
-3.7460317460e+00   3.5905092176e-01
-3.7362637363e+00   3.6332832307e-01
-3.7264957265e+00   3.6762264872e-01
-3.7167277167e+00   3.7193376527e-01
-3.7069597070e+00   3.7626153636e-01
-3.6971916972e+00   3.8060582269e-01
-3.6874236874e+00   3.8496648200e-01
-3.6776556777e+00   3.8934336905e-01
-3.6678876679e+00   3.9373633556e-01
-3.6581196581e+00   3.9814523023e-01
-3.6483516484e+00   4.0256989864e-01
-3.6385836386e+00   4.0701018332e-01
-3.6288156288e+00   4.1146592363e-01
-3.6190476190e+00   4.1593695578e-01
-3.6092796093e+00   4.2042311279e-01
-3.5995115995e+00   4.2492422448e-01
-3.5897435897e+00   4.2944011739e-01
-3.5799755800e+00   4.3397061480e-01
-3.5702075702e+00   4.3851553670e-01
-3.5604395604e+00   4.4307469972e-01
-3.5506715507e+00   4.4764791714e-01
-3.5409035409e+00   4.5223499885e-01
-3.5311355311e+00   4.5683575129e-01
-3.5213675214e+00   4.6144997748e-01
-3.5115995116e+00   4.6607747692e-01
-3.5018315018e+00   4.7071804563e-01
-3.4920634921e+00   4.7537147607e-01
-3.4822954823e+00   4.8003755711e-01
-3.4725274725e+00   4.8471607402e-01
-3.4627594628e+00   4.8940680845e-01
-3.4529914530e+00   4.9410953836e-01
-3.4432234432e+00   4.9882403801e-01
-3.4334554335e+00   5.0355007794e-01
-3.4236874237e+00   5.0828742490e-01
-3.4139194139e+00   5.1303584188e-01
-3.4041514042e+00   5.1779508801e-01
-3.3943833944e+00   5.2256491857e-01
-3.3846153846e+00   5.2734508495e-01
-3.3748473748e+00   5.3213533461e-01
-3.3650793651e+00   5.3693541106e-01
-3.3553113553e+00   5.4174505381e-01
-3.3455433455e+00   5.4656399833e-01
-3.3357753358e+00   5.5139197607e-01
-3.3260073260e+00   5.5622871436e-01
-3.3162393162e+00   5.6107393640e-01
-3.3064713065e+00   5.6592736125e-01
-3.2967032967e+00   5.7078870378e-01
-3.2869352869e+00   5.7565767462e-01
-3.2771672772e+00   5.8053398013e-01
-3.2673992674e+00   5.8541732240e-01
-3.2576312576e+00   5.9030739917e-01
-3.2478632479e+00   5.9520390382e-01
-3.2380952381e+00   6.0010652534e-01
-3.2283272283e+00   6.0501494827e-01
-3.2185592186e+00   6.0992885269e-01
-3.2087912088e+00   6.1484791417e-01
-3.1990231990e+00   6.1977180374e-01
-3.1892551893e+00   6.2470018786e-01
-3.1794871795e+00   6.2963272835e-01
-3.1697191697e+00   6.3456908242e-01
-3.1599511600e+00   6.3950890256e-01
-3.1501831502e+00   6.4445183656e-01
-3.1404151404e+00   6.4939752745e-01
-3.1306471306e+00   6.5434561345e-01
-3.1208791209e+00   6.5929572796e-01
-3.1111111111e+00   6.6424749950e-01
-3.1013431013e+00   6.6920055170e-01
-3.0915750916e+00   6.7415450324e-01
-3.0818070818e+00   6.7910896781e-01
-3.0720390720e+00   6.8406355408e-01
-3.0622710623e+00   6.8901786568e-01
-3.0525030525e+00   6.9397150113e-01
-3.0427350427e+00   6.9892405381e-01
-3.0329670330e+00   7.0387511195e-01
-3.0231990232e+00   7.0882425856e-01
-3.0134310134e+00   7.1377107138e-01
-3.0036630037e+00   7.1871512290e-01
-2.9938949939e+00   7.2365598025e-01
-2.9841269841e+00   7.2859320521e-01
-2.9743589744e+00   7.3352635416e-01
-2.9645909646e+00   7.3845497801e-01
-2.9548229548e+00   7.4337862222e-01
-2.9450549451e+00   7.4829682670e-01
-2.9352869353e+00   7.5320912580e-01
-2.9255189255e+00   7.5811504827e-01
-2.9157509158e+00   7.6301411722e-01
-2.9059829060e+00   7.6790585007e-01
-2.8962148962e+00   7.7278975852e-01
-2.8864468864e+00   7.7766534849e-01
-2.8766788767e+00   7.8253212011e-01
-2.8669108669e+00   7.8738956766e-01
-2.8571428571e+00   7.9223717953e-01
-2.8473748474e+00   7.9707443817e-01
-2.8376068376e+00   8.0190082008e-01
-2.8278388278e+00   8.0671579574e-01
-2.8180708181e+00   8.1151882957e-01
-2.8083028083e+00   8.1630937990e-01
-2.7985347985e+00   8.2108689894e-01
-2.7887667888e+00   8.2585083269e-01
-2.7789987790e+00   8.3060062096e-01
-2.7692307692e+00   8.3533569729e-01
-2.7594627595e+00   8.4005548891e-01
-2.7496947497e+00   8.4475941672e-01
-2.7399267399e+00   8.4944689521e-01
-2.7301587302e+00   8.5411733247e-01
-2.7203907204e+00   8.5877013009e-01
-2.7106227106e+00   8.6340468316e-01
-2.7008547009e+00   8.6802038022e-01
-2.6910866911e+00   8.7261660321e-01
-2.6813186813e+00   8.7719272741e-01
-2.6715506716e+00   8.8174812144e-01
-2.6617826618e+00   8.8628214719e-01
-2.6520146520e+00   8.9079415977e-01
-2.6422466422e+00   8.9528350750e-01
-2.6324786325e+00   8.9974953183e-01
-2.6227106227e+00   9.0419156732e-01
-2.6129426129e+00   9.0860894160e-01
-2.6031746032e+00   9.1300097531e-01
-2.5934065934e+00   9.1736698207e-01
-2.5836385836e+00   9.2170626845e-01
-2.5738705739e+00   9.2601813390e-01
-2.5641025641e+00   9.3030187072e-01
-2.5543345543e+00   9.3455676403e-01
-2.5445665446e+00   9.3878209171e-01
-2.5347985348e+00   9.4297712438e-01
-2.5250305250e+00   9.4714112534e-01
-2.5152625153e+00   9.5127335052e-01
-2.5054945055e+00   9.5537304847e-01
-2.4957264957e+00   9.5943946029e-01
-2.4859584860e+00   9.6347181961e-01
-2.4761904762e+00   9.6746935255e-01
-2.4664224664e+00   9.7143127764e-01
-2.4566544567e+00   9.7535680584e-01
-2.4468864469e+00   9.7924514047e-01
-2.4371184371e+00   9.8309547714e-01
-2.4273504274e+00   9.8690700379e-01
-2.4175824176e+00   9.9067890056e-01
-2.4078144078e+00   9.9441033982e-01
-2.3980463980e+00   9.9810048612e-01
-2.3882783883e+00   1.0017484961e+00
-2.3785103785e+00   1.0053535185e+00
-2.3687423687e+00   1.0089146943e+00
-2.3589743590e+00   1.0124311561e+00
-2.3492063492e+00   1.0159020288e+00
-2.3394383394e+00   1.0193264293e+00
-2.3296703297e+00   1.0227034662e+00
-2.3199023199e+00   1.0260322401e+00
-2.3101343101e+00   1.0293118434e+00
-2.3003663004e+00   1.0325413605e+00
-2.2905982906e+00   1.0357198672e+00
-2.2808302808e+00   1.0388464315e+00
-2.2710622711e+00   1.0419201130e+00
-2.2612942613e+00   1.0449399627e+00
-2.2515262515e+00   1.0479050238e+00
-2.2417582418e+00   1.0508143306e+00
-2.2319902320e+00   1.0536669095e+00
-2.2222222222e+00   1.0564617783e+00
-2.2124542125e+00   1.0591979462e+00
-2.2026862027e+00   1.0618744144e+00
-2.1929181929e+00   1.0644901751e+00
-2.1831501832e+00   1.0670442126e+00
-2.1733821734e+00   1.0695355021e+00
-2.1636141636e+00   1.0719630109e+00
-2.1538461538e+00   1.0743256972e+00
-2.1440781441e+00   1.0766225111e+00
-2.1343101343e+00   1.0788523940e+00
-2.1245421245e+00   1.0810142787e+00
-2.1147741148e+00   1.0831070895e+00
-2.1050061050e+00   1.0851297422e+00
-2.0952380952e+00   1.0870811438e+00
-2.0854700855e+00   1.0889601931e+00
-2.0757020757e+00   1.0907657800e+00
-2.0659340659e+00   1.0924967861e+00
-2.0561660562e+00   1.0941520844e+00
-2.0463980464e+00   1.0957305392e+00
-2.0366300366e+00   1.0972310066e+00
-2.0268620269e+00   1.0986523339e+00
-2.0170940171e+00   1.0999933602e+00
-2.0073260073e+00   1.1012529159e+00
-1.9975579976e+00   1.1024298232e+00
-1.9877899878e+00   1.1035228958e+00
-1.9780219780e+00   1.1045309390e+00
-1.9682539683e+00   1.1054527501e+00
-1.9584859585e+00   1.1062871177e+00
-1.9487179487e+00   1.1070328226e+00
-1.9389499389e+00   1.1076886371e+00
-1.9291819292e+00   1.1082533258e+00
-1.9194139194e+00   1.1087256448e+00
-1.9096459096e+00   1.1091043427e+00
-1.8998778999e+00   1.1093881599e+00
-1.8901098901e+00   1.1095758292e+00
-1.8803418803e+00   1.1096660756e+00
-1.8705738706e+00   1.1096576166e+00
-1.8608058608e+00   1.1095491621e+00
-1.8510378510e+00   1.1093394147e+00
-1.8412698413e+00   1.1090270695e+00
-1.8315018315e+00   1.1086108148e+00
-1.8217338217e+00   1.1080893317e+00
-1.8119658120e+00   1.1074612944e+00
-1.8021978022e+00   1.1067253705e+00
-1.7924297924e+00   1.1058802210e+00
-1.7826617827e+00   1.1049245005e+00
-1.7728937729e+00   1.1038568575e+00
-1.7631257631e+00   1.1026759344e+00
-1.7533577534e+00   1.1013803679e+00
-1.7435897436e+00   1.0999687891e+00
-1.7338217338e+00   1.0984398238e+00
-1.7240537241e+00   1.0967920926e+00
-1.7142857143e+00   1.0950242113e+00
-1.7045177045e+00   1.0931347914e+00
-1.6947496947e+00   1.0911224397e+00
-1.6849816850e+00   1.0889857593e+00
-1.6752136752e+00   1.0867233497e+00
-1.6654456654e+00   1.0843338069e+00
-1.6556776557e+00   1.0818157242e+00
-1.6459096459e+00   1.0791676921e+00
-1.6361416361e+00   1.0763882990e+00
-1.6263736264e+00   1.0734761316e+00
-1.6166056166e+00   1.0704297752e+00
-1.6068376068e+00   1.0672478143e+00
-1.5970695971e+00   1.0639288331e+00
-1.5873015873e+00   1.0604714157e+00
-1.5775335775e+00   1.0568741472e+00
-1.5677655678e+00   1.0531356137e+00
-1.5579975580e+00   1.0492544032e+00
-1.5482295482e+00   1.0452291062e+00
-1.5384615385e+00   1.0410583163e+00
-1.5286935287e+00   1.0367406307e+00
-1.5189255189e+00   1.0322746515e+00
-1.5091575092e+00   1.0276589858e+00
-1.4993894994e+00   1.0228922469e+00
-1.4896214896e+00   1.0179730548e+00
-1.4798534799e+00   1.0129000374e+00
-1.4700854701e+00   1.0076718315e+00
-1.4603174603e+00   1.0022870833e+00
-1.4505494505e+00   9.9674444958e-01
-1.4407814408e+00   9.9104259912e-01
-1.4310134310e+00   9.8518021335e-01
-1.4212454212e+00   9.7915598772e-01
-1.4114774115e+00   9.7296863289e-01
-1.4017094017e+00   9.6661687600e-01
-1.3919413919e+00   9.6009946200e-01
-1.3821733822e+00   9.5341515504e-01
-1.3724053724e+00   9.4656273997e-01
-1.3626373626e+00   9.3954102385e-01
-1.3528693529e+00   9.3234883753e-01
-1.3431013431e+00   9.2498503741e-01
-1.3333333333e+00   9.1744850710e-01
-1.3235653236e+00   9.0973815936e-01
-1.3137973138e+00   9.0185293796e-01
-1.3040293040e+00   8.9379181972e-01
-1.2942612943e+00   8.8555381666e-01
-1.2844932845e+00   8.7713797814e-01
-1.2747252747e+00   8.6854339322e-01
-1.2649572650e+00   8.5976919307e-01
-1.2551892552e+00   8.5081455349e-01
-1.2454212454e+00   8.4167869756e-01
-1.2356532357e+00   8.3236089838e-01
-1.2258852259e+00   8.2286048201e-01
-1.2161172161e+00   8.1317683043e-01
-1.2063492063e+00   8.0330938472e-01
-1.1965811966e+00   7.9325764839e-01
-1.1868131868e+00   7.8302119073e-01
-1.1770451770e+00   7.7259965050e-01
-1.1672771673e+00   7.6199273963e-01
-1.1575091575e+00   7.5120024715e-01
-1.1477411477e+00   7.4022204325e-01
-1.1379731380e+00   7.2905808362e-01
-1.1282051282e+00   7.1770841379e-01
-1.1184371184e+00   7.0617317388e-01
-1.1086691087e+00   6.9445260334e-01
-1.0989010989e+00   6.8254704607e-01
-1.0891330891e+00   6.7045695561e-01
-1.0793650794e+00   6.5818290065e-01
-1.0695970696e+00   6.4572557073e-01
-1.0598290598e+00   6.3308578213e-01
-1.0500610501e+00   6.2026448408e-01
-1.0402930403e+00   6.0726276515e-01
-1.0305250305e+00   5.9408185997e-01
-1.0207570208e+00   5.8072315608e-01
-1.0109890110e+00   5.6718820121e-01
-1.0012210012e+00   5.5347871072e-01
-9.9145299145e-01   5.3959657536e-01
-9.8168498168e-01   5.2554386934e-01
-9.7191697192e-01   5.1132285861e-01
-9.6214896215e-01   4.9693600957e-01
-9.5238095238e-01   4.8238599795e-01
-9.4261294261e-01   4.6767571808e-01
-9.3284493284e-01   4.5280829244e-01
-9.2307692308e-01   4.3778708152e-01
-9.1330891331e-01   4.2261569401e-01
-9.0354090354e-01   4.0729799728e-01
-8.9377289377e-01   3.9183812816e-01
-8.8400488400e-01   3.7624050409e-01
-8.7423687424e-01   3.6050983451e-01
-8.6446886447e-01   3.4465113254e-01
-8.5470085470e-01   3.2866972701e-01
-8.4493284493e-01   3.1257127472e-01
-8.3516483516e-01   2.9636177296e-01
-8.2539682540e-01   2.8004757227e-01
-8.1562881563e-01   2.6363538948e-01
-8.0586080586e-01   2.4713232088e-01
-7.9609279609e-01   2.3054585559e-01
-7.8632478632e-01   2.1388388908e-01
-7.7655677656e-01   1.9715473677e-01
-7.6678876679e-01   1.8036714773e-01
-7.5702075702e-01   1.6353031836e-01
-7.4725274725e-01   1.4665390601e-01
-7.3748473748e-01   1.2974804258e-01
-7.2771672772e-01   1.1282334785e-01
-7.1794871795e-01   9.5890942664e-02
-7.0818070818e-01   7.8962461708e-02
-6.9841269841e-01   6.2050065934e-02
-6.8864468864e-01   4.5166454428e-02
-6.7887667888e-01   2.8324875671e-02
-6.6910866911e-01   1.1539138047e-02
-6.5934065934e-01   -5.1763805270e-03
-6.4957264957e-01   -2.1806723987e-02
-6.3980463980e-01   -3.8336350687e-02
-6.3003663004e-01   -5.4749127293e-02
-6.2026862027e-01   -7.1028324205e-02
-6.1050061050e-01   -8.7156612675e-02
-6.0073260073e-01   -1.0311606384e-01
-5.9096459096e-01   -1.1888814989e-01
-5.8119658120e-01   -1.3445374755e-01
-5.7142857143e-01   -1.4979314421e-01
-5.6166056166e-01   -1.6488604688e-01
-5.5189255189e-01   -1.7971159421e-01
-5.4212454212e-01   -1.9424837195e-01
-5.3235653236e-01   -2.0847443208e-01
-5.2258852259e-01   -2.2236731580e-01
-5.1282051282e-01   -2.3590408088e-01
-5.0305250305e-01   -2.4906133349e-01
-4.9328449328e-01   -2.6181526486e-01
-4.8351648352e-01   -2.7414169315e-01
-4.7374847375e-01   -2.8601611063e-01
-4.6398046398e-01   -2.9741373665e-01
-4.5421245421e-01   -3.0830957657e-01
-4.4444444444e-01   -3.1867848681e-01
-4.3467643468e-01   -3.2849524643e-01
-4.2490842491e-01   -3.3773463521e-01
-4.1514041514e-01   -3.4637151857e-01
-4.0537240537e-01   -3.5438093924e-01
-3.9560439560e-01   -3.6173821589e-01
-3.8583638584e-01   -3.6841904860e-01
-3.7606837607e-01   -3.7439963113e-01
-3.6630036630e-01   -3.7965676974e-01
-3.5653235653e-01   -3.8416800850e-01
-3.4676434676e-01   -3.8791176053e-01
-3.3699633700e-01   -3.9086744484e-01
-3.2722832723e-01   -3.9301562822e-01
-3.1746031746e-01   -3.9433817147e-01
-3.0769230769e-01   -3.9481837924e-01
-2.9792429792e-01   -3.9444115251e-01
-2.8815628816e-01   -3.9319314269e-01
-2.7838827839e-01   -3.9106290631e-01
-2.6862026862e-01   -3.8804105879e-01
-2.5885225885e-01   -3.8412042616e-01
-2.4908424908e-01   -3.7929619304e-01
-2.3931623932e-01   -3.7356604537e-01
-2.2954822955e-01   -3.6693030620e-01
-2.1978021978e-01   -3.5939206285e-01
-2.1001221001e-01   -3.5095728355e-01
-2.0024420024e-01   -3.4163492180e-01
-1.9047619048e-01   -3.3143700669e-01
-1.8070818071e-01   -3.2037871736e-01
-1.7094017094e-01   -3.0847843989e-01
-1.6117216117e-01   -2.9575780503e-01
-1.5140415140e-01   -2.8224170527e-01
-1.4163614164e-01   -2.6795828999e-01
-1.3186813187e-01   -2.5293893748e-01
-1.2210012210e-01   -2.3721820306e-01
-1.1233211233e-01   -2.2083374255e-01
-1.0256410256e-01   -2.0382621088e-01
-9.2796092796e-02   -1.8623913569e-01
-8.3028083028e-02   -1.6811876632e-01
-7.3260073260e-02   -1.4951389877e-01
-6.3492063492e-02   -1.3047567758e-01
-5.3724053724e-02   -1.1105737602e-01
-4.3956043956e-02   -9.1314156237e-02
-3.4188034188e-02   -7.1302811163e-02
-2.4420024420e-02   -5.1081490694e-02
-1.4652014652e-02   -3.0709414414e-02
-4.8840048840e-03   -1.0246573731e-02
4.8840048840e-03   1.0246573731e-02
1.4652014652e-02   3.0709414414e-02
2.4420024420e-02   5.1081490694e-02
3.4188034188e-02   7.1302811163e-02
4.3956043956e-02   9.1314156237e-02
5.3724053724e-02   1.1105737602e-01
6.3492063492e-02   1.3047567758e-01
7.3260073260e-02   1.4951389877e-01
8.3028083028e-02   1.6811876632e-01
9.2796092796e-02   1.8623913569e-01
1.0256410256e-01   2.0382621088e-01
1.1233211233e-01   2.2083374255e-01
1.2210012210e-01   2.3721820306e-01
1.3186813187e-01   2.5293893748e-01
1.4163614164e-01   2.6795828999e-01
1.5140415140e-01   2.8224170527e-01
1.6117216117e-01   2.9575780503e-01
1.7094017094e-01   3.0847843989e-01
1.8070818071e-01   3.2037871736e-01
1.9047619048e-01   3.3143700669e-01
2.0024420024e-01   3.4163492180e-01
2.1001221001e-01   3.5095728355e-01
2.1978021978e-01   3.5939206285e-01
2.2954822955e-01   3.6693030620e-01
2.3931623932e-01   3.7356604537e-01
2.4908424908e-01   3.7929619304e-01
2.5885225885e-01   3.8412042616e-01
2.6862026862e-01   3.8804105879e-01
2.7838827839e-01   3.9106290631e-01
2.8815628816e-01   3.9319314269e-01
2.9792429792e-01   3.9444115251e-01
3.0769230769e-01   3.9481837924e-01
3.1746031746e-01   3.9433817147e-01
3.2722832723e-01   3.9301562822e-01
3.3699633700e-01   3.9086744484e-01
3.4676434676e-01   3.8791176053e-01
3.5653235653e-01   3.8416800850e-01
3.6630036630e-01   3.7965676974e-01
3.7606837607e-01   3.7439963113e-01
3.8583638584e-01   3.6841904860e-01
3.9560439560e-01   3.6173821589e-01
4.0537240537e-01   3.5438093924e-01
4.1514041514e-01   3.4637151857e-01
4.2490842491e-01   3.3773463521e-01
4.3467643468e-01   3.2849524643e-01
4.4444444444e-01   3.1867848681e-01
4.5421245421e-01   3.0830957657e-01
4.6398046398e-01   2.9741373665e-01
4.7374847375e-01   2.8601611063e-01
4.8351648352e-01   2.7414169315e-01
4.9328449328e-01   2.6181526486e-01
5.0305250305e-01   2.4906133349e-01
5.1282051282e-01   2.3590408088e-01
5.2258852259e-01   2.2236731580e-01
5.3235653236e-01   2.0847443208e-01
5.4212454212e-01   1.9424837195e-01
5.5189255189e-01   1.7971159421e-01
5.6166056166e-01   1.6488604688e-01
5.7142857143e-01   1.4979314421e-01
5.8119658120e-01   1.3445374755e-01
5.9096459096e-01   1.1888814989e-01
6.0073260073e-01   1.0311606384e-01
6.1050061050e-01   8.7156612675e-02
6.2026862027e-01   7.1028324205e-02
6.3003663004e-01   5.4749127293e-02
6.3980463980e-01   3.8336350687e-02
6.4957264957e-01   2.1806723987e-02
6.5934065934e-01   5.1763805270e-03
6.6910866911e-01   -1.1539138047e-02
6.7887667888e-01   -2.8324875671e-02
6.8864468864e-01   -4.5166454428e-02
6.9841269841e-01   -6.2050065934e-02
7.0818070818e-01   -7.8962461708e-02
7.1794871795e-01   -9.5890942664e-02
7.2771672772e-01   -1.1282334785e-01
7.3748473748e-01   -1.2974804258e-01
7.4725274725e-01   -1.4665390601e-01
7.5702075702e-01   -1.6353031836e-01
7.6678876679e-01   -1.8036714773e-01
7.7655677656e-01   -1.9715473677e-01
7.8632478632e-01   -2.1388388908e-01
7.9609279609e-01   -2.3054585559e-01
8.0586080586e-01   -2.4713232088e-01
8.1562881563e-01   -2.6363538948e-01
8.2539682540e-01   -2.8004757227e-01
8.3516483516e-01   -2.9636177296e-01
8.4493284493e-01   -3.1257127472e-01
8.5470085470e-01   -3.2866972701e-01
8.6446886447e-01   -3.4465113254e-01
8.7423687424e-01   -3.6050983451e-01
8.8400488400e-01   -3.7624050409e-01
8.9377289377e-01   -3.9183812816e-01
9.0354090354e-01   -4.0729799728e-01
9.1330891331e-01   -4.2261569401e-01
9.2307692308e-01   -4.3778708152e-01
9.3284493284e-01   -4.5280829244e-01
9.4261294261e-01   -4.6767571808e-01
9.5238095238e-01   -4.8238599795e-01
9.6214896215e-01   -4.9693600957e-01
9.7191697192e-01   -5.1132285861e-01
9.8168498168e-01   -5.2554386934e-01
9.9145299145e-01   -5.3959657536e-01
1.0012210012e+00   -5.5347871072e-01
1.0109890110e+00   -5.6718820121e-01
1.0207570208e+00   -5.8072315608e-01
1.0305250305e+00   -5.9408185997e-01
1.0402930403e+00   -6.0726276515e-01
1.0500610501e+00   -6.2026448408e-01
1.0598290598e+00   -6.3308578213e-01
1.0695970696e+00   -6.4572557073e-01
1.0793650794e+00   -6.5818290065e-01
1.0891330891e+00   -6.7045695561e-01
1.0989010989e+00   -6.8254704607e-01
1.1086691087e+00   -6.9445260334e-01
1.1184371184e+00   -7.0617317388e-01
1.1282051282e+00   -7.1770841379e-01
1.1379731380e+00   -7.2905808362e-01
1.1477411477e+00   -7.4022204325e-01
1.1575091575e+00   -7.5120024715e-01
1.1672771673e+00   -7.6199273963e-01
1.1770451770e+00   -7.7259965050e-01
1.1868131868e+00   -7.8302119073e-01
1.1965811966e+00   -7.9325764839e-01
1.2063492063e+00   -8.0330938472e-01
1.2161172161e+00   -8.1317683043e-01
1.2258852259e+00   -8.2286048201e-01
1.2356532357e+00   -8.3236089838e-01
1.2454212454e+00   -8.4167869756e-01
1.2551892552e+00   -8.5081455349e-01
1.2649572650e+00   -8.5976919307e-01
1.2747252747e+00   -8.6854339322e-01
1.2844932845e+00   -8.7713797814e-01
1.2942612943e+00   -8.8555381666e-01
1.3040293040e+00   -8.9379181972e-01
1.3137973138e+00   -9.0185293796e-01
1.3235653236e+00   -9.0973815936e-01
1.3333333333e+00   -9.1744850710e-01
1.3431013431e+00   -9.2498503741e-01
1.3528693529e+00   -9.3234883753e-01
1.3626373626e+00   -9.3954102385e-01
1.3724053724e+00   -9.4656273997e-01
1.3821733822e+00   -9.5341515504e-01
1.3919413919e+00   -9.6009946200e-01
1.4017094017e+00   -9.6661687600e-01
1.4114774115e+00   -9.7296863289e-01
1.4212454212e+00   -9.7915598772e-01
1.4310134310e+00   -9.8518021335e-01
1.4407814408e+00   -9.9104259912e-01
1.4505494505e+00   -9.9674444958e-01
1.4603174603e+00   -1.0022870833e+00
1.4700854701e+00   -1.0076718315e+00
1.4798534799e+00   -1.0129000374e+00
1.4896214896e+00   -1.0179730548e+00
1.4993894994e+00   -1.0228922469e+00
1.5091575092e+00   -1.0276589858e+00
1.5189255189e+00   -1.0322746515e+00
1.5286935287e+00   -1.0367406307e+00
1.5384615385e+00   -1.0410583163e+00
1.5482295482e+00   -1.0452291062e+00
1.5579975580e+00   -1.0492544032e+00
1.5677655678e+00   -1.0531356137e+00
1.5775335775e+00   -1.0568741472e+00
1.5873015873e+00   -1.0604714157e+00
1.5970695971e+00   -1.0639288331e+00
1.6068376068e+00   -1.0672478143e+00
1.6166056166e+00   -1.0704297752e+00
1.6263736264e+00   -1.0734761316e+00
1.6361416361e+00   -1.0763882990e+00
1.6459096459e+00   -1.0791676921e+00
1.6556776557e+00   -1.0818157242e+00
1.6654456654e+00   -1.0843338069e+00
1.6752136752e+00   -1.0867233497e+00
1.6849816850e+00   -1.0889857593e+00
1.6947496947e+00   -1.0911224397e+00
1.7045177045e+00   -1.0931347914e+00
1.7142857143e+00   -1.0950242113e+00
1.7240537241e+00   -1.0967920926e+00
1.7338217338e+00   -1.0984398238e+00
1.7435897436e+00   -1.0999687891e+00
1.7533577534e+00   -1.1013803679e+00
1.7631257631e+00   -1.1026759344e+00
1.7728937729e+00   -1.1038568575e+00
1.7826617827e+00   -1.1049245005e+00
1.7924297924e+00   -1.1058802210e+00
1.8021978022e+00   -1.1067253705e+00
1.8119658120e+00   -1.1074612944e+00
1.8217338217e+00   -1.1080893317e+00
1.8315018315e+00   -1.1086108148e+00
1.8412698413e+00   -1.1090270695e+00
1.8510378510e+00   -1.1093394147e+00
1.8608058608e+00   -1.1095491621e+00
1.8705738706e+00   -1.1096576166e+00
1.8803418803e+00   -1.1096660756e+00
1.8901098901e+00   -1.1095758292e+00
1.8998778999e+00   -1.1093881599e+00
1.9096459096e+00   -1.1091043427e+00
1.9194139194e+00   -1.1087256448e+00
1.9291819292e+00   -1.1082533258e+00
1.9389499389e+00   -1.1076886371e+00
1.9487179487e+00   -1.1070328226e+00
1.9584859585e+00   -1.1062871177e+00
1.9682539683e+00   -1.1054527501e+00
1.9780219780e+00   -1.1045309390e+00
1.9877899878e+00   -1.1035228958e+00
1.9975579976e+00   -1.1024298232e+00
2.0073260073e+00   -1.1012529159e+00
2.0170940171e+00   -1.0999933602e+00
2.0268620269e+00   -1.0986523339e+00
2.0366300366e+00   -1.0972310066e+00
2.0463980464e+00   -1.0957305392e+00
2.0561660562e+00   -1.0941520844e+00
2.0659340659e+00   -1.0924967861e+00
2.0757020757e+00   -1.0907657800e+00
2.0854700855e+00   -1.0889601931e+00
2.0952380952e+00   -1.0870811438e+00
2.1050061050e+00   -1.0851297422e+00
2.1147741148e+00   -1.0831070895e+00
2.1245421245e+00   -1.0810142787e+00
2.1343101343e+00   -1.0788523940e+00
2.1440781441e+00   -1.0766225111e+00
2.1538461538e+00   -1.0743256972e+00
2.1636141636e+00   -1.0719630109e+00
2.1733821734e+00   -1.0695355021e+00
2.1831501832e+00   -1.0670442126e+00
2.1929181929e+00   -1.0644901751e+00
2.2026862027e+00   -1.0618744144e+00
2.2124542125e+00   -1.0591979462e+00
2.2222222222e+00   -1.0564617783e+00
2.2319902320e+00   -1.0536669095e+00
2.2417582418e+00   -1.0508143306e+00
2.2515262515e+00   -1.0479050238e+00
2.2612942613e+00   -1.0449399627e+00
2.2710622711e+00   -1.0419201130e+00
2.2808302808e+00   -1.0388464315e+00
2.2905982906e+00   -1.0357198672e+00
2.3003663004e+00   -1.0325413605e+00
2.3101343101e+00   -1.0293118434e+00
2.3199023199e+00   -1.0260322401e+00
2.3296703297e+00   -1.0227034662e+00
2.3394383394e+00   -1.0193264293e+00
2.3492063492e+00   -1.0159020288e+00
2.3589743590e+00   -1.0124311561e+00
2.3687423687e+00   -1.0089146943e+00
2.3785103785e+00   -1.0053535185e+00
2.3882783883e+00   -1.0017484961e+00
2.3980463980e+00   -9.9810048612e-01
2.4078144078e+00   -9.9441033982e-01
2.4175824176e+00   -9.9067890056e-01
2.4273504274e+00   -9.8690700379e-01
2.4371184371e+00   -9.8309547714e-01
2.4468864469e+00   -9.7924514047e-01
2.4566544567e+00   -9.7535680584e-01
2.4664224664e+00   -9.7143127764e-01
2.4761904762e+00   -9.6746935255e-01
2.4859584860e+00   -9.6347181961e-01
2.4957264957e+00   -9.5943946029e-01
2.5054945055e+00   -9.5537304847e-01
2.5152625153e+00   -9.5127335052e-01
2.5250305250e+00   -9.4714112534e-01
2.5347985348e+00   -9.4297712438e-01
2.5445665446e+00   -9.3878209171e-01
2.5543345543e+00   -9.3455676403e-01
2.5641025641e+00   -9.3030187072e-01
2.5738705739e+00   -9.2601813390e-01
2.5836385836e+00   -9.2170626845e-01
2.5934065934e+00   -9.1736698207e-01
2.6031746032e+00   -9.1300097531e-01
2.6129426129e+00   -9.0860894160e-01
2.6227106227e+00   -9.0419156732e-01
2.6324786325e+00   -8.9974953183e-01
2.6422466422e+00   -8.9528350750e-01
2.6520146520e+00   -8.9079415977e-01
2.6617826618e+00   -8.8628214719e-01
2.6715506716e+00   -8.8174812144e-01
2.6813186813e+00   -8.7719272741e-01
2.6910866911e+00   -8.7261660321e-01
2.7008547009e+00   -8.6802038022e-01
2.7106227106e+00   -8.6340468316e-01
2.7203907204e+00   -8.5877013009e-01
2.7301587302e+00   -8.5411733247e-01
2.7399267399e+00   -8.4944689521e-01
2.7496947497e+00   -8.4475941672e-01
2.7594627595e+00   -8.4005548891e-01
2.7692307692e+00   -8.3533569729e-01
2.7789987790e+00   -8.3060062096e-01
2.7887667888e+00   -8.2585083269e-01
2.7985347985e+00   -8.2108689894e-01
2.8083028083e+00   -8.1630937990e-01
2.8180708181e+00   -8.1151882957e-01
2.8278388278e+00   -8.0671579574e-01
2.8376068376e+00   -8.0190082008e-01
2.8473748474e+00   -7.9707443817e-01
2.8571428571e+00   -7.9223717953e-01
2.8669108669e+00   -7.8738956766e-01
2.8766788767e+00   -7.8253212011e-01
2.8864468864e+00   -7.7766534849e-01
2.8962148962e+00   -7.7278975852e-01
2.9059829060e+00   -7.6790585007e-01
2.9157509158e+00   -7.6301411722e-01
2.9255189255e+00   -7.5811504827e-01
2.9352869353e+00   -7.5320912580e-01
2.9450549451e+00   -7.4829682670e-01
2.9548229548e+00   -7.4337862222e-01
2.9645909646e+00   -7.3845497801e-01
2.9743589744e+00   -7.3352635416e-01
2.9841269841e+00   -7.2859320521e-01
2.9938949939e+00   -7.2365598025e-01
3.0036630037e+00   -7.1871512290e-01
3.0134310134e+00   -7.1377107138e-01
3.0231990232e+00   -7.0882425856e-01
3.0329670330e+00   -7.0387511195e-01
3.0427350427e+00   -6.9892405381e-01
3.0525030525e+00   -6.9397150113e-01
3.0622710623e+00   -6.8901786568e-01
3.0720390720e+00   -6.8406355408e-01
3.0818070818e+00   -6.7910896781e-01
3.0915750916e+00   -6.7415450324e-01
3.1013431013e+00   -6.6920055170e-01
3.1111111111e+00   -6.6424749950e-01
3.1208791209e+00   -6.5929572796e-01
3.1306471306e+00   -6.5434561345e-01
3.1404151404e+00   -6.4939752745e-01
3.1501831502e+00   -6.4445183656e-01
3.1599511600e+00   -6.3950890256e-01
3.1697191697e+00   -6.3456908242e-01
3.1794871795e+00   -6.2963272835e-01
3.1892551893e+00   -6.2470018786e-01
3.1990231990e+00   -6.1977180374e-01
3.2087912088e+00   -6.1484791417e-01
3.2185592186e+00   -6.0992885269e-01
3.2283272283e+00   -6.0501494827e-01
3.2380952381e+00   -6.0010652534e-01
3.2478632479e+00   -5.9520390382e-01
3.2576312576e+00   -5.9030739917e-01
3.2673992674e+00   -5.8541732240e-01
3.2771672772e+00   -5.8053398013e-01
3.2869352869e+00   -5.7565767462e-01
3.2967032967e+00   -5.7078870378e-01
3.3064713065e+00   -5.6592736125e-01
3.3162393162e+00   -5.6107393640e-01
3.3260073260e+00   -5.5622871436e-01
3.3357753358e+00   -5.5139197607e-01
3.3455433455e+00   -5.4656399833e-01
3.3553113553e+00   -5.4174505381e-01
3.3650793651e+00   -5.3693541106e-01
3.3748473748e+00   -5.3213533461e-01
3.3846153846e+00   -5.2734508495e-01
3.3943833944e+00   -5.2256491857e-01
3.4041514042e+00   -5.1779508801e-01
3.4139194139e+00   -5.1303584188e-01
3.4236874237e+00   -5.0828742490e-01
3.4334554335e+00   -5.0355007794e-01
3.4432234432e+00   -4.9882403801e-01
3.4529914530e+00   -4.9410953836e-01
3.4627594628e+00   -4.8940680845e-01
3.4725274725e+00   -4.8471607402e-01
3.4822954823e+00   -4.8003755711e-01
3.4920634921e+00   -4.7537147607e-01
3.5018315018e+00   -4.7071804563e-01
3.5115995116e+00   -4.6607747692e-01
3.5213675214e+00   -4.6144997748e-01
3.5311355311e+00   -4.5683575129e-01
3.5409035409e+00   -4.5223499885e-01
3.5506715507e+00   -4.4764791714e-01
3.5604395604e+00   -4.4307469972e-01
3.5702075702e+00   -4.3851553670e-01
3.5799755800e+00   -4.3397061480e-01
3.5897435897e+00   -4.2944011739e-01
3.5995115995e+00   -4.2492422448e-01
3.6092796093e+00   -4.2042311279e-01
3.6190476190e+00   -4.1593695578e-01
3.6288156288e+00   -4.1146592363e-01
3.6385836386e+00   -4.0701018332e-01
3.6483516484e+00   -4.0256989864e-01
3.6581196581e+00   -3.9814523023e-01
3.6678876679e+00   -3.9373633556e-01
3.6776556777e+00   -3.8934336905e-01
3.6874236874e+00   -3.8496648200e-01
3.6971916972e+00   -3.8060582269e-01
3.7069597070e+00   -3.7626153636e-01
3.7167277167e+00   -3.7193376527e-01
3.7264957265e+00   -3.6762264872e-01
3.7362637363e+00   -3.6332832307e-01
3.7460317460e+00   -3.5905092176e-01
3.7557997558e+00   -3.5479057536e-01
3.7655677656e+00   -3.5054741158e-01
3.7753357753e+00   -3.4632155530e-01
3.7851037851e+00   -3.4211312859e-01
3.7948717949e+00   -3.3792225077e-01
3.8046398046e+00   -3.3374903838e-01
3.8144078144e+00   -3.2959360526e-01
3.8241758242e+00   -3.2545606254e-01
3.8339438339e+00   -3.2133651868e-01
3.8437118437e+00   -3.1723507950e-01
3.8534798535e+00   -3.1315184820e-01
3.8632478632e+00   -3.0908692537e-01
3.8730158730e+00   -3.0504040905e-01
3.8827838828e+00   -3.0101239473e-01
3.8925518926e+00   -2.9700297537e-01
3.9023199023e+00   -2.9301224146e-01
3.9120879121e+00   -2.8904028100e-01
3.9218559219e+00   -2.8508717954e-01
3.9316239316e+00   -2.8115302022e-01
3.9413919414e+00   -2.7723788379e-01
3.9511599512e+00   -2.7334184862e-01
3.9609279609e+00   -2.6946499072e-01
3.9706959707e+00   -2.6560738379e-01
3.9804639805e+00   -2.6176909923e-01
3.9902319902e+00   -2.5795020615e-01
4.0000000000e+00   -2.5415077141e-01
4.0097680098e+00   -2.5037085965e-01
4.0195360195e+00   -2.4661053328e-01
4.0293040293e+00   -2.4286985255e-01
4.0390720391e+00   -2.3914887552e-01
4.0488400488e+00   -2.3544765813e-01
4.0586080586e+00   -2.3176625421e-01
4.0683760684e+00   -2.2810471546e-01
4.0781440781e+00   -2.2446309154e-01
4.0879120879e+00   -2.2084143005e-01
4.0976800977e+00   -2.1723977656e-01
4.1074481074e+00   -2.1365817462e-01
4.1172161172e+00   -2.1009666582e-01
4.1269841270e+00   -2.0655528977e-01
4.1367521368e+00   -2.0303408414e-01
4.1465201465e+00   -1.9953308468e-01
4.1562881563e+00   -1.9605232523e-01
4.1660561661e+00   -1.9259183777e-01
4.1758241758e+00   -1.8915165241e-01
4.1855921856e+00   -1.8573179741e-01
4.1953601954e+00   -1.8233229924e-01
4.2051282051e+00   -1.7895318255e-01
4.2148962149e+00   -1.7559447022e-01
4.2246642247e+00   -1.7225618339e-01
4.2344322344e+00   -1.6893834144e-01
4.2442002442e+00   -1.6564096204e-01
4.2539682540e+00   -1.6236406117e-01
4.2637362637e+00   -1.5910765314e-01
4.2735042735e+00   -1.5587175057e-01
4.2832722833e+00   -1.5265636447e-01
4.2930402930e+00   -1.4946150423e-01
4.3028083028e+00   -1.4628717763e-01
4.3125763126e+00   -1.4313339088e-01
4.3223443223e+00   -1.4000014861e-01
4.3321123321e+00   -1.3688745392e-01
4.3418803419e+00   -1.3379530839e-01
4.3516483516e+00   -1.3072371207e-01
4.3614163614e+00   -1.2767266355e-01
4.3711843712e+00   -1.2464215994e-01
4.3809523810e+00   -1.2163219689e-01
4.3907203907e+00   -1.1864276862e-01
4.4004884005e+00   -1.1567386793e-01
4.4102564103e+00   -1.1272548625e-01
4.4200244200e+00   -1.0979761358e-01
4.4297924298e+00   -1.0689023860e-01
4.4395604396e+00   -1.0400334862e-01
4.4493284493e+00   -1.0113692963e-01
4.4590964591e+00   -9.8290966312e-02
4.4688644689e+00   -9.5465442036e-02
4.4786324786e+00   -9.2660338911e-02
4.4884004884e+00   -8.9875637779e-02
4.4981684982e+00   -8.7111318236e-02
4.5079365079e+00   -8.4367358652e-02
4.5177045177e+00   -8.1643736183e-02
4.5274725275e+00   -7.8940426791e-02
4.5372405372e+00   -7.6257405258e-02
4.5470085470e+00   -7.3594645202e-02
4.5567765568e+00   -7.0952119092e-02
4.5665445665e+00   -6.8329798269e-02
4.5763125763e+00   -6.5727652953e-02
4.5860805861e+00   -6.3145652266e-02
4.5958485958e+00   -6.0583764244e-02
4.6056166056e+00   -5.8041955854e-02
4.6153846154e+00   -5.5520193005e-02
4.6251526252e+00   -5.3018440569e-02
4.6349206349e+00   -5.0536662393e-02
4.6446886447e+00   -4.8074821312e-02
4.6544566545e+00   -4.5632879167e-02
4.6642246642e+00   -4.3210796819e-02
4.6739926740e+00   -4.0808534161e-02
4.6837606838e+00   -3.8426050134e-02
4.6935286935e+00   -3.6063302744e-02
4.7032967033e+00   -3.3720249072e-02
4.7130647131e+00   -3.1396845289e-02
4.7228327228e+00   -2.9093046671e-02
4.7326007326e+00   -2.6808807612e-02
4.7423687424e+00   -2.4544081641e-02
4.7521367521e+00   -2.2298821428e-02
4.7619047619e+00   -2.0072978806e-02
4.7716727717e+00   -1.7866504779e-02
4.7814407814e+00   -1.5679349538e-02
4.7912087912e+00   -1.3511462472e-02
4.8009768010e+00   -1.1362792183e-02
4.8107448107e+00   -9.2332864978e-03
4.8205128205e+00   -7.1228924811e-03
4.8302808303e+00   -5.0315564489e-03
4.8400488400e+00   -2.9592239806e-03
4.8498168498e+00   -9.0583993162e-04
4.8595848596e+00   1.1286515543e-03
4.8693528694e+00   3.1443070323e-03
4.8791208791e+00   5.1411837446e-03
4.8888888889e+00   7.1193396081e-03
4.8986568987e+00   9.0788332024e-03
4.9084249084e+00   1.1019723758e-02
4.9181929182e+00   1.2942071144e-02
4.9279609280e+00   1.4845935857e-02
4.9377289377e+00   1.6731379008e-02
4.9474969475e+00   1.8598462315e-02
4.9572649573e+00   2.0447248084e-02
4.9670329670e+00   2.2277799207e-02
4.9768009768e+00   2.4090179142e-02
4.9865689866e+00   2.5884451908e-02
4.9963369963e+00   2.7660682071e-02
5.0061050061e+00   2.9418934734e-02
5.0158730159e+00   3.1159275525e-02
5.0256410256e+00   3.2881770589e-02
5.0354090354e+00   3.4586486573e-02
5.0451770452e+00   3.6273490620e-02
5.0549450549e+00   3.7942850356e-02
5.0647130647e+00   3.9594633879e-02
5.0744810745e+00   4.1228909749e-02
5.0842490842e+00   4.2845746982e-02
5.0940170940e+00   4.4445215033e-02
5.1037851038e+00   4.6027383790e-02
5.1135531136e+00   4.7592323564e-02
5.1233211233e+00   4.9140105079e-02
5.1330891331e+00   5.0670799461e-02
5.1428571429e+00   5.2184478228e-02
5.1526251526e+00   5.3681213285e-02
5.1623931624e+00   5.5161076908e-02
5.1721611722e+00   5.6624141738e-02
5.1819291819e+00   5.8070480773e-02
5.1916971917e+00   5.9500167357e-02
5.2014652015e+00   6.0913275168e-02
5.2112332112e+00   6.2309878216e-02
5.2210012210e+00   6.3690050829e-02
5.2307692308e+00   6.5053867642e-02
5.2405372405e+00   6.6401403596e-02
5.2503052503e+00   6.7732733922e-02
5.2600732601e+00   6.9047934134e-02
5.2698412698e+00   7.0347080025e-02
5.2796092796e+00   7.1630247652e-02
5.2893772894e+00   7.2897513333e-02
5.2991452991e+00   7.4148953633e-02
5.3089133089e+00   7.5384645362e-02
5.3186813187e+00   7.6604665565e-02
5.3284493284e+00   7.7809091509e-02
5.3382173382e+00   7.8998000682e-02
5.3479853480e+00   8.0171470783e-02
5.3577533578e+00   8.1329579710e-02
5.3675213675e+00   8.2472405559e-02
5.3772893773e+00   8.3600026611e-02
5.3870573871e+00   8.4712521326e-02
5.3968253968e+00   8.5809968338e-02
5.4065934066e+00   8.6892446444e-02
5.4163614164e+00   8.7960034599e-02
5.4261294261e+00   8.9012811907e-02
5.4358974359e+00   9.0050857615e-02
5.4456654457e+00   9.1074251107e-02
5.4554334554e+00   9.2083071893e-02
5.4652014652e+00   9.3077399607e-02
5.4749694750e+00   9.4057313996e-02
5.4847374847e+00   9.5022894917e-02
5.4945054945e+00   9.5974222327e-02
5.5042735043e+00   9.6911376277e-02
5.5140415140e+00   9.7834436907e-02
5.5238095238e+00   9.8743484438e-02
5.5335775336e+00   9.9638599165e-02
5.5433455433e+00   1.0051986145e-01
5.5531135531e+00   1.0138735173e-01
5.5628815629e+00   1.0224115048e-01
5.5726495726e+00   1.0308133824e-01
5.5824175824e+00   1.0390799558e-01
5.5921855922e+00   1.0472120311e-01
5.6019536020e+00   1.0552104149e-01
5.6117216117e+00   1.0630759138e-01
5.6214896215e+00   1.0708093348e-01
5.6312576313e+00   1.0784114850e-01
5.6410256410e+00   1.0858831715e-01
5.6507936508e+00   1.0932252015e-01
5.6605616606e+00   1.1004383822e-01
5.6703296703e+00   1.1075235207e-01
5.6800976801e+00   1.1144814239e-01
5.6898656899e+00   1.1213128985e-01
5.6996336996e+00   1.1280187512e-01
5.7094017094e+00   1.1345997881e-01
5.7191697192e+00   1.1410568151e-01
5.7289377289e+00   1.1473906378e-01
5.7387057387e+00   1.1536020612e-01
5.7484737485e+00   1.1596918897e-01
5.7582417582e+00   1.1656609276e-01
5.7680097680e+00   1.1715099781e-01
5.7777777778e+00   1.1772398440e-01
5.7875457875e+00   1.1828513275e-01
5.7973137973e+00   1.1883452298e-01
5.8070818071e+00   1.1937223517e-01
5.8168498168e+00   1.1989834927e-01
5.8266178266e+00   1.2041294518e-01
5.8363858364e+00   1.2091610270e-01
5.8461538462e+00   1.2140790152e-01
5.8559218559e+00   1.2188842125e-01
5.8656898657e+00   1.2235774138e-01
5.8754578755e+00   1.2281594130e-01
5.8852258852e+00   1.2326310028e-01
5.8949938950e+00   1.2369929748e-01
5.9047619048e+00   1.2412461193e-01
5.9145299145e+00   1.2453912256e-01
5.9242979243e+00   1.2494290813e-01
5.9340659341e+00   1.2533604730e-01
5.9438339438e+00   1.2571861858e-01
5.9536019536e+00   1.2609070035e-01
5.9633699634e+00   1.2645237083e-01
5.9731379731e+00   1.2680370810e-01
5.9829059829e+00   1.2714479010e-01
5.9926739927e+00   1.2747569460e-01
6.0024420024e+00   1.2779649922e-01
6.0122100122e+00   1.2810728141e-01
6.0219780220e+00   1.2840811846e-01
6.0317460317e+00   1.2869908749e-01
6.0415140415e+00   1.2898026546e-01
6.0512820513e+00   1.2925172914e-01
6.0610500611e+00   1.2951355512e-01
6.0708180708e+00   1.2976581981e-01
6.0805860806e+00   1.3000859946e-01
6.0903540904e+00   1.3024197010e-01
6.1001221001e+00   1.3046600759e-01
6.1098901099e+00   1.3068078758e-01
6.1196581197e+00   1.3088638555e-01
6.1294261294e+00   1.3108287674e-01
6.1391941392e+00   1.3127033622e-01
6.1489621490e+00   1.3144883886e-01
6.1587301587e+00   1.3161845930e-01
6.1684981685e+00   1.3177927197e-01
6.1782661783e+00   1.3193135111e-01
6.1880341880e+00   1.3207477073e-01
6.1978021978e+00   1.3220960462e-01
6.2075702076e+00   1.3233592635e-01
6.2173382173e+00   1.3245380928e-01
6.2271062271e+00   1.3256332652e-01
6.2368742369e+00   1.3266455098e-01
6.2466422466e+00   1.3275755533e-01
6.2564102564e+00   1.3284241199e-01
6.2661782662e+00   1.3291919317e-01
6.2759462759e+00   1.3298797083e-01
6.2857142857e+00   1.3304881671e-01
