X    Y
-2.0000000000e+02   9.5201649579e-27
-1.9990231990e+02   1.1942264835e-13
-1.9980463980e+02   2.3971446240e-13
-1.9970695971e+02   3.6174468822e-13
-1.9960927961e+02   4.8638273240e-13
-1.9951159951e+02   6.1449824213e-13
-1.9941391941e+02   7.4696118488e-13
-1.9931623932e+02   8.8464192763e-13
-1.9921855922e+02   1.0284113156e-12
-1.9912087912e+02   1.1791407505e-12
-1.9902319902e+02   1.3377022673e-12
-1.9892551893e+02   1.5049686117e-12
-1.9882783883e+02   1.6818133144e-12
-1.9873015873e+02   1.8691107666e-12
-1.9863247863e+02   2.0677362926e-12
-1.9853479853e+02   2.2785662217e-12
-1.9843711844e+02   2.5024779592e-12
-1.9833943834e+02   2.7403500550e-12
-1.9824175824e+02   2.9930622710e-12
-1.9814407814e+02   3.2614956469e-12
-1.9804639805e+02   3.5465325638e-12
-1.9794871795e+02   3.8490568061e-12
-1.9785103785e+02   4.1699536211e-12
-1.9775335775e+02   4.5101097767e-12
-1.9765567766e+02   4.8704136165e-12
-1.9755799756e+02   5.2517551126e-12
-1.9746031746e+02   5.6550259159e-12
-1.9736263736e+02   6.0811194034e-12
-1.9726495726e+02   6.5309307235e-12
-1.9716727717e+02   7.0053568374e-12
-1.9706959707e+02   7.5052965583e-12
-1.9697191697e+02   8.0316505869e-12
-1.9687423687e+02   8.5853215441e-12
-1.9677655678e+02   9.1672139999e-12
-1.9667887668e+02   9.7782344992e-12
-1.9658119658e+02   1.0419291583e-11
-1.9648351648e+02   1.1091295809e-11
-1.9638583639e+02   1.1795159762e-11
-1.9628815629e+02   1.2531798066e-11
-1.9619047619e+02   1.3302127393e-11
-1.9609279609e+02   1.4107066461e-11
-1.9599511600e+02   1.4947536032e-11
-1.9589743590e+02   1.5824458907e-11
-1.9579975580e+02   1.6738759914e-11
-1.9570207570e+02   1.7691365888e-11
-1.9560439560e+02   1.8683205653e-11
-1.9550671551e+02   1.9715209995e-11
-1.9540903541e+02   2.0788311629e-11
-1.9531135531e+02   2.1903445163e-11
-1.9521367521e+02   2.3061547052e-11
-1.9511599512e+02   2.4263555556e-11
-1.9501831502e+02   2.5510410680e-11
-1.9492063492e+02   2.6803054116e-11
-1.9482295482e+02   2.8142429178e-11
-1.9472527473e+02   2.9529480728e-11
-1.9462759463e+02   3.0965155097e-11
-1.9452991453e+02   3.2450400003e-11
-1.9443223443e+02   3.3986164455e-11
-1.9433455433e+02   3.5573398657e-11
-1.9423687424e+02   3.7213053899e-11
-1.9413919414e+02   3.8906082449e-11
-1.9404151404e+02   4.0653437429e-11
-1.9394383394e+02   4.2456072689e-11
-1.9384615385e+02   4.4314942672e-11
-1.9374847375e+02   4.6231002269e-11
-1.9365079365e+02   4.8205206671e-11
-1.9355311355e+02   5.0238511209e-11
-1.9345543346e+02   5.2331871186e-11
-1.9335775336e+02   5.4486241702e-11
-1.9326007326e+02   5.6702577472e-11
-1.9316239316e+02   5.8981832628e-11
-1.9306471306e+02   6.1324960524e-11
-1.9296703297e+02   6.3732913519e-11
-1.9286935287e+02   6.6206642762e-11
-1.9277167277e+02   6.8747097959e-11
-1.9267399267e+02   7.1355227138e-11
-1.9257631258e+02   7.4031976395e-11
-1.9247863248e+02   7.6778289642e-11
-1.9238095238e+02   7.9595108334e-11
-1.9228327228e+02   8.2483371192e-11
-1.9218559219e+02   8.5444013914e-11
-1.9208791209e+02   8.8477968875e-11
-1.9199023199e+02   9.1586164818e-11
-1.9189255189e+02   9.4769526530e-11
-1.9179487179e+02   9.8028974514e-11
-1.9169719170e+02   1.0136542464e-10
-1.9159951160e+02   1.0477978781e-10
-1.9150183150e+02   1.0827296954e-10
-1.9140415140e+02   1.1184586967e-10
-1.9130647131e+02   1.1549938187e-10
-1.9120879121e+02   1.1923439332e-10
-1.9111111111e+02   1.2305178427e-10
-1.9101343101e+02   1.2695242761e-10
-1.9091575092e+02   1.3093718840e-10
-1.9081807082e+02   1.3500692351e-10
-1.9072039072e+02   1.3916248104e-10
-1.9062271062e+02   1.4340469995e-10
-1.9052503053e+02   1.4773440947e-10
-1.9042735043e+02   1.5215242871e-10
-1.9032967033e+02   1.5665956602e-10
-1.9023199023e+02   1.6125661857e-10
-1.9013431013e+02   1.6594437173e-10
-1.9003663004e+02   1.7072359855e-10
-1.8993894994e+02   1.7559505919e-10
-1.8984126984e+02   1.8055950030e-10
-1.8974358974e+02   1.8561765449e-10
-1.8964590965e+02   1.9077023962e-10
-1.8954822955e+02   1.9601795828e-10
-1.8945054945e+02   2.0136149704e-10
-1.8935286935e+02   2.0680152588e-10
-1.8925518926e+02   2.1233869748e-10
-1.8915750916e+02   2.1797364654e-10
-1.8905982906e+02   2.2370698907e-10
-1.8896214896e+02   2.2953932169e-10
-1.8886446886e+02   2.3547122089e-10
-1.8876678877e+02   2.4150324229e-10
-1.8866910867e+02   2.4763591985e-10
-1.8857142857e+02   2.5386976517e-10
-1.8847374847e+02   2.6020526659e-10
-1.8837606838e+02   2.6664288848e-10
-1.8827838828e+02   2.7318307038e-10
-1.8818070818e+02   2.7982622613e-10
-1.8808302808e+02   2.8657274308e-10
-1.8798534799e+02   2.9342298119e-10
-1.8788766789e+02   3.0037727212e-10
-1.8778998779e+02   3.0743591841e-10
-1.8769230769e+02   3.1459919248e-10
-1.8759462759e+02   3.2186733574e-10
-1.8749694750e+02   3.2924055767e-10
-1.8739926740e+02   3.3671903481e-10
-1.8730158730e+02   3.4430290982e-10
-1.8720390720e+02   3.5199229048e-10
-1.8710622711e+02   3.5978724870e-10
-1.8700854701e+02   3.6768781947e-10
-1.8691086691e+02   3.7569399987e-10
-1.8681318681e+02   3.8380574797e-10
-1.8671550672e+02   3.9202298182e-10
-1.8661782662e+02   4.0034557834e-10
-1.8652014652e+02   4.0877337222e-10
-1.8642246642e+02   4.1730615487e-10
-1.8632478632e+02   4.2594367323e-10
-1.8622710623e+02   4.3468562870e-10
-1.8612942613e+02   4.4353167595e-10
-1.8603174603e+02   4.5248142181e-10
-1.8593406593e+02   4.6153442404e-10
-1.8583638584e+02   4.7069019019e-10
-1.8573870574e+02   4.7994817640e-10
-1.8564102564e+02   4.8930778619e-10
-1.8554334554e+02   4.9876836923e-10
-1.8544566545e+02   5.0832922013e-10
-1.8534798535e+02   5.1798957719e-10
-1.8525030525e+02   5.2774862115e-10
-1.8515262515e+02   5.3760547393e-10
-1.8505494505e+02   5.4755919739e-10
-1.8495726496e+02   5.5760879200e-10
-1.8485958486e+02   5.6775319560e-10
-1.8476190476e+02   5.7799128208e-10
-1.8466422466e+02   5.8832186009e-10
-1.8456654457e+02   5.9874367175e-10
-1.8446886447e+02   6.0925539129e-10
-1.8437118437e+02   6.1985562380e-10
-1.8427350427e+02   6.3054290382e-10
-1.8417582418e+02   6.4131569409e-10
-1.8407814408e+02   6.5217238420e-10
-1.8398046398e+02   6.6311128921e-10
-1.8388278388e+02   6.7413064838e-10
-1.8378510379e+02   6.8522862380e-10
-1.8368742369e+02   6.9640329904e-10
-1.8358974359e+02   7.0765267786e-10
-1.8349206349e+02   7.1897468283e-10
-1.8339438339e+02   7.3036715401e-10
-1.8329670330e+02   7.4182784764e-10
-1.8319902320e+02   7.5335443480e-10
-1.8310134310e+02   7.6494450009e-10
-1.8300366300e+02   7.7659554031e-10
-1.8290598291e+02   7.8830496318e-10
-1.8280830281e+02   8.0007008603e-10
-1.8271062271e+02   8.1188813448e-10
-1.8261294261e+02   8.2375624123e-10
-1.8251526252e+02   8.3567144474e-10
-1.8241758242e+02   8.4763068800e-10
-1.8231990232e+02   8.5963081728e-10
-1.8222222222e+02   8.7166858095e-10
-1.8212454212e+02   8.8374062821e-10
-1.8202686203e+02   8.9584350796e-10
-1.8192918193e+02   9.0797366761e-10
-1.8183150183e+02   9.2012745195e-10
-1.8173382173e+02   9.3230110202e-10
-1.8163614164e+02   9.4449075399e-10
-1.8153846154e+02   9.5669243815e-10
-1.8144078144e+02   9.6890207781e-10
-1.8134310134e+02   9.8111548831e-10
-1.8124542125e+02   9.9332837604e-10
-1.8114774115e+02   1.0055363375e-09
-1.8105006105e+02   1.0177348583e-09
-1.8095238095e+02   1.0299193124e-09
-1.8085470085e+02   1.0420849613e-09
-1.8075702076e+02   1.0542269530e-09
-1.8065934066e+02   1.0663403216e-09
-1.8056166056e+02   1.0784199861e-09
-1.8046398046e+02   1.0904607502e-09
-1.8036630037e+02   1.1024573015e-09
-1.8026862027e+02   1.1144042109e-09
-1.8017094017e+02   1.1262959321e-09
-1.8007326007e+02   1.1381268009e-09
-1.7997557998e+02   1.1498910355e-09
-1.7987789988e+02   1.1615827351e-09
-1.7978021978e+02   1.1731958807e-09
-1.7968253968e+02   1.1847243339e-09
-1.7958485958e+02   1.1961618375e-09
-1.7948717949e+02   1.2075020149e-09
-1.7938949939e+02   1.2187383703e-09
-1.7929181929e+02   1.2298642888e-09
-1.7919413919e+02   1.2408730362e-09
-1.7909645910e+02   1.2517577597e-09
-1.7899877900e+02   1.2625114877e-09
-1.7890109890e+02   1.2731271304e-09
-1.7880341880e+02   1.2835974801e-09
-1.7870573871e+02   1.2939152121e-09
-1.7860805861e+02   1.3040728847e-09
-1.7851037851e+02   1.3140629406e-09
-1.7841269841e+02   1.3238777070e-09
-1.7831501832e+02   1.3335093971e-09
-1.7821733822e+02   1.3429501109e-09
-1.7811965812e+02   1.3521918363e-09
-1.7802197802e+02   1.3612264500e-09
-1.7792429792e+02   1.3700457194e-09
-1.7782661783e+02   1.3786413037e-09
-1.7772893773e+02   1.3870047555e-09
-1.7763125763e+02   1.3951275224e-09
-1.7753357753e+02   1.4030009488e-09
-1.7743589744e+02   1.4106162781e-09
-1.7733821734e+02   1.4179646541e-09
-1.7724053724e+02   1.4250371237e-09
-1.7714285714e+02   1.4318246393e-09
-1.7704517705e+02   1.4383180604e-09
-1.7694749695e+02   1.4445081571e-09
-1.7684981685e+02   1.4503856123e-09
-1.7675213675e+02   1.4559410244e-09
-1.7665445665e+02   1.4611649109e-09
-1.7655677656e+02   1.4660477109e-09
-1.7645909646e+02   1.4705797884e-09
-1.7636141636e+02   1.4747514364e-09
-1.7626373626e+02   1.4785528795e-09
-1.7616605617e+02   1.4819742787e-09
-1.7606837607e+02   1.4850057342e-09
-1.7597069597e+02   1.4876372903e-09
-1.7587301587e+02   1.4898589394e-09
-1.7577533578e+02   1.4916606260e-09
-1.7567765568e+02   1.4930322520e-09
-1.7557997558e+02   1.4939636805e-09
-1.7548229548e+02   1.4944447417e-09
-1.7538461538e+02   1.4944652372e-09
-1.7528693529e+02   1.4940149456e-09
-1.7518925519e+02   1.4930836280e-09
-1.7509157509e+02   1.4916610332e-09
-1.7499389499e+02   1.4897369041e-09
-1.7489621490e+02   1.4873009833e-09
-1.7479853480e+02   1.4843430194e-09
-1.7470085470e+02   1.4808527732e-09
-1.7460317460e+02   1.4768200244e-09
-1.7450549451e+02   1.4722345785e-09
-1.7440781441e+02   1.4670862733e-09
-1.7431013431e+02   1.4613649864e-09
-1.7421245421e+02   1.4550606424e-09
-1.7411477411e+02   1.4481632205e-09
-1.7401709402e+02   1.4406627620e-09
-1.7391941392e+02   1.4325493783e-09
-1.7382173382e+02   1.4238132593e-09
-1.7372405372e+02   1.4144446813e-09
-1.7362637363e+02   1.4044340156e-09
-1.7352869353e+02   1.3937717373e-09
-1.7343101343e+02   1.3824484343e-09
-1.7333333333e+02   1.3704548160e-09
-1.7323565324e+02   1.3577817229e-09
-1.7313797314e+02   1.3444201362e-09
-1.7304029304e+02   1.3303611872e-09
-1.7294261294e+02   1.3155961670e-09
-1.7284493284e+02   1.3001165372e-09
-1.7274725275e+02   1.2839139396e-09
-1.7264957265e+02   1.2669802067e-09
-1.7255189255e+02   1.2493073727e-09
-1.7245421245e+02   1.2308876838e-09
-1.7235653236e+02   1.2117136095e-09
-1.7225885226e+02   1.1917778538e-09
-1.7216117216e+02   1.1710733663e-09
-1.7206349206e+02   1.1495933538e-09
-1.7196581197e+02   1.1273312923e-09
-1.7186813187e+02   1.1042809381e-09
-1.7177045177e+02   1.0804363407e-09
-1.7167277167e+02   1.0557918543e-09
-1.7157509158e+02   1.0303421504e-09
-1.7147741148e+02   1.0040822301e-09
-1.7137973138e+02   9.7700743692e-10
-1.7128205128e+02   9.4911346915e-10
-1.7118437118e+02   9.2039639307e-10
-1.7108669109e+02   8.9085265573e-10
-1.7098901099e+02   8.6047909809e-10
-1.7089133089e+02   8.2927296819e-10
-1.7079365079e+02   7.9723193445e-10
-1.7069597070e+02   7.6435409904e-10
-1.7059829060e+02   7.3063801138e-10
-1.7050061050e+02   6.9608268166e-10
-1.7040293040e+02   6.6068759442e-10
-1.7030525031e+02   6.2445272228e-10
-1.7020757021e+02   5.8737853958e-10
-1.7010989011e+02   5.4946603617e-10
-1.7001221001e+02   5.1071673115e-10
-1.6991452991e+02   4.7113268670e-10
-1.6981684982e+02   4.3071652183e-10
-1.6971916972e+02   3.8947142616e-10
-1.6962148962e+02   3.4740117373e-10
-1.6952380952e+02   3.0451013666e-10
-1.6942612943e+02   2.6080329889e-10
-1.6932844933e+02   2.1628626977e-10
-1.6923076923e+02   1.7096529762e-10
-1.6913308913e+02   1.2484728320e-10
-1.6903540904e+02   7.7939793057e-11
-1.6893772894e+02   3.0251072760e-11
-1.6884004884e+02   -1.8209939964e-11
-1.6874236874e+02   -6.7433602293e-11
-1.6864468864e+02   -1.1740955350e-10
-1.6854700855e+02   -1.6812670236e-10
-1.6844932845e+02   -2.1957321471e-10
-1.6835164835e+02   -2.7173650126e-10
-1.6825396825e+02   -3.2460320566e-10
-1.6815628816e+02   -3.7815919275e-10
-1.6805860806e+02   -4.3238953714e-10
-1.6796092796e+02   -4.8727851209e-10
-1.6786324786e+02   -5.4280957864e-10
-1.6776556777e+02   -5.9896537515e-10
-1.6766788767e+02   -6.5572770710e-10
-1.6757020757e+02   -7.1307753738e-10
-1.6747252747e+02   -7.7099497684e-10
-1.6737484737e+02   -8.2945927539e-10
-1.6727716728e+02   -8.8844881343e-10
-1.6717948718e+02   -9.4794109379e-10
-1.6708180708e+02   -1.0079127342e-09
-1.6698412698e+02   -1.0683394600e-09
-1.6688644689e+02   -1.1291960981e-09
-1.6678876679e+02   -1.1904565702e-09
-1.6669108669e+02   -1.2520938882e-09
-1.6659340659e+02   -1.3140801487e-09
-1.6649572650e+02   -1.3763865293e-09
-1.6639804640e+02   -1.4389832848e-09
-1.6630036630e+02   -1.5018397443e-09
-1.6620268620e+02   -1.5649243092e-09
-1.6610500611e+02   -1.6282044516e-09
-1.6600732601e+02   -1.6916467138e-09
-1.6590964591e+02   -1.7552167081e-09
-1.6581196581e+02   -1.8188791179e-09
-1.6571428571e+02   -1.8825976993e-09
-1.6561660562e+02   -1.9463352837e-09
-1.6551892552e+02   -2.0100537814e-09
-1.6542124542e+02   -2.0737141855e-09
-1.6532356532e+02   -2.1372765775e-09
-1.6522588523e+02   -2.2007001337e-09
-1.6512820513e+02   -2.2639431319e-09
-1.6503052503e+02   -2.3269629601e-09
-1.6493284493e+02   -2.3897161252e-09
-1.6483516484e+02   -2.4521582641e-09
-1.6473748474e+02   -2.5142441541e-09
-1.6463980464e+02   -2.5759277263e-09
-1.6454212454e+02   -2.6371620786e-09
-1.6444444444e+02   -2.6978994907e-09
-1.6434676435e+02   -2.7580914401e-09
-1.6424908425e+02   -2.8176886191e-09
-1.6415140415e+02   -2.8766409532e-09
-1.6405372405e+02   -2.9348976210e-09
-1.6395604396e+02   -2.9924070745e-09
-1.6385836386e+02   -3.0491170620e-09
-1.6376068376e+02   -3.1049746509e-09
-1.6366300366e+02   -3.1599262530e-09
-1.6356532357e+02   -3.2139176505e-09
-1.6346764347e+02   -3.2668940235e-09
-1.6336996337e+02   -3.3187999788e-09
-1.6327228327e+02   -3.3695795804e-09
-1.6317460317e+02   -3.4191763812e-09
-1.6307692308e+02   -3.4675334562e-09
-1.6297924298e+02   -3.5145934369e-09
-1.6288156288e+02   -3.5602985474e-09
-1.6278388278e+02   -3.6045906422e-09
-1.6268620269e+02   -3.6474112448e-09
-1.6258852259e+02   -3.6887015886e-09
-1.6249084249e+02   -3.7284026585e-09
-1.6239316239e+02   -3.7664552347e-09
-1.6229548230e+02   -3.8027999373e-09
-1.6219780220e+02   -3.8373772734e-09
-1.6210012210e+02   -3.8701276843e-09
-1.6200244200e+02   -3.9009915959e-09
-1.6190476190e+02   -3.9299094689e-09
-1.6180708181e+02   -3.9568218519e-09
-1.6170940171e+02   -3.9816694351e-09
-1.6161172161e+02   -4.0043931061e-09
-1.6151404151e+02   -4.0249340065e-09
-1.6141636142e+02   -4.0432335908e-09
-1.6131868132e+02   -4.0592336859e-09
-1.6122100122e+02   -4.0728765530e-09
-1.6112332112e+02   -4.0841049496e-09
-1.6102564103e+02   -4.0928621948e-09
-1.6092796093e+02   -4.0990922336e-09
-1.6083028083e+02   -4.1027397050e-09
-1.6073260073e+02   -4.1037500095e-09
-1.6063492063e+02   -4.1020693791e-09
-1.6053724054e+02   -4.0976449479e-09
-1.6043956044e+02   -4.0904248243e-09
-1.6034188034e+02   -4.0803581642e-09
-1.6024420024e+02   -4.0673952457e-09
-1.6014652015e+02   -4.0514875444e-09
-1.6004884005e+02   -4.0325878099e-09
-1.5995115995e+02   -4.0106501441e-09
-1.5985347985e+02   -3.9856300790e-09
-1.5975579976e+02   -3.9574846569e-09
-1.5965811966e+02   -3.9261725105e-09
-1.5956043956e+02   -3.8916539443e-09
-1.5946275946e+02   -3.8538910165e-09
-1.5936507937e+02   -3.8128476216e-09
-1.5926739927e+02   -3.7684895735e-09
-1.5916971917e+02   -3.7207846897e-09
-1.5907203907e+02   -3.6697028753e-09
-1.5897435897e+02   -3.6152162075e-09
-1.5887667888e+02   -3.5572990208e-09
-1.5877899878e+02   -3.4959279918e-09
-1.5868131868e+02   -3.4310822248e-09
-1.5858363858e+02   -3.3627433370e-09
-1.5848595849e+02   -3.2908955437e-09
-1.5838827839e+02   -3.2155257433e-09
-1.5829059829e+02   -3.1366236022e-09
-1.5819291819e+02   -3.0541816396e-09
-1.5809523810e+02   -2.9681953108e-09
-1.5799755800e+02   -2.8786630914e-09
-1.5789987790e+02   -2.7855865593e-09
-1.5780219780e+02   -2.6889704773e-09
-1.5770451770e+02   -2.5888228736e-09
-1.5760683761e+02   -2.4851551221e-09
-1.5750915751e+02   -2.3779820207e-09
-1.5741147741e+02   -2.2673218694e-09
-1.5731379731e+02   -2.1531965459e-09
-1.5721611722e+02   -2.0356315800e-09
-1.5711843712e+02   -1.9146562267e-09
-1.5702075702e+02   -1.7903035368e-09
-1.5692307692e+02   -1.6626104260e-09
-1.5682539683e+02   -1.5316177417e-09
-1.5672771673e+02   -1.3973703272e-09
-1.5663003663e+02   -1.2599170843e-09
-1.5653235653e+02   -1.1193110324e-09
-1.5643467643e+02   -9.7560936522e-10
-1.5633699634e+02   -8.2887350506e-10
-1.5623931624e+02   -6.7916915330e-10
-1.5614163614e+02   -5.2656633817e-10
-1.5604395604e+02   -3.7113945898e-10
-1.5594627595e+02   -2.1296732690e-10
-1.5584859585e+02   -5.2133201987e-11
-1.5575091575e+02   1.1127517360e-10
-1.5565323565e+02   2.7716554637e-10
-1.5555555556e+02   4.4544112651e-10
-1.5545787546e+02   6.1600056715e-10
-1.5536019536e+02   7.8873794825e-10
-1.5526251526e+02   9.6354276504e-10
-1.5516483516e+02   1.1402999213e-09
-1.5506715507e+02   1.3188897279e-09
-1.5496947497e+02   1.4991879059e-09
-1.5487179487e+02   1.6810655956e-09
-1.5477411477e+02   1.8643893708e-09
-1.5467643468e+02   2.0490212588e-09
-1.5457875458e+02   2.2348187658e-09
-1.5448107448e+02   2.4216349088e-09
-1.5438339438e+02   2.6093182534e-09
-1.5428571429e+02   2.7977129577e-09
-1.5418803419e+02   2.9866588227e-09
-1.5409035409e+02   3.1759913491e-09
-1.5399267399e+02   3.3655418015e-09
-1.5389499389e+02   3.5551372780e-09
-1.5379731380e+02   3.7446007882e-09
-1.5369963370e+02   3.9337513375e-09
-1.5360195360e+02   4.1224040184e-09
-1.5350427350e+02   4.3103701099e-09
-1.5340659341e+02   4.4974571835e-09
-1.5330891331e+02   4.6834692172e-09
-1.5321123321e+02   4.8682067168e-09
-1.5311355311e+02   5.0514668453e-09
-1.5301587302e+02   5.2330435594e-09
-1.5291819292e+02   5.4127277549e-09
-1.5282051282e+02   5.5903074187e-09
-1.5272283272e+02   5.7655677900e-09
-1.5262515263e+02   5.9382915284e-09
-1.5252747253e+02   6.1082588914e-09
-1.5242979243e+02   6.2752479187e-09
-1.5233211233e+02   6.4390346250e-09
-1.5223443223e+02   6.5993932016e-09
-1.5213675214e+02   6.7560962251e-09
-1.5203907204e+02   6.9089148747e-09
-1.5194139194e+02   7.0576191578e-09
-1.5184371184e+02   7.2019781429e-09
-1.5174603175e+02   7.3417602016e-09
-1.5164835165e+02   7.4767332569e-09
-1.5155067155e+02   7.6066650412e-09
-1.5145299145e+02   7.7313233608e-09
-1.5135531136e+02   7.8504763680e-09
-1.5125763126e+02   7.9638928418e-09
-1.5115995116e+02   8.0713424748e-09
-1.5106227106e+02   8.1725961681e-09
-1.5096459096e+02   8.2674263330e-09
-1.5086691087e+02   8.3556071994e-09
-1.5076923077e+02   8.4369151314e-09
-1.5067155067e+02   8.5111289493e-09
-1.5057387057e+02   8.5780302570e-09
-1.5047619048e+02   8.6374037769e-09
-1.5037851038e+02   8.6890376893e-09
-1.5028083028e+02   8.7327239780e-09
-1.5018315018e+02   8.7682587806e-09
-1.5008547009e+02   8.7954427442e-09
-1.4998778999e+02   8.8140813850e-09
-1.4989010989e+02   8.8239854528e-09
-1.4979242979e+02   8.8249712985e-09
-1.4969474969e+02   8.8168612458e-09
-1.4959706960e+02   8.7994839657e-09
-1.4949938950e+02   8.7726748531e-09
-1.4940170940e+02   8.7362764061e-09
-1.4930402930e+02   8.6901386072e-09
-1.4920634921e+02   8.6341193051e-09
-1.4910866911e+02   8.5680845973e-09
-1.4901098901e+02   8.4919092138e-09
-1.4891330891e+02   8.4054768992e-09
-1.4881562882e+02   8.3086807950e-09
-1.4871794872e+02   8.2014238198e-09
-1.4862026862e+02   8.0836190478e-09
-1.4852258852e+02   7.9551900847e-09
-1.4842490842e+02   7.8160714403e-09
-1.4832722833e+02   7.6662088974e-09
-1.4822954823e+02   7.5055598754e-09
-1.4813186813e+02   7.3340937904e-09
-1.4803418803e+02   7.1517924077e-09
-1.4793650794e+02   6.9586501886e-09
-1.4783882784e+02   6.7546746302e-09
-1.4774114774e+02   6.5398865965e-09
-1.4764346764e+02   6.3143206416e-09
-1.4754578755e+02   6.0780253227e-09
-1.4744810745e+02   5.8310635036e-09
-1.4735042735e+02   5.5735126469e-09
-1.4725274725e+02   5.3054650945e-09
-1.4715506716e+02   5.0270283357e-09
-1.4705738706e+02   4.7383252618e-09
-1.4695970696e+02   4.4394944071e-09
-1.4686202686e+02   4.1306901744e-09
-1.4676434676e+02   3.8120830456e-09
-1.4666666667e+02   3.4838597748e-09
-1.4656898657e+02   3.1462235653e-09
-1.4647130647e+02   2.7993942274e-09
-1.4637362637e+02   2.4436083184e-09
-1.4627594628e+02   2.0791192618e-09
-1.4617826618e+02   1.7061974470e-09
-1.4608058608e+02   1.3251303069e-09
-1.4598290598e+02   9.3622237411e-10
-1.4588522589e+02   5.3979531409e-10
-1.4578754579e+02   1.3618793439e-10
-1.4568986569e+02   -2.7424383009e-10
-1.4559218559e+02   -6.9112695708e-10
-1.4549450549e+02   -1.1140714027e-09
-1.4539682540e+02   -1.5426701940e-09
-1.4529914530e+02   -1.9764995481e-09
-1.4520146520e+02   -2.4151190200e-09
-1.4510378510e+02   -2.8580716785e-09
-1.4500610501e+02   -3.3048843114e-09
-1.4490842491e+02   -3.7550676600e-09
-1.4481074481e+02   -4.2081166851e-09
-1.4471306471e+02   -4.6635108623e-09
-1.4461538462e+02   -5.1207145100e-09
-1.4451770452e+02   -5.5791771487e-09
-1.4442002442e+02   -6.0383338922e-09
-1.4432234432e+02   -6.4976058724e-09
-1.4422466422e+02   -6.9564006963e-09
-1.4412698413e+02   -7.4141129366e-09
-1.4402930403e+02   -7.8701246561e-09
-1.4393162393e+02   -8.3238059660e-09
-1.4383394383e+02   -8.7745156175e-09
-1.4373626374e+02   -9.2216016286e-09
-1.4363858364e+02   -9.6644019441e-09
-1.4354090354e+02   -1.0102245131e-08
-1.4344322344e+02   -1.0534451106e-08
-1.4334554335e+02   -1.0960331900e-08
-1.4324786325e+02   -1.1379192454e-08
-1.4315018315e+02   -1.1790331451e-08
-1.4305250305e+02   -1.2193042177e-08
-1.4295482295e+02   -1.2586613422e-08
-1.4285714286e+02   -1.2970330406e-08
-1.4275946276e+02   -1.3343475745e-08
-1.4266178266e+02   -1.3705330439e-08
-1.4256410256e+02   -1.4055174901e-08
-1.4246642247e+02   -1.4392290012e-08
-1.4236874237e+02   -1.4715958199e-08
-1.4227106227e+02   -1.5025464556e-08
-1.4217338217e+02   -1.5320097978e-08
-1.4207570208e+02   -1.5599152332e-08
-1.4197802198e+02   -1.5861927647e-08
-1.4188034188e+02   -1.6107731333e-08
-1.4178266178e+02   -1.6335879419e-08
-1.4168498168e+02   -1.6545697817e-08
-1.4158730159e+02   -1.6736523605e-08
-1.4148962149e+02   -1.6907706323e-08
-1.4139194139e+02   -1.7058609299e-08
-1.4129426129e+02   -1.7188610976e-08
-1.4119658120e+02   -1.7297106265e-08
-1.4109890110e+02   -1.7383507900e-08
-1.4100122100e+02   -1.7447247814e-08
-1.4090354090e+02   -1.7487778510e-08
-1.4080586081e+02   -1.7504574450e-08
-1.4070818071e+02   -1.7497133443e-08
-1.4061050061e+02   -1.7464978028e-08
-1.4051282051e+02   -1.7407656872e-08
-1.4041514042e+02   -1.7324746147e-08
-1.4031746032e+02   -1.7215850914e-08
-1.4021978022e+02   -1.7080606496e-08
-1.4012210012e+02   -1.6918679833e-08
-1.4002442002e+02   -1.6729770838e-08
-1.3992673993e+02   -1.6513613719e-08
-1.3982905983e+02   -1.6269978298e-08
-1.3973137973e+02   -1.5998671300e-08
-1.3963369963e+02   -1.5699537615e-08
-1.3953601954e+02   -1.5372461540e-08
-1.3943833944e+02   -1.5017367983e-08
-1.3934065934e+02   -1.4634223639e-08
-1.3924297924e+02   -1.4223038124e-08
-1.3914529915e+02   -1.3783865070e-08
-1.3904761905e+02   -1.3316803180e-08
-1.3894993895e+02   -1.2821997234e-08
-1.3885225885e+02   -1.2299639044e-08
-1.3875457875e+02   -1.1749968358e-08
-1.3865689866e+02   -1.1173273708e-08
-1.3855921856e+02   -1.0569893199e-08
-1.3846153846e+02   -9.9402152292e-09
-1.3836385836e+02   -9.2846791564e-09
-1.3826617827e+02   -8.6037758828e-09
-1.3816849817e+02   -7.8980483751e-09
-1.3807081807e+02   -7.1680921062e-09
-1.3797313797e+02   -6.4145554189e-09
-1.3787545788e+02   -5.6381398083e-09
-1.3777777778e+02   -4.8396001183e-09
-1.3768009768e+02   -4.0197446515e-09
-1.3758241758e+02   -3.1794351882e-09
-1.3748473748e+02   -2.3195869114e-09
-1.3738705739e+02   -1.4411682360e-09
-1.3728937729e+02   -5.4520053941e-10
-1.3719169719e+02   3.6724220965e-10
-1.3709401709e+02   1.2950339263e-09
-1.3699633700e+02   2.2369969905e-09
-1.3689865690e+02   3.1919029366e-09
-1.3680097680e+02   4.1584732531e-09
-1.3670329670e+02   5.1353802952e-09
-1.3660561661e+02   6.1212483112e-09
-1.3650793651e+02   7.1146545842e-09
-1.3641025641e+02   8.1141306919e-09
-1.3631257631e+02   9.1181638840e-09
-1.3621489621e+02   1.0125198579e-08
-1.3611721612e+02   1.1133637981e-08
-1.3601953602e+02   1.2141845821e-08
-1.3592185592e+02   1.3148148212e-08
-1.3582417582e+02   1.4150835632e-08
-1.3572649573e+02   1.5148165030e-08
-1.3562881563e+02   1.6138362044e-08
-1.3553113553e+02   1.7119623350e-08
-1.3543345543e+02   1.8090119128e-08
-1.3533577534e+02   1.9047995640e-08
-1.3523809524e+02   1.9991377937e-08
-1.3514041514e+02   2.0918372674e-08
-1.3504273504e+02   2.1827071041e-08
-1.3494505495e+02   2.2715551809e-08
-1.3484737485e+02   2.3581884481e-08
-1.3474969475e+02   2.4424132553e-08
-1.3465201465e+02   2.5240356879e-08
-1.3455433455e+02   2.6028619133e-08
-1.3445665446e+02   2.6786985371e-08
-1.3435897436e+02   2.7513529685e-08
-1.3426129426e+02   2.8206337944e-08
-1.3416361416e+02   2.8863511622e-08
-1.3406593407e+02   2.9483171699e-08
-1.3396825397e+02   3.0063462640e-08
-1.3387057387e+02   3.0602556444e-08
-1.3377289377e+02   3.1098656746e-08
-1.3367521368e+02   3.1550002985e-08
-1.3357753358e+02   3.1954874613e-08
-1.3347985348e+02   3.2311595351e-08
-1.3338217338e+02   3.2618537477e-08
-1.3328449328e+02   3.2874126144e-08
-1.3318681319e+02   3.3076843714e-08
-1.3308913309e+02   3.3225234108e-08
-1.3299145299e+02   3.3317907154e-08
-1.3289377289e+02   3.3353542931e-08
-1.3279609280e+02   3.3330896104e-08
-1.3269841270e+02   3.3248800222e-08
-1.3260073260e+02   3.3106171997e-08
-1.3250305250e+02   3.2902015529e-08
-1.3240537241e+02   3.2635426485e-08
-1.3230769231e+02   3.2305596209e-08
-1.3221001221e+02   3.1911815761e-08
-1.3211233211e+02   3.1453479874e-08
-1.3201465201e+02   3.0930090808e-08
-1.3191697192e+02   3.0341262111e-08
-1.3181929182e+02   2.9686722248e-08
-1.3172161172e+02   2.8966318113e-08
-1.3162393162e+02   2.8180018397e-08
-1.3152625153e+02   2.7327916807e-08
-1.3142857143e+02   2.6410235121e-08
-1.3133089133e+02   2.5427326073e-08
-1.3123321123e+02   2.4379676050e-08
-1.3113553114e+02   2.3267907593e-08
-1.3103785104e+02   2.2092781698e-08
-1.3094017094e+02   2.0855199885e-08
-1.3084249084e+02   1.9556206052e-08
-1.3074481074e+02   1.8196988077e-08
-1.3064713065e+02   1.6778879178e-08
-1.3054945055e+02   1.5303359003e-08
-1.3045177045e+02   1.3772054457e-08
-1.3035409035e+02   1.2186740236e-08
-1.3025641026e+02   1.0549339080e-08
-1.3015873016e+02   8.8619217163e-09
-1.3006105006e+02   7.1267064960e-09
-1.2996336996e+02   5.3460587121e-09
-1.2986568987e+02   3.5224895880e-09
-1.2976800977e+02   1.6586549318e-09
-1.2967032967e+02   -2.4264655266e-10
-1.2957264957e+02   -2.1784753032e-09
-1.2947496947e+02   -4.1457532933e-09
-1.2937728938e+02   -6.1412667868e-09
-1.2927960928e+02   -8.1616694591e-09
-1.2918192918e+02   -1.0203485889e-08
-1.2908424908e+02   -1.2263115426e-08
-1.2898656899e+02   -1.4336836431e-08
-1.2888888889e+02   -1.6420810901e-08
-1.2879120879e+02   -1.8511089475e-08
-1.2869352869e+02   -2.0603616814e-08
-1.2859584860e+02   -2.2694237370e-08
-1.2849816850e+02   -2.4778701532e-08
-1.2840048840e+02   -2.6852672148e-08
-1.2830280830e+02   -2.8911731424e-08
-1.2820512821e+02   -3.0951388194e-08
-1.2810744811e+02   -3.2967085553e-08
-1.2800976801e+02   -3.4954208852e-08
-1.2791208791e+02   -3.6908094048e-08
-1.2781440781e+02   -3.8824036390e-08
-1.2771672772e+02   -4.0697299453e-08
-1.2761904762e+02   -4.2523124488e-08
-1.2752136752e+02   -4.4296740086e-08
-1.2742368742e+02   -4.6013372155e-08
-1.2732600733e+02   -4.7668254167e-08
-1.2722832723e+02   -4.9256637695e-08
-1.2713064713e+02   -5.0773803201e-08
-1.2703296703e+02   -5.2215071062e-08
-1.2693528694e+02   -5.3575812823e-08
-1.2683760684e+02   -5.4851462657e-08
-1.2673992674e+02   -5.6037528998e-08
-1.2664224664e+02   -5.7129606349e-08
-1.2654456654e+02   -5.8123387222e-08
-1.2644688645e+02   -5.9014674196e-08
-1.2634920635e+02   -5.9799392067e-08
-1.2625152625e+02   -6.0473600070e-08
-1.2615384615e+02   -6.1033504130e-08
-1.2605616606e+02   -6.1475469136e-08
-1.2595848596e+02   -6.1796031194e-08
-1.2586080586e+02   -6.1991909839e-08
-1.2576312576e+02   -6.2060020163e-08
-1.2566544567e+02   -6.1997484852e-08
-1.2556776557e+02   -6.1801646069e-08
-1.2547008547e+02   -6.1470077177e-08
-1.2537240537e+02   -6.1000594258e-08
-1.2527472527e+02   -6.0391267395e-08
-1.2517704518e+02   -5.9640431678e-08
-1.2507936508e+02   -5.8746697913e-08
-1.2498168498e+02   -5.7708962987e-08
-1.2488400488e+02   -5.6526419855e-08
-1.2478632479e+02   -5.5198567126e-08
-1.2468864469e+02   -5.3725218187e-08
-1.2459096459e+02   -5.2106509862e-08
-1.2449328449e+02   -5.0342910541e-08
-1.2439560440e+02   -4.8435227767e-08
-1.2429792430e+02   -4.6384615219e-08
-1.2420024420e+02   -4.4192579092e-08
-1.2410256410e+02   -4.1860983805e-08
-1.2400488400e+02   -3.9392057019e-08
-1.2390720391e+02   -3.6788393938e-08
-1.2380952381e+02   -3.4052960847e-08
-1.2371184371e+02   -3.1189097858e-08
-1.2361416361e+02   -2.8200520841e-08
-1.2351648352e+02   -2.5091322508e-08
-1.2341880342e+02   -2.1865972608e-08
-1.2332112332e+02   -1.8529317226e-08
-1.2322344322e+02   -1.5086577147e-08
-1.2312576313e+02   -1.1543345268e-08
-1.2302808303e+02   -7.9055830208e-09
-1.2293040293e+02   -4.1796158124e-09
-1.2283272283e+02   -3.7212743133e-10
-1.2273504274e+02   3.5098465721e-09
-1.2263736264e+02   7.4589265592e-09
-1.2253968254e+02   1.1467397538e-08
-1.2244200244e+02   1.5527218974e-08
-1.2234432234e+02   1.9630035678e-08
-1.2224664225e+02   2.3767189785e-08
-1.2214896215e+02   2.7929733822e-08
-1.2205128205e+02   3.2108444863e-08
-1.2195360195e+02   3.6293839770e-08
-1.2185592186e+02   4.0476191521e-08
-1.2175824176e+02   4.4645546607e-08
-1.2166056166e+02   4.8791743484e-08
-1.2156288156e+02   5.2904432081e-08
-1.2146520147e+02   5.6973094325e-08
-1.2136752137e+02   6.0987065684e-08
-1.2126984127e+02   6.4935557675e-08
-1.2117216117e+02   6.8807681341e-08
-1.2107448107e+02   7.2592471637e-08
-1.2097680098e+02   7.6278912709e-08
-1.2087912088e+02   7.9855964016e-08
-1.2078144078e+02   8.3312587261e-08
-1.2068376068e+02   8.6637774077e-08
-1.2058608059e+02   8.9820574427e-08
-1.2048840049e+02   9.2850125659e-08
-1.2039072039e+02   9.5715682164e-08
-1.2029304029e+02   9.8406645576e-08
-1.2019536020e+02   1.0091259545e-07
-1.2009768010e+02   1.0322332035e-07
-1.2000000000e+02   1.0532884929e-07
-1.1990231990e+02   1.0721948342e-07
-1.1980463980e+02   1.0888582795e-07
-1.1970695971e+02   1.1031882415e-07
-1.1960927961e+02   1.1150978139e-07
-1.1951159951e+02   1.1245040916e-07
-1.1941391941e+02   1.1313284889e-07
-1.1931623932e+02   1.1354970563e-07
-1.1921855922e+02   1.1369407934e-07
-1.1912087912e+02   1.1355959576e-07
-1.1902319902e+02   1.1314043688e-07
-1.1892551893e+02   1.1243137062e-07
-1.1882783883e+02   1.1142778003e-07
-1.1873015873e+02   1.1012569145e-07
-1.1863247863e+02   1.0852180196e-07
-1.1853479853e+02   1.0661350570e-07
-1.1843711844e+02   1.0439891915e-07
-1.1833943834e+02   1.0187690511e-07
-1.1824175824e+02   9.9047095475e-08
-1.1814407814e+02   9.5909912517e-08
-1.1804639805e+02   9.2466588647e-08
-1.1794871795e+02   8.8719184585e-08
-1.1785103785e+02   8.4670605797e-08
-1.1775335775e+02   8.0324617111e-08
-1.1765567766e+02   7.5685855415e-08
-1.1755799756e+02   7.0759840359e-08
-1.1746031746e+02   6.5552982947e-08
-1.1736263736e+02   6.0072591945e-08
-1.1726495726e+02   5.4326878022e-08
-1.1716727717e+02   4.8324955530e-08
-1.1706959707e+02   4.2076841867e-08
-1.1697191697e+02   3.5593454325e-08
-1.1687423687e+02   2.8886604380e-08
-1.1677655678e+02   2.1968989347e-08
-1.1667887668e+02   1.4854181345e-08
-1.1658119658e+02   7.5566135288e-09
-1.1648351648e+02   9.1563533737e-11
-1.1638583639e+02   -7.5248659016e-09
-1.1628815629e+02   -1.5275769162e-08
-1.1619047619e+02   -2.3143462860e-08
-1.1609279609e+02   -3.1109513833e-08
-1.1599511600e+02   -3.9154770041e-08
-1.1589743590e+02   -4.7259394362e-08
-1.1579975580e+02   -5.5402901290e-08
-1.1570207570e+02   -6.3564196494e-08
-1.1560439560e+02   -7.1721619241e-08
-1.1550671551e+02   -7.9852987625e-08
-1.1540903541e+02   -8.7935646568e-08
-1.1531135531e+02   -9.5946518539e-08
-1.1521367521e+02   -1.0386215692e-07
-1.1511599512e+02   -1.1165880197e-07
-1.1501831502e+02   -1.1931243924e-07
-1.1492063492e+02   -1.2679886042e-07
-1.1482295482e+02   -1.3409372653e-07
-1.1472527473e+02   -1.4117263314e-07
-1.1462759463e+02   -1.4801117785e-07
-1.1452991453e+02   -1.5458502953e-07
-1.1443223443e+02   -1.6086999941e-07
-1.1433455433e+02   -1.6684211379e-07
-1.1423687424e+02   -1.7247768820e-07
-1.1413919414e+02   -1.7775340282e-07
-1.1404151404e+02   -1.8264637907e-07
-1.1394383394e+02   -1.8713425698e-07
-1.1384615385e+02   -1.9119527344e-07
-1.1374847375e+02   -1.9480834076e-07
-1.1365079365e+02   -1.9795312564e-07
-1.1355311355e+02   -2.0061012811e-07
-1.1345543346e+02   -2.0276076032e-07
-1.1335775336e+02   -2.0438742490e-07
-1.1326007326e+02   -2.0547359258e-07
-1.1316239316e+02   -2.0600387898e-07
-1.1306471306e+02   -2.0596412013e-07
-1.1296703297e+02   -2.0534144657e-07
-1.1286935287e+02   -2.0412435566e-07
-1.1277167277e+02   -2.0230278203e-07
-1.1267399267e+02   -1.9986816559e-07
-1.1257631258e+02   -1.9681351714e-07
-1.1247863248e+02   -1.9313348104e-07
-1.1238095238e+02   -1.8882439483e-07
-1.1228327228e+02   -1.8388434552e-07
-1.1218559219e+02   -1.7831322208e-07
-1.1208791209e+02   -1.7211276416e-07
-1.1199023199e+02   -1.6528660651e-07
-1.1189255189e+02   -1.5784031897e-07
-1.1179487179e+02   -1.4978144173e-07
-1.1169719170e+02   -1.4111951561e-07
-1.1159951160e+02   -1.3186610714e-07
-1.1150183150e+02   -1.2203482814e-07
-1.1140415140e+02   -1.1164134965e-07
-1.1130647131e+02   -1.0070340992e-07
-1.1120879121e+02   -8.9240816283e-08
-1.1111111111e+02   -7.7275440791e-08
-1.1101343101e+02   -6.4831209277e-08
-1.1091575092e+02   -5.1934083822e-08
-1.1081807082e+02   -3.8612038409e-08
-1.1072039072e+02   -2.4895027646e-08
-1.1062271062e+02   -1.0814948451e-08
-1.1052503053e+02   3.5944054046e-09
-1.1042735043e+02   1.8297395969e-08
-1.1032967033e+02   3.3256601042e-08
-1.1023199023e+02   4.8432881418e-08
-1.1013431013e+02   6.3785455431e-08
-1.1003663004e+02   7.9271980805e-08
-1.0993894994e+02   9.4848643755e-08
-1.0984126984e+02   1.1047025530e-07
-1.0974358974e+02   1.2609035467e-07
-1.0964590965e+02   1.4166131974e-07
-1.0954822955e+02   1.5713448429e-07
-1.0945054945e+02   1.7246026197e-07
-1.0935286935e+02   1.8758827677e-07
-1.0925518926e+02   2.0246749977e-07
-1.0915750916e+02   2.1704639189e-07
-1.0905982906e+02   2.3127305244e-07
-1.0896214896e+02   2.4509537305e-07
-1.0886446886e+02   2.5846119677e-07
-1.0876678877e+02   2.7131848192e-07
-1.0866910867e+02   2.8361547022e-07
-1.0857142857e+02   2.9530085901e-07
-1.0847374847e+02   3.0632397686e-07
-1.0837606838e+02   3.1663496225e-07
-1.0827838828e+02   3.2618494485e-07
-1.0818070818e+02   3.3492622875e-07
-1.0808302808e+02   3.4281247724e-07
-1.0798534799e+02   3.4979889847e-07
-1.0788766789e+02   3.5584243150e-07
-1.0778998779e+02   3.6090193204e-07
-1.0769230769e+02   3.6493835732e-07
-1.0759462759e+02   3.6791494941e-07
-1.0749694750e+02   3.6979741641e-07
-1.0739926740e+02   3.7055411073e-07
-1.0730158730e+02   3.7015620384e-07
-1.0720390720e+02   3.6857785677e-07
-1.0710622711e+02   3.6579638574e-07
-1.0700854701e+02   3.6179242211e-07
-1.0691086691e+02   3.5655006591e-07
-1.0681318681e+02   3.5005703245e-07
-1.0671550672e+02   3.4230479103e-07
-1.0661782662e+02   3.3328869521e-07
-1.0652014652e+02   3.2300810392e-07
-1.0642246642e+02   3.1146649268e-07
-1.0632478632e+02   2.9867155420e-07
-1.0622710623e+02   2.8463528786e-07
-1.0612942613e+02   2.6937407721e-07
-1.0603174603e+02   2.5290875506e-07
-1.0593406593e+02   2.3526465538e-07
-1.0583638584e+02   2.1647165151e-07
-1.0573870574e+02   1.9656418019e-07
-1.0564102564e+02   1.7558125077e-07
-1.0554334554e+02   1.5356643910e-07
-1.0544566545e+02   1.3056786588e-07
-1.0534798535e+02   1.0663815871e-07
-1.0525030525e+02   8.1834397796e-08
-1.0515262515e+02   5.6218044795e-08
-1.0505494505e+02   2.9854854579e-08
-1.0495726496e+02   2.8147697393e-09
-1.0485958486e+02   -2.4828202389e-08
-1.0476190476e+02   -5.2996130266e-08
-1.0466422466e+02   -8.1607316304e-08
-1.0456654457e+02   -1.1057647264e-07
-1.0446886447e+02   -1.3981491446e-07
-1.0437118437e+02   -1.6923077067e-07
-1.0427350427e+02   -1.9872921187e-07
-1.0417582418e+02   -2.2821269516e-07
-1.0407814408e+02   -2.5758122556e-07
-1.0398046398e+02   -2.8673263365e-07
-1.0388278388e+02   -3.1556286887e-07
-1.0378510379e+02   -3.4396630795e-07
-1.0368742369e+02   -3.7183607788e-07
-1.0358974359e+02   -3.9906439274e-07
-1.0349206349e+02   -4.2554290344e-07
-1.0339438339e+02   -4.5116305982e-07
-1.0329670330e+02   -4.7581648397e-07
-1.0319902320e+02   -4.9939535378e-07
-1.0310134310e+02   -5.2179279588e-07
-1.0300366300e+02   -5.4290328659e-07
-1.0290598291e+02   -5.6262305985e-07
-1.0280830281e+02   -5.8085052080e-07
-1.0271062271e+02   -5.9748666374e-07
-1.0261294261e+02   -6.1243549311e-07
-1.0251526252e+02   -6.2560444597e-07
-1.0241758242e+02   -6.3690481460e-07
-1.0231990232e+02   -6.4625216761e-07
-1.0222222222e+02   -6.5356676808e-07
-1.0212454212e+02   -6.5877398700e-07
-1.0202686203e+02   -6.6180471043e-07
-1.0192918193e+02   -6.6259573869e-07
-1.0183150183e+02   -6.6109017588e-07
-1.0173382173e+02   -6.5723780796e-07
-1.0163614164e+02   -6.5099546771e-07
-1.0153846154e+02   -6.4232738473e-07
-1.0144078144e+02   -6.3120551890e-07
-1.0134310134e+02   -6.1760987530e-07
-1.0124542125e+02   -6.0152879916e-07
-1.0114774115e+02   -5.8295924883e-07
-1.0105006105e+02   -5.6190704529e-07
-1.0095238095e+02   -5.3838709649e-07
-1.0085470085e+02   -5.1242359480e-07
-1.0075702076e+02   -4.8405018619e-07
-1.0065934066e+02   -4.5331010948e-07
-1.0056166056e+02   -4.2025630426e-07
-1.0046398046e+02   -3.8495148613e-07
-1.0036630037e+02   -3.4746818793e-07
-1.0026862027e+02   -3.0788876574e-07
-1.0017094017e+02   -2.6630536859e-07
-1.0007326007e+02   -2.2281987078e-07
-9.9975579976e+01   -1.7754376602e-07
-9.9877899878e+01   -1.3059802247e-07
-9.9780219780e+01   -8.2112898096e-08
-9.9682539683e+01   -3.2227715809e-08
-9.9584859585e+01   1.8909402045e-08
-9.9487179487e+01   7.1141840092e-08
-9.9389499389e+01   1.2430483733e-07
-9.9291819292e+01   1.7822587546e-07
-9.9194139194e+01   2.3272510800e-07
-9.9096459096e+01   2.8761582975e-07
-9.8998778999e+01   3.4270498604e-07
-9.8901098901e+01   3.9779372119e-07
-9.8803418803e+01   4.5267796513e-07
-9.8705738706e+01   5.0714905718e-07
-9.8608058608e+01   5.6099440583e-07
-9.8510378510e+01   6.1399818292e-07
-9.8412698413e+01   6.6594205080e-07
-9.8315018315e+01   7.1660592047e-07
-9.8217338217e+01   7.6576873904e-07
-9.8119658120e+01   8.1320930395e-07
-9.8021978022e+01   8.5870710206e-07
-9.7924297924e+01   9.0204317077e-07
-9.7826617827e+01   9.4300097871e-07
-9.7728937729e+01   9.8136732307e-07
-9.7631257631e+01   1.0169332406e-06
-9.7533577534e+01   1.0494949294e-06
-9.7435897436e+01   1.0788546772e-06
-9.7338217338e+01   1.1048217948e-06
-9.7240537241e+01   1.1272135482e-06
-9.7142857143e+01   1.1458560889e-06
-9.7045177045e+01   1.1605853759e-06
-9.6947496947e+01   1.1712480871e-06
-9.6849816850e+01   1.1777025159e-06
-9.6752136752e+01   1.1798194485e-06
-9.6654456654e+01   1.1774830186e-06
-9.6556776557e+01   1.1705915339e-06
-9.6459096459e+01   1.1590582726e-06
-9.6361416361e+01   1.1428122435e-06
-9.6263736264e+01   1.1217989066e-06
-9.6166056166e+01   1.0959808505e-06
-9.6068376068e+01   1.0653384210e-06
-9.5970695971e+01   1.0298702988e-06
-9.5873015873e+01   9.8959402099e-07
-9.5775335775e+01   9.4454644253e-07
-9.5677655678e+01   8.9478413517e-07
-9.5579975580e+01   8.4038371875e-07
-9.5482295482e+01   7.8144212239e-07
-9.5384615385e+01   7.1807677191e-07
-9.5286935287e+01   6.5042570062e-07
-9.5189255189e+01   5.7864758039e-07
-9.5091575092e+01   5.0292167067e-07
-9.4993894994e+01   4.2344768280e-07
-9.4896214896e+01   3.4044555771e-07
-9.4798534799e+01   2.5415515512e-07
-9.4700854701e+01   1.6483585277e-07
-9.4603174603e+01   7.2766054423e-08
-9.4505494505e+01   -2.1757394091e-08
-9.4407814408e+01   -1.1841988138e-07
-9.4310134310e+01   -2.1688979958e-07
-9.4212454212e+01   -3.1681940589e-07
-9.4114774115e+01   -4.1784577572e-07
-9.4017094017e+01   -5.1959184656e-07
-9.3919413919e+01   -6.2166755107e-07
-9.3821733822e+01   -7.2367103736e-07
-9.3724053724e+01   -8.2518997434e-07
-9.3626373626e+01   -9.2580293925e-07
-9.3528693529e+01   -1.0250808842e-06
-9.3431013431e+01   -1.1225886782e-06
-9.3333333333e+01   -1.2178867205e-06
-9.3235653236e+01   -1.3105326204e-06
-9.3137973138e+01   -1.4000829399e-06
-9.3040293040e+01   -1.4860949919e-06
-9.2942612943e+01   -1.5681286895e-06
-9.2844932845e+01   -1.6457484403e-06
-9.2747252747e+01   -1.7185250785e-06
-9.2649572650e+01   -1.7860378276e-06
-9.2551892552e+01   -1.8478762877e-06
-9.2454212454e+01   -1.9036424381e-06
-9.2356532357e+01   -1.9529526491e-06
-9.2258852259e+01   -1.9954396924e-06
-9.2161172161e+01   -2.0307547439e-06
-9.2063492063e+01   -2.0585693683e-06
-9.1965811966e+01   -2.0785774779e-06
-9.1868131868e+01   -2.0904972549e-06
-9.1770451770e+01   -2.0940730298e-06
-9.1672771673e+01   -2.0890771042e-06
-9.1575091575e+01   -2.0753115106e-06
-9.1477411477e+01   -2.0526096977e-06
-9.1379731380e+01   -2.0208381337e-06
-9.1282051282e+01   -1.9798978160e-06
-9.1184371184e+01   -1.9297256791e-06
-9.1086691087e+01   -1.8702958918e-06
-9.0989010989e+01   -1.8016210326e-06
-9.0891330891e+01   -1.7237531371e-06
-9.0793650794e+01   -1.6367846063e-06
-9.0695970696e+01   -1.5408489693e-06
-9.0598290598e+01   -1.4361214912e-06
-9.0500610501e+01   -1.3228196195e-06
-9.0402930403e+01   -1.2012032620e-06
-9.0305250305e+01   -1.0715748881e-06
-9.0207570208e+01   -9.3427945004e-07
-9.0109890110e+01   -7.8970411653e-07
-9.0012210012e+01   -6.3827781495e-07
-8.9914529915e+01   -4.8047057801e-07
-8.9816849817e+01   -3.1679269139e-07
-8.9719169719e+01   -1.4779363986e-07
-8.9621489621e+01   2.5939149799e-08
-8.9523809524e+01   2.0378177018e-07
-8.9426129426e+01   3.8507549866e-07
-8.9328449328e+01   5.6912866620e-07
-8.9230769231e+01   7.5521872758e-07
-8.9133089133e+01   9.4259453025e-07
-8.9035409035e+01   1.1304787782e-06
-8.8937728938e+01   1.3180706858e-06
-8.8840048840e+01   1.5045488160e-06
-8.8742368742e+01   1.6890740962e-06
-8.8644688645e+01   1.8707930036e-06
-8.8547008547e+01   2.0488409117e-06
-8.8449328449e+01   2.2223455870e-06
-8.8351648352e+01   2.3904308267e-06
-8.8253968254e+01   2.5522202242e-06
-8.8156288156e+01   2.7068410493e-06
-8.8058608059e+01   2.8534282310e-06
-8.7960927961e+01   2.9911284259e-06
-8.7863247863e+01   3.1191041588e-06
-8.7765567766e+01   3.2365380169e-06
-8.7667887668e+01   3.3426368824e-06
-8.7570207570e+01   3.4366361834e-06
-8.7472527473e+01   3.5178041467e-06
-8.7374847375e+01   3.5854460309e-06
-8.7277167277e+01   3.6389083214e-06
-8.7179487179e+01   3.6775828670e-06
-8.7081807082e+01   3.7009109357e-06
-8.6984126984e+01   3.7083871709e-06
-8.6886446886e+01   3.6995634250e-06
-8.6788766789e+01   3.6740524493e-06
-8.6691086691e+01   3.6315314192e-06
-8.6593406593e+01   3.5717452725e-06
-8.6495726496e+01   3.4945098399e-06
-8.6398046398e+01   3.3997147468e-06
-8.6300366300e+01   3.2873260649e-06
-8.6202686203e+01   3.1573886941e-06
-8.6105006105e+01   3.0100284549e-06
-8.6007326007e+01   2.8454538724e-06
-8.5909645910e+01   2.6639576329e-06
-8.5811965812e+01   2.4659176974e-06
-8.5714285714e+01   2.2517980547e-06
-8.5616605617e+01   2.0221490987e-06
-8.5518925519e+01   1.7776076183e-06
-8.5421245421e+01   1.5188963842e-06
-8.5323565324e+01   1.2468233248e-06
-8.5225885226e+01   9.6228027998e-07
-8.5128205128e+01   6.6624132544e-07
-8.5030525031e+01   3.5976066252e-07
-8.4932844933e+01   4.3970068357e-08
-8.4835164835e+01   -2.7992409497e-07
-8.4737484737e+01   -6.1064431253e-07
-8.4639804640e+01   -9.4684578784e-07
-8.4542124542e+01   -1.2871207491e-06
-8.4444444444e+01   -1.6300031842e-06
-8.4346764347e+01   -1.9739739949e-06
-8.4249084249e+01   -2.3174665607e-06
-8.4151404151e+01   -2.6588726976e-06
-8.4053724054e+01   -2.9965489970e-06
-8.3956043956e+01   -3.3288235259e-06
-8.3858363858e+01   -3.6540028695e-06
-8.3760683761e+01   -3.9703794918e-06
-8.3663003663e+01   -4.2762393899e-06
-8.3565323565e+01   -4.5698700155e-06
-8.3467643468e+01   -4.8495684327e-06
-8.3369963370e+01   -5.1136496823e-06
-8.3272283272e+01   -5.3604553168e-06
-8.3174603175e+01   -5.5883620726e-06
-8.3076923077e+01   -5.7957906407e-06
-8.2979242979e+01   -5.9812144971e-06
-8.2881562882e+01   -6.1431687521e-06
-8.2783882784e+01   -6.2802589758e-06
-8.2686202686e+01   -6.3911699574e-06
-8.2588522589e+01   -6.4746743522e-06
-8.2490842491e+01   -6.5296411717e-06
-8.2393162393e+01   -6.5550440697e-06
-8.2295482295e+01   -6.5499693778e-06
-8.2197802198e+01   -6.5136238431e-06
-8.2100122100e+01   -6.4453420202e-06
-8.2002442002e+01   -6.3445932707e-06
-8.1904761905e+01   -6.2109883226e-06
-8.1807081807e+01   -6.0442853439e-06
-8.1709401709e+01   -5.8443954841e-06
-8.1611721612e+01   -5.6113878402e-06
-8.1514041514e+01   -5.3454938028e-06
-8.1416361416e+01   -5.0471107416e-06
-8.1318681319e+01   -4.7168049912e-06
-8.1221001221e+01   -4.3553140984e-06
-8.1123321123e+01   -3.9635482977e-06
-8.1025641026e+01   -3.5425911806e-06
-8.0927960928e+01   -3.0936995319e-06
-8.0830280830e+01   -2.6183023039e-06
-8.0732600733e+01   -2.1179987088e-06
-8.0634920635e+01   -1.5945554068e-06
-8.0537240537e+01   -1.0499027782e-06
-8.0439560440e+01   -4.8613026512e-07
-8.0341880342e+01   9.4519221346e-08
-8.0244200244e+01   6.8965583274e-07
-8.0146520147e+01   1.2967502502e-06
-8.0048840049e+01   1.9131420803e-06
-7.9951159951e+01   2.5360491672e-06
-7.9853479853e+01   3.1625778041e-06
-7.9755799756e+01   3.7897338224e-06
-7.9658119658e+01   4.4144345304e-06
-7.9560439560e+01   5.0335214682e-06
-7.9462759463e+01   5.6437739430e-06
-7.9365079365e+01   6.2419232988e-06
-7.9267399267e+01   6.8246678749e-06
-7.9169719170e+01   7.3886885964e-06
-7.9072039072e+01   7.9306651418e-06
-7.8974358974e+01   8.4472926201e-06
-7.8876678877e+01   8.9352986925e-06
-7.8778998779e+01   9.3914610636e-06
-7.8681318681e+01   9.8126252655e-06
-7.8583638584e+01   1.0195722653e-05
-7.8485958486e+01   1.0537788527e-05
-7.8388278388e+01   1.0835980291e-05
-7.8290598291e+01   1.1087595556e-05
-7.8192918193e+01   1.1290090095e-05
-7.8095238095e+01   1.1441095552e-05
-7.7997557998e+01   1.1538436800e-05
-7.7899877900e+01   1.1580148855e-05
-7.7802197802e+01   1.1564493245e-05
-7.7704517705e+01   1.1489973715e-05
-7.7606837607e+01   1.1355351191e-05
-7.7509157509e+01   1.1159657879e-05
-7.7411477411e+01   1.0902210405e-05
-7.7313797314e+01   1.0582621904e-05
-7.7216117216e+01   1.0200812949e-05
-7.7118437118e+01   9.7570212283e-06
-7.7020757021e+01   9.2518098858e-06
-7.6923076923e+01   8.6860744294e-06
-7.6825396825e+01   8.0610481277e-06
-7.6727716728e+01   7.3783058183e-06
-7.6630036630e+01   6.6397660525e-06
-7.6532356532e+01   5.8476915143e-06
-7.6434676435e+01   5.0046876516e-06
-7.6336996337e+01   4.1136994704e-06
-7.6239316239e+01   3.1780064480e-06
-7.6141636142e+01   2.2012155299e-06
-7.6043956044e+01   1.1872521849e-06
-7.5946275946e+01   1.4034950275e-07
-7.5848595849e+01   -9.3496467448e-07
-7.5750915751e+01   -2.0338825806e-06
-7.5653235653e+01   -3.1513333011e-06
-7.5555555556e+01   -4.2820014705e-06
-7.5457875458e+01   -5.4203478543e-06
-7.5360195360e+01   -6.5606317695e-06
-7.5262515263e+01   -7.6969352823e-06
-7.5164835165e+01   -8.8231891144e-06
-7.5067155067e+01   -9.9332001739e-06
-7.4969474969e+01   -1.1020680618e-05
-7.4871794872e+01   -1.2079278340e-05
-7.4774114774e+01   -1.3102608769e-05
-7.4676434676e+01   -1.4084287849e-05
-7.4578754579e+01   -1.5017966059e-05
-7.4481074481e+01   -1.5897363331e-05
-7.4383394383e+01   -1.6716304701e-05
-7.4285714286e+01   -1.7468756527e-05
-7.4188034188e+01   -1.8148863101e-05
-7.4090354090e+01   -1.8750983457e-05
-7.3992673993e+01   -1.9269728201e-05
-7.3894993895e+01   -1.9699996145e-05
-7.3797313797e+01   -2.0037010555e-05
-7.3699633700e+01   -2.0276354793e-05
-7.3601953602e+01   -2.0414007139e-05
-7.3504273504e+01   -2.0446374588e-05
-7.3406593407e+01   -2.0370325385e-05
-7.3308913309e+01   -2.0183220098e-05
-7.3211233211e+01   -1.9882940992e-05
-7.3113553114e+01   -1.9467919500e-05
-7.3015873016e+01   -1.8937161579e-05
-7.2918192918e+01   -1.8290270723e-05
-7.2820512821e+01   -1.7527468452e-05
-7.2722832723e+01   -1.6649612071e-05
-7.2625152625e+01   -1.5658209501e-05
-7.2527472527e+01   -1.4555431022e-05
-7.2429792430e+01   -1.3344117747e-05
-7.2332112332e+01   -1.2027786672e-05
-7.2234432234e+01   -1.0610632173e-05
-7.2136752137e+01   -9.0975238069e-06
-7.2039072039e+01   -7.4940003168e-06
-7.1941391941e+01   -5.8062597459e-06
-7.1843711844e+01   -4.0411455857e-06
-7.1746031746e+01   -2.2061289032e-06
-7.1648351648e+01   -3.0928641472e-07
-7.1550671551e+01   1.6407255084e-06
-7.1452991453e+01   3.6347008897e-06
-7.1355311355e+01   5.6629182225e-06
-7.1257631258e+01   7.7151785103e-06
-7.1159951160e+01   9.7808471937e-06
-7.1062271062e+01   1.1848899857e-05
-7.0964590965e+01   1.3907971581e-05
-7.0866910867e+01   1.5946409795e-05
-7.0769230769e+01   1.7952330429e-05
-7.0671550672e+01   1.9913677184e-05
-7.0573870574e+01   2.1818283661e-05
-7.0476190476e+01   2.3653938125e-05
-7.0378510379e+01   2.5408450594e-05
-7.0280830281e+01   2.7069721974e-05
-7.0183150183e+01   2.8625814904e-05
-7.0085470085e+01   3.0065025966e-05
-6.9987789988e+01   3.1375958907e-05
-6.9890109890e+01   3.2547598469e-05
-6.9792429792e+01   3.3569384451e-05
-6.9694749695e+01   3.4431285565e-05
-6.9597069597e+01   3.5123872674e-05
-6.9499389499e+01   3.5638390967e-05
-6.9401709402e+01   3.5966830619e-05
-6.9304029304e+01   3.6101995484e-05
-6.9206349206e+01   3.6037569362e-05
-6.9108669109e+01   3.5768179373e-05
-6.9010989011e+01   3.5289455980e-05
-6.8913308913e+01   3.4598089207e-05
-6.8815628816e+01   3.3691880590e-05
-6.8717948718e+01   3.2569790429e-05
-6.8620268620e+01   3.1231979899e-05
-6.8522588523e+01   2.9679847621e-05
-6.8424908425e+01   2.7916060271e-05
-6.8327228327e+01   2.5944576872e-05
-6.8229548230e+01   2.3770666406e-05
-6.8131868132e+01   2.1400918415e-05
-6.8034188034e+01   1.8843246298e-05
-6.7936507937e+01   1.6106883048e-05
-6.7838827839e+01   1.3202369177e-05
-6.7741147741e+01   1.0141532666e-05
-6.7643467643e+01   6.9374607564e-06
-6.7545787546e+01   3.6044635034e-06
-6.7448107448e+01   1.5802900605e-07
-6.7350427350e+01   -3.3852296944e-06
-6.7252747253e+01   -7.0076360194e-06
-6.7155067155e+01   -1.0690519481e-05
-6.7057387057e+01   -1.4414293397e-05
-6.6959706960e+01   -1.8158540519e-05
-6.6862026862e+01   -2.1902106315e-05
-6.6764346764e+01   -2.5623199642e-05
-6.6666666667e+01   -2.9299500438e-05
-6.6568986569e+01   -3.2908274050e-05
-6.6471306471e+01   -3.6426491737e-05
-6.6373626374e+01   -3.9830956844e-05
-6.6275946276e+01   -4.3098436097e-05
-6.6178266178e+01   -4.6205795397e-05
-6.6080586081e+01   -4.9130139474e-05
-6.5982905983e+01   -5.1848954687e-05
-6.5885225885e+01   -5.4340254234e-05
-6.5787545788e+01   -5.6582724984e-05
-6.5689865690e+01   -5.8555875105e-05
-6.5592185592e+01   -6.0240181638e-05
-6.5494505495e+01   -6.1617237132e-05
-6.5396825397e+01   -6.2669894414e-05
-6.5299145299e+01   -6.3382408593e-05
-6.5201465201e+01   -6.3740575311e-05
-6.5103785104e+01   -6.3731864319e-05
-6.5006105006e+01   -6.3345547391e-05
-6.4908424908e+01   -6.2572819623e-05
-6.4810744811e+01   -6.1406913155e-05
-6.4713064713e+01   -5.9843202377e-05
-6.4615384615e+01   -5.7879299689e-05
-6.4517704518e+01   -5.5515140917e-05
-6.4420024420e+01   -5.2753059508e-05
-6.4322344322e+01   -4.9597848683e-05
-6.4224664225e+01   -4.6056810751e-05
-6.4126984127e+01   -4.2139792851e-05
-6.4029304029e+01   -3.7859208443e-05
-6.3931623932e+01   -3.3230043925e-05
-6.3833943834e+01   -2.8269849836e-05
-6.3736263736e+01   -2.2998716169e-05
-6.3638583639e+01   -1.7439231402e-05
-6.3540903541e+01   -1.1616424944e-05
-6.3443223443e+01   -5.5576927812e-06
-6.3345543346e+01   7.0729379560e-07
-6.3247863248e+01   7.1466963969e-06
-6.3150183150e+01   1.3726634591e-05
-6.3052503053e+01   2.0411327617e-05
-6.2954822955e+01   2.7163252446e-05
-6.2857142857e+01   3.3943317787e-05
-6.2759462759e+01   4.0711053493e-05
-6.2661782662e+01   4.7424814743e-05
-6.2564102564e+01   5.4042000221e-05
-6.2466422466e+01   6.0519283439e-05
-6.2368742369e+01   6.6812856217e-05
-6.2271062271e+01   7.2878683209e-05
-6.2173382173e+01   7.8672766301e-05
-6.2075702076e+01   8.4151417546e-05
-6.1978021978e+01   8.9271539253e-05
-6.1880341880e+01   9.3990909710e-05
-6.1782661783e+01   9.8268472975e-05
-6.1684981685e+01   1.0206463103e-04
-6.1587301587e+01   1.0534153661e-04
-6.1489621490e+01   1.0806338480e-04
-6.1391941392e+01   1.1019670164e-04
-6.1294261294e+01   1.1171062780e-04
-6.1196581197e+01   1.1257719524e-04
-6.1098901099e+01   1.1277159508e-04
-6.1001221001e+01   1.1227243460e-04
-6.0903540904e+01   1.1106198128e-04
-6.0805860806e+01   1.0912639206e-04
-6.0708180708e+01   1.0645592577e-04
-6.0610500611e+01   1.0304513680e-04
-6.0512820513e+01   9.8893048223e-05
-6.0415140415e+01   9.4003302381e-05
-6.0317460317e+01   8.8384287462e-05
-6.0219780220e+01   8.2049238202e-05
-6.0122100122e+01   7.5016309307e-05
-6.0024420024e+01   6.7308620139e-05
-5.9926739927e+01   5.8954269396e-05
-5.9829059829e+01   4.9986318664e-05
-5.9731379731e+01   4.0442743844e-05
-5.9633699634e+01   3.0366353686e-05
-5.9536019536e+01   1.9804674774e-05
-5.9438339438e+01   8.8098025662e-06
-5.9340659341e+01   -2.5617817463e-06
-5.9242979243e+01   -1.4249428575e-05
-5.9145299145e+01   -2.6188571244e-05
-5.9047619048e+01   -3.8311010853e-05
-5.8949938950e+01   -5.0545234005e-05
-5.8852258852e+01   -6.2816762518e-05
-5.8754578755e+01   -7.5048533955e-05
-5.8656898657e+01   -8.7161311604e-05
-5.8559218559e+01   -9.9074122270e-05
-5.8461538462e+01   -1.1070472002e-04
-5.8363858364e+01   -1.2197007380e-04
-5.8266178266e+01   -1.3278687655e-04
-5.8168498168e+01   -1.4307207328e-04
-5.8070818071e+01   -1.5274340541e-04
-5.7973137973e+01   -1.6171996829e-04
-5.7875457875e+01   -1.6992277873e-04
-5.7777777778e+01   -1.7727534936e-04
-5.7680097680e+01   -1.8370426610e-04
-5.7582417582e+01   -1.8913976521e-04
-5.7484737485e+01   -1.9351630605e-04
-5.7387057387e+01   -1.9677313578e-04
-5.7289377289e+01   -1.9885484186e-04
-5.7191697192e+01   -1.9971188842e-04
-5.7094017094e+01   -1.9930113237e-04
-5.6996336996e+01   -1.9758631512e-04
-5.6898656899e+01   -1.9453852593e-04
-5.6800976801e+01   -1.9013663273e-04
-5.6703296703e+01   -1.8436767645e-04
-5.6605616606e+01   -1.7722722506e-04
-5.6507936508e+01   -1.6871968349e-04
-5.6410256410e+01   -1.5885855590e-04
-5.6312576313e+01   -1.4766665674e-04
-5.6214896215e+01   -1.3517626767e-04
-5.6117216117e+01   -1.2142923715e-04
-5.6019536020e+01   -1.0647702014e-04
-5.5921855922e+01   -9.0380655530e-05
-5.5824175824e+01   -7.3210679274e-05
-5.5726495726e+01   -5.5046971486e-05
-5.5628815629e+01   -3.5978536265e-05
-5.5531135531e+01   -1.6103213309e-05
-5.5433455433e+01   4.4726791484e-06
-5.5335775336e+01   2.5634770111e-05
-5.5238095238e+01   4.7261129872e-05
-5.5140415140e+01   6.9222831445e-05
-5.5042735043e+01   9.1384577991e-05
-5.4945054945e+01   1.1360539435e-04
-5.4847374847e+01   1.3573938028e-04
-5.4749694750e+01   1.5763652260e-04
-5.4652014652e+01   1.7914356266e-04
-5.4554334554e+01   2.0010491551e-04
-5.4456654457e+01   2.2036363616e-04
-5.4358974359e+01   2.3976242822e-04
-5.4261294261e+01   2.5814468948e-04
-5.4163614164e+01   2.7535558885e-04
-5.4065934066e+01   2.9124316823e-04
-5.3968253968e+01   3.0565946294e-04
-5.3870573871e+01   3.1846163362e-04
-5.3772893773e+01   3.2951310243e-04
-5.3675213675e+01   3.3868468581e-04
-5.3577533578e+01   3.4585571621e-04
-5.3479853480e+01   3.5091514451e-04
-5.3382173382e+01   3.5376261508e-04
-5.3284493284e+01   3.5430950512e-04
-5.3186813187e+01   3.5247991986e-04
-5.3089133089e+01   3.4821163536e-04
-5.2991452991e+01   3.4145698043e-04
-5.2893772894e+01   3.3218364965e-04
-5.2796092796e+01   3.2037543923e-04
-5.2698412698e+01   3.0603289811e-04
-5.2600732601e+01   2.8917388668e-04
-5.2503052503e+01   2.6983403606e-04
-5.2405372405e+01   2.4806710112e-04
-5.2307692308e+01   2.2394520115e-04
-5.2210012210e+01   1.9755894240e-04
-5.2112332112e+01   1.6901741747e-04
-5.2014652015e+01   1.3844807712e-04
-5.1916971917e+01   1.0599647096e-04
-5.1819291819e+01   7.1825853854e-05
-5.1721611722e+01   3.6116656260e-05
-5.1623931624e+01   -9.3418284655e-07
-5.1526251526e+01   -3.9114020744e-05
-5.1428571429e+01   -7.8195452710e-05
-5.1330891331e+01   -1.1793738913e-04
-5.1233211233e+01   -1.5808626528e-04
-5.1135531136e+01   -1.9837738018e-04
-5.1037851038e+01   -2.3853635964e-04
-5.0940170940e+01   -2.7828073791e-04
-5.0842490842e+01   -3.1732165099e-04
-5.0744810745e+01   -3.5536563380e-04
-5.0647130647e+01   -3.9211651236e-04
-5.0549450549e+01   -4.2727738105e-04
-5.0451770452e+01   -4.6055265414e-04
-5.0354090354e+01   -4.9165017992e-04
-5.0256410256e+01   -5.2028340462e-04
-5.0158730159e+01   -5.4617357283e-04
-5.0061050061e+01   -5.6905195012e-04
-4.9963369963e+01   -5.8866205299e-04
-4.9865689866e+01   -6.0476187063e-04
-4.9768009768e+01   -6.1712606253e-04
-4.9670329670e+01   -6.2554811538e-04
-4.9572649573e+01   -6.2984244267e-04
-4.9474969475e+01   -6.2984640985e-04
-4.9377289377e+01   -6.2542226807e-04
-4.9279609280e+01   -6.1645897939e-04
-4.9181929182e+01   -6.0287391660e-04
-4.9084249084e+01   -5.8461442090e-04
-4.8986568987e+01   -5.6165920127e-04
-4.8888888889e+01   -5.3401955978e-04
-4.8791208791e+01   -5.0174042770e-04
-4.8693528694e+01   -4.6490119824e-04
-4.8595848596e+01   -4.2361634248e-04
-4.8498168498e+01   -3.7803579628e-04
-4.8400488400e+01   -3.2834510697e-04
-4.8302808303e+01   -2.7476533019e-04
-4.8205128205e+01   -2.1755266830e-04
-4.8107448107e+01   -1.5699784385e-04
-4.8009768010e+01   -9.3425202654e-05
-4.7912087912e+01   -2.7191543402e-05
-4.7814407814e+01   4.1315328003e-05
-4.7716727717e+01   1.1167831875e-04
-4.7619047619e+01   1.8345304180e-04
-4.7521367521e+01   2.5617007636e-04
-4.7423687424e+01   3.2933748961e-04
-4.7326007326e+01   4.0244361096e-04
-4.7228327228e+01   4.7496004789e-04
-4.7130647131e+01   5.4634493026e-04
-4.7032967033e+01   6.1604636799e-04
-4.6935286935e+01   6.8350610460e-04
-4.6837606838e+01   7.4816334727e-04
-4.6739926740e+01   8.0945875186e-04
-4.6642246642e+01   8.6683853962e-04
-4.6544566545e+01   9.1975872014e-04
-4.6446886447e+01   9.6768939374e-04
-4.6349206349e+01   1.0101191046e-03
-4.6251526252e+01   1.0465592145e-03
-4.6153846154e+01   1.0765482664e-03
-4.6056166056e+01   1.0996563043e-03
-4.5958485958e+01   1.1154891173e-03
-4.5860805861e+01   1.1236923731e-03
-4.5763125763e+01   1.1239556065e-03
-4.5665445665e+01   1.1160160282e-03
-4.5567765568e+01   1.0996621196e-03
-4.5470085470e+01   1.0747369785e-03
-4.5372405372e+01   1.0411413815e-03
-4.5274725275e+01   9.9883653195e-04
-4.5177045177e+01   9.4784645828e-04
-4.5079365079e+01   8.8826003524e-04
-4.4981684982e+01   8.2023259678e-04
-4.4884004884e+01   7.4398711460e-04
-4.4786324786e+01   6.5981491723e-04
-4.4688644689e+01   5.6807592730e-04
-4.4590964591e+01   4.6919839725e-04
-4.4493284493e+01   3.6367812710e-04
-4.4395604396e+01   2.5207715064e-04
-4.4297924298e+01   1.3502188028e-04
-4.4200244200e+01   1.3200704281e-05
-4.4102564103e+01   -1.1263896602e-04
-4.4004884005e+01   -2.4169419728e-04
-4.3907203907e+01   -3.7311057775e-04
-4.3809523810e+01   -5.0598679304e-04
-4.3711843712e+01   -6.3937971976e-04
-4.3614163614e+01   -7.7231001782e-04
-4.3516483516e+01   -9.0376819792e-04
-4.3418803419e+01   -1.0327211363e-03
-4.3321123321e+01   -1.1581190044e-03
-4.3223443223e+01   -1.2789025760e-03
-4.3125763126e+01   -1.3940108719e-03
-4.3028083028e+01   -1.5023890953e-03
-4.2930402930e+01   -1.6029968108e-03
-4.2832722833e+01   -1.6948163116e-03
-4.2735042735e+01   -1.7768611206e-03
-4.2637362637e+01   -1.8481845653e-03
-4.2539682540e+01   -1.9078883627e-03
-4.2442002442e+01   -1.9551311518e-03
-4.2344322344e+01   -1.9891369040e-03
-4.2246642247e+01   -2.0092031455e-03
-4.2148962149e+01   -2.0147089190e-03
-4.2051282051e+01   -2.0051224165e-03
-4.1953601954e+01   -1.9800082110e-03
-4.1855921856e+01   -1.9390340175e-03
-4.1758241758e+01   -1.8819769134e-03
-4.1660561661e+01   -1.8087289496e-03
-4.1562881563e+01   -1.7193020880e-03
-4.1465201465e+01   -1.6138324002e-03
-4.1367521368e+01   -1.4925834680e-03
-4.1269841270e+01   -1.3559489300e-03
-4.1172161172e+01   -1.2044541211e-03
-4.1074481074e+01   -1.0387567588e-03
-4.0976800977e+01   -8.5964663465e-04
-4.0879120879e+01   -6.6804427593e-04
-4.0781440781e+01   -4.6499854816e-04
-4.0683760684e+01   -2.5168317750e-04
-4.0586080586e+01   -2.9392178655e-05
-4.0488400488e+01   2.0046581774e-04
-4.0390720391e+01   4.3637433599e-04
-4.0293040293e+01   6.7671691367e-04
-4.0195360195e+01   9.1978602762e-04
-4.0097680098e+01   1.1637930588e-03
-4.0000000000e+01   1.4068792577e-03
-3.9902319902e+01   1.6471276636e-03
-3.9804639805e+01   1.8825759201e-03
-3.9706959707e+01   2.1112299212e-03
-3.9609279609e+01   2.3310782138e-03
-3.9511599512e+01   2.5401070712e-03
-3.9413919414e+01   2.7363161471e-03
-3.9316239316e+01   2.9177346071e-03
-3.9218559219e+01   3.0824376314e-03
-3.9120879121e+01   3.2285631725e-03
-3.9023199023e+01   3.3543288457e-03
-3.8925518926e+01   3.4580488242e-03
-3.8827838828e+01   3.5381506066e-03
-3.8730158730e+01   3.5931915197e-03
-3.8632478632e+01   3.6218748145e-03
-3.8534798535e+01   3.6230652147e-03
-3.8437118437e+01   3.5958037724e-03
-3.8339438339e+01   3.5393218869e-03
-3.8241758242e+01   3.4530543426e-03
-3.8144078144e+01   3.3366512269e-03
-3.8046398046e+01   3.1899885872e-03
-3.7948717949e+01   3.0131776958e-03
-3.7851037851e+01   2.8065727949e-03
-3.7753357753e+01   2.5707772004e-03
-3.7655677656e+01   2.3066476531e-03
-3.7557997558e+01   2.0152968143e-03
-3.7460317460e+01   1.6980938147e-03
-3.7362637363e+01   1.3566627755e-03
-3.7264957265e+01   9.9287923657e-04
-3.7167277167e+01   6.0886443741e-04
-3.7069597070e+01   2.0697741423e-04
-3.6971916972e+01   -2.1019510837e-04
-3.6874236874e+01   -6.3985103583e-04
-3.6776556777e+01   -1.0789874193e-03
-3.6678876679e+01   -1.5244171368e-03
-3.6581196581e+01   -1.9727876912e-03
-3.6483516484e+01   -2.4206020534e-03
-3.6385836386e+01   -2.8642414661e-03
-3.6288156288e+01   -3.2999900967e-03
-3.6190476190e+01   -3.7240614151e-03
-3.6092796093e+01   -4.1326261486e-03
-3.5995115995e+01   -4.5218416506e-03
-3.5897435897e+01   -4.8878824988e-03
-3.5799755800e+01   -5.2269721238e-03
-3.5702075702e+01   -5.5354152521e-03
-3.5604395604e+01   -5.8096309290e-03
-3.5506715507e+01   -6.0461858793e-03
-3.5409035409e+01   -6.2418279436e-03
-3.5311355311e+01   -6.3935193227e-03
-3.5213675214e+01   -6.4984693503e-03
-3.5115995116e+01   -6.5541665083e-03
-3.5018315018e+01   -6.5584093918e-03
-3.4920634921e+01   -6.5093363297e-03
-3.4822954823e+01   -6.4054533655e-03
-3.4725274725e+01   -6.2456603030e-03
-3.4627594628e+01   -6.0292745264e-03
-3.4529914530e+01   -5.7560523125e-03
-3.4432234432e+01   -5.4262073587e-03
-3.4334554335e+01   -5.0404262642e-03
-3.4236874237e+01   -4.5998807170e-03
-3.4139194139e+01   -4.1062361536e-03
-3.4041514042e+01   -3.5616566816e-03
-3.3943833944e+01   -2.9688060738e-03
-3.3846153846e+01   -2.3308446717e-03
-3.3748473748e+01   -1.6514220584e-03
-3.3650793651e+01   -9.3466539547e-04
-3.3553113553e+01   -1.8516334577e-04
-3.3455433455e+01   5.9205445980e-04
-3.3357753358e+01   1.3915424189e-03
-3.3260073260e+01   2.2074683883e-03
-3.3162393162e+01   3.0336474811e-03
-3.3064713065e+01   3.8635801234e-03
-3.2967032967e+01   4.6904942236e-03
-3.2869352869e+01   5.5073912669e-03
-3.2771672772e+01   6.3070961087e-03
-3.2673992674e+01   7.0823101963e-03
-3.2576312576e+01   7.8256679138e-03
-3.2478632479e+01   8.5297957004e-03
-3.2380952381e+01   9.1873735615e-03
-3.2283272283e+01   9.7911985481e-03
-3.2185592186e+01   1.0334249754e-02
-3.2087912088e+01   1.0809754341e-02
-3.1990231990e+01   1.1211254083e-02
-3.1892551893e+01   1.1532671882e-02
-3.1794871795e+01   1.1768377699e-02
-3.1697191697e+01   1.1913253317e-02
-3.1599511600e+01   1.1962755338e-02
-3.1501831502e+01   1.1912975812e-02
-3.1404151404e+01   1.1760699897e-02
-3.1306471306e+01   1.1503459911e-02
-3.1208791209e+01   1.1139585215e-02
-3.1111111111e+01   1.0668247285e-02
-3.1013431013e+01   1.0089499431e-02
-3.0915750916e+01   9.4043105900e-03
-3.0818070818e+01   8.6145926562e-03
-3.0720390720e+01   7.7232208705e-03
-3.0622710623e+01   6.7340467921e-03
-3.0525030525e+01   5.6519034486e-03
-3.0427350427e+01   4.4826022954e-03
-3.0329670330e+01   3.2329216757e-03
-3.0231990232e+01   1.9105865294e-03
-3.0134310134e+01   5.2423916761e-04
-3.0036630037e+01   -9.1659900699e-04
-2.9938949939e+01   -2.4015748752e-03
-2.9841269841e+01   -3.9195600406e-03
-2.9743589744e+01   -5.4587162207e-03
-2.9645909646e+01   -7.0065693958e-03
-2.9548229548e+01   -8.5500924373e-03
-2.9450549451e+01   -1.0075795854e-02
-2.9352869353e+01   -1.1569826206e-02
-2.9255189255e+01   -1.3018071652e-02
-2.9157509158e+01   -1.4406274019e-02
-2.9059829060e+01   -1.5720146675e-02
-2.8962148962e+01   -1.6945497449e-02
-2.8864468864e+01   -1.8068355715e-02
-2.8766788767e+01   -1.9075102722e-02
-2.8669108669e+01   -1.9952604172e-02
-2.8571428571e+01   -2.0688343969e-02
-2.8473748474e+01   -2.1270558044e-02
-2.8376068376e+01   -2.1688367069e-02
-2.8278388278e+01   -2.1931906865e-02
-2.8180708181e+01   -2.1992455259e-02
-2.8083028083e+01   -2.1862554143e-02
-2.7985347985e+01   -2.1536125444e-02
-2.7887667888e+01   -2.1008579745e-02
-2.7789987790e+01   -2.0276916287e-02
-2.7692307692e+01   -1.9339813113e-02
-2.7594627595e+01   -1.8197706141e-02
-2.7496947497e+01   -1.6852856001e-02
-2.7399267399e+01   -1.5309401537e-02
-2.7301587302e+01   -1.3573398918e-02
-2.7203907204e+01   -1.1652845429e-02
-2.7106227106e+01   -9.5576870582e-03
-2.7008547009e+01   -7.2998091382e-03
-2.6910866911e+01   -4.8930093964e-03
-2.6813186813e+01   -2.3529529097e-03
-2.6715506716e+01   3.0289140946e-04
-2.6617826618e+01   3.0553330200e-03
-2.6520146520e+01   5.8835607176e-03
-2.6422466422e+01   8.7652622614e-03
-2.6324786325e+01   1.1676762395e-02
-2.6227106227e+01   1.4593178814e-02
-2.6129426129e+01   1.7488595468e-02
-2.6031746032e+01   2.0336252371e-02
-2.5934065934e+01   2.3108750954e-02
-2.5836385836e+01   2.5778273770e-02
-2.5738705739e+01   2.8316817213e-02
-2.5641025641e+01   3.0696435705e-02
-2.5543345543e+01   3.2889495674e-02
-2.5445665446e+01   3.4868937440e-02
-2.5347985348e+01   3.6608543007e-02
-2.5250305250e+01   3.8083207591e-02
-2.5152625153e+01   3.9269212605e-02
-2.5054945055e+01   4.0144497690e-02
-2.4957264957e+01   4.0688929292e-02
-2.4859584860e+01   4.0884563211e-02
-2.4761904762e+01   4.0715898459e-02
-2.4664224664e+01   4.0170119766e-02
-2.4566544567e+01   3.9237326025e-02
-2.4468864469e+01   3.7910741978e-02
-2.4371184371e+01   3.6186910492e-02
-2.4273504274e+01   3.4065862813e-02
-2.4175824176e+01   3.1551264281e-02
-2.4078144078e+01   2.8650533093e-02
-2.3980463980e+01   2.5374929844e-02
-2.3882783883e+01   2.1739615733e-02
-2.3785103785e+01   1.7763677516e-02
-2.3687423687e+01   1.3470117506e-02
-2.3589743590e+01   8.8858071714e-03
-2.3492063492e+01   4.0414031259e-03
-2.3394383394e+01   -1.0287753736e-03
-2.3296703297e+01   -6.2869080131e-03
-2.3199023199e+01   -1.1691874343e-02
-2.3101343101e+01   -1.7199493935e-02
-2.3003663004e+01   -2.2762805315e-02
-2.2905982906e+01   -2.8332382825e-02
-2.2808302808e+01   -3.3856690176e-02
-2.2710622711e+01   -3.9282469079e-02
-2.2612942613e+01   -4.4555160909e-02
-2.2515262515e+01   -4.9619358991e-02
-2.2417582418e+01   -5.4419288665e-02
-2.2319902320e+01   -5.8899311944e-02
-2.2222222222e+01   -6.3004453153e-02
-2.2124542125e+01   -6.6680941613e-02
-2.2026862027e+01   -6.9876767081e-02
-2.1929181929e+01   -7.2542243317e-02
-2.1831501832e+01   -7.4630574905e-02
-2.1733821734e+01   -7.6098422153e-02
-2.1636141636e+01   -7.6906458688e-02
-2.1538461538e+01   -7.7019916196e-02
-2.1440781441e+01   -7.6409110594e-02
-2.1343101343e+01   -7.5049943836e-02
-2.1245421245e+01   -7.2924375520e-02
-2.1147741148e+01   -7.0020858455e-02
-2.1050061050e+01   -6.6334732436e-02
-2.0952380952e+01   -6.1868570566e-02
-2.0854700855e+01   -5.6632472675e-02
-2.0757020757e+01   -5.0644300607e-02
-2.0659340659e+01   -4.3929850452e-02
-2.0561660562e+01   -3.6522957175e-02
-2.0463980464e+01   -2.8465527492e-02
-2.0366300366e+01   -1.9807497358e-02
-2.0268620269e+01   -1.0606710936e-02
-2.0170940171e+01   -9.2871856092e-04
-2.0073260073e+01   9.1535081971e-03
-1.9975579976e+01   1.9559945505e-02
-1.9877899878e+01   3.0203970716e-02
-1.9780219780e+01   4.0992899921e-02
-1.9682539683e+01   5.1828608409e-02
-1.9584859585e+01   6.2608232026e-02
-1.9487179487e+01   7.3224946490e-02
-1.9389499389e+01   8.3568820896e-02
-1.9291819292e+01   9.3527740712e-02
-1.9194139194e+01   1.0298839467e-01
-1.9096459096e+01   1.1183731913e-01
-1.8998778999e+01   1.1996199245e-01
-1.8901098901e+01   1.2725197140e-01
-1.8803418803e+01   1.3360006045e-01
-1.8705738706e+01   1.3890350422e-01
-1.8608058608e+01   1.4306519274e-01
-1.8510378510e+01   1.4599486841e-01
-1.8412698413e+01   1.4761032291e-01
-1.8315018315e+01   1.4783857208e-01
-1.8217338217e+01   1.4661699621e-01
-1.8119658120e+01   1.4389443294e-01
-1.8021978022e+01   1.3963220982e-01
-1.7924297924e+01   1.3380510346e-01
-1.7826617827e+01   1.2640221242e-01
-1.7728937729e+01   1.1742773096e-01
-1.7631257631e+01   1.0690161131e-01
-1.7533577534e+01   9.4860102355e-02
-1.7435897436e+01   8.1356153595e-02
-1.7338217338e+01   6.6459673497e-02
-1.7240537241e+01   5.0257632718e-02
-1.7142857143e+01   3.2854003409e-02
-1.7045177045e+01   1.4369527091e-02
-1.6947496947e+01   -5.0586951260e-03
-1.6849816850e+01   -2.5277794759e-02
-1.6752136752e+01   -4.6119913863e-02
-1.6654456654e+01   -6.7403170202e-02
-1.6556776557e+01   -8.8932809487e-02
-1.6459096459e+01   -1.1050254263e-01
-1.6361416361e+01   -1.3189606406e-01
-1.6263736264e+01   -1.5288874500e-01
-1.6166056166e+01   -1.7324949391e-01
-1.6068376068e+01   -1.9274277369e-01
-1.5970695971e+01   -2.1113076376e-01
-1.5873015873e+01   -2.2817565248e-01
-1.5775335775e+01   -2.4364204390e-01
-1.5677655678e+01   -2.5729946025e-01
-1.5579975580e+01   -2.6892492028e-01
-1.5482295482e+01   -2.7830557113e-01
-1.5384615385e+01   -2.8524135027e-01
-1.5286935287e+01   -2.8954765211e-01
-1.5189255189e+01   -2.9105797266e-01
-1.5091575092e+01   -2.8962650445e-01
-1.4993894994e+01   -2.8513065283e-01
-1.4896214896e+01   -2.7747344420e-01
-1.4798534799e+01   -2.6658579598e-01
-1.4700854701e+01   -2.5242861820e-01
-1.4603174603e+01   -2.3499471643e-01
-1.4505494505e+01   -2.1431046633e-01
-1.4407814408e+01   -1.9043723061e-01
-1.4310134310e+01   -1.6347249045e-01
-1.4212454212e+01   -1.3355066460e-01
-1.4114774115e+01   -1.0084359120e-01
-1.4017094017e+01   -6.5560649401e-02
-1.3919413919e+01   -2.7948500253e-02
-1.3821733822e+01   1.1709570887e-02
-1.3724053724e+01   5.3094725155e-02
-1.3626373626e+01   9.5854065460e-02
-1.3528693529e+01   1.3960256385e-01
-1.3431013431e+01   1.8392542456e-01
-1.3333333333e+01   2.2838088213e-01
-1.3235653236e+01   2.7250342939e-01
-1.3137973138e+01   3.1580746558e-01
-1.3040293040e+01   3.5779134997e-01
-1.2942612943e+01   3.9794184117e-01
-1.2844932845e+01   4.3573889763e-01
-1.2747252747e+01   4.7066080943e-01
-1.2649572650e+01   5.0218962644e-01
-1.2551892552e+01   5.2981684299e-01
-1.2454212454e+01   5.5304929416e-01
-1.2356532357e+01   5.7141521415e-01
-1.2258852259e+01   5.8447040264e-01
-1.2161172161e+01   5.9180444085e-01
-1.2063492063e+01   5.9304689507e-01
-1.1965811966e+01   5.8787344213e-01
-1.1868131868e+01   5.7601184809e-01
-1.1770451770e+01   5.5724772923e-01
-1.1672771673e+01   5.3143002210e-01
-1.1575091575e+01   4.9847608878e-01
-1.1477411477e+01   4.5837638230e-01
-1.1379731380e+01   4.1119859777e-01
-1.1282051282e+01   3.5709123558e-01
-1.1184371184e+01   2.9628650484e-01
-1.1086691087e+01   2.2910249771e-01
-1.0989010989e+01   1.5594456903e-01
-1.0891330891e+01   7.7305859645e-02
-1.0793650794e+01   -6.2330924747e-03
-1.0695970696e+01   -9.4005703450e-02
-1.0598290598e+01   -1.8526169987e-01
-1.0500610501e+01   -2.7917051533e-01
-1.0402930403e+01   -3.7482575334e-01
-1.0305250305e+01   -4.7125073326e-01
-1.0207570208e+01   -5.6740512545e-01
-1.0109890110e+01   -6.6219267108e-01
-1.0012210012e+01   -7.5446996989e-01
-9.9145299145e+00   -8.4305630754e-01
-9.8168498168e+00   -9.2674448088e-01
-9.7191697192e+00   -1.0043125670e+00
-9.6214896215e+00   -1.0745365682e+00
-9.5238095238e+00   -1.1362038514e+00
-9.4261294261e+00   -1.1881272880e+00
-9.3284493284e+00   -1.2291599858e+00
-9.2307692308e+00   -1.2582104915e+00
-9.1330891331e+00   -1.2742583313e+00
-9.0354090354e+00   -1.2763697424e+00
-8.9377289377e+00   -1.2637134403e+00
-8.8400488400e+00   -1.2355762516e+00
-8.7423687424e+00   -1.1913784394e+00
-8.6446886447e+00   -1.1306885320e+00
-8.5470085470e+00   -1.0532374672e+00
-8.4493284493e+00   -9.5893185253e-01
-8.3516483516e+00   -8.4786614284e-01
-8.2539682540e+00   -7.2033353202e-01
-8.1562881563e+00   -5.7683535808e-01
-8.0586080586e+00   -4.1808882184e-01
-7.9609279609e+00   -2.4503282475e-01
-7.8632478632e+00   -5.8831738147e-02
-7.7655677656e+00   1.3912307446e-01
-7.6678876679e+00   3.4721414859e-01
-7.5702075702e+00   5.6360137586e-01
-7.4725274725e+00   7.8622816250e-01
-7.3748473748e+00   1.0128304056e+00
-7.2771672772e+00   1.2409483819e+00
-7.1794871795e+00   1.4679416187e+00
-7.0818070818e+00   1.6910067927e+00
-6.9841269841e+00   1.9071986701e+00
-6.8864468864e+00   2.1134540737e+00
-6.7887667888e+00   2.3066188295e+00
-6.6910866911e+00   2.4834776091e+00
-6.5934065934e+00   2.6407865519e+00
-6.4957264957e+00   2.7753085105e+00
-6.3980463980e+00   2.8838507278e+00
-6.3003663004e+00   2.9633047156e+00
-6.2026862027e+00   3.0106880631e+00
-6.1050061050e+00   3.0231878705e+00
-6.0073260073e+00   2.9982054597e+00
-5.9096459096e+00   2.9334019823e+00
-5.8119658120e+00   2.8267445054e+00
-5.7142857143e+00   2.6765521257e+00
-5.6166056166e+00   2.4815416298e+00
-5.5189255189e+00   2.2408721904e+00
-5.4212454212e+00   1.9541885638e+00
-5.3235653236e+00   1.6216622331e+00
-5.2258852259e+00   1.2440299244e+00
-5.1282051282e+00   8.2262891137e-01
-5.0305250305e+00   3.5942851832e-01
-4.9328449328e+00   -1.4294277151e-01
-4.8351648352e+00   -6.8117518787e-01
-4.7374847375e+00   -1.2512611010e+00
-4.6398046398e+00   -1.8484845604e+00
-4.5421245421e+00   -2.4674174751e+00
-4.4444444444e+00   -3.1019229307e+00
-4.3467643468e+00   -3.7451660993e+00
-4.2490842491e+00   -4.3896331443e+00
-4.1514041514e+00   -5.0271584691e+00
-4.0537240537e+00   -5.6489605856e+00
-3.9560439560e+00   -6.2456868073e+00
-3.8583638584e+00   -6.8074668837e+00
-3.7606837607e+00   -7.3239755976e+00
-3.6630036630e+00   -7.7845042442e+00
-3.5653235653e+00   -8.1780407923e+00
-3.4676434676e+00   -8.4933584052e+00
-3.3699633700e+00   -8.7191118579e+00
-3.2722832723e+00   -8.8439412346e+00
-3.1746031746e+00   -8.8565821273e+00
-3.0769230769e+00   -8.7459813657e+00
-2.9792429792e+00   -8.5014171052e+00
-2.8815628816e+00   -8.1126218650e+00
-2.7838827839e+00   -7.5699068391e+00
-2.6862026862e+00   -6.8642854922e+00
-2.5885225885e+00   -5.9875940828e+00
-2.4908424908e+00   -4.9326063129e+00
-2.3931623932e+00   -3.6931387592e+00
-2.2954822955e+00   -2.2641430703e+00
-2.1978021978e+00   -6.4178006769e-01
-2.1001221001e+00   1.1765301714e+00
-2.0024420024e+00   3.1920895166e+00
-1.9047619048e+00   5.4049432211e+00
-1.8070818071e+00   7.8139526010e+00
-1.7094017094e+00   1.0416932387e+01
-1.6117216117e+00   1.3210868772e+01
-1.5140415140e+00   1.6192236361e+01
-1.4163614164e+00   1.9357432628e+01
-1.3186813187e+00   2.2703343893e+01
-1.2210012210e+00   2.6228040573e+01
-1.1233211233e+00   2.9931557663e+01
-1.0256410256e+00   3.3816621728e+01
-9.2796092796e-01   3.7888986487e+01
-8.3028083028e-01   4.2156645241e+01
-7.3260073260e-01   4.6626465935e+01
-6.3492063492e-01   5.1295619470e+01
-5.3724053724e-01   5.6133695164e+01
-4.3956043956e-01   6.1050837350e+01
-3.4188034188e-01   6.5851398194e+01
-2.4420024420e-01   7.0188406062e+01
-1.4652014652e-01   7.3563748256e+01
-4.8840048840e-02   7.5435586238e+01
4.8840048840e-02   7.5435586238e+01
1.4652014652e-01   7.3563748256e+01
2.4420024420e-01   7.0188406062e+01
3.4188034188e-01   6.5851398194e+01
4.3956043956e-01   6.1050837350e+01
5.3724053724e-01   5.6133695164e+01
6.3492063492e-01   5.1295619470e+01
7.3260073260e-01   4.6626465935e+01
8.3028083028e-01   4.2156645241e+01
9.2796092796e-01   3.7888986487e+01
1.0256410256e+00   3.3816621728e+01
1.1233211233e+00   2.9931557663e+01
1.2210012210e+00   2.6228040573e+01
1.3186813187e+00   2.2703343893e+01
1.4163614164e+00   1.9357432628e+01
1.5140415140e+00   1.6192236361e+01
1.6117216117e+00   1.3210868772e+01
1.7094017094e+00   1.0416932387e+01
1.8070818071e+00   7.8139526010e+00
1.9047619048e+00   5.4049432211e+00
2.0024420024e+00   3.1920895166e+00
2.1001221001e+00   1.1765301714e+00
2.1978021978e+00   -6.4178006769e-01
2.2954822955e+00   -2.2641430703e+00
2.3931623932e+00   -3.6931387592e+00
2.4908424908e+00   -4.9326063129e+00
2.5885225885e+00   -5.9875940828e+00
2.6862026862e+00   -6.8642854922e+00
2.7838827839e+00   -7.5699068391e+00
2.8815628816e+00   -8.1126218650e+00
2.9792429792e+00   -8.5014171052e+00
3.0769230769e+00   -8.7459813657e+00
3.1746031746e+00   -8.8565821273e+00
3.2722832723e+00   -8.8439412346e+00
3.3699633700e+00   -8.7191118579e+00
3.4676434676e+00   -8.4933584052e+00
3.5653235653e+00   -8.1780407923e+00
3.6630036630e+00   -7.7845042442e+00
3.7606837607e+00   -7.3239755976e+00
3.8583638584e+00   -6.8074668837e+00
3.9560439560e+00   -6.2456868073e+00
4.0537240537e+00   -5.6489605856e+00
4.1514041514e+00   -5.0271584691e+00
4.2490842491e+00   -4.3896331443e+00
4.3467643468e+00   -3.7451660993e+00
4.4444444444e+00   -3.1019229307e+00
4.5421245421e+00   -2.4674174751e+00
4.6398046398e+00   -1.8484845604e+00
4.7374847375e+00   -1.2512611010e+00
4.8351648352e+00   -6.8117518787e-01
4.9328449328e+00   -1.4294277151e-01
5.0305250305e+00   3.5942851832e-01
5.1282051282e+00   8.2262891137e-01
5.2258852259e+00   1.2440299244e+00
5.3235653236e+00   1.6216622331e+00
5.4212454212e+00   1.9541885638e+00
5.5189255189e+00   2.2408721904e+00
5.6166056166e+00   2.4815416298e+00
5.7142857143e+00   2.6765521257e+00
5.8119658120e+00   2.8267445054e+00
5.9096459096e+00   2.9334019823e+00
6.0073260073e+00   2.9982054597e+00
6.1050061050e+00   3.0231878705e+00
6.2026862027e+00   3.0106880631e+00
6.3003663004e+00   2.9633047156e+00
6.3980463980e+00   2.8838507278e+00
6.4957264957e+00   2.7753085105e+00
6.5934065934e+00   2.6407865519e+00
6.6910866911e+00   2.4834776091e+00
6.7887667888e+00   2.3066188295e+00
6.8864468864e+00   2.1134540737e+00
6.9841269841e+00   1.9071986701e+00
7.0818070818e+00   1.6910067927e+00
7.1794871795e+00   1.4679416187e+00
7.2771672772e+00   1.2409483819e+00
7.3748473748e+00   1.0128304056e+00
7.4725274725e+00   7.8622816250e-01
7.5702075702e+00   5.6360137586e-01
7.6678876679e+00   3.4721414859e-01
7.7655677656e+00   1.3912307446e-01
7.8632478632e+00   -5.8831738147e-02
7.9609279609e+00   -2.4503282475e-01
8.0586080586e+00   -4.1808882184e-01
8.1562881563e+00   -5.7683535808e-01
8.2539682540e+00   -7.2033353202e-01
8.3516483516e+00   -8.4786614284e-01
8.4493284493e+00   -9.5893185253e-01
8.5470085470e+00   -1.0532374672e+00
8.6446886447e+00   -1.1306885320e+00
8.7423687424e+00   -1.1913784394e+00
8.8400488400e+00   -1.2355762516e+00
8.9377289377e+00   -1.2637134403e+00
9.0354090354e+00   -1.2763697424e+00
9.1330891331e+00   -1.2742583313e+00
9.2307692308e+00   -1.2582104915e+00
9.3284493284e+00   -1.2291599858e+00
9.4261294261e+00   -1.1881272880e+00
9.5238095238e+00   -1.1362038514e+00
9.6214896215e+00   -1.0745365682e+00
9.7191697192e+00   -1.0043125670e+00
9.8168498168e+00   -9.2674448088e-01
9.9145299145e+00   -8.4305630754e-01
1.0012210012e+01   -7.5446996989e-01
1.0109890110e+01   -6.6219267108e-01
1.0207570208e+01   -5.6740512545e-01
1.0305250305e+01   -4.7125073326e-01
1.0402930403e+01   -3.7482575334e-01
1.0500610501e+01   -2.7917051533e-01
1.0598290598e+01   -1.8526169987e-01
1.0695970696e+01   -9.4005703450e-02
1.0793650794e+01   -6.2330924747e-03
1.0891330891e+01   7.7305859645e-02
1.0989010989e+01   1.5594456903e-01
1.1086691087e+01   2.2910249771e-01
1.1184371184e+01   2.9628650484e-01
1.1282051282e+01   3.5709123558e-01
1.1379731380e+01   4.1119859777e-01
1.1477411477e+01   4.5837638230e-01
1.1575091575e+01   4.9847608878e-01
1.1672771673e+01   5.3143002210e-01
1.1770451770e+01   5.5724772923e-01
1.1868131868e+01   5.7601184809e-01
1.1965811966e+01   5.8787344213e-01
1.2063492063e+01   5.9304689507e-01
1.2161172161e+01   5.9180444085e-01
1.2258852259e+01   5.8447040264e-01
1.2356532357e+01   5.7141521415e-01
1.2454212454e+01   5.5304929416e-01
1.2551892552e+01   5.2981684299e-01
1.2649572650e+01   5.0218962644e-01
1.2747252747e+01   4.7066080943e-01
1.2844932845e+01   4.3573889763e-01
1.2942612943e+01   3.9794184117e-01
1.3040293040e+01   3.5779134997e-01
1.3137973138e+01   3.1580746558e-01
1.3235653236e+01   2.7250342939e-01
1.3333333333e+01   2.2838088213e-01
1.3431013431e+01   1.8392542456e-01
1.3528693529e+01   1.3960256385e-01
1.3626373626e+01   9.5854065460e-02
1.3724053724e+01   5.3094725155e-02
1.3821733822e+01   1.1709570887e-02
1.3919413919e+01   -2.7948500253e-02
1.4017094017e+01   -6.5560649401e-02
1.4114774115e+01   -1.0084359120e-01
1.4212454212e+01   -1.3355066460e-01
1.4310134310e+01   -1.6347249045e-01
1.4407814408e+01   -1.9043723061e-01
1.4505494505e+01   -2.1431046633e-01
1.4603174603e+01   -2.3499471643e-01
1.4700854701e+01   -2.5242861820e-01
1.4798534799e+01   -2.6658579598e-01
1.4896214896e+01   -2.7747344420e-01
1.4993894994e+01   -2.8513065283e-01
1.5091575092e+01   -2.8962650445e-01
1.5189255189e+01   -2.9105797266e-01
1.5286935287e+01   -2.8954765211e-01
1.5384615385e+01   -2.8524135027e-01
1.5482295482e+01   -2.7830557113e-01
1.5579975580e+01   -2.6892492028e-01
1.5677655678e+01   -2.5729946025e-01
1.5775335775e+01   -2.4364204390e-01
1.5873015873e+01   -2.2817565248e-01
1.5970695971e+01   -2.1113076376e-01
1.6068376068e+01   -1.9274277369e-01
1.6166056166e+01   -1.7324949391e-01
1.6263736264e+01   -1.5288874500e-01
1.6361416361e+01   -1.3189606406e-01
1.6459096459e+01   -1.1050254263e-01
1.6556776557e+01   -8.8932809487e-02
1.6654456654e+01   -6.7403170202e-02
1.6752136752e+01   -4.6119913863e-02
1.6849816850e+01   -2.5277794759e-02
1.6947496947e+01   -5.0586951260e-03
1.7045177045e+01   1.4369527091e-02
1.7142857143e+01   3.2854003409e-02
1.7240537241e+01   5.0257632718e-02
1.7338217338e+01   6.6459673497e-02
1.7435897436e+01   8.1356153595e-02
1.7533577534e+01   9.4860102355e-02
1.7631257631e+01   1.0690161131e-01
1.7728937729e+01   1.1742773096e-01
1.7826617827e+01   1.2640221242e-01
1.7924297924e+01   1.3380510346e-01
1.8021978022e+01   1.3963220982e-01
1.8119658120e+01   1.4389443294e-01
1.8217338217e+01   1.4661699621e-01
1.8315018315e+01   1.4783857208e-01
1.8412698413e+01   1.4761032291e-01
1.8510378510e+01   1.4599486841e-01
1.8608058608e+01   1.4306519274e-01
1.8705738706e+01   1.3890350422e-01
1.8803418803e+01   1.3360006045e-01
1.8901098901e+01   1.2725197140e-01
1.8998778999e+01   1.1996199245e-01
1.9096459096e+01   1.1183731913e-01
1.9194139194e+01   1.0298839467e-01
1.9291819292e+01   9.3527740712e-02
1.9389499389e+01   8.3568820896e-02
1.9487179487e+01   7.3224946490e-02
1.9584859585e+01   6.2608232026e-02
1.9682539683e+01   5.1828608409e-02
1.9780219780e+01   4.0992899921e-02
1.9877899878e+01   3.0203970716e-02
1.9975579976e+01   1.9559945505e-02
2.0073260073e+01   9.1535081971e-03
2.0170940171e+01   -9.2871856092e-04
2.0268620269e+01   -1.0606710936e-02
2.0366300366e+01   -1.9807497358e-02
2.0463980464e+01   -2.8465527492e-02
2.0561660562e+01   -3.6522957175e-02
2.0659340659e+01   -4.3929850452e-02
2.0757020757e+01   -5.0644300607e-02
2.0854700855e+01   -5.6632472675e-02
2.0952380952e+01   -6.1868570566e-02
2.1050061050e+01   -6.6334732436e-02
2.1147741148e+01   -7.0020858455e-02
2.1245421245e+01   -7.2924375520e-02
2.1343101343e+01   -7.5049943836e-02
2.1440781441e+01   -7.6409110594e-02
2.1538461538e+01   -7.7019916196e-02
2.1636141636e+01   -7.6906458688e-02
2.1733821734e+01   -7.6098422153e-02
2.1831501832e+01   -7.4630574905e-02
2.1929181929e+01   -7.2542243317e-02
2.2026862027e+01   -6.9876767081e-02
2.2124542125e+01   -6.6680941613e-02
2.2222222222e+01   -6.3004453153e-02
2.2319902320e+01   -5.8899311944e-02
2.2417582418e+01   -5.4419288665e-02
2.2515262515e+01   -4.9619358991e-02
2.2612942613e+01   -4.4555160909e-02
2.2710622711e+01   -3.9282469079e-02
2.2808302808e+01   -3.3856690176e-02
2.2905982906e+01   -2.8332382825e-02
2.3003663004e+01   -2.2762805315e-02
2.3101343101e+01   -1.7199493935e-02
2.3199023199e+01   -1.1691874343e-02
2.3296703297e+01   -6.2869080131e-03
2.3394383394e+01   -1.0287753736e-03
2.3492063492e+01   4.0414031259e-03
2.3589743590e+01   8.8858071714e-03
2.3687423687e+01   1.3470117506e-02
2.3785103785e+01   1.7763677516e-02
2.3882783883e+01   2.1739615733e-02
2.3980463980e+01   2.5374929844e-02
2.4078144078e+01   2.8650533093e-02
2.4175824176e+01   3.1551264281e-02
2.4273504274e+01   3.4065862813e-02
2.4371184371e+01   3.6186910492e-02
2.4468864469e+01   3.7910741978e-02
2.4566544567e+01   3.9237326025e-02
2.4664224664e+01   4.0170119766e-02
2.4761904762e+01   4.0715898459e-02
2.4859584860e+01   4.0884563211e-02
2.4957264957e+01   4.0688929292e-02
2.5054945055e+01   4.0144497690e-02
2.5152625153e+01   3.9269212605e-02
2.5250305250e+01   3.8083207591e-02
2.5347985348e+01   3.6608543007e-02
2.5445665446e+01   3.4868937440e-02
2.5543345543e+01   3.2889495674e-02
2.5641025641e+01   3.0696435705e-02
2.5738705739e+01   2.8316817213e-02
2.5836385836e+01   2.5778273770e-02
2.5934065934e+01   2.3108750954e-02
2.6031746032e+01   2.0336252371e-02
2.6129426129e+01   1.7488595468e-02
2.6227106227e+01   1.4593178814e-02
2.6324786325e+01   1.1676762395e-02
2.6422466422e+01   8.7652622614e-03
2.6520146520e+01   5.8835607176e-03
2.6617826618e+01   3.0553330200e-03
2.6715506716e+01   3.0289140946e-04
2.6813186813e+01   -2.3529529097e-03
2.6910866911e+01   -4.8930093964e-03
2.7008547009e+01   -7.2998091382e-03
2.7106227106e+01   -9.5576870582e-03
2.7203907204e+01   -1.1652845429e-02
2.7301587302e+01   -1.3573398918e-02
2.7399267399e+01   -1.5309401537e-02
2.7496947497e+01   -1.6852856001e-02
2.7594627595e+01   -1.8197706141e-02
2.7692307692e+01   -1.9339813113e-02
2.7789987790e+01   -2.0276916287e-02
2.7887667888e+01   -2.1008579745e-02
2.7985347985e+01   -2.1536125444e-02
2.8083028083e+01   -2.1862554143e-02
2.8180708181e+01   -2.1992455259e-02
2.8278388278e+01   -2.1931906865e-02
2.8376068376e+01   -2.1688367069e-02
2.8473748474e+01   -2.1270558044e-02
2.8571428571e+01   -2.0688343969e-02
2.8669108669e+01   -1.9952604172e-02
2.8766788767e+01   -1.9075102722e-02
2.8864468864e+01   -1.8068355715e-02
2.8962148962e+01   -1.6945497449e-02
2.9059829060e+01   -1.5720146675e-02
2.9157509158e+01   -1.4406274019e-02
2.9255189255e+01   -1.3018071652e-02
2.9352869353e+01   -1.1569826206e-02
2.9450549451e+01   -1.0075795854e-02
2.9548229548e+01   -8.5500924373e-03
2.9645909646e+01   -7.0065693958e-03
2.9743589744e+01   -5.4587162207e-03
2.9841269841e+01   -3.9195600406e-03
2.9938949939e+01   -2.4015748752e-03
3.0036630037e+01   -9.1659900699e-04
3.0134310134e+01   5.2423916761e-04
3.0231990232e+01   1.9105865294e-03
3.0329670330e+01   3.2329216757e-03
3.0427350427e+01   4.4826022954e-03
3.0525030525e+01   5.6519034486e-03
3.0622710623e+01   6.7340467921e-03
3.0720390720e+01   7.7232208705e-03
3.0818070818e+01   8.6145926562e-03
3.0915750916e+01   9.4043105900e-03
3.1013431013e+01   1.0089499431e-02
3.1111111111e+01   1.0668247285e-02
3.1208791209e+01   1.1139585215e-02
3.1306471306e+01   1.1503459911e-02
3.1404151404e+01   1.1760699897e-02
3.1501831502e+01   1.1912975812e-02
3.1599511600e+01   1.1962755338e-02
3.1697191697e+01   1.1913253317e-02
3.1794871795e+01   1.1768377699e-02
3.1892551893e+01   1.1532671882e-02
3.1990231990e+01   1.1211254083e-02
3.2087912088e+01   1.0809754341e-02
3.2185592186e+01   1.0334249754e-02
3.2283272283e+01   9.7911985481e-03
3.2380952381e+01   9.1873735615e-03
3.2478632479e+01   8.5297957004e-03
3.2576312576e+01   7.8256679138e-03
3.2673992674e+01   7.0823101963e-03
3.2771672772e+01   6.3070961087e-03
3.2869352869e+01   5.5073912669e-03
3.2967032967e+01   4.6904942236e-03
3.3064713065e+01   3.8635801234e-03
3.3162393162e+01   3.0336474811e-03
3.3260073260e+01   2.2074683883e-03
3.3357753358e+01   1.3915424189e-03
3.3455433455e+01   5.9205445980e-04
3.3553113553e+01   -1.8516334577e-04
3.3650793651e+01   -9.3466539547e-04
3.3748473748e+01   -1.6514220584e-03
3.3846153846e+01   -2.3308446717e-03
3.3943833944e+01   -2.9688060738e-03
3.4041514042e+01   -3.5616566816e-03
3.4139194139e+01   -4.1062361536e-03
3.4236874237e+01   -4.5998807170e-03
3.4334554335e+01   -5.0404262642e-03
3.4432234432e+01   -5.4262073587e-03
3.4529914530e+01   -5.7560523125e-03
3.4627594628e+01   -6.0292745264e-03
3.4725274725e+01   -6.2456603030e-03
3.4822954823e+01   -6.4054533655e-03
3.4920634921e+01   -6.5093363297e-03
3.5018315018e+01   -6.5584093918e-03
3.5115995116e+01   -6.5541665083e-03
3.5213675214e+01   -6.4984693503e-03
3.5311355311e+01   -6.3935193227e-03
3.5409035409e+01   -6.2418279436e-03
3.5506715507e+01   -6.0461858793e-03
3.5604395604e+01   -5.8096309290e-03
3.5702075702e+01   -5.5354152521e-03
3.5799755800e+01   -5.2269721238e-03
3.5897435897e+01   -4.8878824988e-03
3.5995115995e+01   -4.5218416506e-03
3.6092796093e+01   -4.1326261486e-03
3.6190476190e+01   -3.7240614151e-03
3.6288156288e+01   -3.2999900967e-03
3.6385836386e+01   -2.8642414661e-03
3.6483516484e+01   -2.4206020534e-03
3.6581196581e+01   -1.9727876912e-03
3.6678876679e+01   -1.5244171368e-03
3.6776556777e+01   -1.0789874193e-03
3.6874236874e+01   -6.3985103583e-04
3.6971916972e+01   -2.1019510837e-04
3.7069597070e+01   2.0697741423e-04
3.7167277167e+01   6.0886443741e-04
3.7264957265e+01   9.9287923657e-04
3.7362637363e+01   1.3566627755e-03
3.7460317460e+01   1.6980938147e-03
3.7557997558e+01   2.0152968143e-03
3.7655677656e+01   2.3066476531e-03
3.7753357753e+01   2.5707772004e-03
3.7851037851e+01   2.8065727949e-03
3.7948717949e+01   3.0131776958e-03
3.8046398046e+01   3.1899885872e-03
3.8144078144e+01   3.3366512269e-03
3.8241758242e+01   3.4530543426e-03
3.8339438339e+01   3.5393218869e-03
3.8437118437e+01   3.5958037724e-03
3.8534798535e+01   3.6230652147e-03
3.8632478632e+01   3.6218748145e-03
3.8730158730e+01   3.5931915197e-03
3.8827838828e+01   3.5381506066e-03
3.8925518926e+01   3.4580488242e-03
3.9023199023e+01   3.3543288457e-03
3.9120879121e+01   3.2285631725e-03
3.9218559219e+01   3.0824376314e-03
3.9316239316e+01   2.9177346071e-03
3.9413919414e+01   2.7363161471e-03
3.9511599512e+01   2.5401070712e-03
3.9609279609e+01   2.3310782138e-03
3.9706959707e+01   2.1112299212e-03
3.9804639805e+01   1.8825759201e-03
3.9902319902e+01   1.6471276636e-03
4.0000000000e+01   1.4068792577e-03
4.0097680098e+01   1.1637930588e-03
4.0195360195e+01   9.1978602762e-04
4.0293040293e+01   6.7671691367e-04
4.0390720391e+01   4.3637433599e-04
4.0488400488e+01   2.0046581774e-04
4.0586080586e+01   -2.9392178655e-05
4.0683760684e+01   -2.5168317750e-04
4.0781440781e+01   -4.6499854816e-04
4.0879120879e+01   -6.6804427593e-04
4.0976800977e+01   -8.5964663465e-04
4.1074481074e+01   -1.0387567588e-03
4.1172161172e+01   -1.2044541211e-03
4.1269841270e+01   -1.3559489300e-03
4.1367521368e+01   -1.4925834680e-03
4.1465201465e+01   -1.6138324002e-03
4.1562881563e+01   -1.7193020880e-03
4.1660561661e+01   -1.8087289496e-03
4.1758241758e+01   -1.8819769134e-03
4.1855921856e+01   -1.9390340175e-03
4.1953601954e+01   -1.9800082110e-03
4.2051282051e+01   -2.0051224165e-03
4.2148962149e+01   -2.0147089190e-03
4.2246642247e+01   -2.0092031455e-03
4.2344322344e+01   -1.9891369040e-03
4.2442002442e+01   -1.9551311518e-03
4.2539682540e+01   -1.9078883627e-03
4.2637362637e+01   -1.8481845653e-03
4.2735042735e+01   -1.7768611206e-03
4.2832722833e+01   -1.6948163116e-03
4.2930402930e+01   -1.6029968108e-03
4.3028083028e+01   -1.5023890953e-03
4.3125763126e+01   -1.3940108719e-03
4.3223443223e+01   -1.2789025760e-03
4.3321123321e+01   -1.1581190044e-03
4.3418803419e+01   -1.0327211363e-03
4.3516483516e+01   -9.0376819792e-04
4.3614163614e+01   -7.7231001782e-04
4.3711843712e+01   -6.3937971976e-04
4.3809523810e+01   -5.0598679304e-04
4.3907203907e+01   -3.7311057775e-04
4.4004884005e+01   -2.4169419728e-04
4.4102564103e+01   -1.1263896602e-04
4.4200244200e+01   1.3200704281e-05
4.4297924298e+01   1.3502188028e-04
4.4395604396e+01   2.5207715064e-04
4.4493284493e+01   3.6367812710e-04
4.4590964591e+01   4.6919839725e-04
4.4688644689e+01   5.6807592730e-04
4.4786324786e+01   6.5981491723e-04
4.4884004884e+01   7.4398711460e-04
4.4981684982e+01   8.2023259678e-04
4.5079365079e+01   8.8826003524e-04
4.5177045177e+01   9.4784645828e-04
4.5274725275e+01   9.9883653195e-04
4.5372405372e+01   1.0411413815e-03
4.5470085470e+01   1.0747369785e-03
4.5567765568e+01   1.0996621196e-03
4.5665445665e+01   1.1160160282e-03
4.5763125763e+01   1.1239556065e-03
4.5860805861e+01   1.1236923731e-03
4.5958485958e+01   1.1154891173e-03
4.6056166056e+01   1.0996563043e-03
4.6153846154e+01   1.0765482664e-03
4.6251526252e+01   1.0465592145e-03
4.6349206349e+01   1.0101191046e-03
4.6446886447e+01   9.6768939374e-04
4.6544566545e+01   9.1975872014e-04
4.6642246642e+01   8.6683853962e-04
4.6739926740e+01   8.0945875186e-04
4.6837606838e+01   7.4816334727e-04
4.6935286935e+01   6.8350610460e-04
4.7032967033e+01   6.1604636799e-04
4.7130647131e+01   5.4634493026e-04
4.7228327228e+01   4.7496004789e-04
4.7326007326e+01   4.0244361096e-04
4.7423687424e+01   3.2933748961e-04
4.7521367521e+01   2.5617007636e-04
4.7619047619e+01   1.8345304180e-04
4.7716727717e+01   1.1167831875e-04
4.7814407814e+01   4.1315328003e-05
4.7912087912e+01   -2.7191543402e-05
4.8009768010e+01   -9.3425202654e-05
4.8107448107e+01   -1.5699784385e-04
4.8205128205e+01   -2.1755266830e-04
4.8302808303e+01   -2.7476533019e-04
4.8400488400e+01   -3.2834510697e-04
4.8498168498e+01   -3.7803579628e-04
4.8595848596e+01   -4.2361634248e-04
4.8693528694e+01   -4.6490119824e-04
4.8791208791e+01   -5.0174042770e-04
4.8888888889e+01   -5.3401955978e-04
4.8986568987e+01   -5.6165920127e-04
4.9084249084e+01   -5.8461442090e-04
4.9181929182e+01   -6.0287391660e-04
4.9279609280e+01   -6.1645897939e-04
4.9377289377e+01   -6.2542226807e-04
4.9474969475e+01   -6.2984640985e-04
4.9572649573e+01   -6.2984244267e-04
4.9670329670e+01   -6.2554811538e-04
4.9768009768e+01   -6.1712606253e-04
4.9865689866e+01   -6.0476187063e-04
4.9963369963e+01   -5.8866205299e-04
5.0061050061e+01   -5.6905195012e-04
5.0158730159e+01   -5.4617357283e-04
5.0256410256e+01   -5.2028340462e-04
5.0354090354e+01   -4.9165017992e-04
5.0451770452e+01   -4.6055265414e-04
5.0549450549e+01   -4.2727738105e-04
5.0647130647e+01   -3.9211651236e-04
5.0744810745e+01   -3.5536563380e-04
5.0842490842e+01   -3.1732165099e-04
5.0940170940e+01   -2.7828073791e-04
5.1037851038e+01   -2.3853635964e-04
5.1135531136e+01   -1.9837738018e-04
5.1233211233e+01   -1.5808626528e-04
5.1330891331e+01   -1.1793738913e-04
5.1428571429e+01   -7.8195452710e-05
5.1526251526e+01   -3.9114020744e-05
5.1623931624e+01   -9.3418284655e-07
5.1721611722e+01   3.6116656260e-05
5.1819291819e+01   7.1825853854e-05
5.1916971917e+01   1.0599647096e-04
5.2014652015e+01   1.3844807712e-04
5.2112332112e+01   1.6901741747e-04
5.2210012210e+01   1.9755894240e-04
5.2307692308e+01   2.2394520115e-04
5.2405372405e+01   2.4806710112e-04
5.2503052503e+01   2.6983403606e-04
5.2600732601e+01   2.8917388668e-04
5.2698412698e+01   3.0603289811e-04
5.2796092796e+01   3.2037543923e-04
5.2893772894e+01   3.3218364965e-04
5.2991452991e+01   3.4145698043e-04
5.3089133089e+01   3.4821163536e-04
5.3186813187e+01   3.5247991986e-04
5.3284493284e+01   3.5430950512e-04
5.3382173382e+01   3.5376261508e-04
5.3479853480e+01   3.5091514451e-04
5.3577533578e+01   3.4585571621e-04
5.3675213675e+01   3.3868468581e-04
5.3772893773e+01   3.2951310243e-04
5.3870573871e+01   3.1846163362e-04
5.3968253968e+01   3.0565946294e-04
5.4065934066e+01   2.9124316823e-04
5.4163614164e+01   2.7535558885e-04
5.4261294261e+01   2.5814468948e-04
5.4358974359e+01   2.3976242822e-04
5.4456654457e+01   2.2036363616e-04
5.4554334554e+01   2.0010491551e-04
5.4652014652e+01   1.7914356266e-04
5.4749694750e+01   1.5763652260e-04
5.4847374847e+01   1.3573938028e-04
5.4945054945e+01   1.1360539435e-04
5.5042735043e+01   9.1384577991e-05
5.5140415140e+01   6.9222831445e-05
5.5238095238e+01   4.7261129872e-05
5.5335775336e+01   2.5634770111e-05
5.5433455433e+01   4.4726791484e-06
5.5531135531e+01   -1.6103213309e-05
5.5628815629e+01   -3.5978536265e-05
5.5726495726e+01   -5.5046971486e-05
5.5824175824e+01   -7.3210679274e-05
5.5921855922e+01   -9.0380655530e-05
5.6019536020e+01   -1.0647702014e-04
5.6117216117e+01   -1.2142923715e-04
5.6214896215e+01   -1.3517626767e-04
5.6312576313e+01   -1.4766665674e-04
5.6410256410e+01   -1.5885855590e-04
5.6507936508e+01   -1.6871968349e-04
5.6605616606e+01   -1.7722722506e-04
5.6703296703e+01   -1.8436767645e-04
5.6800976801e+01   -1.9013663273e-04
5.6898656899e+01   -1.9453852593e-04
5.6996336996e+01   -1.9758631512e-04
5.7094017094e+01   -1.9930113237e-04
5.7191697192e+01   -1.9971188842e-04
5.7289377289e+01   -1.9885484186e-04
5.7387057387e+01   -1.9677313578e-04
5.7484737485e+01   -1.9351630605e-04
5.7582417582e+01   -1.8913976521e-04
5.7680097680e+01   -1.8370426610e-04
5.7777777778e+01   -1.7727534936e-04
5.7875457875e+01   -1.6992277873e-04
5.7973137973e+01   -1.6171996829e-04
5.8070818071e+01   -1.5274340541e-04
5.8168498168e+01   -1.4307207328e-04
5.8266178266e+01   -1.3278687655e-04
5.8363858364e+01   -1.2197007380e-04
5.8461538462e+01   -1.1070472002e-04
5.8559218559e+01   -9.9074122270e-05
5.8656898657e+01   -8.7161311604e-05
5.8754578755e+01   -7.5048533955e-05
5.8852258852e+01   -6.2816762518e-05
5.8949938950e+01   -5.0545234005e-05
5.9047619048e+01   -3.8311010853e-05
5.9145299145e+01   -2.6188571244e-05
5.9242979243e+01   -1.4249428575e-05
5.9340659341e+01   -2.5617817463e-06
5.9438339438e+01   8.8098025662e-06
5.9536019536e+01   1.9804674774e-05
5.9633699634e+01   3.0366353686e-05
5.9731379731e+01   4.0442743844e-05
5.9829059829e+01   4.9986318664e-05
5.9926739927e+01   5.8954269396e-05
6.0024420024e+01   6.7308620139e-05
6.0122100122e+01   7.5016309307e-05
6.0219780220e+01   8.2049238202e-05
6.0317460317e+01   8.8384287462e-05
6.0415140415e+01   9.4003302381e-05
6.0512820513e+01   9.8893048223e-05
6.0610500611e+01   1.0304513680e-04
6.0708180708e+01   1.0645592577e-04
6.0805860806e+01   1.0912639206e-04
6.0903540904e+01   1.1106198128e-04
6.1001221001e+01   1.1227243460e-04
6.1098901099e+01   1.1277159508e-04
6.1196581197e+01   1.1257719524e-04
6.1294261294e+01   1.1171062780e-04
6.1391941392e+01   1.1019670164e-04
6.1489621490e+01   1.0806338480e-04
6.1587301587e+01   1.0534153661e-04
6.1684981685e+01   1.0206463103e-04
6.1782661783e+01   9.8268472975e-05
6.1880341880e+01   9.3990909710e-05
6.1978021978e+01   8.9271539253e-05
6.2075702076e+01   8.4151417546e-05
6.2173382173e+01   7.8672766301e-05
6.2271062271e+01   7.2878683209e-05
6.2368742369e+01   6.6812856217e-05
