X    Y
-2.0000000000e+02   3.7380823191e-25
-1.9990231990e+02   4.6834493499e-12
-1.9980463980e+02   9.3670187526e-12
-1.9970695971e+02   1.4050827999e-11
-1.9960927961e+02   1.8734996357e-11
-1.9951159951e+02   2.3419642308e-11
-1.9941391941e+02   2.8104883288e-11
-1.9931623932e+02   3.2790835422e-11
-1.9921855922e+02   3.7477613263e-11
-1.9912087912e+02   4.2165329528e-11
-1.9902319902e+02   4.6854094839e-11
-1.9892551893e+02   5.1544017454e-11
-1.9882783883e+02   5.6235203005e-11
-1.9873015873e+02   6.0927754234e-11
-1.9863247863e+02   6.5621770730e-11
-1.9853479853e+02   7.0317348656e-11
-1.9843711844e+02   7.5014580492e-11
-1.9833943834e+02   7.9713554759e-11
-1.9824175824e+02   8.4414355760e-11
-1.9814407814e+02   8.9117063302e-11
-1.9804639805e+02   9.3821752434e-11
-1.9794871795e+02   9.8528493173e-11
-1.9785103785e+02   1.0323735023e-10
-1.9775335775e+02   1.0794838275e-10
-1.9765567766e+02   1.1266164401e-10
-1.9755799756e+02   1.1737718120e-10
-1.9746031746e+02   1.2209503506e-10
-1.9736263736e+02   1.2681523971e-10
-1.9726495726e+02   1.3153782227e-10
-1.9716727717e+02   1.3626280266e-10
-1.9706959707e+02   1.4099019327e-10
-1.9697191697e+02   1.4571999870e-10
-1.9687423687e+02   1.5045221548e-10
-1.9677655678e+02   1.5518683178e-10
-1.9667887668e+02   1.5992382710e-10
-1.9658119658e+02   1.6466317203e-10
-1.9648351648e+02   1.6940482794e-10
-1.9638583639e+02   1.7414874667e-10
-1.9628815629e+02   1.7889487028e-10
-1.9619047619e+02   1.8364313071e-10
-1.9609279609e+02   1.8839344952e-10
-1.9599511600e+02   1.9314573760e-10
-1.9589743590e+02   1.9789989484e-10
-1.9579975580e+02   2.0265580985e-10
-1.9570207570e+02   2.0741335968e-10
-1.9560439560e+02   2.1217240946e-10
-1.9550671551e+02   2.1693281216e-10
-1.9540903541e+02   2.2169440827e-10
-1.9531135531e+02   2.2645702546e-10
-1.9521367521e+02   2.3122047831e-10
-1.9511599512e+02   2.3598456799e-10
-1.9501831502e+02   2.4074908193e-10
-1.9492063492e+02   2.4551379354e-10
-1.9482295482e+02   2.5027846188e-10
-1.9472527473e+02   2.5504283135e-10
-1.9462759463e+02   2.5980663135e-10
-1.9452991453e+02   2.6456957603e-10
-1.9443223443e+02   2.6933136387e-10
-1.9433455433e+02   2.7409167745e-10
-1.9423687424e+02   2.7885018309e-10
-1.9413919414e+02   2.8360653052e-10
-1.9404151404e+02   2.8836035257e-10
-1.9394383394e+02   2.9311126487e-10
-1.9384615385e+02   2.9785886546e-10
-1.9374847375e+02   3.0260273453e-10
-1.9365079365e+02   3.0734243406e-10
-1.9355311355e+02   3.1207750748e-10
-1.9345543346e+02   3.1680747938e-10
-1.9335775336e+02   3.2153185516e-10
-1.9326007326e+02   3.2625012067e-10
-1.9316239316e+02   3.3096174195e-10
-1.9306471306e+02   3.3566616483e-10
-1.9296703297e+02   3.4036281463e-10
-1.9286935287e+02   3.4505109584e-10
-1.9277167277e+02   3.4973039177e-10
-1.9267399267e+02   3.5440006421e-10
-1.9257631258e+02   3.5905945314e-10
-1.9247863248e+02   3.6370787635e-10
-1.9238095238e+02   3.6834462914e-10
-1.9228327228e+02   3.7296898399e-10
-1.9218559219e+02   3.7758019022e-10
-1.9208791209e+02   3.8217747367e-10
-1.9199023199e+02   3.8676003637e-10
-1.9189255189e+02   3.9132705621e-10
-1.9179487179e+02   3.9587768663e-10
-1.9169719170e+02   4.0041105629e-10
-1.9159951160e+02   4.0492626874e-10
-1.9150183150e+02   4.0942240211e-10
-1.9140415140e+02   4.1389850881e-10
-1.9130647131e+02   4.1835361518e-10
-1.9120879121e+02   4.2278672120e-10
-1.9111111111e+02   4.2719680018e-10
-1.9101343101e+02   4.3158279848e-10
-1.9091575092e+02   4.3594363513e-10
-1.9081807082e+02   4.4027820163e-10
-1.9072039072e+02   4.4458536157e-10
-1.9062271062e+02   4.4886395040e-10
-1.9052503053e+02   4.5311277510e-10
-1.9042735043e+02   4.5733061393e-10
-1.9032967033e+02   4.6151621614e-10
-1.9023199023e+02   4.6566830167e-10
-1.9013431013e+02   4.6978556094e-10
-1.9003663004e+02   4.7386665453e-10
-1.8993894994e+02   4.7791021297e-10
-1.8984126984e+02   4.8191483647e-10
-1.8974358974e+02   4.8587909467e-10
-1.8964590965e+02   4.8980152641e-10
-1.8954822955e+02   4.9368063953e-10
-1.8945054945e+02   4.9751491060e-10
-1.8935286935e+02   5.0130278475e-10
-1.8925518926e+02   5.0504267543e-10
-1.8915750916e+02   5.0873296426e-10
-1.8905982906e+02   5.1237200079e-10
-1.8896214896e+02   5.1595810238e-10
-1.8886446886e+02   5.1948955398e-10
-1.8876678877e+02   5.2296460802e-10
-1.8866910867e+02   5.2638148423e-10
-1.8857142857e+02   5.2973836952e-10
-1.8847374847e+02   5.3303341787e-10
-1.8837606838e+02   5.3626475019e-10
-1.8827838828e+02   5.3943045427e-10
-1.8818070818e+02   5.4252858465e-10
-1.8808302808e+02   5.4555716256e-10
-1.8798534799e+02   5.4851417587e-10
-1.8788766789e+02   5.5139757908e-10
-1.8778998779e+02   5.5420529322e-10
-1.8769230769e+02   5.5693520590e-10
-1.8759462759e+02   5.5958517131e-10
-1.8749694750e+02   5.6215301020e-10
-1.8739926740e+02   5.6463650996e-10
-1.8730158730e+02   5.6703342467e-10
-1.8720390720e+02   5.6934147515e-10
-1.8710622711e+02   5.7155834910e-10
-1.8700854701e+02   5.7368170116e-10
-1.8691086691e+02   5.7570915308e-10
-1.8681318681e+02   5.7763829386e-10
-1.8671550672e+02   5.7946667994e-10
-1.8661782662e+02   5.8119183537e-10
-1.8652014652e+02   5.8281125206e-10
-1.8642246642e+02   5.8432239000e-10
-1.8632478632e+02   5.8572267755e-10
-1.8622710623e+02   5.8700951170e-10
-1.8612942613e+02   5.8818025841e-10
-1.8603174603e+02   5.8923225297e-10
-1.8593406593e+02   5.9016280030e-10
-1.8583638584e+02   5.9096917542e-10
-1.8573870574e+02   5.9164862385e-10
-1.8564102564e+02   5.9219836203e-10
-1.8554334554e+02   5.9261557786e-10
-1.8544566545e+02   5.9289743114e-10
-1.8534798535e+02   5.9304105417e-10
-1.8525030525e+02   5.9304355230e-10
-1.8515262515e+02   5.9290200454e-10
-1.8505494505e+02   5.9261346419e-10
-1.8495726496e+02   5.9217495949e-10
-1.8485958486e+02   5.9158349440e-10
-1.8476190476e+02   5.9083604924e-10
-1.8466422466e+02   5.8992958153e-10
-1.8456654457e+02   5.8886102678e-10
-1.8446886447e+02   5.8762729937e-10
-1.8437118437e+02   5.8622529338e-10
-1.8427350427e+02   5.8465188354e-10
-1.8417582418e+02   5.8290392622e-10
-1.8407814408e+02   5.8097826040e-10
-1.8398046398e+02   5.7887170872e-10
-1.8388278388e+02   5.7658107860e-10
-1.8378510379e+02   5.7410316331e-10
-1.8368742369e+02   5.7143474318e-10
-1.8358974359e+02   5.6857258682e-10
-1.8349206349e+02   5.6551345236e-10
-1.8339438339e+02   5.6225408874e-10
-1.8329670330e+02   5.5879123710e-10
-1.8319902320e+02   5.5512163215e-10
-1.8310134310e+02   5.5124200363e-10
-1.8300366300e+02   5.4714907776e-10
-1.8290598291e+02   5.4283957885e-10
-1.8280830281e+02   5.3831023081e-10
-1.8271062271e+02   5.3355775884e-10
-1.8261294261e+02   5.2857889112e-10
-1.8251526252e+02   5.2337036052e-10
-1.8241758242e+02   5.1792890641e-10
-1.8231990232e+02   5.1225127649e-10
-1.8222222222e+02   5.0633422873e-10
-1.8212454212e+02   5.0017453324e-10
-1.8202686203e+02   4.9376897436e-10
-1.8192918193e+02   4.8711435267e-10
-1.8183150183e+02   4.8020748709e-10
-1.8173382173e+02   4.7304521711e-10
-1.8163614164e+02   4.6562440495e-10
-1.8153846154e+02   4.5794193787e-10
-1.8144078144e+02   4.4999473052e-10
-1.8134310134e+02   4.4177972730e-10
-1.8124542125e+02   4.3329390485e-10
-1.8114774115e+02   4.2453427453e-10
-1.8105006105e+02   4.1549788501e-10
-1.8095238095e+02   4.0618182488e-10
-1.8085470085e+02   3.9658322535e-10
-1.8075702076e+02   3.8669926299e-10
-1.8065934066e+02   3.7652716252e-10
-1.8056166056e+02   3.6606419967e-10
-1.8046398046e+02   3.5530770415e-10
-1.8036630037e+02   3.4425506256e-10
-1.8026862027e+02   3.3290372147e-10
-1.8017094017e+02   3.2125119052e-10
-1.8007326007e+02   3.0929504555e-10
-1.7997557998e+02   2.9703293185e-10
-1.7987789988e+02   2.8446256740e-10
-1.7978021978e+02   2.7158174624e-10
-1.7968253968e+02   2.5838834184e-10
-1.7958485958e+02   2.4488031053e-10
-1.7948717949e+02   2.3105569505e-10
-1.7938949939e+02   2.1691262808e-10
-1.7929181929e+02   2.0244933586e-10
-1.7919413919e+02   1.8766414188e-10
-1.7909645910e+02   1.7255547061e-10
-1.7899877900e+02   1.5712185126e-10
-1.7890109890e+02   1.4136192165e-10
-1.7880341880e+02   1.2527443206e-10
-1.7870573871e+02   1.0885824921e-10
-1.7860805861e+02   9.2112360232e-11
-1.7851037851e+02   7.5035876709e-11
-1.7841269841e+02   5.7628038773e-11
-1.7831501832e+02   3.9888219237e-11
-1.7821733822e+02   2.1815927779e-11
-1.7811965812e+02   3.4108151631e-12
-1.7802197802e+02   -1.5327322483e-11
-1.7792429792e+02   -3.4398539366e-11
-1.7782661783e+02   -5.3802735672e-11
-1.7772893773e+02   -7.3539653181e-11
-1.7763125763e+02   -9.3608870847e-11
-1.7753357753e+02   -1.1400980034e-10
-1.7743589744e+02   -1.3474168154e-10
-1.7733821734e+02   -1.5580357807e-10
-1.7724053724e+02   -1.7719437267e-10
-1.7714285714e+02   -1.9891276272e-10
-1.7704517705e+02   -2.2095725556e-10
-1.7694749695e+02   -2.4332616395e-10
-1.7684981685e+02   -2.6601760139e-10
-1.7675213675e+02   -2.8902947750e-10
-1.7665445665e+02   -3.1235949336e-10
-1.7655677656e+02   -3.3600513685e-10
-1.7645909646e+02   -3.5996367797e-10
-1.7636141636e+02   -3.8423216420e-10
-1.7626373626e+02   -4.0880741579e-10
-1.7616605617e+02   -4.3368602111e-10
-1.7606837607e+02   -4.5886433203e-10
-1.7597069597e+02   -4.8433845923e-10
-1.7587301587e+02   -5.1010426758e-10
-1.7577533578e+02   -5.3615737158e-10
-1.7567765568e+02   -5.6249313071e-10
-1.7557997558e+02   -5.8910664495e-10
-1.7548229548e+02   -6.1599275020e-10
-1.7538461538e+02   -6.4314601383e-10
-1.7528693529e+02   -6.7056073023e-10
-1.7518925519e+02   -6.9823091643e-10
-1.7509157509e+02   -7.2615030775e-10
-1.7499389499e+02   -7.5431235351e-10
-1.7489621490e+02   -7.8271021285e-10
-1.7479853480e+02   -8.1133675051e-10
-1.7470085470e+02   -8.4018453281e-10
-1.7460317460e+02   -8.6924582364e-10
-1.7450549451e+02   -8.9851258051e-10
-1.7440781441e+02   -9.2797645076e-10
-1.7431013431e+02   -9.5762876782e-10
-1.7421245421e+02   -9.8746054758e-10
-1.7411477411e+02   -1.0174624849e-09
-1.7401709402e+02   -1.0476249501e-09
-1.7391941392e+02   -1.0779379859e-09
-1.7382173382e+02   -1.1083913040e-09
-1.7372405372e+02   -1.1389742823e-09
-1.7362637363e+02   -1.1696759619e-09
-1.7352869353e+02   -1.2004850443e-09
-1.7343101343e+02   -1.2313898891e-09
-1.7333333333e+02   -1.2623785111e-09
-1.7323565324e+02   -1.2934385789e-09
-1.7313797314e+02   -1.3245574119e-09
-1.7304029304e+02   -1.3557219789e-09
-1.7294261294e+02   -1.3869188967e-09
-1.7284493284e+02   -1.4181344280e-09
-1.7274725275e+02   -1.4493544806e-09
-1.7264957265e+02   -1.4805646062e-09
-1.7255189255e+02   -1.5117499994e-09
-1.7245421245e+02   -1.5428954976e-09
-1.7235653236e+02   -1.5739855802e-09
-1.7225885226e+02   -1.6050043686e-09
-1.7216117216e+02   -1.6359356265e-09
-1.7206349206e+02   -1.6667627604e-09
-1.7196581197e+02   -1.6974688199e-09
-1.7186813187e+02   -1.7280364991e-09
-1.7177045177e+02   -1.7584481380e-09
-1.7167277167e+02   -1.7886857235e-09
-1.7157509158e+02   -1.8187308919e-09
-1.7147741148e+02   -1.8485649307e-09
-1.7137973138e+02   -1.8781687815e-09
-1.7128205128e+02   -1.9075230427e-09
-1.7118437118e+02   -1.9366079729e-09
-1.7108669109e+02   -1.9654034940e-09
-1.7098901099e+02   -1.9938891961e-09
-1.7089133089e+02   -2.0220443407e-09
-1.7079365079e+02   -2.0498478664e-09
-1.7069597070e+02   -2.0772783935e-09
-1.7059829060e+02   -2.1043142295e-09
-1.7050061050e+02   -2.1309333752e-09
-1.7040293040e+02   -2.1571135311e-09
-1.7030525031e+02   -2.1828321038e-09
-1.7020757021e+02   -2.2080662135e-09
-1.7010989011e+02   -2.2327927017e-09
-1.7001221001e+02   -2.2569881390e-09
-1.6991452991e+02   -2.2806288339e-09
-1.6981684982e+02   -2.3036908416e-09
-1.6971916972e+02   -2.3261499739e-09
-1.6962148962e+02   -2.3479818085e-09
-1.6952380952e+02   -2.3691617003e-09
-1.6942612943e+02   -2.3896647915e-09
-1.6932844933e+02   -2.4094660237e-09
-1.6923076923e+02   -2.4285401498e-09
-1.6913308913e+02   -2.4468617461e-09
-1.6903540904e+02   -2.4644052257e-09
-1.6893772894e+02   -2.4811448522e-09
-1.6884004884e+02   -2.4970547530e-09
-1.6874236874e+02   -2.5121089349e-09
-1.6864468864e+02   -2.5262812987e-09
-1.6854700855e+02   -2.5395456551e-09
-1.6844932845e+02   -2.5518757408e-09
-1.6835164835e+02   -2.5632452356e-09
-1.6825396825e+02   -2.5736277798e-09
-1.6815628816e+02   -2.5829969918e-09
-1.6805860806e+02   -2.5913264871e-09
-1.6796092796e+02   -2.5985898973e-09
-1.6786324786e+02   -2.6047608895e-09
-1.6776556777e+02   -2.6098131868e-09
-1.6766788767e+02   -2.6137205893e-09
-1.6757020757e+02   -2.6164569950e-09
-1.6747252747e+02   -2.6179964224e-09
-1.6737484737e+02   -2.6183130327e-09
-1.6727716728e+02   -2.6173811528e-09
-1.6717948718e+02   -2.6151752994e-09
-1.6708180708e+02   -2.6116702030e-09
-1.6698412698e+02   -2.6068408329e-09
-1.6688644689e+02   -2.6006624224e-09
-1.6678876679e+02   -2.5931104948e-09
-1.6669108669e+02   -2.5841608902e-09
-1.6659340659e+02   -2.5737897920e-09
-1.6649572650e+02   -2.5619737552e-09
-1.6639804640e+02   -2.5486897337e-09
-1.6630036630e+02   -2.5339151096e-09
-1.6620268620e+02   -2.5176277219e-09
-1.6610500611e+02   -2.4998058965e-09
-1.6600732601e+02   -2.4804284759e-09
-1.6590964591e+02   -2.4594748504e-09
-1.6581196581e+02   -2.4369249884e-09
-1.6571428571e+02   -2.4127594688e-09
-1.6561660562e+02   -2.3869595121e-09
-1.6551892552e+02   -2.3595070134e-09
-1.6542124542e+02   -2.3303845748e-09
-1.6532356532e+02   -2.2995755388e-09
-1.6522588523e+02   -2.2670640216e-09
-1.6512820513e+02   -2.2328349473e-09
-1.6503052503e+02   -2.1968740816e-09
-1.6493284493e+02   -2.1591680667e-09
-1.6483516484e+02   -2.1197044558e-09
-1.6473748474e+02   -2.0784717484e-09
-1.6463980464e+02   -2.0354594252e-09
-1.6454212454e+02   -1.9906579838e-09
-1.6444444444e+02   -1.9440589742e-09
-1.6434676435e+02   -1.8956550347e-09
-1.6424908425e+02   -1.8454399276e-09
-1.6415140415e+02   -1.7934085751e-09
-1.6405372405e+02   -1.7395570957e-09
-1.6395604396e+02   -1.6838828396e-09
-1.6385836386e+02   -1.6263844255e-09
-1.6376068376e+02   -1.5670617756e-09
-1.6366300366e+02   -1.5059161524e-09
-1.6356532357e+02   -1.4429501935e-09
-1.6346764347e+02   -1.3781679481e-09
-1.6336996337e+02   -1.3115749114e-09
-1.6327228327e+02   -1.2431780604e-09
-1.6317460317e+02   -1.1729858883e-09
-1.6307692308e+02   -1.1010084390e-09
-1.6297924298e+02   -1.0272573412e-09
-1.6288156288e+02   -9.5174584206e-10
-1.6278388278e+02   -8.7448884009e-10
-1.6268620269e+02   -7.9550291797e-10
-1.6258852259e+02   -7.1480637445e-10
-1.6249084249e+02   -6.3241925575e-10
-1.6239316239e+02   -5.4836338617e-10
-1.6229548230e+02   -4.6266239809e-10
-1.6219780220e+02   -3.7534176106e-10
-1.6210012210e+02   -2.8642881005e-10
-1.6200244200e+02   -1.9595277287e-10
-1.6190476190e+02   -1.0394479651e-10
-1.6180708181e+02   -1.0437972512e-11
-1.6170940171e+02   8.4532638755e-11
-1.6161172161e+02   1.8092998499e-10
-1.6151404151e+02   2.7871500006e-10
-1.6141636142e+02   3.7784658334e-10
-1.6131868132e+02   4.7828158048e-10
-1.6122100122e+02   5.7997476546e-10
-1.6112332112e+02   6.8287882419e-10
-1.6102564103e+02   7.8694433966e-10
-1.6092796093e+02   8.9211977859e-10
-1.6083028083e+02   9.9835147985e-10
-1.6073260073e+02   1.1055836445e-09
-1.6063492063e+02   1.2137583279e-09
-1.6053724054e+02   1.3228154332e-09
-1.6043956044e+02   1.4326927071e-09
-1.6034188034e+02   1.5433257378e-09
-1.6024420024e+02   1.6546479545e-09
-1.6014652015e+02   1.7665906295e-09
-1.6004884005e+02   1.8790828821e-09
-1.5995115995e+02   1.9920516851e-09
-1.5985347985e+02   2.1054218737e-09
-1.5975579976e+02   2.2191161562e-09
-1.5965811966e+02   2.3330551281e-09
-1.5956043956e+02   2.4471572877e-09
-1.5946275946e+02   2.5613390554e-09
-1.5936507937e+02   2.6755147946e-09
-1.5926739927e+02   2.7895968361e-09
-1.5916971917e+02   2.9034955048e-09
-1.5907203907e+02   3.0171191499e-09
-1.5897435897e+02   3.1303741769e-09
-1.5887667888e+02   3.2431650840e-09
-1.5877899878e+02   3.3553945002e-09
-1.5868131868e+02   3.4669632272e-09
-1.5858363858e+02   3.5777702844e-09
-1.5848595849e+02   3.6877129568e-09
-1.5838827839e+02   3.7966868466e-09
-1.5829059829e+02   3.9045859274e-09
-1.5819291819e+02   4.0113026023e-09
-1.5809523810e+02   4.1167277652e-09
-1.5799755800e+02   4.2207508655e-09
-1.5789987790e+02   4.3232599760e-09
-1.5780219780e+02   4.4241418649e-09
-1.5770451770e+02   4.5232820707e-09
-1.5760683761e+02   4.6205649806e-09
-1.5750915751e+02   4.7158739134e-09
-1.5741147741e+02   4.8090912045e-09
-1.5731379731e+02   4.9000982960e-09
-1.5721611722e+02   4.9887758293e-09
-1.5711843712e+02   5.0750037417e-09
-1.5702075702e+02   5.1586613670e-09
-1.5692307692e+02   5.2396275391e-09
-1.5682539683e+02   5.3177806997e-09
-1.5672771673e+02   5.3929990093e-09
-1.5663003663e+02   5.4651604620e-09
-1.5653235653e+02   5.5341430037e-09
-1.5643467643e+02   5.5998246541e-09
-1.5633699634e+02   5.6620836323e-09
-1.5623931624e+02   5.7207984850e-09
-1.5614163614e+02   5.7758482199e-09
-1.5604395604e+02   5.8271124405e-09
-1.5594627595e+02   5.8744714858e-09
-1.5584859585e+02   5.9178065725e-09
-1.5575091575e+02   5.9569999408e-09
-1.5565323565e+02   5.9919350032e-09
-1.5555555556e+02   6.0224964964e-09
-1.5545787546e+02   6.0485706361e-09
-1.5536019536e+02   6.0700452753e-09
-1.5526251526e+02   6.0868100645e-09
-1.5516483516e+02   6.0987566151e-09
-1.5506715507e+02   6.1057786660e-09
-1.5496947497e+02   6.1077722513e-09
-1.5487179487e+02   6.1046358717e-09
-1.5477411477e+02   6.0962706673e-09
-1.5467643468e+02   6.0825805929e-09
-1.5457875458e+02   6.0634725950e-09
-1.5448107448e+02   6.0388567909e-09
-1.5438339438e+02   6.0086466489e-09
-1.5428571429e+02   5.9727591704e-09
-1.5418803419e+02   5.9311150734e-09
-1.5409035409e+02   5.8836389763e-09
-1.5399267399e+02   5.8302595836e-09
-1.5389499389e+02   5.7709098713e-09
-1.5379731380e+02   5.7055272739e-09
-1.5369963370e+02   5.6340538702e-09
-1.5360195360e+02   5.5564365710e-09
-1.5350427350e+02   5.4726273043e-09
-1.5340659341e+02   5.3825832025e-09
-1.5330891331e+02   5.2862667870e-09
-1.5321123321e+02   5.1836461526e-09
-1.5311355311e+02   5.0746951511e-09
-1.5301587302e+02   4.9593935723e-09
-1.5291819292e+02   4.8377273244e-09
-1.5282051282e+02   4.7096886117e-09
-1.5272283272e+02   4.5752761099e-09
-1.5262515263e+02   4.4344951392e-09
-1.5252747253e+02   4.2873578339e-09
-1.5242979243e+02   4.1338833093e-09
-1.5233211233e+02   3.9740978245e-09
-1.5223443223e+02   3.8080349413e-09
-1.5213675214e+02   3.6357356798e-09
-1.5203907204e+02   3.4572486676e-09
-1.5194139194e+02   3.2726302862e-09
-1.5184371184e+02   3.0819448101e-09
-1.5174603175e+02   2.8852645419e-09
-1.5164835165e+02   2.6826699406e-09
-1.5155067155e+02   2.4742497433e-09
-1.5145299145e+02   2.2601010812e-09
-1.5135531136e+02   2.0403295875e-09
-1.5125763126e+02   1.8150494984e-09
-1.5115995116e+02   1.5843837461e-09
-1.5106227106e+02   1.3484640440e-09
-1.5096459096e+02   1.1074309625e-09
-1.5086691087e+02   8.6143399669e-10
-1.5076923077e+02   6.1063162456e-10
-1.5067155067e+02   3.5519135509e-10
-1.5057387057e+02   9.5289766798e-11
-1.5047619048e+02   -1.6888746439e-10
-1.5037851038e+02   -4.3714554803e-10
-1.5028083028e+02   -7.0928057316e-10
-1.5018315018e+02   -9.8507951384e-10
-1.5008547009e+02   -1.2643202466e-09
-1.4998778999e+02   -1.5467715802e-09
-1.4989010989e+02   -1.8321932975e-09
-1.4979242979e+02   -2.1203362112e-09
-1.4969474969e+02   -2.4109422317e-09
-1.4959706960e+02   -2.7037444492e-09
-1.4949938950e+02   -2.9984672299e-09
-1.4940170940e+02   -3.2948263257e-09
-1.4930402930e+02   -3.5925289989e-09
-1.4920634921e+02   -3.8912741614e-09
-1.4910866911e+02   -4.1907525294e-09
-1.4901098901e+02   -4.4906467929e-09
-1.4891330891e+02   -4.7906318007e-09
-1.4881562882e+02   -5.0903747621e-09
-1.4871794872e+02   -5.3895354633e-09
-1.4862026862e+02   -5.6877665009e-09
-1.4852258852e+02   -5.9847135318e-09
-1.4842490842e+02   -6.2800155388e-09
-1.4832722833e+02   -6.5733051139e-09
-1.4822954823e+02   -6.8642087579e-09
-1.4813186813e+02   -7.1523471969e-09
-1.4803418803e+02   -7.4373357158e-09
-1.4793650794e+02   -7.7187845092e-09
-1.4783882784e+02   -7.9962990489e-09
-1.4774114774e+02   -8.2694804686e-09
-1.4764346764e+02   -8.5379259660e-09
-1.4754578755e+02   -8.8012292216e-09
-1.4744810745e+02   -9.0589808346e-09
-1.4735042735e+02   -9.3107687754e-09
-1.4725274725e+02   -9.5561788552e-09
-1.4715506716e+02   -9.7947952118e-09
-1.4705738706e+02   -1.0026200812e-08
-1.4695970696e+02   -1.0249977971e-08
-1.4686202686e+02   -1.0465708885e-08
-1.4676434676e+02   -1.0672976183e-08
-1.4666666667e+02   -1.0871363489e-08
-1.4656898657e+02   -1.1060456008e-08
-1.4647130647e+02   -1.1239841113e-08
-1.4637362637e+02   -1.1409108962e-08
-1.4627594628e+02   -1.1567853113e-08
-1.4617826618e+02   -1.1715671165e-08
-1.4608058608e+02   -1.1852165402e-08
-1.4598290598e+02   -1.1976943457e-08
-1.4588522589e+02   -1.2089618981e-08
-1.4578754579e+02   -1.2189812325e-08
-1.4568986569e+02   -1.2277151235e-08
-1.4559218559e+02   -1.2351271549e-08
-1.4549450549e+02   -1.2411817914e-08
-1.4539682540e+02   -1.2458444496e-08
-1.4529914530e+02   -1.2490815709e-08
-1.4520146520e+02   -1.2508606946e-08
-1.4510378510e+02   -1.2511505313e-08
-1.4500610501e+02   -1.2499210369e-08
-1.4490842491e+02   -1.2471434869e-08
-1.4481074481e+02   -1.2427905510e-08
-1.4471306471e+02   -1.2368363672e-08
-1.4461538462e+02   -1.2292566170e-08
-1.4451770452e+02   -1.2200285992e-08
-1.4442002442e+02   -1.2091313043e-08
-1.4432234432e+02   -1.1965454883e-08
-1.4422466422e+02   -1.1822537459e-08
-1.4412698413e+02   -1.1662405828e-08
-1.4402930403e+02   -1.1484924880e-08
-1.4393162393e+02   -1.1289980043e-08
-1.4383394383e+02   -1.1077477983e-08
-1.4373626374e+02   -1.0847347291e-08
-1.4363858364e+02   -1.0599539153e-08
-1.4354090354e+02   -1.0334028013e-08
-1.4344322344e+02   -1.0050812209e-08
-1.4334554335e+02   -9.7499146003e-09
-1.4324786325e+02   -9.4313831702e-09
-1.4315018315e+02   -9.0952916083e-09
-1.4305250305e+02   -8.7417398710e-09
-1.4295482295e+02   -8.3708547172e-09
-1.4285714286e+02   -7.9827902177e-09
-1.4275946276e+02   -7.5777282377e-09
-1.4266178266e+02   -7.1558788892e-09
-1.4256410256e+02   -6.7174809527e-09
-1.4246642247e+02   -6.2628022674e-09
-1.4236874237e+02   -5.7921400852e-09
-1.4227106227e+02   -5.3058213908e-09
-1.4217338217e+02   -4.8042031832e-09
-1.4207570208e+02   -4.2876727180e-09
-1.4197802198e+02   -3.7566477098e-09
-1.4188034188e+02   -3.2115764916e-09
-1.4178266178e+02   -2.6529381301e-09
-1.4168498168e+02   -2.0812424964e-09
-1.4158730159e+02   -1.4970302884e-09
-1.4148962149e+02   -9.0087300620e-10
-1.4139194139e+02   -2.9337287627e-10
-1.4129426129e+02   3.2483727528e-10
-1.4119658120e+02   9.5309420209e-10
-1.4109890110e+02   1.5907044713e-09
-1.4100122100e+02   2.2369447528e-09
-1.4090354090e+02   2.8910621644e-09
-1.4080586081e+02   3.5522746761e-09
-1.4070818071e+02   4.2197715717e-09
-1.4061050061e+02   4.8927139721e-09
-1.4051282051e+02   5.5702354177e-09
-1.4041514042e+02   6.2514425142e-09
-1.4031746032e+02   6.9354156401e-09
-1.4021978022e+02   7.6212097175e-09
-1.4012210012e+02   8.3078550479e-09
-1.4002442002e+02   8.9943582113e-09
-1.3992673993e+02   9.6797030307e-09
-1.3982905983e+02   1.0362851602e-08
-1.3973137973e+02   1.1042745391e-08
-1.3963369963e+02   1.1718306392e-08
-1.3953601954e+02   1.2388438355e-08
-1.3943833944e+02   1.3052028080e-08
-1.3934065934e+02   1.3707946773e-08
-1.3924297924e+02   1.4355051471e-08
-1.3914529915e+02   1.4992186523e-08
-1.3904761905e+02   1.5618185150e-08
-1.3894993895e+02   1.6231871051e-08
-1.3885225885e+02   1.6832060083e-08
-1.3875457875e+02   1.7417561999e-08
-1.3865689866e+02   1.7987182242e-08
-1.3855921856e+02   1.8539723803e-08
-1.3846153846e+02   1.9073989135e-08
-1.3836385836e+02   1.9588782118e-08
-1.3826617827e+02   2.0082910083e-08
-1.3816849817e+02   2.0555185883e-08
-1.3807081807e+02   2.1004430020e-08
-1.3797313797e+02   2.1429472809e-08
-1.3787545788e+02   2.1829156598e-08
-1.3777777778e+02   2.2202338020e-08
-1.3768009768e+02   2.2547890293e-08
-1.3758241758e+02   2.2864705545e-08
-1.3748473748e+02   2.3151697188e-08
-1.3738705739e+02   2.3407802306e-08
-1.3728937729e+02   2.3631984077e-08
-1.3719169719e+02   2.3823234218e-08
-1.3709401709e+02   2.3980575447e-08
-1.3699633700e+02   2.4103063961e-08
-1.3689865690e+02   2.4189791919e-08
-1.3680097680e+02   2.4239889946e-08
-1.3670329670e+02   2.4252529619e-08
-1.3660561661e+02   2.4226925968e-08
-1.3650793651e+02   2.4162339958e-08
-1.3641025641e+02   2.4058080968e-08
-1.3631257631e+02   2.3913509243e-08
-1.3621489621e+02   2.3728038332e-08
-1.3611721612e+02   2.3501137493e-08
-1.3601953602e+02   2.3232334070e-08
-1.3592185592e+02   2.2921215824e-08
-1.3582417582e+02   2.2567433229e-08
-1.3572649573e+02   2.2170701710e-08
-1.3562881563e+02   2.1730803829e-08
-1.3553113553e+02   2.1247591411e-08
-1.3543345543e+02   2.0720987599e-08
-1.3533577534e+02   2.0150988837e-08
-1.3523809524e+02   1.9537666776e-08
-1.3514041514e+02   1.8881170088e-08
-1.3504273504e+02   1.8181726193e-08
-1.3494505495e+02   1.7439642889e-08
-1.3484737485e+02   1.6655309874e-08
-1.3474969475e+02   1.5829200158e-08
-1.3465201465e+02   1.4961871361e-08
-1.3455433455e+02   1.4053966890e-08
-1.3445665446e+02   1.3106216977e-08
-1.3435897436e+02   1.2119439599e-08
-1.3426129426e+02   1.1094541241e-08
-1.3416361416e+02   1.0032517525e-08
-1.3406593407e+02   8.9344536783e-09
-1.3396825397e+02   7.8015248475e-09
-1.3387057387e+02   6.6349962521e-09
-1.3377289377e+02   5.4362231642e-09
-1.3367521368e+02   4.2066507184e-09
-1.3357753358e+02   2.9478135411e-09
-1.3347985348e+02   1.6613351977e-09
-1.3338217338e+02   3.4892745125e-10
-1.3328449328e+02   -9.8761067066e-10
-1.3318681319e+02   -2.3463940054e-09
-1.3308913309e+02   -3.7254525844e-09
-1.3299145299e+02   -5.1227331659e-09
-1.3289377289e+02   -6.5361009737e-09
-1.3279609280e+02   -7.9633416454e-09
-1.3269841270e+02   -9.4021633926e-09
-1.3260073260e+02   -1.0850199374e-08
-1.3250305250e+02   -1.2305010286e-08
-1.3240537241e+02   -1.3764087167e-08
-1.3230769231e+02   -1.5224854422e-08
-1.3221001221e+02   -1.6684673064e-08
-1.3211233211e+02   -1.8140844175e-08
-1.3201465201e+02   -1.9590612582e-08
-1.3191697192e+02   -2.1031170754e-08
-1.3181929182e+02   -2.2459662910e-08
-1.3172161172e+02   -2.3873189342e-08
-1.3162393162e+02   -2.5268810951e-08
-1.3152625153e+02   -2.6643553987e-08
-1.3142857143e+02   -2.7994414998e-08
-1.3133089133e+02   -2.9318365975e-08
-1.3123321123e+02   -3.0612359696e-08
-1.3113553114e+02   -3.1873335257e-08
-1.3103785104e+02   -3.3098223794e-08
-1.3094017094e+02   -3.4283954373e-08
-1.3084249084e+02   -3.5427460063e-08
-1.3074481074e+02   -3.6525684160e-08
-1.3064713065e+02   -3.7575586580e-08
-1.3054945055e+02   -3.8574150385e-08
-1.3045177045e+02   -3.9518388459e-08
-1.3035409035e+02   -4.0405350296e-08
-1.3025641026e+02   -4.1232128920e-08
-1.3015873016e+02   -4.1995867900e-08
-1.3006105006e+02   -4.2693768461e-08
-1.2996336996e+02   -4.3323096674e-08
-1.2986568987e+02   -4.3881190716e-08
-1.2976800977e+02   -4.4365468184e-08
-1.2967032967e+02   -4.4773433448e-08
-1.2957264957e+02   -4.5102685027e-08
-1.2947496947e+02   -4.5350922975e-08
-1.2937728938e+02   -4.5515956268e-08
-1.2927960928e+02   -4.5595710157e-08
-1.2918192918e+02   -4.5588233490e-08
-1.2908424908e+02   -4.5491705974e-08
-1.2898656899e+02   -4.5304445366e-08
-1.2888888889e+02   -4.5024914568e-08
-1.2879120879e+02   -4.4651728609e-08
-1.2869352869e+02   -4.4183661507e-08
-1.2859584860e+02   -4.3619652973e-08
-1.2849816850e+02   -4.2958814948e-08
-1.2840048840e+02   -4.2200437956e-08
-1.2830280830e+02   -4.1343997244e-08
-1.2820512821e+02   -4.0389158701e-08
-1.2810744811e+02   -3.9335784518e-08
-1.2800976801e+02   -3.8183938593e-08
-1.2791208791e+02   -3.6933891631e-08
-1.2781440781e+02   -3.5586125954e-08
-1.2771672772e+02   -3.4141339961e-08
-1.2761904762e+02   -3.2600452256e-08
-1.2752136752e+02   -3.0964605395e-08
-1.2742368742e+02   -2.9235169245e-08
-1.2732600733e+02   -2.7413743944e-08
-1.2722832723e+02   -2.5502162415e-08
-1.2713064713e+02   -2.3502492450e-08
-1.2703296703e+02   -2.1417038317e-08
-1.2693528694e+02   -1.9248341892e-08
-1.2683760684e+02   -1.6999183280e-08
-1.2673992674e+02   -1.4672580930e-08
-1.2664224664e+02   -1.2271791208e-08
-1.2654456654e+02   -9.8003074260e-09
-1.2644688645e+02   -7.2618583033e-09
-1.2634920635e+02   -4.6604058569e-09
-1.2625152625e+02   -2.0001426971e-09
-1.2615384615e+02   7.1451127605e-10
-1.2605616606e+02   3.4789127879e-09
-1.2595848596e+02   6.2881997262e-09
-1.2586080586e+02   9.1372963076e-09
-1.2576312576e+02   1.2020918880e-08
-1.2566544567e+02   1.4933582370e-08
-1.2556776557e+02   1.7869607370e-08
-1.2547008547e+02   2.0823127888e-08
-1.2537240537e+02   2.3788099731e-08
-1.2527472527e+02   2.6758309556e-08
-1.2517704518e+02   2.9727384559e-08
-1.2507936508e+02   3.2688802816e-08
-1.2498168498e+02   3.5635904261e-08
-1.2488400488e+02   3.8561902301e-08
-1.2478632479e+02   4.1459896053e-08
-1.2468864469e+02   4.4322883203e-08
-1.2459096459e+02   4.7143773458e-08
-1.2449328449e+02   4.9915402598e-08
-1.2439560440e+02   5.2630547089e-08
-1.2429792430e+02   5.5281939262e-08
-1.2420024420e+02   5.7862283015e-08
-1.2410256410e+02   6.0364270042e-08
-1.2400488400e+02   6.2780596539e-08
-1.2390720391e+02   6.5103980374e-08
-1.2380952381e+02   6.7327178701e-08
-1.2371184371e+02   6.9443005971e-08
-1.2361416361e+02   7.1444352316e-08
-1.2351648352e+02   7.3324202277e-08
-1.2341880342e+02   7.5075653829e-08
-1.2332112332e+02   7.6691937681e-08
-1.2322344322e+02   7.8166436790e-08
-1.2312576313e+02   7.9492706066e-08
-1.2302808303e+02   8.0664492219e-08
-1.2293040293e+02   8.1675753696e-08
-1.2283272283e+02   8.2520680672e-08
-1.2273504274e+02   8.3193715036e-08
-1.2263736264e+02   8.3689570333e-08
-1.2253968254e+02   8.4003251596e-08
-1.2244200244e+02   8.4130075035e-08
-1.2234432234e+02   8.4065687504e-08
-1.2224664225e+02   8.3806085710e-08
-1.2214896215e+02   8.3347635107e-08
-1.2205128205e+02   8.2687088394e-08
-1.2195360195e+02   8.1821603592e-08
-1.2185592186e+02   8.0748761618e-08
-1.2175824176e+02   7.9466583295e-08
-1.2166056166e+02   7.7973545759e-08
-1.2156288156e+02   7.6268598172e-08
-1.2146520147e+02   7.4351176709e-08
-1.2136752137e+02   7.2221218736e-08
-1.2126984127e+02   6.9879176130e-08
-1.2117216117e+02   6.7326027676e-08
-1.2107448107e+02   6.4563290485e-08
-1.2097680098e+02   6.1593030365e-08
-1.2087912088e+02   5.8417871095e-08
-1.2078144078e+02   5.5041002543e-08
-1.2068376068e+02   5.1466187564e-08
-1.2058608059e+02   4.7697767636e-08
-1.2048840049e+02   4.3740667166e-08
-1.2039072039e+02   3.9600396426e-08
-1.2029304029e+02   3.5283053063e-08
-1.2019536020e+02   3.0795322140e-08
-1.2009768010e+02   2.6144474658e-08
-1.2000000000e+02   2.1338364521e-08
-1.1990231990e+02   1.6385423905e-08
-1.1980463980e+02   1.1294656985e-08
-1.1970695971e+02   6.0756320048e-09
-1.1960927961e+02   7.3847164202e-10
-1.1951159951e+02   -4.7061583473e-09
-1.1941391941e+02   -1.0247062230e-08
-1.1931623932e+02   -1.5872529160e-08
-1.1921855922e+02   -2.1570349822e-08
-1.1912087912e+02   -2.7327834858e-08
-1.1902319902e+02   -3.3131835091e-08
-1.1892551893e+02   -3.8968763537e-08
-1.1882783883e+02   -4.4824619200e-08
-1.1873015873e+02   -5.0685012656e-08
-1.1863247863e+02   -5.6535193384e-08
-1.1853479853e+02   -6.2360078846e-08
-1.1843711844e+02   -6.8144285285e-08
-1.1833943834e+02   -7.3872160198e-08
-1.1824175824e+02   -7.9527816457e-08
-1.1814407814e+02   -8.5095168039e-08
-1.1804639805e+02   -9.0557967297e-08
-1.1794871795e+02   -9.5899843744e-08
-1.1785103785e+02   -1.0110434426e-07
-1.1775335775e+02   -1.0615497467e-07
-1.1765567766e+02   -1.1103524265e-07
-1.1755799756e+02   -1.1572870178e-07
-1.1746031746e+02   -1.2021899680e-07
-1.1736263736e+02   -1.2448990989e-07
-1.1726495726e+02   -1.2852540785e-07
-1.1716727717e+02   -1.3230969019e-07
-1.1706959707e+02   -1.3582723788e-07
-1.1697191697e+02   -1.3906286279e-07
-1.1687423687e+02   -1.4200175756e-07
-1.1677655678e+02   -1.4462954590e-07
-1.1667887668e+02   -1.4693233307e-07
-1.1658119658e+02   -1.4889675658e-07
-1.1648351648e+02   -1.5051003668e-07
-1.1638583639e+02   -1.5176002686e-07
-1.1628815629e+02   -1.5263526389e-07
-1.1619047619e+02   -1.5312501747e-07
-1.1609279609e+02   -1.5321933919e-07
-1.1599511600e+02   -1.5290911071e-07
-1.1589743590e+02   -1.5218609100e-07
-1.1579975580e+02   -1.5104296248e-07
-1.1570207570e+02   -1.4947337581e-07
-1.1560439560e+02   -1.4747199330e-07
-1.1550671551e+02   -1.4503453064e-07
-1.1540903541e+02   -1.4215779688e-07
-1.1531135531e+02   -1.3883973242e-07
-1.1521367521e+02   -1.3507944489e-07
-1.1511599512e+02   -1.3087724270e-07
-1.1501831502e+02   -1.2623466614e-07
-1.1492063492e+02   -1.2115451587e-07
-1.1482295482e+02   -1.1564087852e-07
-1.1472527473e+02   -1.0969914948e-07
-1.1462759463e+02   -1.0333605241e-07
-1.1452991453e+02   -9.6559655601e-08
-1.1443223443e+02   -8.9379384871e-08
-1.1433455433e+02   -8.1806032906e-08
-1.1423687424e+02   -7.3851764913e-08
-1.1413919414e+02   -6.5530120444e-08
-1.1404151404e+02   -5.6856011276e-08
-1.1394383394e+02   -4.7845715227e-08
-1.1384615385e+02   -3.8516865812e-08
-1.1374847375e+02   -2.8888437624e-08
-1.1365079365e+02   -1.8980727382e-08
-1.1355311355e+02   -8.8153305350e-09
-1.1345543346e+02   1.5848866128e-09
-1.1335775336e+02   1.2195819328e-08
-1.1326007326e+02   2.2992161457e-08
-1.1316239316e+02   3.3947447057e-08
-1.1306471306e+02   4.5034096651e-08
-1.1296703297e+02   5.6223468122e-08
-1.1286935287e+02   6.7485912224e-08
-1.1277167277e+02   7.8790832691e-08
-1.1267399267e+02   9.0106750899e-08
-1.1257631258e+02   1.0140137502e-07
-1.1247863248e+02   1.1264167360e-07
-1.1238095238e+02   1.2379395346e-07
-1.1228327228e+02   1.3482394187e-07
-1.1218559219e+02   1.4569687274e-07
-1.1208791209e+02   1.5637757687e-07
-1.1199023199e+02   1.6683057597e-07
-1.1189255189e+02   1.7702018029e-07
-1.1179487179e+02   1.8691058977e-07
-1.1169719170e+02   1.9646599836e-07
-1.1159951160e+02   2.0565070138e-07
-1.1150183150e+02   2.1442920571e-07
-1.1140415140e+02   2.2276634242e-07
-1.1130647131e+02   2.3062738169e-07
-1.1120879121e+02   2.3797814969e-07
-1.1111111111e+02   2.4478514713e-07
-1.1101343101e+02   2.5101566906e-07
-1.1091575092e+02   2.5663792579e-07
-1.1081807082e+02   2.6162116439e-07
-1.1072039072e+02   2.6593579046e-07
-1.1062271062e+02   2.6955348987e-07
-1.1052503053e+02   2.7244735002e-07
-1.1042735043e+02   2.7459198017e-07
-1.1032967033e+02   2.7596363057e-07
-1.1023199023e+02   2.7654030984e-07
-1.1013431013e+02   2.7630190028e-07
-1.1003663004e+02   2.7523027057e-07
-1.0993894994e+02   2.7330938554e-07
-1.0984126984e+02   2.7052541250e-07
-1.0974358974e+02   2.6686682363e-07
-1.0964590965e+02   2.6232449416e-07
-1.0954822955e+02   2.5689179565e-07
-1.0945054945e+02   2.5056468421e-07
-1.0935286935e+02   2.4334178292e-07
-1.0925518926e+02   2.3522445820e-07
-1.0915750916e+02   2.2621688969e-07
-1.0905982906e+02   2.1632613312e-07
-1.0896214896e+02   2.0556217583e-07
-1.0886446886e+02   1.9393798445e-07
-1.0876678877e+02   1.8146954452e-07
-1.0866910867e+02   1.6817589143e-07
-1.0857142857e+02   1.5407913248e-07
-1.0847374847e+02   1.3920445974e-07
-1.0837606838e+02   1.2358015321e-07
-1.0827838828e+02   1.0723757415e-07
-1.0818070818e+02   9.0211148193e-08
-1.0808302808e+02   7.2538338054e-08
-1.0798534799e+02   5.4259605545e-08
-1.0788766789e+02   3.5418362721e-08
-1.0778998779e+02   1.6060911996e-08
-1.0769230769e+02   -3.7636249425e-09
-1.0759462759e+02   -2.4003389496e-08
-1.0749694750e+02   -4.4603879894e-08
-1.0739926740e+02   -6.5508056329e-08
-1.0730158730e+02   -8.6656457499e-08
-1.0720390720e+02   -1.0798732851e-07
-1.0710622711e+02   -1.2943676005e-07
-1.0700854701e+02   -1.5093883877e-07
-1.0691086691e+02   -1.7242580862e-07
-1.0681318681e+02   -1.9382824299e-07
-1.0671550672e+02   -2.1507522746e-07
-1.0661782662e+02   -2.3609455272e-07
-1.0652014652e+02   -2.5681291748e-07
-1.0642246642e+02   -2.7715614087e-07
-1.0632478632e+02   -2.9704938403e-07
-1.0622710623e+02   -3.1641738023e-07
-1.0612942613e+02   -3.3518467320e-07
-1.0603174603e+02   -3.5327586301e-07
-1.0593406593e+02   -3.7061585884e-07
-1.0583638584e+02   -3.8713013815e-07
-1.0573870574e+02   -4.0274501135e-07
-1.0564102564e+02   -4.1738789145e-07
-1.0554334554e+02   -4.3098756771e-07
-1.0544566545e+02   -4.4347448268e-07
-1.0534798535e+02   -4.5478101150e-07
-1.0525030525e+02   -4.6484174294e-07
-1.0515262515e+02   -4.7359376084e-07
-1.0505494505e+02   -4.8097692541e-07
-1.0495726496e+02   -4.8693415298e-07
-1.0485958486e+02   -4.9141169359e-07
-1.0476190476e+02   -4.9435940508e-07
-1.0466422466e+02   -4.9573102275e-07
-1.0456654457e+02   -4.9548442348e-07
-1.0446886447e+02   -4.9358188331e-07
-1.0437118437e+02   -4.8999032714e-07
-1.0427350427e+02   -4.8468156969e-07
-1.0417582418e+02   -4.7763254648e-07
-1.0407814408e+02   -4.6882553363e-07
-1.0398046398e+02   -4.5824835559e-07
-1.0388278388e+02   -4.4589457942e-07
-1.0378510379e+02   -4.3176369469e-07
-1.0368742369e+02   -4.1586127793e-07
-1.0358974359e+02   -3.9819914043e-07
-1.0349206349e+02   -3.7879545846e-07
-1.0339438339e+02   -3.5767488490e-07
-1.0329670330e+02   -3.3486864125e-07
-1.0319902320e+02   -3.1041458913e-07
-1.0310134310e+02   -2.8435728035e-07
-1.0300366300e+02   -2.5674798477e-07
-1.0290598291e+02   -2.2764469503e-07
-1.0280830281e+02   -1.9711210757e-07
-1.0271062271e+02   -1.6522157923e-07
-1.0261294261e+02   -1.3205105872e-07
-1.0251526252e+02   -9.7684992593e-08
-1.0241758242e+02   -6.2214205175e-08
-1.0231990232e+02   -2.5735752104e-08
-1.0222222222e+02   1.1647252800e-08
-1.0212454212e+02   4.9825837546e-08
-1.0202686203e+02   8.8685398941e-08
-1.0192918193e+02   1.2810595656e-07
-1.0183150183e+02   1.6796243357e-07
-1.0173382173e+02   2.0812496430e-07
-1.0163614164e+02   2.4845922814e-07
-1.0153846154e+02   2.8882680947e-07
-1.0144078144e+02   3.2908558301e-07
-1.0134310134e+02   3.6909012407e-07
-1.0124542125e+02   4.0869214279e-07
-1.0114774115e+02   4.4774094168e-07
-1.0105006105e+02   4.8608389542e-07
-1.0095238095e+02   5.2356695177e-07
-1.0085470085e+02   5.6003515246e-07
-1.0075702076e+02   5.9533317279e-07
-1.0065934066e+02   6.2930587830e-07
-1.0056166056e+02   6.6179889726e-07
-1.0046398046e+02   6.9265920707e-07
-1.0036630037e+02   7.2173573291e-07
-1.0026862027e+02   7.4887995686e-07
-1.0017094017e+02   7.7394653537e-07
-1.0007326007e+02   7.9679392307e-07
-9.9975579976e+01   8.1728500089e-07
-9.9877899878e+01   8.3528770601e-07
-9.9780219780e+01   8.5067566157e-07
-9.9682539683e+01   8.6332880359e-07
-9.9584859585e+01   8.7313400266e-07
-9.9487179487e+01   8.7998567791e-07
-9.9389499389e+01   8.8378640072e-07
-9.9291819292e+01   8.8444748538e-07
-9.9194139194e+01   8.8188956434e-07
-9.9096459096e+01   8.7604314501e-07
-9.8998778999e+01   8.6684914571e-07
-9.8901098901e+01   8.5425940793e-07
-9.8803418803e+01   8.3823718216e-07
-9.8705738706e+01   8.1875758472e-07
-9.8608058608e+01   7.9580802279e-07
-9.8510378510e+01   7.6938858515e-07
-9.8412698413e+01   7.3951239594e-07
-9.8315018315e+01   7.0620592896e-07
-9.8217338217e+01   6.6950928007e-07
-9.8119658120e+01   6.2947639533e-07
-9.8021978022e+01   5.8617525264e-07
-9.7924297924e+01   5.3968799455e-07
-9.7826617827e+01   4.9011101055e-07
-9.7728937729e+01   4.3755496651e-07
-9.7631257631e+01   3.8214477988e-07
-9.7533577534e+01   3.2401953887e-07
-9.7435897436e+01   2.6333236410e-07
-9.7338217338e+01   2.0025021178e-07
-9.7240537241e+01   1.3495361693e-07
-9.7142857143e+01   6.7636376213e-08
-9.7045177045e+01   -1.4948305616e-09
-9.6947496947e+01   -7.2220880557e-08
-9.6849816850e+01   -1.4431070983e-07
-9.6752136752e+01   -2.1752187705e-07
-9.6654456654e+01   -2.9160118864e-07
-9.6556776557e+01   -3.6628538483e-07
-9.6459096459e+01   -4.4130188581e-07
-9.6361416361e+01   -5.1636959680e-07
-9.6263736264e+01   -5.9119977078e-07
-9.6166056166e+01   -6.6549692708e-07
-9.6068376068e+01   -7.3895982411e-07
-9.5970695971e+01   -8.1128248383e-07
-9.5873015873e+01   -8.8215526555e-07
-9.5775335775e+01   -9.5126598628e-07
-9.5677655678e+01   -1.0183010845e-06
-9.5579975580e+01   -1.0829468244e-06
-9.5482295482e+01   -1.1448905360e-06
-9.5384615385e+01   -1.2038218886e-06
-9.5286935287e+01   -1.2594341925e-06
-9.5189255189e+01   -1.3114257248e-06
-9.5091575092e+01   -1.3595010749e-06
-9.4993894994e+01   -1.4033725042e-06
-9.4896214896e+01   -1.4427613159e-06
-9.4798534799e+01   -1.4773992289e-06
-9.4700854701e+01   -1.5070297502e-06
-9.4603174603e+01   -1.5314095407e-06
-9.4505494505e+01   -1.5503097680e-06
-9.4407814408e+01   -1.5635174412e-06
-9.4310134310e+01   -1.5708367202e-06
-9.4212454212e+01   -1.5720901944e-06
-9.4114774115e+01   -1.5671201243e-06
-9.4017094017e+01   -1.5557896398e-06
-9.3919413919e+01   -1.5379838882e-06
-9.3821733822e+01   -1.5136111266e-06
-9.3724053724e+01   -1.4826037519e-06
-9.3626373626e+01   -1.4449192619e-06
-9.3528693529e+01   -1.4005411414e-06
-9.3431013431e+01   -1.3494796684e-06
-9.3333333333e+01   -1.2917726324e-06
-9.3235653236e+01   -1.2274859612e-06
-9.3137973138e+01   -1.1567142489e-06
-9.3040293040e+01   -1.0795811810e-06
-9.2942612943e+01   -9.9623985124e-07
-9.2844932845e+01   -9.0687296504e-07
-9.2747252747e+01   -8.1169292568e-07
-9.2649572650e+01   -7.1094179873e-07
-9.2551892552e+01   -6.0489115131e-07
-9.2454212454e+01   -4.9384176284e-07
-9.2356532357e+01   -3.7812320438e-07
-9.2258852259e+01   -2.5809328426e-07
-9.2161172161e+01   -1.3413735824e-07
-9.2063492063e+01   -6.6675026182e-09
-9.1965811966e+01   1.2387845030e-07
-9.1868131868e+01   2.5703801463e-07
-9.1770451770e+01   3.9232529103e-07
-9.1672771673e+01   5.2923234334e-07
-9.1575091575e+01   6.6723071033e-07
-9.1477411477e+01   8.0577305025e-07
-9.1379731380e+01   9.4429491526e-07
-9.1282051282e+01   1.0822166524e-06
-9.1184371184e+01   1.2189454267e-06
-9.1086691087e+01   1.3538773617e-06
-9.0989010989e+01   1.4863997917e-06
-9.0891330891e+01   1.6158936196e-06
-9.0793650794e+01   1.7417357738e-06
-9.0695970696e+01   1.8633017558e-06
-9.0598290598e+01   1.9799682712e-06
-9.0500610501e+01   2.0911159345e-06
-9.0402930403e+01   2.1961320394e-06
-9.0305250305e+01   2.2944133827e-06
-9.0207570208e+01   2.3853691333e-06
-9.0109890110e+01   2.4684237337e-06
-9.0012210012e+01   2.5430198226e-06
-8.9914529915e+01   2.6086211672e-06
-8.9816849817e+01   2.6647155915e-06
-8.9719169719e+01   2.7108178884e-06
-8.9621489621e+01   2.7464727016e-06
-8.9523809524e+01   2.7712573646e-06
-8.9426129426e+01   2.7847846823e-06
-8.9328449328e+01   2.7867056398e-06
-8.9230769231e+01   2.7767120273e-06
-8.9133089133e+01   2.7545389633e-06
-8.9035409035e+01   2.7199673040e-06
-8.8937728938e+01   2.6728259234e-06
-8.8840048840e+01   2.6129938503e-06
-8.8742368742e+01   2.5404022481e-06
-8.8644688645e+01   2.4550362233e-06
-8.8547008547e+01   2.3569364498e-06
-8.8449328449e+01   2.2462005943e-06
-8.8351648352e+01   2.1229845327e-06
-8.8253968254e+01   1.9875033427e-06
-8.8156288156e+01   1.8400320624e-06
-8.8058608059e+01   1.6809062046e-06
-8.7960927961e+01   1.5105220145e-06
-8.7863247863e+01   1.3293364644e-06
-8.7765567766e+01   1.1378669744e-06
-8.7667887668e+01   9.3669085352e-07
-8.7570207570e+01   7.2644445348e-07
-8.7472527473e+01   5.0782203116e-07
-8.7374847375e+01   2.8157431446e-07
-8.7277167277e+01   4.8506769286e-08
-8.7179487179e+01   -1.9052243410e-07
-8.7081807082e+01   -4.3460475572e-07
-8.6984126984e+01   -6.8278392040e-07
-8.6886446886e+01   -9.3405884961e-07
-8.6788766789e+01   -1.1873868868e-06
-8.6691086691e+01   -1.4416873107e-06
-8.6593406593e+01   -1.6958451297e-06
-8.6495726496e+01   -1.9487151482e-06
-8.6398046398e+01   -2.1991262965e-06
-8.6300366300e+01   -2.4458862106e-06
-8.6202686203e+01   -2.6877860500e-06
-8.6105006105e+01   -2.9236055385e-06
-8.6007326007e+01   -3.1521182119e-06
-8.5909645910e+01   -3.3720968543e-06
-8.5811965812e+01   -3.5823191047e-06
-8.5714285714e+01   -3.7815732120e-06
-8.5616605617e+01   -3.9686639180e-06
-8.5518925519e+01   -4.1424184429e-06
-8.5421245421e+01   -4.3016925509e-06
-8.5323565324e+01   -4.4453766679e-06
-8.5225885226e+01   -4.5724020264e-06
-8.5128205128e+01   -4.6817468077e-06
-8.5030525031e+01   -4.7724422540e-06
-8.4932844933e+01   -4.8435787193e-06
-8.4835164835e+01   -4.8943116301e-06
-8.4737484737e+01   -4.9238673237e-06
-8.4639804640e+01   -4.9315487331e-06
-8.4542124542e+01   -4.9167408864e-06
-8.4444444444e+01   -4.8789161896e-06
-8.4346764347e+01   -4.8176394590e-06
-8.4249084249e+01   -4.7325726735e-06
-8.4151404151e+01   -4.6234794132e-06
-8.4053724054e+01   -4.4902289545e-06
-8.3956043956e+01   -4.3327999902e-06
-8.3858363858e+01   -4.1512839455e-06
-8.3760683761e+01   -3.9458878606e-06
-8.3663003663e+01   -3.7169368120e-06
-8.3565323565e+01   -3.4648758470e-06
-8.3467643468e+01   -3.1902714051e-06
-8.3369963370e+01   -2.8938122043e-06
-8.3272283272e+01   -2.5763095698e-06
-8.3174603175e+01   -2.2386971860e-06
-8.3076923077e+01   -1.8820302543e-06
-8.2979242979e+01   -1.5074840419e-06
-8.2881562882e+01   -1.1163518088e-06
-8.2783882784e+01   -7.1004210289e-07
-8.2686202686e+01   -2.9007541566e-07
-8.2588522589e+01   1.4191980476e-07
-8.2490842491e+01   5.8421178595e-07
-8.2393162393e+01   1.0349707063e-06
-8.2295482295e+01   1.4922746084e-06
-8.2197802198e+01   1.9541159416e-06
-8.2100122100e+01   2.4184087238e-06
-8.2002442002e+01   2.8829963051e-06
-8.1904761905e+01   3.3456597165e-06
-8.1807081807e+01   3.8041265812e-06
-8.1709401709e+01   4.2560805623e-06
-8.1611721612e+01   4.6991713180e-06
-8.1514041514e+01   5.1310249325e-06
-8.1416361416e+01   5.5492547852e-06
-8.1318681319e+01   5.9514728196e-06
-8.1221001221e+01   6.3353011687e-06
-8.1123321123e+01   6.6983840917e-06
-8.1025641026e+01   7.0384001712e-06
-8.0927960928e+01   7.3530747207e-06
-8.0830280830e+01   7.6401923461e-06
-8.0732600733e+01   7.8976096046e-06
-8.0634920635e+01   8.1232677009e-06
-8.0537240537e+01   8.3152051575e-06
-8.0439560440e+01   8.4715703972e-06
-8.0341880342e+01   8.5906341693e-06
-8.0244200244e+01   8.6708017546e-06
-8.0146520147e+01   8.7106248791e-06
-8.0048840049e+01   8.7088132684e-06
-7.9951159951e+01   8.6642457719e-06
-7.9853479853e+01   8.5759809877e-06
-7.9755799756e+01   8.4432673183e-06
-7.9658119658e+01   8.2655523867e-06
-7.9560439560e+01   8.0424917472e-06
-7.9462759463e+01   7.7739568203e-06
-7.9365079365e+01   7.4600419900e-06
-7.9267399267e+01   7.1010707969e-06
-7.9169719170e+01   6.6976011687e-06
-7.9072039072e+01   6.2504296290e-06
-7.8974358974e+01   5.7605944303e-06
-7.8876678877e+01   5.2293775590e-06
-7.8778998779e+01   4.6583055673e-06
-7.8681318681e+01   4.0491491879e-06
-7.8583638584e+01   3.4039216949e-06
-7.8485958486e+01   2.7248759775e-06
-7.8388278388e+01   2.0145003007e-06
-7.8290598291e+01   1.2755127304e-06
-7.8192918193e+01   5.1085420971e-07
-7.8095238095e+01   -2.7631972304e-07
-7.7997557998e+01   -1.0826485761e-06
-7.7899877900e+01   -1.9045778997e-06
-7.7802197802e+01   -2.7383716242e-06
-7.7704517705e+01   -3.5801257182e-06
-7.7606837607e+01   -4.4257831423e-06
-7.7509157509e+01   -5.2711500605e-06
-7.7411477411e+01   -6.1119132677e-06
-7.7313797314e+01   -6.9436587820e-06
-7.7216117216e+01   -7.7618915432e-06
-7.7118437118e+01   -8.5620561506e-06
-7.7020757021e+01   -9.3395585664e-06
-7.6923076923e+01   -1.0089788703e-05
-7.6825396825e+01   -1.0808143802e-05
-7.6727716728e+01   -1.1490052520e-05
-7.6630036630e+01   -1.2130999592e-05
-7.6532356532e+01   -1.2726550999e-05
-7.6434676435e+01   -1.3272379487e-05
-7.6336996337e+01   -1.3764290343e-05
-7.6239316239e+01   -1.4198247282e-05
-7.6141636142e+01   -1.4570398323e-05
-7.6043956044e+01   -1.4877101508e-05
-7.5946275946e+01   -1.5114950335e-05
-7.5848595849e+01   -1.5280798750e-05
-7.5750915751e+01   -1.5371785549e-05
-7.5653235653e+01   -1.5385358059e-05
-7.5555555556e+01   -1.5319294924e-05
-7.5457875458e+01   -1.5171727866e-05
-7.5360195360e+01   -1.4941162256e-05
-7.5262515263e+01   -1.4626496360e-05
-7.5164835165e+01   -1.4227039099e-05
-7.5067155067e+01   -1.3742526194e-05
-7.4969474969e+01   -1.3173134542e-05
-7.4871794872e+01   -1.2519494699e-05
-7.4774114774e+01   -1.1782701337e-05
-7.4676434676e+01   -1.0964321549e-05
-7.4578754579e+01   -1.0066400886e-05
-7.4481074481e+01   -9.0914670307e-06
-7.4383394383e+01   -8.0425309913e-06
-7.4285714286e+01   -6.9230857417e-06
-7.4188034188e+01   -5.7371022260e-06
-7.4090354090e+01   -4.4890226614e-06
-7.3992673993e+01   -3.1837510874e-06
-7.3894993895e+01   -1.8266411228e-06
-7.3797313797e+01   -4.2348090249e-07
-7.3699633700e+01   1.0195248150e-06
-7.3601953602e+01   2.4957753670e-06
-7.3504273504e+01   3.9982977127e-06
-7.3406593407e+01   5.5197727301e-06
-7.3308913309e+01   7.0525642327e-06
-7.3211233211e+01   8.5887506365e-06
-7.3113553114e+01   1.0120159191e-05
-7.3015873016e+01   1.1638402673e-05
-7.2918192918e+01   1.3134918422e-05
-7.2820512821e+01   1.4601009579e-05
-7.2722832723e+01   1.6027888382e-05
-7.2625152625e+01   1.7406721332e-05
-7.2527472527e+01   1.8728676061e-05
-7.2429792430e+01   1.9984969692e-05
-7.2332112332e+01   2.1166918462e-05
-7.2234432234e+01   2.2265988397e-05
-7.2136752137e+01   2.3273846774e-05
-7.2039072039e+01   2.4182414121e-05
-7.1941391941e+01   2.4983916482e-05
-7.1843711844e+01   2.5670937661e-05
-7.1746031746e+01   2.6236471159e-05
-7.1648351648e+01   2.6673971498e-05
-7.1550671551e+01   2.6977404637e-05
-7.1452991453e+01   2.7141297153e-05
-7.1355311355e+01   2.7160783876e-05
-7.1257631258e+01   2.7031653672e-05
-7.1159951160e+01   2.6750393030e-05
-7.1062271062e+01   2.6314227167e-05
-7.0964590965e+01   2.5721158308e-05
-7.0866910867e+01   2.4970000846e-05
-7.0769230769e+01   2.4060413088e-05
-7.0671550672e+01   2.2992925266e-05
-7.0573870574e+01   2.1768963570e-05
-7.0476190476e+01   2.0390869891e-05
-7.0378510379e+01   1.8861917060e-05
-7.0280830281e+01   1.7186319313e-05
-7.0183150183e+01   1.5369237785e-05
-7.0085470085e+01   1.3416780827e-05
-6.9987789988e+01   1.1335998970e-05
-6.9890109890e+01   9.1348743895e-06
-6.9792429792e+01   6.8223047452e-06
-6.9694749695e+01   4.4080813006e-06
-6.9597069597e+01   1.9028612545e-06
-6.9499389499e+01   -6.8186575014e-07
-6.9401709402e+01   -3.3338169424e-06
-6.9304029304e+01   -6.0399615354e-06
-6.9206349206e+01   -8.7865715695e-06
-6.9108669109e+01   -1.1559278386e-05
-6.9010989011e+01   -1.4343134593e-05
-6.8913308913e+01   -1.7122681363e-05
-6.8815628816e+01   -1.9882020825e-05
-6.8717948718e+01   -2.2604893345e-05
-6.8620268620e+01   -2.5274759373e-05
-6.8522588523e+01   -2.7874885561e-05
-6.8424908425e+01   -3.0388434789e-05
-6.8327228327e+01   -3.2798559709e-05
-6.8229548230e+01   -3.5088499377e-05
-6.8131868132e+01   -3.7241678531e-05
-6.8034188034e+01   -3.9241809004e-05
-6.7936507937e+01   -4.1072992771e-05
-6.7838827839e+01   -4.2719826084e-05
-6.7741147741e+01   -4.4167504106e-05
-6.7643467643e+01   -4.5401925470e-05
-6.7545787546e+01   -4.6409796140e-05
-6.7448107448e+01   -4.7178731939e-05
-6.7350427350e+01   -4.7697359109e-05
-6.7252747253e+01   -4.7955412227e-05
-6.7155067155e+01   -4.7943828839e-05
-6.7057387057e+01   -4.7654840119e-05
-6.6959706960e+01   -4.7082056902e-05
-6.6862026862e+01   -4.6220550424e-05
-6.6764346764e+01   -4.5066927100e-05
-6.6666666667e+01   -4.3619396725e-05
-6.6568986569e+01   -4.1877833443e-05
-6.6471306471e+01   -3.9843828898e-05
-6.6373626374e+01   -3.7520736975e-05
-6.6275946276e+01   -3.4913709595e-05
-6.6178266178e+01   -3.2029723033e-05
-6.6080586081e+01   -2.8877594291e-05
-6.5982905983e+01   -2.5467987096e-05
-6.5885225885e+01   -2.1813407121e-05
-6.5787545788e+01   -1.7928186107e-05
-6.5689865690e+01   -1.3828454599e-05
-6.5592185592e+01   -9.5321030699e-06
-6.5494505495e+01   -5.0587312802e-06
-6.5396825397e+01   -4.2958576601e-07
-6.5299145299e+01   4.3325145603e-06
-6.5201465201e+01   9.2032646615e-06
-6.5103785104e+01   1.4156971360e-05
-6.5006105006e+01   1.9166662861e-05
-6.4908424908e+01   2.4204209554e-05
-6.4810744811e+01   2.9240455740e-05
-6.4713064713e+01   3.4245361857e-05
-6.4615384615e+01   3.9188156717e-05
-6.4517704518e+01   4.4037499151e-05
-6.4420024420e+01   4.8761648424e-05
-6.4322344322e+01   5.3328642665e-05
-6.4224664225e+01   5.7706484518e-05
-6.4126984127e+01   6.1863333124e-05
-6.4029304029e+01   6.5767701473e-05
-6.3931623932e+01   6.9388658122e-05
-6.3833943834e+01   7.2696032191e-05
-6.3736263736e+01   7.5660620486e-05
-6.3638583639e+01   7.8254395575e-05
-6.3540903541e+01   8.0450713563e-05
-6.3443223443e+01   8.2224520280e-05
-6.3345543346e+01   8.3552554575e-05
-6.3247863248e+01   8.4413547362e-05
-6.3150183150e+01   8.4788415045e-05
-6.3052503053e+01   8.4660445952e-05
-6.2954822955e+01   8.4015478369e-05
-6.2857142857e+01   8.2842068820e-05
-6.2759462759e+01   8.1131649185e-05
-6.2661782662e+01   7.8878671333e-05
-6.2564102564e+01   7.6080737926e-05
-6.2466422466e+01   7.2738718123e-05
-6.2368742369e+01   6.8856846940e-05
-6.2271062271e+01   6.4442807100e-05
-6.2173382173e+01   5.9507792247e-05
-6.2075702076e+01   5.4066550511e-05
-6.1978021978e+01   4.8137407459e-05
-6.1880341880e+01   4.1742267600e-05
-6.1782661783e+01   3.4906593675e-05
-6.1684981685e+01   2.7659363128e-05
-6.1587301587e+01   2.0033001211e-05
-6.1489621490e+01   1.2063290367e-05
-6.1391941392e+01   3.7892556293e-06
-6.1294261294e+01   -4.7469740692e-06
-6.1196581197e+01   -1.3500328631e-05
-6.1098901099e+01   -2.2422983380e-05
-6.1001221001e+01   -3.1464569148e-05
-6.0903540904e+01   -4.0572405345e-05
-6.0805860806e+01   -4.9691755335e-05
-6.0708180708e+01   -5.8766103281e-05
-6.0610500611e+01   -6.7737451437e-05
-6.0512820513e+01   -7.6546636732e-05
-6.0415140415e+01   -8.5133665281e-05
-6.0317460317e+01   -9.3438063348e-05
-6.0219780220e+01   -1.0139924308e-04
-6.0122100122e+01   -1.0895688120e-04
-6.0024420024e+01   -1.1605130876e-04
-5.9926739927e+01   -1.2262390967e-04
-5.9829059829e+01   -1.2861752610e-04
-5.9731379731e+01   -1.3397686799e-04
-5.9633699634e+01   -1.3864892455e-04
-5.9536019536e+01   -1.4258337501e-04
-5.9438339438e+01   -1.4573299596e-04
-5.9340659341e+01   -1.4805406266e-04
-5.9242979243e+01   -1.4950674140e-04
-5.9145299145e+01   -1.5005547021e-04
-5.9047619048e+01   -1.4966932497e-04
-5.8949938950e+01   -1.4832236810e-04
-5.8852258852e+01   -1.4599397699e-04
-5.8754578755e+01   -1.4266914931e-04
-5.8656898657e+01   -1.3833878246e-04
-5.8559218559e+01   -1.3299992445e-04
-5.8461538462e+01   -1.2665599358e-04
-5.8363858364e+01   -1.1931696441e-04
-5.8266178266e+01   -1.1099951764e-04
-5.8168498168e+01   -1.0172715176e-04
-5.8070818071e+01   -9.1530254167e-05
-5.7973137973e+01   -8.0446130246e-05
-5.7875457875e+01   -6.8518988385e-05
-5.7777777778e+01   -5.5799879742e-05
-5.7680097680e+01   -4.2346591468e-05
-5.7582417582e+01   -2.8223492476e-05
-5.7484737485e+01   -1.3501331116e-05
-5.7387057387e+01   1.7430156039e-06
-5.7289377289e+01   1.7426841308e-05
-5.7191697192e+01   3.3461957778e-05
-5.7094017094e+01   4.9755090126e-05
-5.6996336996e+01   6.6208318682e-05
-5.6898656899e+01   8.2719566336e-05
-5.6800976801e+01   9.9183129698e-05
-5.6703296703e+01   1.1549025213e-04
-5.6605616606e+01   1.3152973634e-04
-5.6507936508e+01   1.4718859382e-04
-5.6410256410e+01   1.6235272826e-04
-5.6312576313e+01   1.7690764945e-04
-5.6214896215e+01   1.9073921414e-04
-5.6117216117e+01   2.0373438977e-04
-5.6019536020e+01   2.1578203694e-04
-5.5921855922e+01   2.2677370603e-04
-5.5824175824e+01   2.3660444302e-04
-5.5726495726e+01   2.4517359978e-04
-5.5628815629e+01   2.5238564327e-04
-5.5531135531e+01   2.5815095839e-04
-5.5433455433e+01   2.6238663894e-04
-5.5335775336e+01   2.6501726073e-04
-5.5238095238e+01   2.6597563138e-04
-5.5140415140e+01   2.6520351067e-04
-5.5042735043e+01   2.6265229580e-04
-5.4945054945e+01   2.5828366550e-04
-5.4847374847e+01   2.5207017744e-04
-5.4749694750e+01   2.4399581307e-04
-5.4652014652e+01   2.3405646453e-04
-5.4554334554e+01   2.2226035817e-04
-5.4456654457e+01   2.0862840969e-04
-5.4358974359e+01   1.9319450598e-04
-5.4261294261e+01   1.7600570923e-04
-5.4163614164e+01   1.5712237920e-04
-5.4065934066e+01   1.3661820983e-04
-5.3968253968e+01   1.1458017697e-04
-5.3870573871e+01   9.1108394505e-05
-5.3772893773e+01   6.6315876368e-05
-5.3675213675e+01   4.0328203041e-05
-5.3577533578e+01   1.3283091161e-05
-5.3479853480e+01   -1.4670134137e-05
-5.3382173382e+01   -4.3371164041e-05
-5.3284493284e+01   -7.2649427226e-05
-5.3186813187e+01   -1.0232490585e-04
-5.3089133089e+01   -1.3220904420e-04
-5.2991452991e+01   -1.6210574699e-04
-5.2893772894e+01   -1.9181246377e-04
-5.2796092796e+01   -2.2112135496e-04
-5.2698412698e+01   -2.4982053448e-04
-5.2600732601e+01   -2.7769538312e-04
-5.2503052503e+01   -3.0452992617e-04
-5.2405372405e+01   -3.3010826805e-04
-5.2307692308e+01   -3.5421607619e-04
-5.2210012210e+01   -3.7664210549e-04
-5.2112332112e+01   -3.9717975453e-04
-5.2014652015e+01   -4.1562864364e-04
-5.1916971917e+01   -4.3179620484e-04
-5.1819291819e+01   -4.4549927305e-04
-5.1721611722e+01   -4.5656566749e-04
-5.1623931624e+01   -4.6483575203e-04
-5.1526251526e+01   -4.7016396279e-04
-5.1428571429e+01   -4.7242029135e-04
-5.1330891331e+01   -4.7149171139e-04
-5.1233211233e+01   -4.6728353708e-04
-5.1135531136e+01   -4.5972070105e-04
-5.1037851038e+01   -4.4874894026e-04
-5.0940170940e+01   -4.3433587816e-04
-5.0842490842e+01   -4.1647199170e-04
-5.0744810745e+01   -3.9517145252e-04
-5.0647130647e+01   -3.7047283169e-04
-5.0549450549e+01   -3.4243965822e-04
-5.0451770452e+01   -3.1116082214e-04
-5.0354090354e+01   -2.7675081379e-04
-5.0256410256e+01   -2.3934979153e-04
-5.0158730159e+01   -1.9912347155e-04
-5.0061050061e+01   -1.5626283376e-04
-4.9963369963e+01   -1.1098363947e-04
-4.9865689866e+01   -6.3525757407e-05
-4.9768009768e+01   -1.4152295888e-05
-4.9670329670e+01   3.6851459714e-05
-4.9572649573e+01   8.9179303649e-05
-4.9474969475e+01   1.4250555877e-04
-4.9377289377e+01   1.9648671443e-04
-4.9279609280e+01   2.5076324858e-04
-4.9181929182e+01   3.0496162762e-04
-4.9084249084e+01   3.5869647629e-04
-4.8986568987e+01   4.1157290833e-04
-4.8888888889e+01   4.6318900696e-04
-4.8791208791e+01   5.1313844297e-04
-4.8693528694e+01   5.6101321678e-04
-4.8595848596e+01   6.0640650906e-04
-4.8498168498e+01   6.4891562380e-04
-4.8400488400e+01   6.8814500573e-04
-4.8302808303e+01   7.2370931334e-04
-4.8205128205e+01   7.5523652733e-04
-4.8107448107e+01   7.8237107349e-04
-4.8009768010e+01   8.0477693797e-04
-4.7912087912e+01   8.2214075222e-04
-4.7814407814e+01   8.3417482431e-04
-4.7716727717e+01   8.4062009266e-04
-4.7619047619e+01   8.4124897806e-04
-4.7521367521e+01   8.3586810963e-04
-4.7423687424e+01   8.2432090036e-04
-4.7326007326e+01   8.0648994804e-04
-4.7228327228e+01   7.8229923776e-04
-4.7130647131e+01   7.5171612280e-04
-4.7032967033e+01   7.1475306128e-04
-4.6935286935e+01   6.7146908706e-04
-4.6837606838e+01   6.2197099444e-04
-4.6739926740e+01   5.6641421749e-04
-4.6642246642e+01   5.0500338643e-04
-4.6544566545e+01   4.3799254512e-04
-4.6446886447e+01   3.6568501562e-04
-4.6349206349e+01   2.8843289793e-04
-4.6251526252e+01   2.0663619509e-04
-4.6153846154e+01   1.2074155628e-04
-4.6056166056e+01   3.1240633178e-05
-4.5958485958e+01   -6.1331952620e-05
-4.5860805861e+01   -1.5640103051e-04
-4.5763125763e+01   -2.5335368653e-04
-4.5665445665e+01   -3.5154244730e-04
-4.5567765568e+01   -4.5028883270e-04
-4.5470085470e+01   -5.4888726461e-04
-4.5372405372e+01   -6.4660931600e-04
-4.5274725275e+01   -7.4270828148e-04
-4.5177045177e+01   -8.3642404733e-04
-4.5079365079e+01   -9.2698823601e-04
-4.4981684982e+01   -1.0136295970e-03
-4.4884004884e+01   -1.0955796133e-03
-4.4786324786e+01   -1.1720782895e-03
-4.4688644689e+01   -1.2423800853e-03
-4.4590964591e+01   -1.3057599562e-03
-4.4493284493e+01   -1.3615194585e-03
-4.4395604396e+01   -1.4089928783e-03
-4.4297924298e+01   -1.4475533364e-03
-4.4200244200e+01   -1.4766188251e-03
-4.4102564103e+01   -1.4956581281e-03
-4.4004884005e+01   -1.5041965741e-03
-4.3907203907e+01   -1.5018215767e-03
-4.3809523810e+01   -1.4881879090e-03
-4.3711843712e+01   -1.4630226645e-03
-4.3614163614e+01   -1.4261298555e-03
-4.3516483516e+01   -1.3773945995e-03
-4.3418803419e+01   -1.3167868487e-03
-4.3321123321e+01   -1.2443646156e-03
-4.3223443223e+01   -1.1602766522e-03
-4.3125763126e+01   -1.0647645427e-03
-4.3028083028e+01   -9.5816417077e-04
-4.2930402930e+01   -8.4090652823e-04
-4.2832722833e+01   -7.1351783281e-04
-4.2735042735e+01   -5.7661892967e-04
-4.2637362637e+01   -4.3092395351e-04
-4.2539682540e+01   -2.7723823396e-04
-4.2442002442e+01   -1.1645543183e-04
-4.2344322344e+01   5.0446100946e-05
-4.2246642247e+01   2.2240773894e-04
-4.2148962149e+01   3.9829577414e-04
-4.2051282051e+01   5.7690736940e-04
-4.1953601954e+01   7.5697725775e-04
-4.1855921856e+01   9.3718516424e-04
-4.1758241758e+01   1.1161639208e-03
-4.1660561661e+01   1.2925082382e-03
-4.1562881563e+01   1.4647840919e-03
-4.1465201465e+01   1.6315386736e-03
-4.1367521368e+01   1.7913108536e-03
-4.1269841270e+01   1.9426420911e-03
-4.1172161172e+01   2.0840877272e-03
-4.1074481074e+01   2.2142285874e-03
-4.0976800977e+01   2.3316828149e-03
-4.0879120879e+01   2.4351178536e-03
-4.0781440781e+01   2.5232624920e-03
-4.0683760684e+01   2.5949188788e-03
-4.0586080586e+01   2.6489744149e-03
-4.0488400488e+01   2.6844134257e-03
-4.0390720391e+01   2.7003285134e-03
-4.0293040293e+01   2.6959314905e-03
-4.0195360195e+01   2.6705637930e-03
-4.0097680098e+01   2.6237062720e-03
-4.0000000000e+01   2.5549882637e-03
-3.9902319902e+01   2.4641958406e-03
-3.9804639805e+01   2.3512791473e-03
-3.9706959707e+01   2.2163587284e-03
-3.9609279609e+01   2.0597307619e-03
-3.9511599512e+01   1.8818711135e-03
-3.9413919414e+01   1.6834381368e-03
-3.9316239316e+01   1.4652741480e-03
-3.9218559219e+01   1.2284055130e-03
-3.9120879121e+01   9.7404129443e-04
-3.9023199023e+01   7.0357041216e-04
-3.8925518926e+01   4.1855728368e-04
-3.8827838828e+01   1.2073592043e-04
-3.8730158730e+01   -1.8799753312e-04
-3.8632478632e+01   -5.0559381820e-04
-3.8534798535e+01   -8.2986112709e-04
-3.8437118437e+01   -1.1584771909e-03
-3.8339438339e+01   -1.4890028527e-03
-3.8241758242e+01   -1.8188970760e-03
-3.8144078144e+01   -2.1455333239e-03
-3.8046398046e+01   -2.4662172326e-03
-3.7948717949e+01   -2.7782054892e-03
-3.7851037851e+01   -3.0787258080e-03
-3.7753357753e+01   -3.3649978913e-03
-3.7655677656e+01   -3.6342552439e-03
-3.7557997558e+01   -3.8837677007e-03
-3.7460317460e+01   -4.1108645158e-03
-3.7362637363e+01   -4.3129578495e-03
-3.7264957265e+01   -4.4875664802e-03
-3.7167277167e+01   -4.6323395624e-03
-3.7069597070e+01   -4.7450802385e-03
-3.6971916972e+01   -4.8237689125e-03
-3.6874236874e+01   -4.8665859842e-03
-3.6776556777e+01   -4.8719338389e-03
-3.6678876679e+01   -4.8384578893e-03
-3.6581196581e+01   -4.7650664611e-03
-3.6483516484e+01   -4.6509493169e-03
-3.6385836386e+01   -4.4955946173e-03
-3.6288156288e+01   -4.2988041196e-03
-3.6190476190e+01   -4.0607064230e-03
-3.6092796093e+01   -3.7817680761e-03
-3.5995115995e+01   -3.4628023743e-03
-3.5897435897e+01   -3.1049756837e-03
-3.5799755800e+01   -2.7098111442e-03
-3.5702075702e+01   -2.2791896188e-03
-3.5604395604e+01   -1.8153477725e-03
-3.5506715507e+01   -1.3208731852e-03
-3.5409035409e+01   -7.9869641982e-04
-3.5311355311e+01   -2.5207999222e-04
-3.5213675214e+01   3.1539578989e-04
-3.5115995116e+01   8.9985012657e-04
-3.5018315018e+01   1.4971221460e-03
-3.4920634921e+01   2.1027944015e-03
-3.4822954823e+01   2.7122193745e-03
-3.4725274725e+01   3.3205488845e-03
-3.4627594628e+01   3.9227662797e-03
-3.4529914530e+01   4.5137212538e-03
-3.4432234432e+01   5.0881671067e-03
-3.4334554335e+01   5.6408002393e-03
-3.4236874237e+01   6.1663016453e-03
-3.4139194139e+01   6.6593801367e-03
-3.4041514042e+01   7.1148170161e-03
-3.3943833944e+01   7.5275118831e-03
-3.3846153846e+01   7.8925292405e-03
-3.3748473748e+01   8.2051455488e-03
-3.3650793651e+01   8.4608963527e-03
-3.3553113553e+01   8.6556230959e-03
-3.3455433455e+01   8.7855192194e-03
-3.3357753358e+01   8.8471751337e-03
-3.3260073260e+01   8.8376216442e-03
-3.3162393162e+01   8.7543714079e-03
-3.3064713065e+01   8.5954579949e-03
-3.2967032967e+01   8.3594721340e-03
-3.2869352869e+01   8.0455947267e-03
-3.2771672772e+01   7.6536262232e-03
-3.2673992674e+01   7.1840119687e-03
-3.2576312576e+01   6.6378631455e-03
-3.2478632479e+01   6.0169729577e-03
-3.2380952381e+01   5.3238277322e-03
-3.2283272283e+01   4.5616126357e-03
-3.2185592186e+01   3.7342117441e-03
-3.2087912088e+01   2.8462022348e-03
-3.1990231990e+01   1.9028425133e-03
-3.1892551893e+01   9.1005412880e-04
-3.1794871795e+01   -1.2560261978e-04
-3.1697191697e+01   -1.1969594378e-03
-3.1599511600e+01   -2.2962771455e-03
-3.1501831502e+01   -3.4152890910e-03
-3.1404151404e+01   -4.5452507515e-03
-3.1306471306e+01   -5.6769953563e-03
-3.1208791209e+01   -6.8009953025e-03
-3.1111111111e+01   -7.9074290784e-03
-3.1013431013e+01   -8.9862533497e-03
-3.0915750916e+01   -1.0027279806e-02
-3.0818070818e+01   -1.1020256305e-02
-3.0720390720e+01   -1.1954951803e-02
-3.0622710623e+01   -1.2821244491e-02
-3.0525030525e+01   -1.3609212529e-02
-3.0427350427e+01   -1.4309226699e-02
-3.0329670330e+01   -1.4912044255e-02
-3.0231990232e+01   -1.5408903235e-02
-3.0134310134e+01   -1.5791616431e-02
-3.0036630037e+01   -1.6052664186e-02
-2.9938949939e+01   -1.6185285199e-02
-2.9841269841e+01   -1.6183564451e-02
-2.9743589744e+01   -1.6042517380e-02
-2.9645909646e+01   -1.5758169437e-02
-2.9548229548e+01   -1.5327630125e-02
-2.9450549451e+01   -1.4749160673e-02
-2.9352869353e+01   -1.4022234480e-02
-2.9255189255e+01   -1.3147589518e-02
-2.9157509158e+01   -1.2127271891e-02
-2.9059829060e+01   -1.0964669827e-02
-2.8962148962e+01   -9.6645373876e-03
-2.8864468864e+01   -8.2330072702e-03
-2.8766788767e+01   -6.6775921426e-03
-2.8669108669e+01   -5.0071740088e-03
-2.8571428571e+01   -3.2319812063e-03
-2.8473748474e+01   -1.3635527159e-03
-2.8376068376e+01   5.8531043580e-04
-2.8278388278e+01   2.6006067955e-03
-2.8180708181e+01   4.6672091319e-03
-2.8083028083e+01   6.7689520066e-03
-2.7985347985e+01   8.8887320430e-03
-2.7887667888e+01   1.1008620547e-02
-2.7789987790e+01   1.3109988007e-02
-2.7692307692e+01   1.5173639892e-02
-2.7594627595e+01   1.7179963001e-02
-2.7496947497e+01   1.9109081562e-02
-2.7399267399e+01   2.0941022069e-02
-2.7301587302e+01   2.2655885811e-02
-2.7203907204e+01   2.4234027870e-02
-2.7106227106e+01   2.5656241289e-02
-2.7008547009e+01   2.6903944996e-02
-2.6910866911e+01   2.7959373976e-02
-2.6813186813e+01   2.8805770104e-02
-2.6715506716e+01   2.9427571969e-02
-2.6617826618e+01   2.9810601956e-02
-2.6520146520e+01   2.9942248805e-02
-2.6422466422e+01   2.9811643836e-02
-2.6324786325e+01   2.9409828977e-02
-2.6227106227e+01   2.8729914769e-02
-2.6129426129e+01   2.7767226480e-02
-2.6031746032e+01   2.6519436533e-02
-2.5934065934e+01   2.4986681459e-02
-2.5836385836e+01   2.3171661665e-02
-2.5738705739e+01   2.1079722380e-02
-2.5641025641e+01   1.8718914243e-02
-2.5543345543e+01   1.6100032104e-02
-2.5445665446e+01   1.3236630747e-02
-2.5347985348e+01   1.0145016396e-02
-2.5250305250e+01   6.8442130291e-03
-2.5152625153e+01   3.3559027115e-03
-2.5054945055e+01   -2.9566064724e-04
-2.4957264957e+01   -4.0837644815e-03
-2.4859584860e+01   -7.9793778579e-03
-2.4761904762e+01   -1.1951318773e-02
-2.4664224664e+01   -1.5966448122e-02
-2.4566544567e+01   -1.9989889746e-02
-2.4468864469e+01   -2.3985275696e-02
-2.4371184371e+01   -2.7915015591e-02
-2.4273504274e+01   -3.1740588668e-02
-2.4175824176e+01   -3.5422856871e-02
-2.4078144078e+01   -3.8922397030e-02
-2.3980463980e+01   -4.2199849950e-02
-2.3882783883e+01   -4.5216283959e-02
-2.3785103785e+01   -4.7933570217e-02
-2.3687423687e+01   -5.0314766880e-02
-2.3589743590e+01   -5.2324508976e-02
-2.3492063492e+01   -5.3929400666e-02
-2.3394383394e+01   -5.5098406398e-02
-2.3296703297e+01   -5.5803237288e-02
-2.3199023199e+01   -5.6018728973e-02
-2.3101343101e+01   -5.5723207054e-02
-2.3003663004e+01   -5.4898836214e-02
-2.2905982906e+01   -5.3531949044e-02
-2.2808302808e+01   -5.1613350626e-02
-2.2710622711e+01   -4.9138594968e-02
-2.2612942613e+01   -4.6108229465e-02
-2.2515262515e+01   -4.2528003667e-02
-2.2417582418e+01   -3.8409038816e-02
-2.2319902320e+01   -3.3767954801e-02
-2.2222222222e+01   -2.8626951427e-02
-2.2124542125e+01   -2.3013841169e-02
-2.2026862027e+01   -1.6962030904e-02
-2.1929181929e+01   -1.0510450485e-02
-2.1831501832e+01   -3.7034264013e-03
-2.1733821734e+01   3.4095007933e-03
-2.1636141636e+01   1.0773816134e-02
-2.1538461538e+01   1.8330327338e-02
-2.1440781441e+01   2.6015519182e-02
-2.1343101343e+01   3.3761964445e-02
-2.1245421245e+01   4.1498790158e-02
-2.1147741148e+01   4.9152197290e-02
-2.1050061050e+01   5.6646031457e-02
-2.0952380952e+01   6.3902401586e-02
-2.0854700855e+01   7.0842342927e-02
-2.0757020757e+01   7.7386520173e-02
-2.0659340659e+01   8.3455965899e-02
-2.0561660562e+01   8.8972848944e-02
-2.0463980464e+01   9.3861266850e-02
-2.0366300366e+01   9.8048055928e-02
-2.0268620269e+01   1.0146361209e-01
-2.0170940171e+01   1.0404271511e-01
-2.0073260073e+01   1.0572534862e-01
-1.9975579976e+01   1.0645750788e-01
-1.9877899878e+01   1.0619198686e-01
-1.9780219780e+01   1.0488913637e-01
-1.9682539683e+01   1.0251758442e-01
-1.9584859585e+01   9.9054910228e-02
-1.9487179487e+01   9.4488263140e-02
-1.9389499389e+01   8.8814918028e-02
-1.9291819292e+01   8.2042758674e-02
-1.9194139194e+01   7.4190681166e-02
-1.9096459096e+01   6.5288909554e-02
-1.8998778999e+01   5.5379216570e-02
-1.8901098901e+01   4.4515042727e-02
-1.8803418803e+01   3.2761507783e-02
-1.8705738706e+01   2.0195309308e-02
-1.8608058608e+01   6.9045039057e-03
-1.8510378510e+01   -7.0118324357e-03
-1.8412698413e+01   -2.1444067386e-02
-1.8315018315e+01   -3.6272600174e-02
-1.8217338217e+01   -5.1368574660e-02
-1.8119658120e+01   -6.6594716716e-02
-1.8021978022e+01   -8.1806293756e-02
-1.7924297924e+01   -9.6852193030e-02
-1.7826617827e+01   -1.1157611389e-01
-1.7728937729e+01   -1.2581786796e-01
-1.7631257631e+01   -1.3941477975e-01
-1.7533577534e+01   -1.5220317884e-01
-1.7435897436e+01   -1.6401997364e-01
-1.7338217338e+01   -1.7470429503e-01
-1.7240537241e+01   -1.8409919738e-01
-1.7142857143e+01   -1.9205340292e-01
-1.7045177045e+01   -1.9842307432e-01
-1.6947496947e+01   -2.0307359962e-01
-1.6849816850e+01   -2.0588137214e-01
-1.6752136752e+01   -2.0673554779e-01
-1.6654456654e+01   -2.0553976109e-01
-1.6556776557e+01   -2.0221378079e-01
-1.6459096459e+01   -1.9669508569e-01
-1.6361416361e+01   -1.8894034093e-01
-1.6263736264e+01   -1.7892675501e-01
-1.6166056166e+01   -1.6665329803e-01
-1.6068376068e+01   -1.5214176189e-01
-1.5970695971e+01   -1.3543764393e-01
-1.5873015873e+01   -1.1661083611e-01
-1.5775335775e+01   -9.5756102926e-02
-1.5677655678e+01   -7.2993332437e-02
-1.5579975580e+01   -4.8467546350e-02
-1.5482295482e+01   -2.2348656559e-02
-1.5384615385e+01   5.1690423983e-03
-1.5286935287e+01   3.3867653507e-02
-1.5189255189e+01   6.3506736310e-02
-1.5091575092e+01   9.3824648598e-02
-1.4993894994e+01   1.2454017188e-01
-1.4896214896e+01   1.5535441899e-01
-1.4798534799e+01   1.8595301929e-01
-1.4700854701e+01   2.1600857379e-01
-1.4603174603e+01   2.4518336948e-01
-1.4505494505e+01   2.7313233899e-01
-1.4407814408e+01   2.9950624832e-01
-1.4310134310e+01   3.2395509226e-01
-1.4212454212e+01   3.4613167399e-01
-1.4114774115e+01   3.6569534204e-01
-1.4017094017e+01   3.8231585475e-01
-1.3919413919e+01   3.9567733967e-01
-1.3821733822e+01   4.0548231222e-01
-1.3724053724e+01   4.1145571581e-01
-1.3626373626e+01   4.1334894289e-01
-1.3528693529e+01   4.1094379466e-01
-1.3431013431e+01   4.0405633537e-01
-1.3333333333e+01   3.9254059570e-01
-1.3235653236e+01   3.7629207881e-01
-1.3137973138e+01   3.5525102214e-01
-1.3040293040e+01   3.2940536763e-01
-1.2942612943e+01   2.9879339382e-01
-1.2844932845e+01   2.6350596368e-01
-1.2747252747e+01   2.2368834374e-01
-1.2649572650e+01   1.7954155167e-01
-1.2551892552e+01   1.3132319217e-01
-1.2454212454e+01   7.9347743785e-02
-1.2356532357e+01   2.3986263001e-02
-1.2258852259e+01   -3.4334524237e-02
-1.2161172161e+01   -9.5133768436e-02
-1.2063492063e+01   -1.5787869993e-01
-1.1965811966e+01   -2.2198750394e-01
-1.1868131868e+01   -2.8683287536e-01
-1.1770451770e+01   -3.5174625498e-01
-1.1672771673e+01   -4.1602274155e-01
-1.1575091575e+01   -4.7892666700e-01
-1.1477411477e+01   -5.3969781440e-01
-1.1379731380e+01   -5.9755825040e-01
-1.1282051282e+01   -6.5171973577e-01
-1.1184371184e+01   -7.0139166945e-01
-1.1086691087e+01   -7.4578951361e-01
-1.0989010989e+01   -7.8414363859e-01
-1.0891330891e+01   -8.1570851899e-01
-1.0793650794e+01   -8.3977220415e-01
-1.0695970696e+01   -8.5566597892e-01
-1.0598290598e+01   -8.6277412338e-01
-1.0500610501e+01   -8.6054367389e-01
-1.0402930403e+01   -8.4849408156e-01
-1.0305250305e+01   -8.2622665937e-01
-1.0207570208e+01   -7.9343370428e-01
-1.0109890110e+01   -7.4990717770e-01
-1.0012210012e+01   -6.9554682448e-01
-9.9145299145e+00   -6.3036760974e-01
-9.8168498168e+00   -5.5450635206e-01
-9.7191697192e+00   -4.6822743266e-01
-9.6214896215e+00   -3.7192746258e-01
-9.5238095238e+00   -2.6613879305e-01
-9.4261294261e+00   -1.5153175959e-01
-9.3284493284e+00   -2.8915556689e-02
-9.2307692308e+00   1.0076235226e-01
-9.1330891331e+00   2.3641837557e-01
-9.0354090354e+00   3.7683655932e-01
-8.9377289377e+00   5.2067404172e-01
-8.8400488400e+00   6.6646824426e-01
-8.7423687424e+00   8.1264583362e-01
-8.6446886447e+00   9.5753347131e-01
-8.5470085470e+00   1.0993703506e+00
-8.4493284493e+00   1.2363225009e+00
-8.3516483516e+00   1.3664988213e+00
-8.2539682540e+00   1.4879687812e+00
-8.1562881563e+00   1.5987817088e+00
-8.0586080586e+00   1.6969875617e+00
-7.9609279609e+00   1.7806590543e+00
-7.8632478632e+00   1.8479149939e+00
-7.7655677656e+00   1.8969446520e+00
-7.6678876679e+00   1.9260329805e+00
-7.5702075702e+00   1.9335864538e+00
-7.4725274725e+00   1.9181593032e+00
-7.3748473748e+00   1.8784798861e+00
-7.2771672772e+00   1.8134769151e+00
-7.1794871795e+00   1.7223052551e+00
-7.0818070818e+00   1.6043709820e+00
-6.9841269841e+00   1.4593553812e+00
-6.8864468864e+00   1.2872375569e+00
-6.7887667888e+00   1.0883153122e+00
-6.6910866911e+00   8.6322395616e-01
-6.5934065934e+00   6.1295269273e-01
-6.4957264957e+00   3.3885824709e-01
-6.3980463980e+00   4.2675389894e-02
-6.3003663004e+00   -2.7347597032e-01
-6.2026862027e+00   -6.0708744398e-01
-6.1050061050e+00   -9.5526286713e-01
-6.0073260073e+00   -1.3147233370e+00
-5.9096459096e+00   -1.6818168307e+00
-5.8119658120e+00   -2.0525326309e+00
-5.7142857143e+00   -2.4225207497e+00
-5.6166056166e+00   -2.7871165028e+00
-5.5189255189e+00   -3.1413703440e+00
-5.4212454212e+00   -3.4800830249e+00
-5.3235653236e+00   -3.7978460950e+00
-5.2258852259e+00   -4.0890877019e+00
-5.1282051282e+00   -4.3481235990e+00
-5.0305250305e+00   -4.5692132051e+00
-4.9328449328e+00   -4.7466205011e+00
-4.8351648352e+00   -4.8746794861e+00
-4.7374847375e+00   -4.9478638475e+00
-4.6398046398e+00   -4.9608604386e+00
-4.5421245421e+00   -4.9086460868e+00
-4.4444444444e+00   -4.7865671952e+00
-4.3467643468e+00   -4.5904215314e+00
-4.2490842491e+00   -4.3165415397e+00
-4.1514041514e+00   -3.9618784500e+00
-4.0537240537e+00   -3.5240864033e+00
-3.9560439560e+00   -3.0016057595e+00
-3.8583638584e+00   -2.3937447091e+00
-3.7606837607e+00   -1.7007582672e+00
-3.6630036630e+00   -9.2392369478e-01
-3.5653235653e+00   -6.5611363710e-02
-3.4676434676e+00   8.7064993629e-01
-3.3699633700e+00   1.8801142655e+00
-3.2722832723e+00   2.9567673964e+00
-3.1746031746e+00   4.0932842878e+00
-3.0769230769e+00   5.2809961813e+00
-2.9792429792e+00   6.5098683173e+00
-2.8815628816e+00   7.7684892573e+00
-2.7838827839e+00   9.0440727914e+00
-2.6862026862e+00   1.0322473422e+01
-2.5885225885e+00   1.1588216454e+01
-2.4908424908e+00   1.2824543800e+01
-2.3931623932e+00   1.4013476812e+01
-2.2954822955e+00   1.5135897725e+01
-2.1978021978e+00   1.6171651857e+01
-2.1001221001e+00   1.7099673548e+01
-2.0024420024e+00   1.7898140255e+01
-1.9047619048e+00   1.8544661387e+01
-1.8070818071e+00   1.9016512056e+01
-1.7094017094e+00   1.9290927435e+01
-1.6117216117e+00   1.9345482205e+01
-1.5140415140e+00   1.9158593338e+01
-1.4163614164e+00   1.8710206026e+01
-1.3186813187e+00   1.7982756107e+01
-1.2210012210e+00   1.6962553616e+01
-1.1233211233e+00   1.5641808431e+01
-1.0256410256e+00   1.4021626223e+01
-9.2796092796e-01   1.2116436332e+01
-8.3028083028e-01   9.9604306218e+00
-7.3260073260e-01   7.6165483183e+00
-6.3492063492e-01   5.1879488176e+00
-5.3724053724e-01   2.8299286614e+00
-4.3956043956e-01   7.5550317199e-01
-3.4188034188e-01   -7.8035475921e-01
-2.4420024420e-01   -1.5401106578e+00
-1.4652014652e-01   -1.4180275538e+00
-4.8840048840e-02   -5.6798273459e-01
4.8840048840e-02   5.6798273459e-01
1.4652014652e-01   1.4180275538e+00
2.4420024420e-01   1.5401106578e+00
3.4188034188e-01   7.8035475921e-01
4.3956043956e-01   -7.5550317199e-01
5.3724053724e-01   -2.8299286614e+00
6.3492063492e-01   -5.1879488176e+00
7.3260073260e-01   -7.6165483183e+00
8.3028083028e-01   -9.9604306218e+00
9.2796092796e-01   -1.2116436332e+01
1.0256410256e+00   -1.4021626223e+01
1.1233211233e+00   -1.5641808431e+01
1.2210012210e+00   -1.6962553616e+01
1.3186813187e+00   -1.7982756107e+01
1.4163614164e+00   -1.8710206026e+01
1.5140415140e+00   -1.9158593338e+01
1.6117216117e+00   -1.9345482205e+01
1.7094017094e+00   -1.9290927435e+01
1.8070818071e+00   -1.9016512056e+01
1.9047619048e+00   -1.8544661387e+01
2.0024420024e+00   -1.7898140255e+01
2.1001221001e+00   -1.7099673548e+01
2.1978021978e+00   -1.6171651857e+01
2.2954822955e+00   -1.5135897725e+01
2.3931623932e+00   -1.4013476812e+01
2.4908424908e+00   -1.2824543800e+01
2.5885225885e+00   -1.1588216454e+01
2.6862026862e+00   -1.0322473422e+01
2.7838827839e+00   -9.0440727914e+00
2.8815628816e+00   -7.7684892573e+00
2.9792429792e+00   -6.5098683173e+00
3.0769230769e+00   -5.2809961813e+00
3.1746031746e+00   -4.0932842878e+00
3.2722832723e+00   -2.9567673964e+00
3.3699633700e+00   -1.8801142655e+00
3.4676434676e+00   -8.7064993629e-01
3.5653235653e+00   6.5611363710e-02
3.6630036630e+00   9.2392369478e-01
3.7606837607e+00   1.7007582672e+00
3.8583638584e+00   2.3937447091e+00
3.9560439560e+00   3.0016057595e+00
4.0537240537e+00   3.5240864033e+00
4.1514041514e+00   3.9618784500e+00
4.2490842491e+00   4.3165415397e+00
4.3467643468e+00   4.5904215314e+00
4.4444444444e+00   4.7865671952e+00
4.5421245421e+00   4.9086460868e+00
4.6398046398e+00   4.9608604386e+00
4.7374847375e+00   4.9478638475e+00
4.8351648352e+00   4.8746794861e+00
4.9328449328e+00   4.7466205011e+00
5.0305250305e+00   4.5692132051e+00
5.1282051282e+00   4.3481235990e+00
5.2258852259e+00   4.0890877019e+00
5.3235653236e+00   3.7978460950e+00
5.4212454212e+00   3.4800830249e+00
5.5189255189e+00   3.1413703440e+00
5.6166056166e+00   2.7871165028e+00
5.7142857143e+00   2.4225207497e+00
5.8119658120e+00   2.0525326309e+00
5.9096459096e+00   1.6818168307e+00
6.0073260073e+00   1.3147233370e+00
6.1050061050e+00   9.5526286713e-01
6.2026862027e+00   6.0708744398e-01
6.3003663004e+00   2.7347597032e-01
6.3980463980e+00   -4.2675389894e-02
6.4957264957e+00   -3.3885824709e-01
6.5934065934e+00   -6.1295269273e-01
6.6910866911e+00   -8.6322395616e-01
6.7887667888e+00   -1.0883153122e+00
6.8864468864e+00   -1.2872375569e+00
6.9841269841e+00   -1.4593553812e+00
7.0818070818e+00   -1.6043709820e+00
7.1794871795e+00   -1.7223052551e+00
7.2771672772e+00   -1.8134769151e+00
7.3748473748e+00   -1.8784798861e+00
7.4725274725e+00   -1.9181593032e+00
7.5702075702e+00   -1.9335864538e+00
7.6678876679e+00   -1.9260329805e+00
7.7655677656e+00   -1.8969446520e+00
7.8632478632e+00   -1.8479149939e+00
7.9609279609e+00   -1.7806590543e+00
8.0586080586e+00   -1.6969875617e+00
8.1562881563e+00   -1.5987817088e+00
8.2539682540e+00   -1.4879687812e+00
8.3516483516e+00   -1.3664988213e+00
8.4493284493e+00   -1.2363225009e+00
8.5470085470e+00   -1.0993703506e+00
8.6446886447e+00   -9.5753347131e-01
8.7423687424e+00   -8.1264583362e-01
8.8400488400e+00   -6.6646824426e-01
8.9377289377e+00   -5.2067404172e-01
9.0354090354e+00   -3.7683655932e-01
9.1330891331e+00   -2.3641837557e-01
9.2307692308e+00   -1.0076235226e-01
9.3284493284e+00   2.8915556689e-02
9.4261294261e+00   1.5153175959e-01
9.5238095238e+00   2.6613879305e-01
9.6214896215e+00   3.7192746258e-01
9.7191697192e+00   4.6822743266e-01
9.8168498168e+00   5.5450635206e-01
9.9145299145e+00   6.3036760974e-01
1.0012210012e+01   6.9554682448e-01
1.0109890110e+01   7.4990717770e-01
1.0207570208e+01   7.9343370428e-01
1.0305250305e+01   8.2622665937e-01
1.0402930403e+01   8.4849408156e-01
1.0500610501e+01   8.6054367389e-01
1.0598290598e+01   8.6277412338e-01
1.0695970696e+01   8.5566597892e-01
1.0793650794e+01   8.3977220415e-01
1.0891330891e+01   8.1570851899e-01
1.0989010989e+01   7.8414363859e-01
1.1086691087e+01   7.4578951361e-01
1.1184371184e+01   7.0139166945e-01
1.1282051282e+01   6.5171973577e-01
1.1379731380e+01   5.9755825040e-01
1.1477411477e+01   5.3969781440e-01
1.1575091575e+01   4.7892666700e-01
1.1672771673e+01   4.1602274155e-01
1.1770451770e+01   3.5174625498e-01
1.1868131868e+01   2.8683287536e-01
1.1965811966e+01   2.2198750394e-01
1.2063492063e+01   1.5787869993e-01
1.2161172161e+01   9.5133768436e-02
1.2258852259e+01   3.4334524237e-02
1.2356532357e+01   -2.3986263001e-02
1.2454212454e+01   -7.9347743785e-02
1.2551892552e+01   -1.3132319217e-01
1.2649572650e+01   -1.7954155167e-01
1.2747252747e+01   -2.2368834374e-01
1.2844932845e+01   -2.6350596368e-01
1.2942612943e+01   -2.9879339382e-01
1.3040293040e+01   -3.2940536763e-01
1.3137973138e+01   -3.5525102214e-01
1.3235653236e+01   -3.7629207881e-01
1.3333333333e+01   -3.9254059570e-01
1.3431013431e+01   -4.0405633537e-01
1.3528693529e+01   -4.1094379466e-01
1.3626373626e+01   -4.1334894289e-01
1.3724053724e+01   -4.1145571581e-01
1.3821733822e+01   -4.0548231222e-01
1.3919413919e+01   -3.9567733967e-01
1.4017094017e+01   -3.8231585475e-01
1.4114774115e+01   -3.6569534204e-01
1.4212454212e+01   -3.4613167399e-01
1.4310134310e+01   -3.2395509226e-01
1.4407814408e+01   -2.9950624832e-01
1.4505494505e+01   -2.7313233899e-01
1.4603174603e+01   -2.4518336948e-01
1.4700854701e+01   -2.1600857379e-01
1.4798534799e+01   -1.8595301929e-01
1.4896214896e+01   -1.5535441899e-01
1.4993894994e+01   -1.2454017188e-01
1.5091575092e+01   -9.3824648598e-02
1.5189255189e+01   -6.3506736310e-02
1.5286935287e+01   -3.3867653507e-02
1.5384615385e+01   -5.1690423983e-03
1.5482295482e+01   2.2348656559e-02
1.5579975580e+01   4.8467546350e-02
1.5677655678e+01   7.2993332437e-02
1.5775335775e+01   9.5756102926e-02
1.5873015873e+01   1.1661083611e-01
1.5970695971e+01   1.3543764393e-01
1.6068376068e+01   1.5214176189e-01
1.6166056166e+01   1.6665329803e-01
1.6263736264e+01   1.7892675501e-01
1.6361416361e+01   1.8894034093e-01
1.6459096459e+01   1.9669508569e-01
1.6556776557e+01   2.0221378079e-01
1.6654456654e+01   2.0553976109e-01
1.6752136752e+01   2.0673554779e-01
1.6849816850e+01   2.0588137214e-01
1.6947496947e+01   2.0307359962e-01
1.7045177045e+01   1.9842307432e-01
1.7142857143e+01   1.9205340292e-01
1.7240537241e+01   1.8409919738e-01
1.7338217338e+01   1.7470429503e-01
1.7435897436e+01   1.6401997364e-01
1.7533577534e+01   1.5220317884e-01
1.7631257631e+01   1.3941477975e-01
1.7728937729e+01   1.2581786796e-01
1.7826617827e+01   1.1157611389e-01
1.7924297924e+01   9.6852193030e-02
1.8021978022e+01   8.1806293756e-02
1.8119658120e+01   6.6594716716e-02
1.8217338217e+01   5.1368574660e-02
1.8315018315e+01   3.6272600174e-02
1.8412698413e+01   2.1444067386e-02
1.8510378510e+01   7.0118324357e-03
1.8608058608e+01   -6.9045039057e-03
1.8705738706e+01   -2.0195309308e-02
1.8803418803e+01   -3.2761507783e-02
1.8901098901e+01   -4.4515042727e-02
1.8998778999e+01   -5.5379216570e-02
1.9096459096e+01   -6.5288909554e-02
1.9194139194e+01   -7.4190681166e-02
1.9291819292e+01   -8.2042758674e-02
1.9389499389e+01   -8.8814918028e-02
1.9487179487e+01   -9.4488263140e-02
1.9584859585e+01   -9.9054910228e-02
1.9682539683e+01   -1.0251758442e-01
1.9780219780e+01   -1.0488913637e-01
1.9877899878e+01   -1.0619198686e-01
1.9975579976e+01   -1.0645750788e-01
2.0073260073e+01   -1.0572534862e-01
2.0170940171e+01   -1.0404271511e-01
2.0268620269e+01   -1.0146361209e-01
2.0366300366e+01   -9.8048055928e-02
2.0463980464e+01   -9.3861266850e-02
2.0561660562e+01   -8.8972848944e-02
2.0659340659e+01   -8.3455965899e-02
2.0757020757e+01   -7.7386520173e-02
2.0854700855e+01   -7.0842342927e-02
2.0952380952e+01   -6.3902401586e-02
2.1050061050e+01   -5.6646031457e-02
2.1147741148e+01   -4.9152197290e-02
2.1245421245e+01   -4.1498790158e-02
2.1343101343e+01   -3.3761964445e-02
2.1440781441e+01   -2.6015519182e-02
2.1538461538e+01   -1.8330327338e-02
2.1636141636e+01   -1.0773816134e-02
2.1733821734e+01   -3.4095007933e-03
2.1831501832e+01   3.7034264013e-03
2.1929181929e+01   1.0510450485e-02
2.2026862027e+01   1.6962030904e-02
2.2124542125e+01   2.3013841169e-02
2.2222222222e+01   2.8626951427e-02
2.2319902320e+01   3.3767954801e-02
2.2417582418e+01   3.8409038816e-02
2.2515262515e+01   4.2528003667e-02
2.2612942613e+01   4.6108229465e-02
2.2710622711e+01   4.9138594968e-02
2.2808302808e+01   5.1613350626e-02
2.2905982906e+01   5.3531949044e-02
2.3003663004e+01   5.4898836214e-02
2.3101343101e+01   5.5723207054e-02
2.3199023199e+01   5.6018728973e-02
2.3296703297e+01   5.5803237288e-02
2.3394383394e+01   5.5098406398e-02
2.3492063492e+01   5.3929400666e-02
2.3589743590e+01   5.2324508976e-02
2.3687423687e+01   5.0314766880e-02
2.3785103785e+01   4.7933570217e-02
2.3882783883e+01   4.5216283959e-02
2.3980463980e+01   4.2199849950e-02
2.4078144078e+01   3.8922397030e-02
2.4175824176e+01   3.5422856871e-02
2.4273504274e+01   3.1740588668e-02
2.4371184371e+01   2.7915015591e-02
2.4468864469e+01   2.3985275696e-02
2.4566544567e+01   1.9989889746e-02
2.4664224664e+01   1.5966448122e-02
2.4761904762e+01   1.1951318773e-02
2.4859584860e+01   7.9793778579e-03
2.4957264957e+01   4.0837644815e-03
2.5054945055e+01   2.9566064724e-04
2.5152625153e+01   -3.3559027115e-03
2.5250305250e+01   -6.8442130291e-03
2.5347985348e+01   -1.0145016396e-02
2.5445665446e+01   -1.3236630747e-02
2.5543345543e+01   -1.6100032104e-02
2.5641025641e+01   -1.8718914243e-02
2.5738705739e+01   -2.1079722380e-02
2.5836385836e+01   -2.3171661665e-02
2.5934065934e+01   -2.4986681459e-02
2.6031746032e+01   -2.6519436533e-02
2.6129426129e+01   -2.7767226480e-02
2.6227106227e+01   -2.8729914769e-02
2.6324786325e+01   -2.9409828977e-02
2.6422466422e+01   -2.9811643836e-02
2.6520146520e+01   -2.9942248805e-02
2.6617826618e+01   -2.9810601956e-02
2.6715506716e+01   -2.9427571969e-02
2.6813186813e+01   -2.8805770104e-02
2.6910866911e+01   -2.7959373976e-02
2.7008547009e+01   -2.6903944996e-02
2.7106227106e+01   -2.5656241289e-02
2.7203907204e+01   -2.4234027870e-02
2.7301587302e+01   -2.2655885811e-02
2.7399267399e+01   -2.0941022069e-02
2.7496947497e+01   -1.9109081562e-02
2.7594627595e+01   -1.7179963001e-02
2.7692307692e+01   -1.5173639892e-02
2.7789987790e+01   -1.3109988007e-02
2.7887667888e+01   -1.1008620547e-02
2.7985347985e+01   -8.8887320430e-03
2.8083028083e+01   -6.7689520066e-03
2.8180708181e+01   -4.6672091319e-03
2.8278388278e+01   -2.6006067955e-03
2.8376068376e+01   -5.8531043580e-04
2.8473748474e+01   1.3635527159e-03
2.8571428571e+01   3.2319812063e-03
2.8669108669e+01   5.0071740088e-03
2.8766788767e+01   6.6775921426e-03
2.8864468864e+01   8.2330072702e-03
2.8962148962e+01   9.6645373876e-03
2.9059829060e+01   1.0964669827e-02
2.9157509158e+01   1.2127271891e-02
2.9255189255e+01   1.3147589518e-02
2.9352869353e+01   1.4022234480e-02
2.9450549451e+01   1.4749160673e-02
2.9548229548e+01   1.5327630125e-02
2.9645909646e+01   1.5758169437e-02
2.9743589744e+01   1.6042517380e-02
2.9841269841e+01   1.6183564451e-02
2.9938949939e+01   1.6185285199e-02
3.0036630037e+01   1.6052664186e-02
3.0134310134e+01   1.5791616431e-02
3.0231990232e+01   1.5408903235e-02
3.0329670330e+01   1.4912044255e-02
3.0427350427e+01   1.4309226699e-02
3.0525030525e+01   1.3609212529e-02
3.0622710623e+01   1.2821244491e-02
3.0720390720e+01   1.1954951803e-02
3.0818070818e+01   1.1020256305e-02
3.0915750916e+01   1.0027279806e-02
3.1013431013e+01   8.9862533497e-03
3.1111111111e+01   7.9074290784e-03
3.1208791209e+01   6.8009953025e-03
3.1306471306e+01   5.6769953563e-03
3.1404151404e+01   4.5452507515e-03
3.1501831502e+01   3.4152890910e-03
3.1599511600e+01   2.2962771455e-03
3.1697191697e+01   1.1969594378e-03
3.1794871795e+01   1.2560261978e-04
3.1892551893e+01   -9.1005412880e-04
3.1990231990e+01   -1.9028425133e-03
3.2087912088e+01   -2.8462022348e-03
3.2185592186e+01   -3.7342117441e-03
3.2283272283e+01   -4.5616126357e-03
3.2380952381e+01   -5.3238277322e-03
3.2478632479e+01   -6.0169729577e-03
3.2576312576e+01   -6.6378631455e-03
3.2673992674e+01   -7.1840119687e-03
3.2771672772e+01   -7.6536262232e-03
3.2869352869e+01   -8.0455947267e-03
3.2967032967e+01   -8.3594721340e-03
3.3064713065e+01   -8.5954579949e-03
3.3162393162e+01   -8.7543714079e-03
3.3260073260e+01   -8.8376216442e-03
3.3357753358e+01   -8.8471751337e-03
3.3455433455e+01   -8.7855192194e-03
3.3553113553e+01   -8.6556230959e-03
3.3650793651e+01   -8.4608963527e-03
3.3748473748e+01   -8.2051455488e-03
3.3846153846e+01   -7.8925292405e-03
3.3943833944e+01   -7.5275118831e-03
3.4041514042e+01   -7.1148170161e-03
3.4139194139e+01   -6.6593801367e-03
3.4236874237e+01   -6.1663016453e-03
3.4334554335e+01   -5.6408002393e-03
3.4432234432e+01   -5.0881671067e-03
3.4529914530e+01   -4.5137212538e-03
3.4627594628e+01   -3.9227662797e-03
3.4725274725e+01   -3.3205488845e-03
3.4822954823e+01   -2.7122193745e-03
3.4920634921e+01   -2.1027944015e-03
3.5018315018e+01   -1.4971221460e-03
3.5115995116e+01   -8.9985012657e-04
3.5213675214e+01   -3.1539578989e-04
3.5311355311e+01   2.5207999222e-04
3.5409035409e+01   7.9869641982e-04
3.5506715507e+01   1.3208731852e-03
3.5604395604e+01   1.8153477725e-03
3.5702075702e+01   2.2791896188e-03
3.5799755800e+01   2.7098111442e-03
3.5897435897e+01   3.1049756837e-03
3.5995115995e+01   3.4628023743e-03
3.6092796093e+01   3.7817680761e-03
3.6190476190e+01   4.0607064230e-03
3.6288156288e+01   4.2988041196e-03
3.6385836386e+01   4.4955946173e-03
3.6483516484e+01   4.6509493169e-03
3.6581196581e+01   4.7650664611e-03
3.6678876679e+01   4.8384578893e-03
3.6776556777e+01   4.8719338389e-03
3.6874236874e+01   4.8665859842e-03
3.6971916972e+01   4.8237689125e-03
3.7069597070e+01   4.7450802385e-03
3.7167277167e+01   4.6323395624e-03
3.7264957265e+01   4.4875664802e-03
3.7362637363e+01   4.3129578495e-03
3.7460317460e+01   4.1108645158e-03
3.7557997558e+01   3.8837677007e-03
3.7655677656e+01   3.6342552439e-03
3.7753357753e+01   3.3649978913e-03
3.7851037851e+01   3.0787258080e-03
3.7948717949e+01   2.7782054892e-03
3.8046398046e+01   2.4662172326e-03
3.8144078144e+01   2.1455333239e-03
3.8241758242e+01   1.8188970760e-03
3.8339438339e+01   1.4890028527e-03
3.8437118437e+01   1.1584771909e-03
3.8534798535e+01   8.2986112709e-04
3.8632478632e+01   5.0559381820e-04
3.8730158730e+01   1.8799753312e-04
3.8827838828e+01   -1.2073592043e-04
3.8925518926e+01   -4.1855728368e-04
3.9023199023e+01   -7.0357041216e-04
3.9120879121e+01   -9.7404129443e-04
3.9218559219e+01   -1.2284055130e-03
3.9316239316e+01   -1.4652741480e-03
3.9413919414e+01   -1.6834381368e-03
3.9511599512e+01   -1.8818711135e-03
3.9609279609e+01   -2.0597307619e-03
3.9706959707e+01   -2.2163587284e-03
3.9804639805e+01   -2.3512791473e-03
3.9902319902e+01   -2.4641958406e-03
4.0000000000e+01   -2.5549882637e-03
4.0097680098e+01   -2.6237062720e-03
4.0195360195e+01   -2.6705637930e-03
4.0293040293e+01   -2.6959314905e-03
4.0390720391e+01   -2.7003285134e-03
4.0488400488e+01   -2.6844134257e-03
4.0586080586e+01   -2.6489744149e-03
4.0683760684e+01   -2.5949188788e-03
4.0781440781e+01   -2.5232624920e-03
4.0879120879e+01   -2.4351178536e-03
4.0976800977e+01   -2.3316828149e-03
4.1074481074e+01   -2.2142285874e-03
4.1172161172e+01   -2.0840877272e-03
4.1269841270e+01   -1.9426420911e-03
4.1367521368e+01   -1.7913108536e-03
4.1465201465e+01   -1.6315386736e-03
4.1562881563e+01   -1.4647840919e-03
4.1660561661e+01   -1.2925082382e-03
4.1758241758e+01   -1.1161639208e-03
4.1855921856e+01   -9.3718516424e-04
4.1953601954e+01   -7.5697725775e-04
4.2051282051e+01   -5.7690736940e-04
4.2148962149e+01   -3.9829577414e-04
4.2246642247e+01   -2.2240773894e-04
4.2344322344e+01   -5.0446100946e-05
4.2442002442e+01   1.1645543183e-04
4.2539682540e+01   2.7723823396e-04
4.2637362637e+01   4.3092395351e-04
4.2735042735e+01   5.7661892967e-04
4.2832722833e+01   7.1351783281e-04
4.2930402930e+01   8.4090652823e-04
4.3028083028e+01   9.5816417077e-04
4.3125763126e+01   1.0647645427e-03
4.3223443223e+01   1.1602766522e-03
4.3321123321e+01   1.2443646156e-03
4.3418803419e+01   1.3167868487e-03
4.3516483516e+01   1.3773945995e-03
4.3614163614e+01   1.4261298555e-03
4.3711843712e+01   1.4630226645e-03
4.3809523810e+01   1.4881879090e-03
4.3907203907e+01   1.5018215767e-03
4.4004884005e+01   1.5041965741e-03
4.4102564103e+01   1.4956581281e-03
4.4200244200e+01   1.4766188251e-03
4.4297924298e+01   1.4475533364e-03
4.4395604396e+01   1.4089928783e-03
4.4493284493e+01   1.3615194585e-03
4.4590964591e+01   1.3057599562e-03
4.4688644689e+01   1.2423800853e-03
4.4786324786e+01   1.1720782895e-03
4.4884004884e+01   1.0955796133e-03
4.4981684982e+01   1.0136295970e-03
4.5079365079e+01   9.2698823601e-04
4.5177045177e+01   8.3642404733e-04
4.5274725275e+01   7.4270828148e-04
4.5372405372e+01   6.4660931600e-04
4.5470085470e+01   5.4888726461e-04
4.5567765568e+01   4.5028883270e-04
4.5665445665e+01   3.5154244730e-04
4.5763125763e+01   2.5335368653e-04
4.5860805861e+01   1.5640103051e-04
4.5958485958e+01   6.1331952620e-05
4.6056166056e+01   -3.1240633178e-05
4.6153846154e+01   -1.2074155628e-04
4.6251526252e+01   -2.0663619509e-04
4.6349206349e+01   -2.8843289793e-04
4.6446886447e+01   -3.6568501562e-04
4.6544566545e+01   -4.3799254512e-04
4.6642246642e+01   -5.0500338643e-04
4.6739926740e+01   -5.6641421749e-04
4.6837606838e+01   -6.2197099444e-04
4.6935286935e+01   -6.7146908706e-04
4.7032967033e+01   -7.1475306128e-04
4.7130647131e+01   -7.5171612280e-04
4.7228327228e+01   -7.8229923776e-04
4.7326007326e+01   -8.0648994804e-04
4.7423687424e+01   -8.2432090036e-04
4.7521367521e+01   -8.3586810963e-04
4.7619047619e+01   -8.4124897806e-04
4.7716727717e+01   -8.4062009266e-04
4.7814407814e+01   -8.3417482431e-04
4.7912087912e+01   -8.2214075222e-04
4.8009768010e+01   -8.0477693797e-04
4.8107448107e+01   -7.8237107349e-04
4.8205128205e+01   -7.5523652733e-04
4.8302808303e+01   -7.2370931334e-04
4.8400488400e+01   -6.8814500573e-04
4.8498168498e+01   -6.4891562380e-04
4.8595848596e+01   -6.0640650906e-04
4.8693528694e+01   -5.6101321678e-04
4.8791208791e+01   -5.1313844297e-04
4.8888888889e+01   -4.6318900696e-04
4.8986568987e+01   -4.1157290833e-04
4.9084249084e+01   -3.5869647629e-04
4.9181929182e+01   -3.0496162762e-04
4.9279609280e+01   -2.5076324858e-04
4.9377289377e+01   -1.9648671443e-04
4.9474969475e+01   -1.4250555877e-04
4.9572649573e+01   -8.9179303649e-05
4.9670329670e+01   -3.6851459714e-05
4.9768009768e+01   1.4152295888e-05
4.9865689866e+01   6.3525757407e-05
4.9963369963e+01   1.1098363947e-04
5.0061050061e+01   1.5626283376e-04
5.0158730159e+01   1.9912347155e-04
5.0256410256e+01   2.3934979153e-04
5.0354090354e+01   2.7675081379e-04
5.0451770452e+01   3.1116082214e-04
5.0549450549e+01   3.4243965822e-04
5.0647130647e+01   3.7047283169e-04
5.0744810745e+01   3.9517145252e-04
5.0842490842e+01   4.1647199170e-04
5.0940170940e+01   4.3433587816e-04
5.1037851038e+01   4.4874894026e-04
5.1135531136e+01   4.5972070105e-04
5.1233211233e+01   4.6728353708e-04
5.1330891331e+01   4.7149171139e-04
5.1428571429e+01   4.7242029135e-04
5.1526251526e+01   4.7016396279e-04
5.1623931624e+01   4.6483575203e-04
5.1721611722e+01   4.5656566749e-04
5.1819291819e+01   4.4549927305e-04
5.1916971917e+01   4.3179620484e-04
5.2014652015e+01   4.1562864364e-04
5.2112332112e+01   3.9717975453e-04
5.2210012210e+01   3.7664210549e-04
5.2307692308e+01   3.5421607619e-04
5.2405372405e+01   3.3010826805e-04
5.2503052503e+01   3.0452992617e-04
5.2600732601e+01   2.7769538312e-04
5.2698412698e+01   2.4982053448e-04
5.2796092796e+01   2.2112135496e-04
5.2893772894e+01   1.9181246377e-04
5.2991452991e+01   1.6210574699e-04
5.3089133089e+01   1.3220904420e-04
5.3186813187e+01   1.0232490585e-04
5.3284493284e+01   7.2649427226e-05
5.3382173382e+01   4.3371164041e-05
5.3479853480e+01   1.4670134137e-05
5.3577533578e+01   -1.3283091161e-05
5.3675213675e+01   -4.0328203041e-05
5.3772893773e+01   -6.6315876368e-05
5.3870573871e+01   -9.1108394505e-05
5.3968253968e+01   -1.1458017697e-04
5.4065934066e+01   -1.3661820983e-04
5.4163614164e+01   -1.5712237920e-04
5.4261294261e+01   -1.7600570923e-04
5.4358974359e+01   -1.9319450598e-04
5.4456654457e+01   -2.0862840969e-04
5.4554334554e+01   -2.2226035817e-04
5.4652014652e+01   -2.3405646453e-04
5.4749694750e+01   -2.4399581307e-04
5.4847374847e+01   -2.5207017744e-04
5.4945054945e+01   -2.5828366550e-04
5.5042735043e+01   -2.6265229580e-04
5.5140415140e+01   -2.6520351067e-04
5.5238095238e+01   -2.6597563138e-04
5.5335775336e+01   -2.6501726073e-04
5.5433455433e+01   -2.6238663894e-04
5.5531135531e+01   -2.5815095839e-04
5.5628815629e+01   -2.5238564327e-04
5.5726495726e+01   -2.4517359978e-04
5.5824175824e+01   -2.3660444302e-04
5.5921855922e+01   -2.2677370603e-04
5.6019536020e+01   -2.1578203694e-04
5.6117216117e+01   -2.0373438977e-04
5.6214896215e+01   -1.9073921414e-04
5.6312576313e+01   -1.7690764945e-04
5.6410256410e+01   -1.6235272826e-04
5.6507936508e+01   -1.4718859382e-04
5.6605616606e+01   -1.3152973634e-04
5.6703296703e+01   -1.1549025213e-04
5.6800976801e+01   -9.9183129698e-05
5.6898656899e+01   -8.2719566336e-05
5.6996336996e+01   -6.6208318682e-05
5.7094017094e+01   -4.9755090126e-05
5.7191697192e+01   -3.3461957778e-05
5.7289377289e+01   -1.7426841308e-05
5.7387057387e+01   -1.7430156039e-06
5.7484737485e+01   1.3501331116e-05
5.7582417582e+01   2.8223492476e-05
5.7680097680e+01   4.2346591468e-05
5.7777777778e+01   5.5799879742e-05
5.7875457875e+01   6.8518988385e-05
5.7973137973e+01   8.0446130246e-05
5.8070818071e+01   9.1530254167e-05
5.8168498168e+01   1.0172715176e-04
5.8266178266e+01   1.1099951764e-04
5.8363858364e+01   1.1931696441e-04
5.8461538462e+01   1.2665599358e-04
5.8559218559e+01   1.3299992445e-04
5.8656898657e+01   1.3833878246e-04
5.8754578755e+01   1.4266914931e-04
5.8852258852e+01   1.4599397699e-04
5.8949938950e+01   1.4832236810e-04
5.9047619048e+01   1.4966932497e-04
5.9145299145e+01   1.5005547021e-04
5.9242979243e+01   1.4950674140e-04
5.9340659341e+01   1.4805406266e-04
5.9438339438e+01   1.4573299596e-04
5.9536019536e+01   1.4258337501e-04
5.9633699634e+01   1.3864892455e-04
5.9731379731e+01   1.3397686799e-04
5.9829059829e+01   1.2861752610e-04
5.9926739927e+01   1.2262390967e-04
6.0024420024e+01   1.1605130876e-04
6.0122100122e+01   1.0895688120e-04
6.0219780220e+01   1.0139924308e-04
6.0317460317e+01   9.3438063348e-05
6.0415140415e+01   8.5133665281e-05
6.0512820513e+01   7.6546636732e-05
6.0610500611e+01   6.7737451437e-05
6.0708180708e+01   5.8766103281e-05
6.0805860806e+01   4.9691755335e-05
6.0903540904e+01   4.0572405345e-05
6.1001221001e+01   3.1464569148e-05
6.1098901099e+01   2.2422983380e-05
6.1196581197e+01   1.3500328631e-05
6.1294261294e+01   4.7469740692e-06
6.1391941392e+01   -3.7892556293e-06
6.1489621490e+01   -1.2063290367e-05
6.1587301587e+01   -2.0033001211e-05
6.1684981685e+01   -2.7659363128e-05
6.1782661783e+01   -3.4906593675e-05
6.1880341880e+01   -4.1742267600e-05
6.1978021978e+01   -4.8137407459e-05
6.2075702076e+01   -5.4066550511e-05
6.2173382173e+01   -5.9507792247e-05
