X    Y
-2.0000000000e+01   2.8828833070e-18
-1.9990231990e+01   3.6119632974e-05
-1.9980463980e+01   7.2239842133e-05
-1.9970695971e+01   1.0836120363e-04
-1.9960927961e+01   1.4448429359e-04
-1.9951159951e+01   1.8060968802e-04
-1.9941391941e+01   2.1673796288e-04
-1.9931623932e+01   2.5286969397e-04
-1.9921855922e+01   2.8900545696e-04
-1.9912087912e+01   3.2514582732e-04
-1.9902319902e+01   3.6129138034e-04
-1.9892551893e+01   3.9744269110e-04
-1.9882783883e+01   4.3360033439e-04
-1.9873015873e+01   4.6976488477e-04
-1.9863247863e+01   5.0593691647e-04
-1.9853479853e+01   5.4211700340e-04
-1.9843711844e+01   5.7830571914e-04
-1.9833943834e+01   6.1450363687e-04
-1.9824175824e+01   6.5071132938e-04
-1.9814407814e+01   6.8692936905e-04
-1.9804639805e+01   7.2315832779e-04
-1.9794871795e+01   7.5939877705e-04
-1.9785103785e+01   7.9565128776e-04
-1.9775335775e+01   8.3191643035e-04
-1.9765567766e+01   8.6819477468e-04
-1.9755799756e+01   9.0448689004e-04
-1.9746031746e+01   9.4079334511e-04
-1.9736263736e+01   9.7711470797e-04
-1.9726495726e+01   1.0134515460e-03
-1.9716727717e+01   1.0498044260e-03
-1.9706959707e+01   1.0861739139e-03
-1.9697191697e+01   1.1225605750e-03
-1.9687423687e+01   1.1589649740e-03
-1.9677655678e+01   1.1953876745e-03
-1.9667887668e+01   1.2318292395e-03
-1.9658119658e+01   1.2682902312e-03
-1.9648351648e+01   1.3047712107e-03
-1.9638583639e+01   1.3412727386e-03
-1.9628815629e+01   1.3777953742e-03
-1.9619047619e+01   1.4143396761e-03
-1.9609279609e+01   1.4509062019e-03
-1.9599511600e+01   1.4874955082e-03
-1.9589743590e+01   1.5241081505e-03
-1.9579975580e+01   1.5607446834e-03
-1.9570207570e+01   1.5974056604e-03
-1.9560439560e+01   1.6340916338e-03
-1.9550671551e+01   1.6708031548e-03
-1.9540903541e+01   1.7075407736e-03
-1.9531135531e+01   1.7443050392e-03
-1.9521367521e+01   1.7810964992e-03
-1.9511599512e+01   1.8179157002e-03
-1.9501831502e+01   1.8547631874e-03
-1.9492063492e+01   1.8916395049e-03
-1.9482295482e+01   1.9285451951e-03
-1.9472527473e+01   1.9654807996e-03
-1.9462759463e+01   2.0024468583e-03
-1.9452991453e+01   2.0394439097e-03
-1.9443223443e+01   2.0764724910e-03
-1.9433455433e+01   2.1135331379e-03
-1.9423687424e+01   2.1506263848e-03
-1.9413919414e+01   2.1877527643e-03
-1.9404151404e+01   2.2249128076e-03
-1.9394383394e+01   2.2621070445e-03
-1.9384615385e+01   2.2993360030e-03
-1.9374847375e+01   2.3366002096e-03
-1.9365079365e+01   2.3739001891e-03
-1.9355311355e+01   2.4112364646e-03
-1.9345543346e+01   2.4486095578e-03
-1.9335775336e+01   2.4860199882e-03
-1.9326007326e+01   2.5234682740e-03
-1.9316239316e+01   2.5609549312e-03
-1.9306471306e+01   2.5984804743e-03
-1.9296703297e+01   2.6360454159e-03
-1.9286935287e+01   2.6736502666e-03
-1.9277167277e+01   2.7112955353e-03
-1.9267399267e+01   2.7489817288e-03
-1.9257631258e+01   2.7867093520e-03
-1.9247863248e+01   2.8244789078e-03
-1.9238095238e+01   2.8622908972e-03
-1.9228327228e+01   2.9001458189e-03
-1.9218559219e+01   2.9380441698e-03
-1.9208791209e+01   2.9759864446e-03
-1.9199023199e+01   3.0139731358e-03
-1.9189255189e+01   3.0520047337e-03
-1.9179487179e+01   3.0900817266e-03
-1.9169719170e+01   3.1282046003e-03
-1.9159951160e+01   3.1663738386e-03
-1.9150183150e+01   3.2045899229e-03
-1.9140415140e+01   3.2428533322e-03
-1.9130647131e+01   3.2811645434e-03
-1.9120879121e+01   3.3195240306e-03
-1.9111111111e+01   3.3579322659e-03
-1.9101343101e+01   3.3963897188e-03
-1.9091575092e+01   3.4348968561e-03
-1.9081807082e+01   3.4734541426e-03
-1.9072039072e+01   3.5120620400e-03
-1.9062271062e+01   3.5507210079e-03
-1.9052503053e+01   3.5894315028e-03
-1.9042735043e+01   3.6281939791e-03
-1.9032967033e+01   3.6670088882e-03
-1.9023199023e+01   3.7058766787e-03
-1.9013431013e+01   3.7447977969e-03
-1.9003663004e+01   3.7837726858e-03
-1.8993894994e+01   3.8228017860e-03
-1.8984126984e+01   3.8618855350e-03
-1.8974358974e+01   3.9010243677e-03
-1.8964590965e+01   3.9402187159e-03
-1.8954822955e+01   3.9794690084e-03
-1.8945054945e+01   4.0187756712e-03
-1.8935286935e+01   4.0581391272e-03
-1.8925518926e+01   4.0975597963e-03
-1.8915750916e+01   4.1370380952e-03
-1.8905982906e+01   4.1765744378e-03
-1.8896214896e+01   4.2161692346e-03
-1.8886446886e+01   4.2558228929e-03
-1.8876678877e+01   4.2955358168e-03
-1.8866910867e+01   4.3353084073e-03
-1.8857142857e+01   4.3751410620e-03
-1.8847374847e+01   4.4150341752e-03
-1.8837606838e+01   4.4549881378e-03
-1.8827838828e+01   4.4950033374e-03
-1.8818070818e+01   4.5350801580e-03
-1.8808302808e+01   4.5752189803e-03
-1.8798534799e+01   4.6154201815e-03
-1.8788766789e+01   4.6556841351e-03
-1.8778998779e+01   4.6960112112e-03
-1.8769230769e+01   4.7364017761e-03
-1.8759462759e+01   4.7768561926e-03
-1.8749694750e+01   4.8173748197e-03
-1.8739926740e+01   4.8579580128e-03
-1.8730158730e+01   4.8986061234e-03
-1.8720390720e+01   4.9393194993e-03
-1.8710622711e+01   4.9800984843e-03
-1.8700854701e+01   5.0209434186e-03
-1.8691086691e+01   5.0618546381e-03
-1.8681318681e+01   5.1028324750e-03
-1.8671550672e+01   5.1438772576e-03
-1.8661782662e+01   5.1849893098e-03
-1.8652014652e+01   5.2261689516e-03
-1.8642246642e+01   5.2674164991e-03
-1.8632478632e+01   5.3087322638e-03
-1.8622710623e+01   5.3501165535e-03
-1.8612942613e+01   5.3915696712e-03
-1.8603174603e+01   5.4330919162e-03
-1.8593406593e+01   5.4746835830e-03
-1.8583638584e+01   5.5163449620e-03
-1.8573870574e+01   5.5580763392e-03
-1.8564102564e+01   5.5998779959e-03
-1.8554334554e+01   5.6417502092e-03
-1.8544566545e+01   5.6836932516e-03
-1.8534798535e+01   5.7257073909e-03
-1.8525030525e+01   5.7677928904e-03
-1.8515262515e+01   5.8099500088e-03
-1.8505494505e+01   5.8521789999e-03
-1.8495726496e+01   5.8944801129e-03
-1.8485958486e+01   5.9368535922e-03
-1.8476190476e+01   5.9792996774e-03
-1.8466422466e+01   6.0218186031e-03
-1.8456654457e+01   6.0644105992e-03
-1.8446886447e+01   6.1070758903e-03
-1.8437118437e+01   6.1498146963e-03
-1.8427350427e+01   6.1926272319e-03
-1.8417582418e+01   6.2355137068e-03
-1.8407814408e+01   6.2784743255e-03
-1.8398046398e+01   6.3215092873e-03
-1.8388278388e+01   6.3646187862e-03
-1.8378510379e+01   6.4078030112e-03
-1.8368742369e+01   6.4510621456e-03
-1.8358974359e+01   6.4943963676e-03
-1.8349206349e+01   6.5378058498e-03
-1.8339438339e+01   6.5812907596e-03
-1.8329670330e+01   6.6248512586e-03
-1.8319902320e+01   6.6684875030e-03
-1.8310134310e+01   6.7121996433e-03
-1.8300366300e+01   6.7559878245e-03
-1.8290598291e+01   6.7998521857e-03
-1.8280830281e+01   6.8437928604e-03
-1.8271062271e+01   6.8878099763e-03
-1.8261294261e+01   6.9319036552e-03
-1.8251526252e+01   6.9760740130e-03
-1.8241758242e+01   7.0203211597e-03
-1.8231990232e+01   7.0646451992e-03
-1.8222222222e+01   7.1090462296e-03
-1.8212454212e+01   7.1535243426e-03
-1.8202686203e+01   7.1980796240e-03
-1.8192918193e+01   7.2427121532e-03
-1.8183150183e+01   7.2874220036e-03
-1.8173382173e+01   7.3322092422e-03
-1.8163614164e+01   7.3770739295e-03
-1.8153846154e+01   7.4220161198e-03
-1.8144078144e+01   7.4670358610e-03
-1.8134310134e+01   7.5121331942e-03
-1.8124542125e+01   7.5573081544e-03
-1.8114774115e+01   7.6025607695e-03
-1.8105006105e+01   7.6478910611e-03
-1.8095238095e+01   7.6932990440e-03
-1.8085470085e+01   7.7387847262e-03
-1.8075702076e+01   7.7843481090e-03
-1.8065934066e+01   7.8299891866e-03
-1.8056166056e+01   7.8757079465e-03
-1.8046398046e+01   7.9215043691e-03
-1.8036630037e+01   7.9673784279e-03
-1.8026862027e+01   8.0133300893e-03
-1.8017094017e+01   8.0593593123e-03
-1.8007326007e+01   8.1054660492e-03
-1.7997557998e+01   8.1516502445e-03
-1.7987789988e+01   8.1979118359e-03
-1.7978021978e+01   8.2442507533e-03
-1.7968253968e+01   8.2906669196e-03
-1.7958485958e+01   8.3371602499e-03
-1.7948717949e+01   8.3837306520e-03
-1.7938949939e+01   8.4303780260e-03
-1.7929181929e+01   8.4771022644e-03
-1.7919413919e+01   8.5239032521e-03
-1.7909645910e+01   8.5707808659e-03
-1.7899877900e+01   8.6177349753e-03
-1.7890109890e+01   8.6647654415e-03
-1.7880341880e+01   8.7118721181e-03
-1.7870573871e+01   8.7590548505e-03
-1.7860805861e+01   8.8063134761e-03
-1.7851037851e+01   8.8536478244e-03
-1.7841269841e+01   8.9010577164e-03
-1.7831501832e+01   8.9485429651e-03
-1.7821733822e+01   8.9961033752e-03
-1.7811965812e+01   9.0437387432e-03
-1.7802197802e+01   9.0914488569e-03
-1.7792429792e+01   9.1392334958e-03
-1.7782661783e+01   9.1870924311e-03
-1.7772893773e+01   9.2350254250e-03
-1.7763125763e+01   9.2830322314e-03
-1.7753357753e+01   9.3311125954e-03
-1.7743589744e+01   9.3792662533e-03
-1.7733821734e+01   9.4274929326e-03
-1.7724053724e+01   9.4757923520e-03
-1.7714285714e+01   9.5241642212e-03
-1.7704517705e+01   9.5726082410e-03
-1.7694749695e+01   9.6211241029e-03
-1.7684981685e+01   9.6697114894e-03
-1.7675213675e+01   9.7183700739e-03
-1.7665445665e+01   9.7670995205e-03
-1.7655677656e+01   9.8158994840e-03
-1.7645909646e+01   9.8647696096e-03
-1.7636141636e+01   9.9137095334e-03
-1.7626373626e+01   9.9627188818e-03
-1.7616605617e+01   1.0011797272e-02
-1.7606837607e+01   1.0060944310e-02
-1.7597069597e+01   1.0110159595e-02
-1.7587301587e+01   1.0159442714e-02
-1.7577533578e+01   1.0208793245e-02
-1.7567765568e+01   1.0258210757e-02
-1.7557997558e+01   1.0307694806e-02
-1.7548229548e+01   1.0357244942e-02
-1.7538461538e+01   1.0406860702e-02
-1.7528693529e+01   1.0456541614e-02
-1.7518925519e+01   1.0506287197e-02
-1.7509157509e+01   1.0556096956e-02
-1.7499389499e+01   1.0605970390e-02
-1.7489621490e+01   1.0655906985e-02
-1.7479853480e+01   1.0705906217e-02
-1.7470085470e+01   1.0755967551e-02
-1.7460317460e+01   1.0806090443e-02
-1.7450549451e+01   1.0856274337e-02
-1.7440781441e+01   1.0906518667e-02
-1.7431013431e+01   1.0956822854e-02
-1.7421245421e+01   1.1007186312e-02
-1.7411477411e+01   1.1057608441e-02
-1.7401709402e+01   1.1108088631e-02
-1.7391941392e+01   1.1158626260e-02
-1.7382173382e+01   1.1209220696e-02
-1.7372405372e+01   1.1259871297e-02
-1.7362637363e+01   1.1310577406e-02
-1.7352869353e+01   1.1361338358e-02
-1.7343101343e+01   1.1412153474e-02
-1.7333333333e+01   1.1463022067e-02
-1.7323565324e+01   1.1513943435e-02
-1.7313797314e+01   1.1564916865e-02
-1.7304029304e+01   1.1615941635e-02
-1.7294261294e+01   1.1667017007e-02
-1.7284493284e+01   1.1718142235e-02
-1.7274725275e+01   1.1769316558e-02
-1.7264957265e+01   1.1820539205e-02
-1.7255189255e+01   1.1871809393e-02
-1.7245421245e+01   1.1923126326e-02
-1.7235653236e+01   1.1974489196e-02
-1.7225885226e+01   1.2025897182e-02
-1.7216117216e+01   1.2077349453e-02
-1.7206349206e+01   1.2128845162e-02
-1.7196581197e+01   1.2180383454e-02
-1.7186813187e+01   1.2231963458e-02
-1.7177045177e+01   1.2283584291e-02
-1.7167277167e+01   1.2335245058e-02
-1.7157509158e+01   1.2386944851e-02
-1.7147741148e+01   1.2438682750e-02
-1.7137973138e+01   1.2490457820e-02
-1.7128205128e+01   1.2542269115e-02
-1.7118437118e+01   1.2594115675e-02
-1.7108669109e+01   1.2645996527e-02
-1.7098901099e+01   1.2697910686e-02
-1.7089133089e+01   1.2749857152e-02
-1.7079365079e+01   1.2801834912e-02
-1.7069597070e+01   1.2853842940e-02
-1.7059829060e+01   1.2905880198e-02
-1.7050061050e+01   1.2957945631e-02
-1.7040293040e+01   1.3010038173e-02
-1.7030525031e+01   1.3062156744e-02
-1.7020757021e+01   1.3114300250e-02
-1.7010989011e+01   1.3166467582e-02
-1.7001221001e+01   1.3218657620e-02
-1.6991452991e+01   1.3270869226e-02
-1.6981684982e+01   1.3323101252e-02
-1.6971916972e+01   1.3375352534e-02
-1.6962148962e+01   1.3427621893e-02
-1.6952380952e+01   1.3479908136e-02
-1.6942612943e+01   1.3532210057e-02
-1.6932844933e+01   1.3584526436e-02
-1.6923076923e+01   1.3636856035e-02
-1.6913308913e+01   1.3689197606e-02
-1.6903540904e+01   1.3741549883e-02
-1.6893772894e+01   1.3793911587e-02
-1.6884004884e+01   1.3846281423e-02
-1.6874236874e+01   1.3898658083e-02
-1.6864468864e+01   1.3951040242e-02
-1.6854700855e+01   1.4003426562e-02
-1.6844932845e+01   1.4055815688e-02
-1.6835164835e+01   1.4108206251e-02
-1.6825396825e+01   1.4160596867e-02
-1.6815628816e+01   1.4212986136e-02
-1.6805860806e+01   1.4265372644e-02
-1.6796092796e+01   1.4317754959e-02
-1.6786324786e+01   1.4370131637e-02
-1.6776556777e+01   1.4422501215e-02
-1.6766788767e+01   1.4474862217e-02
-1.6757020757e+01   1.4527213150e-02
-1.6747252747e+01   1.4579552505e-02
-1.6737484737e+01   1.4631878758e-02
-1.6727716728e+01   1.4684190369e-02
-1.6717948718e+01   1.4736485782e-02
-1.6708180708e+01   1.4788763424e-02
-1.6698412698e+01   1.4841021707e-02
-1.6688644689e+01   1.4893259027e-02
-1.6678876679e+01   1.4945473763e-02
-1.6669108669e+01   1.4997664277e-02
-1.6659340659e+01   1.5049828916e-02
-1.6649572650e+01   1.5101966010e-02
-1.6639804640e+01   1.5154073873e-02
-1.6630036630e+01   1.5206150802e-02
-1.6620268620e+01   1.5258195076e-02
-1.6610500611e+01   1.5310204959e-02
-1.6600732601e+01   1.5362178698e-02
-1.6590964591e+01   1.5414114522e-02
-1.6581196581e+01   1.5466010645e-02
-1.6571428571e+01   1.5517865262e-02
-1.6561660562e+01   1.5569676552e-02
-1.6551892552e+01   1.5621442676e-02
-1.6542124542e+01   1.5673161780e-02
-1.6532356532e+01   1.5724831990e-02
-1.6522588523e+01   1.5776451415e-02
-1.6512820513e+01   1.5828018149e-02
-1.6503052503e+01   1.5879530266e-02
-1.6493284493e+01   1.5930985823e-02
-1.6483516484e+01   1.5982382860e-02
-1.6473748474e+01   1.6033719400e-02
-1.6463980464e+01   1.6084993446e-02
-1.6454212454e+01   1.6136202985e-02
-1.6444444444e+01   1.6187345986e-02
-1.6434676435e+01   1.6238420399e-02
-1.6424908425e+01   1.6289424158e-02
-1.6415140415e+01   1.6340355176e-02
-1.6405372405e+01   1.6391211350e-02
-1.6395604396e+01   1.6441990560e-02
-1.6385836386e+01   1.6492690664e-02
-1.6376068376e+01   1.6543309505e-02
-1.6366300366e+01   1.6593844907e-02
-1.6356532357e+01   1.6644294673e-02
-1.6346764347e+01   1.6694656592e-02
-1.6336996337e+01   1.6744928430e-02
-1.6327228327e+01   1.6795107938e-02
-1.6317460317e+01   1.6845192846e-02
-1.6307692308e+01   1.6895180866e-02
-1.6297924298e+01   1.6945069692e-02
-1.6288156288e+01   1.6994856997e-02
-1.6278388278e+01   1.7044540438e-02
-1.6268620269e+01   1.7094117651e-02
-1.6258852259e+01   1.7143586254e-02
-1.6249084249e+01   1.7192943845e-02
-1.6239316239e+01   1.7242188004e-02
-1.6229548230e+01   1.7291316290e-02
-1.6219780220e+01   1.7340326246e-02
-1.6210012210e+01   1.7389215393e-02
-1.6200244200e+01   1.7437981233e-02
-1.6190476190e+01   1.7486621249e-02
-1.6180708181e+01   1.7535132906e-02
-1.6170940171e+01   1.7583513646e-02
-1.6161172161e+01   1.7631760896e-02
-1.6151404151e+01   1.7679872060e-02
-1.6141636142e+01   1.7727844523e-02
-1.6131868132e+01   1.7775675652e-02
-1.6122100122e+01   1.7823362792e-02
-1.6112332112e+01   1.7870903269e-02
-1.6102564103e+01   1.7918294391e-02
-1.6092796093e+01   1.7965533444e-02
-1.6083028083e+01   1.8012617695e-02
-1.6073260073e+01   1.8059544389e-02
-1.6063492063e+01   1.8106310756e-02
-1.6053724054e+01   1.8152914000e-02
-1.6043956044e+01   1.8199351308e-02
-1.6034188034e+01   1.8245619848e-02
-1.6024420024e+01   1.8291716766e-02
-1.6014652015e+01   1.8337639188e-02
-1.6004884005e+01   1.8383384220e-02
-1.5995115995e+01   1.8428948947e-02
-1.5985347985e+01   1.8474330436e-02
-1.5975579976e+01   1.8519525731e-02
-1.5965811966e+01   1.8564531857e-02
-1.5956043956e+01   1.8609345819e-02
-1.5946275946e+01   1.8653964600e-02
-1.5936507937e+01   1.8698385163e-02
-1.5926739927e+01   1.8742604452e-02
-1.5916971917e+01   1.8786619389e-02
-1.5907203907e+01   1.8830426876e-02
-1.5897435897e+01   1.8874023793e-02
-1.5887667888e+01   1.8917407002e-02
-1.5877899878e+01   1.8960573343e-02
-1.5868131868e+01   1.9003519634e-02
-1.5858363858e+01   1.9046242674e-02
-1.5848595849e+01   1.9088739241e-02
-1.5838827839e+01   1.9131006092e-02
-1.5829059829e+01   1.9173039964e-02
-1.5819291819e+01   1.9214837572e-02
-1.5809523810e+01   1.9256395610e-02
-1.5799755800e+01   1.9297710753e-02
-1.5789987790e+01   1.9338779653e-02
-1.5780219780e+01   1.9379598943e-02
-1.5770451770e+01   1.9420165234e-02
-1.5760683761e+01   1.9460475117e-02
-1.5750915751e+01   1.9500525160e-02
-1.5741147741e+01   1.9540311913e-02
-1.5731379731e+01   1.9579831903e-02
-1.5721611722e+01   1.9619081638e-02
-1.5711843712e+01   1.9658057601e-02
-1.5702075702e+01   1.9696756260e-02
-1.5692307692e+01   1.9735174057e-02
-1.5682539683e+01   1.9773307415e-02
-1.5672771673e+01   1.9811152737e-02
-1.5663003663e+01   1.9848706403e-02
-1.5653235653e+01   1.9885964774e-02
-1.5643467643e+01   1.9922924188e-02
-1.5633699634e+01   1.9959580964e-02
-1.5623931624e+01   1.9995931399e-02
-1.5614163614e+01   2.0031971768e-02
-1.5604395604e+01   2.0067698328e-02
-1.5594627595e+01   2.0103107313e-02
-1.5584859585e+01   2.0138194936e-02
-1.5575091575e+01   2.0172957389e-02
-1.5565323565e+01   2.0207390844e-02
-1.5555555556e+01   2.0241491452e-02
-1.5545787546e+01   2.0275255343e-02
-1.5536019536e+01   2.0308678625e-02
-1.5526251526e+01   2.0341757387e-02
-1.5516483516e+01   2.0374487696e-02
-1.5506715507e+01   2.0406865598e-02
-1.5496947497e+01   2.0438887119e-02
-1.5487179487e+01   2.0470548265e-02
-1.5477411477e+01   2.0501845018e-02
-1.5467643468e+01   2.0532773344e-02
-1.5457875458e+01   2.0563329183e-02
-1.5448107448e+01   2.0593508460e-02
-1.5438339438e+01   2.0623307075e-02
-1.5428571429e+01   2.0652720910e-02
-1.5418803419e+01   2.0681745824e-02
-1.5409035409e+01   2.0710377659e-02
-1.5399267399e+01   2.0738612232e-02
-1.5389499389e+01   2.0766445344e-02
-1.5379731380e+01   2.0793872773e-02
-1.5369963370e+01   2.0820890278e-02
-1.5360195360e+01   2.0847493596e-02
-1.5350427350e+01   2.0873678445e-02
-1.5340659341e+01   2.0899440523e-02
-1.5330891331e+01   2.0924775508e-02
-1.5321123321e+01   2.0949679057e-02
-1.5311355311e+01   2.0974146807e-02
-1.5301587302e+01   2.0998174376e-02
-1.5291819292e+01   2.1021757361e-02
-1.5282051282e+01   2.1044891340e-02
-1.5272283272e+01   2.1067571870e-02
-1.5262515263e+01   2.1089794491e-02
-1.5252747253e+01   2.1111554719e-02
-1.5242979243e+01   2.1132848055e-02
-1.5233211233e+01   2.1153669977e-02
-1.5223443223e+01   2.1174015946e-02
-1.5213675214e+01   2.1193881402e-02
-1.5203907204e+01   2.1213261766e-02
-1.5194139194e+01   2.1232152441e-02
-1.5184371184e+01   2.1250548808e-02
-1.5174603175e+01   2.1268446233e-02
-1.5164835165e+01   2.1285840060e-02
-1.5155067155e+01   2.1302725616e-02
-1.5145299145e+01   2.1319098206e-02
-1.5135531136e+01   2.1334953121e-02
-1.5125763126e+01   2.1350285630e-02
-1.5115995116e+01   2.1365090984e-02
-1.5106227106e+01   2.1379364417e-02
-1.5096459096e+01   2.1393101144e-02
-1.5086691087e+01   2.1406296360e-02
-1.5076923077e+01   2.1418945245e-02
-1.5067155067e+01   2.1431042960e-02
-1.5057387057e+01   2.1442584646e-02
-1.5047619048e+01   2.1453565429e-02
-1.5037851038e+01   2.1463980417e-02
-1.5028083028e+01   2.1473824698e-02
-1.5018315018e+01   2.1483093346e-02
-1.5008547009e+01   2.1491781416e-02
-1.4998778999e+01   2.1499883945e-02
-1.4989010989e+01   2.1507395954e-02
-1.4979242979e+01   2.1514312449e-02
-1.4969474969e+01   2.1520628415e-02
-1.4959706960e+01   2.1526338824e-02
-1.4949938950e+01   2.1531438630e-02
-1.4940170940e+01   2.1535922771e-02
-1.4930402930e+01   2.1539786168e-02
-1.4920634921e+01   2.1543023728e-02
-1.4910866911e+01   2.1545630340e-02
-1.4901098901e+01   2.1547600878e-02
-1.4891330891e+01   2.1548930200e-02
-1.4881562882e+01   2.1549613150e-02
-1.4871794872e+01   2.1549644555e-02
-1.4862026862e+01   2.1549019228e-02
-1.4852258852e+01   2.1547731966e-02
-1.4842490842e+01   2.1545777553e-02
-1.4832722833e+01   2.1543150757e-02
-1.4822954823e+01   2.1539846331e-02
-1.4813186813e+01   2.1535859015e-02
-1.4803418803e+01   2.1531183535e-02
-1.4793650794e+01   2.1525814602e-02
-1.4783882784e+01   2.1519746914e-02
-1.4774114774e+01   2.1512975156e-02
-1.4764346764e+01   2.1505493998e-02
-1.4754578755e+01   2.1497298099e-02
-1.4744810745e+01   2.1488382103e-02
-1.4735042735e+01   2.1478740644e-02
-1.4725274725e+01   2.1468368339e-02
-1.4715506716e+01   2.1457259798e-02
-1.4705738706e+01   2.1445409615e-02
-1.4695970696e+01   2.1432812373e-02
-1.4686202686e+01   2.1419462645e-02
-1.4676434676e+01   2.1405354990e-02
-1.4666666667e+01   2.1390483957e-02
-1.4656898657e+01   2.1374844085e-02
-1.4647130647e+01   2.1358429900e-02
-1.4637362637e+01   2.1341235919e-02
-1.4627594628e+01   2.1323256648e-02
-1.4617826618e+01   2.1304486584e-02
-1.4608058608e+01   2.1284920213e-02
-1.4598290598e+01   2.1264552011e-02
-1.4588522589e+01   2.1243376446e-02
-1.4578754579e+01   2.1221387976e-02
-1.4568986569e+01   2.1198581050e-02
-1.4559218559e+01   2.1174950110e-02
-1.4549450549e+01   2.1150489587e-02
-1.4539682540e+01   2.1125193906e-02
-1.4529914530e+01   2.1099057484e-02
-1.4520146520e+01   2.1072074730e-02
-1.4510378510e+01   2.1044240045e-02
-1.4500610501e+01   2.1015547825e-02
-1.4490842491e+01   2.0985992457e-02
-1.4481074481e+01   2.0955568323e-02
-1.4471306471e+01   2.0924269799e-02
-1.4461538462e+01   2.0892091255e-02
-1.4451770452e+01   2.0859027055e-02
-1.4442002442e+01   2.0825071558e-02
-1.4432234432e+01   2.0790219117e-02
-1.4422466422e+01   2.0754464084e-02
-1.4412698413e+01   2.0717800802e-02
-1.4402930403e+01   2.0680223613e-02
-1.4393162393e+01   2.0641726854e-02
-1.4383394383e+01   2.0602304860e-02
-1.4373626374e+01   2.0561951961e-02
-1.4363858364e+01   2.0520662487e-02
-1.4354090354e+01   2.0478430762e-02
-1.4344322344e+01   2.0435251112e-02
-1.4334554335e+01   2.0391117857e-02
-1.4324786325e+01   2.0346025321e-02
-1.4315018315e+01   2.0299967821e-02
-1.4305250305e+01   2.0252939678e-02
-1.4295482295e+01   2.0204935210e-02
-1.4285714286e+01   2.0155948737e-02
-1.4275946276e+01   2.0105974578e-02
-1.4266178266e+01   2.0055007054e-02
-1.4256410256e+01   2.0003040485e-02
-1.4246642247e+01   1.9950069195e-02
-1.4236874237e+01   1.9896087508e-02
-1.4227106227e+01   1.9841089752e-02
-1.4217338217e+01   1.9785070258e-02
-1.4207570208e+01   1.9728023356e-02
-1.4197802198e+01   1.9669943385e-02
-1.4188034188e+01   1.9610824684e-02
-1.4178266178e+01   1.9550661598e-02
-1.4168498168e+01   1.9489448476e-02
-1.4158730159e+01   1.9427179672e-02
-1.4148962149e+01   1.9363849547e-02
-1.4139194139e+01   1.9299452466e-02
-1.4129426129e+01   1.9233982800e-02
-1.4119658120e+01   1.9167434930e-02
-1.4109890110e+01   1.9099803240e-02
-1.4100122100e+01   1.9031082125e-02
-1.4090354090e+01   1.8961265986e-02
-1.4080586081e+01   1.8890349234e-02
-1.4070818071e+01   1.8818326288e-02
-1.4061050061e+01   1.8745191575e-02
-1.4051282051e+01   1.8670939536e-02
-1.4041514042e+01   1.8595564619e-02
-1.4031746032e+01   1.8519061282e-02
-1.4021978022e+01   1.8441423998e-02
-1.4012210012e+01   1.8362647249e-02
-1.4002442002e+01   1.8282725530e-02
-1.3992673993e+01   1.8201653347e-02
-1.3982905983e+01   1.8119425222e-02
-1.3973137973e+01   1.8036035690e-02
-1.3963369963e+01   1.7951479298e-02
-1.3953601954e+01   1.7865750609e-02
-1.3943833944e+01   1.7778844203e-02
-1.3934065934e+01   1.7690754673e-02
-1.3924297924e+01   1.7601476629e-02
-1.3914529915e+01   1.7511004697e-02
-1.3904761905e+01   1.7419333523e-02
-1.3894993895e+01   1.7326457768e-02
-1.3885225885e+01   1.7232372111e-02
-1.3875457875e+01   1.7137071252e-02
-1.3865689866e+01   1.7040549908e-02
-1.3855921856e+01   1.6942802818e-02
-1.3846153846e+01   1.6843824741e-02
-1.3836385836e+01   1.6743610454e-02
-1.3826617827e+01   1.6642154760e-02
-1.3816849817e+01   1.6539452481e-02
-1.3807081807e+01   1.6435498463e-02
-1.3797313797e+01   1.6330287574e-02
-1.3787545788e+01   1.6223814707e-02
-1.3777777778e+01   1.6116074779e-02
-1.3768009768e+01   1.6007062732e-02
-1.3758241758e+01   1.5896773533e-02
-1.3748473748e+01   1.5785202176e-02
-1.3738705739e+01   1.5672343680e-02
-1.3728937729e+01   1.5558193093e-02
-1.3719169719e+01   1.5442745490e-02
-1.3709401709e+01   1.5325995975e-02
-1.3699633700e+01   1.5207939681e-02
-1.3689865690e+01   1.5088571770e-02
-1.3680097680e+01   1.4967887436e-02
-1.3670329670e+01   1.4845881902e-02
-1.3660561661e+01   1.4722550423e-02
-1.3650793651e+01   1.4597888289e-02
-1.3641025641e+01   1.4471890818e-02
-1.3631257631e+01   1.4344553365e-02
-1.3621489621e+01   1.4215871318e-02
-1.3611721612e+01   1.4085840100e-02
-1.3601953602e+01   1.3954455170e-02
-1.3592185592e+01   1.3821712022e-02
-1.3582417582e+01   1.3687606188e-02
-1.3572649573e+01   1.3552133236e-02
-1.3562881563e+01   1.3415288772e-02
-1.3553113553e+01   1.3277068444e-02
-1.3543345543e+01   1.3137467935e-02
-1.3533577534e+01   1.2996482970e-02
-1.3523809524e+01   1.2854109317e-02
-1.3514041514e+01   1.2710342782e-02
-1.3504273504e+01   1.2565179216e-02
-1.3494505495e+01   1.2418614510e-02
-1.3484737485e+01   1.2270644601e-02
-1.3474969475e+01   1.2121265471e-02
-1.3465201465e+01   1.1970473144e-02
-1.3455433455e+01   1.1818263692e-02
-1.3445665446e+01   1.1664633233e-02
-1.3435897436e+01   1.1509577932e-02
-1.3426129426e+01   1.1353094003e-02
-1.3416361416e+01   1.1195177707e-02
-1.3406593407e+01   1.1035825355e-02
-1.3396825397e+01   1.0875033308e-02
-1.3387057387e+01   1.0712797980e-02
-1.3377289377e+01   1.0549115833e-02
-1.3367521368e+01   1.0383983385e-02
-1.3357753358e+01   1.0217397205e-02
-1.3347985348e+01   1.0049353915e-02
-1.3338217338e+01   9.8798501953e-03
-1.3328449328e+01   9.7088827783e-03
-1.3318681319e+01   9.5364484542e-03
-1.3308913309e+01   9.3625440698e-03
-1.3299145299e+01   9.1871665298e-03
-1.3289377289e+01   9.0103127977e-03
-1.3279609280e+01   8.8319798961e-03
-1.3269841270e+01   8.6521649078e-03
-1.3260073260e+01   8.4708649768e-03
-1.3250305250e+01   8.2880773087e-03
-1.3240537241e+01   8.1037991716e-03
-1.3230769231e+01   7.9180278974e-03
-1.3221001221e+01   7.7307608818e-03
-1.3211233211e+01   7.5419955857e-03
-1.3201465201e+01   7.3517295358e-03
-1.3191697192e+01   7.1599603256e-03
-1.3181929182e+01   6.9666856160e-03
-1.3172161172e+01   6.7719031362e-03
-1.3162393162e+01   6.5756106846e-03
-1.3152625153e+01   6.3778061298e-03
-1.3142857143e+01   6.1784874110e-03
-1.3133089133e+01   5.9776525392e-03
-1.3123321123e+01   5.7752995980e-03
-1.3113553114e+01   5.5714267442e-03
-1.3103785104e+01   5.3660322092e-03
-1.3094017094e+01   5.1591142993e-03
-1.3084249084e+01   4.9506713967e-03
-1.3074481074e+01   4.7407019606e-03
-1.3064713065e+01   4.5292045279e-03
-1.3054945055e+01   4.3161777141e-03
-1.3045177045e+01   4.1016202142e-03
-1.3035409035e+01   3.8855308033e-03
-1.3025641026e+01   3.6679083380e-03
-1.3015873016e+01   3.4487517570e-03
-1.3006105006e+01   3.2280600818e-03
-1.2996336996e+01   3.0058324180e-03
-1.2986568987e+01   2.7820679559e-03
-1.2976800977e+01   2.5567659714e-03
-1.2967032967e+01   2.3299258271e-03
-1.2957264957e+01   2.1015469731e-03
-1.2947496947e+01   1.8716289477e-03
-1.2937728938e+01   1.6401713788e-03
-1.2927960928e+01   1.4071739842e-03
-1.2918192918e+01   1.1726365731e-03
-1.2908424908e+01   9.3655904644e-04
-1.2898656899e+01   6.9894139833e-04
-1.2888888889e+01   4.5978371668e-04
-1.2879120879e+01   2.1908618420e-04
-1.2869352869e+01   -2.3150920675e-05
-1.2859584860e+01   -2.6692722288e-04
-1.2849816850e+01   -5.1224224975e-04
-1.2840048840e+01   -7.5909543013e-04
-1.2830280830e+01   -1.0074860934e-03
-1.2820512821e+01   -1.2574134686e-03
-1.2810744811e+01   -1.5088766835e-03
-1.2800976801e+01   -1.7618747634e-03
-1.2791208791e+01   -2.0164066306e-03
-1.2781440781e+01   -2.2724711033e-03
-1.2771672772e+01   -2.5300668945e-03
-1.2761904762e+01   -2.7891926112e-03
-1.2752136752e+01   -3.0498467535e-03
-1.2742368742e+01   -3.3120277133e-03
-1.2732600733e+01   -3.5757337740e-03
-1.2722832723e+01   -3.8409631089e-03
-1.2713064713e+01   -4.1077137806e-03
-1.2703296703e+01   -4.3759837400e-03
-1.2693528694e+01   -4.6457708253e-03
-1.2683760684e+01   -4.9170727610e-03
-1.2673992674e+01   -5.1898871570e-03
-1.2664224664e+01   -5.4642115076e-03
-1.2654456654e+01   -5.7400431907e-03
-1.2644688645e+01   -6.0173794665e-03
-1.2634920635e+01   -6.2962174769e-03
-1.2625152625e+01   -6.5765542443e-03
-1.2615384615e+01   -6.8583866709e-03
-1.2605616606e+01   -7.1417115372e-03
-1.2595848596e+01   -7.4265255019e-03
-1.2586080586e+01   -7.7128250999e-03
-1.2576312576e+01   -8.0006067421e-03
-1.2566544567e+01   -8.2898667144e-03
-1.2556776557e+01   -8.5806011762e-03
-1.2547008547e+01   -8.8728061600e-03
-1.2537240537e+01   -9.1664775700e-03
-1.2527472527e+01   -9.4616111815e-03
-1.2517704518e+01   -9.7582026397e-03
-1.2507936508e+01   -1.0056247459e-02
-1.2498168498e+01   -1.0355741021e-02
-1.2488400488e+01   -1.0656678577e-02
-1.2478632479e+01   -1.0959055240e-02
-1.2468864469e+01   -1.1262865992e-02
-1.2459096459e+01   -1.1568105678e-02
-1.2449328449e+01   -1.1874769005e-02
-1.2439560440e+01   -1.2182850545e-02
-1.2429792430e+01   -1.2492344728e-02
-1.2420024420e+01   -1.2803245847e-02
-1.2410256410e+01   -1.3115548054e-02
-1.2400488400e+01   -1.3429245358e-02
-1.2390720391e+01   -1.3744331626e-02
-1.2380952381e+01   -1.4060800583e-02
-1.2371184371e+01   -1.4378645809e-02
-1.2361416361e+01   -1.4697860737e-02
-1.2351648352e+01   -1.5018438655e-02
-1.2341880342e+01   -1.5340372704e-02
-1.2332112332e+01   -1.5663655877e-02
-1.2322344322e+01   -1.5988281017e-02
-1.2312576313e+01   -1.6314240817e-02
-1.2302808303e+01   -1.6641527820e-02
-1.2293040293e+01   -1.6970134416e-02
-1.2283272283e+01   -1.7300052843e-02
-1.2273504274e+01   -1.7631275184e-02
-1.2263736264e+01   -1.7963793369e-02
-1.2253968254e+01   -1.8297599171e-02
-1.2244200244e+01   -1.8632684207e-02
-1.2234432234e+01   -1.8969039936e-02
-1.2224664225e+01   -1.9306657660e-02
-1.2214896215e+01   -1.9645528521e-02
-1.2205128205e+01   -1.9985643499e-02
-1.2195360195e+01   -2.0326993416e-02
-1.2185592186e+01   -2.0669568930e-02
-1.2175824176e+01   -2.1013360538e-02
-1.2166056166e+01   -2.1358358570e-02
-1.2156288156e+01   -2.1704553194e-02
-1.2146520147e+01   -2.2051934412e-02
-1.2136752137e+01   -2.2400492059e-02
-1.2126984127e+01   -2.2750215805e-02
-1.2117216117e+01   -2.3101095147e-02
-1.2107448107e+01   -2.3453119418e-02
-1.2097680098e+01   -2.3806277779e-02
-1.2087912088e+01   -2.4160559220e-02
-1.2078144078e+01   -2.4515952560e-02
-1.2068376068e+01   -2.4872446445e-02
-1.2058608059e+01   -2.5230029349e-02
-1.2048840049e+01   -2.5588689571e-02
-1.2039072039e+01   -2.5948415235e-02
-1.2029304029e+01   -2.6309194290e-02
-1.2019536020e+01   -2.6671014508e-02
-1.2009768010e+01   -2.7033863484e-02
-1.2000000000e+01   -2.7397728635e-02
-1.1990231990e+01   -2.7762597198e-02
-1.1980463980e+01   -2.8128456232e-02
-1.1970695971e+01   -2.8495292614e-02
-1.1960927961e+01   -2.8863093040e-02
-1.1951159951e+01   -2.9231844026e-02
-1.1941391941e+01   -2.9601531902e-02
-1.1931623932e+01   -2.9972142817e-02
-1.1921855922e+01   -3.0343662735e-02
-1.1912087912e+01   -3.0716077435e-02
-1.1902319902e+01   -3.1089372509e-02
-1.1892551893e+01   -3.1463533365e-02
-1.1882783883e+01   -3.1838545222e-02
-1.1873015873e+01   -3.2214393113e-02
-1.1863247863e+01   -3.2591061879e-02
-1.1853479853e+01   -3.2968536176e-02
-1.1843711844e+01   -3.3346800467e-02
-1.1833943834e+01   -3.3725839026e-02
-1.1824175824e+01   -3.4105635935e-02
-1.1814407814e+01   -3.4486175085e-02
-1.1804639805e+01   -3.4867440173e-02
-1.1794871795e+01   -3.5249414705e-02
-1.1785103785e+01   -3.5632081992e-02
-1.1775335775e+01   -3.6015425149e-02
-1.1765567766e+01   -3.6399427100e-02
-1.1755799756e+01   -3.6784070569e-02
-1.1746031746e+01   -3.7169338088e-02
-1.1736263736e+01   -3.7555211989e-02
-1.1726495726e+01   -3.7941674408e-02
-1.1716727717e+01   -3.8328707284e-02
-1.1706959707e+01   -3.8716292357e-02
-1.1697191697e+01   -3.9104411167e-02
-1.1687423687e+01   -3.9493045056e-02
-1.1677655678e+01   -3.9882175166e-02
-1.1667887668e+01   -4.0271782439e-02
-1.1658119658e+01   -4.0661847615e-02
-1.1648351648e+01   -4.1052351233e-02
-1.1638583639e+01   -4.1443273630e-02
-1.1628815629e+01   -4.1834594943e-02
-1.1619047619e+01   -4.2226295103e-02
-1.1609279609e+01   -4.2618353840e-02
-1.1599511600e+01   -4.3010750681e-02
-1.1589743590e+01   -4.3403464948e-02
-1.1579975580e+01   -4.3796475759e-02
-1.1570207570e+01   -4.4189762028e-02
-1.1560439560e+01   -4.4583302463e-02
-1.1550671551e+01   -4.4977075568e-02
-1.1540903541e+01   -4.5371059640e-02
-1.1531135531e+01   -4.5765232773e-02
-1.1521367521e+01   -4.6159572851e-02
-1.1511599512e+01   -4.6554057554e-02
-1.1501831502e+01   -4.6948664355e-02
-1.1492063492e+01   -4.7343370520e-02
-1.1482295482e+01   -4.7738153108e-02
-1.1472527473e+01   -4.8132988970e-02
-1.1462759463e+01   -4.8527854750e-02
-1.1452991453e+01   -4.8922726883e-02
-1.1443223443e+01   -4.9317581599e-02
-1.1433455433e+01   -4.9712394917e-02
-1.1423687424e+01   -5.0107142649e-02
-1.1413919414e+01   -5.0501800399e-02
-1.1404151404e+01   -5.0896343562e-02
-1.1394383394e+01   -5.1290747324e-02
-1.1384615385e+01   -5.1684986665e-02
-1.1374847375e+01   -5.2079036353e-02
-1.1365079365e+01   -5.2472870950e-02
-1.1355311355e+01   -5.2866464808e-02
-1.1345543346e+01   -5.3259792070e-02
-1.1335775336e+01   -5.3652826673e-02
-1.1326007326e+01   -5.4045542342e-02
-1.1316239316e+01   -5.4437912596e-02
-1.1306471306e+01   -5.4829910745e-02
-1.1296703297e+01   -5.5221509889e-02
-1.1286935287e+01   -5.5612682923e-02
-1.1277167277e+01   -5.6003402531e-02
-1.1267399267e+01   -5.6393641190e-02
-1.1257631258e+01   -5.6783371171e-02
-1.1247863248e+01   -5.7172564536e-02
-1.1238095238e+01   -5.7561193139e-02
-1.1228327228e+01   -5.7949228628e-02
-1.1218559219e+01   -5.8336642444e-02
-1.1208791209e+01   -5.8723405822e-02
-1.1199023199e+01   -5.9109489791e-02
-1.1189255189e+01   -5.9494865172e-02
-1.1179487179e+01   -5.9879502582e-02
-1.1169719170e+01   -6.0263372434e-02
-1.1159951160e+01   -6.0646444935e-02
-1.1150183150e+01   -6.1028690087e-02
-1.1140415140e+01   -6.1410077689e-02
-1.1130647131e+01   -6.1790577336e-02
-1.1120879121e+01   -6.2170158421e-02
-1.1111111111e+01   -6.2548790134e-02
-1.1101343101e+01   -6.2926441463e-02
-1.1091575092e+01   -6.3303081195e-02
-1.1081807082e+01   -6.3678677914e-02
-1.1072039072e+01   -6.4053200007e-02
-1.1062271062e+01   -6.4426615660e-02
-1.1052503053e+01   -6.4798892860e-02
-1.1042735043e+01   -6.5169999395e-02
-1.1032967033e+01   -6.5539902857e-02
-1.1023199023e+01   -6.5908570639e-02
-1.1013431013e+01   -6.6275969941e-02
-1.1003663004e+01   -6.6642067764e-02
-1.0993894994e+01   -6.7006830918e-02
-1.0984126984e+01   -6.7370226016e-02
-1.0974358974e+01   -6.7732219481e-02
-1.0964590965e+01   -6.8092777541e-02
-1.0954822955e+01   -6.8451866236e-02
-1.0945054945e+01   -6.8809451414e-02
-1.0935286935e+01   -6.9165498734e-02
-1.0925518926e+01   -6.9519973666e-02
-1.0915750916e+01   -6.9872841494e-02
-1.0905982906e+01   -7.0224067316e-02
-1.0896214896e+01   -7.0573616044e-02
-1.0886446886e+01   -7.0921452406e-02
-1.0876678877e+01   -7.1267540947e-02
-1.0866910867e+01   -7.1611846030e-02
-1.0857142857e+01   -7.1954331839e-02
-1.0847374847e+01   -7.2294962377e-02
-1.0837606838e+01   -7.2633701468e-02
-1.0827838828e+01   -7.2970512762e-02
-1.0818070818e+01   -7.3305359730e-02
-1.0808302808e+01   -7.3638205671e-02
-1.0798534799e+01   -7.3969013709e-02
-1.0788766789e+01   -7.4297746800e-02
-1.0778998779e+01   -7.4624367725e-02
-1.0769230769e+01   -7.4948839100e-02
-1.0759462759e+01   -7.5271123372e-02
-1.0749694750e+01   -7.5591182823e-02
-1.0739926740e+01   -7.5908979569e-02
-1.0730158730e+01   -7.6224475566e-02
-1.0720390720e+01   -7.6537632606e-02
-1.0710622711e+01   -7.6848412324e-02
-1.0700854701e+01   -7.7156776196e-02
-1.0691086691e+01   -7.7462685541e-02
-1.0681318681e+01   -7.7766101525e-02
-1.0671550672e+01   -7.8066985160e-02
-1.0661782662e+01   -7.8365297308e-02
-1.0652014652e+01   -7.8660998682e-02
-1.0642246642e+01   -7.8954049848e-02
-1.0632478632e+01   -7.9244411224e-02
-1.0622710623e+01   -7.9532043087e-02
-1.0612942613e+01   -7.9816905573e-02
-1.0603174603e+01   -8.0098958676e-02
-1.0593406593e+01   -8.0378162253e-02
-1.0583638584e+01   -8.0654476028e-02
-1.0573870574e+01   -8.0927859588e-02
-1.0564102564e+01   -8.1198272391e-02
-1.0554334554e+01   -8.1465673765e-02
-1.0544566545e+01   -8.1730022911e-02
-1.0534798535e+01   -8.1991278904e-02
-1.0525030525e+01   -8.2249400699e-02
-1.0515262515e+01   -8.2504347129e-02
-1.0505494505e+01   -8.2756076908e-02
-1.0495726496e+01   -8.3004548636e-02
-1.0485958486e+01   -8.3249720800e-02
-1.0476190476e+01   -8.3491551775e-02
-1.0466422466e+01   -8.3729999828e-02
-1.0456654457e+01   -8.3965023119e-02
-1.0446886447e+01   -8.4196579707e-02
-1.0437118437e+01   -8.4424627548e-02
-1.0427350427e+01   -8.4649124500e-02
-1.0417582418e+01   -8.4870028327e-02
-1.0407814408e+01   -8.5087296699e-02
-1.0398046398e+01   -8.5300887195e-02
-1.0388278388e+01   -8.5510757307e-02
-1.0378510379e+01   -8.5716864443e-02
-1.0368742369e+01   -8.5919165928e-02
-1.0358974359e+01   -8.6117619009e-02
-1.0349206349e+01   -8.6312180856e-02
-1.0339438339e+01   -8.6502808565e-02
-1.0329670330e+01   -8.6689459164e-02
-1.0319902320e+01   -8.6872089611e-02
-1.0310134310e+01   -8.7050656802e-02
-1.0300366300e+01   -8.7225117570e-02
-1.0290598291e+01   -8.7395428690e-02
-1.0280830281e+01   -8.7561546884e-02
-1.0271062271e+01   -8.7723428820e-02
-1.0261294261e+01   -8.7881031118e-02
-1.0251526252e+01   -8.8034310354e-02
-1.0241758242e+01   -8.8183223059e-02
-1.0231990232e+01   -8.8327725729e-02
-1.0222222222e+01   -8.8467774821e-02
-1.0212454212e+01   -8.8603326764e-02
-1.0202686203e+01   -8.8734337954e-02
-1.0192918193e+01   -8.8860764766e-02
-1.0183150183e+01   -8.8982563551e-02
-1.0173382173e+01   -8.9099690644e-02
-1.0163614164e+01   -8.9212102363e-02
-1.0153846154e+01   -8.9319755019e-02
-1.0144078144e+01   -8.9422604912e-02
-1.0134310134e+01   -8.9520608341e-02
-1.0124542125e+01   -8.9613721606e-02
-1.0114774115e+01   -8.9701901010e-02
-1.0105006105e+01   -8.9785102864e-02
-1.0095238095e+01   -8.9863283491e-02
-1.0085470085e+01   -8.9936399231e-02
-1.0075702076e+01   -9.0004406442e-02
-1.0065934066e+01   -9.0067261507e-02
-1.0056166056e+01   -9.0124920836e-02
-1.0046398046e+01   -9.0177340873e-02
-1.0036630037e+01   -9.0224478093e-02
-1.0026862027e+01   -9.0266289017e-02
-1.0017094017e+01   -9.0302730207e-02
-1.0007326007e+01   -9.0333758273e-02
-9.9975579976e+00   -9.0359329879e-02
-9.9877899878e+00   -9.0379401746e-02
-9.9780219780e+00   -9.0393930656e-02
-9.9682539683e+00   -9.0402873456e-02
-9.9584859585e+00   -9.0406187065e-02
-9.9487179487e+00   -9.0403828474e-02
-9.9389499389e+00   -9.0395754755e-02
-9.9291819292e+00   -9.0381923062e-02
-9.9194139194e+00   -9.0362290639e-02
-9.9096459096e+00   -9.0336814821e-02
-9.8998778999e+00   -9.0305453042e-02
-9.8901098901e+00   -9.0268162836e-02
-9.8803418803e+00   -9.0224901845e-02
-9.8705738706e+00   -9.0175627822e-02
-9.8608058608e+00   -9.0120298637e-02
-9.8510378510e+00   -9.0058872280e-02
-9.8412698413e+00   -8.9991306867e-02
-9.8315018315e+00   -8.9917560647e-02
-9.8217338217e+00   -8.9837592001e-02
-9.8119658120e+00   -8.9751359455e-02
-9.8021978022e+00   -8.9658821677e-02
-9.7924297924e+00   -8.9559937487e-02
-9.7826617827e+00   -8.9454665864e-02
-9.7728937729e+00   -8.9342965942e-02
-9.7631257631e+00   -8.9224797027e-02
-9.7533577534e+00   -8.9100118593e-02
-9.7435897436e+00   -8.8968890292e-02
-9.7338217338e+00   -8.8831071957e-02
-9.7240537241e+00   -8.8686623609e-02
-9.7142857143e+00   -8.8535505461e-02
-9.7045177045e+00   -8.8377677923e-02
-9.6947496947e+00   -8.8213101611e-02
-9.6849816850e+00   -8.8041737348e-02
-9.6752136752e+00   -8.7863546172e-02
-9.6654456654e+00   -8.7678489338e-02
-9.6556776557e+00   -8.7486528331e-02
-9.6459096459e+00   -8.7287624863e-02
-9.6361416361e+00   -8.7081740885e-02
-9.6263736264e+00   -8.6868838589e-02
-9.6166056166e+00   -8.6648880415e-02
-9.6068376068e+00   -8.6421829058e-02
-9.5970695971e+00   -8.6187647469e-02
-9.5873015873e+00   -8.5946298869e-02
-9.5775335775e+00   -8.5697746745e-02
-9.5677655678e+00   -8.5441954866e-02
-9.5579975580e+00   -8.5178887279e-02
-9.5482295482e+00   -8.4908508322e-02
-9.5384615385e+00   -8.4630782629e-02
-9.5286935287e+00   -8.4345675131e-02
-9.5189255189e+00   -8.4053151070e-02
-9.5091575092e+00   -8.3753175996e-02
-9.4993894994e+00   -8.3445715783e-02
-9.4896214896e+00   -8.3130736625e-02
-9.4798534799e+00   -8.2808205051e-02
-9.4700854701e+00   -8.2478087924e-02
-9.4603174603e+00   -8.2140352453e-02
-9.4505494505e+00   -8.1794966195e-02
-9.4407814408e+00   -8.1441897064e-02
-9.4310134310e+00   -8.1081113336e-02
-9.4212454212e+00   -8.0712583655e-02
-9.4114774115e+00   -8.0336277040e-02
-9.4017094017e+00   -7.9952162892e-02
-9.3919413919e+00   -7.9560210999e-02
-9.3821733822e+00   -7.9160391544e-02
-9.3724053724e+00   -7.8752675109e-02
-9.3626373626e+00   -7.8337032684e-02
-9.3528693529e+00   -7.7913435674e-02
-9.3431013431e+00   -7.7481855901e-02
-9.3333333333e+00   -7.7042265615e-02
-9.3235653236e+00   -7.6594637501e-02
-9.3137973138e+00   -7.6138944682e-02
-9.3040293040e+00   -7.5675160728e-02
-9.2942612943e+00   -7.5203259661e-02
-9.2844932845e+00   -7.4723215964e-02
-9.2747252747e+00   -7.4235004587e-02
-9.2649572650e+00   -7.3738600953e-02
-9.2551892552e+00   -7.3233980963e-02
-9.2454212454e+00   -7.2721121007e-02
-9.2356532357e+00   -7.2199997969e-02
-9.2258852259e+00   -7.1670589230e-02
-9.2161172161e+00   -7.1132872682e-02
-9.2063492063e+00   -7.0586826728e-02
-9.1965811966e+00   -7.0032430294e-02
-9.1868131868e+00   -6.9469662833e-02
-9.1770451770e+00   -6.8898504332e-02
-9.1672771673e+00   -6.8318935321e-02
-9.1575091575e+00   -6.7730936876e-02
-9.1477411477e+00   -6.7134490630e-02
-9.1379731380e+00   -6.6529578780e-02
-9.1282051282e+00   -6.5916184090e-02
-9.1184371184e+00   -6.5294289900e-02
-9.1086691087e+00   -6.4663880135e-02
-9.0989010989e+00   -6.4024939310e-02
-9.0891330891e+00   -6.3377452537e-02
-9.0793650794e+00   -6.2721405532e-02
-9.0695970696e+00   -6.2056784623e-02
-9.0598290598e+00   -6.1383576757e-02
-9.0500610501e+00   -6.0701769506e-02
-9.0402930403e+00   -6.0011351074e-02
-9.0305250305e+00   -5.9312310305e-02
-9.0207570208e+00   -5.8604636692e-02
-9.0109890110e+00   -5.7888320379e-02
-9.0012210012e+00   -5.7163352173e-02
-8.9914529915e+00   -5.6429723547e-02
-8.9816849817e+00   -5.5687426652e-02
-8.9719169719e+00   -5.4936454320e-02
-8.9621489621e+00   -5.4176800071e-02
-8.9523809524e+00   -5.3408458125e-02
-8.9426129426e+00   -5.2631423403e-02
-8.9328449328e+00   -5.1845691538e-02
-8.9230769231e+00   -5.1051258881e-02
-8.9133089133e+00   -5.0248122507e-02
-8.9035409035e+00   -4.9436280225e-02
-8.8937728938e+00   -4.8615730582e-02
-8.8840048840e+00   -4.7786472873e-02
-8.8742368742e+00   -4.6948507145e-02
-8.8644688645e+00   -4.6101834207e-02
-8.8547008547e+00   -4.5246455635e-02
-8.8449328449e+00   -4.4382373780e-02
-8.8351648352e+00   -4.3509591776e-02
-8.8253968254e+00   -4.2628113545e-02
-8.8156288156e+00   -4.1737943805e-02
-8.8058608059e+00   -4.0839088079e-02
-8.7960927961e+00   -3.9931552700e-02
-8.7863247863e+00   -3.9015344815e-02
-8.7765567766e+00   -3.8090472401e-02
-8.7667887668e+00   -3.7156944262e-02
-8.7570207570e+00   -3.6214770042e-02
-8.7472527473e+00   -3.5263960231e-02
-8.7374847375e+00   -3.4304526172e-02
-8.7277167277e+00   -3.3336480064e-02
-8.7179487179e+00   -3.2359834977e-02
-8.7081807082e+00   -3.1374604851e-02
-8.6984126984e+00   -3.0380804508e-02
-8.6886446886e+00   -2.9378449655e-02
-8.6788766789e+00   -2.8367556895e-02
-8.6691086691e+00   -2.7348143732e-02
-8.6593406593e+00   -2.6320228575e-02
-8.6495726496e+00   -2.5283830751e-02
-8.6398046398e+00   -2.4238970505e-02
-8.6300366300e+00   -2.3185669011e-02
-8.6202686203e+00   -2.2123948379e-02
-8.6105006105e+00   -2.1053831659e-02
-8.6007326007e+00   -1.9975342850e-02
-8.5909645910e+00   -1.8888506904e-02
-8.5811965812e+00   -1.7793349735e-02
-8.5714285714e+00   -1.6689898226e-02
-8.5616605617e+00   -1.5578180234e-02
-8.5518925519e+00   -1.4458224595e-02
-8.5421245421e+00   -1.3330061134e-02
-8.5323565324e+00   -1.2193720670e-02
-8.5225885226e+00   -1.1049235021e-02
-8.5128205128e+00   -9.8966370123e-03
-8.5030525031e+00   -8.7359604822e-03
-8.4932844933e+00   -7.5672402876e-03
-8.4835164835e+00   -6.3905123107e-03
-8.4737484737e+00   -5.2058134657e-03
-8.4639804640e+00   -4.0131817041e-03
-8.4542124542e+00   -2.8126560212e-03
-8.4444444444e+00   -1.6042764623e-03
-8.4346764347e+00   -3.8808412831e-04
-8.4249084249e+00   8.3587881786e-04
-8.4151404151e+00   2.0675691458e-03
-8.4053724054e+00   3.3069425513e-03
-8.3956043956e+00   4.5539536512e-03
-8.3858363858e+00   5.8085559768e-03
-8.3760683761e+00   7.0707019690e-03
-8.3663003663e+00   8.3403429720e-03
-8.3565323565e+00   9.6174292280e-03
-8.3467643468e+00   1.0901909872e-02
-8.3369963370e+00   1.2193732925e-02
-8.3272283272e+00   1.3492845292e-02
-8.3174603175e+00   1.4799192751e-02
-8.3076923077e+00   1.6112719953e-02
-8.2979242979e+00   1.7433370414e-02
-8.2881562882e+00   1.8761086512e-02
-8.2783882784e+00   2.0095809479e-02
-8.2686202686e+00   2.1437479398e-02
-8.2588522589e+00   2.2786035197e-02
-8.2490842491e+00   2.4141414646e-02
-8.2393162393e+00   2.5503554351e-02
-8.2295482295e+00   2.6872389747e-02
-8.2197802198e+00   2.8247855098e-02
-8.2100122100e+00   2.9629883488e-02
-8.2002442002e+00   3.1018406821e-02
-8.1904761905e+00   3.2413355811e-02
-8.1807081807e+00   3.3814659982e-02
-8.1709401709e+00   3.5222247664e-02
-8.1611721612e+00   3.6636045984e-02
-8.1514041514e+00   3.8055980869e-02
-8.1416361416e+00   3.9481977035e-02
-8.1318681319e+00   4.0913957988e-02
-8.1221001221e+00   4.2351846017e-02
-8.1123321123e+00   4.3795562194e-02
-8.1025641026e+00   4.5245026365e-02
-8.0927960928e+00   4.6700157153e-02
-8.0830280830e+00   4.8160871947e-02
-8.0732600733e+00   4.9627086905e-02
-8.0634920635e+00   5.1098716949e-02
-8.0537240537e+00   5.2575675760e-02
-8.0439560440e+00   5.4057875775e-02
-8.0341880342e+00   5.5545228188e-02
-8.0244200244e+00   5.7037642941e-02
-8.0146520147e+00   5.8535028727e-02
-8.0048840049e+00   6.0037292983e-02
-7.9951159951e+00   6.1544341891e-02
-7.9853479853e+00   6.3056080371e-02
-7.9755799756e+00   6.4572412085e-02
-7.9658119658e+00   6.6093239428e-02
-7.9560439560e+00   6.7618463530e-02
-7.9462759463e+00   6.9147984255e-02
-7.9365079365e+00   7.0681700193e-02
-7.9267399267e+00   7.2219508667e-02
-7.9169719170e+00   7.3761305722e-02
-7.9072039072e+00   7.5306986132e-02
-7.8974358974e+00   7.6856443392e-02
-7.8876678877e+00   7.8409569721e-02
-7.8778998779e+00   7.9966256058e-02
-7.8681318681e+00   8.1526392063e-02
-7.8583638584e+00   8.3089866114e-02
-7.8485958486e+00   8.4656565309e-02
-7.8388278388e+00   8.6226375462e-02
-7.8290598291e+00   8.7799181105e-02
-7.8192918193e+00   8.9374865486e-02
-7.8095238095e+00   9.0953310569e-02
-7.7997557998e+00   9.2534397037e-02
-7.7899877900e+00   9.4118004285e-02
-7.7802197802e+00   9.5704010428e-02
-7.7704517705e+00   9.7292292294e-02
-7.7606837607e+00   9.8882725431e-02
-7.7509157509e+00   1.0047518410e-01
-7.7411477411e+00   1.0206954129e-01
-7.7313797314e+00   1.0366566870e-01
-7.7216117216e+00   1.0526343675e-01
-7.7118437118e+00   1.0686271458e-01
-7.7020757021e+00   1.0846337005e-01
-7.6923076923e+00   1.1006526977e-01
-7.6825396825e+00   1.1166827902e-01
-7.6727716728e+00   1.1327226187e-01
-7.6630036630e+00   1.1487708107e-01
-7.6532356532e+00   1.1648259813e-01
-7.6434676435e+00   1.1808867328e-01
-7.6336996337e+00   1.1969516548e-01
-7.6239316239e+00   1.2130193245e-01
-7.6141636142e+00   1.2290883062e-01
-7.6043956044e+00   1.2451571519e-01
-7.5946275946e+00   1.2612244010e-01
-7.5848595849e+00   1.2772885802e-01
-7.5750915751e+00   1.2933482040e-01
-7.5653235653e+00   1.3094017743e-01
-7.5555555556e+00   1.3254477806e-01
-7.5457875458e+00   1.3414847001e-01
-7.5360195360e+00   1.3575109976e-01
-7.5262515263e+00   1.3735251257e-01
-7.5164835165e+00   1.3895255248e-01
-7.5067155067e+00   1.4055106228e-01
-7.4969474969e+00   1.4214788359e-01
-7.4871794872e+00   1.4374285678e-01
-7.4774114774e+00   1.4533582104e-01
-7.4676434676e+00   1.4692661436e-01
-7.4578754579e+00   1.4851507352e-01
-7.4481074481e+00   1.5010103412e-01
-7.4383394383e+00   1.5168433058e-01
-7.4285714286e+00   1.5326479613e-01
-7.4188034188e+00   1.5484226285e-01
-7.4090354090e+00   1.5641656164e-01
-7.3992673993e+00   1.5798752224e-01
-7.3894993895e+00   1.5955497325e-01
-7.3797313797e+00   1.6111874212e-01
-7.3699633700e+00   1.6267865516e-01
-7.3601953602e+00   1.6423453755e-01
-7.3504273504e+00   1.6578621335e-01
-7.3406593407e+00   1.6733350551e-01
-7.3308913309e+00   1.6887623585e-01
-7.3211233211e+00   1.7041422513e-01
-7.3113553114e+00   1.7194729299e-01
-7.3015873016e+00   1.7347525798e-01
-7.2918192918e+00   1.7499793761e-01
-7.2820512821e+00   1.7651514829e-01
-7.2722832723e+00   1.7802670539e-01
-7.2625152625e+00   1.7953242325e-01
-7.2527472527e+00   1.8103211514e-01
-7.2429792430e+00   1.8252559333e-01
-7.2332112332e+00   1.8401266905e-01
-7.2234432234e+00   1.8549315254e-01
-7.2136752137e+00   1.8696685303e-01
-7.2039072039e+00   1.8843357878e-01
-7.1941391941e+00   1.8989313705e-01
-7.1843711844e+00   1.9134533417e-01
-7.1746031746e+00   1.9278997548e-01
-7.1648351648e+00   1.9422686539e-01
-7.1550671551e+00   1.9565580740e-01
-7.1452991453e+00   1.9707660406e-01
-7.1355311355e+00   1.9848905703e-01
-7.1257631258e+00   1.9989296706e-01
-7.1159951160e+00   2.0128813405e-01
-7.1062271062e+00   2.0267435701e-01
-7.0964590965e+00   2.0405143407e-01
-7.0866910867e+00   2.0541916256e-01
-7.0769230769e+00   2.0677733896e-01
-7.0671550672e+00   2.0812575892e-01
-7.0573870574e+00   2.0946421732e-01
-7.0476190476e+00   2.1079250821e-01
-7.0378510379e+00   2.1211042490e-01
-7.0280830281e+00   2.1341775993e-01
-7.0183150183e+00   2.1471430509e-01
-7.0085470085e+00   2.1599985144e-01
-6.9987789988e+00   2.1727418932e-01
-6.9890109890e+00   2.1853710839e-01
-6.9792429792e+00   2.1978839761e-01
-6.9694749695e+00   2.2102784527e-01
-6.9597069597e+00   2.2225523901e-01
-6.9499389499e+00   2.2347036583e-01
-6.9401709402e+00   2.2467301214e-01
-6.9304029304e+00   2.2586296371e-01
-6.9206349206e+00   2.2704000573e-01
-6.9108669109e+00   2.2820392285e-01
-6.9010989011e+00   2.2935449913e-01
-6.8913308913e+00   2.3049151813e-01
-6.8815628816e+00   2.3161476287e-01
-6.8717948718e+00   2.3272401589e-01
-6.8620268620e+00   2.3381905924e-01
-6.8522588523e+00   2.3489967453e-01
-6.8424908425e+00   2.3596564289e-01
-6.8327228327e+00   2.3701674508e-01
-6.8229548230e+00   2.3805276140e-01
-6.8131868132e+00   2.3907347181e-01
-6.8034188034e+00   2.4007865590e-01
-6.7936507937e+00   2.4106809290e-01
-6.7838827839e+00   2.4204156173e-01
-6.7741147741e+00   2.4299884099e-01
-6.7643467643e+00   2.4393970904e-01
-6.7545787546e+00   2.4486394393e-01
-6.7448107448e+00   2.4577132350e-01
-6.7350427350e+00   2.4666162537e-01
-6.7252747253e+00   2.4753462695e-01
-6.7155067155e+00   2.4839010548e-01
-6.7057387057e+00   2.4922783807e-01
-6.6959706960e+00   2.5004760167e-01
-6.6862026862e+00   2.5084917314e-01
-6.6764346764e+00   2.5163232925e-01
-6.6666666667e+00   2.5239684671e-01
-6.6568986569e+00   2.5314250219e-01
-6.6471306471e+00   2.5386907236e-01
-6.6373626374e+00   2.5457633388e-01
-6.6275946276e+00   2.5526406346e-01
-6.6178266178e+00   2.5593203786e-01
-6.6080586081e+00   2.5658003392e-01
-6.5982905983e+00   2.5720782859e-01
-6.5885225885e+00   2.5781519897e-01
-6.5787545788e+00   2.5840192229e-01
-6.5689865690e+00   2.5896777597e-01
-6.5592185592e+00   2.5951253766e-01
-6.5494505495e+00   2.6003598523e-01
-6.5396825397e+00   2.6053789679e-01
-6.5299145299e+00   2.6101805078e-01
-6.5201465201e+00   2.6147622593e-01
-6.5103785104e+00   2.6191220131e-01
-6.5006105006e+00   2.6232575635e-01
-6.4908424908e+00   2.6271667091e-01
-6.4810744811e+00   2.6308472524e-01
-6.4713064713e+00   2.6342970004e-01
-6.4615384615e+00   2.6375137651e-01
-6.4517704518e+00   2.6404953635e-01
-6.4420024420e+00   2.6432396179e-01
-6.4322344322e+00   2.6457443562e-01
-6.4224664225e+00   2.6480074123e-01
-6.4126984127e+00   2.6500266263e-01
-6.4029304029e+00   2.6517998449e-01
-6.3931623932e+00   2.6533249214e-01
-6.3833943834e+00   2.6545997163e-01
-6.3736263736e+00   2.6556220977e-01
-6.3638583639e+00   2.6563899410e-01
-6.3540903541e+00   2.6569011301e-01
-6.3443223443e+00   2.6571535567e-01
-6.3345543346e+00   2.6571451216e-01
-6.3247863248e+00   2.6568737341e-01
-6.3150183150e+00   2.6563373131e-01
-6.3052503053e+00   2.6555337869e-01
-6.2954822955e+00   2.6544610936e-01
-6.2857142857e+00   2.6531171817e-01
-6.2759462759e+00   2.6515000100e-01
-6.2661782662e+00   2.6496075482e-01
-6.2564102564e+00   2.6474377773e-01
-6.2466422466e+00   2.6449886895e-01
-6.2368742369e+00   2.6422582891e-01
-6.2271062271e+00   2.6392445925e-01
-6.2173382173e+00   2.6359456283e-01
-6.2075702076e+00   2.6323594381e-01
-6.1978021978e+00   2.6284840769e-01
-6.1880341880e+00   2.6243176126e-01
-6.1782661783e+00   2.6198581275e-01
-6.1684981685e+00   2.6151037176e-01
-6.1587301587e+00   2.6100524938e-01
-6.1489621490e+00   2.6047025814e-01
-6.1391941392e+00   2.5990521214e-01
-6.1294261294e+00   2.5930992699e-01
-6.1196581197e+00   2.5868421992e-01
-6.1098901099e+00   2.5802790975e-01
-6.1001221001e+00   2.5734081701e-01
-6.0903540904e+00   2.5662276387e-01
-6.0805860806e+00   2.5587357426e-01
-6.0708180708e+00   2.5509307388e-01
-6.0610500611e+00   2.5428109021e-01
-6.0512820513e+00   2.5343745260e-01
-6.0415140415e+00   2.5256199223e-01
-6.0317460317e+00   2.5165454224e-01
-6.0219780220e+00   2.5071493768e-01
-6.0122100122e+00   2.4974301559e-01
-6.0024420024e+00   2.4873861505e-01
-5.9926739927e+00   2.4770157718e-01
-5.9829059829e+00   2.4663174520e-01
-5.9731379731e+00   2.4552896444e-01
-5.9633699634e+00   2.4439308245e-01
-5.9536019536e+00   2.4322394893e-01
-5.9438339438e+00   2.4202141585e-01
-5.9340659341e+00   2.4078533747e-01
-5.9242979243e+00   2.3951557035e-01
-5.9145299145e+00   2.3821197341e-01
-5.9047619048e+00   2.3687440798e-01
-5.8949938950e+00   2.3550273780e-01
-5.8852258852e+00   2.3409682911e-01
-5.8754578755e+00   2.3265655062e-01
-5.8656898657e+00   2.3118177363e-01
-5.8559218559e+00   2.2967237199e-01
-5.8461538462e+00   2.2812822221e-01
-5.8363858364e+00   2.2654920342e-01
-5.8266178266e+00   2.2493519748e-01
-5.8168498168e+00   2.2328608900e-01
-5.8070818071e+00   2.2160176534e-01
-5.7973137973e+00   2.1988211670e-01
-5.7875457875e+00   2.1812703613e-01
-5.7777777778e+00   2.1633641958e-01
-5.7680097680e+00   2.1451016592e-01
-5.7582417582e+00   2.1264817702e-01
-5.7484737485e+00   2.1075035774e-01
-5.7387057387e+00   2.0881661601e-01
-5.7289377289e+00   2.0684686285e-01
-5.7191697192e+00   2.0484101239e-01
-5.7094017094e+00   2.0279898195e-01
-5.6996336996e+00   2.0072069207e-01
-5.6898656899e+00   1.9860606652e-01
-5.6800976801e+00   1.9645503237e-01
-5.6703296703e+00   1.9426752000e-01
-5.6605616606e+00   1.9204346318e-01
-5.6507936508e+00   1.8978279908e-01
-5.6410256410e+00   1.8748546831e-01
-5.6312576313e+00   1.8515141498e-01
-5.6214896215e+00   1.8278058670e-01
-5.6117216117e+00   1.8037293468e-01
-5.6019536020e+00   1.7792841370e-01
-5.5921855922e+00   1.7544698221e-01
-5.5824175824e+00   1.7292860232e-01
-5.5726495726e+00   1.7037323989e-01
-5.5628815629e+00   1.6778086450e-01
-5.5531135531e+00   1.6515144958e-01
-5.5433455433e+00   1.6248497236e-01
-5.5335775336e+00   1.5978141396e-01
-5.5238095238e+00   1.5704075944e-01
-5.5140415140e+00   1.5426299780e-01
-5.5042735043e+00   1.5144812201e-01
-5.4945054945e+00   1.4859612913e-01
-5.4847374847e+00   1.4570702024e-01
-5.4749694750e+00   1.4278080057e-01
-5.4652014652e+00   1.3981747949e-01
-5.4554334554e+00   1.3681707054e-01
-5.4456654457e+00   1.3377959152e-01
-5.4358974359e+00   1.3070506448e-01
-5.4261294261e+00   1.2759351577e-01
-5.4163614164e+00   1.2444497610e-01
-5.4065934066e+00   1.2125948054e-01
-5.3968253968e+00   1.1803706858e-01
-5.3870573871e+00   1.1477778420e-01
-5.3772893773e+00   1.1148167582e-01
-5.3675213675e+00   1.0814879644e-01
-5.3577533578e+00   1.0477920361e-01
-5.3479853480e+00   1.0137295947e-01
-5.3382173382e+00   9.7930130825e-02
-5.3284493284e+00   9.4450789157e-02
-5.3186813187e+00   9.0935010659e-02
-5.3089133089e+00   8.7382876279e-02
-5.2991452991e+00   8.3794471754e-02
-5.2893772894e+00   8.0169887647e-02
-5.2796092796e+00   7.6509219383e-02
-5.2698412698e+00   7.2812567285e-02
-5.2600732601e+00   6.9080036606e-02
-5.2503052503e+00   6.5311737571e-02
-5.2405372405e+00   6.1507785407e-02
-5.2307692308e+00   5.7668300379e-02
-5.2210012210e+00   5.3793407825e-02
-5.2112332112e+00   4.9883238190e-02
-5.2014652015e+00   4.5937927063e-02
-5.1916971917e+00   4.1957615206e-02
-5.1819291819e+00   3.7942448592e-02
-5.1721611722e+00   3.3892578436e-02
-5.1623931624e+00   2.9808161230e-02
-5.1526251526e+00   2.5689358774e-02
-5.1428571429e+00   2.1536338209e-02
-5.1330891331e+00   1.7349272052e-02
-5.1233211233e+00   1.3128338224e-02
-5.1135531136e+00   8.8737200853e-03
-5.1037851038e+00   4.5856064642e-03
-5.0940170940e+00   2.6419168995e-04
-5.0842490842e+00   -4.0903243769e-03
-5.0744810745e+00   -8.4777363142e-03
-5.0647130647e+00   -1.2897833108e-02
-5.0549450549e+00   -1.7350398122e-02
-5.0451770452e+00   -2.1835209069e-02
-5.0354090354e+00   -2.6352037982e-02
-5.0256410256e+00   -3.0900651184e-02
-5.0158730159e+00   -3.5480809260e-02
-5.0061050061e+00   -4.0092267029e-02
-4.9963369963e+00   -4.4734773518e-02
-4.9865689866e+00   -4.9408071932e-02
-4.9768009768e+00   -5.4111899628e-02
-4.9670329670e+00   -5.8845988090e-02
-4.9572649573e+00   -6.3610062901e-02
-4.9474969475e+00   -6.8403843717e-02
-4.9377289377e+00   -7.3227044242e-02
-4.9279609280e+00   -7.8079372207e-02
-4.9181929182e+00   -8.2960529339e-02
-4.9084249084e+00   -8.7870211342e-02
-4.8986568987e+00   -9.2808107869e-02
-4.8888888889e+00   -9.7773902504e-02
-4.8791208791e+00   -1.0276727274e-01
-4.8693528694e+00   -1.0778788994e-01
-4.8595848596e+00   -1.1283541934e-01
-4.8498168498e+00   -1.1790952003e-01
-4.8400488400e+00   -1.2300984488e-01
-4.8302808303e+00   -1.2813604060e-01
-4.8205128205e+00   -1.3328774766e-01
-4.8107448107e+00   -1.3846460030e-01
-4.8009768010e+00   -1.4366622648e-01
-4.7912087912e+00   -1.4889224791e-01
-4.7814407814e+00   -1.5414227998e-01
-4.7716727717e+00   -1.5941593180e-01
-4.7619047619e+00   -1.6471280613e-01
-4.7521367521e+00   -1.7003249937e-01
-4.7423687424e+00   -1.7537460160e-01
-4.7326007326e+00   -1.8073869649e-01
-4.7228327228e+00   -1.8612436134e-01
-4.7130647131e+00   -1.9153116704e-01
-4.7032967033e+00   -1.9695867806e-01
-4.6935286935e+00   -2.0240645244e-01
-4.6837606838e+00   -2.0787404179e-01
-4.6739926740e+00   -2.1336099124e-01
-4.6642246642e+00   -2.1886683949e-01
-4.6544566545e+00   -2.2439111874e-01
-4.6446886447e+00   -2.2993335472e-01
-4.6349206349e+00   -2.3549306665e-01
-4.6251526252e+00   -2.4106976727e-01
-4.6153846154e+00   -2.4666296279e-01
-4.6056166056e+00   -2.5227215290e-01
-4.5958485958e+00   -2.5789683080e-01
-4.5860805861e+00   -2.6353648312e-01
-4.5763125763e+00   -2.6919058998e-01
-4.5665445665e+00   -2.7485862495e-01
-4.5567765568e+00   -2.8054005506e-01
-4.5470085470e+00   -2.8623434079e-01
-4.5372405372e+00   -2.9194093608e-01
-4.5274725275e+00   -2.9765928831e-01
-4.5177045177e+00   -3.0338883831e-01
-4.5079365079e+00   -3.0912902037e-01
-4.4981684982e+00   -3.1487926220e-01
-4.4884004884e+00   -3.2063898498e-01
-4.4786324786e+00   -3.2640760335e-01
-4.4688644689e+00   -3.3218452537e-01
-4.4590964591e+00   -3.3796915260e-01
-4.4493284493e+00   -3.4376088001e-01
-4.4395604396e+00   -3.4955909608e-01
-4.4297924298e+00   -3.5536318274e-01
-4.4200244200e+00   -3.6117251539e-01
-4.4102564103e+00   -3.6698646293e-01
-4.4004884005e+00   -3.7280438774e-01
-4.3907203907e+00   -3.7862564571e-01
-4.3809523810e+00   -3.8444958623e-01
-4.3711843712e+00   -3.9027555222e-01
-4.3614163614e+00   -3.9610288012e-01
-4.3516483516e+00   -4.0193089991e-01
-4.3418803419e+00   -4.0775893514e-01
-4.3321123321e+00   -4.1358630292e-01
-4.3223443223e+00   -4.1941231394e-01
-4.3125763126e+00   -4.2523627248e-01
-4.3028083028e+00   -4.3105747646e-01
-4.2930402930e+00   -4.3687521740e-01
-4.2832722833e+00   -4.4268878048e-01
-4.2735042735e+00   -4.4849744456e-01
-4.2637362637e+00   -4.5430048215e-01
-4.2539682540e+00   -4.6009715950e-01
-4.2442002442e+00   -4.6588673657e-01
-4.2344322344e+00   -4.7166846707e-01
-4.2246642247e+00   -4.7744159847e-01
-4.2148962149e+00   -4.8320537206e-01
-4.2051282051e+00   -4.8895902292e-01
-4.1953601954e+00   -4.9470177999e-01
-4.1855921856e+00   -5.0043286608e-01
-4.1758241758e+00   -5.0615149790e-01
-4.1660561661e+00   -5.1185688606e-01
-4.1562881563e+00   -5.1754823515e-01
-4.1465201465e+00   -5.2322474375e-01
-4.1367521368e+00   -5.2888560442e-01
-4.1269841270e+00   -5.3453000379e-01
-4.1172161172e+00   -5.4015712258e-01
-4.1074481074e+00   -5.4576613559e-01
-4.0976800977e+00   -5.5135621180e-01
-4.0879120879e+00   -5.5692651435e-01
-4.0781440781e+00   -5.6247620060e-01
-4.0683760684e+00   -5.6800442217e-01
-4.0586080586e+00   -5.7351032497e-01
-4.0488400488e+00   -5.7899304926e-01
-4.0390720391e+00   -5.8445172964e-01
-4.0293040293e+00   -5.8988549515e-01
-4.0195360195e+00   -5.9529346928e-01
-4.0097680098e+00   -6.0067477001e-01
-4.0000000000e+00   -6.0602850988e-01
-3.9902319902e+00   -6.1135379599e-01
-3.9804639805e+00   -6.1664973009e-01
-3.9706959707e+00   -6.2191540862e-01
-3.9609279609e+00   -6.2714992272e-01
-3.9511599512e+00   -6.3235235833e-01
-3.9413919414e+00   -6.3752179622e-01
-3.9316239316e+00   -6.4265731200e-01
-3.9218559219e+00   -6.4775797624e-01
-3.9120879121e+00   -6.5282285449e-01
-3.9023199023e+00   -6.5785100733e-01
-3.8925518926e+00   -6.6284149041e-01
-3.8827838828e+00   -6.6779335456e-01
-3.8730158730e+00   -6.7270564578e-01
-3.8632478632e+00   -6.7757740534e-01
-3.8534798535e+00   -6.8240766983e-01
-3.8437118437e+00   -6.8719547122e-01
-3.8339438339e+00   -6.9193983690e-01
-3.8241758242e+00   -6.9663978978e-01
-3.8144078144e+00   -7.0129434832e-01
-3.8046398046e+00   -7.0590252660e-01
-3.7948717949e+00   -7.1046333441e-01
-3.7851037851e+00   -7.1497577726e-01
-3.7753357753e+00   -7.1943885652e-01
-3.7655677656e+00   -7.2385156942e-01
-3.7557997558e+00   -7.2821290916e-01
-3.7460317460e+00   -7.3252186497e-01
-3.7362637363e+00   -7.3677742215e-01
-3.7264957265e+00   -7.4097856221e-01
-3.7167277167e+00   -7.4512426288e-01
-3.7069597070e+00   -7.4921349818e-01
-3.6971916972e+00   -7.5324523857e-01
-3.6874236874e+00   -7.5721845094e-01
-3.6776556777e+00   -7.6113209872e-01
-3.6678876679e+00   -7.6498514197e-01
-3.6581196581e+00   -7.6877653744e-01
-3.6483516484e+00   -7.7250523865e-01
-3.6385836386e+00   -7.7617019600e-01
-3.6288156288e+00   -7.7977035679e-01
-3.6190476190e+00   -7.8330466537e-01
-3.6092796093e+00   -7.8677206318e-01
-3.5995115995e+00   -7.9017148884e-01
-3.5897435897e+00   -7.9350187825e-01
-3.5799755800e+00   -7.9676216467e-01
-3.5702075702e+00   -7.9995127881e-01
-3.5604395604e+00   -8.0306814889e-01
-3.5506715507e+00   -8.0611170077e-01
-3.5409035409e+00   -8.0908085802e-01
-3.5311355311e+00   -8.1197454201e-01
-3.5213675214e+00   -8.1479167200e-01
-3.5115995116e+00   -8.1753116525e-01
-3.5018315018e+00   -8.2019193709e-01
-3.4920634921e+00   -8.2277290102e-01
-3.4822954823e+00   -8.2527296882e-01
-3.4725274725e+00   -8.2769105064e-01
-3.4627594628e+00   -8.3002605508e-01
-3.4529914530e+00   -8.3227688932e-01
-3.4432234432e+00   -8.3444245918e-01
-3.4334554335e+00   -8.3652166926e-01
-3.4236874237e+00   -8.3851342302e-01
-3.4139194139e+00   -8.4041662288e-01
-3.4041514042e+00   -8.4223017032e-01
-3.3943833944e+00   -8.4395296599e-01
-3.3846153846e+00   -8.4558390983e-01
-3.3748473748e+00   -8.4712190115e-01
-3.3650793651e+00   -8.4856583874e-01
-3.3553113553e+00   -8.4991462098e-01
-3.3455433455e+00   -8.5116714597e-01
-3.3357753358e+00   -8.5232231159e-01
-3.3260073260e+00   -8.5337901565e-01
-3.3162393162e+00   -8.5433615600e-01
-3.3064713065e+00   -8.5519263061e-01
-3.2967032967e+00   -8.5594733770e-01
-3.2869352869e+00   -8.5659917586e-01
-3.2771672772e+00   -8.5714704415e-01
-3.2673992674e+00   -8.5758984223e-01
-3.2576312576e+00   -8.5792647044e-01
-3.2478632479e+00   -8.5815582995e-01
-3.2380952381e+00   -8.5827682288e-01
-3.2283272283e+00   -8.5828835237e-01
-3.2185592186e+00   -8.5818932275e-01
-3.2087912088e+00   -8.5797863964e-01
-3.1990231990e+00   -8.5765521005e-01
-3.1892551893e+00   -8.5721794251e-01
-3.1794871795e+00   -8.5666574722e-01
-3.1697191697e+00   -8.5599753612e-01
-3.1599511600e+00   -8.5521222305e-01
-3.1501831502e+00   -8.5430872384e-01
-3.1404151404e+00   -8.5328595648e-01
-3.1306471306e+00   -8.5214284119e-01
-3.1208791209e+00   -8.5087830056e-01
-3.1111111111e+00   -8.4949125971e-01
-3.1013431013e+00   -8.4798064636e-01
-3.0915750916e+00   -8.4634539098e-01
-3.0818070818e+00   -8.4458442693e-01
-3.0720390720e+00   -8.4269669056e-01
-3.0622710623e+00   -8.4068112135e-01
-3.0525030525e+00   -8.3853666204e-01
-3.0427350427e+00   -8.3626225875e-01
-3.0329670330e+00   -8.3385686110e-01
-3.0231990232e+00   -8.3131942236e-01
-3.0134310134e+00   -8.2864889955e-01
-3.0036630037e+00   -8.2584425361e-01
-2.9938949939e+00   -8.2290444947e-01
-2.9841269841e+00   -8.1982845626e-01
-2.9743589744e+00   -8.1661524733e-01
-2.9645909646e+00   -8.1326380050e-01
-2.9548229548e+00   -8.0977309811e-01
-2.9450549451e+00   -8.0614212716e-01
-2.9352869353e+00   -8.0236987947e-01
-2.9255189255e+00   -7.9845535180e-01
-2.9157509158e+00   -7.9439754595e-01
-2.9059829060e+00   -7.9019546894e-01
-2.8962148962e+00   -7.8584813311e-01
-2.8864468864e+00   -7.8135455626e-01
-2.8766788767e+00   -7.7671376177e-01
-2.8669108669e+00   -7.7192477875e-01
-2.8571428571e+00   -7.6698664217e-01
-2.8473748474e+00   -7.6189839295e-01
-2.8376068376e+00   -7.5665907818e-01
-2.8278388278e+00   -7.5126775113e-01
-2.8180708181e+00   -7.4572347151e-01
-2.8083028083e+00   -7.4002530549e-01
-2.7985347985e+00   -7.3417232591e-01
-2.7887667888e+00   -7.2816361235e-01
-2.7789987790e+00   -7.2199825131e-01
-2.7692307692e+00   -7.1567533631e-01
-2.7594627595e+00   -7.0919396803e-01
-2.7496947497e+00   -7.0255325446e-01
-2.7399267399e+00   -6.9575231096e-01
-2.7301587302e+00   -6.8879026047e-01
-2.7203907204e+00   -6.8166623360e-01
-2.7106227106e+00   -6.7437936876e-01
-2.7008547009e+00   -6.6692881229e-01
-2.6910866911e+00   -6.5931371857e-01
-2.6813186813e+00   -6.5153325020e-01
-2.6715506716e+00   -6.4358657803e-01
-2.6617826618e+00   -6.3547288141e-01
-2.6520146520e+00   -6.2719134820e-01
-2.6422466422e+00   -6.1874117495e-01
-2.6324786325e+00   -6.1012156702e-01
-2.6227106227e+00   -6.0133173870e-01
-2.6129426129e+00   -5.9237091332e-01
-2.6031746032e+00   -5.8323832338e-01
-2.5934065934e+00   -5.7393321067e-01
-2.5836385836e+00   -5.6445482636e-01
-2.5738705739e+00   -5.5480243120e-01
-2.5641025641e+00   -5.4497529551e-01
-2.5543345543e+00   -5.3497269942e-01
-2.5445665446e+00   -5.2479393289e-01
-2.5347985348e+00   -5.1443829590e-01
-2.5250305250e+00   -5.0390509848e-01
-2.5152625153e+00   -4.9319366091e-01
-2.5054945055e+00   -4.8230331374e-01
-2.4957264957e+00   -4.7123339798e-01
-2.4859584860e+00   -4.5998326513e-01
-2.4761904762e+00   -4.4855227735e-01
-2.4664224664e+00   -4.3693980752e-01
-2.4566544567e+00   -4.2514523937e-01
-2.4468864469e+00   -4.1316796756e-01
-2.4371184371e+00   -4.0100739778e-01
-2.4273504274e+00   -3.8866294684e-01
-2.4175824176e+00   -3.7613404282e-01
-2.4078144078e+00   -3.6342012507e-01
-2.3980463980e+00   -3.5052064437e-01
-2.3882783883e+00   -3.3743506300e-01
-2.3785103785e+00   -3.2416285482e-01
-2.3687423687e+00   -3.1070350536e-01
-2.3589743590e+00   -2.9705651189e-01
-2.3492063492e+00   -2.8322138353e-01
-2.3394383394e+00   -2.6919764129e-01
-2.3296703297e+00   -2.5498481817e-01
-2.3199023199e+00   -2.4058245923e-01
-2.3101343101e+00   -2.2599012164e-01
-2.3003663004e+00   -2.1120737477e-01
-2.2905982906e+00   -1.9623380026e-01
-2.2808302808e+00   -1.8106899204e-01
-2.2710622711e+00   -1.6571255643e-01
-2.2612942613e+00   -1.5016411219e-01
-2.2515262515e+00   -1.3442329054e-01
-2.2417582418e+00   -1.1848973526e-01
-2.2319902320e+00   -1.0236310269e-01
-2.2222222222e+00   -8.6043061798e-02
-2.2124542125e+00   -6.9529294211e-02
-2.2026862027e+00   -5.2821494254e-02
-2.1929181929e+00   -3.5919368977e-02
-2.1831501832e+00   -1.8822638187e-02
-2.1733821734e+00   -1.5310344718e-03
-2.1636141636e+00   1.5955696782e-02
-2.1538461538e+00   3.3637797369e-02
-2.1440781441e+00   5.1515496258e-02
-2.1343101343e+00   6.9589009579e-02
-2.1245421245e+00   8.7858540624e-02
-2.1147741148e+00   1.0632427985e-01
-2.1050061050e+00   1.2498640487e-01
-2.0952380952e+00   1.4384508048e-01
-2.0854700855e+00   1.6290045868e-01
-2.0757020757e+00   1.8215267867e-01
-2.0659340659e+00   2.0160186690e-01
-2.0561660562e+00   2.2124813707e-01
-2.0463980464e+00   2.4109159022e-01
-2.0366300366e+00   2.6113231470e-01
-2.0268620269e+00   2.8137038628e-01
-2.0170940171e+00   3.0180586817e-01
-2.0073260073e+00   3.2243881108e-01
-1.9975579976e+00   3.4326925332e-01
-1.9877899878e+00   3.6429722080e-01
-1.9780219780e+00   3.8552272719e-01
-1.9682539683e+00   4.0694577395e-01
-1.9584859585e+00   4.2856635044e-01
-1.9487179487e+00   4.5038443400e-01
-1.9389499389e+00   4.7239999009e-01
-1.9291819292e+00   4.9461297236e-01
-1.9194139194e+00   5.1702332281e-01
-1.9096459096e+00   5.3963097190e-01
-1.8998778999e+00   5.6243583865e-01
-1.8901098901e+00   5.8543783084e-01
-1.8803418803e+00   6.0863684513e-01
-1.8705738706e+00   6.3203276723e-01
-1.8608058608e+00   6.5562547203e-01
-1.8510378510e+00   6.7941482384e-01
-1.8412698413e+00   7.0340067653e-01
-1.8315018315e+00   7.2758287372e-01
-1.8217338217e+00   7.5196124900e-01
-1.8119658120e+00   7.7653562615e-01
-1.8021978022e+00   8.0130581933e-01
-1.7924297924e+00   8.2627163334e-01
-1.7826617827e+00   8.5143286385e-01
-1.7728937729e+00   8.7678929765e-01
-1.7631257631e+00   9.0234071292e-01
-1.7533577534e+00   9.2808687947e-01
-1.7435897436e+00   9.5402755908e-01
-1.7338217338e+00   9.8016250575e-01
-1.7240537241e+00   1.0064914660e+00
-1.7142857143e+00   1.0330141792e+00
-1.7045177045e+00   1.0597303780e+00
-1.6947496947e+00   1.0866397884e+00
-1.6849816850e+00   1.1137421304e+00
-1.6752136752e+00   1.1410371182e+00
-1.6654456654e+00   1.1685244606e+00
-1.6556776557e+00   1.1962038614e+00
-1.6459096459e+00   1.2240750198e+00
-1.6361416361e+00   1.2521376309e+00
-1.6263736264e+00   1.2803913859e+00
-1.6166056166e+00   1.3088359728e+00
-1.6068376068e+00   1.3374710766e+00
-1.5970695971e+00   1.3662963802e+00
-1.5873015873e+00   1.3953115642e+00
-1.5775335775e+00   1.4245163081e+00
-1.5677655678e+00   1.4539102903e+00
-1.5579975580e+00   1.4834931889e+00
-1.5482295482e+00   1.5132646822e+00
-1.5384615385e+00   1.5432244492e+00
-1.5286935287e+00   1.5733721699e+00
-1.5189255189e+00   1.6037075266e+00
-1.5091575092e+00   1.6342302038e+00
-1.4993894994e+00   1.6649398890e+00
-1.4896214896e+00   1.6958362735e+00
-1.4798534799e+00   1.7269190530e+00
-1.4700854701e+00   1.7581879279e+00
-1.4603174603e+00   1.7896426044e+00
-1.4505494505e+00   1.8212827952e+00
-1.4407814408e+00   1.8531082197e+00
-1.4310134310e+00   1.8851186051e+00
-1.4212454212e+00   1.9173136871e+00
-1.4114774115e+00   1.9496932105e+00
-1.4017094017e+00   1.9822569302e+00
-1.3919413919e+00   2.0150046115e+00
-1.3821733822e+00   2.0479360312e+00
-1.3724053724e+00   2.0810509784e+00
-1.3626373626e+00   2.1143492550e+00
-1.3528693529e+00   2.1478306770e+00
-1.3431013431e+00   2.1814950747e+00
-1.3333333333e+00   2.2153422939e+00
-1.3235653236e+00   2.2493721965e+00
-1.3137973138e+00   2.2835846615e+00
-1.3040293040e+00   2.3179795857e+00
-1.2942612943e+00   2.3525568846e+00
-1.2844932845e+00   2.3873164932e+00
-1.2747252747e+00   2.4222583666e+00
-1.2649572650e+00   2.4573824812e+00
-1.2551892552e+00   2.4926888350e+00
-1.2454212454e+00   2.5281774491e+00
-1.2356532357e+00   2.5638483677e+00
-1.2258852259e+00   2.5997016593e+00
-1.2161172161e+00   2.6357374175e+00
-1.2063492063e+00   2.6719557614e+00
-1.1965811966e+00   2.7083568364e+00
-1.1868131868e+00   2.7449408153e+00
-1.1770451770e+00   2.7817078981e+00
-1.1672771673e+00   2.8186583132e+00
-1.1575091575e+00   2.8557923179e+00
-1.1477411477e+00   2.8931101984e+00
-1.1379731380e+00   2.9306122710e+00
-1.1282051282e+00   2.9682988815e+00
-1.1184371184e+00   3.0061704064e+00
-1.1086691087e+00   3.0442272525e+00
-1.0989010989e+00   3.0824698573e+00
-1.0891330891e+00   3.1208986888e+00
-1.0793650794e+00   3.1595142456e+00
-1.0695970696e+00   3.1983170566e+00
-1.0598290598e+00   3.2373076806e+00
-1.0500610501e+00   3.2764867059e+00
-1.0402930403e+00   3.3158547495e+00
-1.0305250305e+00   3.3554124566e+00
-1.0207570208e+00   3.3951604990e+00
-1.0109890110e+00   3.4350995748e+00
-1.0012210012e+00   3.4752304059e+00
-9.9145299145e-01   3.5155537372e+00
-9.8168498168e-01   3.5560703342e+00
-9.7191697192e-01   3.5967809812e+00
-9.6214896215e-01   3.6376864782e+00
-9.5238095238e-01   3.6787876388e+00
-9.4261294261e-01   3.7200852863e+00
-9.3284493284e-01   3.7615802508e+00
-9.2307692308e-01   3.8032733649e+00
-9.1330891331e-01   3.8451654593e+00
-9.0354090354e-01   3.8872573583e+00
-8.9377289377e-01   3.9295498741e+00
-8.8400488400e-01   3.9720438009e+00
-8.7423687424e-01   4.0147399088e+00
-8.6446886447e-01   4.0576389367e+00
-8.5470085470e-01   4.1007415844e+00
-8.4493284493e-01   4.1440485042e+00
-8.3516483516e-01   4.1875602922e+00
-8.2539682540e-01   4.2312774780e+00
-8.1562881563e-01   4.2752005143e+00
-8.0586080586e-01   4.3193297649e+00
-7.9609279609e-01   4.3636654928e+00
-7.8632478632e-01   4.4082078462e+00
-7.7655677656e-01   4.4529568444e+00
-7.6678876679e-01   4.4979123616e+00
-7.5702075702e-01   4.5430741110e+00
-7.4725274725e-01   4.5884416261e+00
-7.3748473748e-01   4.6340142419e+00
-7.2771672772e-01   4.6797910741e+00
-7.1794871795e-01   4.7257709977e+00
-7.0818070818e-01   4.7719526231e+00
-6.9841269841e-01   4.8183342715e+00
-6.8864468864e-01   4.8649139486e+00
-6.7887667888e-01   4.9116893168e+00
-6.6910866911e-01   4.9586576651e+00
-6.5934065934e-01   5.0058158784e+00
-6.4957264957e-01   5.0531604039e+00
-6.3980463980e-01   5.1006872169e+00
-6.3003663004e-01   5.1483917839e+00
-6.2026862027e-01   5.1962690244e+00
-6.1050061050e-01   5.2443132706e+00
-6.0073260073e-01   5.2925182255e+00
-5.9096459096e-01   5.3408769195e+00
-5.8119658120e-01   5.3893816642e+00
-5.7142857143e-01   5.4380240060e+00
-5.6166056166e-01   5.4867946770e+00
-5.5189255189e-01   5.5356835446e+00
-5.4212454212e-01   5.5846795599e+00
-5.3235653236e-01   5.6337707050e+00
-5.2258852259e-01   5.6829439385e+00
-5.1282051282e-01   5.7321851410e+00
-5.0305250305e-01   5.7814790592e+00
-4.9328449328e-01   5.8308092503e+00
-4.8351648352e-01   5.8801580260e+00
-4.7374847375e-01   5.9295063966e+00
-4.6398046398e-01   5.9788340164e+00
-4.5421245421e-01   6.0281191298e+00
-4.4444444444e-01   6.0773385191e+00
-4.3467643468e-01   6.1264674545e+00
-4.2490842491e-01   6.1754796472e+00
-4.1514041514e-01   6.2243472053e+00
-4.0537240537e-01   6.2730405940e+00
-3.9560439560e-01   6.3215286009e+00
-3.8583638584e-01   6.3697783065e+00
-3.7606837607e-01   6.4177550611e+00
-3.6630036630e-01   6.4654224688e+00
-3.5653235653e-01   6.5127423798e+00
-3.4676434676e-01   6.5596748910e+00
-3.3699633700e-01   6.6061783575e+00
-3.2722832723e-01   6.6522094133e+00
-3.1746031746e-01   6.6977230046e+00
-3.0769230769e-01   6.7426724349e+00
-2.9792429792e-01   6.7870094236e+00
-2.8815628816e-01   6.8306841778e+00
-2.7838827839e-01   6.8736454797e+00
-2.6862026862e-01   6.9158407876e+00
-2.5885225885e-01   6.9572163541e+00
-2.4908424908e-01   6.9977173583e+00
-2.3931623932e-01   7.0372880554e+00
-2.2954822955e-01   7.0758719417e+00
-2.1978021978e-01   7.1134119350e+00
-2.1001221001e-01   7.1498505709e+00
-2.0024420024e-01   7.1851302134e+00
-1.9047619048e-01   7.2191932795e+00
-1.8070818071e-01   7.2519824766e+00
-1.7094017094e-01   7.2834410510e+00
-1.6117216117e-01   7.3135130466e+00
-1.5140415140e-01   7.3421435714e+00
-1.4163614164e-01   7.3692790699e+00
-1.3186813187e-01   7.3948675999e+00
-1.2210012210e-01   7.4188591097e+00
-1.1233211233e-01   7.4412057149e+00
-1.0256410256e-01   7.4618619711e+00
-9.2796092796e-02   7.4807851396e+00
-8.3028083028e-02   7.4979354441e+00
-7.3260073260e-02   7.5132763148e+00
-6.3492063492e-02   7.5267746175e+00
-5.3724053724e-02   7.5384008653e+00
-4.3956043956e-02   7.5481294092e+00
-3.4188034188e-02   7.5559386073e+00
-2.4420024420e-02   7.5618109682e+00
-1.4652014652e-02   7.5657332687e+00
-4.8840048840e-03   7.5676966429e+00
4.8840048840e-03   7.5676966429e+00
1.4652014652e-02   7.5657332687e+00
2.4420024420e-02   7.5618109682e+00
3.4188034188e-02   7.5559386073e+00
4.3956043956e-02   7.5481294092e+00
5.3724053724e-02   7.5384008653e+00
6.3492063492e-02   7.5267746175e+00
7.3260073260e-02   7.5132763148e+00
8.3028083028e-02   7.4979354441e+00
9.2796092796e-02   7.4807851396e+00
1.0256410256e-01   7.4618619711e+00
1.1233211233e-01   7.4412057149e+00
1.2210012210e-01   7.4188591097e+00
1.3186813187e-01   7.3948675999e+00
1.4163614164e-01   7.3692790699e+00
1.5140415140e-01   7.3421435714e+00
1.6117216117e-01   7.3135130466e+00
1.7094017094e-01   7.2834410510e+00
1.8070818071e-01   7.2519824766e+00
1.9047619048e-01   7.2191932795e+00
2.0024420024e-01   7.1851302134e+00
2.1001221001e-01   7.1498505709e+00
2.1978021978e-01   7.1134119350e+00
2.2954822955e-01   7.0758719417e+00
2.3931623932e-01   7.0372880554e+00
2.4908424908e-01   6.9977173583e+00
2.5885225885e-01   6.9572163541e+00
2.6862026862e-01   6.9158407876e+00
2.7838827839e-01   6.8736454797e+00
2.8815628816e-01   6.8306841778e+00
2.9792429792e-01   6.7870094236e+00
3.0769230769e-01   6.7426724349e+00
3.1746031746e-01   6.6977230046e+00
3.2722832723e-01   6.6522094133e+00
3.3699633700e-01   6.6061783575e+00
3.4676434676e-01   6.5596748910e+00
3.5653235653e-01   6.5127423798e+00
3.6630036630e-01   6.4654224688e+00
3.7606837607e-01   6.4177550611e+00
3.8583638584e-01   6.3697783065e+00
3.9560439560e-01   6.3215286009e+00
4.0537240537e-01   6.2730405940e+00
4.1514041514e-01   6.2243472053e+00
4.2490842491e-01   6.1754796472e+00
4.3467643468e-01   6.1264674545e+00
4.4444444444e-01   6.0773385191e+00
4.5421245421e-01   6.0281191298e+00
4.6398046398e-01   5.9788340164e+00
4.7374847375e-01   5.9295063966e+00
4.8351648352e-01   5.8801580260e+00
4.9328449328e-01   5.8308092503e+00
5.0305250305e-01   5.7814790592e+00
5.1282051282e-01   5.7321851410e+00
5.2258852259e-01   5.6829439385e+00
5.3235653236e-01   5.6337707050e+00
5.4212454212e-01   5.5846795599e+00
5.5189255189e-01   5.5356835446e+00
5.6166056166e-01   5.4867946770e+00
5.7142857143e-01   5.4380240060e+00
5.8119658120e-01   5.3893816642e+00
5.9096459096e-01   5.3408769195e+00
6.0073260073e-01   5.2925182255e+00
6.1050061050e-01   5.2443132706e+00
6.2026862027e-01   5.1962690244e+00
6.3003663004e-01   5.1483917839e+00
6.3980463980e-01   5.1006872169e+00
6.4957264957e-01   5.0531604039e+00
6.5934065934e-01   5.0058158784e+00
6.6910866911e-01   4.9586576651e+00
6.7887667888e-01   4.9116893168e+00
6.8864468864e-01   4.8649139486e+00
6.9841269841e-01   4.8183342715e+00
7.0818070818e-01   4.7719526231e+00
7.1794871795e-01   4.7257709977e+00
7.2771672772e-01   4.6797910741e+00
7.3748473748e-01   4.6340142419e+00
7.4725274725e-01   4.5884416261e+00
7.5702075702e-01   4.5430741110e+00
7.6678876679e-01   4.4979123616e+00
7.7655677656e-01   4.4529568444e+00
7.8632478632e-01   4.4082078462e+00
7.9609279609e-01   4.3636654928e+00
8.0586080586e-01   4.3193297649e+00
8.1562881563e-01   4.2752005143e+00
8.2539682540e-01   4.2312774780e+00
8.3516483516e-01   4.1875602922e+00
8.4493284493e-01   4.1440485042e+00
8.5470085470e-01   4.1007415844e+00
8.6446886447e-01   4.0576389367e+00
8.7423687424e-01   4.0147399088e+00
8.8400488400e-01   3.9720438009e+00
8.9377289377e-01   3.9295498741e+00
9.0354090354e-01   3.8872573583e+00
9.1330891331e-01   3.8451654593e+00
9.2307692308e-01   3.8032733649e+00
9.3284493284e-01   3.7615802508e+00
9.4261294261e-01   3.7200852863e+00
9.5238095238e-01   3.6787876388e+00
9.6214896215e-01   3.6376864782e+00
9.7191697192e-01   3.5967809812e+00
9.8168498168e-01   3.5560703342e+00
9.9145299145e-01   3.5155537372e+00
1.0012210012e+00   3.4752304059e+00
1.0109890110e+00   3.4350995748e+00
1.0207570208e+00   3.3951604990e+00
1.0305250305e+00   3.3554124566e+00
1.0402930403e+00   3.3158547495e+00
1.0500610501e+00   3.2764867059e+00
1.0598290598e+00   3.2373076806e+00
1.0695970696e+00   3.1983170566e+00
1.0793650794e+00   3.1595142456e+00
1.0891330891e+00   3.1208986888e+00
1.0989010989e+00   3.0824698573e+00
1.1086691087e+00   3.0442272525e+00
1.1184371184e+00   3.0061704064e+00
1.1282051282e+00   2.9682988815e+00
1.1379731380e+00   2.9306122710e+00
1.1477411477e+00   2.8931101984e+00
1.1575091575e+00   2.8557923179e+00
1.1672771673e+00   2.8186583132e+00
1.1770451770e+00   2.7817078981e+00
1.1868131868e+00   2.7449408153e+00
1.1965811966e+00   2.7083568364e+00
1.2063492063e+00   2.6719557614e+00
1.2161172161e+00   2.6357374175e+00
1.2258852259e+00   2.5997016593e+00
1.2356532357e+00   2.5638483677e+00
1.2454212454e+00   2.5281774491e+00
1.2551892552e+00   2.4926888350e+00
1.2649572650e+00   2.4573824812e+00
1.2747252747e+00   2.4222583666e+00
1.2844932845e+00   2.3873164932e+00
1.2942612943e+00   2.3525568846e+00
1.3040293040e+00   2.3179795857e+00
1.3137973138e+00   2.2835846615e+00
1.3235653236e+00   2.2493721965e+00
1.3333333333e+00   2.2153422939e+00
1.3431013431e+00   2.1814950747e+00
1.3528693529e+00   2.1478306770e+00
1.3626373626e+00   2.1143492550e+00
1.3724053724e+00   2.0810509784e+00
1.3821733822e+00   2.0479360312e+00
1.3919413919e+00   2.0150046115e+00
1.4017094017e+00   1.9822569302e+00
1.4114774115e+00   1.9496932105e+00
1.4212454212e+00   1.9173136871e+00
1.4310134310e+00   1.8851186051e+00
1.4407814408e+00   1.8531082197e+00
1.4505494505e+00   1.8212827952e+00
1.4603174603e+00   1.7896426044e+00
1.4700854701e+00   1.7581879279e+00
1.4798534799e+00   1.7269190530e+00
1.4896214896e+00   1.6958362735e+00
1.4993894994e+00   1.6649398890e+00
1.5091575092e+00   1.6342302038e+00
1.5189255189e+00   1.6037075266e+00
1.5286935287e+00   1.5733721699e+00
1.5384615385e+00   1.5432244492e+00
1.5482295482e+00   1.5132646822e+00
1.5579975580e+00   1.4834931889e+00
1.5677655678e+00   1.4539102903e+00
1.5775335775e+00   1.4245163081e+00
1.5873015873e+00   1.3953115642e+00
1.5970695971e+00   1.3662963802e+00
1.6068376068e+00   1.3374710766e+00
1.6166056166e+00   1.3088359728e+00
1.6263736264e+00   1.2803913859e+00
1.6361416361e+00   1.2521376309e+00
1.6459096459e+00   1.2240750198e+00
1.6556776557e+00   1.1962038614e+00
1.6654456654e+00   1.1685244606e+00
1.6752136752e+00   1.1410371182e+00
1.6849816850e+00   1.1137421304e+00
1.6947496947e+00   1.0866397884e+00
1.7045177045e+00   1.0597303780e+00
1.7142857143e+00   1.0330141792e+00
1.7240537241e+00   1.0064914660e+00
1.7338217338e+00   9.8016250575e-01
1.7435897436e+00   9.5402755908e-01
1.7533577534e+00   9.2808687947e-01
1.7631257631e+00   9.0234071292e-01
1.7728937729e+00   8.7678929765e-01
1.7826617827e+00   8.5143286385e-01
1.7924297924e+00   8.2627163334e-01
1.8021978022e+00   8.0130581933e-01
1.8119658120e+00   7.7653562615e-01
1.8217338217e+00   7.5196124900e-01
1.8315018315e+00   7.2758287372e-01
1.8412698413e+00   7.0340067653e-01
1.8510378510e+00   6.7941482384e-01
1.8608058608e+00   6.5562547203e-01
1.8705738706e+00   6.3203276723e-01
1.8803418803e+00   6.0863684513e-01
1.8901098901e+00   5.8543783084e-01
1.8998778999e+00   5.6243583865e-01
1.9096459096e+00   5.3963097190e-01
1.9194139194e+00   5.1702332281e-01
1.9291819292e+00   4.9461297236e-01
1.9389499389e+00   4.7239999009e-01
1.9487179487e+00   4.5038443400e-01
1.9584859585e+00   4.2856635044e-01
1.9682539683e+00   4.0694577395e-01
1.9780219780e+00   3.8552272719e-01
1.9877899878e+00   3.6429722080e-01
1.9975579976e+00   3.4326925332e-01
2.0073260073e+00   3.2243881108e-01
2.0170940171e+00   3.0180586817e-01
2.0268620269e+00   2.8137038628e-01
2.0366300366e+00   2.6113231470e-01
2.0463980464e+00   2.4109159022e-01
2.0561660562e+00   2.2124813707e-01
2.0659340659e+00   2.0160186690e-01
2.0757020757e+00   1.8215267867e-01
2.0854700855e+00   1.6290045868e-01
2.0952380952e+00   1.4384508048e-01
2.1050061050e+00   1.2498640487e-01
2.1147741148e+00   1.0632427985e-01
2.1245421245e+00   8.7858540624e-02
2.1343101343e+00   6.9589009579e-02
2.1440781441e+00   5.1515496258e-02
2.1538461538e+00   3.3637797369e-02
2.1636141636e+00   1.5955696782e-02
2.1733821734e+00   -1.5310344718e-03
2.1831501832e+00   -1.8822638187e-02
2.1929181929e+00   -3.5919368977e-02
2.2026862027e+00   -5.2821494254e-02
2.2124542125e+00   -6.9529294211e-02
2.2222222222e+00   -8.6043061798e-02
2.2319902320e+00   -1.0236310269e-01
2.2417582418e+00   -1.1848973526e-01
2.2515262515e+00   -1.3442329054e-01
2.2612942613e+00   -1.5016411219e-01
2.2710622711e+00   -1.6571255643e-01
2.2808302808e+00   -1.8106899204e-01
2.2905982906e+00   -1.9623380026e-01
2.3003663004e+00   -2.1120737477e-01
2.3101343101e+00   -2.2599012164e-01
2.3199023199e+00   -2.4058245923e-01
2.3296703297e+00   -2.5498481817e-01
2.3394383394e+00   -2.6919764129e-01
2.3492063492e+00   -2.8322138353e-01
2.3589743590e+00   -2.9705651189e-01
2.3687423687e+00   -3.1070350536e-01
2.3785103785e+00   -3.2416285482e-01
2.3882783883e+00   -3.3743506300e-01
2.3980463980e+00   -3.5052064437e-01
2.4078144078e+00   -3.6342012507e-01
2.4175824176e+00   -3.7613404282e-01
2.4273504274e+00   -3.8866294684e-01
2.4371184371e+00   -4.0100739778e-01
2.4468864469e+00   -4.1316796756e-01
2.4566544567e+00   -4.2514523937e-01
2.4664224664e+00   -4.3693980752e-01
2.4761904762e+00   -4.4855227735e-01
2.4859584860e+00   -4.5998326513e-01
2.4957264957e+00   -4.7123339798e-01
2.5054945055e+00   -4.8230331374e-01
2.5152625153e+00   -4.9319366091e-01
2.5250305250e+00   -5.0390509848e-01
2.5347985348e+00   -5.1443829590e-01
2.5445665446e+00   -5.2479393289e-01
2.5543345543e+00   -5.3497269942e-01
2.5641025641e+00   -5.4497529551e-01
2.5738705739e+00   -5.5480243120e-01
2.5836385836e+00   -5.6445482636e-01
2.5934065934e+00   -5.7393321067e-01
2.6031746032e+00   -5.8323832338e-01
2.6129426129e+00   -5.9237091332e-01
2.6227106227e+00   -6.0133173870e-01
2.6324786325e+00   -6.1012156702e-01
2.6422466422e+00   -6.1874117495e-01
2.6520146520e+00   -6.2719134820e-01
2.6617826618e+00   -6.3547288141e-01
2.6715506716e+00   -6.4358657803e-01
2.6813186813e+00   -6.5153325020e-01
2.6910866911e+00   -6.5931371857e-01
2.7008547009e+00   -6.6692881229e-01
2.7106227106e+00   -6.7437936876e-01
2.7203907204e+00   -6.8166623360e-01
2.7301587302e+00   -6.8879026047e-01
2.7399267399e+00   -6.9575231096e-01
2.7496947497e+00   -7.0255325446e-01
2.7594627595e+00   -7.0919396803e-01
2.7692307692e+00   -7.1567533631e-01
2.7789987790e+00   -7.2199825131e-01
2.7887667888e+00   -7.2816361235e-01
2.7985347985e+00   -7.3417232591e-01
2.8083028083e+00   -7.4002530549e-01
2.8180708181e+00   -7.4572347151e-01
2.8278388278e+00   -7.5126775113e-01
2.8376068376e+00   -7.5665907818e-01
2.8473748474e+00   -7.6189839295e-01
2.8571428571e+00   -7.6698664217e-01
2.8669108669e+00   -7.7192477875e-01
2.8766788767e+00   -7.7671376177e-01
2.8864468864e+00   -7.8135455626e-01
2.8962148962e+00   -7.8584813311e-01
2.9059829060e+00   -7.9019546894e-01
2.9157509158e+00   -7.9439754595e-01
2.9255189255e+00   -7.9845535180e-01
2.9352869353e+00   -8.0236987947e-01
2.9450549451e+00   -8.0614212716e-01
2.9548229548e+00   -8.0977309811e-01
2.9645909646e+00   -8.1326380050e-01
2.9743589744e+00   -8.1661524733e-01
2.9841269841e+00   -8.1982845626e-01
2.9938949939e+00   -8.2290444947e-01
3.0036630037e+00   -8.2584425361e-01
3.0134310134e+00   -8.2864889955e-01
3.0231990232e+00   -8.3131942236e-01
3.0329670330e+00   -8.3385686110e-01
3.0427350427e+00   -8.3626225875e-01
3.0525030525e+00   -8.3853666204e-01
3.0622710623e+00   -8.4068112135e-01
3.0720390720e+00   -8.4269669056e-01
3.0818070818e+00   -8.4458442693e-01
3.0915750916e+00   -8.4634539098e-01
3.1013431013e+00   -8.4798064636e-01
3.1111111111e+00   -8.4949125971e-01
3.1208791209e+00   -8.5087830056e-01
3.1306471306e+00   -8.5214284119e-01
3.1404151404e+00   -8.5328595648e-01
3.1501831502e+00   -8.5430872384e-01
3.1599511600e+00   -8.5521222305e-01
3.1697191697e+00   -8.5599753612e-01
3.1794871795e+00   -8.5666574722e-01
3.1892551893e+00   -8.5721794251e-01
3.1990231990e+00   -8.5765521005e-01
3.2087912088e+00   -8.5797863964e-01
3.2185592186e+00   -8.5818932275e-01
3.2283272283e+00   -8.5828835237e-01
3.2380952381e+00   -8.5827682288e-01
3.2478632479e+00   -8.5815582995e-01
3.2576312576e+00   -8.5792647044e-01
3.2673992674e+00   -8.5758984223e-01
3.2771672772e+00   -8.5714704415e-01
3.2869352869e+00   -8.5659917586e-01
3.2967032967e+00   -8.5594733770e-01
3.3064713065e+00   -8.5519263061e-01
3.3162393162e+00   -8.5433615600e-01
3.3260073260e+00   -8.5337901565e-01
3.3357753358e+00   -8.5232231159e-01
3.3455433455e+00   -8.5116714597e-01
3.3553113553e+00   -8.4991462098e-01
3.3650793651e+00   -8.4856583874e-01
3.3748473748e+00   -8.4712190115e-01
3.3846153846e+00   -8.4558390983e-01
3.3943833944e+00   -8.4395296599e-01
3.4041514042e+00   -8.4223017032e-01
3.4139194139e+00   -8.4041662288e-01
3.4236874237e+00   -8.3851342302e-01
3.4334554335e+00   -8.3652166926e-01
3.4432234432e+00   -8.3444245918e-01
3.4529914530e+00   -8.3227688932e-01
3.4627594628e+00   -8.3002605508e-01
3.4725274725e+00   -8.2769105064e-01
3.4822954823e+00   -8.2527296882e-01
3.4920634921e+00   -8.2277290102e-01
3.5018315018e+00   -8.2019193709e-01
3.5115995116e+00   -8.1753116525e-01
3.5213675214e+00   -8.1479167200e-01
3.5311355311e+00   -8.1197454201e-01
3.5409035409e+00   -8.0908085802e-01
3.5506715507e+00   -8.0611170077e-01
3.5604395604e+00   -8.0306814889e-01
3.5702075702e+00   -7.9995127881e-01
3.5799755800e+00   -7.9676216467e-01
3.5897435897e+00   -7.9350187825e-01
3.5995115995e+00   -7.9017148884e-01
3.6092796093e+00   -7.8677206318e-01
3.6190476190e+00   -7.8330466537e-01
3.6288156288e+00   -7.7977035679e-01
3.6385836386e+00   -7.7617019600e-01
3.6483516484e+00   -7.7250523865e-01
3.6581196581e+00   -7.6877653744e-01
3.6678876679e+00   -7.6498514197e-01
3.6776556777e+00   -7.6113209872e-01
3.6874236874e+00   -7.5721845094e-01
3.6971916972e+00   -7.5324523857e-01
3.7069597070e+00   -7.4921349818e-01
3.7167277167e+00   -7.4512426288e-01
3.7264957265e+00   -7.4097856221e-01
3.7362637363e+00   -7.3677742215e-01
3.7460317460e+00   -7.3252186497e-01
3.7557997558e+00   -7.2821290916e-01
3.7655677656e+00   -7.2385156942e-01
3.7753357753e+00   -7.1943885652e-01
3.7851037851e+00   -7.1497577726e-01
3.7948717949e+00   -7.1046333441e-01
3.8046398046e+00   -7.0590252660e-01
3.8144078144e+00   -7.0129434832e-01
3.8241758242e+00   -6.9663978978e-01
3.8339438339e+00   -6.9193983690e-01
3.8437118437e+00   -6.8719547122e-01
3.8534798535e+00   -6.8240766983e-01
3.8632478632e+00   -6.7757740534e-01
3.8730158730e+00   -6.7270564578e-01
3.8827838828e+00   -6.6779335456e-01
3.8925518926e+00   -6.6284149041e-01
3.9023199023e+00   -6.5785100733e-01
3.9120879121e+00   -6.5282285449e-01
3.9218559219e+00   -6.4775797624e-01
3.9316239316e+00   -6.4265731200e-01
3.9413919414e+00   -6.3752179622e-01
3.9511599512e+00   -6.3235235833e-01
3.9609279609e+00   -6.2714992272e-01
3.9706959707e+00   -6.2191540862e-01
3.9804639805e+00   -6.1664973009e-01
3.9902319902e+00   -6.1135379599e-01
4.0000000000e+00   -6.0602850988e-01
4.0097680098e+00   -6.0067477001e-01
4.0195360195e+00   -5.9529346928e-01
4.0293040293e+00   -5.8988549515e-01
4.0390720391e+00   -5.8445172964e-01
4.0488400488e+00   -5.7899304926e-01
4.0586080586e+00   -5.7351032497e-01
4.0683760684e+00   -5.6800442217e-01
4.0781440781e+00   -5.6247620060e-01
4.0879120879e+00   -5.5692651435e-01
4.0976800977e+00   -5.5135621180e-01
4.1074481074e+00   -5.4576613559e-01
4.1172161172e+00   -5.4015712258e-01
4.1269841270e+00   -5.3453000379e-01
4.1367521368e+00   -5.2888560442e-01
4.1465201465e+00   -5.2322474375e-01
4.1562881563e+00   -5.1754823515e-01
4.1660561661e+00   -5.1185688606e-01
4.1758241758e+00   -5.0615149790e-01
4.1855921856e+00   -5.0043286608e-01
4.1953601954e+00   -4.9470177999e-01
4.2051282051e+00   -4.8895902292e-01
4.2148962149e+00   -4.8320537206e-01
4.2246642247e+00   -4.7744159847e-01
4.2344322344e+00   -4.7166846707e-01
4.2442002442e+00   -4.6588673657e-01
4.2539682540e+00   -4.6009715950e-01
4.2637362637e+00   -4.5430048215e-01
4.2735042735e+00   -4.4849744456e-01
4.2832722833e+00   -4.4268878048e-01
4.2930402930e+00   -4.3687521740e-01
4.3028083028e+00   -4.3105747646e-01
4.3125763126e+00   -4.2523627248e-01
4.3223443223e+00   -4.1941231394e-01
4.3321123321e+00   -4.1358630292e-01
4.3418803419e+00   -4.0775893514e-01
4.3516483516e+00   -4.0193089991e-01
4.3614163614e+00   -3.9610288012e-01
4.3711843712e+00   -3.9027555222e-01
4.3809523810e+00   -3.8444958623e-01
4.3907203907e+00   -3.7862564571e-01
4.4004884005e+00   -3.7280438774e-01
4.4102564103e+00   -3.6698646293e-01
4.4200244200e+00   -3.6117251539e-01
4.4297924298e+00   -3.5536318274e-01
4.4395604396e+00   -3.4955909608e-01
4.4493284493e+00   -3.4376088001e-01
4.4590964591e+00   -3.3796915260e-01
4.4688644689e+00   -3.3218452537e-01
4.4786324786e+00   -3.2640760335e-01
4.4884004884e+00   -3.2063898498e-01
4.4981684982e+00   -3.1487926220e-01
4.5079365079e+00   -3.0912902037e-01
4.5177045177e+00   -3.0338883831e-01
4.5274725275e+00   -2.9765928831e-01
4.5372405372e+00   -2.9194093608e-01
4.5470085470e+00   -2.8623434079e-01
4.5567765568e+00   -2.8054005506e-01
4.5665445665e+00   -2.7485862495e-01
4.5763125763e+00   -2.6919058998e-01
4.5860805861e+00   -2.6353648312e-01
4.5958485958e+00   -2.5789683080e-01
4.6056166056e+00   -2.5227215290e-01
4.6153846154e+00   -2.4666296279e-01
4.6251526252e+00   -2.4106976727e-01
4.6349206349e+00   -2.3549306665e-01
4.6446886447e+00   -2.2993335472e-01
4.6544566545e+00   -2.2439111874e-01
4.6642246642e+00   -2.1886683949e-01
4.6739926740e+00   -2.1336099124e-01
4.6837606838e+00   -2.0787404179e-01
4.6935286935e+00   -2.0240645244e-01
4.7032967033e+00   -1.9695867806e-01
4.7130647131e+00   -1.9153116704e-01
4.7228327228e+00   -1.8612436134e-01
4.7326007326e+00   -1.8073869649e-01
4.7423687424e+00   -1.7537460160e-01
4.7521367521e+00   -1.7003249937e-01
4.7619047619e+00   -1.6471280613e-01
4.7716727717e+00   -1.5941593180e-01
4.7814407814e+00   -1.5414227998e-01
4.7912087912e+00   -1.4889224791e-01
4.8009768010e+00   -1.4366622648e-01
4.8107448107e+00   -1.3846460030e-01
4.8205128205e+00   -1.3328774766e-01
4.8302808303e+00   -1.2813604060e-01
4.8400488400e+00   -1.2300984488e-01
4.8498168498e+00   -1.1790952003e-01
4.8595848596e+00   -1.1283541934e-01
4.8693528694e+00   -1.0778788994e-01
4.8791208791e+00   -1.0276727274e-01
4.8888888889e+00   -9.7773902504e-02
4.8986568987e+00   -9.2808107869e-02
4.9084249084e+00   -8.7870211342e-02
4.9181929182e+00   -8.2960529339e-02
4.9279609280e+00   -7.8079372207e-02
4.9377289377e+00   -7.3227044242e-02
4.9474969475e+00   -6.8403843717e-02
4.9572649573e+00   -6.3610062901e-02
4.9670329670e+00   -5.8845988090e-02
4.9768009768e+00   -5.4111899628e-02
4.9865689866e+00   -4.9408071932e-02
4.9963369963e+00   -4.4734773518e-02
5.0061050061e+00   -4.0092267029e-02
5.0158730159e+00   -3.5480809260e-02
5.0256410256e+00   -3.0900651184e-02
5.0354090354e+00   -2.6352037982e-02
5.0451770452e+00   -2.1835209069e-02
5.0549450549e+00   -1.7350398122e-02
5.0647130647e+00   -1.2897833108e-02
5.0744810745e+00   -8.4777363142e-03
5.0842490842e+00   -4.0903243769e-03
5.0940170940e+00   2.6419168995e-04
5.1037851038e+00   4.5856064642e-03
5.1135531136e+00   8.8737200853e-03
5.1233211233e+00   1.3128338224e-02
5.1330891331e+00   1.7349272052e-02
5.1428571429e+00   2.1536338209e-02
5.1526251526e+00   2.5689358774e-02
5.1623931624e+00   2.9808161230e-02
5.1721611722e+00   3.3892578436e-02
5.1819291819e+00   3.7942448592e-02
5.1916971917e+00   4.1957615206e-02
5.2014652015e+00   4.5937927063e-02
5.2112332112e+00   4.9883238190e-02
5.2210012210e+00   5.3793407825e-02
5.2307692308e+00   5.7668300379e-02
5.2405372405e+00   6.1507785407e-02
5.2503052503e+00   6.5311737571e-02
5.2600732601e+00   6.9080036606e-02
5.2698412698e+00   7.2812567285e-02
5.2796092796e+00   7.6509219383e-02
5.2893772894e+00   8.0169887647e-02
5.2991452991e+00   8.3794471754e-02
5.3089133089e+00   8.7382876279e-02
5.3186813187e+00   9.0935010659e-02
5.3284493284e+00   9.4450789157e-02
5.3382173382e+00   9.7930130825e-02
5.3479853480e+00   1.0137295947e-01
5.3577533578e+00   1.0477920361e-01
5.3675213675e+00   1.0814879644e-01
5.3772893773e+00   1.1148167582e-01
5.3870573871e+00   1.1477778420e-01
5.3968253968e+00   1.1803706858e-01
5.4065934066e+00   1.2125948054e-01
5.4163614164e+00   1.2444497610e-01
5.4261294261e+00   1.2759351577e-01
5.4358974359e+00   1.3070506448e-01
5.4456654457e+00   1.3377959152e-01
5.4554334554e+00   1.3681707054e-01
5.4652014652e+00   1.3981747949e-01
5.4749694750e+00   1.4278080057e-01
5.4847374847e+00   1.4570702024e-01
5.4945054945e+00   1.4859612913e-01
5.5042735043e+00   1.5144812201e-01
5.5140415140e+00   1.5426299780e-01
5.5238095238e+00   1.5704075944e-01
5.5335775336e+00   1.5978141396e-01
5.5433455433e+00   1.6248497236e-01
5.5531135531e+00   1.6515144958e-01
5.5628815629e+00   1.6778086450e-01
5.5726495726e+00   1.7037323989e-01
5.5824175824e+00   1.7292860232e-01
5.5921855922e+00   1.7544698221e-01
5.6019536020e+00   1.7792841370e-01
5.6117216117e+00   1.8037293468e-01
5.6214896215e+00   1.8278058670e-01
5.6312576313e+00   1.8515141498e-01
5.6410256410e+00   1.8748546831e-01
5.6507936508e+00   1.8978279908e-01
5.6605616606e+00   1.9204346318e-01
5.6703296703e+00   1.9426752000e-01
5.6800976801e+00   1.9645503237e-01
5.6898656899e+00   1.9860606652e-01
5.6996336996e+00   2.0072069207e-01
5.7094017094e+00   2.0279898195e-01
5.7191697192e+00   2.0484101239e-01
5.7289377289e+00   2.0684686285e-01
5.7387057387e+00   2.0881661601e-01
5.7484737485e+00   2.1075035774e-01
5.7582417582e+00   2.1264817702e-01
5.7680097680e+00   2.1451016592e-01
5.7777777778e+00   2.1633641958e-01
5.7875457875e+00   2.1812703613e-01
5.7973137973e+00   2.1988211670e-01
5.8070818071e+00   2.2160176534e-01
5.8168498168e+00   2.2328608900e-01
5.8266178266e+00   2.2493519748e-01
5.8363858364e+00   2.2654920342e-01
5.8461538462e+00   2.2812822221e-01
5.8559218559e+00   2.2967237199e-01
5.8656898657e+00   2.3118177363e-01
5.8754578755e+00   2.3265655062e-01
5.8852258852e+00   2.3409682911e-01
5.8949938950e+00   2.3550273780e-01
5.9047619048e+00   2.3687440798e-01
5.9145299145e+00   2.3821197341e-01
5.9242979243e+00   2.3951557035e-01
5.9340659341e+00   2.4078533747e-01
5.9438339438e+00   2.4202141585e-01
5.9536019536e+00   2.4322394893e-01
5.9633699634e+00   2.4439308245e-01
5.9731379731e+00   2.4552896444e-01
5.9829059829e+00   2.4663174520e-01
5.9926739927e+00   2.4770157718e-01
6.0024420024e+00   2.4873861505e-01
6.0122100122e+00   2.4974301559e-01
6.0219780220e+00   2.5071493768e-01
6.0317460317e+00   2.5165454224e-01
6.0415140415e+00   2.5256199223e-01
6.0512820513e+00   2.5343745260e-01
6.0610500611e+00   2.5428109021e-01
6.0708180708e+00   2.5509307388e-01
6.0805860806e+00   2.5587357426e-01
6.0903540904e+00   2.5662276387e-01
6.1001221001e+00   2.5734081701e-01
6.1098901099e+00   2.5802790975e-01
6.1196581197e+00   2.5868421992e-01
6.1294261294e+00   2.5930992699e-01
6.1391941392e+00   2.5990521214e-01
6.1489621490e+00   2.6047025814e-01
6.1587301587e+00   2.6100524938e-01
6.1684981685e+00   2.6151037176e-01
6.1782661783e+00   2.6198581275e-01
6.1880341880e+00   2.6243176126e-01
6.1978021978e+00   2.6284840769e-01
6.2075702076e+00   2.6323594381e-01
6.2173382173e+00   2.6359456283e-01
6.2271062271e+00   2.6392445925e-01
6.2368742369e+00   2.6422582891e-01
6.2466422466e+00   2.6449886895e-01
6.2564102564e+00   2.6474377773e-01
6.2661782662e+00   2.6496075482e-01
6.2759462759e+00   2.6515000100e-01
