X    Y
-4.0000000000e+01   0.0000000000e+00
-3.9980463980e+01   0.0000000000e+00
-3.9960927961e+01   0.0000000000e+00
-3.9941391941e+01   0.0000000000e+00
-3.9921855922e+01   0.0000000000e+00
-3.9902319902e+01   0.0000000000e+00
-3.9882783883e+01   0.0000000000e+00
-3.9863247863e+01   0.0000000000e+00
-3.9843711844e+01   0.0000000000e+00
-3.9824175824e+01   0.0000000000e+00
-3.9804639805e+01   0.0000000000e+00
-3.9785103785e+01   0.0000000000e+00
-3.9765567766e+01   0.0000000000e+00
-3.9746031746e+01   0.0000000000e+00
-3.9726495726e+01   0.0000000000e+00
-3.9706959707e+01   0.0000000000e+00
-3.9687423687e+01   0.0000000000e+00
-3.9667887668e+01   0.0000000000e+00
-3.9648351648e+01   0.0000000000e+00
-3.9628815629e+01   0.0000000000e+00
-3.9609279609e+01   0.0000000000e+00
-3.9589743590e+01   0.0000000000e+00
-3.9570207570e+01   0.0000000000e+00
-3.9550671551e+01   0.0000000000e+00
-3.9531135531e+01   0.0000000000e+00
-3.9511599512e+01   0.0000000000e+00
-3.9492063492e+01   0.0000000000e+00
-3.9472527473e+01   0.0000000000e+00
-3.9452991453e+01   0.0000000000e+00
-3.9433455433e+01   0.0000000000e+00
-3.9413919414e+01   0.0000000000e+00
-3.9394383394e+01   0.0000000000e+00
-3.9374847375e+01   0.0000000000e+00
-3.9355311355e+01   0.0000000000e+00
-3.9335775336e+01   0.0000000000e+00
-3.9316239316e+01   0.0000000000e+00
-3.9296703297e+01   0.0000000000e+00
-3.9277167277e+01   0.0000000000e+00
-3.9257631258e+01   0.0000000000e+00
-3.9238095238e+01   0.0000000000e+00
-3.9218559219e+01   0.0000000000e+00
-3.9199023199e+01   0.0000000000e+00
-3.9179487179e+01   0.0000000000e+00
-3.9159951160e+01   0.0000000000e+00
-3.9140415140e+01   0.0000000000e+00
-3.9120879121e+01   0.0000000000e+00
-3.9101343101e+01   0.0000000000e+00
-3.9081807082e+01   0.0000000000e+00
-3.9062271062e+01   0.0000000000e+00
-3.9042735043e+01   0.0000000000e+00
-3.9023199023e+01   0.0000000000e+00
-3.9003663004e+01   0.0000000000e+00
-3.8984126984e+01   0.0000000000e+00
-3.8964590965e+01   0.0000000000e+00
-3.8945054945e+01   0.0000000000e+00
-3.8925518926e+01   0.0000000000e+00
-3.8905982906e+01   0.0000000000e+00
-3.8886446886e+01   0.0000000000e+00
-3.8866910867e+01   0.0000000000e+00
-3.8847374847e+01   0.0000000000e+00
-3.8827838828e+01   0.0000000000e+00
-3.8808302808e+01   0.0000000000e+00
-3.8788766789e+01   0.0000000000e+00
-3.8769230769e+01   0.0000000000e+00
-3.8749694750e+01   0.0000000000e+00
-3.8730158730e+01   0.0000000000e+00
-3.8710622711e+01   0.0000000000e+00
-3.8691086691e+01   0.0000000000e+00
-3.8671550672e+01   0.0000000000e+00
-3.8652014652e+01   0.0000000000e+00
-3.8632478632e+01   0.0000000000e+00
-3.8612942613e+01   0.0000000000e+00
-3.8593406593e+01   0.0000000000e+00
-3.8573870574e+01   0.0000000000e+00
-3.8554334554e+01   0.0000000000e+00
-3.8534798535e+01   0.0000000000e+00
-3.8515262515e+01   0.0000000000e+00
-3.8495726496e+01   0.0000000000e+00
-3.8476190476e+01   0.0000000000e+00
-3.8456654457e+01   0.0000000000e+00
-3.8437118437e+01   0.0000000000e+00
-3.8417582418e+01   0.0000000000e+00
-3.8398046398e+01   0.0000000000e+00
-3.8378510379e+01   0.0000000000e+00
-3.8358974359e+01   0.0000000000e+00
-3.8339438339e+01   0.0000000000e+00
-3.8319902320e+01   0.0000000000e+00
-3.8300366300e+01   0.0000000000e+00
-3.8280830281e+01   0.0000000000e+00
-3.8261294261e+01   0.0000000000e+00
-3.8241758242e+01   0.0000000000e+00
-3.8222222222e+01   0.0000000000e+00
-3.8202686203e+01   0.0000000000e+00
-3.8183150183e+01   0.0000000000e+00
-3.8163614164e+01   0.0000000000e+00
-3.8144078144e+01   0.0000000000e+00
-3.8124542125e+01   0.0000000000e+00
-3.8105006105e+01   0.0000000000e+00
-3.8085470085e+01   0.0000000000e+00
-3.8065934066e+01   0.0000000000e+00
-3.8046398046e+01   0.0000000000e+00
-3.8026862027e+01   0.0000000000e+00
-3.8007326007e+01   0.0000000000e+00
-3.7987789988e+01   0.0000000000e+00
-3.7968253968e+01   0.0000000000e+00
-3.7948717949e+01   0.0000000000e+00
-3.7929181929e+01   0.0000000000e+00
-3.7909645910e+01   0.0000000000e+00
-3.7890109890e+01   0.0000000000e+00
-3.7870573871e+01   0.0000000000e+00
-3.7851037851e+01   0.0000000000e+00
-3.7831501832e+01   0.0000000000e+00
-3.7811965812e+01   0.0000000000e+00
-3.7792429792e+01   0.0000000000e+00
-3.7772893773e+01   0.0000000000e+00
-3.7753357753e+01   0.0000000000e+00
-3.7733821734e+01   0.0000000000e+00
-3.7714285714e+01   0.0000000000e+00
-3.7694749695e+01   0.0000000000e+00
-3.7675213675e+01   0.0000000000e+00
-3.7655677656e+01   0.0000000000e+00
-3.7636141636e+01   0.0000000000e+00
-3.7616605617e+01   0.0000000000e+00
-3.7597069597e+01   0.0000000000e+00
-3.7577533578e+01   0.0000000000e+00
-3.7557997558e+01   0.0000000000e+00
-3.7538461538e+01   0.0000000000e+00
-3.7518925519e+01   0.0000000000e+00
-3.7499389499e+01   0.0000000000e+00
-3.7479853480e+01   0.0000000000e+00
-3.7460317460e+01   0.0000000000e+00
-3.7440781441e+01   0.0000000000e+00
-3.7421245421e+01   0.0000000000e+00
-3.7401709402e+01   0.0000000000e+00
-3.7382173382e+01   0.0000000000e+00
-3.7362637363e+01   0.0000000000e+00
-3.7343101343e+01   0.0000000000e+00
-3.7323565324e+01   0.0000000000e+00
-3.7304029304e+01   0.0000000000e+00
-3.7284493284e+01   0.0000000000e+00
-3.7264957265e+01   0.0000000000e+00
-3.7245421245e+01   0.0000000000e+00
-3.7225885226e+01   0.0000000000e+00
-3.7206349206e+01   0.0000000000e+00
-3.7186813187e+01   0.0000000000e+00
-3.7167277167e+01   0.0000000000e+00
-3.7147741148e+01   0.0000000000e+00
-3.7128205128e+01   0.0000000000e+00
-3.7108669109e+01   0.0000000000e+00
-3.7089133089e+01   0.0000000000e+00
-3.7069597070e+01   0.0000000000e+00
-3.7050061050e+01   0.0000000000e+00
-3.7030525031e+01   0.0000000000e+00
-3.7010989011e+01   0.0000000000e+00
-3.6991452991e+01   0.0000000000e+00
-3.6971916972e+01   0.0000000000e+00
-3.6952380952e+01   0.0000000000e+00
-3.6932844933e+01   0.0000000000e+00
-3.6913308913e+01   0.0000000000e+00
-3.6893772894e+01   0.0000000000e+00
-3.6874236874e+01   0.0000000000e+00
-3.6854700855e+01   0.0000000000e+00
-3.6835164835e+01   0.0000000000e+00
-3.6815628816e+01   0.0000000000e+00
-3.6796092796e+01   0.0000000000e+00
-3.6776556777e+01   0.0000000000e+00
-3.6757020757e+01   0.0000000000e+00
-3.6737484737e+01   0.0000000000e+00
-3.6717948718e+01   0.0000000000e+00
-3.6698412698e+01   0.0000000000e+00
-3.6678876679e+01   0.0000000000e+00
-3.6659340659e+01   0.0000000000e+00
-3.6639804640e+01   0.0000000000e+00
-3.6620268620e+01   0.0000000000e+00
-3.6600732601e+01   0.0000000000e+00
-3.6581196581e+01   0.0000000000e+00
-3.6561660562e+01   0.0000000000e+00
-3.6542124542e+01   0.0000000000e+00
-3.6522588523e+01   0.0000000000e+00
-3.6503052503e+01   0.0000000000e+00
-3.6483516484e+01   0.0000000000e+00
-3.6463980464e+01   0.0000000000e+00
-3.6444444444e+01   0.0000000000e+00
-3.6424908425e+01   0.0000000000e+00
-3.6405372405e+01   0.0000000000e+00
-3.6385836386e+01   0.0000000000e+00
-3.6366300366e+01   0.0000000000e+00
-3.6346764347e+01   0.0000000000e+00
-3.6327228327e+01   0.0000000000e+00
-3.6307692308e+01   0.0000000000e+00
-3.6288156288e+01   0.0000000000e+00
-3.6268620269e+01   0.0000000000e+00
-3.6249084249e+01   0.0000000000e+00
-3.6229548230e+01   0.0000000000e+00
-3.6210012210e+01   0.0000000000e+00
-3.6190476190e+01   0.0000000000e+00
-3.6170940171e+01   0.0000000000e+00
-3.6151404151e+01   0.0000000000e+00
-3.6131868132e+01   0.0000000000e+00
-3.6112332112e+01   0.0000000000e+00
-3.6092796093e+01   0.0000000000e+00
-3.6073260073e+01   0.0000000000e+00
-3.6053724054e+01   0.0000000000e+00
-3.6034188034e+01   0.0000000000e+00
-3.6014652015e+01   0.0000000000e+00
-3.5995115995e+01   0.0000000000e+00
-3.5975579976e+01   0.0000000000e+00
-3.5956043956e+01   0.0000000000e+00
-3.5936507937e+01   0.0000000000e+00
-3.5916971917e+01   0.0000000000e+00
-3.5897435897e+01   0.0000000000e+00
-3.5877899878e+01   0.0000000000e+00
-3.5858363858e+01   0.0000000000e+00
-3.5838827839e+01   0.0000000000e+00
-3.5819291819e+01   0.0000000000e+00
-3.5799755800e+01   0.0000000000e+00
-3.5780219780e+01   0.0000000000e+00
-3.5760683761e+01   0.0000000000e+00
-3.5741147741e+01   0.0000000000e+00
-3.5721611722e+01   0.0000000000e+00
-3.5702075702e+01   0.0000000000e+00
-3.5682539683e+01   0.0000000000e+00
-3.5663003663e+01   0.0000000000e+00
-3.5643467643e+01   0.0000000000e+00
-3.5623931624e+01   0.0000000000e+00
-3.5604395604e+01   0.0000000000e+00
-3.5584859585e+01   0.0000000000e+00
-3.5565323565e+01   0.0000000000e+00
-3.5545787546e+01   0.0000000000e+00
-3.5526251526e+01   0.0000000000e+00
-3.5506715507e+01   0.0000000000e+00
-3.5487179487e+01   0.0000000000e+00
-3.5467643468e+01   0.0000000000e+00
-3.5448107448e+01   0.0000000000e+00
-3.5428571429e+01   0.0000000000e+00
-3.5409035409e+01   0.0000000000e+00
-3.5389499389e+01   0.0000000000e+00
-3.5369963370e+01   0.0000000000e+00
-3.5350427350e+01   0.0000000000e+00
-3.5330891331e+01   0.0000000000e+00
-3.5311355311e+01   0.0000000000e+00
-3.5291819292e+01   0.0000000000e+00
-3.5272283272e+01   0.0000000000e+00
-3.5252747253e+01   0.0000000000e+00
-3.5233211233e+01   0.0000000000e+00
-3.5213675214e+01   0.0000000000e+00
-3.5194139194e+01   0.0000000000e+00
-3.5174603175e+01   0.0000000000e+00
-3.5155067155e+01   0.0000000000e+00
-3.5135531136e+01   0.0000000000e+00
-3.5115995116e+01   0.0000000000e+00
-3.5096459096e+01   0.0000000000e+00
-3.5076923077e+01   0.0000000000e+00
-3.5057387057e+01   0.0000000000e+00
-3.5037851038e+01   0.0000000000e+00
-3.5018315018e+01   0.0000000000e+00
-3.4998778999e+01   0.0000000000e+00
-3.4979242979e+01   0.0000000000e+00
-3.4959706960e+01   0.0000000000e+00
-3.4940170940e+01   0.0000000000e+00
-3.4920634921e+01   0.0000000000e+00
-3.4901098901e+01   0.0000000000e+00
-3.4881562882e+01   0.0000000000e+00
-3.4862026862e+01   0.0000000000e+00
-3.4842490842e+01   0.0000000000e+00
-3.4822954823e+01   0.0000000000e+00
-3.4803418803e+01   0.0000000000e+00
-3.4783882784e+01   0.0000000000e+00
-3.4764346764e+01   0.0000000000e+00
-3.4744810745e+01   0.0000000000e+00
-3.4725274725e+01   0.0000000000e+00
-3.4705738706e+01   0.0000000000e+00
-3.4686202686e+01   0.0000000000e+00
-3.4666666667e+01   0.0000000000e+00
-3.4647130647e+01   0.0000000000e+00
-3.4627594628e+01   0.0000000000e+00
-3.4608058608e+01   0.0000000000e+00
-3.4588522589e+01   0.0000000000e+00
-3.4568986569e+01   0.0000000000e+00
-3.4549450549e+01   0.0000000000e+00
-3.4529914530e+01   0.0000000000e+00
-3.4510378510e+01   0.0000000000e+00
-3.4490842491e+01   0.0000000000e+00
-3.4471306471e+01   0.0000000000e+00
-3.4451770452e+01   0.0000000000e+00
-3.4432234432e+01   0.0000000000e+00
-3.4412698413e+01   0.0000000000e+00
-3.4393162393e+01   0.0000000000e+00
-3.4373626374e+01   0.0000000000e+00
-3.4354090354e+01   0.0000000000e+00
-3.4334554335e+01   0.0000000000e+00
-3.4315018315e+01   0.0000000000e+00
-3.4295482295e+01   0.0000000000e+00
-3.4275946276e+01   0.0000000000e+00
-3.4256410256e+01   0.0000000000e+00
-3.4236874237e+01   0.0000000000e+00
-3.4217338217e+01   0.0000000000e+00
-3.4197802198e+01   0.0000000000e+00
-3.4178266178e+01   0.0000000000e+00
-3.4158730159e+01   0.0000000000e+00
-3.4139194139e+01   0.0000000000e+00
-3.4119658120e+01   0.0000000000e+00
-3.4100122100e+01   0.0000000000e+00
-3.4080586081e+01   0.0000000000e+00
-3.4061050061e+01   0.0000000000e+00
-3.4041514042e+01   0.0000000000e+00
-3.4021978022e+01   0.0000000000e+00
-3.4002442002e+01   0.0000000000e+00
-3.3982905983e+01   0.0000000000e+00
-3.3963369963e+01   0.0000000000e+00
-3.3943833944e+01   0.0000000000e+00
-3.3924297924e+01   0.0000000000e+00
-3.3904761905e+01   0.0000000000e+00
-3.3885225885e+01   0.0000000000e+00
-3.3865689866e+01   0.0000000000e+00
-3.3846153846e+01   0.0000000000e+00
-3.3826617827e+01   0.0000000000e+00
-3.3807081807e+01   0.0000000000e+00
-3.3787545788e+01   0.0000000000e+00
-3.3768009768e+01   0.0000000000e+00
-3.3748473748e+01   0.0000000000e+00
-3.3728937729e+01   0.0000000000e+00
-3.3709401709e+01   0.0000000000e+00
-3.3689865690e+01   0.0000000000e+00
-3.3670329670e+01   0.0000000000e+00
-3.3650793651e+01   0.0000000000e+00
-3.3631257631e+01   0.0000000000e+00
-3.3611721612e+01   0.0000000000e+00
-3.3592185592e+01   0.0000000000e+00
-3.3572649573e+01   0.0000000000e+00
-3.3553113553e+01   0.0000000000e+00
-3.3533577534e+01   0.0000000000e+00
-3.3514041514e+01   0.0000000000e+00
-3.3494505495e+01   0.0000000000e+00
-3.3474969475e+01   0.0000000000e+00
-3.3455433455e+01   0.0000000000e+00
-3.3435897436e+01   0.0000000000e+00
-3.3416361416e+01   0.0000000000e+00
-3.3396825397e+01   0.0000000000e+00
-3.3377289377e+01   0.0000000000e+00
-3.3357753358e+01   0.0000000000e+00
-3.3338217338e+01   0.0000000000e+00
-3.3318681319e+01   0.0000000000e+00
-3.3299145299e+01   0.0000000000e+00
-3.3279609280e+01   0.0000000000e+00
-3.3260073260e+01   0.0000000000e+00
-3.3240537241e+01   0.0000000000e+00
-3.3221001221e+01   0.0000000000e+00
-3.3201465201e+01   0.0000000000e+00
-3.3181929182e+01   0.0000000000e+00
-3.3162393162e+01   0.0000000000e+00
-3.3142857143e+01   0.0000000000e+00
-3.3123321123e+01   0.0000000000e+00
-3.3103785104e+01   0.0000000000e+00
-3.3084249084e+01   0.0000000000e+00
-3.3064713065e+01   0.0000000000e+00
-3.3045177045e+01   0.0000000000e+00
-3.3025641026e+01   0.0000000000e+00
-3.3006105006e+01   0.0000000000e+00
-3.2986568987e+01   0.0000000000e+00
-3.2967032967e+01   0.0000000000e+00
-3.2947496947e+01   0.0000000000e+00
-3.2927960928e+01   0.0000000000e+00
-3.2908424908e+01   0.0000000000e+00
-3.2888888889e+01   0.0000000000e+00
-3.2869352869e+01   0.0000000000e+00
-3.2849816850e+01   0.0000000000e+00
-3.2830280830e+01   0.0000000000e+00
-3.2810744811e+01   0.0000000000e+00
-3.2791208791e+01   0.0000000000e+00
-3.2771672772e+01   0.0000000000e+00
-3.2752136752e+01   0.0000000000e+00
-3.2732600733e+01   0.0000000000e+00
-3.2713064713e+01   0.0000000000e+00
-3.2693528694e+01   0.0000000000e+00
-3.2673992674e+01   0.0000000000e+00
-3.2654456654e+01   0.0000000000e+00
-3.2634920635e+01   0.0000000000e+00
-3.2615384615e+01   0.0000000000e+00
-3.2595848596e+01   0.0000000000e+00
-3.2576312576e+01   0.0000000000e+00
-3.2556776557e+01   0.0000000000e+00
-3.2537240537e+01   0.0000000000e+00
-3.2517704518e+01   0.0000000000e+00
-3.2498168498e+01   0.0000000000e+00
-3.2478632479e+01   0.0000000000e+00
-3.2459096459e+01   0.0000000000e+00
-3.2439560440e+01   0.0000000000e+00
-3.2420024420e+01   0.0000000000e+00
-3.2400488400e+01   0.0000000000e+00
-3.2380952381e+01   0.0000000000e+00
-3.2361416361e+01   0.0000000000e+00
-3.2341880342e+01   0.0000000000e+00
-3.2322344322e+01   0.0000000000e+00
-3.2302808303e+01   0.0000000000e+00
-3.2283272283e+01   0.0000000000e+00
-3.2263736264e+01   0.0000000000e+00
-3.2244200244e+01   0.0000000000e+00
-3.2224664225e+01   0.0000000000e+00
-3.2205128205e+01   0.0000000000e+00
-3.2185592186e+01   0.0000000000e+00
-3.2166056166e+01   0.0000000000e+00
-3.2146520147e+01   0.0000000000e+00
-3.2126984127e+01   0.0000000000e+00
-3.2107448107e+01   0.0000000000e+00
-3.2087912088e+01   0.0000000000e+00
-3.2068376068e+01   0.0000000000e+00
-3.2048840049e+01   0.0000000000e+00
-3.2029304029e+01   0.0000000000e+00
-3.2009768010e+01   0.0000000000e+00
-3.1990231990e+01   0.0000000000e+00
-3.1970695971e+01   0.0000000000e+00
-3.1951159951e+01   0.0000000000e+00
-3.1931623932e+01   0.0000000000e+00
-3.1912087912e+01   0.0000000000e+00
-3.1892551893e+01   0.0000000000e+00
-3.1873015873e+01   0.0000000000e+00
-3.1853479853e+01   0.0000000000e+00
-3.1833943834e+01   0.0000000000e+00
-3.1814407814e+01   0.0000000000e+00
-3.1794871795e+01   0.0000000000e+00
-3.1775335775e+01   0.0000000000e+00
-3.1755799756e+01   0.0000000000e+00
-3.1736263736e+01   0.0000000000e+00
-3.1716727717e+01   0.0000000000e+00
-3.1697191697e+01   0.0000000000e+00
-3.1677655678e+01   0.0000000000e+00
-3.1658119658e+01   0.0000000000e+00
-3.1638583639e+01   0.0000000000e+00
-3.1619047619e+01   0.0000000000e+00
-3.1599511600e+01   0.0000000000e+00
-3.1579975580e+01   0.0000000000e+00
-3.1560439560e+01   0.0000000000e+00
-3.1540903541e+01   0.0000000000e+00
-3.1521367521e+01   0.0000000000e+00
-3.1501831502e+01   0.0000000000e+00
-3.1482295482e+01   0.0000000000e+00
-3.1462759463e+01   0.0000000000e+00
-3.1443223443e+01   0.0000000000e+00
-3.1423687424e+01   0.0000000000e+00
-3.1404151404e+01   0.0000000000e+00
-3.1384615385e+01   0.0000000000e+00
-3.1365079365e+01   0.0000000000e+00
-3.1345543346e+01   0.0000000000e+00
-3.1326007326e+01   0.0000000000e+00
-3.1306471306e+01   0.0000000000e+00
-3.1286935287e+01   0.0000000000e+00
-3.1267399267e+01   0.0000000000e+00
-3.1247863248e+01   0.0000000000e+00
-3.1228327228e+01   0.0000000000e+00
-3.1208791209e+01   0.0000000000e+00
-3.1189255189e+01   0.0000000000e+00
-3.1169719170e+01   0.0000000000e+00
-3.1150183150e+01   0.0000000000e+00
-3.1130647131e+01   0.0000000000e+00
-3.1111111111e+01   0.0000000000e+00
-3.1091575092e+01   0.0000000000e+00
-3.1072039072e+01   0.0000000000e+00
-3.1052503053e+01   0.0000000000e+00
-3.1032967033e+01   0.0000000000e+00
-3.1013431013e+01   0.0000000000e+00
-3.0993894994e+01   0.0000000000e+00
-3.0974358974e+01   0.0000000000e+00
-3.0954822955e+01   0.0000000000e+00
-3.0935286935e+01   0.0000000000e+00
-3.0915750916e+01   0.0000000000e+00
-3.0896214896e+01   0.0000000000e+00
-3.0876678877e+01   0.0000000000e+00
-3.0857142857e+01   0.0000000000e+00
-3.0837606838e+01   0.0000000000e+00
-3.0818070818e+01   0.0000000000e+00
-3.0798534799e+01   0.0000000000e+00
-3.0778998779e+01   0.0000000000e+00
-3.0759462759e+01   0.0000000000e+00
-3.0739926740e+01   0.0000000000e+00
-3.0720390720e+01   0.0000000000e+00
-3.0700854701e+01   0.0000000000e+00
-3.0681318681e+01   0.0000000000e+00
-3.0661782662e+01   0.0000000000e+00
-3.0642246642e+01   0.0000000000e+00
-3.0622710623e+01   0.0000000000e+00
-3.0603174603e+01   0.0000000000e+00
-3.0583638584e+01   0.0000000000e+00
-3.0564102564e+01   0.0000000000e+00
-3.0544566545e+01   0.0000000000e+00
-3.0525030525e+01   0.0000000000e+00
-3.0505494505e+01   0.0000000000e+00
-3.0485958486e+01   0.0000000000e+00
-3.0466422466e+01   0.0000000000e+00
-3.0446886447e+01   0.0000000000e+00
-3.0427350427e+01   0.0000000000e+00
-3.0407814408e+01   0.0000000000e+00
-3.0388278388e+01   0.0000000000e+00
-3.0368742369e+01   0.0000000000e+00
-3.0349206349e+01   0.0000000000e+00
-3.0329670330e+01   0.0000000000e+00
-3.0310134310e+01   0.0000000000e+00
-3.0290598291e+01   0.0000000000e+00
-3.0271062271e+01   0.0000000000e+00
-3.0251526252e+01   0.0000000000e+00
-3.0231990232e+01   0.0000000000e+00
-3.0212454212e+01   0.0000000000e+00
-3.0192918193e+01   0.0000000000e+00
-3.0173382173e+01   0.0000000000e+00
-3.0153846154e+01   0.0000000000e+00
-3.0134310134e+01   0.0000000000e+00
-3.0114774115e+01   0.0000000000e+00
-3.0095238095e+01   0.0000000000e+00
-3.0075702076e+01   0.0000000000e+00
-3.0056166056e+01   0.0000000000e+00
-3.0036630037e+01   0.0000000000e+00
-3.0017094017e+01   0.0000000000e+00
-2.9997557998e+01   0.0000000000e+00
-2.9978021978e+01   0.0000000000e+00
-2.9958485958e+01   0.0000000000e+00
-2.9938949939e+01   0.0000000000e+00
-2.9919413919e+01   0.0000000000e+00
-2.9899877900e+01   0.0000000000e+00
-2.9880341880e+01   0.0000000000e+00
-2.9860805861e+01   0.0000000000e+00
-2.9841269841e+01   0.0000000000e+00
-2.9821733822e+01   0.0000000000e+00
-2.9802197802e+01   0.0000000000e+00
-2.9782661783e+01   0.0000000000e+00
-2.9763125763e+01   0.0000000000e+00
-2.9743589744e+01   0.0000000000e+00
-2.9724053724e+01   0.0000000000e+00
-2.9704517705e+01   0.0000000000e+00
-2.9684981685e+01   0.0000000000e+00
-2.9665445665e+01   0.0000000000e+00
-2.9645909646e+01   0.0000000000e+00
-2.9626373626e+01   0.0000000000e+00
-2.9606837607e+01   0.0000000000e+00
-2.9587301587e+01   0.0000000000e+00
-2.9567765568e+01   0.0000000000e+00
-2.9548229548e+01   0.0000000000e+00
-2.9528693529e+01   0.0000000000e+00
-2.9509157509e+01   0.0000000000e+00
-2.9489621490e+01   0.0000000000e+00
-2.9470085470e+01   0.0000000000e+00
-2.9450549451e+01   0.0000000000e+00
-2.9431013431e+01   0.0000000000e+00
-2.9411477411e+01   0.0000000000e+00
-2.9391941392e+01   0.0000000000e+00
-2.9372405372e+01   0.0000000000e+00
-2.9352869353e+01   0.0000000000e+00
-2.9333333333e+01   0.0000000000e+00
-2.9313797314e+01   0.0000000000e+00
-2.9294261294e+01   0.0000000000e+00
-2.9274725275e+01   0.0000000000e+00
-2.9255189255e+01   0.0000000000e+00
-2.9235653236e+01   0.0000000000e+00
-2.9216117216e+01   0.0000000000e+00
-2.9196581197e+01   0.0000000000e+00
-2.9177045177e+01   0.0000000000e+00
-2.9157509158e+01   0.0000000000e+00
-2.9137973138e+01   0.0000000000e+00
-2.9118437118e+01   0.0000000000e+00
-2.9098901099e+01   0.0000000000e+00
-2.9079365079e+01   0.0000000000e+00
-2.9059829060e+01   0.0000000000e+00
-2.9040293040e+01   0.0000000000e+00
-2.9020757021e+01   0.0000000000e+00
-2.9001221001e+01   0.0000000000e+00
-2.8981684982e+01   0.0000000000e+00
-2.8962148962e+01   0.0000000000e+00
-2.8942612943e+01   0.0000000000e+00
-2.8923076923e+01   0.0000000000e+00
-2.8903540904e+01   0.0000000000e+00
-2.8884004884e+01   0.0000000000e+00
-2.8864468864e+01   0.0000000000e+00
-2.8844932845e+01   0.0000000000e+00
-2.8825396825e+01   0.0000000000e+00
-2.8805860806e+01   0.0000000000e+00
-2.8786324786e+01   0.0000000000e+00
-2.8766788767e+01   0.0000000000e+00
-2.8747252747e+01   0.0000000000e+00
-2.8727716728e+01   0.0000000000e+00
-2.8708180708e+01   0.0000000000e+00
-2.8688644689e+01   0.0000000000e+00
-2.8669108669e+01   0.0000000000e+00
-2.8649572650e+01   0.0000000000e+00
-2.8630036630e+01   0.0000000000e+00
-2.8610500611e+01   0.0000000000e+00
-2.8590964591e+01   0.0000000000e+00
-2.8571428571e+01   0.0000000000e+00
-2.8551892552e+01   0.0000000000e+00
-2.8532356532e+01   0.0000000000e+00
-2.8512820513e+01   0.0000000000e+00
-2.8493284493e+01   0.0000000000e+00
-2.8473748474e+01   0.0000000000e+00
-2.8454212454e+01   0.0000000000e+00
-2.8434676435e+01   0.0000000000e+00
-2.8415140415e+01   0.0000000000e+00
-2.8395604396e+01   0.0000000000e+00
-2.8376068376e+01   0.0000000000e+00
-2.8356532357e+01   0.0000000000e+00
-2.8336996337e+01   0.0000000000e+00
-2.8317460317e+01   0.0000000000e+00
-2.8297924298e+01   0.0000000000e+00
-2.8278388278e+01   0.0000000000e+00
-2.8258852259e+01   0.0000000000e+00
-2.8239316239e+01   0.0000000000e+00
-2.8219780220e+01   0.0000000000e+00
-2.8200244200e+01   0.0000000000e+00
-2.8180708181e+01   0.0000000000e+00
-2.8161172161e+01   0.0000000000e+00
-2.8141636142e+01   0.0000000000e+00
-2.8122100122e+01   0.0000000000e+00
-2.8102564103e+01   0.0000000000e+00
-2.8083028083e+01   0.0000000000e+00
-2.8063492063e+01   0.0000000000e+00
-2.8043956044e+01   0.0000000000e+00
-2.8024420024e+01   0.0000000000e+00
-2.8004884005e+01   0.0000000000e+00
-2.7985347985e+01   0.0000000000e+00
-2.7965811966e+01   0.0000000000e+00
-2.7946275946e+01   0.0000000000e+00
-2.7926739927e+01   0.0000000000e+00
-2.7907203907e+01   0.0000000000e+00
-2.7887667888e+01   0.0000000000e+00
-2.7868131868e+01   0.0000000000e+00
-2.7848595849e+01   0.0000000000e+00
-2.7829059829e+01   0.0000000000e+00
-2.7809523810e+01   0.0000000000e+00
-2.7789987790e+01   0.0000000000e+00
-2.7770451770e+01   0.0000000000e+00
-2.7750915751e+01   0.0000000000e+00
-2.7731379731e+01   0.0000000000e+00
-2.7711843712e+01   0.0000000000e+00
-2.7692307692e+01   0.0000000000e+00
-2.7672771673e+01   0.0000000000e+00
-2.7653235653e+01   0.0000000000e+00
-2.7633699634e+01   0.0000000000e+00
-2.7614163614e+01   0.0000000000e+00
-2.7594627595e+01   0.0000000000e+00
-2.7575091575e+01   0.0000000000e+00
-2.7555555556e+01   0.0000000000e+00
-2.7536019536e+01   0.0000000000e+00
-2.7516483516e+01   0.0000000000e+00
-2.7496947497e+01   0.0000000000e+00
-2.7477411477e+01   0.0000000000e+00
-2.7457875458e+01   0.0000000000e+00
-2.7438339438e+01   0.0000000000e+00
-2.7418803419e+01   0.0000000000e+00
-2.7399267399e+01   0.0000000000e+00
-2.7379731380e+01   0.0000000000e+00
-2.7360195360e+01   0.0000000000e+00
-2.7340659341e+01   0.0000000000e+00
-2.7321123321e+01   0.0000000000e+00
-2.7301587302e+01   0.0000000000e+00
-2.7282051282e+01   0.0000000000e+00
-2.7262515263e+01   0.0000000000e+00
-2.7242979243e+01   0.0000000000e+00
-2.7223443223e+01   0.0000000000e+00
-2.7203907204e+01   0.0000000000e+00
-2.7184371184e+01   0.0000000000e+00
-2.7164835165e+01   0.0000000000e+00
-2.7145299145e+01   0.0000000000e+00
-2.7125763126e+01   0.0000000000e+00
-2.7106227106e+01   0.0000000000e+00
-2.7086691087e+01   0.0000000000e+00
-2.7067155067e+01   0.0000000000e+00
-2.7047619048e+01   0.0000000000e+00
-2.7028083028e+01   0.0000000000e+00
-2.7008547009e+01   0.0000000000e+00
-2.6989010989e+01   0.0000000000e+00
-2.6969474969e+01   0.0000000000e+00
-2.6949938950e+01   0.0000000000e+00
-2.6930402930e+01   0.0000000000e+00
-2.6910866911e+01   0.0000000000e+00
-2.6891330891e+01   0.0000000000e+00
-2.6871794872e+01   0.0000000000e+00
-2.6852258852e+01   0.0000000000e+00
-2.6832722833e+01   0.0000000000e+00
-2.6813186813e+01   0.0000000000e+00
-2.6793650794e+01   0.0000000000e+00
-2.6774114774e+01   0.0000000000e+00
-2.6754578755e+01   0.0000000000e+00
-2.6735042735e+01   0.0000000000e+00
-2.6715506716e+01   0.0000000000e+00
-2.6695970696e+01   0.0000000000e+00
-2.6676434676e+01   0.0000000000e+00
-2.6656898657e+01   0.0000000000e+00
-2.6637362637e+01   0.0000000000e+00
-2.6617826618e+01   0.0000000000e+00
-2.6598290598e+01   0.0000000000e+00
-2.6578754579e+01   0.0000000000e+00
-2.6559218559e+01   0.0000000000e+00
-2.6539682540e+01   0.0000000000e+00
-2.6520146520e+01   0.0000000000e+00
-2.6500610501e+01   0.0000000000e+00
-2.6481074481e+01   0.0000000000e+00
-2.6461538462e+01   0.0000000000e+00
-2.6442002442e+01   0.0000000000e+00
-2.6422466422e+01   0.0000000000e+00
-2.6402930403e+01   0.0000000000e+00
-2.6383394383e+01   0.0000000000e+00
-2.6363858364e+01   0.0000000000e+00
-2.6344322344e+01   0.0000000000e+00
-2.6324786325e+01   0.0000000000e+00
-2.6305250305e+01   0.0000000000e+00
-2.6285714286e+01   0.0000000000e+00
-2.6266178266e+01   0.0000000000e+00
-2.6246642247e+01   0.0000000000e+00
-2.6227106227e+01   0.0000000000e+00
-2.6207570208e+01   0.0000000000e+00
-2.6188034188e+01   0.0000000000e+00
-2.6168498168e+01   0.0000000000e+00
-2.6148962149e+01   0.0000000000e+00
-2.6129426129e+01   0.0000000000e+00
-2.6109890110e+01   0.0000000000e+00
-2.6090354090e+01   0.0000000000e+00
-2.6070818071e+01   0.0000000000e+00
-2.6051282051e+01   0.0000000000e+00
-2.6031746032e+01   0.0000000000e+00
-2.6012210012e+01   0.0000000000e+00
-2.5992673993e+01   0.0000000000e+00
-2.5973137973e+01   0.0000000000e+00
-2.5953601954e+01   0.0000000000e+00
-2.5934065934e+01   0.0000000000e+00
-2.5914529915e+01   0.0000000000e+00
-2.5894993895e+01   0.0000000000e+00
-2.5875457875e+01   0.0000000000e+00
-2.5855921856e+01   0.0000000000e+00
-2.5836385836e+01   0.0000000000e+00
-2.5816849817e+01   0.0000000000e+00
-2.5797313797e+01   0.0000000000e+00
-2.5777777778e+01   0.0000000000e+00
-2.5758241758e+01   0.0000000000e+00
-2.5738705739e+01   0.0000000000e+00
-2.5719169719e+01   0.0000000000e+00
-2.5699633700e+01   0.0000000000e+00
-2.5680097680e+01   0.0000000000e+00
-2.5660561661e+01   0.0000000000e+00
-2.5641025641e+01   0.0000000000e+00
-2.5621489621e+01   0.0000000000e+00
-2.5601953602e+01   0.0000000000e+00
-2.5582417582e+01   0.0000000000e+00
-2.5562881563e+01   0.0000000000e+00
-2.5543345543e+01   0.0000000000e+00
-2.5523809524e+01   0.0000000000e+00
-2.5504273504e+01   0.0000000000e+00
-2.5484737485e+01   0.0000000000e+00
-2.5465201465e+01   0.0000000000e+00
-2.5445665446e+01   0.0000000000e+00
-2.5426129426e+01   0.0000000000e+00
-2.5406593407e+01   0.0000000000e+00
-2.5387057387e+01   0.0000000000e+00
-2.5367521368e+01   0.0000000000e+00
-2.5347985348e+01   0.0000000000e+00
-2.5328449328e+01   0.0000000000e+00
-2.5308913309e+01   0.0000000000e+00
-2.5289377289e+01   0.0000000000e+00
-2.5269841270e+01   0.0000000000e+00
-2.5250305250e+01   0.0000000000e+00
-2.5230769231e+01   0.0000000000e+00
-2.5211233211e+01   0.0000000000e+00
-2.5191697192e+01   0.0000000000e+00
-2.5172161172e+01   0.0000000000e+00
-2.5152625153e+01   0.0000000000e+00
-2.5133089133e+01   0.0000000000e+00
-2.5113553114e+01   0.0000000000e+00
-2.5094017094e+01   0.0000000000e+00
-2.5074481074e+01   0.0000000000e+00
-2.5054945055e+01   0.0000000000e+00
-2.5035409035e+01   0.0000000000e+00
-2.5015873016e+01   0.0000000000e+00
-2.4996336996e+01   0.0000000000e+00
-2.4976800977e+01   0.0000000000e+00
-2.4957264957e+01   0.0000000000e+00
-2.4937728938e+01   0.0000000000e+00
-2.4918192918e+01   0.0000000000e+00
-2.4898656899e+01   0.0000000000e+00
-2.4879120879e+01   0.0000000000e+00
-2.4859584860e+01   0.0000000000e+00
-2.4840048840e+01   0.0000000000e+00
-2.4820512821e+01   0.0000000000e+00
-2.4800976801e+01   0.0000000000e+00
-2.4781440781e+01   0.0000000000e+00
-2.4761904762e+01   0.0000000000e+00
-2.4742368742e+01   0.0000000000e+00
-2.4722832723e+01   0.0000000000e+00
-2.4703296703e+01   0.0000000000e+00
-2.4683760684e+01   0.0000000000e+00
-2.4664224664e+01   0.0000000000e+00
-2.4644688645e+01   0.0000000000e+00
-2.4625152625e+01   0.0000000000e+00
-2.4605616606e+01   0.0000000000e+00
-2.4586080586e+01   0.0000000000e+00
-2.4566544567e+01   0.0000000000e+00
-2.4547008547e+01   0.0000000000e+00
-2.4527472527e+01   0.0000000000e+00
-2.4507936508e+01   0.0000000000e+00
-2.4488400488e+01   0.0000000000e+00
-2.4468864469e+01   0.0000000000e+00
-2.4449328449e+01   0.0000000000e+00
-2.4429792430e+01   0.0000000000e+00
-2.4410256410e+01   0.0000000000e+00
-2.4390720391e+01   0.0000000000e+00
-2.4371184371e+01   0.0000000000e+00
-2.4351648352e+01   0.0000000000e+00
-2.4332112332e+01   0.0000000000e+00
-2.4312576313e+01   0.0000000000e+00
-2.4293040293e+01   0.0000000000e+00
-2.4273504274e+01   0.0000000000e+00
-2.4253968254e+01   0.0000000000e+00
-2.4234432234e+01   0.0000000000e+00
-2.4214896215e+01   0.0000000000e+00
-2.4195360195e+01   0.0000000000e+00
-2.4175824176e+01   0.0000000000e+00
-2.4156288156e+01   0.0000000000e+00
-2.4136752137e+01   0.0000000000e+00
-2.4117216117e+01   0.0000000000e+00
-2.4097680098e+01   0.0000000000e+00
-2.4078144078e+01   0.0000000000e+00
-2.4058608059e+01   0.0000000000e+00
-2.4039072039e+01   0.0000000000e+00
-2.4019536020e+01   0.0000000000e+00
-2.4000000000e+01   0.0000000000e+00
-2.3980463980e+01   0.0000000000e+00
-2.3960927961e+01   0.0000000000e+00
-2.3941391941e+01   0.0000000000e+00
-2.3921855922e+01   0.0000000000e+00
-2.3902319902e+01   0.0000000000e+00
-2.3882783883e+01   0.0000000000e+00
-2.3863247863e+01   0.0000000000e+00
-2.3843711844e+01   0.0000000000e+00
-2.3824175824e+01   0.0000000000e+00
-2.3804639805e+01   0.0000000000e+00
-2.3785103785e+01   0.0000000000e+00
-2.3765567766e+01   0.0000000000e+00
-2.3746031746e+01   0.0000000000e+00
-2.3726495726e+01   0.0000000000e+00
-2.3706959707e+01   0.0000000000e+00
-2.3687423687e+01   0.0000000000e+00
-2.3667887668e+01   0.0000000000e+00
-2.3648351648e+01   0.0000000000e+00
-2.3628815629e+01   0.0000000000e+00
-2.3609279609e+01   0.0000000000e+00
-2.3589743590e+01   0.0000000000e+00
-2.3570207570e+01   0.0000000000e+00
-2.3550671551e+01   0.0000000000e+00
-2.3531135531e+01   0.0000000000e+00
-2.3511599512e+01   0.0000000000e+00
-2.3492063492e+01   0.0000000000e+00
-2.3472527473e+01   0.0000000000e+00
-2.3452991453e+01   0.0000000000e+00
-2.3433455433e+01   0.0000000000e+00
-2.3413919414e+01   0.0000000000e+00
-2.3394383394e+01   0.0000000000e+00
-2.3374847375e+01   0.0000000000e+00
-2.3355311355e+01   0.0000000000e+00
-2.3335775336e+01   0.0000000000e+00
-2.3316239316e+01   0.0000000000e+00
-2.3296703297e+01   0.0000000000e+00
-2.3277167277e+01   0.0000000000e+00
-2.3257631258e+01   0.0000000000e+00
-2.3238095238e+01   0.0000000000e+00
-2.3218559219e+01   0.0000000000e+00
-2.3199023199e+01   0.0000000000e+00
-2.3179487179e+01   0.0000000000e+00
-2.3159951160e+01   0.0000000000e+00
-2.3140415140e+01   0.0000000000e+00
-2.3120879121e+01   0.0000000000e+00
-2.3101343101e+01   0.0000000000e+00
-2.3081807082e+01   0.0000000000e+00
-2.3062271062e+01   0.0000000000e+00
-2.3042735043e+01   0.0000000000e+00
-2.3023199023e+01   0.0000000000e+00
-2.3003663004e+01   0.0000000000e+00
-2.2984126984e+01   0.0000000000e+00
-2.2964590965e+01   0.0000000000e+00
-2.2945054945e+01   0.0000000000e+00
-2.2925518926e+01   0.0000000000e+00
-2.2905982906e+01   0.0000000000e+00
-2.2886446886e+01   0.0000000000e+00
-2.2866910867e+01   0.0000000000e+00
-2.2847374847e+01   0.0000000000e+00
-2.2827838828e+01   0.0000000000e+00
-2.2808302808e+01   0.0000000000e+00
-2.2788766789e+01   0.0000000000e+00
-2.2769230769e+01   0.0000000000e+00
-2.2749694750e+01   0.0000000000e+00
-2.2730158730e+01   0.0000000000e+00
-2.2710622711e+01   0.0000000000e+00
-2.2691086691e+01   0.0000000000e+00
-2.2671550672e+01   0.0000000000e+00
-2.2652014652e+01   0.0000000000e+00
-2.2632478632e+01   0.0000000000e+00
-2.2612942613e+01   0.0000000000e+00
-2.2593406593e+01   0.0000000000e+00
-2.2573870574e+01   0.0000000000e+00
-2.2554334554e+01   0.0000000000e+00
-2.2534798535e+01   0.0000000000e+00
-2.2515262515e+01   0.0000000000e+00
-2.2495726496e+01   0.0000000000e+00
-2.2476190476e+01   0.0000000000e+00
-2.2456654457e+01   0.0000000000e+00
-2.2437118437e+01   0.0000000000e+00
-2.2417582418e+01   0.0000000000e+00
-2.2398046398e+01   0.0000000000e+00
-2.2378510379e+01   0.0000000000e+00
-2.2358974359e+01   0.0000000000e+00
-2.2339438339e+01   0.0000000000e+00
-2.2319902320e+01   0.0000000000e+00
-2.2300366300e+01   0.0000000000e+00
-2.2280830281e+01   0.0000000000e+00
-2.2261294261e+01   0.0000000000e+00
-2.2241758242e+01   0.0000000000e+00
-2.2222222222e+01   0.0000000000e+00
-2.2202686203e+01   0.0000000000e+00
-2.2183150183e+01   0.0000000000e+00
-2.2163614164e+01   0.0000000000e+00
-2.2144078144e+01   0.0000000000e+00
-2.2124542125e+01   0.0000000000e+00
-2.2105006105e+01   0.0000000000e+00
-2.2085470085e+01   0.0000000000e+00
-2.2065934066e+01   0.0000000000e+00
-2.2046398046e+01   0.0000000000e+00
-2.2026862027e+01   0.0000000000e+00
-2.2007326007e+01   0.0000000000e+00
-2.1987789988e+01   0.0000000000e+00
-2.1968253968e+01   0.0000000000e+00
-2.1948717949e+01   0.0000000000e+00
-2.1929181929e+01   0.0000000000e+00
-2.1909645910e+01   0.0000000000e+00
-2.1890109890e+01   0.0000000000e+00
-2.1870573871e+01   0.0000000000e+00
-2.1851037851e+01   0.0000000000e+00
-2.1831501832e+01   0.0000000000e+00
-2.1811965812e+01   0.0000000000e+00
-2.1792429792e+01   0.0000000000e+00
-2.1772893773e+01   0.0000000000e+00
-2.1753357753e+01   0.0000000000e+00
-2.1733821734e+01   0.0000000000e+00
-2.1714285714e+01   0.0000000000e+00
-2.1694749695e+01   0.0000000000e+00
-2.1675213675e+01   0.0000000000e+00
-2.1655677656e+01   0.0000000000e+00
-2.1636141636e+01   0.0000000000e+00
-2.1616605617e+01   0.0000000000e+00
-2.1597069597e+01   0.0000000000e+00
-2.1577533578e+01   0.0000000000e+00
-2.1557997558e+01   0.0000000000e+00
-2.1538461538e+01   0.0000000000e+00
-2.1518925519e+01   0.0000000000e+00
-2.1499389499e+01   0.0000000000e+00
-2.1479853480e+01   0.0000000000e+00
-2.1460317460e+01   0.0000000000e+00
-2.1440781441e+01   0.0000000000e+00
-2.1421245421e+01   0.0000000000e+00
-2.1401709402e+01   0.0000000000e+00
-2.1382173382e+01   0.0000000000e+00
-2.1362637363e+01   0.0000000000e+00
-2.1343101343e+01   0.0000000000e+00
-2.1323565324e+01   0.0000000000e+00
-2.1304029304e+01   0.0000000000e+00
-2.1284493284e+01   0.0000000000e+00
-2.1264957265e+01   0.0000000000e+00
-2.1245421245e+01   0.0000000000e+00
-2.1225885226e+01   0.0000000000e+00
-2.1206349206e+01   0.0000000000e+00
-2.1186813187e+01   0.0000000000e+00
-2.1167277167e+01   0.0000000000e+00
-2.1147741148e+01   0.0000000000e+00
-2.1128205128e+01   0.0000000000e+00
-2.1108669109e+01   0.0000000000e+00
-2.1089133089e+01   0.0000000000e+00
-2.1069597070e+01   0.0000000000e+00
-2.1050061050e+01   0.0000000000e+00
-2.1030525031e+01   0.0000000000e+00
-2.1010989011e+01   0.0000000000e+00
-2.0991452991e+01   0.0000000000e+00
-2.0971916972e+01   0.0000000000e+00
-2.0952380952e+01   0.0000000000e+00
-2.0932844933e+01   0.0000000000e+00
-2.0913308913e+01   0.0000000000e+00
-2.0893772894e+01   0.0000000000e+00
-2.0874236874e+01   0.0000000000e+00
-2.0854700855e+01   0.0000000000e+00
-2.0835164835e+01   0.0000000000e+00
-2.0815628816e+01   0.0000000000e+00
-2.0796092796e+01   0.0000000000e+00
-2.0776556777e+01   0.0000000000e+00
-2.0757020757e+01   0.0000000000e+00
-2.0737484737e+01   0.0000000000e+00
-2.0717948718e+01   0.0000000000e+00
-2.0698412698e+01   0.0000000000e+00
-2.0678876679e+01   0.0000000000e+00
-2.0659340659e+01   0.0000000000e+00
-2.0639804640e+01   0.0000000000e+00
-2.0620268620e+01   0.0000000000e+00
-2.0600732601e+01   0.0000000000e+00
-2.0581196581e+01   0.0000000000e+00
-2.0561660562e+01   0.0000000000e+00
-2.0542124542e+01   0.0000000000e+00
-2.0522588523e+01   0.0000000000e+00
-2.0503052503e+01   0.0000000000e+00
-2.0483516484e+01   0.0000000000e+00
-2.0463980464e+01   0.0000000000e+00
-2.0444444444e+01   0.0000000000e+00
-2.0424908425e+01   0.0000000000e+00
-2.0405372405e+01   0.0000000000e+00
-2.0385836386e+01   0.0000000000e+00
-2.0366300366e+01   0.0000000000e+00
-2.0346764347e+01   0.0000000000e+00
-2.0327228327e+01   0.0000000000e+00
-2.0307692308e+01   0.0000000000e+00
-2.0288156288e+01   0.0000000000e+00
-2.0268620269e+01   0.0000000000e+00
-2.0249084249e+01   0.0000000000e+00
-2.0229548230e+01   0.0000000000e+00
-2.0210012210e+01   0.0000000000e+00
-2.0190476190e+01   0.0000000000e+00
-2.0170940171e+01   0.0000000000e+00
-2.0151404151e+01   0.0000000000e+00
-2.0131868132e+01   0.0000000000e+00
-2.0112332112e+01   0.0000000000e+00
-2.0092796093e+01   0.0000000000e+00
-2.0073260073e+01   0.0000000000e+00
-2.0053724054e+01   0.0000000000e+00
-2.0034188034e+01   0.0000000000e+00
-2.0014652015e+01   0.0000000000e+00
-1.9995115995e+01   0.0000000000e+00
-1.9975579976e+01   0.0000000000e+00
-1.9956043956e+01   0.0000000000e+00
-1.9936507937e+01   0.0000000000e+00
-1.9916971917e+01   0.0000000000e+00
-1.9897435897e+01   0.0000000000e+00
-1.9877899878e+01   0.0000000000e+00
-1.9858363858e+01   0.0000000000e+00
-1.9838827839e+01   0.0000000000e+00
-1.9819291819e+01   0.0000000000e+00
-1.9799755800e+01   0.0000000000e+00
-1.9780219780e+01   0.0000000000e+00
-1.9760683761e+01   0.0000000000e+00
-1.9741147741e+01   0.0000000000e+00
-1.9721611722e+01   0.0000000000e+00
-1.9702075702e+01   0.0000000000e+00
-1.9682539683e+01   0.0000000000e+00
-1.9663003663e+01   0.0000000000e+00
-1.9643467643e+01   0.0000000000e+00
-1.9623931624e+01   0.0000000000e+00
-1.9604395604e+01   0.0000000000e+00
-1.9584859585e+01   0.0000000000e+00
-1.9565323565e+01   0.0000000000e+00
-1.9545787546e+01   0.0000000000e+00
-1.9526251526e+01   0.0000000000e+00
-1.9506715507e+01   0.0000000000e+00
-1.9487179487e+01   0.0000000000e+00
-1.9467643468e+01   0.0000000000e+00
-1.9448107448e+01   0.0000000000e+00
-1.9428571429e+01   0.0000000000e+00
-1.9409035409e+01   0.0000000000e+00
-1.9389499389e+01   0.0000000000e+00
-1.9369963370e+01   0.0000000000e+00
-1.9350427350e+01   0.0000000000e+00
-1.9330891331e+01   0.0000000000e+00
-1.9311355311e+01   0.0000000000e+00
-1.9291819292e+01   0.0000000000e+00
-1.9272283272e+01   0.0000000000e+00
-1.9252747253e+01   0.0000000000e+00
-1.9233211233e+01   0.0000000000e+00
-1.9213675214e+01   0.0000000000e+00
-1.9194139194e+01   0.0000000000e+00
-1.9174603175e+01   0.0000000000e+00
-1.9155067155e+01   0.0000000000e+00
-1.9135531136e+01   0.0000000000e+00
-1.9115995116e+01   0.0000000000e+00
-1.9096459096e+01   0.0000000000e+00
-1.9076923077e+01   0.0000000000e+00
-1.9057387057e+01   0.0000000000e+00
-1.9037851038e+01   0.0000000000e+00
-1.9018315018e+01   0.0000000000e+00
-1.8998778999e+01   0.0000000000e+00
-1.8979242979e+01   0.0000000000e+00
-1.8959706960e+01   0.0000000000e+00
-1.8940170940e+01   0.0000000000e+00
-1.8920634921e+01   0.0000000000e+00
-1.8901098901e+01   0.0000000000e+00
-1.8881562882e+01   0.0000000000e+00
-1.8862026862e+01   0.0000000000e+00
-1.8842490842e+01   0.0000000000e+00
-1.8822954823e+01   0.0000000000e+00
-1.8803418803e+01   0.0000000000e+00
-1.8783882784e+01   0.0000000000e+00
-1.8764346764e+01   0.0000000000e+00
-1.8744810745e+01   0.0000000000e+00
-1.8725274725e+01   0.0000000000e+00
-1.8705738706e+01   0.0000000000e+00
-1.8686202686e+01   0.0000000000e+00
-1.8666666667e+01   0.0000000000e+00
-1.8647130647e+01   0.0000000000e+00
-1.8627594628e+01   0.0000000000e+00
-1.8608058608e+01   0.0000000000e+00
-1.8588522589e+01   0.0000000000e+00
-1.8568986569e+01   0.0000000000e+00
-1.8549450549e+01   0.0000000000e+00
-1.8529914530e+01   0.0000000000e+00
-1.8510378510e+01   0.0000000000e+00
-1.8490842491e+01   0.0000000000e+00
-1.8471306471e+01   0.0000000000e+00
-1.8451770452e+01   0.0000000000e+00
-1.8432234432e+01   0.0000000000e+00
-1.8412698413e+01   0.0000000000e+00
-1.8393162393e+01   0.0000000000e+00
-1.8373626374e+01   0.0000000000e+00
-1.8354090354e+01   0.0000000000e+00
-1.8334554335e+01   0.0000000000e+00
-1.8315018315e+01   0.0000000000e+00
-1.8295482295e+01   0.0000000000e+00
-1.8275946276e+01   0.0000000000e+00
-1.8256410256e+01   0.0000000000e+00
-1.8236874237e+01   0.0000000000e+00
-1.8217338217e+01   0.0000000000e+00
-1.8197802198e+01   0.0000000000e+00
-1.8178266178e+01   0.0000000000e+00
-1.8158730159e+01   0.0000000000e+00
-1.8139194139e+01   0.0000000000e+00
-1.8119658120e+01   0.0000000000e+00
-1.8100122100e+01   0.0000000000e+00
-1.8080586081e+01   0.0000000000e+00
-1.8061050061e+01   0.0000000000e+00
-1.8041514042e+01   0.0000000000e+00
-1.8021978022e+01   0.0000000000e+00
-1.8002442002e+01   0.0000000000e+00
-1.7982905983e+01   0.0000000000e+00
-1.7963369963e+01   0.0000000000e+00
-1.7943833944e+01   0.0000000000e+00
-1.7924297924e+01   0.0000000000e+00
-1.7904761905e+01   0.0000000000e+00
-1.7885225885e+01   0.0000000000e+00
-1.7865689866e+01   0.0000000000e+00
-1.7846153846e+01   0.0000000000e+00
-1.7826617827e+01   0.0000000000e+00
-1.7807081807e+01   0.0000000000e+00
-1.7787545788e+01   0.0000000000e+00
-1.7768009768e+01   0.0000000000e+00
-1.7748473748e+01   0.0000000000e+00
-1.7728937729e+01   0.0000000000e+00
-1.7709401709e+01   0.0000000000e+00
-1.7689865690e+01   0.0000000000e+00
-1.7670329670e+01   0.0000000000e+00
-1.7650793651e+01   0.0000000000e+00
-1.7631257631e+01   0.0000000000e+00
-1.7611721612e+01   0.0000000000e+00
-1.7592185592e+01   0.0000000000e+00
-1.7572649573e+01   0.0000000000e+00
-1.7553113553e+01   0.0000000000e+00
-1.7533577534e+01   0.0000000000e+00
-1.7514041514e+01   0.0000000000e+00
-1.7494505495e+01   0.0000000000e+00
-1.7474969475e+01   0.0000000000e+00
-1.7455433455e+01   0.0000000000e+00
-1.7435897436e+01   0.0000000000e+00
-1.7416361416e+01   0.0000000000e+00
-1.7396825397e+01   0.0000000000e+00
-1.7377289377e+01   0.0000000000e+00
-1.7357753358e+01   0.0000000000e+00
-1.7338217338e+01   0.0000000000e+00
-1.7318681319e+01   0.0000000000e+00
-1.7299145299e+01   0.0000000000e+00
-1.7279609280e+01   0.0000000000e+00
-1.7260073260e+01   0.0000000000e+00
-1.7240537241e+01   0.0000000000e+00
-1.7221001221e+01   0.0000000000e+00
-1.7201465201e+01   0.0000000000e+00
-1.7181929182e+01   0.0000000000e+00
-1.7162393162e+01   0.0000000000e+00
-1.7142857143e+01   0.0000000000e+00
-1.7123321123e+01   0.0000000000e+00
-1.7103785104e+01   0.0000000000e+00
-1.7084249084e+01   0.0000000000e+00
-1.7064713065e+01   0.0000000000e+00
-1.7045177045e+01   0.0000000000e+00
-1.7025641026e+01   0.0000000000e+00
-1.7006105006e+01   0.0000000000e+00
-1.6986568987e+01   0.0000000000e+00
-1.6967032967e+01   0.0000000000e+00
-1.6947496947e+01   0.0000000000e+00
-1.6927960928e+01   0.0000000000e+00
-1.6908424908e+01   0.0000000000e+00
-1.6888888889e+01   0.0000000000e+00
-1.6869352869e+01   0.0000000000e+00
-1.6849816850e+01   0.0000000000e+00
-1.6830280830e+01   0.0000000000e+00
-1.6810744811e+01   0.0000000000e+00
-1.6791208791e+01   0.0000000000e+00
-1.6771672772e+01   0.0000000000e+00
-1.6752136752e+01   0.0000000000e+00
-1.6732600733e+01   0.0000000000e+00
-1.6713064713e+01   0.0000000000e+00
-1.6693528694e+01   0.0000000000e+00
-1.6673992674e+01   0.0000000000e+00
-1.6654456654e+01   0.0000000000e+00
-1.6634920635e+01   0.0000000000e+00
-1.6615384615e+01   0.0000000000e+00
-1.6595848596e+01   0.0000000000e+00
-1.6576312576e+01   0.0000000000e+00
-1.6556776557e+01   0.0000000000e+00
-1.6537240537e+01   0.0000000000e+00
-1.6517704518e+01   0.0000000000e+00
-1.6498168498e+01   0.0000000000e+00
-1.6478632479e+01   0.0000000000e+00
-1.6459096459e+01   0.0000000000e+00
-1.6439560440e+01   0.0000000000e+00
-1.6420024420e+01   0.0000000000e+00
-1.6400488400e+01   0.0000000000e+00
-1.6380952381e+01   0.0000000000e+00
-1.6361416361e+01   0.0000000000e+00
-1.6341880342e+01   0.0000000000e+00
-1.6322344322e+01   0.0000000000e+00
-1.6302808303e+01   0.0000000000e+00
-1.6283272283e+01   0.0000000000e+00
-1.6263736264e+01   0.0000000000e+00
-1.6244200244e+01   0.0000000000e+00
-1.6224664225e+01   0.0000000000e+00
-1.6205128205e+01   0.0000000000e+00
-1.6185592186e+01   0.0000000000e+00
-1.6166056166e+01   0.0000000000e+00
-1.6146520147e+01   0.0000000000e+00
-1.6126984127e+01   0.0000000000e+00
-1.6107448107e+01   0.0000000000e+00
-1.6087912088e+01   0.0000000000e+00
-1.6068376068e+01   0.0000000000e+00
-1.6048840049e+01   0.0000000000e+00
-1.6029304029e+01   0.0000000000e+00
-1.6009768010e+01   0.0000000000e+00
-1.5990231990e+01   0.0000000000e+00
-1.5970695971e+01   0.0000000000e+00
-1.5951159951e+01   0.0000000000e+00
-1.5931623932e+01   0.0000000000e+00
-1.5912087912e+01   0.0000000000e+00
-1.5892551893e+01   0.0000000000e+00
-1.5873015873e+01   0.0000000000e+00
-1.5853479853e+01   0.0000000000e+00
-1.5833943834e+01   0.0000000000e+00
-1.5814407814e+01   0.0000000000e+00
-1.5794871795e+01   0.0000000000e+00
-1.5775335775e+01   0.0000000000e+00
-1.5755799756e+01   0.0000000000e+00
-1.5736263736e+01   0.0000000000e+00
-1.5716727717e+01   0.0000000000e+00
-1.5697191697e+01   0.0000000000e+00
-1.5677655678e+01   0.0000000000e+00
-1.5658119658e+01   0.0000000000e+00
-1.5638583639e+01   0.0000000000e+00
-1.5619047619e+01   0.0000000000e+00
-1.5599511600e+01   0.0000000000e+00
-1.5579975580e+01   0.0000000000e+00
-1.5560439560e+01   0.0000000000e+00
-1.5540903541e+01   0.0000000000e+00
-1.5521367521e+01   0.0000000000e+00
-1.5501831502e+01   0.0000000000e+00
-1.5482295482e+01   0.0000000000e+00
-1.5462759463e+01   0.0000000000e+00
-1.5443223443e+01   0.0000000000e+00
-1.5423687424e+01   0.0000000000e+00
-1.5404151404e+01   0.0000000000e+00
-1.5384615385e+01   0.0000000000e+00
-1.5365079365e+01   0.0000000000e+00
-1.5345543346e+01   0.0000000000e+00
-1.5326007326e+01   0.0000000000e+00
-1.5306471306e+01   0.0000000000e+00
-1.5286935287e+01   0.0000000000e+00
-1.5267399267e+01   0.0000000000e+00
-1.5247863248e+01   0.0000000000e+00
-1.5228327228e+01   0.0000000000e+00
-1.5208791209e+01   0.0000000000e+00
-1.5189255189e+01   0.0000000000e+00
-1.5169719170e+01   0.0000000000e+00
-1.5150183150e+01   0.0000000000e+00
-1.5130647131e+01   0.0000000000e+00
-1.5111111111e+01   0.0000000000e+00
-1.5091575092e+01   0.0000000000e+00
-1.5072039072e+01   0.0000000000e+00
-1.5052503053e+01   0.0000000000e+00
-1.5032967033e+01   0.0000000000e+00
-1.5013431013e+01   0.0000000000e+00
-1.4993894994e+01   0.0000000000e+00
-1.4974358974e+01   0.0000000000e+00
-1.4954822955e+01   0.0000000000e+00
-1.4935286935e+01   0.0000000000e+00
-1.4915750916e+01   0.0000000000e+00
-1.4896214896e+01   0.0000000000e+00
-1.4876678877e+01   0.0000000000e+00
-1.4857142857e+01   0.0000000000e+00
-1.4837606838e+01   0.0000000000e+00
-1.4818070818e+01   0.0000000000e+00
-1.4798534799e+01   0.0000000000e+00
-1.4778998779e+01   0.0000000000e+00
-1.4759462759e+01   0.0000000000e+00
-1.4739926740e+01   0.0000000000e+00
-1.4720390720e+01   0.0000000000e+00
-1.4700854701e+01   0.0000000000e+00
-1.4681318681e+01   0.0000000000e+00
-1.4661782662e+01   0.0000000000e+00
-1.4642246642e+01   0.0000000000e+00
-1.4622710623e+01   0.0000000000e+00
-1.4603174603e+01   0.0000000000e+00
-1.4583638584e+01   0.0000000000e+00
-1.4564102564e+01   0.0000000000e+00
-1.4544566545e+01   0.0000000000e+00
-1.4525030525e+01   0.0000000000e+00
-1.4505494505e+01   0.0000000000e+00
-1.4485958486e+01   0.0000000000e+00
-1.4466422466e+01   0.0000000000e+00
-1.4446886447e+01   0.0000000000e+00
-1.4427350427e+01   0.0000000000e+00
-1.4407814408e+01   0.0000000000e+00
-1.4388278388e+01   0.0000000000e+00
-1.4368742369e+01   0.0000000000e+00
-1.4349206349e+01   0.0000000000e+00
-1.4329670330e+01   0.0000000000e+00
-1.4310134310e+01   0.0000000000e+00
-1.4290598291e+01   0.0000000000e+00
-1.4271062271e+01   0.0000000000e+00
-1.4251526252e+01   0.0000000000e+00
-1.4231990232e+01   0.0000000000e+00
-1.4212454212e+01   0.0000000000e+00
-1.4192918193e+01   0.0000000000e+00
-1.4173382173e+01   0.0000000000e+00
-1.4153846154e+01   0.0000000000e+00
-1.4134310134e+01   0.0000000000e+00
-1.4114774115e+01   0.0000000000e+00
-1.4095238095e+01   0.0000000000e+00
-1.4075702076e+01   0.0000000000e+00
-1.4056166056e+01   0.0000000000e+00
-1.4036630037e+01   0.0000000000e+00
-1.4017094017e+01   0.0000000000e+00
-1.3997557998e+01   0.0000000000e+00
-1.3978021978e+01   0.0000000000e+00
-1.3958485958e+01   0.0000000000e+00
-1.3938949939e+01   0.0000000000e+00
-1.3919413919e+01   0.0000000000e+00
-1.3899877900e+01   0.0000000000e+00
-1.3880341880e+01   0.0000000000e+00
-1.3860805861e+01   0.0000000000e+00
-1.3841269841e+01   0.0000000000e+00
-1.3821733822e+01   0.0000000000e+00
-1.3802197802e+01   0.0000000000e+00
-1.3782661783e+01   0.0000000000e+00
-1.3763125763e+01   0.0000000000e+00
-1.3743589744e+01   0.0000000000e+00
-1.3724053724e+01   0.0000000000e+00
-1.3704517705e+01   0.0000000000e+00
-1.3684981685e+01   0.0000000000e+00
-1.3665445665e+01   0.0000000000e+00
-1.3645909646e+01   0.0000000000e+00
-1.3626373626e+01   0.0000000000e+00
-1.3606837607e+01   0.0000000000e+00
-1.3587301587e+01   0.0000000000e+00
-1.3567765568e+01   0.0000000000e+00
-1.3548229548e+01   0.0000000000e+00
-1.3528693529e+01   0.0000000000e+00
-1.3509157509e+01   0.0000000000e+00
-1.3489621490e+01   0.0000000000e+00
-1.3470085470e+01   0.0000000000e+00
-1.3450549451e+01   0.0000000000e+00
-1.3431013431e+01   0.0000000000e+00
-1.3411477411e+01   0.0000000000e+00
-1.3391941392e+01   0.0000000000e+00
-1.3372405372e+01   0.0000000000e+00
-1.3352869353e+01   0.0000000000e+00
-1.3333333333e+01   0.0000000000e+00
-1.3313797314e+01   0.0000000000e+00
-1.3294261294e+01   0.0000000000e+00
-1.3274725275e+01   0.0000000000e+00
-1.3255189255e+01   0.0000000000e+00
-1.3235653236e+01   0.0000000000e+00
-1.3216117216e+01   0.0000000000e+00
-1.3196581197e+01   0.0000000000e+00
-1.3177045177e+01   0.0000000000e+00
-1.3157509158e+01   0.0000000000e+00
-1.3137973138e+01   0.0000000000e+00
-1.3118437118e+01   0.0000000000e+00
-1.3098901099e+01   0.0000000000e+00
-1.3079365079e+01   0.0000000000e+00
-1.3059829060e+01   0.0000000000e+00
-1.3040293040e+01   0.0000000000e+00
-1.3020757021e+01   0.0000000000e+00
-1.3001221001e+01   0.0000000000e+00
-1.2981684982e+01   0.0000000000e+00
-1.2962148962e+01   0.0000000000e+00
-1.2942612943e+01   0.0000000000e+00
-1.2923076923e+01   0.0000000000e+00
-1.2903540904e+01   0.0000000000e+00
-1.2884004884e+01   0.0000000000e+00
-1.2864468864e+01   0.0000000000e+00
-1.2844932845e+01   0.0000000000e+00
-1.2825396825e+01   0.0000000000e+00
-1.2805860806e+01   0.0000000000e+00
-1.2786324786e+01   0.0000000000e+00
-1.2766788767e+01   0.0000000000e+00
-1.2747252747e+01   0.0000000000e+00
-1.2727716728e+01   0.0000000000e+00
-1.2708180708e+01   0.0000000000e+00
-1.2688644689e+01   0.0000000000e+00
-1.2669108669e+01   0.0000000000e+00
-1.2649572650e+01   0.0000000000e+00
-1.2630036630e+01   0.0000000000e+00
-1.2610500611e+01   0.0000000000e+00
-1.2590964591e+01   0.0000000000e+00
-1.2571428571e+01   0.0000000000e+00
-1.2551892552e+01   0.0000000000e+00
-1.2532356532e+01   0.0000000000e+00
-1.2512820513e+01   0.0000000000e+00
-1.2493284493e+01   0.0000000000e+00
-1.2473748474e+01   0.0000000000e+00
-1.2454212454e+01   0.0000000000e+00
-1.2434676435e+01   0.0000000000e+00
-1.2415140415e+01   0.0000000000e+00
-1.2395604396e+01   0.0000000000e+00
-1.2376068376e+01   0.0000000000e+00
-1.2356532357e+01   0.0000000000e+00
-1.2336996337e+01   0.0000000000e+00
-1.2317460317e+01   0.0000000000e+00
-1.2297924298e+01   0.0000000000e+00
-1.2278388278e+01   0.0000000000e+00
-1.2258852259e+01   0.0000000000e+00
-1.2239316239e+01   0.0000000000e+00
-1.2219780220e+01   0.0000000000e+00
-1.2200244200e+01   0.0000000000e+00
-1.2180708181e+01   0.0000000000e+00
-1.2161172161e+01   0.0000000000e+00
-1.2141636142e+01   0.0000000000e+00
-1.2122100122e+01   0.0000000000e+00
-1.2102564103e+01   0.0000000000e+00
-1.2083028083e+01   0.0000000000e+00
-1.2063492063e+01   0.0000000000e+00
-1.2043956044e+01   0.0000000000e+00
-1.2024420024e+01   0.0000000000e+00
-1.2004884005e+01   0.0000000000e+00
-1.1985347985e+01   0.0000000000e+00
-1.1965811966e+01   0.0000000000e+00
-1.1946275946e+01   0.0000000000e+00
-1.1926739927e+01   0.0000000000e+00
-1.1907203907e+01   0.0000000000e+00
-1.1887667888e+01   0.0000000000e+00
-1.1868131868e+01   0.0000000000e+00
-1.1848595849e+01   0.0000000000e+00
-1.1829059829e+01   0.0000000000e+00
-1.1809523810e+01   0.0000000000e+00
-1.1789987790e+01   0.0000000000e+00
-1.1770451770e+01   0.0000000000e+00
-1.1750915751e+01   0.0000000000e+00
-1.1731379731e+01   0.0000000000e+00
-1.1711843712e+01   0.0000000000e+00
-1.1692307692e+01   0.0000000000e+00
-1.1672771673e+01   0.0000000000e+00
-1.1653235653e+01   0.0000000000e+00
-1.1633699634e+01   0.0000000000e+00
-1.1614163614e+01   0.0000000000e+00
-1.1594627595e+01   0.0000000000e+00
-1.1575091575e+01   0.0000000000e+00
-1.1555555556e+01   0.0000000000e+00
-1.1536019536e+01   0.0000000000e+00
-1.1516483516e+01   0.0000000000e+00
-1.1496947497e+01   0.0000000000e+00
-1.1477411477e+01   0.0000000000e+00
-1.1457875458e+01   0.0000000000e+00
-1.1438339438e+01   0.0000000000e+00
-1.1418803419e+01   0.0000000000e+00
-1.1399267399e+01   0.0000000000e+00
-1.1379731380e+01   0.0000000000e+00
-1.1360195360e+01   0.0000000000e+00
-1.1340659341e+01   0.0000000000e+00
-1.1321123321e+01   0.0000000000e+00
-1.1301587302e+01   0.0000000000e+00
-1.1282051282e+01   0.0000000000e+00
-1.1262515263e+01   0.0000000000e+00
-1.1242979243e+01   0.0000000000e+00
-1.1223443223e+01   0.0000000000e+00
-1.1203907204e+01   0.0000000000e+00
-1.1184371184e+01   0.0000000000e+00
-1.1164835165e+01   0.0000000000e+00
-1.1145299145e+01   0.0000000000e+00
-1.1125763126e+01   0.0000000000e+00
-1.1106227106e+01   0.0000000000e+00
-1.1086691087e+01   0.0000000000e+00
-1.1067155067e+01   0.0000000000e+00
-1.1047619048e+01   0.0000000000e+00
-1.1028083028e+01   0.0000000000e+00
-1.1008547009e+01   0.0000000000e+00
-1.0989010989e+01   0.0000000000e+00
-1.0969474969e+01   0.0000000000e+00
-1.0949938950e+01   0.0000000000e+00
-1.0930402930e+01   0.0000000000e+00
-1.0910866911e+01   0.0000000000e+00
-1.0891330891e+01   0.0000000000e+00
-1.0871794872e+01   0.0000000000e+00
-1.0852258852e+01   0.0000000000e+00
-1.0832722833e+01   0.0000000000e+00
-1.0813186813e+01   0.0000000000e+00
-1.0793650794e+01   0.0000000000e+00
-1.0774114774e+01   0.0000000000e+00
-1.0754578755e+01   0.0000000000e+00
-1.0735042735e+01   0.0000000000e+00
-1.0715506716e+01   0.0000000000e+00
-1.0695970696e+01   0.0000000000e+00
-1.0676434676e+01   0.0000000000e+00
-1.0656898657e+01   0.0000000000e+00
-1.0637362637e+01   0.0000000000e+00
-1.0617826618e+01   0.0000000000e+00
-1.0598290598e+01   0.0000000000e+00
-1.0578754579e+01   0.0000000000e+00
-1.0559218559e+01   0.0000000000e+00
-1.0539682540e+01   0.0000000000e+00
-1.0520146520e+01   0.0000000000e+00
-1.0500610501e+01   0.0000000000e+00
-1.0481074481e+01   0.0000000000e+00
-1.0461538462e+01   0.0000000000e+00
-1.0442002442e+01   0.0000000000e+00
-1.0422466422e+01   0.0000000000e+00
-1.0402930403e+01   0.0000000000e+00
-1.0383394383e+01   0.0000000000e+00
-1.0363858364e+01   0.0000000000e+00
-1.0344322344e+01   0.0000000000e+00
-1.0324786325e+01   0.0000000000e+00
-1.0305250305e+01   0.0000000000e+00
-1.0285714286e+01   0.0000000000e+00
-1.0266178266e+01   0.0000000000e+00
-1.0246642247e+01   0.0000000000e+00
-1.0227106227e+01   0.0000000000e+00
-1.0207570208e+01   0.0000000000e+00
-1.0188034188e+01   0.0000000000e+00
-1.0168498168e+01   0.0000000000e+00
-1.0148962149e+01   0.0000000000e+00
-1.0129426129e+01   0.0000000000e+00
-1.0109890110e+01   0.0000000000e+00
-1.0090354090e+01   0.0000000000e+00
-1.0070818071e+01   0.0000000000e+00
-1.0051282051e+01   0.0000000000e+00
-1.0031746032e+01   0.0000000000e+00
-1.0012210012e+01   0.0000000000e+00
-9.9926739927e+00   0.0000000000e+00
-9.9731379731e+00   0.0000000000e+00
-9.9536019536e+00   0.0000000000e+00
-9.9340659341e+00   0.0000000000e+00
-9.9145299145e+00   0.0000000000e+00
-9.8949938950e+00   0.0000000000e+00
-9.8754578755e+00   0.0000000000e+00
-9.8559218559e+00   0.0000000000e+00
-9.8363858364e+00   0.0000000000e+00
-9.8168498168e+00   0.0000000000e+00
-9.7973137973e+00   0.0000000000e+00
-9.7777777778e+00   0.0000000000e+00
-9.7582417582e+00   0.0000000000e+00
-9.7387057387e+00   0.0000000000e+00
-9.7191697192e+00   0.0000000000e+00
-9.6996336996e+00   0.0000000000e+00
-9.6800976801e+00   0.0000000000e+00
-9.6605616606e+00   0.0000000000e+00
-9.6410256410e+00   0.0000000000e+00
-9.6214896215e+00   0.0000000000e+00
-9.6019536020e+00   0.0000000000e+00
-9.5824175824e+00   0.0000000000e+00
-9.5628815629e+00   0.0000000000e+00
-9.5433455433e+00   0.0000000000e+00
-9.5238095238e+00   0.0000000000e+00
-9.5042735043e+00   0.0000000000e+00
-9.4847374847e+00   0.0000000000e+00
-9.4652014652e+00   0.0000000000e+00
-9.4456654457e+00   0.0000000000e+00
-9.4261294261e+00   0.0000000000e+00
-9.4065934066e+00   0.0000000000e+00
-9.3870573871e+00   0.0000000000e+00
-9.3675213675e+00   0.0000000000e+00
-9.3479853480e+00   0.0000000000e+00
-9.3284493284e+00   0.0000000000e+00
-9.3089133089e+00   0.0000000000e+00
-9.2893772894e+00   0.0000000000e+00
-9.2698412698e+00   0.0000000000e+00
-9.2503052503e+00   0.0000000000e+00
-9.2307692308e+00   0.0000000000e+00
-9.2112332112e+00   0.0000000000e+00
-9.1916971917e+00   0.0000000000e+00
-9.1721611722e+00   0.0000000000e+00
-9.1526251526e+00   0.0000000000e+00
-9.1330891331e+00   0.0000000000e+00
-9.1135531136e+00   0.0000000000e+00
-9.0940170940e+00   0.0000000000e+00
-9.0744810745e+00   0.0000000000e+00
-9.0549450549e+00   0.0000000000e+00
-9.0354090354e+00   0.0000000000e+00
-9.0158730159e+00   0.0000000000e+00
-8.9963369963e+00   0.0000000000e+00
-8.9768009768e+00   0.0000000000e+00
-8.9572649573e+00   0.0000000000e+00
-8.9377289377e+00   0.0000000000e+00
-8.9181929182e+00   0.0000000000e+00
-8.8986568987e+00   0.0000000000e+00
-8.8791208791e+00   0.0000000000e+00
-8.8595848596e+00   0.0000000000e+00
-8.8400488400e+00   0.0000000000e+00
-8.8205128205e+00   0.0000000000e+00
-8.8009768010e+00   0.0000000000e+00
-8.7814407814e+00   0.0000000000e+00
-8.7619047619e+00   0.0000000000e+00
-8.7423687424e+00   0.0000000000e+00
-8.7228327228e+00   0.0000000000e+00
-8.7032967033e+00   0.0000000000e+00
-8.6837606838e+00   0.0000000000e+00
-8.6642246642e+00   0.0000000000e+00
-8.6446886447e+00   0.0000000000e+00
-8.6251526252e+00   0.0000000000e+00
-8.6056166056e+00   0.0000000000e+00
-8.5860805861e+00   0.0000000000e+00
-8.5665445665e+00   0.0000000000e+00
-8.5470085470e+00   0.0000000000e+00
-8.5274725275e+00   0.0000000000e+00
-8.5079365079e+00   0.0000000000e+00
-8.4884004884e+00   0.0000000000e+00
-8.4688644689e+00   0.0000000000e+00
-8.4493284493e+00   0.0000000000e+00
-8.4297924298e+00   0.0000000000e+00
-8.4102564103e+00   0.0000000000e+00
-8.3907203907e+00   0.0000000000e+00
-8.3711843712e+00   0.0000000000e+00
-8.3516483516e+00   0.0000000000e+00
-8.3321123321e+00   0.0000000000e+00
-8.3125763126e+00   0.0000000000e+00
-8.2930402930e+00   0.0000000000e+00
-8.2735042735e+00   0.0000000000e+00
-8.2539682540e+00   0.0000000000e+00
-8.2344322344e+00   0.0000000000e+00
-8.2148962149e+00   0.0000000000e+00
-8.1953601954e+00   0.0000000000e+00
-8.1758241758e+00   0.0000000000e+00
-8.1562881563e+00   0.0000000000e+00
-8.1367521368e+00   0.0000000000e+00
-8.1172161172e+00   0.0000000000e+00
-8.0976800977e+00   0.0000000000e+00
-8.0781440781e+00   0.0000000000e+00
-8.0586080586e+00   0.0000000000e+00
-8.0390720391e+00   0.0000000000e+00
-8.0195360195e+00   0.0000000000e+00
-8.0000000000e+00   0.0000000000e+00
-7.9804639805e+00   0.0000000000e+00
-7.9609279609e+00   0.0000000000e+00
-7.9413919414e+00   0.0000000000e+00
-7.9218559219e+00   0.0000000000e+00
-7.9023199023e+00   0.0000000000e+00
-7.8827838828e+00   0.0000000000e+00
-7.8632478632e+00   0.0000000000e+00
-7.8437118437e+00   0.0000000000e+00
-7.8241758242e+00   0.0000000000e+00
-7.8046398046e+00   0.0000000000e+00
-7.7851037851e+00   0.0000000000e+00
-7.7655677656e+00   0.0000000000e+00
-7.7460317460e+00   0.0000000000e+00
-7.7264957265e+00   0.0000000000e+00
-7.7069597070e+00   0.0000000000e+00
-7.6874236874e+00   0.0000000000e+00
-7.6678876679e+00   0.0000000000e+00
-7.6483516484e+00   0.0000000000e+00
-7.6288156288e+00   0.0000000000e+00
-7.6092796093e+00   0.0000000000e+00
-7.5897435897e+00   0.0000000000e+00
-7.5702075702e+00   0.0000000000e+00
-7.5506715507e+00   0.0000000000e+00
-7.5311355311e+00   0.0000000000e+00
-7.5115995116e+00   0.0000000000e+00
-7.4920634921e+00   0.0000000000e+00
-7.4725274725e+00   0.0000000000e+00
-7.4529914530e+00   0.0000000000e+00
-7.4334554335e+00   0.0000000000e+00
-7.4139194139e+00   0.0000000000e+00
-7.3943833944e+00   0.0000000000e+00
-7.3748473748e+00   0.0000000000e+00
-7.3553113553e+00   0.0000000000e+00
-7.3357753358e+00   0.0000000000e+00
-7.3162393162e+00   0.0000000000e+00
-7.2967032967e+00   0.0000000000e+00
-7.2771672772e+00   0.0000000000e+00
-7.2576312576e+00   0.0000000000e+00
-7.2380952381e+00   0.0000000000e+00
-7.2185592186e+00   0.0000000000e+00
-7.1990231990e+00   0.0000000000e+00
-7.1794871795e+00   0.0000000000e+00
-7.1599511600e+00   0.0000000000e+00
-7.1404151404e+00   0.0000000000e+00
-7.1208791209e+00   0.0000000000e+00
-7.1013431013e+00   0.0000000000e+00
-7.0818070818e+00   0.0000000000e+00
-7.0622710623e+00   0.0000000000e+00
-7.0427350427e+00   0.0000000000e+00
-7.0231990232e+00   0.0000000000e+00
-7.0036630037e+00   0.0000000000e+00
-6.9841269841e+00   0.0000000000e+00
-6.9645909646e+00   0.0000000000e+00
-6.9450549451e+00   0.0000000000e+00
-6.9255189255e+00   0.0000000000e+00
-6.9059829060e+00   0.0000000000e+00
-6.8864468864e+00   0.0000000000e+00
-6.8669108669e+00   0.0000000000e+00
-6.8473748474e+00   0.0000000000e+00
-6.8278388278e+00   0.0000000000e+00
-6.8083028083e+00   0.0000000000e+00
-6.7887667888e+00   0.0000000000e+00
-6.7692307692e+00   0.0000000000e+00
-6.7496947497e+00   0.0000000000e+00
-6.7301587302e+00   0.0000000000e+00
-6.7106227106e+00   0.0000000000e+00
-6.6910866911e+00   0.0000000000e+00
-6.6715506716e+00   0.0000000000e+00
-6.6520146520e+00   0.0000000000e+00
-6.6324786325e+00   0.0000000000e+00
-6.6129426129e+00   0.0000000000e+00
-6.5934065934e+00   0.0000000000e+00
-6.5738705739e+00   0.0000000000e+00
-6.5543345543e+00   0.0000000000e+00
-6.5347985348e+00   0.0000000000e+00
-6.5152625153e+00   0.0000000000e+00
-6.4957264957e+00   0.0000000000e+00
-6.4761904762e+00   0.0000000000e+00
-6.4566544567e+00   0.0000000000e+00
-6.4371184371e+00   0.0000000000e+00
-6.4175824176e+00   0.0000000000e+00
-6.3980463980e+00   0.0000000000e+00
-6.3785103785e+00   0.0000000000e+00
-6.3589743590e+00   0.0000000000e+00
-6.3394383394e+00   0.0000000000e+00
-6.3199023199e+00   0.0000000000e+00
-6.3003663004e+00   0.0000000000e+00
-6.2808302808e+00   0.0000000000e+00
-6.2612942613e+00   0.0000000000e+00
-6.2417582418e+00   0.0000000000e+00
-6.2222222222e+00   0.0000000000e+00
-6.2026862027e+00   0.0000000000e+00
-6.1831501832e+00   0.0000000000e+00
-6.1636141636e+00   0.0000000000e+00
-6.1440781441e+00   0.0000000000e+00
-6.1245421245e+00   0.0000000000e+00
-6.1050061050e+00   0.0000000000e+00
-6.0854700855e+00   0.0000000000e+00
-6.0659340659e+00   0.0000000000e+00
-6.0463980464e+00   0.0000000000e+00
-6.0268620269e+00   0.0000000000e+00
-6.0073260073e+00   0.0000000000e+00
-5.9877899878e+00   0.0000000000e+00
-5.9682539683e+00   0.0000000000e+00
-5.9487179487e+00   0.0000000000e+00
-5.9291819292e+00   0.0000000000e+00
-5.9096459096e+00   0.0000000000e+00
-5.8901098901e+00   0.0000000000e+00
-5.8705738706e+00   0.0000000000e+00
-5.8510378510e+00   0.0000000000e+00
-5.8315018315e+00   0.0000000000e+00
-5.8119658120e+00   0.0000000000e+00
-5.7924297924e+00   0.0000000000e+00
-5.7728937729e+00   0.0000000000e+00
-5.7533577534e+00   0.0000000000e+00
-5.7338217338e+00   0.0000000000e+00
-5.7142857143e+00   0.0000000000e+00
-5.6947496947e+00   0.0000000000e+00
-5.6752136752e+00   0.0000000000e+00
-5.6556776557e+00   0.0000000000e+00
-5.6361416361e+00   0.0000000000e+00
-5.6166056166e+00   0.0000000000e+00
-5.5970695971e+00   0.0000000000e+00
-5.5775335775e+00   0.0000000000e+00
-5.5579975580e+00   0.0000000000e+00
-5.5384615385e+00   0.0000000000e+00
-5.5189255189e+00   0.0000000000e+00
-5.4993894994e+00   0.0000000000e+00
-5.4798534799e+00   0.0000000000e+00
-5.4603174603e+00   0.0000000000e+00
-5.4407814408e+00   0.0000000000e+00
-5.4212454212e+00   0.0000000000e+00
-5.4017094017e+00   0.0000000000e+00
-5.3821733822e+00   0.0000000000e+00
-5.3626373626e+00   0.0000000000e+00
-5.3431013431e+00   0.0000000000e+00
-5.3235653236e+00   0.0000000000e+00
-5.3040293040e+00   0.0000000000e+00
-5.2844932845e+00   0.0000000000e+00
-5.2649572650e+00   0.0000000000e+00
-5.2454212454e+00   0.0000000000e+00
-5.2258852259e+00   0.0000000000e+00
-5.2063492063e+00   0.0000000000e+00
-5.1868131868e+00   0.0000000000e+00
-5.1672771673e+00   0.0000000000e+00
-5.1477411477e+00   0.0000000000e+00
-5.1282051282e+00   0.0000000000e+00
-5.1086691087e+00   0.0000000000e+00
-5.0891330891e+00   0.0000000000e+00
-5.0695970696e+00   0.0000000000e+00
-5.0500610501e+00   0.0000000000e+00
-5.0305250305e+00   0.0000000000e+00
-5.0109890110e+00   0.0000000000e+00
-4.9914529915e+00   0.0000000000e+00
-4.9719169719e+00   0.0000000000e+00
-4.9523809524e+00   0.0000000000e+00
-4.9328449328e+00   0.0000000000e+00
-4.9133089133e+00   0.0000000000e+00
-4.8937728938e+00   0.0000000000e+00
-4.8742368742e+00   0.0000000000e+00
-4.8547008547e+00   0.0000000000e+00
-4.8351648352e+00   0.0000000000e+00
-4.8156288156e+00   0.0000000000e+00
-4.7960927961e+00   0.0000000000e+00
-4.7765567766e+00   0.0000000000e+00
-4.7570207570e+00   0.0000000000e+00
-4.7374847375e+00   0.0000000000e+00
-4.7179487179e+00   0.0000000000e+00
-4.6984126984e+00   0.0000000000e+00
-4.6788766789e+00   0.0000000000e+00
-4.6593406593e+00   0.0000000000e+00
-4.6398046398e+00   0.0000000000e+00
-4.6202686203e+00   0.0000000000e+00
-4.6007326007e+00   0.0000000000e+00
-4.5811965812e+00   0.0000000000e+00
-4.5616605617e+00   0.0000000000e+00
-4.5421245421e+00   0.0000000000e+00
-4.5225885226e+00   0.0000000000e+00
-4.5030525031e+00   0.0000000000e+00
-4.4835164835e+00   0.0000000000e+00
-4.4639804640e+00   0.0000000000e+00
-4.4444444444e+00   0.0000000000e+00
-4.4249084249e+00   0.0000000000e+00
-4.4053724054e+00   0.0000000000e+00
-4.3858363858e+00   0.0000000000e+00
-4.3663003663e+00   0.0000000000e+00
-4.3467643468e+00   0.0000000000e+00
-4.3272283272e+00   0.0000000000e+00
-4.3076923077e+00   0.0000000000e+00
-4.2881562882e+00   0.0000000000e+00
-4.2686202686e+00   0.0000000000e+00
-4.2490842491e+00   0.0000000000e+00
-4.2295482295e+00   0.0000000000e+00
-4.2100122100e+00   0.0000000000e+00
-4.1904761905e+00   0.0000000000e+00
-4.1709401709e+00   0.0000000000e+00
-4.1514041514e+00   0.0000000000e+00
-4.1318681319e+00   0.0000000000e+00
-4.1123321123e+00   0.0000000000e+00
-4.0927960928e+00   0.0000000000e+00
-4.0732600733e+00   0.0000000000e+00
-4.0537240537e+00   0.0000000000e+00
-4.0341880342e+00   0.0000000000e+00
-4.0146520147e+00   0.0000000000e+00
-3.9951159951e+00   0.0000000000e+00
-3.9755799756e+00   0.0000000000e+00
-3.9560439560e+00   0.0000000000e+00
-3.9365079365e+00   0.0000000000e+00
-3.9169719170e+00   0.0000000000e+00
-3.8974358974e+00   0.0000000000e+00
-3.8778998779e+00   0.0000000000e+00
-3.8583638584e+00   0.0000000000e+00
-3.8388278388e+00   0.0000000000e+00
-3.8192918193e+00   0.0000000000e+00
-3.7997557998e+00   0.0000000000e+00
-3.7802197802e+00   0.0000000000e+00
-3.7606837607e+00   0.0000000000e+00
-3.7411477411e+00   0.0000000000e+00
-3.7216117216e+00   0.0000000000e+00
-3.7020757021e+00   0.0000000000e+00
-3.6825396825e+00   0.0000000000e+00
-3.6630036630e+00   0.0000000000e+00
-3.6434676435e+00   0.0000000000e+00
-3.6239316239e+00   0.0000000000e+00
-3.6043956044e+00   0.0000000000e+00
-3.5848595849e+00   0.0000000000e+00
-3.5653235653e+00   0.0000000000e+00
-3.5457875458e+00   0.0000000000e+00
-3.5262515263e+00   0.0000000000e+00
-3.5067155067e+00   0.0000000000e+00
-3.4871794872e+00   0.0000000000e+00
-3.4676434676e+00   0.0000000000e+00
-3.4481074481e+00   0.0000000000e+00
-3.4285714286e+00   0.0000000000e+00
-3.4090354090e+00   0.0000000000e+00
-3.3894993895e+00   0.0000000000e+00
-3.3699633700e+00   0.0000000000e+00
-3.3504273504e+00   0.0000000000e+00
-3.3308913309e+00   0.0000000000e+00
-3.3113553114e+00   0.0000000000e+00
-3.2918192918e+00   0.0000000000e+00
-3.2722832723e+00   0.0000000000e+00
-3.2527472527e+00   0.0000000000e+00
-3.2332112332e+00   0.0000000000e+00
-3.2136752137e+00   0.0000000000e+00
-3.1941391941e+00   0.0000000000e+00
-3.1746031746e+00   0.0000000000e+00
-3.1550671551e+00   0.0000000000e+00
-3.1355311355e+00   0.0000000000e+00
-3.1159951160e+00   0.0000000000e+00
-3.0964590965e+00   0.0000000000e+00
-3.0769230769e+00   0.0000000000e+00
-3.0573870574e+00   0.0000000000e+00
-3.0378510379e+00   0.0000000000e+00
-3.0183150183e+00   0.0000000000e+00
-2.9987789988e+00   0.0000000000e+00
-2.9792429792e+00   0.0000000000e+00
-2.9597069597e+00   0.0000000000e+00
-2.9401709402e+00   0.0000000000e+00
-2.9206349206e+00   0.0000000000e+00
-2.9010989011e+00   0.0000000000e+00
-2.8815628816e+00   0.0000000000e+00
-2.8620268620e+00   0.0000000000e+00
-2.8424908425e+00   0.0000000000e+00
-2.8229548230e+00   0.0000000000e+00
-2.8034188034e+00   0.0000000000e+00
-2.7838827839e+00   0.0000000000e+00
-2.7643467643e+00   0.0000000000e+00
-2.7448107448e+00   0.0000000000e+00
-2.7252747253e+00   0.0000000000e+00
-2.7057387057e+00   0.0000000000e+00
-2.6862026862e+00   0.0000000000e+00
-2.6666666667e+00   0.0000000000e+00
-2.6471306471e+00   0.0000000000e+00
-2.6275946276e+00   0.0000000000e+00
-2.6080586081e+00   0.0000000000e+00
-2.5885225885e+00   0.0000000000e+00
-2.5689865690e+00   0.0000000000e+00
-2.5494505495e+00   0.0000000000e+00
-2.5299145299e+00   0.0000000000e+00
-2.5103785104e+00   0.0000000000e+00
-2.4908424908e+00   0.0000000000e+00
-2.4713064713e+00   0.0000000000e+00
-2.4517704518e+00   0.0000000000e+00
-2.4322344322e+00   0.0000000000e+00
-2.4126984127e+00   0.0000000000e+00
-2.3931623932e+00   0.0000000000e+00
-2.3736263736e+00   0.0000000000e+00
-2.3540903541e+00   0.0000000000e+00
-2.3345543346e+00   0.0000000000e+00
-2.3150183150e+00   0.0000000000e+00
-2.2954822955e+00   0.0000000000e+00
-2.2759462759e+00   0.0000000000e+00
-2.2564102564e+00   0.0000000000e+00
-2.2368742369e+00   0.0000000000e+00
-2.2173382173e+00   0.0000000000e+00
-2.1978021978e+00   0.0000000000e+00
-2.1782661783e+00   0.0000000000e+00
-2.1587301587e+00   0.0000000000e+00
-2.1391941392e+00   0.0000000000e+00
-2.1196581197e+00   0.0000000000e+00
-2.1001221001e+00   0.0000000000e+00
-2.0805860806e+00   0.0000000000e+00
-2.0610500611e+00   0.0000000000e+00
-2.0415140415e+00   0.0000000000e+00
-2.0219780220e+00   0.0000000000e+00
-2.0024420024e+00   0.0000000000e+00
-1.9829059829e+00   0.0000000000e+00
-1.9633699634e+00   0.0000000000e+00
-1.9438339438e+00   0.0000000000e+00
-1.9242979243e+00   0.0000000000e+00
-1.9047619048e+00   0.0000000000e+00
-1.8852258852e+00   0.0000000000e+00
-1.8656898657e+00   0.0000000000e+00
-1.8461538462e+00   0.0000000000e+00
-1.8266178266e+00   0.0000000000e+00
-1.8070818071e+00   0.0000000000e+00
-1.7875457875e+00   0.0000000000e+00
-1.7680097680e+00   0.0000000000e+00
-1.7484737485e+00   0.0000000000e+00
-1.7289377289e+00   0.0000000000e+00
-1.7094017094e+00   0.0000000000e+00
-1.6898656899e+00   0.0000000000e+00
-1.6703296703e+00   0.0000000000e+00
-1.6507936508e+00   0.0000000000e+00
-1.6312576313e+00   0.0000000000e+00
-1.6117216117e+00   0.0000000000e+00
-1.5921855922e+00   0.0000000000e+00
-1.5726495726e+00   0.0000000000e+00
-1.5531135531e+00   0.0000000000e+00
-1.5335775336e+00   0.0000000000e+00
-1.5140415140e+00   0.0000000000e+00
-1.4945054945e+00   0.0000000000e+00
-1.4749694750e+00   0.0000000000e+00
-1.4554334554e+00   0.0000000000e+00
-1.4358974359e+00   0.0000000000e+00
-1.4163614164e+00   0.0000000000e+00
-1.3968253968e+00   0.0000000000e+00
-1.3772893773e+00   0.0000000000e+00
-1.3577533578e+00   0.0000000000e+00
-1.3382173382e+00   0.0000000000e+00
-1.3186813187e+00   0.0000000000e+00
-1.2991452991e+00   0.0000000000e+00
-1.2796092796e+00   0.0000000000e+00
-1.2600732601e+00   0.0000000000e+00
-1.2405372405e+00   0.0000000000e+00
-1.2210012210e+00   0.0000000000e+00
-1.2014652015e+00   0.0000000000e+00
-1.1819291819e+00   0.0000000000e+00
-1.1623931624e+00   0.0000000000e+00
-1.1428571429e+00   0.0000000000e+00
-1.1233211233e+00   0.0000000000e+00
-1.1037851038e+00   0.0000000000e+00
-1.0842490842e+00   0.0000000000e+00
-1.0647130647e+00   0.0000000000e+00
-1.0451770452e+00   0.0000000000e+00
-1.0256410256e+00   0.0000000000e+00
-1.0061050061e+00   0.0000000000e+00
-9.8656898657e-01   0.0000000000e+00
-9.6703296703e-01   0.0000000000e+00
-9.4749694750e-01   0.0000000000e+00
-9.2796092796e-01   0.0000000000e+00
-9.0842490842e-01   0.0000000000e+00
-8.8888888889e-01   0.0000000000e+00
-8.6935286935e-01   0.0000000000e+00
-8.4981684982e-01   0.0000000000e+00
-8.3028083028e-01   0.0000000000e+00
-8.1074481074e-01   0.0000000000e+00
-7.9120879121e-01   0.0000000000e+00
-7.7167277167e-01   0.0000000000e+00
-7.5213675214e-01   0.0000000000e+00
-7.3260073260e-01   0.0000000000e+00
-7.1306471306e-01   0.0000000000e+00
-6.9352869353e-01   0.0000000000e+00
-6.7399267399e-01   0.0000000000e+00
-6.5445665446e-01   0.0000000000e+00
-6.3492063492e-01   0.0000000000e+00
-6.1538461538e-01   0.0000000000e+00
-5.9584859585e-01   0.0000000000e+00
-5.7631257631e-01   0.0000000000e+00
-5.5677655678e-01   0.0000000000e+00
-5.3724053724e-01   0.0000000000e+00
-5.1770451770e-01   0.0000000000e+00
-4.9816849817e-01   0.0000000000e+00
-4.7863247863e-01   0.0000000000e+00
-4.5909645910e-01   0.0000000000e+00
-4.3956043956e-01   0.0000000000e+00
-4.2002442002e-01   0.0000000000e+00
-4.0048840049e-01   0.0000000000e+00
-3.8095238095e-01   0.0000000000e+00
-3.6141636142e-01   0.0000000000e+00
-3.4188034188e-01   0.0000000000e+00
-3.2234432234e-01   0.0000000000e+00
-3.0280830281e-01   0.0000000000e+00
-2.8327228327e-01   0.0000000000e+00
-2.6373626374e-01   0.0000000000e+00
-2.4420024420e-01   0.0000000000e+00
-2.2466422466e-01   0.0000000000e+00
-2.0512820513e-01   0.0000000000e+00
-1.8559218559e-01   0.0000000000e+00
-1.6605616606e-01   0.0000000000e+00
-1.4652014652e-01   0.0000000000e+00
-1.2698412698e-01   0.0000000000e+00
-1.0744810745e-01   0.0000000000e+00
-8.7912087912e-02   0.0000000000e+00
-6.8376068376e-02   0.0000000000e+00
-4.8840048840e-02   0.0000000000e+00
-2.9304029304e-02   0.0000000000e+00
-9.7680097680e-03   0.0000000000e+00
9.7680097680e-03   0.0000000000e+00
2.9304029304e-02   0.0000000000e+00
4.8840048840e-02   0.0000000000e+00
6.8376068376e-02   0.0000000000e+00
8.7912087912e-02   0.0000000000e+00
1.0744810745e-01   0.0000000000e+00
1.2698412698e-01   0.0000000000e+00
1.4652014652e-01   0.0000000000e+00
1.6605616606e-01   0.0000000000e+00
1.8559218559e-01   0.0000000000e+00
2.0512820513e-01   0.0000000000e+00
2.2466422466e-01   0.0000000000e+00
2.4420024420e-01   0.0000000000e+00
2.6373626374e-01   0.0000000000e+00
2.8327228327e-01   0.0000000000e+00
3.0280830281e-01   0.0000000000e+00
3.2234432234e-01   0.0000000000e+00
3.4188034188e-01   0.0000000000e+00
3.6141636142e-01   0.0000000000e+00
3.8095238095e-01   0.0000000000e+00
4.0048840049e-01   0.0000000000e+00
4.2002442002e-01   0.0000000000e+00
4.3956043956e-01   0.0000000000e+00
4.5909645910e-01   0.0000000000e+00
4.7863247863e-01   0.0000000000e+00
4.9816849817e-01   0.0000000000e+00
5.1770451770e-01   0.0000000000e+00
5.3724053724e-01   0.0000000000e+00
5.5677655678e-01   0.0000000000e+00
5.7631257631e-01   0.0000000000e+00
5.9584859585e-01   0.0000000000e+00
6.1538461538e-01   0.0000000000e+00
6.3492063492e-01   0.0000000000e+00
6.5445665446e-01   0.0000000000e+00
6.7399267399e-01   0.0000000000e+00
6.9352869353e-01   0.0000000000e+00
7.1306471306e-01   0.0000000000e+00
7.3260073260e-01   0.0000000000e+00
7.5213675214e-01   0.0000000000e+00
7.7167277167e-01   0.0000000000e+00
7.9120879121e-01   0.0000000000e+00
8.1074481074e-01   0.0000000000e+00
8.3028083028e-01   0.0000000000e+00
8.4981684982e-01   0.0000000000e+00
8.6935286935e-01   0.0000000000e+00
8.8888888889e-01   0.0000000000e+00
9.0842490842e-01   0.0000000000e+00
9.2796092796e-01   0.0000000000e+00
9.4749694750e-01   0.0000000000e+00
9.6703296703e-01   0.0000000000e+00
9.8656898657e-01   0.0000000000e+00
1.0061050061e+00   0.0000000000e+00
1.0256410256e+00   0.0000000000e+00
1.0451770452e+00   0.0000000000e+00
1.0647130647e+00   0.0000000000e+00
1.0842490842e+00   0.0000000000e+00
1.1037851038e+00   0.0000000000e+00
1.1233211233e+00   0.0000000000e+00
1.1428571429e+00   0.0000000000e+00
1.1623931624e+00   0.0000000000e+00
1.1819291819e+00   0.0000000000e+00
1.2014652015e+00   0.0000000000e+00
1.2210012210e+00   0.0000000000e+00
1.2405372405e+00   0.0000000000e+00
1.2600732601e+00   0.0000000000e+00
1.2796092796e+00   0.0000000000e+00
1.2991452991e+00   0.0000000000e+00
1.3186813187e+00   0.0000000000e+00
1.3382173382e+00   0.0000000000e+00
1.3577533578e+00   0.0000000000e+00
1.3772893773e+00   0.0000000000e+00
1.3968253968e+00   0.0000000000e+00
1.4163614164e+00   0.0000000000e+00
1.4358974359e+00   0.0000000000e+00
1.4554334554e+00   0.0000000000e+00
1.4749694750e+00   0.0000000000e+00
1.4945054945e+00   0.0000000000e+00
1.5140415140e+00   0.0000000000e+00
1.5335775336e+00   0.0000000000e+00
1.5531135531e+00   0.0000000000e+00
1.5726495726e+00   0.0000000000e+00
1.5921855922e+00   0.0000000000e+00
1.6117216117e+00   0.0000000000e+00
1.6312576313e+00   0.0000000000e+00
1.6507936508e+00   0.0000000000e+00
1.6703296703e+00   0.0000000000e+00
1.6898656899e+00   0.0000000000e+00
1.7094017094e+00   0.0000000000e+00
1.7289377289e+00   0.0000000000e+00
1.7484737485e+00   0.0000000000e+00
1.7680097680e+00   0.0000000000e+00
1.7875457875e+00   0.0000000000e+00
1.8070818071e+00   0.0000000000e+00
1.8266178266e+00   0.0000000000e+00
1.8461538462e+00   0.0000000000e+00
1.8656898657e+00   0.0000000000e+00
1.8852258852e+00   0.0000000000e+00
1.9047619048e+00   0.0000000000e+00
1.9242979243e+00   0.0000000000e+00
1.9438339438e+00   0.0000000000e+00
1.9633699634e+00   0.0000000000e+00
1.9829059829e+00   0.0000000000e+00
2.0024420024e+00   0.0000000000e+00
2.0219780220e+00   0.0000000000e+00
2.0415140415e+00   0.0000000000e+00
2.0610500611e+00   0.0000000000e+00
2.0805860806e+00   0.0000000000e+00
2.1001221001e+00   0.0000000000e+00
2.1196581197e+00   0.0000000000e+00
2.1391941392e+00   0.0000000000e+00
2.1587301587e+00   0.0000000000e+00
2.1782661783e+00   0.0000000000e+00
2.1978021978e+00   0.0000000000e+00
2.2173382173e+00   0.0000000000e+00
2.2368742369e+00   0.0000000000e+00
2.2564102564e+00   0.0000000000e+00
2.2759462759e+00   0.0000000000e+00
2.2954822955e+00   0.0000000000e+00
2.3150183150e+00   0.0000000000e+00
2.3345543346e+00   0.0000000000e+00
2.3540903541e+00   0.0000000000e+00
2.3736263736e+00   0.0000000000e+00
2.3931623932e+00   0.0000000000e+00
2.4126984127e+00   0.0000000000e+00
2.4322344322e+00   0.0000000000e+00
2.4517704518e+00   0.0000000000e+00
2.4713064713e+00   0.0000000000e+00
2.4908424908e+00   0.0000000000e+00
2.5103785104e+00   0.0000000000e+00
2.5299145299e+00   0.0000000000e+00
2.5494505495e+00   0.0000000000e+00
2.5689865690e+00   0.0000000000e+00
2.5885225885e+00   0.0000000000e+00
2.6080586081e+00   0.0000000000e+00
2.6275946276e+00   0.0000000000e+00
2.6471306471e+00   0.0000000000e+00
2.6666666667e+00   0.0000000000e+00
2.6862026862e+00   0.0000000000e+00
2.7057387057e+00   0.0000000000e+00
2.7252747253e+00   0.0000000000e+00
2.7448107448e+00   0.0000000000e+00
2.7643467643e+00   0.0000000000e+00
2.7838827839e+00   0.0000000000e+00
2.8034188034e+00   0.0000000000e+00
2.8229548230e+00   0.0000000000e+00
2.8424908425e+00   0.0000000000e+00
2.8620268620e+00   0.0000000000e+00
2.8815628816e+00   0.0000000000e+00
2.9010989011e+00   0.0000000000e+00
2.9206349206e+00   0.0000000000e+00
2.9401709402e+00   0.0000000000e+00
2.9597069597e+00   0.0000000000e+00
2.9792429792e+00   0.0000000000e+00
2.9987789988e+00   0.0000000000e+00
3.0183150183e+00   0.0000000000e+00
3.0378510379e+00   0.0000000000e+00
3.0573870574e+00   0.0000000000e+00
3.0769230769e+00   0.0000000000e+00
3.0964590965e+00   0.0000000000e+00
3.1159951160e+00   0.0000000000e+00
3.1355311355e+00   0.0000000000e+00
3.1550671551e+00   0.0000000000e+00
3.1746031746e+00   0.0000000000e+00
3.1941391941e+00   0.0000000000e+00
3.2136752137e+00   0.0000000000e+00
3.2332112332e+00   0.0000000000e+00
3.2527472527e+00   0.0000000000e+00
3.2722832723e+00   0.0000000000e+00
3.2918192918e+00   0.0000000000e+00
3.3113553114e+00   0.0000000000e+00
3.3308913309e+00   0.0000000000e+00
3.3504273504e+00   0.0000000000e+00
3.3699633700e+00   0.0000000000e+00
3.3894993895e+00   0.0000000000e+00
3.4090354090e+00   0.0000000000e+00
3.4285714286e+00   0.0000000000e+00
3.4481074481e+00   0.0000000000e+00
3.4676434676e+00   0.0000000000e+00
3.4871794872e+00   0.0000000000e+00
3.5067155067e+00   0.0000000000e+00
3.5262515263e+00   0.0000000000e+00
3.5457875458e+00   0.0000000000e+00
3.5653235653e+00   0.0000000000e+00
3.5848595849e+00   0.0000000000e+00
3.6043956044e+00   0.0000000000e+00
3.6239316239e+00   0.0000000000e+00
3.6434676435e+00   0.0000000000e+00
3.6630036630e+00   0.0000000000e+00
3.6825396825e+00   0.0000000000e+00
3.7020757021e+00   0.0000000000e+00
3.7216117216e+00   0.0000000000e+00
3.7411477411e+00   0.0000000000e+00
3.7606837607e+00   0.0000000000e+00
3.7802197802e+00   0.0000000000e+00
3.7997557998e+00   0.0000000000e+00
3.8192918193e+00   0.0000000000e+00
3.8388278388e+00   0.0000000000e+00
3.8583638584e+00   0.0000000000e+00
3.8778998779e+00   0.0000000000e+00
3.8974358974e+00   0.0000000000e+00
3.9169719170e+00   0.0000000000e+00
3.9365079365e+00   0.0000000000e+00
3.9560439560e+00   0.0000000000e+00
3.9755799756e+00   0.0000000000e+00
3.9951159951e+00   0.0000000000e+00
4.0146520147e+00   0.0000000000e+00
4.0341880342e+00   0.0000000000e+00
4.0537240537e+00   0.0000000000e+00
4.0732600733e+00   0.0000000000e+00
4.0927960928e+00   0.0000000000e+00
4.1123321123e+00   0.0000000000e+00
4.1318681319e+00   0.0000000000e+00
4.1514041514e+00   0.0000000000e+00
4.1709401709e+00   0.0000000000e+00
4.1904761905e+00   0.0000000000e+00
4.2100122100e+00   0.0000000000e+00
4.2295482295e+00   0.0000000000e+00
4.2490842491e+00   0.0000000000e+00
4.2686202686e+00   0.0000000000e+00
4.2881562882e+00   0.0000000000e+00
4.3076923077e+00   0.0000000000e+00
4.3272283272e+00   0.0000000000e+00
4.3467643468e+00   0.0000000000e+00
4.3663003663e+00   0.0000000000e+00
4.3858363858e+00   0.0000000000e+00
4.4053724054e+00   0.0000000000e+00
4.4249084249e+00   0.0000000000e+00
4.4444444444e+00   0.0000000000e+00
4.4639804640e+00   0.0000000000e+00
4.4835164835e+00   0.0000000000e+00
4.5030525031e+00   0.0000000000e+00
4.5225885226e+00   0.0000000000e+00
4.5421245421e+00   0.0000000000e+00
4.5616605617e+00   0.0000000000e+00
4.5811965812e+00   0.0000000000e+00
4.6007326007e+00   0.0000000000e+00
4.6202686203e+00   0.0000000000e+00
4.6398046398e+00   0.0000000000e+00
4.6593406593e+00   0.0000000000e+00
4.6788766789e+00   0.0000000000e+00
4.6984126984e+00   0.0000000000e+00
4.7179487179e+00   0.0000000000e+00
4.7374847375e+00   0.0000000000e+00
4.7570207570e+00   0.0000000000e+00
4.7765567766e+00   0.0000000000e+00
4.7960927961e+00   0.0000000000e+00
4.8156288156e+00   0.0000000000e+00
4.8351648352e+00   0.0000000000e+00
4.8547008547e+00   0.0000000000e+00
4.8742368742e+00   0.0000000000e+00
4.8937728938e+00   0.0000000000e+00
4.9133089133e+00   0.0000000000e+00
4.9328449328e+00   0.0000000000e+00
4.9523809524e+00   0.0000000000e+00
4.9719169719e+00   0.0000000000e+00
4.9914529915e+00   0.0000000000e+00
5.0109890110e+00   0.0000000000e+00
5.0305250305e+00   0.0000000000e+00
5.0500610501e+00   0.0000000000e+00
5.0695970696e+00   0.0000000000e+00
5.0891330891e+00   0.0000000000e+00
5.1086691087e+00   0.0000000000e+00
5.1282051282e+00   0.0000000000e+00
5.1477411477e+00   0.0000000000e+00
5.1672771673e+00   0.0000000000e+00
5.1868131868e+00   0.0000000000e+00
5.2063492063e+00   0.0000000000e+00
5.2258852259e+00   0.0000000000e+00
5.2454212454e+00   0.0000000000e+00
5.2649572650e+00   0.0000000000e+00
5.2844932845e+00   0.0000000000e+00
5.3040293040e+00   0.0000000000e+00
5.3235653236e+00   0.0000000000e+00
5.3431013431e+00   0.0000000000e+00
5.3626373626e+00   0.0000000000e+00
5.3821733822e+00   0.0000000000e+00
5.4017094017e+00   0.0000000000e+00
5.4212454212e+00   0.0000000000e+00
5.4407814408e+00   0.0000000000e+00
5.4603174603e+00   0.0000000000e+00
5.4798534799e+00   0.0000000000e+00
5.4993894994e+00   0.0000000000e+00
5.5189255189e+00   0.0000000000e+00
5.5384615385e+00   0.0000000000e+00
5.5579975580e+00   0.0000000000e+00
5.5775335775e+00   0.0000000000e+00
5.5970695971e+00   0.0000000000e+00
5.6166056166e+00   0.0000000000e+00
5.6361416361e+00   0.0000000000e+00
5.6556776557e+00   0.0000000000e+00
5.6752136752e+00   0.0000000000e+00
5.6947496947e+00   0.0000000000e+00
5.7142857143e+00   0.0000000000e+00
5.7338217338e+00   0.0000000000e+00
5.7533577534e+00   0.0000000000e+00
5.7728937729e+00   0.0000000000e+00
5.7924297924e+00   0.0000000000e+00
5.8119658120e+00   0.0000000000e+00
5.8315018315e+00   0.0000000000e+00
5.8510378510e+00   0.0000000000e+00
5.8705738706e+00   0.0000000000e+00
5.8901098901e+00   0.0000000000e+00
5.9096459096e+00   0.0000000000e+00
5.9291819292e+00   0.0000000000e+00
5.9487179487e+00   0.0000000000e+00
5.9682539683e+00   0.0000000000e+00
5.9877899878e+00   0.0000000000e+00
6.0073260073e+00   0.0000000000e+00
6.0268620269e+00   0.0000000000e+00
6.0463980464e+00   0.0000000000e+00
6.0659340659e+00   0.0000000000e+00
6.0854700855e+00   0.0000000000e+00
6.1050061050e+00   0.0000000000e+00
6.1245421245e+00   0.0000000000e+00
6.1440781441e+00   0.0000000000e+00
6.1636141636e+00   0.0000000000e+00
6.1831501832e+00   0.0000000000e+00
6.2026862027e+00   0.0000000000e+00
6.2222222222e+00   0.0000000000e+00
6.2417582418e+00   0.0000000000e+00
6.2612942613e+00   0.0000000000e+00
6.2808302808e+00   0.0000000000e+00
6.3003663004e+00   0.0000000000e+00
6.3199023199e+00   0.0000000000e+00
6.3394383394e+00   0.0000000000e+00
6.3589743590e+00   0.0000000000e+00
6.3785103785e+00   0.0000000000e+00
6.3980463980e+00   0.0000000000e+00
6.4175824176e+00   0.0000000000e+00
6.4371184371e+00   0.0000000000e+00
6.4566544567e+00   0.0000000000e+00
6.4761904762e+00   0.0000000000e+00
6.4957264957e+00   0.0000000000e+00
6.5152625153e+00   0.0000000000e+00
6.5347985348e+00   0.0000000000e+00
6.5543345543e+00   0.0000000000e+00
6.5738705739e+00   0.0000000000e+00
6.5934065934e+00   0.0000000000e+00
6.6129426129e+00   0.0000000000e+00
6.6324786325e+00   0.0000000000e+00
6.6520146520e+00   0.0000000000e+00
6.6715506716e+00   0.0000000000e+00
6.6910866911e+00   0.0000000000e+00
6.7106227106e+00   0.0000000000e+00
6.7301587302e+00   0.0000000000e+00
6.7496947497e+00   0.0000000000e+00
6.7692307692e+00   0.0000000000e+00
6.7887667888e+00   0.0000000000e+00
6.8083028083e+00   0.0000000000e+00
6.8278388278e+00   0.0000000000e+00
6.8473748474e+00   0.0000000000e+00
6.8669108669e+00   0.0000000000e+00
6.8864468864e+00   0.0000000000e+00
6.9059829060e+00   0.0000000000e+00
6.9255189255e+00   0.0000000000e+00
6.9450549451e+00   0.0000000000e+00
6.9645909646e+00   0.0000000000e+00
6.9841269841e+00   0.0000000000e+00
7.0036630037e+00   0.0000000000e+00
7.0231990232e+00   0.0000000000e+00
7.0427350427e+00   0.0000000000e+00
7.0622710623e+00   0.0000000000e+00
7.0818070818e+00   0.0000000000e+00
7.1013431013e+00   0.0000000000e+00
7.1208791209e+00   0.0000000000e+00
7.1404151404e+00   0.0000000000e+00
7.1599511600e+00   0.0000000000e+00
7.1794871795e+00   0.0000000000e+00
7.1990231990e+00   0.0000000000e+00
7.2185592186e+00   0.0000000000e+00
7.2380952381e+00   0.0000000000e+00
7.2576312576e+00   0.0000000000e+00
7.2771672772e+00   0.0000000000e+00
7.2967032967e+00   0.0000000000e+00
7.3162393162e+00   0.0000000000e+00
7.3357753358e+00   0.0000000000e+00
7.3553113553e+00   0.0000000000e+00
7.3748473748e+00   0.0000000000e+00
7.3943833944e+00   0.0000000000e+00
7.4139194139e+00   0.0000000000e+00
7.4334554335e+00   0.0000000000e+00
7.4529914530e+00   0.0000000000e+00
7.4725274725e+00   0.0000000000e+00
7.4920634921e+00   0.0000000000e+00
7.5115995116e+00   0.0000000000e+00
7.5311355311e+00   0.0000000000e+00
7.5506715507e+00   0.0000000000e+00
7.5702075702e+00   0.0000000000e+00
7.5897435897e+00   0.0000000000e+00
7.6092796093e+00   0.0000000000e+00
7.6288156288e+00   0.0000000000e+00
7.6483516484e+00   0.0000000000e+00
7.6678876679e+00   0.0000000000e+00
7.6874236874e+00   0.0000000000e+00
7.7069597070e+00   0.0000000000e+00
7.7264957265e+00   0.0000000000e+00
7.7460317460e+00   0.0000000000e+00
7.7655677656e+00   0.0000000000e+00
7.7851037851e+00   0.0000000000e+00
7.8046398046e+00   0.0000000000e+00
7.8241758242e+00   0.0000000000e+00
7.8437118437e+00   0.0000000000e+00
7.8632478632e+00   0.0000000000e+00
7.8827838828e+00   0.0000000000e+00
7.9023199023e+00   0.0000000000e+00
7.9218559219e+00   0.0000000000e+00
7.9413919414e+00   0.0000000000e+00
7.9609279609e+00   0.0000000000e+00
7.9804639805e+00   0.0000000000e+00
8.0000000000e+00   0.0000000000e+00
8.0195360195e+00   0.0000000000e+00
8.0390720391e+00   0.0000000000e+00
8.0586080586e+00   0.0000000000e+00
8.0781440781e+00   0.0000000000e+00
8.0976800977e+00   0.0000000000e+00
8.1172161172e+00   0.0000000000e+00
8.1367521368e+00   0.0000000000e+00
8.1562881563e+00   0.0000000000e+00
8.1758241758e+00   0.0000000000e+00
8.1953601954e+00   0.0000000000e+00
8.2148962149e+00   0.0000000000e+00
8.2344322344e+00   0.0000000000e+00
8.2539682540e+00   0.0000000000e+00
8.2735042735e+00   0.0000000000e+00
8.2930402930e+00   0.0000000000e+00
8.3125763126e+00   0.0000000000e+00
8.3321123321e+00   0.0000000000e+00
8.3516483516e+00   0.0000000000e+00
8.3711843712e+00   0.0000000000e+00
8.3907203907e+00   0.0000000000e+00
8.4102564103e+00   0.0000000000e+00
8.4297924298e+00   0.0000000000e+00
8.4493284493e+00   0.0000000000e+00
8.4688644689e+00   0.0000000000e+00
8.4884004884e+00   0.0000000000e+00
8.5079365079e+00   0.0000000000e+00
8.5274725275e+00   0.0000000000e+00
8.5470085470e+00   0.0000000000e+00
8.5665445665e+00   0.0000000000e+00
8.5860805861e+00   0.0000000000e+00
8.6056166056e+00   0.0000000000e+00
8.6251526252e+00   0.0000000000e+00
8.6446886447e+00   0.0000000000e+00
8.6642246642e+00   0.0000000000e+00
8.6837606838e+00   0.0000000000e+00
8.7032967033e+00   0.0000000000e+00
8.7228327228e+00   0.0000000000e+00
8.7423687424e+00   0.0000000000e+00
8.7619047619e+00   0.0000000000e+00
8.7814407814e+00   0.0000000000e+00
8.8009768010e+00   0.0000000000e+00
8.8205128205e+00   0.0000000000e+00
8.8400488400e+00   0.0000000000e+00
8.8595848596e+00   0.0000000000e+00
8.8791208791e+00   0.0000000000e+00
8.8986568987e+00   0.0000000000e+00
8.9181929182e+00   0.0000000000e+00
8.9377289377e+00   0.0000000000e+00
8.9572649573e+00   0.0000000000e+00
8.9768009768e+00   0.0000000000e+00
8.9963369963e+00   0.0000000000e+00
9.0158730159e+00   0.0000000000e+00
9.0354090354e+00   0.0000000000e+00
9.0549450549e+00   0.0000000000e+00
9.0744810745e+00   0.0000000000e+00
9.0940170940e+00   0.0000000000e+00
9.1135531136e+00   0.0000000000e+00
9.1330891331e+00   0.0000000000e+00
9.1526251526e+00   0.0000000000e+00
9.1721611722e+00   0.0000000000e+00
9.1916971917e+00   0.0000000000e+00
9.2112332112e+00   0.0000000000e+00
9.2307692308e+00   0.0000000000e+00
9.2503052503e+00   0.0000000000e+00
9.2698412698e+00   0.0000000000e+00
9.2893772894e+00   0.0000000000e+00
9.3089133089e+00   0.0000000000e+00
9.3284493284e+00   0.0000000000e+00
9.3479853480e+00   0.0000000000e+00
9.3675213675e+00   0.0000000000e+00
9.3870573871e+00   0.0000000000e+00
9.4065934066e+00   0.0000000000e+00
9.4261294261e+00   0.0000000000e+00
9.4456654457e+00   0.0000000000e+00
9.4652014652e+00   0.0000000000e+00
9.4847374847e+00   0.0000000000e+00
9.5042735043e+00   0.0000000000e+00
9.5238095238e+00   0.0000000000e+00
9.5433455433e+00   0.0000000000e+00
9.5628815629e+00   0.0000000000e+00
9.5824175824e+00   0.0000000000e+00
9.6019536020e+00   0.0000000000e+00
9.6214896215e+00   0.0000000000e+00
9.6410256410e+00   0.0000000000e+00
9.6605616606e+00   0.0000000000e+00
9.6800976801e+00   0.0000000000e+00
9.6996336996e+00   0.0000000000e+00
9.7191697192e+00   0.0000000000e+00
9.7387057387e+00   0.0000000000e+00
9.7582417582e+00   0.0000000000e+00
9.7777777778e+00   0.0000000000e+00
9.7973137973e+00   0.0000000000e+00
9.8168498168e+00   0.0000000000e+00
9.8363858364e+00   0.0000000000e+00
9.8559218559e+00   0.0000000000e+00
9.8754578755e+00   0.0000000000e+00
9.8949938950e+00   0.0000000000e+00
9.9145299145e+00   0.0000000000e+00
9.9340659341e+00   0.0000000000e+00
9.9536019536e+00   0.0000000000e+00
9.9731379731e+00   0.0000000000e+00
9.9926739927e+00   0.0000000000e+00
1.0012210012e+01   0.0000000000e+00
1.0031746032e+01   0.0000000000e+00
1.0051282051e+01   0.0000000000e+00
1.0070818071e+01   0.0000000000e+00
1.0090354090e+01   0.0000000000e+00
1.0109890110e+01   0.0000000000e+00
1.0129426129e+01   0.0000000000e+00
1.0148962149e+01   0.0000000000e+00
1.0168498168e+01   0.0000000000e+00
1.0188034188e+01   0.0000000000e+00
1.0207570208e+01   0.0000000000e+00
1.0227106227e+01   0.0000000000e+00
1.0246642247e+01   0.0000000000e+00
1.0266178266e+01   0.0000000000e+00
1.0285714286e+01   0.0000000000e+00
1.0305250305e+01   0.0000000000e+00
1.0324786325e+01   0.0000000000e+00
1.0344322344e+01   0.0000000000e+00
1.0363858364e+01   0.0000000000e+00
1.0383394383e+01   0.0000000000e+00
1.0402930403e+01   0.0000000000e+00
1.0422466422e+01   0.0000000000e+00
1.0442002442e+01   0.0000000000e+00
1.0461538462e+01   0.0000000000e+00
1.0481074481e+01   0.0000000000e+00
1.0500610501e+01   0.0000000000e+00
1.0520146520e+01   0.0000000000e+00
1.0539682540e+01   0.0000000000e+00
1.0559218559e+01   0.0000000000e+00
1.0578754579e+01   0.0000000000e+00
1.0598290598e+01   0.0000000000e+00
1.0617826618e+01   0.0000000000e+00
1.0637362637e+01   0.0000000000e+00
1.0656898657e+01   0.0000000000e+00
1.0676434676e+01   0.0000000000e+00
1.0695970696e+01   0.0000000000e+00
1.0715506716e+01   0.0000000000e+00
1.0735042735e+01   0.0000000000e+00
1.0754578755e+01   0.0000000000e+00
1.0774114774e+01   0.0000000000e+00
1.0793650794e+01   0.0000000000e+00
1.0813186813e+01   0.0000000000e+00
1.0832722833e+01   0.0000000000e+00
1.0852258852e+01   0.0000000000e+00
1.0871794872e+01   0.0000000000e+00
1.0891330891e+01   0.0000000000e+00
1.0910866911e+01   0.0000000000e+00
1.0930402930e+01   0.0000000000e+00
1.0949938950e+01   0.0000000000e+00
1.0969474969e+01   0.0000000000e+00
1.0989010989e+01   0.0000000000e+00
1.1008547009e+01   0.0000000000e+00
1.1028083028e+01   0.0000000000e+00
1.1047619048e+01   0.0000000000e+00
1.1067155067e+01   0.0000000000e+00
1.1086691087e+01   0.0000000000e+00
1.1106227106e+01   0.0000000000e+00
1.1125763126e+01   0.0000000000e+00
1.1145299145e+01   0.0000000000e+00
1.1164835165e+01   0.0000000000e+00
1.1184371184e+01   0.0000000000e+00
1.1203907204e+01   0.0000000000e+00
1.1223443223e+01   0.0000000000e+00
1.1242979243e+01   0.0000000000e+00
1.1262515263e+01   0.0000000000e+00
1.1282051282e+01   0.0000000000e+00
1.1301587302e+01   0.0000000000e+00
1.1321123321e+01   0.0000000000e+00
1.1340659341e+01   0.0000000000e+00
1.1360195360e+01   0.0000000000e+00
1.1379731380e+01   0.0000000000e+00
1.1399267399e+01   0.0000000000e+00
1.1418803419e+01   0.0000000000e+00
1.1438339438e+01   0.0000000000e+00
1.1457875458e+01   0.0000000000e+00
1.1477411477e+01   0.0000000000e+00
1.1496947497e+01   0.0000000000e+00
1.1516483516e+01   0.0000000000e+00
1.1536019536e+01   0.0000000000e+00
1.1555555556e+01   0.0000000000e+00
1.1575091575e+01   0.0000000000e+00
1.1594627595e+01   0.0000000000e+00
1.1614163614e+01   0.0000000000e+00
1.1633699634e+01   0.0000000000e+00
1.1653235653e+01   0.0000000000e+00
1.1672771673e+01   0.0000000000e+00
1.1692307692e+01   0.0000000000e+00
1.1711843712e+01   0.0000000000e+00
1.1731379731e+01   0.0000000000e+00
1.1750915751e+01   0.0000000000e+00
1.1770451770e+01   0.0000000000e+00
1.1789987790e+01   0.0000000000e+00
1.1809523810e+01   0.0000000000e+00
1.1829059829e+01   0.0000000000e+00
1.1848595849e+01   0.0000000000e+00
1.1868131868e+01   0.0000000000e+00
1.1887667888e+01   0.0000000000e+00
1.1907203907e+01   0.0000000000e+00
1.1926739927e+01   0.0000000000e+00
1.1946275946e+01   0.0000000000e+00
1.1965811966e+01   0.0000000000e+00
1.1985347985e+01   0.0000000000e+00
1.2004884005e+01   0.0000000000e+00
1.2024420024e+01   0.0000000000e+00
1.2043956044e+01   0.0000000000e+00
1.2063492063e+01   0.0000000000e+00
1.2083028083e+01   0.0000000000e+00
1.2102564103e+01   0.0000000000e+00
1.2122100122e+01   0.0000000000e+00
1.2141636142e+01   0.0000000000e+00
1.2161172161e+01   0.0000000000e+00
1.2180708181e+01   0.0000000000e+00
1.2200244200e+01   0.0000000000e+00
1.2219780220e+01   0.0000000000e+00
1.2239316239e+01   0.0000000000e+00
1.2258852259e+01   0.0000000000e+00
1.2278388278e+01   0.0000000000e+00
1.2297924298e+01   0.0000000000e+00
1.2317460317e+01   0.0000000000e+00
1.2336996337e+01   0.0000000000e+00
1.2356532357e+01   0.0000000000e+00
1.2376068376e+01   0.0000000000e+00
1.2395604396e+01   0.0000000000e+00
1.2415140415e+01   0.0000000000e+00
1.2434676435e+01   0.0000000000e+00
1.2454212454e+01   0.0000000000e+00
1.2473748474e+01   0.0000000000e+00
1.2493284493e+01   0.0000000000e+00
1.2512820513e+01   0.0000000000e+00
1.2532356532e+01   0.0000000000e+00
1.2551892552e+01   0.0000000000e+00
1.2571428571e+01   0.0000000000e+00
1.2590964591e+01   0.0000000000e+00
1.2610500611e+01   0.0000000000e+00
1.2630036630e+01   0.0000000000e+00
1.2649572650e+01   0.0000000000e+00
1.2669108669e+01   0.0000000000e+00
1.2688644689e+01   0.0000000000e+00
1.2708180708e+01   0.0000000000e+00
1.2727716728e+01   0.0000000000e+00
1.2747252747e+01   0.0000000000e+00
1.2766788767e+01   0.0000000000e+00
1.2786324786e+01   0.0000000000e+00
1.2805860806e+01   0.0000000000e+00
1.2825396825e+01   0.0000000000e+00
1.2844932845e+01   0.0000000000e+00
1.2864468864e+01   0.0000000000e+00
1.2884004884e+01   0.0000000000e+00
1.2903540904e+01   0.0000000000e+00
1.2923076923e+01   0.0000000000e+00
1.2942612943e+01   0.0000000000e+00
1.2962148962e+01   0.0000000000e+00
1.2981684982e+01   0.0000000000e+00
1.3001221001e+01   0.0000000000e+00
1.3020757021e+01   0.0000000000e+00
1.3040293040e+01   0.0000000000e+00
1.3059829060e+01   0.0000000000e+00
1.3079365079e+01   0.0000000000e+00
1.3098901099e+01   0.0000000000e+00
1.3118437118e+01   0.0000000000e+00
