X    Y
-1.0000000000e+02   1.4951457225e-22
-9.9951159951e+01   1.8732633926e-09
-9.9902319902e+01   3.7465322972e-09
-9.9853479853e+01   5.6198122259e-09
-9.9804639805e+01   7.4931086907e-09
-9.9755799756e+01   9.3664272040e-09
-9.9706959707e+01   1.1239773278e-08
-9.9658119658e+01   1.3113152425e-08
-9.9609279609e+01   1.4986570159e-08
-9.9560439560e+01   1.6860031992e-08
-9.9511599512e+01   1.8733543438e-08
-9.9462759463e+01   2.0607110010e-08
-9.9413919414e+01   2.2480737223e-08
-9.9365079365e+01   2.4354430591e-08
-9.9316239316e+01   2.6228195630e-08
-9.9267399267e+01   2.8102037854e-08
-9.9218559219e+01   2.9975962781e-08
-9.9169719170e+01   3.1849975927e-08
-9.9120879121e+01   3.3724082809e-08
-9.9072039072e+01   3.5598288946e-08
-9.9023199023e+01   3.7472599855e-08
-9.8974358974e+01   3.9347021057e-08
-9.8925518926e+01   4.1221558073e-08
-9.8876678877e+01   4.3096216422e-08
-9.8827838828e+01   4.4971001627e-08
-9.8778998779e+01   4.6845919212e-08
-9.8730158730e+01   4.8720974699e-08
-9.8681318681e+01   5.0596173614e-08
-9.8632478632e+01   5.2471521483e-08
-9.8583638584e+01   5.4347023833e-08
-9.8534798535e+01   5.6222686191e-08
-9.8485958486e+01   5.8098514088e-08
-9.8437118437e+01   5.9974513053e-08
-9.8388278388e+01   6.1850688617e-08
-9.8339438339e+01   6.3727046315e-08
-9.8290598291e+01   6.5603591680e-08
-9.8241758242e+01   6.7480330248e-08
-9.8192918193e+01   6.9357267556e-08
-9.8144078144e+01   7.1234409141e-08
-9.8095238095e+01   7.3111760545e-08
-9.8046398046e+01   7.4989327308e-08
-9.7997557998e+01   7.6867114974e-08
-9.7948717949e+01   7.8745129086e-08
-9.7899877900e+01   8.0623375191e-08
-9.7851037851e+01   8.2501858837e-08
-9.7802197802e+01   8.4380585573e-08
-9.7753357753e+01   8.6259560951e-08
-9.7704517705e+01   8.8138790523e-08
-9.7655677656e+01   9.0018279845e-08
-9.7606837607e+01   9.1898034473e-08
-9.7557997558e+01   9.3778059966e-08
-9.7509157509e+01   9.5658361884e-08
-9.7460317460e+01   9.7538945790e-08
-9.7411477411e+01   9.9419817250e-08
-9.7362637363e+01   1.0130098183e-07
-9.7313797314e+01   1.0318244509e-07
-9.7264957265e+01   1.0506421262e-07
-9.7216117216e+01   1.0694628998e-07
-9.7167277167e+01   1.0882868274e-07
-9.7118437118e+01   1.1071139650e-07
-9.7069597070e+01   1.1259443681e-07
-9.7020757021e+01   1.1447780928e-07
-9.6971916972e+01   1.1636151947e-07
-9.6923076923e+01   1.1824557299e-07
-9.6874236874e+01   1.2012997541e-07
-9.6825396825e+01   1.2201473234e-07
-9.6776556777e+01   1.2389984936e-07
-9.6727716728e+01   1.2578533208e-07
-9.6678876679e+01   1.2767118609e-07
-9.6630036630e+01   1.2955741699e-07
-9.6581196581e+01   1.3144403040e-07
-9.6532356532e+01   1.3333103191e-07
-9.6483516484e+01   1.3521842715e-07
-9.6434676435e+01   1.3710622172e-07
-9.6385836386e+01   1.3899442123e-07
-9.6336996337e+01   1.4088303132e-07
-9.6288156288e+01   1.4277205761e-07
-9.6239316239e+01   1.4466150570e-07
-9.6190476190e+01   1.4655138125e-07
-9.6141636142e+01   1.4844168987e-07
-9.6092796093e+01   1.5033243721e-07
-9.6043956044e+01   1.5222362890e-07
-9.5995115995e+01   1.5411527058e-07
-9.5946275946e+01   1.5600736789e-07
-9.5897435897e+01   1.5789992649e-07
-9.5848595849e+01   1.5979295203e-07
-9.5799755800e+01   1.6168645015e-07
-9.5750915751e+01   1.6358042652e-07
-9.5702075702e+01   1.6547488680e-07
-9.5653235653e+01   1.6736983665e-07
-9.5604395604e+01   1.6926528175e-07
-9.5555555556e+01   1.7116122776e-07
-9.5506715507e+01   1.7305768035e-07
-9.5457875458e+01   1.7495464522e-07
-9.5409035409e+01   1.7685212804e-07
-9.5360195360e+01   1.7875013449e-07
-9.5311355311e+01   1.8064867027e-07
-9.5262515263e+01   1.8254774108e-07
-9.5213675214e+01   1.8444735261e-07
-9.5164835165e+01   1.8634751055e-07
-9.5115995116e+01   1.8824822063e-07
-9.5067155067e+01   1.9014948855e-07
-9.5018315018e+01   1.9205132002e-07
-9.4969474969e+01   1.9395372076e-07
-9.4920634921e+01   1.9585669649e-07
-9.4871794872e+01   1.9776025295e-07
-9.4822954823e+01   1.9966439585e-07
-9.4774114774e+01   2.0156913095e-07
-9.4725274725e+01   2.0347446396e-07
-9.4676434676e+01   2.0538040065e-07
-9.4627594628e+01   2.0728694675e-07
-9.4578754579e+01   2.0919410802e-07
-9.4529914530e+01   2.1110189021e-07
-9.4481074481e+01   2.1301029910e-07
-9.4432234432e+01   2.1491934043e-07
-9.4383394383e+01   2.1682902000e-07
-9.4334554335e+01   2.1873934356e-07
-9.4285714286e+01   2.2065031689e-07
-9.4236874237e+01   2.2256194580e-07
-9.4188034188e+01   2.2447423605e-07
-9.4139194139e+01   2.2638719346e-07
-9.4090354090e+01   2.2830082380e-07
-9.4041514042e+01   2.3021513290e-07
-9.3992673993e+01   2.3213012656e-07
-9.3943833944e+01   2.3404581059e-07
-9.3894993895e+01   2.3596219082e-07
-9.3846153846e+01   2.3787927306e-07
-9.3797313797e+01   2.3979706314e-07
-9.3748473748e+01   2.4171556691e-07
-9.3699633700e+01   2.4363479019e-07
-9.3650793651e+01   2.4555473884e-07
-9.3601953602e+01   2.4747541870e-07
-9.3553113553e+01   2.4939683564e-07
-9.3504273504e+01   2.5131899550e-07
-9.3455433455e+01   2.5324190416e-07
-9.3406593407e+01   2.5516556748e-07
-9.3357753358e+01   2.5708999136e-07
-9.3308913309e+01   2.5901518166e-07
-9.3260073260e+01   2.6094114427e-07
-9.3211233211e+01   2.6286788510e-07
-9.3162393162e+01   2.6479541004e-07
-9.3113553114e+01   2.6672372499e-07
-9.3064713065e+01   2.6865283587e-07
-9.3015873016e+01   2.7058274860e-07
-9.2967032967e+01   2.7251346909e-07
-9.2918192918e+01   2.7444500328e-07
-9.2869352869e+01   2.7637735710e-07
-9.2820512821e+01   2.7831053649e-07
-9.2771672772e+01   2.8024454741e-07
-9.2722832723e+01   2.8217939579e-07
-9.2673992674e+01   2.8411508760e-07
-9.2625152625e+01   2.8605162881e-07
-9.2576312576e+01   2.8798902539e-07
-9.2527472527e+01   2.8992728332e-07
-9.2478632479e+01   2.9186640857e-07
-9.2429792430e+01   2.9380640715e-07
-9.2380952381e+01   2.9574728505e-07
-9.2332112332e+01   2.9768904826e-07
-9.2283272283e+01   2.9963170281e-07
-9.2234432234e+01   3.0157525471e-07
-9.2185592186e+01   3.0351970997e-07
-9.2136752137e+01   3.0546507464e-07
-9.2087912088e+01   3.0741135475e-07
-9.2039072039e+01   3.0935855634e-07
-9.1990231990e+01   3.1130668546e-07
-9.1941391941e+01   3.1325574817e-07
-9.1892551893e+01   3.1520575053e-07
-9.1843711844e+01   3.1715669861e-07
-9.1794871795e+01   3.1910859849e-07
-9.1746031746e+01   3.2106145626e-07
-9.1697191697e+01   3.2301527801e-07
-9.1648351648e+01   3.2497006984e-07
-9.1599511600e+01   3.2692583784e-07
-9.1550671551e+01   3.2888258814e-07
-9.1501831502e+01   3.3084032686e-07
-9.1452991453e+01   3.3279906013e-07
-9.1404151404e+01   3.3475879407e-07
-9.1355311355e+01   3.3671953484e-07
-9.1306471306e+01   3.3868128858e-07
-9.1257631258e+01   3.4064406145e-07
-9.1208791209e+01   3.4260785961e-07
-9.1159951160e+01   3.4457268925e-07
-9.1111111111e+01   3.4653855654e-07
-9.1062271062e+01   3.4850546766e-07
-9.1013431013e+01   3.5047342882e-07
-9.0964590965e+01   3.5244244621e-07
-9.0915750916e+01   3.5441252606e-07
-9.0866910867e+01   3.5638367457e-07
-9.0818070818e+01   3.5835589798e-07
-9.0769230769e+01   3.6032920252e-07
-9.0720390720e+01   3.6230359444e-07
-9.0671550672e+01   3.6427907998e-07
-9.0622710623e+01   3.6625566541e-07
-9.0573870574e+01   3.6823335700e-07
-9.0525030525e+01   3.7021216102e-07
-9.0476190476e+01   3.7219208375e-07
-9.0427350427e+01   3.7417313149e-07
-9.0378510379e+01   3.7615531054e-07
-9.0329670330e+01   3.7813862722e-07
-9.0280830281e+01   3.8012308783e-07
-9.0231990232e+01   3.8210869870e-07
-9.0183150183e+01   3.8409546618e-07
-9.0134310134e+01   3.8608339660e-07
-9.0085470085e+01   3.8807249631e-07
-9.0036630037e+01   3.9006277169e-07
-8.9987789988e+01   3.9205422909e-07
-8.9938949939e+01   3.9404687490e-07
-8.9890109890e+01   3.9604071551e-07
-8.9841269841e+01   3.9803575731e-07
-8.9792429792e+01   4.0003200671e-07
-8.9743589744e+01   4.0202947012e-07
-8.9694749695e+01   4.0402815397e-07
-8.9645909646e+01   4.0602806469e-07
-8.9597069597e+01   4.0802920873e-07
-8.9548229548e+01   4.1003159253e-07
-8.9499389499e+01   4.1203522257e-07
-8.9450549451e+01   4.1404010529e-07
-8.9401709402e+01   4.1604624720e-07
-8.9352869353e+01   4.1805365477e-07
-8.9304029304e+01   4.2006233451e-07
-8.9255189255e+01   4.2207229293e-07
-8.9206349206e+01   4.2408353654e-07
-8.9157509158e+01   4.2609607187e-07
-8.9108669109e+01   4.2810990545e-07
-8.9059829060e+01   4.3012504385e-07
-8.9010989011e+01   4.3214149360e-07
-8.8962148962e+01   4.3415926129e-07
-8.8913308913e+01   4.3617835349e-07
-8.8864468864e+01   4.3819877678e-07
-8.8815628816e+01   4.4022053776e-07
-8.8766788767e+01   4.4224364305e-07
-8.8717948718e+01   4.4426809925e-07
-8.8669108669e+01   4.4629391299e-07
-8.8620268620e+01   4.4832109092e-07
-8.8571428571e+01   4.5034963969e-07
-8.8522588523e+01   4.5237956594e-07
-8.8473748474e+01   4.5441087635e-07
-8.8424908425e+01   4.5644357761e-07
-8.8376068376e+01   4.5847767639e-07
-8.8327228327e+01   4.6051317940e-07
-8.8278388278e+01   4.6255009336e-07
-8.8229548230e+01   4.6458842499e-07
-8.8180708181e+01   4.6662818101e-07
-8.8131868132e+01   4.6866936817e-07
-8.8083028083e+01   4.7071199324e-07
-8.8034188034e+01   4.7275606297e-07
-8.7985347985e+01   4.7480158414e-07
-8.7936507937e+01   4.7684856353e-07
-8.7887667888e+01   4.7889700796e-07
-8.7838827839e+01   4.8094692423e-07
-8.7789987790e+01   4.8299831915e-07
-8.7741147741e+01   4.8505119957e-07
-8.7692307692e+01   4.8710557233e-07
-8.7643467643e+01   4.8916144428e-07
-8.7594627595e+01   4.9121882229e-07
-8.7545787546e+01   4.9327771324e-07
-8.7496947497e+01   4.9533812403e-07
-8.7448107448e+01   4.9740006154e-07
-8.7399267399e+01   4.9946353270e-07
-8.7350427350e+01   5.0152854443e-07
-8.7301587302e+01   5.0359510367e-07
-8.7252747253e+01   5.0566321736e-07
-8.7203907204e+01   5.0773289248e-07
-8.7155067155e+01   5.0980413599e-07
-8.7106227106e+01   5.1187695488e-07
-8.7057387057e+01   5.1395135614e-07
-8.7008547009e+01   5.1602734678e-07
-8.6959706960e+01   5.1810493384e-07
-8.6910866911e+01   5.2018412433e-07
-8.6862026862e+01   5.2226492531e-07
-8.6813186813e+01   5.2434734384e-07
-8.6764346764e+01   5.2643138699e-07
-8.6715506716e+01   5.2851706184e-07
-8.6666666667e+01   5.3060437549e-07
-8.6617826618e+01   5.3269333504e-07
-8.6568986569e+01   5.3478394763e-07
-8.6520146520e+01   5.3687622039e-07
-8.6471306471e+01   5.3897016045e-07
-8.6422466422e+01   5.4106577499e-07
-8.6373626374e+01   5.4316307118e-07
-8.6324786325e+01   5.4526205620e-07
-8.6275946276e+01   5.4736273726e-07
-8.6227106227e+01   5.4946512157e-07
-8.6178266178e+01   5.5156921635e-07
-8.6129426129e+01   5.5367502885e-07
-8.6080586081e+01   5.5578256631e-07
-8.6031746032e+01   5.5789183600e-07
-8.5982905983e+01   5.6000284521e-07
-8.5934065934e+01   5.6211560123e-07
-8.5885225885e+01   5.6423011136e-07
-8.5836385836e+01   5.6634638293e-07
-8.5787545788e+01   5.6846442326e-07
-8.5738705739e+01   5.7058423972e-07
-8.5689865690e+01   5.7270583966e-07
-8.5641025641e+01   5.7482923045e-07
-8.5592185592e+01   5.7695441950e-07
-8.5543345543e+01   5.7908141419e-07
-8.5494505495e+01   5.8121022196e-07
-8.5445665446e+01   5.8334085023e-07
-8.5396825397e+01   5.8547330646e-07
-8.5347985348e+01   5.8760759809e-07
-8.5299145299e+01   5.8974373262e-07
-8.5250305250e+01   5.9188171752e-07
-8.5201465201e+01   5.9402156031e-07
-8.5152625153e+01   5.9616326851e-07
-8.5103785104e+01   5.9830684964e-07
-8.5054945055e+01   6.0045231126e-07
-8.5006105006e+01   6.0259966093e-07
-8.4957264957e+01   6.0474890624e-07
-8.4908424908e+01   6.0690005476e-07
-8.4859584860e+01   6.0905311413e-07
-8.4810744811e+01   6.1120809195e-07
-8.4761904762e+01   6.1336499586e-07
-8.4713064713e+01   6.1552383353e-07
-8.4664224664e+01   6.1768461262e-07
-8.4615384615e+01   6.1984734082e-07
-8.4566544567e+01   6.2201202582e-07
-8.4517704518e+01   6.2417867535e-07
-8.4468864469e+01   6.2634729713e-07
-8.4420024420e+01   6.2851789892e-07
-8.4371184371e+01   6.3069048847e-07
-8.4322344322e+01   6.3286507356e-07
-8.4273504274e+01   6.3504166200e-07
-8.4224664225e+01   6.3722026159e-07
-8.4175824176e+01   6.3940088015e-07
-8.4126984127e+01   6.4158352553e-07
-8.4078144078e+01   6.4376820560e-07
-8.4029304029e+01   6.4595492822e-07
-8.3980463980e+01   6.4814370129e-07
-8.3931623932e+01   6.5033453272e-07
-8.3882783883e+01   6.5252743042e-07
-8.3833943834e+01   6.5472240235e-07
-8.3785103785e+01   6.5691945645e-07
-8.3736263736e+01   6.5911860071e-07
-8.3687423687e+01   6.6131984312e-07
-8.3638583639e+01   6.6352319168e-07
-8.3589743590e+01   6.6572865442e-07
-8.3540903541e+01   6.6793623938e-07
-8.3492063492e+01   6.7014595462e-07
-8.3443223443e+01   6.7235780822e-07
-8.3394383394e+01   6.7457180827e-07
-8.3345543346e+01   6.7678796288e-07
-8.3296703297e+01   6.7900628018e-07
-8.3247863248e+01   6.8122676832e-07
-8.3199023199e+01   6.8344943545e-07
-8.3150183150e+01   6.8567428977e-07
-8.3101343101e+01   6.8790133946e-07
-8.3052503053e+01   6.9013059275e-07
-8.3003663004e+01   6.9236205787e-07
-8.2954822955e+01   6.9459574307e-07
-8.2905982906e+01   6.9683165662e-07
-8.2857142857e+01   6.9906980681e-07
-8.2808302808e+01   7.0131020195e-07
-8.2759462759e+01   7.0355285036e-07
-8.2710622711e+01   7.0579776038e-07
-8.2661782662e+01   7.0804494039e-07
-8.2612942613e+01   7.1029439874e-07
-8.2564102564e+01   7.1254614385e-07
-8.2515262515e+01   7.1480018414e-07
-8.2466422466e+01   7.1705652803e-07
-8.2417582418e+01   7.1931518398e-07
-8.2368742369e+01   7.2157616048e-07
-8.2319902320e+01   7.2383946600e-07
-8.2271062271e+01   7.2610510906e-07
-8.2222222222e+01   7.2837309819e-07
-8.2173382173e+01   7.3064344195e-07
-8.2124542125e+01   7.3291614889e-07
-8.2075702076e+01   7.3519122762e-07
-8.2026862027e+01   7.3746868674e-07
-8.1978021978e+01   7.3974853487e-07
-8.1929181929e+01   7.4203078067e-07
-8.1880341880e+01   7.4431543280e-07
-8.1831501832e+01   7.4660249995e-07
-8.1782661783e+01   7.4889199083e-07
-8.1733821734e+01   7.5118391416e-07
-8.1684981685e+01   7.5347827869e-07
-8.1636141636e+01   7.5577509319e-07
-8.1587301587e+01   7.5807436644e-07
-8.1538461538e+01   7.6037610726e-07
-8.1489621490e+01   7.6268032447e-07
-8.1440781441e+01   7.6498702692e-07
-8.1391941392e+01   7.6729622349e-07
-8.1343101343e+01   7.6960792305e-07
-8.1294261294e+01   7.7192213453e-07
-8.1245421245e+01   7.7423886685e-07
-8.1196581197e+01   7.7655812897e-07
-8.1147741148e+01   7.7887992986e-07
-8.1098901099e+01   7.8120427852e-07
-8.1050061050e+01   7.8353118396e-07
-8.1001221001e+01   7.8586065522e-07
-8.0952380952e+01   7.8819270137e-07
-8.0903540904e+01   7.9052733147e-07
-8.0854700855e+01   7.9286455464e-07
-8.0805860806e+01   7.9520438000e-07
-8.0757020757e+01   7.9754681669e-07
-8.0708180708e+01   7.9989187388e-07
-8.0659340659e+01   8.0223956077e-07
-8.0610500611e+01   8.0458988656e-07
-8.0561660562e+01   8.0694286048e-07
-8.0512820513e+01   8.0929849180e-07
-8.0463980464e+01   8.1165678979e-07
-8.0415140415e+01   8.1401776376e-07
-8.0366300366e+01   8.1638142303e-07
-8.0317460317e+01   8.1874777694e-07
-8.0268620269e+01   8.2111683486e-07
-8.0219780220e+01   8.2348860619e-07
-8.0170940171e+01   8.2586310034e-07
-8.0122100122e+01   8.2824032675e-07
-8.0073260073e+01   8.3062029487e-07
-8.0024420024e+01   8.3300301421e-07
-7.9975579976e+01   8.3538849425e-07
-7.9926739927e+01   8.3777674454e-07
-7.9877899878e+01   8.4016777463e-07
-7.9829059829e+01   8.4256159409e-07
-7.9780219780e+01   8.4495821253e-07
-7.9731379731e+01   8.4735763958e-07
-7.9682539683e+01   8.4975988488e-07
-7.9633699634e+01   8.5216495811e-07
-7.9584859585e+01   8.5457286897e-07
-7.9536019536e+01   8.5698362718e-07
-7.9487179487e+01   8.5939724249e-07
-7.9438339438e+01   8.6181372466e-07
-7.9389499389e+01   8.6423308350e-07
-7.9340659341e+01   8.6665532882e-07
-7.9291819292e+01   8.6908047047e-07
-7.9242979243e+01   8.7150851832e-07
-7.9194139194e+01   8.7393948227e-07
-7.9145299145e+01   8.7637337223e-07
-7.9096459096e+01   8.7881019815e-07
-7.9047619048e+01   8.8124997001e-07
-7.8998778999e+01   8.8369269779e-07
-7.8949938950e+01   8.8613839152e-07
-7.8901098901e+01   8.8858706124e-07
-7.8852258852e+01   8.9103871704e-07
-7.8803418803e+01   8.9349336901e-07
-7.8754578755e+01   8.9595102727e-07
-7.8705738706e+01   8.9841170197e-07
-7.8656898657e+01   9.0087540329e-07
-7.8608058608e+01   9.0334214144e-07
-7.8559218559e+01   9.0581192665e-07
-7.8510378510e+01   9.0828476916e-07
-7.8461538462e+01   9.1076067927e-07
-7.8412698413e+01   9.1323966728e-07
-7.8363858364e+01   9.1572174353e-07
-7.8315018315e+01   9.1820691839e-07
-7.8266178266e+01   9.2069520224e-07
-7.8217338217e+01   9.2318660550e-07
-7.8168498168e+01   9.2568113862e-07
-7.8119658120e+01   9.2817881206e-07
-7.8070818071e+01   9.3067963634e-07
-7.8021978022e+01   9.3318362197e-07
-7.7973137973e+01   9.3569077951e-07
-7.7924297924e+01   9.3820111955e-07
-7.7875457875e+01   9.4071465270e-07
-7.7826617827e+01   9.4323138959e-07
-7.7777777778e+01   9.4575134090e-07
-7.7728937729e+01   9.4827451731e-07
-7.7680097680e+01   9.5080092956e-07
-7.7631257631e+01   9.5333058840e-07
-7.7582417582e+01   9.5586350460e-07
-7.7533577534e+01   9.5839968898e-07
-7.7484737485e+01   9.6093915238e-07
-7.7435897436e+01   9.6348190567e-07
-7.7387057387e+01   9.6602795975e-07
-7.7338217338e+01   9.6857732554e-07
-7.7289377289e+01   9.7113001399e-07
-7.7240537241e+01   9.7368603610e-07
-7.7191697192e+01   9.7624540289e-07
-7.7142857143e+01   9.7880812538e-07
-7.7094017094e+01   9.8137421468e-07
-7.7045177045e+01   9.8394368187e-07
-7.6996336996e+01   9.8651653809e-07
-7.6947496947e+01   9.8909279451e-07
-7.6898656899e+01   9.9167246233e-07
-7.6849816850e+01   9.9425555278e-07
-7.6800976801e+01   9.9684207711e-07
-7.6752136752e+01   9.9943204661e-07
-7.6703296703e+01   1.0020254726e-06
-7.6654456654e+01   1.0046223664e-06
-7.6605616606e+01   1.0072227395e-06
-7.6556776557e+01   1.0098266032e-06
-7.6507936508e+01   1.0124339690e-06
-7.6459096459e+01   1.0150448483e-06
-7.6410256410e+01   1.0176592527e-06
-7.6361416361e+01   1.0202771937e-06
-7.6312576313e+01   1.0228986829e-06
-7.6263736264e+01   1.0255237319e-06
-7.6214896215e+01   1.0281523523e-06
-7.6166056166e+01   1.0307845558e-06
-7.6117216117e+01   1.0334203540e-06
-7.6068376068e+01   1.0360597588e-06
-7.6019536020e+01   1.0387027819e-06
-7.5970695971e+01   1.0413494351e-06
-7.5921855922e+01   1.0439997303e-06
-7.5873015873e+01   1.0466536792e-06
-7.5824175824e+01   1.0493112938e-06
-7.5775335775e+01   1.0519725861e-06
-7.5726495726e+01   1.0546375679e-06
-7.5677655678e+01   1.0573062513e-06
-7.5628815629e+01   1.0599786484e-06
-7.5579975580e+01   1.0626547712e-06
-7.5531135531e+01   1.0653346318e-06
-7.5482295482e+01   1.0680182423e-06
-7.5433455433e+01   1.0707056149e-06
-7.5384615385e+01   1.0733967619e-06
-7.5335775336e+01   1.0760916954e-06
-7.5286935287e+01   1.0787904278e-06
-7.5238095238e+01   1.0814929713e-06
-7.5189255189e+01   1.0841993384e-06
-7.5140415140e+01   1.0869095413e-06
-7.5091575092e+01   1.0896235925e-06
-7.5042735043e+01   1.0923415045e-06
-7.4993894994e+01   1.0950632897e-06
-7.4945054945e+01   1.0977889607e-06
-7.4896214896e+01   1.1005185301e-06
-7.4847374847e+01   1.1032520103e-06
-7.4798534799e+01   1.1059894142e-06
-7.4749694750e+01   1.1087307543e-06
-7.4700854701e+01   1.1114760433e-06
-7.4652014652e+01   1.1142252940e-06
-7.4603174603e+01   1.1169785193e-06
-7.4554334554e+01   1.1197357318e-06
-7.4505494505e+01   1.1224969444e-06
-7.4456654457e+01   1.1252621702e-06
-7.4407814408e+01   1.1280314219e-06
-7.4358974359e+01   1.1308047125e-06
-7.4310134310e+01   1.1335820552e-06
-7.4261294261e+01   1.1363634628e-06
-7.4212454212e+01   1.1391489485e-06
-7.4163614164e+01   1.1419385255e-06
-7.4114774115e+01   1.1447322068e-06
-7.4065934066e+01   1.1475300057e-06
-7.4017094017e+01   1.1503319355e-06
-7.3968253968e+01   1.1531380093e-06
-7.3919413919e+01   1.1559482406e-06
-7.3870573871e+01   1.1587626427e-06
-7.3821733822e+01   1.1615812289e-06
-7.3772893773e+01   1.1644040128e-06
-7.3724053724e+01   1.1672310077e-06
-7.3675213675e+01   1.1700622273e-06
-7.3626373626e+01   1.1728976850e-06
-7.3577533578e+01   1.1757373945e-06
-7.3528693529e+01   1.1785813694e-06
-7.3479853480e+01   1.1814296235e-06
-7.3431013431e+01   1.1842821703e-06
-7.3382173382e+01   1.1871390237e-06
-7.3333333333e+01   1.1900001975e-06
-7.3284493284e+01   1.1928657055e-06
-7.3235653236e+01   1.1957355617e-06
-7.3186813187e+01   1.1986097799e-06
-7.3137973138e+01   1.2014883741e-06
-7.3089133089e+01   1.2043713584e-06
-7.3040293040e+01   1.2072587467e-06
-7.2991452991e+01   1.2101505533e-06
-7.2942612943e+01   1.2130467922e-06
-7.2893772894e+01   1.2159474776e-06
-7.2844932845e+01   1.2188526237e-06
-7.2796092796e+01   1.2217622449e-06
-7.2747252747e+01   1.2246763554e-06
-7.2698412698e+01   1.2275949697e-06
-7.2649572650e+01   1.2305181020e-06
-7.2600732601e+01   1.2334457668e-06
-7.2551892552e+01   1.2363779788e-06
-7.2503052503e+01   1.2393147522e-06
-7.2454212454e+01   1.2422561019e-06
-7.2405372405e+01   1.2452020423e-06
-7.2356532357e+01   1.2481525882e-06
-7.2307692308e+01   1.2511077543e-06
-7.2258852259e+01   1.2540675553e-06
-7.2210012210e+01   1.2570320060e-06
-7.2161172161e+01   1.2600011214e-06
-7.2112332112e+01   1.2629749162e-06
-7.2063492063e+01   1.2659534055e-06
-7.2014652015e+01   1.2689366043e-06
-7.1965811966e+01   1.2719245275e-06
-7.1916971917e+01   1.2749171902e-06
-7.1868131868e+01   1.2779146077e-06
-7.1819291819e+01   1.2809167950e-06
-7.1770451770e+01   1.2839237675e-06
-7.1721611722e+01   1.2869355403e-06
-7.1672771673e+01   1.2899521288e-06
-7.1623931624e+01   1.2929735484e-06
-7.1575091575e+01   1.2959998145e-06
-7.1526251526e+01   1.2990309425e-06
-7.1477411477e+01   1.3020669481e-06
-7.1428571429e+01   1.3051078467e-06
-7.1379731380e+01   1.3081536539e-06
-7.1330891331e+01   1.3112043855e-06
-7.1282051282e+01   1.3142600571e-06
-7.1233211233e+01   1.3173206845e-06
-7.1184371184e+01   1.3203862835e-06
-7.1135531136e+01   1.3234568700e-06
-7.1086691087e+01   1.3265324599e-06
-7.1037851038e+01   1.3296130692e-06
-7.0989010989e+01   1.3326987138e-06
-7.0940170940e+01   1.3357894099e-06
-7.0891330891e+01   1.3388851736e-06
-7.0842490842e+01   1.3419860209e-06
-7.0793650794e+01   1.3450919683e-06
-7.0744810745e+01   1.3482030318e-06
-7.0695970696e+01   1.3513192280e-06
-7.0647130647e+01   1.3544405730e-06
-7.0598290598e+01   1.3575670834e-06
-7.0549450549e+01   1.3606987757e-06
-7.0500610501e+01   1.3638356663e-06
-7.0451770452e+01   1.3669777719e-06
-7.0402930403e+01   1.3701251091e-06
-7.0354090354e+01   1.3732776947e-06
-7.0305250305e+01   1.3764355453e-06
-7.0256410256e+01   1.3795986777e-06
-7.0207570208e+01   1.3827671089e-06
-7.0158730159e+01   1.3859408558e-06
-7.0109890110e+01   1.3891199353e-06
-7.0061050061e+01   1.3923043644e-06
-7.0012210012e+01   1.3954941602e-06
-6.9963369963e+01   1.3986893399e-06
-6.9914529915e+01   1.4018899206e-06
-6.9865689866e+01   1.4050959196e-06
-6.9816849817e+01   1.4083073543e-06
-6.9768009768e+01   1.4115242419e-06
-6.9719169719e+01   1.4147465998e-06
-6.9670329670e+01   1.4179744457e-06
-6.9621489621e+01   1.4212077969e-06
-6.9572649573e+01   1.4244466711e-06
-6.9523809524e+01   1.4276910860e-06
-6.9474969475e+01   1.4309410591e-06
-6.9426129426e+01   1.4341966084e-06
-6.9377289377e+01   1.4374577516e-06
-6.9328449328e+01   1.4407245066e-06
-6.9279609280e+01   1.4439968914e-06
-6.9230769231e+01   1.4472749239e-06
-6.9181929182e+01   1.4505586222e-06
-6.9133089133e+01   1.4538480045e-06
-6.9084249084e+01   1.4571430888e-06
-6.9035409035e+01   1.4604438936e-06
-6.8986568987e+01   1.4637504370e-06
-6.8937728938e+01   1.4670627374e-06
-6.8888888889e+01   1.4703808132e-06
-6.8840048840e+01   1.4737046830e-06
-6.8791208791e+01   1.4770343653e-06
-6.8742368742e+01   1.4803698787e-06
-6.8693528694e+01   1.4837112418e-06
-6.8644688645e+01   1.4870584734e-06
-6.8595848596e+01   1.4904115924e-06
-6.8547008547e+01   1.4937706174e-06
-6.8498168498e+01   1.4971355676e-06
-6.8449328449e+01   1.5005064619e-06
-6.8400488400e+01   1.5038833193e-06
-6.8351648352e+01   1.5072661589e-06
-6.8302808303e+01   1.5106549999e-06
-6.8253968254e+01   1.5140498617e-06
-6.8205128205e+01   1.5174507634e-06
-6.8156288156e+01   1.5208577244e-06
-6.8107448107e+01   1.5242707643e-06
-6.8058608059e+01   1.5276899025e-06
-6.8009768010e+01   1.5311151586e-06
-6.7960927961e+01   1.5345465523e-06
-6.7912087912e+01   1.5379841031e-06
-6.7863247863e+01   1.5414278310e-06
-6.7814407814e+01   1.5448777558e-06
-6.7765567766e+01   1.5483338973e-06
-6.7716727717e+01   1.5517962756e-06
-6.7667887668e+01   1.5552649107e-06
-6.7619047619e+01   1.5587398227e-06
-6.7570207570e+01   1.5622210319e-06
-6.7521367521e+01   1.5657085583e-06
-6.7472527473e+01   1.5692024225e-06
-6.7423687424e+01   1.5727026448e-06
-6.7374847375e+01   1.5762092456e-06
-6.7326007326e+01   1.5797222456e-06
-6.7277167277e+01   1.5832416652e-06
-6.7228327228e+01   1.5867675252e-06
-6.7179487179e+01   1.5902998463e-06
-6.7130647131e+01   1.5938386493e-06
-6.7081807082e+01   1.5973839553e-06
-6.7032967033e+01   1.6009357850e-06
-6.6984126984e+01   1.6044941595e-06
-6.6935286935e+01   1.6080591001e-06
-6.6886446886e+01   1.6116306277e-06
-6.6837606838e+01   1.6152087638e-06
-6.6788766789e+01   1.6187935297e-06
-6.6739926740e+01   1.6223849466e-06
-6.6691086691e+01   1.6259830363e-06
-6.6642246642e+01   1.6295878201e-06
-6.6593406593e+01   1.6331993197e-06
-6.6544566545e+01   1.6368175569e-06
-6.6495726496e+01   1.6404425535e-06
-6.6446886447e+01   1.6440743312e-06
-6.6398046398e+01   1.6477129120e-06
-6.6349206349e+01   1.6513583180e-06
-6.6300366300e+01   1.6550105713e-06
-6.6251526252e+01   1.6586696939e-06
-6.6202686203e+01   1.6623357083e-06
-6.6153846154e+01   1.6660086366e-06
-6.6105006105e+01   1.6696885013e-06
-6.6056166056e+01   1.6733753250e-06
-6.6007326007e+01   1.6770691301e-06
-6.5958485958e+01   1.6807699393e-06
-6.5909645910e+01   1.6844777754e-06
-6.5860805861e+01   1.6881926611e-06
-6.5811965812e+01   1.6919146193e-06
-6.5763125763e+01   1.6956436731e-06
-6.5714285714e+01   1.6993798455e-06
-6.5665445665e+01   1.7031231595e-06
-6.5616605617e+01   1.7068736385e-06
-6.5567765568e+01   1.7106313057e-06
-6.5518925519e+01   1.7143961846e-06
-6.5470085470e+01   1.7181682985e-06
-6.5421245421e+01   1.7219476710e-06
-6.5372405372e+01   1.7257343259e-06
-6.5323565324e+01   1.7295282867e-06
-6.5274725275e+01   1.7333295773e-06
-6.5225885226e+01   1.7371382217e-06
-6.5177045177e+01   1.7409542437e-06
-6.5128205128e+01   1.7447776675e-06
-6.5079365079e+01   1.7486085172e-06
-6.5030525031e+01   1.7524468171e-06
-6.4981684982e+01   1.7562925914e-06
-6.4932844933e+01   1.7601458646e-06
-6.4884004884e+01   1.7640066612e-06
-6.4835164835e+01   1.7678750058e-06
-6.4786324786e+01   1.7717509231e-06
-6.4737484737e+01   1.7756344379e-06
-6.4688644689e+01   1.7795255750e-06
-6.4639804640e+01   1.7834243593e-06
-6.4590964591e+01   1.7873308160e-06
-6.4542124542e+01   1.7912449701e-06
-6.4493284493e+01   1.7951668470e-06
-6.4444444444e+01   1.7990964718e-06
-6.4395604396e+01   1.8030338701e-06
-6.4346764347e+01   1.8069790673e-06
-6.4297924298e+01   1.8109320890e-06
-6.4249084249e+01   1.8148929610e-06
-6.4200244200e+01   1.8188617090e-06
-6.4151404151e+01   1.8228383588e-06
-6.4102564103e+01   1.8268229366e-06
-6.4053724054e+01   1.8308154684e-06
-6.4004884005e+01   1.8348159802e-06
-6.3956043956e+01   1.8388244985e-06
-6.3907203907e+01   1.8428410495e-06
-6.3858363858e+01   1.8468656598e-06
-6.3809523810e+01   1.8508983559e-06
-6.3760683761e+01   1.8549391644e-06
-6.3711843712e+01   1.8589881121e-06
-6.3663003663e+01   1.8630452259e-06
-6.3614163614e+01   1.8671105327e-06
-6.3565323565e+01   1.8711840597e-06
-6.3516483516e+01   1.8752658338e-06
-6.3467643468e+01   1.8793558825e-06
-6.3418803419e+01   1.8834542330e-06
-6.3369963370e+01   1.8875609129e-06
-6.3321123321e+01   1.8916759497e-06
-6.3272283272e+01   1.8957993710e-06
-6.3223443223e+01   1.8999312048e-06
-6.3174603175e+01   1.9040714787e-06
-6.3125763126e+01   1.9082202208e-06
-6.3076923077e+01   1.9123774593e-06
-6.3028083028e+01   1.9165432222e-06
-6.2979242979e+01   1.9207175380e-06
-6.2930402930e+01   1.9249004349e-06
-6.2881562882e+01   1.9290919415e-06
-6.2832722833e+01   1.9332920865e-06
-6.2783882784e+01   1.9375008986e-06
-6.2735042735e+01   1.9417184066e-06
-6.2686202686e+01   1.9459446394e-06
-6.2637362637e+01   1.9501796261e-06
-6.2588522589e+01   1.9544233959e-06
-6.2539682540e+01   1.9586759781e-06
-6.2490842491e+01   1.9629374021e-06
-6.2442002442e+01   1.9672076972e-06
-6.2393162393e+01   1.9714868933e-06
-6.2344322344e+01   1.9757750199e-06
-6.2295482295e+01   1.9800721070e-06
-6.2246642247e+01   1.9843781845e-06
-6.2197802198e+01   1.9886932824e-06
-6.2148962149e+01   1.9930174310e-06
-6.2100122100e+01   1.9973506605e-06
-6.2051282051e+01   2.0016930014e-06
-6.2002442002e+01   2.0060444842e-06
-6.1953601954e+01   2.0104051395e-06
-6.1904761905e+01   2.0147749981e-06
-6.1855921856e+01   2.0191540910e-06
-6.1807081807e+01   2.0235424490e-06
-6.1758241758e+01   2.0279401034e-06
-6.1709401709e+01   2.0323470853e-06
-6.1660561661e+01   2.0367634262e-06
-6.1611721612e+01   2.0411891575e-06
-6.1562881563e+01   2.0456243109e-06
-6.1514041514e+01   2.0500689180e-06
-6.1465201465e+01   2.0545230107e-06
-6.1416361416e+01   2.0589866211e-06
-6.1367521368e+01   2.0634597811e-06
-6.1318681319e+01   2.0679425231e-06
-6.1269841270e+01   2.0724348794e-06
-6.1221001221e+01   2.0769368824e-06
-6.1172161172e+01   2.0814485648e-06
-6.1123321123e+01   2.0859699593e-06
-6.1074481074e+01   2.0905010988e-06
-6.1025641026e+01   2.0950420162e-06
-6.0976800977e+01   2.0995927447e-06
-6.0927960928e+01   2.1041533175e-06
-6.0879120879e+01   2.1087237680e-06
-6.0830280830e+01   2.1133041298e-06
-6.0781440781e+01   2.1178944363e-06
-6.0732600733e+01   2.1224947215e-06
-6.0683760684e+01   2.1271050192e-06
-6.0634920635e+01   2.1317253635e-06
-6.0586080586e+01   2.1363557886e-06
-6.0537240537e+01   2.1409963287e-06
-6.0488400488e+01   2.1456470183e-06
-6.0439560440e+01   2.1503078919e-06
-6.0390720391e+01   2.1549789844e-06
-6.0341880342e+01   2.1596603305e-06
-6.0293040293e+01   2.1643519653e-06
-6.0244200244e+01   2.1690539239e-06
-6.0195360195e+01   2.1737662415e-06
-6.0146520147e+01   2.1784889536e-06
-6.0097680098e+01   2.1832220957e-06
-6.0048840049e+01   2.1879657035e-06
-6.0000000000e+01   2.1927198129e-06
-5.9951159951e+01   2.1974844598e-06
-5.9902319902e+01   2.2022596804e-06
-5.9853479853e+01   2.2070455109e-06
-5.9804639805e+01   2.2118419878e-06
-5.9755799756e+01   2.2166491475e-06
-5.9706959707e+01   2.2214670269e-06
-5.9658119658e+01   2.2262956628e-06
-5.9609279609e+01   2.2311350921e-06
-5.9560439560e+01   2.2359853521e-06
-5.9511599512e+01   2.2408464800e-06
-5.9462759463e+01   2.2457185132e-06
-5.9413919414e+01   2.2506014895e-06
-5.9365079365e+01   2.2554954464e-06
-5.9316239316e+01   2.2604004221e-06
-5.9267399267e+01   2.2653164544e-06
-5.9218559219e+01   2.2702435816e-06
-5.9169719170e+01   2.2751818422e-06
-5.9120879121e+01   2.2801312745e-06
-5.9072039072e+01   2.2850919173e-06
-5.9023199023e+01   2.2900638095e-06
-5.8974358974e+01   2.2950469900e-06
-5.8925518926e+01   2.3000414980e-06
-5.8876678877e+01   2.3050473728e-06
-5.8827838828e+01   2.3100646539e-06
-5.8778998779e+01   2.3150933809e-06
-5.8730158730e+01   2.3201335936e-06
-5.8681318681e+01   2.3251853320e-06
-5.8632478632e+01   2.3302486362e-06
-5.8583638584e+01   2.3353235465e-06
-5.8534798535e+01   2.3404101034e-06
-5.8485958486e+01   2.3455083474e-06
-5.8437118437e+01   2.3506183194e-06
-5.8388278388e+01   2.3557400603e-06
-5.8339438339e+01   2.3608736112e-06
-5.8290598291e+01   2.3660190135e-06
-5.8241758242e+01   2.3711763086e-06
-5.8192918193e+01   2.3763455381e-06
-5.8144078144e+01   2.3815267439e-06
-5.8095238095e+01   2.3867199679e-06
-5.8046398046e+01   2.3919252523e-06
-5.7997557998e+01   2.3971426394e-06
-5.7948717949e+01   2.4023721717e-06
-5.7899877900e+01   2.4076138919e-06
-5.7851037851e+01   2.4128678429e-06
-5.7802197802e+01   2.4181340677e-06
-5.7753357753e+01   2.4234126095e-06
-5.7704517705e+01   2.4287035117e-06
-5.7655677656e+01   2.4340068180e-06
-5.7606837607e+01   2.4393225720e-06
-5.7557997558e+01   2.4446508176e-06
-5.7509157509e+01   2.4499915992e-06
-5.7460317460e+01   2.4553449608e-06
-5.7411477411e+01   2.4607109471e-06
-5.7362637363e+01   2.4660896028e-06
-5.7313797314e+01   2.4714809726e-06
-5.7264957265e+01   2.4768851017e-06
-5.7216117216e+01   2.4823020353e-06
-5.7167277167e+01   2.4877318189e-06
-5.7118437118e+01   2.4931744980e-06
-5.7069597070e+01   2.4986301186e-06
-5.7020757021e+01   2.5040987266e-06
-5.6971916972e+01   2.5095803682e-06
-5.6923076923e+01   2.5150750900e-06
-5.6874236874e+01   2.5205829383e-06
-5.6825396825e+01   2.5261039602e-06
-5.6776556777e+01   2.5316382025e-06
-5.6727716728e+01   2.5371857125e-06
-5.6678876679e+01   2.5427465376e-06
-5.6630036630e+01   2.5483207254e-06
-5.6581196581e+01   2.5539083236e-06
-5.6532356532e+01   2.5595093804e-06
-5.6483516484e+01   2.5651239439e-06
-5.6434676435e+01   2.5707520625e-06
-5.6385836386e+01   2.5763937850e-06
-5.6336996337e+01   2.5820491600e-06
-5.6288156288e+01   2.5877182367e-06
-5.6239316239e+01   2.5934010643e-06
-5.6190476190e+01   2.5990976923e-06
-5.6141636142e+01   2.6048081704e-06
-5.6092796093e+01   2.6105325484e-06
-5.6043956044e+01   2.6162708766e-06
-5.5995115995e+01   2.6220232051e-06
-5.5946275946e+01   2.6277895846e-06
-5.5897435897e+01   2.6335700658e-06
-5.5848595849e+01   2.6393646997e-06
-5.5799755800e+01   2.6451735375e-06
-5.5750915751e+01   2.6509966306e-06
-5.5702075702e+01   2.6568340307e-06
-5.5653235653e+01   2.6626857896e-06
-5.5604395604e+01   2.6685519595e-06
-5.5555555556e+01   2.6744325926e-06
-5.5506715507e+01   2.6803277415e-06
-5.5457875458e+01   2.6862374590e-06
-5.5409035409e+01   2.6921617981e-06
-5.5360195360e+01   2.6981008120e-06
-5.5311355311e+01   2.7040545542e-06
-5.5262515263e+01   2.7100230785e-06
-5.5213675214e+01   2.7160064387e-06
-5.5164835165e+01   2.7220046890e-06
-5.5115995116e+01   2.7280178839e-06
-5.5067155067e+01   2.7340460780e-06
-5.5018315018e+01   2.7400893262e-06
-5.4969474969e+01   2.7461476836e-06
-5.4920634921e+01   2.7522212056e-06
-5.4871794872e+01   2.7583099479e-06
-5.4822954823e+01   2.7644139663e-06
-5.4774114774e+01   2.7705333169e-06
-5.4725274725e+01   2.7766680560e-06
-5.4676434676e+01   2.7828182404e-06
-5.4627594628e+01   2.7889839268e-06
-5.4578754579e+01   2.7951651724e-06
-5.4529914530e+01   2.8013620345e-06
-5.4481074481e+01   2.8075745707e-06
-5.4432234432e+01   2.8138028390e-06
-5.4383394383e+01   2.8200468975e-06
-5.4334554335e+01   2.8263068045e-06
-5.4285714286e+01   2.8325826187e-06
-5.4236874237e+01   2.8388743991e-06
-5.4188034188e+01   2.8451822048e-06
-5.4139194139e+01   2.8515060952e-06
-5.4090354090e+01   2.8578461301e-06
-5.4041514042e+01   2.8642023695e-06
-5.3992673993e+01   2.8705748735e-06
-5.3943833944e+01   2.8769637027e-06
-5.3894993895e+01   2.8833689180e-06
-5.3846153846e+01   2.8897905802e-06
-5.3797313797e+01   2.8962287509e-06
-5.3748473748e+01   2.9026834916e-06
-5.3699633700e+01   2.9091548642e-06
-5.3650793651e+01   2.9156429308e-06
-5.3601953602e+01   2.9221477539e-06
-5.3553113553e+01   2.9286693963e-06
-5.3504273504e+01   2.9352079209e-06
-5.3455433455e+01   2.9417633911e-06
-5.3406593407e+01   2.9483358705e-06
-5.3357753358e+01   2.9549254228e-06
-5.3308913309e+01   2.9615321124e-06
-5.3260073260e+01   2.9681560036e-06
-5.3211233211e+01   2.9747971612e-06
-5.3162393162e+01   2.9814556503e-06
-5.3113553114e+01   2.9881315362e-06
-5.3064713065e+01   2.9948248845e-06
-5.3015873016e+01   3.0015357612e-06
-5.2967032967e+01   3.0082642326e-06
-5.2918192918e+01   3.0150103651e-06
-5.2869352869e+01   3.0217742256e-06
-5.2820512821e+01   3.0285558814e-06
-5.2771672772e+01   3.0353553998e-06
-5.2722832723e+01   3.0421728486e-06
-5.2673992674e+01   3.0490082960e-06
-5.2625152625e+01   3.0558618103e-06
-5.2576312576e+01   3.0627334602e-06
-5.2527472527e+01   3.0696233149e-06
-5.2478632479e+01   3.0765314435e-06
-5.2429792430e+01   3.0834579159e-06
-5.2380952381e+01   3.0904028021e-06
-5.2332112332e+01   3.0973661722e-06
-5.2283272283e+01   3.1043480971e-06
-5.2234432234e+01   3.1113486476e-06
-5.2185592186e+01   3.1183678951e-06
-5.2136752137e+01   3.1254059112e-06
-5.2087912088e+01   3.1324627679e-06
-5.2039072039e+01   3.1395385374e-06
-5.1990231990e+01   3.1466332925e-06
-5.1941391941e+01   3.1537471062e-06
-5.1892551893e+01   3.1608800516e-06
-5.1843711844e+01   3.1680322026e-06
-5.1794871795e+01   3.1752036331e-06
-5.1746031746e+01   3.1823944175e-06
-5.1697191697e+01   3.1896046305e-06
-5.1648351648e+01   3.1968343472e-06
-5.1599511600e+01   3.2040836429e-06
-5.1550671551e+01   3.2113525935e-06
-5.1501831502e+01   3.2186412750e-06
-5.1452991453e+01   3.2259497640e-06
-5.1404151404e+01   3.2332781372e-06
-5.1355311355e+01   3.2406264720e-06
-5.1306471306e+01   3.2479948458e-06
-5.1257631258e+01   3.2553833367e-06
-5.1208791209e+01   3.2627920229e-06
-5.1159951160e+01   3.2702209830e-06
-5.1111111111e+01   3.2776702963e-06
-5.1062271062e+01   3.2851400420e-06
-5.1013431013e+01   3.2926303001e-06
-5.0964590965e+01   3.3001411506e-06
-5.0915750916e+01   3.3076726742e-06
-5.0866910867e+01   3.3152249518e-06
-5.0818070818e+01   3.3227980648e-06
-5.0769230769e+01   3.3303920949e-06
-5.0720390720e+01   3.3380071242e-06
-5.0671550672e+01   3.3456432352e-06
-5.0622710623e+01   3.3533005109e-06
-5.0573870574e+01   3.3609790345e-06
-5.0525030525e+01   3.3686788899e-06
-5.0476190476e+01   3.3764001610e-06
-5.0427350427e+01   3.3841429324e-06
-5.0378510379e+01   3.3919072891e-06
-5.0329670330e+01   3.3996933163e-06
-5.0280830281e+01   3.4075010998e-06
-5.0231990232e+01   3.4153307258e-06
-5.0183150183e+01   3.4231822809e-06
-5.0134310134e+01   3.4310558521e-06
-5.0085470085e+01   3.4389515267e-06
-5.0036630037e+01   3.4468693927e-06
-4.9987789988e+01   3.4548095383e-06
-4.9938949939e+01   3.4627720522e-06
-4.9890109890e+01   3.4707570235e-06
-4.9841269841e+01   3.4787645419e-06
-4.9792429792e+01   3.4867946973e-06
-4.9743589744e+01   3.4948475801e-06
-4.9694749695e+01   3.5029232814e-06
-4.9645909646e+01   3.5110218923e-06
-4.9597069597e+01   3.5191435047e-06
-4.9548229548e+01   3.5272882108e-06
-4.9499389499e+01   3.5354561032e-06
-4.9450549451e+01   3.5436472752e-06
-4.9401709402e+01   3.5518618204e-06
-4.9352869353e+01   3.5600998327e-06
-4.9304029304e+01   3.5683614068e-06
-4.9255189255e+01   3.5766466375e-06
-4.9206349206e+01   3.5849556204e-06
-4.9157509158e+01   3.5932884514e-06
-4.9108669109e+01   3.6016452269e-06
-4.9059829060e+01   3.6100260438e-06
-4.9010989011e+01   3.6184309994e-06
-4.8962148962e+01   3.6268601916e-06
-4.8913308913e+01   3.6353137188e-06
-4.8864468864e+01   3.6437916797e-06
-4.8815628816e+01   3.6522941736e-06
-4.8766788767e+01   3.6608213005e-06
-4.8717948718e+01   3.6693731605e-06
-4.8669108669e+01   3.6779498545e-06
-4.8620268620e+01   3.6865514838e-06
-4.8571428571e+01   3.6951781503e-06
-4.8522588523e+01   3.7038299562e-06
-4.8473748474e+01   3.7125070044e-06
-4.8424908425e+01   3.7212093983e-06
-4.8376068376e+01   3.7299372418e-06
-4.8327228327e+01   3.7386906392e-06
-4.8278388278e+01   3.7474696955e-06
-4.8229548230e+01   3.7562745161e-06
-4.8180708181e+01   3.7651052071e-06
-4.8131868132e+01   3.7739618750e-06
-4.8083028083e+01   3.7828446268e-06
-4.8034188034e+01   3.7917535701e-06
-4.7985347985e+01   3.8006888131e-06
-4.7936507937e+01   3.8096504646e-06
-4.7887667888e+01   3.8186386337e-06
-4.7838827839e+01   3.8276534302e-06
-4.7789987790e+01   3.8366949646e-06
-4.7741147741e+01   3.8457633478e-06
-4.7692307692e+01   3.8548586913e-06
-4.7643467643e+01   3.8639811071e-06
-4.7594627595e+01   3.8731307079e-06
-4.7545787546e+01   3.8823076068e-06
-4.7496947497e+01   3.8915119178e-06
-4.7448107448e+01   3.9007437552e-06
-4.7399267399e+01   3.9100032339e-06
-4.7350427350e+01   3.9192904695e-06
-4.7301587302e+01   3.9286055782e-06
-4.7252747253e+01   3.9379486767e-06
-4.7203907204e+01   3.9473198824e-06
-4.7155067155e+01   3.9567193132e-06
-4.7106227106e+01   3.9661470877e-06
-4.7057387057e+01   3.9756033251e-06
-4.7008547009e+01   3.9850881451e-06
-4.6959706960e+01   3.9946016683e-06
-4.6910866911e+01   4.0041440157e-06
-4.6862026862e+01   4.0137153088e-06
-4.6813186813e+01   4.0233156701e-06
-4.6764346764e+01   4.0329452225e-06
-4.6715506716e+01   4.0426040895e-06
-4.6666666667e+01   4.0522923955e-06
-4.6617826618e+01   4.0620102652e-06
-4.6568986569e+01   4.0717578242e-06
-4.6520146520e+01   4.0815351987e-06
-4.6471306471e+01   4.0913425156e-06
-4.6422466422e+01   4.1011799023e-06
-4.6373626374e+01   4.1110474870e-06
-4.6324786325e+01   4.1209453987e-06
-4.6275946276e+01   4.1308737668e-06
-4.6227106227e+01   4.1408327215e-06
-4.6178266178e+01   4.1508223938e-06
-4.6129426129e+01   4.1608429152e-06
-4.6080586081e+01   4.1708944181e-06
-4.6031746032e+01   4.1809770355e-06
-4.5982905983e+01   4.1910909009e-06
-4.5934065934e+01   4.2012361489e-06
-4.5885225885e+01   4.2114129146e-06
-4.5836385836e+01   4.2216213337e-06
-4.5787545788e+01   4.2318615429e-06
-4.5738705739e+01   4.2421336795e-06
-4.5689865690e+01   4.2524378814e-06
-4.5641025641e+01   4.2627742873e-06
-4.5592185592e+01   4.2731430369e-06
-4.5543345543e+01   4.2835442704e-06
-4.5494505495e+01   4.2939781286e-06
-4.5445665446e+01   4.3044447535e-06
-4.5396825397e+01   4.3149442874e-06
-4.5347985348e+01   4.3254768737e-06
-4.5299145299e+01   4.3360426564e-06
-4.5250305250e+01   4.3466417804e-06
-4.5201465201e+01   4.3572743911e-06
-4.5152625153e+01   4.3679406351e-06
-4.5103785104e+01   4.3786406595e-06
-4.5054945055e+01   4.3893746122e-06
-4.5006105006e+01   4.4001426421e-06
-4.4957264957e+01   4.4109448986e-06
-4.4908424908e+01   4.4217815323e-06
-4.4859584860e+01   4.4326526943e-06
-4.4810744811e+01   4.4435585366e-06
-4.4761904762e+01   4.4544992121e-06
-4.4713064713e+01   4.4654748745e-06
-4.4664224664e+01   4.4764856784e-06
-4.4615384615e+01   4.4875317790e-06
-4.4566544567e+01   4.4986133326e-06
-4.4517704518e+01   4.5097304963e-06
-4.4468864469e+01   4.5208834280e-06
-4.4420024420e+01   4.5320722866e-06
-4.4371184371e+01   4.5432972317e-06
-4.4322344322e+01   4.5545584238e-06
-4.4273504274e+01   4.5658560244e-06
-4.4224664225e+01   4.5771901959e-06
-4.4175824176e+01   4.5885611013e-06
-4.4126984127e+01   4.5999689050e-06
-4.4078144078e+01   4.6114137719e-06
-4.4029304029e+01   4.6228958679e-06
-4.3980463980e+01   4.6344153599e-06
-4.3931623932e+01   4.6459724157e-06
-4.3882783883e+01   4.6575672041e-06
-4.3833943834e+01   4.6691998946e-06
-4.3785103785e+01   4.6808706580e-06
-4.3736263736e+01   4.6925796656e-06
-4.3687423687e+01   4.7043270902e-06
-4.3638583639e+01   4.7161131050e-06
-4.3589743590e+01   4.7279378847e-06
-4.3540903541e+01   4.7398016045e-06
-4.3492063492e+01   4.7517044410e-06
-4.3443223443e+01   4.7636465714e-06
-4.3394383394e+01   4.7756281743e-06
-4.3345543346e+01   4.7876494290e-06
-4.3296703297e+01   4.7997105158e-06
-4.3247863248e+01   4.8118116163e-06
-4.3199023199e+01   4.8239529128e-06
-4.3150183150e+01   4.8361345889e-06
-4.3101343101e+01   4.8483568290e-06
-4.3052503053e+01   4.8606198188e-06
-4.3003663004e+01   4.8729237448e-06
-4.2954822955e+01   4.8852687947e-06
-4.2905982906e+01   4.8976551572e-06
-4.2857142857e+01   4.9100830221e-06
-4.2808302808e+01   4.9225525804e-06
-4.2759462759e+01   4.9350640240e-06
-4.2710622711e+01   4.9476175460e-06
-4.2661782662e+01   4.9602133406e-06
-4.2612942613e+01   4.9728516030e-06
-4.2564102564e+01   4.9855325297e-06
-4.2515262515e+01   4.9982563182e-06
-4.2466422466e+01   5.0110231672e-06
-4.2417582418e+01   5.0238332764e-06
-4.2368742369e+01   5.0366868469e-06
-4.2319902320e+01   5.0495840808e-06
-4.2271062271e+01   5.0625251813e-06
-4.2222222222e+01   5.0755103529e-06
-4.2173382173e+01   5.0885398013e-06
-4.2124542125e+01   5.1016137332e-06
-4.2075702076e+01   5.1147323567e-06
-4.2026862027e+01   5.1278958811e-06
-4.1978021978e+01   5.1411045168e-06
-4.1929181929e+01   5.1543584755e-06
-4.1880341880e+01   5.1676579700e-06
-4.1831501832e+01   5.1810032145e-06
-4.1782661783e+01   5.1943944245e-06
-4.1733821734e+01   5.2078318166e-06
-4.1684981685e+01   5.2213156087e-06
-4.1636141636e+01   5.2348460200e-06
-4.1587301587e+01   5.2484232711e-06
-4.1538461538e+01   5.2620475836e-06
-4.1489621490e+01   5.2757191806e-06
-4.1440781441e+01   5.2894382867e-06
-4.1391941392e+01   5.3032051274e-06
-4.1343101343e+01   5.3170199299e-06
-4.1294261294e+01   5.3308829225e-06
-4.1245421245e+01   5.3447943350e-06
-4.1196581197e+01   5.3587543985e-06
-4.1147741148e+01   5.3727633455e-06
-4.1098901099e+01   5.3868214098e-06
-4.1050061050e+01   5.4009288266e-06
-4.1001221001e+01   5.4150858326e-06
-4.0952380952e+01   5.4292926659e-06
-4.0903540904e+01   5.4435495659e-06
-4.0854700855e+01   5.4578567735e-06
-4.0805860806e+01   5.4722145311e-06
-4.0757020757e+01   5.4866230824e-06
-4.0708180708e+01   5.5010826728e-06
-4.0659340659e+01   5.5155935488e-06
-4.0610500611e+01   5.5301559589e-06
-4.0561660562e+01   5.5447701525e-06
-4.0512820513e+01   5.5594363810e-06
-4.0463980464e+01   5.5741548970e-06
-4.0415140415e+01   5.5889259548e-06
-4.0366300366e+01   5.6037498102e-06
-4.0317460317e+01   5.6186267205e-06
-4.0268620269e+01   5.6335569446e-06
-4.0219780220e+01   5.6485407429e-06
-4.0170940171e+01   5.6635783775e-06
-4.0122100122e+01   5.6786701119e-06
-4.0073260073e+01   5.6938162115e-06
-4.0024420024e+01   5.7090169431e-06
-3.9975579976e+01   5.7242725751e-06
-3.9926739927e+01   5.7395833777e-06
-3.9877899878e+01   5.7549496227e-06
-3.9829059829e+01   5.7703715834e-06
-3.9780219780e+01   5.7858495351e-06
-3.9731379731e+01   5.8013837544e-06
-3.9682539683e+01   5.8169745200e-06
-3.9633699634e+01   5.8326221120e-06
-3.9584859585e+01   5.8483268123e-06
-3.9536019536e+01   5.8640889047e-06
-3.9487179487e+01   5.8799086746e-06
-3.9438339438e+01   5.8957864092e-06
-3.9389499389e+01   5.9117223975e-06
-3.9340659341e+01   5.9277169302e-06
-3.9291819292e+01   5.9437703000e-06
-3.9242979243e+01   5.9598828012e-06
-3.9194139194e+01   5.9760547300e-06
-3.9145299145e+01   5.9922863846e-06
-3.9096459096e+01   6.0085780649e-06
-3.9047619048e+01   6.0249300727e-06
-3.8998778999e+01   6.0413427117e-06
-3.8949938950e+01   6.0578162875e-06
-3.8901098901e+01   6.0743511076e-06
-3.8852258852e+01   6.0909474815e-06
-3.8803418803e+01   6.1076057206e-06
-3.8754578755e+01   6.1243261382e-06
-3.8705738706e+01   6.1411090497e-06
-3.8656898657e+01   6.1579547723e-06
-3.8608058608e+01   6.1748636255e-06
-3.8559218559e+01   6.1918359306e-06
-3.8510378510e+01   6.2088720109e-06
-3.8461538462e+01   6.2259721919e-06
-3.8412698413e+01   6.2431368011e-06
-3.8363858364e+01   6.2603661681e-06
-3.8315018315e+01   6.2776606245e-06
-3.8266178266e+01   6.2950205043e-06
-3.8217338217e+01   6.3124461432e-06
-3.8168498168e+01   6.3299378794e-06
-3.8119658120e+01   6.3474960532e-06
-3.8070818071e+01   6.3651210070e-06
-3.8021978022e+01   6.3828130853e-06
-3.7973137973e+01   6.4005726351e-06
-3.7924297924e+01   6.4184000054e-06
-3.7875457875e+01   6.4362955475e-06
-3.7826617827e+01   6.4542596150e-06
-3.7777777778e+01   6.4722925638e-06
-3.7728937729e+01   6.4903947520e-06
-3.7680097680e+01   6.5085665402e-06
-3.7631257631e+01   6.5268082911e-06
-3.7582417582e+01   6.5451203701e-06
-3.7533577534e+01   6.5635031445e-06
-3.7484737485e+01   6.5819569844e-06
-3.7435897436e+01   6.6004822621e-06
-3.7387057387e+01   6.6190793525e-06
-3.7338217338e+01   6.6377486328e-06
-3.7289377289e+01   6.6564904826e-06
-3.7240537241e+01   6.6753052842e-06
-3.7191697192e+01   6.6941934224e-06
-3.7142857143e+01   6.7131552843e-06
-3.7094017094e+01   6.7321912597e-06
-3.7045177045e+01   6.7513017410e-06
-3.6996336996e+01   6.7704871231e-06
-3.6947496947e+01   6.7897478036e-06
-3.6898656899e+01   6.8090841827e-06
-3.6849816850e+01   6.8284966631e-06
-3.6800976801e+01   6.8479856505e-06
-3.6752136752e+01   6.8675515529e-06
-3.6703296703e+01   6.8871947813e-06
-3.6654456654e+01   6.9069157493e-06
-3.6605616606e+01   6.9267148734e-06
-3.6556776557e+01   6.9465925728e-06
-3.6507936508e+01   6.9665492693e-06
-3.6459096459e+01   6.9865853878e-06
-3.6410256410e+01   7.0067013561e-06
-3.6361416361e+01   7.0268976045e-06
-3.6312576313e+01   7.0471745666e-06
-3.6263736264e+01   7.0675326787e-06
-3.6214896215e+01   7.0879723800e-06
-3.6166056166e+01   7.1084941128e-06
-3.6117216117e+01   7.1290983223e-06
-3.6068376068e+01   7.1497854568e-06
-3.6019536020e+01   7.1705559676e-06
-3.5970695971e+01   7.1914103090e-06
-3.5921855922e+01   7.2123489384e-06
-3.5873015873e+01   7.2333723165e-06
-3.5824175824e+01   7.2544809067e-06
-3.5775335775e+01   7.2756751762e-06
-3.5726495726e+01   7.2969555947e-06
-3.5677655678e+01   7.3183226357e-06
-3.5628815629e+01   7.3397767756e-06
-3.5579975580e+01   7.3613184941e-06
-3.5531135531e+01   7.3829482744e-06
-3.5482295482e+01   7.4046666027e-06
-3.5433455433e+01   7.4264739690e-06
-3.5384615385e+01   7.4483708661e-06
-3.5335775336e+01   7.4703577907e-06
-3.5286935287e+01   7.4924352428e-06
-3.5238095238e+01   7.5146037257e-06
-3.5189255189e+01   7.5368637463e-06
-3.5140415140e+01   7.5592158151e-06
-3.5091575092e+01   7.5816604460e-06
-3.5042735043e+01   7.6041981567e-06
-3.4993894994e+01   7.6268294682e-06
-3.4945054945e+01   7.6495549054e-06
-3.4896214896e+01   7.6723749968e-06
-3.4847374847e+01   7.6952902745e-06
-3.4798534799e+01   7.7183012744e-06
-3.4749694750e+01   7.7414085364e-06
-3.4700854701e+01   7.7646126037e-06
-3.4652014652e+01   7.7879140237e-06
-3.4603174603e+01   7.8113133477e-06
-3.4554334554e+01   7.8348111306e-06
-3.4505494505e+01   7.8584079314e-06
-3.4456654457e+01   7.8821043131e-06
-3.4407814408e+01   7.9059008426e-06
-3.4358974359e+01   7.9297980909e-06
-3.4310134310e+01   7.9537966330e-06
-3.4261294261e+01   7.9778970481e-06
-3.4212454212e+01   8.0020999193e-06
-3.4163614164e+01   8.0264058342e-06
-3.4114774115e+01   8.0508153844e-06
-3.4065934066e+01   8.0753291656e-06
-3.4017094017e+01   8.0999477782e-06
-3.3968253968e+01   8.1246718264e-06
-3.3919413919e+01   8.1495019192e-06
-3.3870573871e+01   8.1744386698e-06
-3.3821733822e+01   8.1994826957e-06
-3.3772893773e+01   8.2246346190e-06
-3.3724053724e+01   8.2498950664e-06
-3.3675213675e+01   8.2752646689e-06
-3.3626373626e+01   8.3007440623e-06
-3.3577533578e+01   8.3263338870e-06
-3.3528693529e+01   8.3520347878e-06
-3.3479853480e+01   8.3778474145e-06
-3.3431013431e+01   8.4037724216e-06
-3.3382173382e+01   8.4298104683e-06
-3.3333333333e+01   8.4559622186e-06
-3.3284493284e+01   8.4822283415e-06
-3.3235653236e+01   8.5086095108e-06
-3.3186813187e+01   8.5351064053e-06
-3.3137973138e+01   8.5617197089e-06
-3.3089133089e+01   8.5884501102e-06
-3.3040293040e+01   8.6152983034e-06
-3.2991452991e+01   8.6422649874e-06
-3.2942612943e+01   8.6693508666e-06
-3.2893772894e+01   8.6965566503e-06
-3.2844932845e+01   8.7238830533e-06
-3.2796092796e+01   8.7513307958e-06
-3.2747252747e+01   8.7789006031e-06
-3.2698412698e+01   8.8065932060e-06
-3.2649572650e+01   8.8344093410e-06
-3.2600732601e+01   8.8623497498e-06
-3.2551892552e+01   8.8904151799e-06
-3.2503052503e+01   8.9186063842e-06
-3.2454212454e+01   8.9469241214e-06
-3.2405372405e+01   8.9753691559e-06
-3.2356532357e+01   9.0039422579e-06
-3.2307692308e+01   9.0326442034e-06
-3.2258852259e+01   9.0614757741e-06
-3.2210012210e+01   9.0904377578e-06
-3.2161172161e+01   9.1195309484e-06
-3.2112332112e+01   9.1487561456e-06
-3.2063492063e+01   9.1781141553e-06
-3.2014652015e+01   9.2076057895e-06
-3.1965811966e+01   9.2372318663e-06
-3.1916971917e+01   9.2669932105e-06
-3.1868131868e+01   9.2968906526e-06
-3.1819291819e+01   9.3269250299e-06
-3.1770451770e+01   9.3570971859e-06
-3.1721611722e+01   9.3874079709e-06
-3.1672771673e+01   9.4178582414e-06
-3.1623931624e+01   9.4484488607e-06
-3.1575091575e+01   9.4791806988e-06
-3.1526251526e+01   9.5100546323e-06
-3.1477411477e+01   9.5410715446e-06
-3.1428571429e+01   9.5722323262e-06
-3.1379731380e+01   9.6035378743e-06
-3.1330891331e+01   9.6349890932e-06
-3.1282051282e+01   9.6665868941e-06
-3.1233211233e+01   9.6983321955e-06
-3.1184371184e+01   9.7302259231e-06
-3.1135531136e+01   9.7622690096e-06
-3.1086691087e+01   9.7944623954e-06
-3.1037851038e+01   9.8268070280e-06
-3.0989010989e+01   9.8593038625e-06
-3.0940170940e+01   9.8919538616e-06
-3.0891330891e+01   9.9247579953e-06
-3.0842490842e+01   9.9577172417e-06
-3.0793650794e+01   9.9908325864e-06
-3.0744810745e+01   1.0024105023e-05
-3.0695970696e+01   1.0057535552e-05
-3.0647130647e+01   1.0091125184e-05
-3.0598290598e+01   1.0124874936e-05
-3.0549450549e+01   1.0158785833e-05
-3.0500610501e+01   1.0192858910e-05
-3.0451770452e+01   1.0227095208e-05
-3.0402930403e+01   1.0261495777e-05
-3.0354090354e+01   1.0296061677e-05
-3.0305250305e+01   1.0330793974e-05
-3.0256410256e+01   1.0365693745e-05
-3.0207570208e+01   1.0400762075e-05
-3.0158730159e+01   1.0436000057e-05
-3.0109890110e+01   1.0471408793e-05
-3.0061050061e+01   1.0506989395e-05
-3.0012210012e+01   1.0542742983e-05
-2.9963369963e+01   1.0578670686e-05
-2.9914529915e+01   1.0614773643e-05
-2.9865689866e+01   1.0651053002e-05
-2.9816849817e+01   1.0687509921e-05
-2.9768009768e+01   1.0724145566e-05
-2.9719169719e+01   1.0760961114e-05
-2.9670329670e+01   1.0797957750e-05
-2.9621489621e+01   1.0835136672e-05
-2.9572649573e+01   1.0872499084e-05
-2.9523809524e+01   1.0910046202e-05
-2.9474969475e+01   1.0947779252e-05
-2.9426129426e+01   1.0985699471e-05
-2.9377289377e+01   1.1023808104e-05
-2.9328449328e+01   1.1062106409e-05
-2.9279609280e+01   1.1100595651e-05
-2.9230769231e+01   1.1139277110e-05
-2.9181929182e+01   1.1178152072e-05
-2.9133089133e+01   1.1217221839e-05
-2.9084249084e+01   1.1256487719e-05
-2.9035409035e+01   1.1295951033e-05
-2.8986568987e+01   1.1335613115e-05
-2.8937728938e+01   1.1375475307e-05
-2.8888888889e+01   1.1415538965e-05
-2.8840048840e+01   1.1455805454e-05
-2.8791208791e+01   1.1496276152e-05
-2.8742368742e+01   1.1536952450e-05
-2.8693528694e+01   1.1577835748e-05
-2.8644688645e+01   1.1618927460e-05
-2.8595848596e+01   1.1660229011e-05
-2.8547008547e+01   1.1701741839e-05
-2.8498168498e+01   1.1743467394e-05
-2.8449328449e+01   1.1785407138e-05
-2.8400488400e+01   1.1827562547e-05
-2.8351648352e+01   1.1869935107e-05
-2.8302808303e+01   1.1912526319e-05
-2.8253968254e+01   1.1955337697e-05
-2.8205128205e+01   1.1998370768e-05
-2.8156288156e+01   1.2041627070e-05
-2.8107448107e+01   1.2085108158e-05
-2.8058608059e+01   1.2128815597e-05
-2.8009768010e+01   1.2172750969e-05
-2.7960927961e+01   1.2216915867e-05
-2.7912087912e+01   1.2261311899e-05
-2.7863247863e+01   1.2305940688e-05
-2.7814407814e+01   1.2350803870e-05
-2.7765567766e+01   1.2395903096e-05
-2.7716727717e+01   1.2441240030e-05
-2.7667887668e+01   1.2486816354e-05
-2.7619047619e+01   1.2532633761e-05
-2.7570207570e+01   1.2578693963e-05
-2.7521367521e+01   1.2624998683e-05
-2.7472527473e+01   1.2671549662e-05
-2.7423687424e+01   1.2718348656e-05
-2.7374847375e+01   1.2765397437e-05
-2.7326007326e+01   1.2812697792e-05
-2.7277167277e+01   1.2860251525e-05
-2.7228327228e+01   1.2908060453e-05
-2.7179487179e+01   1.2956126415e-05
-2.7130647131e+01   1.3004451262e-05
-2.7081807082e+01   1.3053036862e-05
-2.7032967033e+01   1.3101885103e-05
-2.6984126984e+01   1.3150997887e-05
-2.6935286935e+01   1.3200377134e-05
-2.6886446886e+01   1.3250024782e-05
-2.6837606838e+01   1.3299942787e-05
-2.6788766789e+01   1.3350133121e-05
-2.6739926740e+01   1.3400597776e-05
-2.6691086691e+01   1.3451338761e-05
-2.6642246642e+01   1.3502358103e-05
-2.6593406593e+01   1.3553657850e-05
-2.6544566545e+01   1.3605240066e-05
-2.6495726496e+01   1.3657106836e-05
-2.6446886447e+01   1.3709260264e-05
-2.6398046398e+01   1.3761702471e-05
-2.6349206349e+01   1.3814435601e-05
-2.6300366300e+01   1.3867461816e-05
-2.6251526252e+01   1.3920783299e-05
-2.6202686203e+01   1.3974402253e-05
-2.6153846154e+01   1.4028320901e-05
-2.6105006105e+01   1.4082541488e-05
-2.6056166056e+01   1.4137066279e-05
-2.6007326007e+01   1.4191897560e-05
-2.5958485958e+01   1.4247037639e-05
-2.5909645910e+01   1.4302488848e-05
-2.5860805861e+01   1.4358253536e-05
-2.5811965812e+01   1.4414334079e-05
-2.5763125763e+01   1.4470732872e-05
-2.5714285714e+01   1.4527452336e-05
-2.5665445665e+01   1.4584494912e-05
-2.5616605617e+01   1.4641863067e-05
-2.5567765568e+01   1.4699559289e-05
-2.5518925519e+01   1.4757586091e-05
-2.5470085470e+01   1.4815946010e-05
-2.5421245421e+01   1.4874641608e-05
-2.5372405372e+01   1.4933675471e-05
-2.5323565324e+01   1.4993050209e-05
-2.5274725275e+01   1.5052768460e-05
-2.5225885226e+01   1.5112832884e-05
-2.5177045177e+01   1.5173246169e-05
-2.5128205128e+01   1.5234011029e-05
-2.5079365079e+01   1.5295130204e-05
-2.5030525031e+01   1.5356606461e-05
-2.4981684982e+01   1.5418442592e-05
-2.4932844933e+01   1.5480641421e-05
-2.4884004884e+01   1.5543205795e-05
-2.4835164835e+01   1.5606138590e-05
-2.4786324786e+01   1.5669442714e-05
-2.4737484737e+01   1.5733121098e-05
-2.4688644689e+01   1.5797176706e-05
-2.4639804640e+01   1.5861612531e-05
-2.4590964591e+01   1.5926431593e-05
-2.4542124542e+01   1.5991636946e-05
-2.4493284493e+01   1.6057231671e-05
-2.4444444444e+01   1.6123218881e-05
-2.4395604396e+01   1.6189601721e-05
-2.4346764347e+01   1.6256383367e-05
-2.4297924298e+01   1.6323567026e-05
-2.4249084249e+01   1.6391155938e-05
-2.4200244200e+01   1.6459153376e-05
-2.4151404151e+01   1.6527562647e-05
-2.4102564103e+01   1.6596387088e-05
-2.4053724054e+01   1.6665630073e-05
-2.4004884005e+01   1.6735295010e-05
-2.3956043956e+01   1.6805385341e-05
-2.3907203907e+01   1.6875904542e-05
-2.3858363858e+01   1.6946856128e-05
-2.3809523810e+01   1.7018243646e-05
-2.3760683761e+01   1.7090070682e-05
-2.3711843712e+01   1.7162340859e-05
-2.3663003663e+01   1.7235057836e-05
-2.3614163614e+01   1.7308225310e-05
-2.3565323565e+01   1.7381847018e-05
-2.3516483516e+01   1.7455926733e-05
-2.3467643468e+01   1.7530468269e-05
-2.3418803419e+01   1.7605475481e-05
-2.3369963370e+01   1.7680952261e-05
-2.3321123321e+01   1.7756902545e-05
-2.3272283272e+01   1.7833330307e-05
-2.3223443223e+01   1.7910239567e-05
-2.3174603175e+01   1.7987634382e-05
-2.3125763126e+01   1.8065518857e-05
-2.3076923077e+01   1.8143897138e-05
-2.3028083028e+01   1.8222773414e-05
-2.2979242979e+01   1.8302151920e-05
-2.2930402930e+01   1.8382036936e-05
-2.2881562882e+01   1.8462432786e-05
-2.2832722833e+01   1.8543343844e-05
-2.2783882784e+01   1.8624774526e-05
-2.2735042735e+01   1.8706729299e-05
-2.2686202686e+01   1.8789212677e-05
-2.2637362637e+01   1.8872229222e-05
-2.2588522589e+01   1.8955783546e-05
-2.2539682540e+01   1.9039880311e-05
-2.2490842491e+01   1.9124524228e-05
-2.2442002442e+01   1.9209720063e-05
-2.2393162393e+01   1.9295472629e-05
-2.2344322344e+01   1.9381786796e-05
-2.2295482295e+01   1.9468667485e-05
-2.2246642247e+01   1.9556119671e-05
-2.2197802198e+01   1.9644148384e-05
-2.2148962149e+01   1.9732758710e-05
-2.2100122100e+01   1.9821955790e-05
-2.2051282051e+01   1.9911744823e-05
-2.2002442002e+01   2.0002131066e-05
-2.1953601954e+01   2.0093119833e-05
-2.1904761905e+01   2.0184716497e-05
-2.1855921856e+01   2.0276926494e-05
-2.1807081807e+01   2.0369755317e-05
-2.1758241758e+01   2.0463208522e-05
-2.1709401709e+01   2.0557291730e-05
-2.1660561661e+01   2.0652010622e-05
-2.1611721612e+01   2.0747370943e-05
-2.1562881563e+01   2.0843378507e-05
-2.1514041514e+01   2.0940039189e-05
-2.1465201465e+01   2.1037358934e-05
-2.1416361416e+01   2.1135343753e-05
-2.1367521368e+01   2.1233999728e-05
-2.1318681319e+01   2.1333333008e-05
-2.1269841270e+01   2.1433349814e-05
-2.1221001221e+01   2.1534056437e-05
-2.1172161172e+01   2.1635459244e-05
-2.1123321123e+01   2.1737564671e-05
-2.1074481074e+01   2.1840379233e-05
-2.1025641026e+01   2.1943909516e-05
-2.0976800977e+01   2.2048162186e-05
-2.0927960928e+01   2.2153143987e-05
-2.0879120879e+01   2.2258861738e-05
-2.0830280830e+01   2.2365322343e-05
-2.0781440781e+01   2.2472532783e-05
-2.0732600733e+01   2.2580500123e-05
-2.0683760684e+01   2.2689231511e-05
-2.0634920635e+01   2.2798734180e-05
-2.0586080586e+01   2.2909015447e-05
-2.0537240537e+01   2.3020082719e-05
-2.0488400488e+01   2.3131943489e-05
-2.0439560440e+01   2.3244605339e-05
-2.0390720391e+01   2.3358075943e-05
-2.0341880342e+01   2.3472363067e-05
-2.0293040293e+01   2.3587474569e-05
-2.0244200244e+01   2.3703418405e-05
-2.0195360195e+01   2.3820202623e-05
-2.0146520147e+01   2.3937835372e-05
-2.0097680098e+01   2.4056324896e-05
-2.0048840049e+01   2.4175679544e-05
-2.0000000000e+01   2.4295907763e-05
-1.9951159951e+01   2.4417018106e-05
-1.9902319902e+01   2.4539019228e-05
-1.9853479853e+01   2.4661919894e-05
-1.9804639805e+01   2.4785728974e-05
-1.9755799756e+01   2.4910455448e-05
-1.9706959707e+01   2.5036108409e-05
-1.9658119658e+01   2.5162697062e-05
-1.9609279609e+01   2.5290230724e-05
-1.9560439560e+01   2.5418718832e-05
-1.9511599512e+01   2.5548170939e-05
-1.9462759463e+01   2.5678596718e-05
-1.9413919414e+01   2.5810005964e-05
-1.9365079365e+01   2.5942408595e-05
-1.9316239316e+01   2.6075814655e-05
-1.9267399267e+01   2.6210234313e-05
-1.9218559219e+01   2.6345677870e-05
-1.9169719170e+01   2.6482155756e-05
-1.9120879121e+01   2.6619678535e-05
-1.9072039072e+01   2.6758256907e-05
-1.9023199023e+01   2.6897901706e-05
-1.8974358974e+01   2.7038623910e-05
-1.8925518926e+01   2.7180434634e-05
-1.8876678877e+01   2.7323345139e-05
-1.8827838828e+01   2.7467366833e-05
-1.8778998779e+01   2.7612511269e-05
-1.8730158730e+01   2.7758790153e-05
-1.8681318681e+01   2.7906215343e-05
-1.8632478632e+01   2.8054798853e-05
-1.8583638584e+01   2.8204552853e-05
-1.8534798535e+01   2.8355489675e-05
-1.8485958486e+01   2.8507621813e-05
-1.8437118437e+01   2.8660961925e-05
-1.8388278388e+01   2.8815522840e-05
-1.8339438339e+01   2.8971317554e-05
-1.8290598291e+01   2.9128359240e-05
-1.8241758242e+01   2.9286661244e-05
-1.8192918193e+01   2.9446237093e-05
-1.8144078144e+01   2.9607100495e-05
-1.8095238095e+01   2.9769265343e-05
-1.8046398046e+01   2.9932745717e-05
-1.7997557998e+01   3.0097555888e-05
-1.7948717949e+01   3.0263710324e-05
-1.7899877900e+01   3.0431223685e-05
-1.7851037851e+01   3.0600110835e-05
-1.7802197802e+01   3.0770386840e-05
-1.7753357753e+01   3.0942066974e-05
-1.7704517705e+01   3.1115166722e-05
-1.7655677656e+01   3.1289701780e-05
-1.7606837607e+01   3.1465688064e-05
-1.7557997558e+01   3.1643141711e-05
-1.7509157509e+01   3.1822079081e-05
-1.7460317460e+01   3.2002516765e-05
-1.7411477411e+01   3.2184471585e-05
-1.7362637363e+01   3.2367960598e-05
-1.7313797314e+01   3.2553001105e-05
-1.7264957265e+01   3.2739610646e-05
-1.7216117216e+01   3.2927807015e-05
-1.7167277167e+01   3.3117608256e-05
-1.7118437118e+01   3.3309032669e-05
-1.7069597070e+01   3.3502098818e-05
-1.7020757021e+01   3.3696825532e-05
-1.6971916972e+01   3.3893231909e-05
-1.6923076923e+01   3.4091337325e-05
-1.6874236874e+01   3.4291161434e-05
-1.6825396825e+01   3.4492724175e-05
-1.6776556777e+01   3.4696045778e-05
-1.6727716728e+01   3.4901146767e-05
-1.6678876679e+01   3.5108047965e-05
-1.6630036630e+01   3.5316770503e-05
-1.6581196581e+01   3.5527335821e-05
-1.6532356532e+01   3.5739765675e-05
-1.6483516484e+01   3.5954082144e-05
-1.6434676435e+01   3.6170307633e-05
-1.6385836386e+01   3.6388464882e-05
-1.6336996337e+01   3.6608576970e-05
-1.6288156288e+01   3.6830667320e-05
-1.6239316239e+01   3.7054759708e-05
-1.6190476190e+01   3.7280878269e-05
-1.6141636142e+01   3.7509047501e-05
-1.6092796093e+01   3.7739292273e-05
-1.6043956044e+01   3.7971637834e-05
-1.5995115995e+01   3.8206109814e-05
-1.5946275946e+01   3.8442734239e-05
-1.5897435897e+01   3.8681537531e-05
-1.5848595849e+01   3.8922546521e-05
-1.5799755800e+01   3.9165788452e-05
-1.5750915751e+01   3.9411290990e-05
-1.5702075702e+01   3.9659082229e-05
-1.5653235653e+01   3.9909190703e-05
-1.5604395604e+01   4.0161645388e-05
-1.5555555556e+01   4.0416475718e-05
-1.5506715507e+01   4.0673711587e-05
-1.5457875458e+01   4.0933383362e-05
-1.5409035409e+01   4.1195521889e-05
-1.5360195360e+01   4.1460158506e-05
-1.5311355311e+01   4.1727325046e-05
-1.5262515263e+01   4.1997053853e-05
-1.5213675214e+01   4.2269377790e-05
-1.5164835165e+01   4.2544330245e-05
-1.5115995116e+01   4.2821945148e-05
-1.5067155067e+01   4.3102256975e-05
-1.5018315018e+01   4.3385300763e-05
-1.4969474969e+01   4.3671112119e-05
-1.4920634921e+01   4.3959727231e-05
-1.4871794872e+01   4.4251182882e-05
-1.4822954823e+01   4.4545516456e-05
-1.4774114774e+01   4.4842765959e-05
-1.4725274725e+01   4.5142970021e-05
-1.4676434676e+01   4.5446167916e-05
-1.4627594628e+01   4.5752399571e-05
-1.4578754579e+01   4.6061705583e-05
-1.4529914530e+01   4.6374127226e-05
-1.4481074481e+01   4.6689706471e-05
-1.4432234432e+01   4.7008485997e-05
-1.4383394383e+01   4.7330509207e-05
-1.4334554335e+01   4.7655820240e-05
-1.4285714286e+01   4.7984463988e-05
-1.4236874237e+01   4.8316486113e-05
-1.4188034188e+01   4.8651933060e-05
-1.4139194139e+01   4.8990852073e-05
-1.4090354090e+01   4.9333291216e-05
-1.4041514042e+01   4.9679299384e-05
-1.3992673993e+01   5.0028926325e-05
-1.3943833944e+01   5.0382222654e-05
-1.3894993895e+01   5.0739239877e-05
-1.3846153846e+01   5.1100030403e-05
-1.3797313797e+01   5.1464647568e-05
-1.3748473748e+01   5.1833145652e-05
-1.3699633700e+01   5.2205579900e-05
-1.3650793651e+01   5.2582006545e-05
-1.3601953602e+01   5.2962482823e-05
-1.3553113553e+01   5.3347067003e-05
-1.3504273504e+01   5.3735818401e-05
-1.3455433455e+01   5.4128797410e-05
-1.3406593407e+01   5.4526065517e-05
-1.3357753358e+01   5.4927685333e-05
-1.3308913309e+01   5.5333720613e-05
-1.3260073260e+01   5.5744236283e-05
-1.3211233211e+01   5.6159298466e-05
-1.3162393162e+01   5.6578974508e-05
-1.3113553114e+01   5.7003333007e-05
-1.3064713065e+01   5.7432443837e-05
-1.3015873016e+01   5.7866378182e-05
-1.2967032967e+01   5.8305208560e-05
-1.2918192918e+01   5.8749008858e-05
-1.2869352869e+01   5.9197854360e-05
-1.2820512821e+01   5.9651821779e-05
-1.2771672772e+01   6.0110989291e-05
-1.2722832723e+01   6.0575436568e-05
-1.2673992674e+01   6.1045244812e-05
-1.2625152625e+01   6.1520496792e-05
-1.2576312576e+01   6.2001276876e-05
-1.2527472527e+01   6.2487671075e-05
-1.2478632479e+01   6.2979767076e-05
-1.2429792430e+01   6.3477654283e-05
-1.2380952381e+01   6.3981423857e-05
-1.2332112332e+01   6.4491168760e-05
-1.2283272283e+01   6.5006983794e-05
-1.2234432234e+01   6.5528965649e-05
-1.2185592186e+01   6.6057212944e-05
-1.2136752137e+01   6.6591826277e-05
-1.2087912088e+01   6.7132908269e-05
-1.2039072039e+01   6.7680563617e-05
-1.1990231990e+01   6.8234899143e-05
-1.1941391941e+01   6.8796023845e-05
-1.1892551893e+01   6.9364048950e-05
-1.1843711844e+01   6.9939087972e-05
-1.1794871795e+01   7.0521256763e-05
-1.1746031746e+01   7.1110673579e-05
-1.1697191697e+01   7.1707459132e-05
-1.1648351648e+01   7.2311736656e-05
-1.1599511600e+01   7.2923631970e-05
-1.1550671551e+01   7.3543273541e-05
-1.1501831502e+01   7.4170792554e-05
-1.1452991453e+01   7.4806322980e-05
-1.1404151404e+01   7.5450001645e-05
-1.1355311355e+01   7.6101968309e-05
-1.1306471306e+01   7.6762365735e-05
-1.1257631258e+01   7.7431339771e-05
-1.1208791209e+01   7.8109039429e-05
-1.1159951160e+01   7.8795616969e-05
-1.1111111111e+01   7.9491227979e-05
-1.1062271062e+01   8.0196031471e-05
-1.1013431013e+01   8.0910189964e-05
-1.0964590965e+01   8.1633869583e-05
-1.0915750916e+01   8.2367240151e-05
-1.0866910867e+01   8.3110475289e-05
-1.0818070818e+01   8.3863752521e-05
-1.0769230769e+01   8.4627253376e-05
-1.0720390720e+01   8.5401163501e-05
-1.0671550672e+01   8.6185672767e-05
-1.0622710623e+01   8.6980975391e-05
-1.0573870574e+01   8.7787270055e-05
-1.0525030525e+01   8.8604760025e-05
-1.0476190476e+01   8.9433653283e-05
-1.0427350427e+01   9.0274162656e-05
-1.0378510379e+01   9.1126505954e-05
-1.0329670330e+01   9.1990906110e-05
-1.0280830281e+01   9.2867591323e-05
-1.0231990232e+01   9.3756795210e-05
-1.0183150183e+01   9.4658756961e-05
-1.0134310134e+01   9.5573721498e-05
-1.0085470085e+01   9.6501939638e-05
-1.0036630037e+01   9.7443668272e-05
-9.9877899878e+00   9.8399170532e-05
-9.9389499389e+00   9.9368715981e-05
-9.8901098901e+00   1.0035258080e-04
-9.8412698413e+00   1.0135104797e-04
-9.7924297924e+00   1.0236440752e-04
-9.7435897436e+00   1.0339295667e-04
-9.6947496947e+00   1.0443700009e-04
-9.6459096459e+00   1.0549685014e-04
-9.5970695971e+00   1.0657282703e-04
-9.5482295482e+00   1.0766525917e-04
-9.4993894994e+00   1.0877448330e-04
-9.4505494505e+00   1.0990084485e-04
-9.4017094017e+00   1.1104469814e-04
-9.3528693529e+00   1.1220640669e-04
-9.3040293040e+00   1.1338634348e-04
-9.2551892552e+00   1.1458489129e-04
-9.2063492063e+00   1.1580244296e-04
-9.1575091575e+00   1.1703940177e-04
-9.1086691087e+00   1.1829618169e-04
-9.0598290598e+00   1.1957320779e-04
-9.0109890110e+00   1.2087091659e-04
-8.9621489621e+00   1.2218975639e-04
-8.9133089133e+00   1.2353018770e-04
-8.8644688645e+00   1.2489268363e-04
-8.8156288156e+00   1.2627773027e-04
-8.7667887668e+00   1.2768582716e-04
-8.7179487179e+00   1.2911748773e-04
-8.6691086691e+00   1.3057323975e-04
-8.6202686203e+00   1.3205362582e-04
-8.5714285714e+00   1.3355920388e-04
-8.5225885226e+00   1.3509054772e-04
-8.4737484737e+00   1.3664824754e-04
-8.4249084249e+00   1.3823291049e-04
-8.3760683761e+00   1.3984516127e-04
-8.3272283272e+00   1.4148564275e-04
-8.2783882784e+00   1.4315501659e-04
-8.2295482295e+00   1.4485396392e-04
-8.1807081807e+00   1.4658318600e-04
-8.1318681319e+00   1.4834340498e-04
-8.0830280830e+00   1.5013536460e-04
-8.0341880342e+00   1.5195983101e-04
-7.9853479853e+00   1.5381759356e-04
-7.9365079365e+00   1.5570946566e-04
-7.8876678877e+00   1.5763628565e-04
-7.8388278388e+00   1.5959891772e-04
-7.7899877900e+00   1.6159825289e-04
-7.7411477411e+00   1.6363520999e-04
-7.6923076923e+00   1.6571073672e-04
-7.6434676435e+00   1.6782581075e-04
-7.5946275946e+00   1.6998144083e-04
-7.5457875458e+00   1.7217866800e-04
-7.4969474969e+00   1.7441856687e-04
-7.4481074481e+00   1.7670224684e-04
-7.3992673993e+00   1.7903085356e-04
-7.3504273504e+00   1.8140557026e-04
-7.3015873016e+00   1.8382761929e-04
-7.2527472527e+00   1.8629826369e-04
-7.2039072039e+00   1.8881880878e-04
-7.1550671551e+00   1.9139060387e-04
-7.1062271062e+00   1.9401504410e-04
-7.0573870574e+00   1.9669357225e-04
-7.0085470085e+00   1.9942768071e-04
-6.9597069597e+00   2.0221891359e-04
-6.9108669109e+00   2.0506886881e-04
-6.8620268620e+00   2.0797920041e-04
-6.8131868132e+00   2.1095162088e-04
-6.7643467643e+00   2.1398790370e-04
-6.7155067155e+00   2.1708988591e-04
-6.6666666667e+00   2.2025947089e-04
-6.6178266178e+00   2.2349863121e-04
-6.5689865690e+00   2.2680941171e-04
-6.5201465201e+00   2.3019393263e-04
-6.4713064713e+00   2.3365439301e-04
-6.4224664225e+00   2.3719307419e-04
-6.3736263736e+00   2.4081234355e-04
-6.3247863248e+00   2.4451465838e-04
-6.2759462759e+00   2.4830257002e-04
-6.2271062271e+00   2.5217872819e-04
-6.1782661783e+00   2.5614588556e-04
-6.1294261294e+00   2.6020690258e-04
-6.0805860806e+00   2.6436475254e-04
-6.0317460317e+00   2.6862252698e-04
-5.9829059829e+00   2.7298344128e-04
-5.9340659341e+00   2.7745084071e-04
-5.8852258852e+00   2.8202820672e-04
-5.8363858364e+00   2.8671916361e-04
-5.7875457875e+00   2.9152748562e-04
-5.7387057387e+00   2.9645710438e-04
-5.6898656899e+00   3.0151211680e-04
-5.6410256410e+00   3.0669679350e-04
-5.5921855922e+00   3.1201558763e-04
-5.5433455433e+00   3.1747314429e-04
-5.4945054945e+00   3.2307431047e-04
-5.4456654457e+00   3.2882414569e-04
-5.3968253968e+00   3.3472793313e-04
-5.3479853480e+00   3.4079119161e-04
-5.2991452991e+00   3.4701968824e-04
-5.2503052503e+00   3.5341945185e-04
-5.2014652015e+00   3.5999678731e-04
-5.1526251526e+00   3.6675829075e-04
-5.1037851038e+00   3.7371086579e-04
-5.0549450549e+00   3.8086174075e-04
-5.0061050061e+00   3.8821848711e-04
-4.9572649573e+00   3.9578903909e-04
-4.9084249084e+00   4.0358171455e-04
-4.8595848596e+00   4.1160523742e-04
-4.8107448107e+00   4.1986876145e-04
-4.7619047619e+00   4.2838189584e-04
-4.7130647131e+00   4.3715473240e-04
-4.6642246642e+00   4.4619787482e-04
-4.6153846154e+00   4.5552246991e-04
-4.5665445665e+00   4.6514024105e-04
-4.5177045177e+00   4.7506352413e-04
-4.4688644689e+00   4.8530530608e-04
-4.4200244200e+00   4.9587926617e-04
-4.3711843712e+00   5.0679982048e-04
-4.3223443223e+00   5.1808216965e-04
-4.2735042735e+00   5.2974235023e-04
-4.2246642247e+00   5.4179729003e-04
-4.1758241758e+00   5.5426486767e-04
-4.1269841270e+00   5.6716397688e-04
-4.0781440781e+00   5.8051459574e-04
-4.0293040293e+00   5.9433786162e-04
-3.9804639805e+00   6.0865615198e-04
-3.9316239316e+00   6.2349317195e-04
-3.8827838828e+00   6.3887404891e-04
-3.8339438339e+00   6.5482543515e-04
-3.7851037851e+00   6.7137561905e-04
-3.7362637363e+00   6.8855464575e-04
-3.6874236874e+00   7.0639444823e-04
-3.6385836386e+00   7.2492898976e-04
-3.5897435897e+00   7.4419441897e-04
-3.5409035409e+00   7.6422923860e-04
-3.4920634921e+00   7.8507448956e-04
-3.4432234432e+00   8.0677395170e-04
-3.3943833944e+00   8.2937436307e-04
-3.3455433455e+00   8.5292565968e-04
-3.2967032967e+00   8.7748123782e-04
-3.2478632479e+00   9.0309824143e-04
-3.1990231990e+00   9.2983787721e-04
-3.1501831502e+00   9.5776576061e-04
-3.1013431013e+00   9.8695229591e-04
-3.0525030525e+00   1.0174730945e-03
-3.0036630037e+00   1.0494094353e-03
-2.9548229548e+00   1.0828487729e-03
-2.9059829060e+00   1.1178852978e-03
-2.8571428571e+00   1.1546205558e-03
-2.8083028083e+00   1.1931641340e-03
-2.7594627595e+00   1.2336344189e-03
-2.7106227106e+00   1.2761594392e-03
-2.6617826618e+00   1.3208778000e-03
-2.6129426129e+00   1.3679397223e-03
-2.5641025641e+00   1.4175081992e-03
-2.5152625153e+00   1.4697602850e-03
-2.4664224664e+00   1.5248885328e-03
-2.4175824176e+00   1.5831026010e-03
-2.3687423687e+00   1.6446310492e-03
-2.3199023199e+00   1.7097233496e-03
-2.2710622711e+00   1.7786521416e-03
-2.2222222222e+00   1.8517157614e-03
-2.1733821734e+00   1.9292410843e-03
-2.1245421245e+00   2.0115867204e-03
-2.0757020757e+00   2.0991466119e-03
-2.0268620269e+00   2.1923540853e-03
-1.9780219780e+00   2.2916864191e-03
-1.9291819292e+00   2.3976699966e-03
-1.8803418803e+00   2.5108861189e-03
-1.8315018315e+00   2.6319775668e-03
-1.7826617827e+00   2.7616560040e-03
-1.7338217338e+00   2.9007103274e-03
-1.6849816850e+00   3.0500160768e-03
-1.6361416361e+00   3.2105460225e-03
-1.5873015873e+00   3.3833820519e-03
-1.5384615385e+00   3.5697284745e-03
-1.4896214896e+00   3.7709268501e-03
-1.4407814408e+00   3.9884724178e-03
-1.3919413919e+00   4.2240321542e-03
-1.3431013431e+00   4.4794644049e-03
-1.2942612943e+00   4.7568399018e-03
-1.2454212454e+00   5.0584637754e-03
-1.1965811966e+00   5.3868978687e-03
-1.1477411477e+00   5.7449822123e-03
-1.0989010989e+00   6.1358538763e-03
-1.0500610501e+00   6.5629604916e-03
-1.0012210012e+00   7.0300644467e-03
-9.5238095238e-01   7.5412319798e-03
-9.0354090354e-01   8.1007989762e-03
-8.5470085470e-01   8.7133021085e-03
-8.0586080586e-01   9.3833599076e-03
-7.5702075702e-01   1.0115483477e-02
-7.0818070818e-01   1.0913791116e-02
-6.5934065934e-01   1.1781595962e-02
-6.1050061050e-01   1.2720832509e-02
-5.6166056166e-01   1.3731289782e-02
-5.1282051282e-01   1.4809630815e-02
-4.6398046398e-01   1.5948207260e-02
-4.1514041514e-01   1.7133732591e-02
-3.6630036630e-01   1.8345964000e-02
-3.1746031746e-01   1.9556659704e-02
-2.6862026862e-01   2.0729203813e-02
-2.1978021978e-01   2.1819374824e-02
-1.7094017094e-01   2.2777695852e-02
-1.2210012210e-01   2.3553560471e-02
-7.3260073260e-02   2.4100849606e-02
-2.4420024420e-02   2.4384143698e-02
2.4420024420e-02   2.4384143698e-02
7.3260073260e-02   2.4100849606e-02
1.2210012210e-01   2.3553560471e-02
1.7094017094e-01   2.2777695852e-02
2.1978021978e-01   2.1819374824e-02
2.6862026862e-01   2.0729203813e-02
3.1746031746e-01   1.9556659704e-02
3.6630036630e-01   1.8345964000e-02
4.1514041514e-01   1.7133732591e-02
4.6398046398e-01   1.5948207260e-02
5.1282051282e-01   1.4809630815e-02
5.6166056166e-01   1.3731289782e-02
6.1050061050e-01   1.2720832509e-02
6.5934065934e-01   1.1781595962e-02
7.0818070818e-01   1.0913791116e-02
7.5702075702e-01   1.0115483477e-02
8.0586080586e-01   9.3833599076e-03
8.5470085470e-01   8.7133021085e-03
9.0354090354e-01   8.1007989762e-03
9.5238095238e-01   7.5412319798e-03
1.0012210012e+00   7.0300644467e-03
1.0500610501e+00   6.5629604916e-03
1.0989010989e+00   6.1358538763e-03
1.1477411477e+00   5.7449822123e-03
1.1965811966e+00   5.3868978687e-03
1.2454212454e+00   5.0584637754e-03
1.2942612943e+00   4.7568399018e-03
1.3431013431e+00   4.4794644049e-03
1.3919413919e+00   4.2240321542e-03
1.4407814408e+00   3.9884724178e-03
1.4896214896e+00   3.7709268501e-03
1.5384615385e+00   3.5697284745e-03
1.5873015873e+00   3.3833820519e-03
1.6361416361e+00   3.2105460225e-03
1.6849816850e+00   3.0500160768e-03
1.7338217338e+00   2.9007103274e-03
1.7826617827e+00   2.7616560040e-03
1.8315018315e+00   2.6319775668e-03
1.8803418803e+00   2.5108861189e-03
1.9291819292e+00   2.3976699966e-03
1.9780219780e+00   2.2916864191e-03
2.0268620269e+00   2.1923540853e-03
2.0757020757e+00   2.0991466119e-03
2.1245421245e+00   2.0115867204e-03
2.1733821734e+00   1.9292410843e-03
2.2222222222e+00   1.8517157614e-03
2.2710622711e+00   1.7786521416e-03
2.3199023199e+00   1.7097233496e-03
2.3687423687e+00   1.6446310492e-03
2.4175824176e+00   1.5831026010e-03
2.4664224664e+00   1.5248885328e-03
2.5152625153e+00   1.4697602850e-03
2.5641025641e+00   1.4175081992e-03
2.6129426129e+00   1.3679397223e-03
2.6617826618e+00   1.3208778000e-03
2.7106227106e+00   1.2761594392e-03
2.7594627595e+00   1.2336344189e-03
2.8083028083e+00   1.1931641340e-03
2.8571428571e+00   1.1546205558e-03
2.9059829060e+00   1.1178852978e-03
2.9548229548e+00   1.0828487729e-03
3.0036630037e+00   1.0494094353e-03
3.0525030525e+00   1.0174730945e-03
3.1013431013e+00   9.8695229591e-04
3.1501831502e+00   9.5776576061e-04
3.1990231990e+00   9.2983787721e-04
3.2478632479e+00   9.0309824143e-04
3.2967032967e+00   8.7748123782e-04
3.3455433455e+00   8.5292565968e-04
3.3943833944e+00   8.2937436307e-04
3.4432234432e+00   8.0677395170e-04
3.4920634921e+00   7.8507448956e-04
3.5409035409e+00   7.6422923860e-04
3.5897435897e+00   7.4419441897e-04
3.6385836386e+00   7.2492898976e-04
3.6874236874e+00   7.0639444823e-04
3.7362637363e+00   6.8855464575e-04
3.7851037851e+00   6.7137561905e-04
3.8339438339e+00   6.5482543515e-04
3.8827838828e+00   6.3887404891e-04
3.9316239316e+00   6.2349317195e-04
3.9804639805e+00   6.0865615198e-04
4.0293040293e+00   5.9433786162e-04
4.0781440781e+00   5.8051459574e-04
4.1269841270e+00   5.6716397688e-04
4.1758241758e+00   5.5426486767e-04
4.2246642247e+00   5.4179729003e-04
4.2735042735e+00   5.2974235023e-04
4.3223443223e+00   5.1808216965e-04
4.3711843712e+00   5.0679982048e-04
4.4200244200e+00   4.9587926617e-04
4.4688644689e+00   4.8530530608e-04
4.5177045177e+00   4.7506352413e-04
4.5665445665e+00   4.6514024105e-04
4.6153846154e+00   4.5552246991e-04
4.6642246642e+00   4.4619787482e-04
4.7130647131e+00   4.3715473240e-04
4.7619047619e+00   4.2838189584e-04
4.8107448107e+00   4.1986876145e-04
4.8595848596e+00   4.1160523742e-04
4.9084249084e+00   4.0358171455e-04
4.9572649573e+00   3.9578903909e-04
5.0061050061e+00   3.8821848711e-04
5.0549450549e+00   3.8086174075e-04
5.1037851038e+00   3.7371086579e-04
5.1526251526e+00   3.6675829075e-04
5.2014652015e+00   3.5999678731e-04
5.2503052503e+00   3.5341945185e-04
5.2991452991e+00   3.4701968824e-04
5.3479853480e+00   3.4079119161e-04
5.3968253968e+00   3.3472793313e-04
5.4456654457e+00   3.2882414569e-04
5.4945054945e+00   3.2307431047e-04
5.5433455433e+00   3.1747314429e-04
5.5921855922e+00   3.1201558763e-04
5.6410256410e+00   3.0669679350e-04
5.6898656899e+00   3.0151211680e-04
5.7387057387e+00   2.9645710438e-04
5.7875457875e+00   2.9152748562e-04
5.8363858364e+00   2.8671916361e-04
5.8852258852e+00   2.8202820672e-04
5.9340659341e+00   2.7745084071e-04
5.9829059829e+00   2.7298344128e-04
6.0317460317e+00   2.6862252698e-04
6.0805860806e+00   2.6436475254e-04
6.1294261294e+00   2.6020690258e-04
6.1782661783e+00   2.5614588556e-04
6.2271062271e+00   2.5217872819e-04
6.2759462759e+00   2.4830257002e-04
6.3247863248e+00   2.4451465838e-04
6.3736263736e+00   2.4081234355e-04
6.4224664225e+00   2.3719307419e-04
6.4713064713e+00   2.3365439301e-04
6.5201465201e+00   2.3019393263e-04
6.5689865690e+00   2.2680941171e-04
6.6178266178e+00   2.2349863121e-04
6.6666666667e+00   2.2025947089e-04
6.7155067155e+00   2.1708988591e-04
6.7643467643e+00   2.1398790370e-04
6.8131868132e+00   2.1095162088e-04
6.8620268620e+00   2.0797920041e-04
6.9108669109e+00   2.0506886881e-04
6.9597069597e+00   2.0221891359e-04
7.0085470085e+00   1.9942768071e-04
7.0573870574e+00   1.9669357225e-04
7.1062271062e+00   1.9401504410e-04
7.1550671551e+00   1.9139060387e-04
7.2039072039e+00   1.8881880878e-04
7.2527472527e+00   1.8629826369e-04
7.3015873016e+00   1.8382761929e-04
7.3504273504e+00   1.8140557026e-04
7.3992673993e+00   1.7903085356e-04
7.4481074481e+00   1.7670224684e-04
7.4969474969e+00   1.7441856687e-04
7.5457875458e+00   1.7217866800e-04
7.5946275946e+00   1.6998144083e-04
7.6434676435e+00   1.6782581075e-04
7.6923076923e+00   1.6571073672e-04
7.7411477411e+00   1.6363520999e-04
7.7899877900e+00   1.6159825289e-04
7.8388278388e+00   1.5959891772e-04
7.8876678877e+00   1.5763628565e-04
7.9365079365e+00   1.5570946566e-04
7.9853479853e+00   1.5381759356e-04
8.0341880342e+00   1.5195983101e-04
8.0830280830e+00   1.5013536460e-04
8.1318681319e+00   1.4834340498e-04
8.1807081807e+00   1.4658318600e-04
8.2295482295e+00   1.4485396392e-04
8.2783882784e+00   1.4315501659e-04
8.3272283272e+00   1.4148564275e-04
8.3760683761e+00   1.3984516127e-04
8.4249084249e+00   1.3823291049e-04
8.4737484737e+00   1.3664824754e-04
8.5225885226e+00   1.3509054772e-04
8.5714285714e+00   1.3355920388e-04
8.6202686203e+00   1.3205362582e-04
8.6691086691e+00   1.3057323975e-04
8.7179487179e+00   1.2911748773e-04
8.7667887668e+00   1.2768582716e-04
8.8156288156e+00   1.2627773027e-04
8.8644688645e+00   1.2489268363e-04
8.9133089133e+00   1.2353018770e-04
8.9621489621e+00   1.2218975639e-04
9.0109890110e+00   1.2087091659e-04
9.0598290598e+00   1.1957320779e-04
9.1086691087e+00   1.1829618169e-04
9.1575091575e+00   1.1703940177e-04
9.2063492063e+00   1.1580244296e-04
9.2551892552e+00   1.1458489129e-04
9.3040293040e+00   1.1338634348e-04
9.3528693529e+00   1.1220640669e-04
9.4017094017e+00   1.1104469814e-04
9.4505494505e+00   1.0990084485e-04
9.4993894994e+00   1.0877448330e-04
9.5482295482e+00   1.0766525917e-04
9.5970695971e+00   1.0657282703e-04
9.6459096459e+00   1.0549685014e-04
9.6947496947e+00   1.0443700009e-04
9.7435897436e+00   1.0339295667e-04
9.7924297924e+00   1.0236440752e-04
9.8412698413e+00   1.0135104797e-04
9.8901098901e+00   1.0035258080e-04
9.9389499389e+00   9.9368715981e-05
9.9877899878e+00   9.8399170532e-05
1.0036630037e+01   9.7443668272e-05
1.0085470085e+01   9.6501939638e-05
1.0134310134e+01   9.5573721498e-05
1.0183150183e+01   9.4658756961e-05
1.0231990232e+01   9.3756795210e-05
1.0280830281e+01   9.2867591323e-05
1.0329670330e+01   9.1990906110e-05
1.0378510379e+01   9.1126505954e-05
1.0427350427e+01   9.0274162656e-05
1.0476190476e+01   8.9433653283e-05
1.0525030525e+01   8.8604760025e-05
1.0573870574e+01   8.7787270055e-05
1.0622710623e+01   8.6980975391e-05
1.0671550672e+01   8.6185672767e-05
1.0720390720e+01   8.5401163501e-05
1.0769230769e+01   8.4627253376e-05
1.0818070818e+01   8.3863752521e-05
1.0866910867e+01   8.3110475289e-05
1.0915750916e+01   8.2367240151e-05
1.0964590965e+01   8.1633869583e-05
1.1013431013e+01   8.0910189964e-05
1.1062271062e+01   8.0196031471e-05
1.1111111111e+01   7.9491227979e-05
1.1159951160e+01   7.8795616969e-05
1.1208791209e+01   7.8109039429e-05
1.1257631258e+01   7.7431339771e-05
1.1306471306e+01   7.6762365735e-05
1.1355311355e+01   7.6101968309e-05
1.1404151404e+01   7.5450001645e-05
1.1452991453e+01   7.4806322980e-05
1.1501831502e+01   7.4170792554e-05
1.1550671551e+01   7.3543273541e-05
1.1599511600e+01   7.2923631970e-05
1.1648351648e+01   7.2311736656e-05
1.1697191697e+01   7.1707459132e-05
1.1746031746e+01   7.1110673579e-05
1.1794871795e+01   7.0521256763e-05
1.1843711844e+01   6.9939087972e-05
1.1892551893e+01   6.9364048950e-05
1.1941391941e+01   6.8796023845e-05
1.1990231990e+01   6.8234899143e-05
1.2039072039e+01   6.7680563617e-05
1.2087912088e+01   6.7132908269e-05
1.2136752137e+01   6.6591826277e-05
1.2185592186e+01   6.6057212944e-05
1.2234432234e+01   6.5528965649e-05
1.2283272283e+01   6.5006983794e-05
1.2332112332e+01   6.4491168760e-05
1.2380952381e+01   6.3981423857e-05
1.2429792430e+01   6.3477654283e-05
1.2478632479e+01   6.2979767076e-05
1.2527472527e+01   6.2487671075e-05
1.2576312576e+01   6.2001276876e-05
1.2625152625e+01   6.1520496792e-05
1.2673992674e+01   6.1045244812e-05
1.2722832723e+01   6.0575436568e-05
1.2771672772e+01   6.0110989291e-05
1.2820512821e+01   5.9651821779e-05
1.2869352869e+01   5.9197854360e-05
1.2918192918e+01   5.8749008858e-05
1.2967032967e+01   5.8305208560e-05
1.3015873016e+01   5.7866378182e-05
1.3064713065e+01   5.7432443837e-05
1.3113553114e+01   5.7003333007e-05
1.3162393162e+01   5.6578974508e-05
1.3211233211e+01   5.6159298466e-05
1.3260073260e+01   5.5744236283e-05
1.3308913309e+01   5.5333720613e-05
1.3357753358e+01   5.4927685333e-05
1.3406593407e+01   5.4526065517e-05
1.3455433455e+01   5.4128797410e-05
1.3504273504e+01   5.3735818401e-05
1.3553113553e+01   5.3347067003e-05
1.3601953602e+01   5.2962482823e-05
1.3650793651e+01   5.2582006545e-05
1.3699633700e+01   5.2205579900e-05
1.3748473748e+01   5.1833145652e-05
1.3797313797e+01   5.1464647568e-05
1.3846153846e+01   5.1100030403e-05
1.3894993895e+01   5.0739239877e-05
1.3943833944e+01   5.0382222654e-05
1.3992673993e+01   5.0028926325e-05
1.4041514042e+01   4.9679299384e-05
1.4090354090e+01   4.9333291216e-05
1.4139194139e+01   4.8990852073e-05
1.4188034188e+01   4.8651933060e-05
1.4236874237e+01   4.8316486113e-05
1.4285714286e+01   4.7984463988e-05
1.4334554335e+01   4.7655820240e-05
1.4383394383e+01   4.7330509207e-05
1.4432234432e+01   4.7008485997e-05
1.4481074481e+01   4.6689706471e-05
1.4529914530e+01   4.6374127226e-05
1.4578754579e+01   4.6061705583e-05
1.4627594628e+01   4.5752399571e-05
1.4676434676e+01   4.5446167916e-05
1.4725274725e+01   4.5142970021e-05
1.4774114774e+01   4.4842765959e-05
1.4822954823e+01   4.4545516456e-05
1.4871794872e+01   4.4251182882e-05
1.4920634921e+01   4.3959727231e-05
1.4969474969e+01   4.3671112119e-05
1.5018315018e+01   4.3385300763e-05
1.5067155067e+01   4.3102256975e-05
1.5115995116e+01   4.2821945148e-05
1.5164835165e+01   4.2544330245e-05
1.5213675214e+01   4.2269377790e-05
1.5262515263e+01   4.1997053853e-05
1.5311355311e+01   4.1727325046e-05
1.5360195360e+01   4.1460158506e-05
1.5409035409e+01   4.1195521889e-05
1.5457875458e+01   4.0933383362e-05
1.5506715507e+01   4.0673711587e-05
1.5555555556e+01   4.0416475718e-05
1.5604395604e+01   4.0161645388e-05
1.5653235653e+01   3.9909190703e-05
1.5702075702e+01   3.9659082229e-05
1.5750915751e+01   3.9411290990e-05
1.5799755800e+01   3.9165788452e-05
1.5848595849e+01   3.8922546521e-05
1.5897435897e+01   3.8681537531e-05
1.5946275946e+01   3.8442734239e-05
1.5995115995e+01   3.8206109814e-05
1.6043956044e+01   3.7971637834e-05
1.6092796093e+01   3.7739292273e-05
1.6141636142e+01   3.7509047501e-05
1.6190476190e+01   3.7280878269e-05
1.6239316239e+01   3.7054759708e-05
1.6288156288e+01   3.6830667320e-05
1.6336996337e+01   3.6608576970e-05
1.6385836386e+01   3.6388464882e-05
1.6434676435e+01   3.6170307633e-05
1.6483516484e+01   3.5954082144e-05
1.6532356532e+01   3.5739765675e-05
1.6581196581e+01   3.5527335821e-05
1.6630036630e+01   3.5316770503e-05
1.6678876679e+01   3.5108047965e-05
1.6727716728e+01   3.4901146767e-05
1.6776556777e+01   3.4696045778e-05
1.6825396825e+01   3.4492724175e-05
1.6874236874e+01   3.4291161434e-05
1.6923076923e+01   3.4091337325e-05
1.6971916972e+01   3.3893231909e-05
1.7020757021e+01   3.3696825532e-05
1.7069597070e+01   3.3502098818e-05
1.7118437118e+01   3.3309032669e-05
1.7167277167e+01   3.3117608256e-05
1.7216117216e+01   3.2927807015e-05
1.7264957265e+01   3.2739610646e-05
1.7313797314e+01   3.2553001105e-05
1.7362637363e+01   3.2367960598e-05
1.7411477411e+01   3.2184471585e-05
1.7460317460e+01   3.2002516765e-05
1.7509157509e+01   3.1822079081e-05
1.7557997558e+01   3.1643141711e-05
1.7606837607e+01   3.1465688064e-05
1.7655677656e+01   3.1289701780e-05
1.7704517705e+01   3.1115166722e-05
1.7753357753e+01   3.0942066974e-05
1.7802197802e+01   3.0770386840e-05
1.7851037851e+01   3.0600110835e-05
1.7899877900e+01   3.0431223685e-05
1.7948717949e+01   3.0263710324e-05
1.7997557998e+01   3.0097555888e-05
1.8046398046e+01   2.9932745717e-05
1.8095238095e+01   2.9769265343e-05
1.8144078144e+01   2.9607100495e-05
1.8192918193e+01   2.9446237093e-05
1.8241758242e+01   2.9286661244e-05
1.8290598291e+01   2.9128359240e-05
1.8339438339e+01   2.8971317554e-05
1.8388278388e+01   2.8815522840e-05
1.8437118437e+01   2.8660961925e-05
1.8485958486e+01   2.8507621813e-05
1.8534798535e+01   2.8355489675e-05
1.8583638584e+01   2.8204552853e-05
1.8632478632e+01   2.8054798853e-05
1.8681318681e+01   2.7906215343e-05
1.8730158730e+01   2.7758790153e-05
1.8778998779e+01   2.7612511269e-05
1.8827838828e+01   2.7467366833e-05
1.8876678877e+01   2.7323345139e-05
1.8925518926e+01   2.7180434634e-05
1.8974358974e+01   2.7038623910e-05
1.9023199023e+01   2.6897901706e-05
1.9072039072e+01   2.6758256907e-05
1.9120879121e+01   2.6619678535e-05
1.9169719170e+01   2.6482155756e-05
1.9218559219e+01   2.6345677870e-05
1.9267399267e+01   2.6210234313e-05
1.9316239316e+01   2.6075814655e-05
1.9365079365e+01   2.5942408595e-05
1.9413919414e+01   2.5810005964e-05
1.9462759463e+01   2.5678596718e-05
1.9511599512e+01   2.5548170939e-05
1.9560439560e+01   2.5418718832e-05
1.9609279609e+01   2.5290230724e-05
1.9658119658e+01   2.5162697062e-05
1.9706959707e+01   2.5036108409e-05
1.9755799756e+01   2.4910455448e-05
1.9804639805e+01   2.4785728974e-05
1.9853479853e+01   2.4661919894e-05
1.9902319902e+01   2.4539019228e-05
1.9951159951e+01   2.4417018106e-05
2.0000000000e+01   2.4295907763e-05
2.0048840049e+01   2.4175679544e-05
2.0097680098e+01   2.4056324896e-05
2.0146520147e+01   2.3937835372e-05
2.0195360195e+01   2.3820202623e-05
2.0244200244e+01   2.3703418405e-05
2.0293040293e+01   2.3587474569e-05
2.0341880342e+01   2.3472363067e-05
2.0390720391e+01   2.3358075943e-05
2.0439560440e+01   2.3244605339e-05
2.0488400488e+01   2.3131943489e-05
2.0537240537e+01   2.3020082719e-05
2.0586080586e+01   2.2909015447e-05
2.0634920635e+01   2.2798734180e-05
2.0683760684e+01   2.2689231511e-05
2.0732600733e+01   2.2580500123e-05
2.0781440781e+01   2.2472532783e-05
2.0830280830e+01   2.2365322343e-05
2.0879120879e+01   2.2258861738e-05
2.0927960928e+01   2.2153143987e-05
2.0976800977e+01   2.2048162186e-05
2.1025641026e+01   2.1943909516e-05
2.1074481074e+01   2.1840379233e-05
2.1123321123e+01   2.1737564671e-05
2.1172161172e+01   2.1635459244e-05
2.1221001221e+01   2.1534056437e-05
2.1269841270e+01   2.1433349814e-05
2.1318681319e+01   2.1333333008e-05
2.1367521368e+01   2.1233999728e-05
2.1416361416e+01   2.1135343753e-05
2.1465201465e+01   2.1037358934e-05
2.1514041514e+01   2.0940039189e-05
2.1562881563e+01   2.0843378507e-05
2.1611721612e+01   2.0747370943e-05
2.1660561661e+01   2.0652010622e-05
2.1709401709e+01   2.0557291730e-05
2.1758241758e+01   2.0463208522e-05
2.1807081807e+01   2.0369755317e-05
2.1855921856e+01   2.0276926494e-05
2.1904761905e+01   2.0184716497e-05
2.1953601954e+01   2.0093119833e-05
2.2002442002e+01   2.0002131066e-05
2.2051282051e+01   1.9911744823e-05
2.2100122100e+01   1.9821955790e-05
2.2148962149e+01   1.9732758710e-05
2.2197802198e+01   1.9644148384e-05
2.2246642247e+01   1.9556119671e-05
2.2295482295e+01   1.9468667485e-05
2.2344322344e+01   1.9381786796e-05
2.2393162393e+01   1.9295472629e-05
2.2442002442e+01   1.9209720063e-05
2.2490842491e+01   1.9124524228e-05
2.2539682540e+01   1.9039880311e-05
2.2588522589e+01   1.8955783546e-05
2.2637362637e+01   1.8872229222e-05
2.2686202686e+01   1.8789212677e-05
2.2735042735e+01   1.8706729299e-05
2.2783882784e+01   1.8624774526e-05
2.2832722833e+01   1.8543343844e-05
2.2881562882e+01   1.8462432786e-05
2.2930402930e+01   1.8382036936e-05
2.2979242979e+01   1.8302151920e-05
2.3028083028e+01   1.8222773414e-05
2.3076923077e+01   1.8143897138e-05
2.3125763126e+01   1.8065518857e-05
2.3174603175e+01   1.7987634382e-05
2.3223443223e+01   1.7910239567e-05
2.3272283272e+01   1.7833330307e-05
2.3321123321e+01   1.7756902545e-05
2.3369963370e+01   1.7680952261e-05
2.3418803419e+01   1.7605475481e-05
2.3467643468e+01   1.7530468269e-05
2.3516483516e+01   1.7455926733e-05
2.3565323565e+01   1.7381847018e-05
2.3614163614e+01   1.7308225310e-05
2.3663003663e+01   1.7235057836e-05
2.3711843712e+01   1.7162340859e-05
2.3760683761e+01   1.7090070682e-05
2.3809523810e+01   1.7018243646e-05
2.3858363858e+01   1.6946856128e-05
2.3907203907e+01   1.6875904542e-05
2.3956043956e+01   1.6805385341e-05
2.4004884005e+01   1.6735295010e-05
2.4053724054e+01   1.6665630073e-05
2.4102564103e+01   1.6596387088e-05
2.4151404151e+01   1.6527562647e-05
2.4200244200e+01   1.6459153376e-05
2.4249084249e+01   1.6391155938e-05
2.4297924298e+01   1.6323567026e-05
2.4346764347e+01   1.6256383367e-05
2.4395604396e+01   1.6189601721e-05
2.4444444444e+01   1.6123218881e-05
2.4493284493e+01   1.6057231671e-05
2.4542124542e+01   1.5991636946e-05
2.4590964591e+01   1.5926431593e-05
2.4639804640e+01   1.5861612531e-05
2.4688644689e+01   1.5797176706e-05
2.4737484737e+01   1.5733121098e-05
2.4786324786e+01   1.5669442714e-05
2.4835164835e+01   1.5606138590e-05
2.4884004884e+01   1.5543205795e-05
2.4932844933e+01   1.5480641421e-05
2.4981684982e+01   1.5418442592e-05
2.5030525031e+01   1.5356606461e-05
2.5079365079e+01   1.5295130204e-05
2.5128205128e+01   1.5234011029e-05
2.5177045177e+01   1.5173246169e-05
2.5225885226e+01   1.5112832884e-05
2.5274725275e+01   1.5052768460e-05
2.5323565324e+01   1.4993050209e-05
2.5372405372e+01   1.4933675471e-05
2.5421245421e+01   1.4874641608e-05
2.5470085470e+01   1.4815946010e-05
2.5518925519e+01   1.4757586091e-05
2.5567765568e+01   1.4699559289e-05
2.5616605617e+01   1.4641863067e-05
2.5665445665e+01   1.4584494912e-05
2.5714285714e+01   1.4527452336e-05
2.5763125763e+01   1.4470732872e-05
2.5811965812e+01   1.4414334079e-05
2.5860805861e+01   1.4358253536e-05
2.5909645910e+01   1.4302488848e-05
2.5958485958e+01   1.4247037639e-05
2.6007326007e+01   1.4191897560e-05
2.6056166056e+01   1.4137066279e-05
2.6105006105e+01   1.4082541488e-05
2.6153846154e+01   1.4028320901e-05
2.6202686203e+01   1.3974402253e-05
2.6251526252e+01   1.3920783299e-05
2.6300366300e+01   1.3867461816e-05
2.6349206349e+01   1.3814435601e-05
2.6398046398e+01   1.3761702471e-05
2.6446886447e+01   1.3709260264e-05
2.6495726496e+01   1.3657106836e-05
2.6544566545e+01   1.3605240066e-05
2.6593406593e+01   1.3553657850e-05
2.6642246642e+01   1.3502358103e-05
2.6691086691e+01   1.3451338761e-05
2.6739926740e+01   1.3400597776e-05
2.6788766789e+01   1.3350133121e-05
2.6837606838e+01   1.3299942787e-05
2.6886446886e+01   1.3250024782e-05
2.6935286935e+01   1.3200377134e-05
2.6984126984e+01   1.3150997887e-05
2.7032967033e+01   1.3101885103e-05
2.7081807082e+01   1.3053036862e-05
2.7130647131e+01   1.3004451262e-05
2.7179487179e+01   1.2956126415e-05
2.7228327228e+01   1.2908060453e-05
2.7277167277e+01   1.2860251525e-05
2.7326007326e+01   1.2812697792e-05
2.7374847375e+01   1.2765397437e-05
2.7423687424e+01   1.2718348656e-05
2.7472527473e+01   1.2671549662e-05
2.7521367521e+01   1.2624998683e-05
2.7570207570e+01   1.2578693963e-05
2.7619047619e+01   1.2532633761e-05
2.7667887668e+01   1.2486816354e-05
2.7716727717e+01   1.2441240030e-05
2.7765567766e+01   1.2395903096e-05
2.7814407814e+01   1.2350803870e-05
2.7863247863e+01   1.2305940688e-05
2.7912087912e+01   1.2261311899e-05
2.7960927961e+01   1.2216915867e-05
2.8009768010e+01   1.2172750969e-05
2.8058608059e+01   1.2128815597e-05
2.8107448107e+01   1.2085108158e-05
2.8156288156e+01   1.2041627070e-05
2.8205128205e+01   1.1998370768e-05
2.8253968254e+01   1.1955337697e-05
2.8302808303e+01   1.1912526319e-05
2.8351648352e+01   1.1869935107e-05
2.8400488400e+01   1.1827562547e-05
2.8449328449e+01   1.1785407138e-05
2.8498168498e+01   1.1743467394e-05
2.8547008547e+01   1.1701741839e-05
2.8595848596e+01   1.1660229011e-05
2.8644688645e+01   1.1618927460e-05
2.8693528694e+01   1.1577835748e-05
2.8742368742e+01   1.1536952450e-05
2.8791208791e+01   1.1496276152e-05
2.8840048840e+01   1.1455805454e-05
2.8888888889e+01   1.1415538965e-05
2.8937728938e+01   1.1375475307e-05
2.8986568987e+01   1.1335613115e-05
2.9035409035e+01   1.1295951033e-05
2.9084249084e+01   1.1256487719e-05
2.9133089133e+01   1.1217221839e-05
2.9181929182e+01   1.1178152072e-05
2.9230769231e+01   1.1139277110e-05
2.9279609280e+01   1.1100595651e-05
2.9328449328e+01   1.1062106409e-05
2.9377289377e+01   1.1023808104e-05
2.9426129426e+01   1.0985699471e-05
2.9474969475e+01   1.0947779252e-05
2.9523809524e+01   1.0910046202e-05
2.9572649573e+01   1.0872499084e-05
2.9621489621e+01   1.0835136672e-05
2.9670329670e+01   1.0797957750e-05
2.9719169719e+01   1.0760961114e-05
2.9768009768e+01   1.0724145566e-05
2.9816849817e+01   1.0687509921e-05
2.9865689866e+01   1.0651053002e-05
2.9914529915e+01   1.0614773643e-05
2.9963369963e+01   1.0578670686e-05
3.0012210012e+01   1.0542742983e-05
3.0061050061e+01   1.0506989395e-05
3.0109890110e+01   1.0471408793e-05
3.0158730159e+01   1.0436000057e-05
3.0207570208e+01   1.0400762075e-05
3.0256410256e+01   1.0365693745e-05
3.0305250305e+01   1.0330793974e-05
3.0354090354e+01   1.0296061677e-05
3.0402930403e+01   1.0261495777e-05
3.0451770452e+01   1.0227095208e-05
3.0500610501e+01   1.0192858910e-05
3.0549450549e+01   1.0158785833e-05
3.0598290598e+01   1.0124874936e-05
3.0647130647e+01   1.0091125184e-05
3.0695970696e+01   1.0057535552e-05
3.0744810745e+01   1.0024105023e-05
3.0793650794e+01   9.9908325864e-06
3.0842490842e+01   9.9577172417e-06
3.0891330891e+01   9.9247579953e-06
3.0940170940e+01   9.8919538616e-06
3.0989010989e+01   9.8593038625e-06
3.1037851038e+01   9.8268070280e-06
3.1086691087e+01   9.7944623954e-06
3.1135531136e+01   9.7622690096e-06
3.1184371184e+01   9.7302259231e-06
3.1233211233e+01   9.6983321955e-06
3.1282051282e+01   9.6665868941e-06
3.1330891331e+01   9.6349890932e-06
3.1379731380e+01   9.6035378743e-06
3.1428571429e+01   9.5722323262e-06
3.1477411477e+01   9.5410715446e-06
3.1526251526e+01   9.5100546323e-06
3.1575091575e+01   9.4791806988e-06
3.1623931624e+01   9.4484488607e-06
3.1672771673e+01   9.4178582414e-06
3.1721611722e+01   9.3874079709e-06
3.1770451770e+01   9.3570971859e-06
3.1819291819e+01   9.3269250299e-06
3.1868131868e+01   9.2968906526e-06
3.1916971917e+01   9.2669932105e-06
3.1965811966e+01   9.2372318663e-06
3.2014652015e+01   9.2076057895e-06
3.2063492063e+01   9.1781141553e-06
3.2112332112e+01   9.1487561456e-06
3.2161172161e+01   9.1195309484e-06
3.2210012210e+01   9.0904377578e-06
3.2258852259e+01   9.0614757741e-06
3.2307692308e+01   9.0326442034e-06
3.2356532357e+01   9.0039422579e-06
3.2405372405e+01   8.9753691559e-06
3.2454212454e+01   8.9469241214e-06
3.2503052503e+01   8.9186063842e-06
3.2551892552e+01   8.8904151799e-06
3.2600732601e+01   8.8623497498e-06
3.2649572650e+01   8.8344093410e-06
3.2698412698e+01   8.8065932060e-06
3.2747252747e+01   8.7789006031e-06
3.2796092796e+01   8.7513307958e-06
